541 256
n -0.0017493629 -0.07003859 0.049031224 0.07731397 0.06224819 -0.009322497 0.07529634 0.003708512 -0.04764865 0.017751914 0.005768714 -0.019964162 -0.020183297 -0.088951565 0.030131008 0.032220077 0.0028794685 0.024534268 -0.09978047 0.104168095 0.04042895 0.015424279 0.0012495404 -0.05480263 -0.08068864 0.03395961 0.021129541 0.03500627 -0.041269504 -0.048806693 0.019905493 0.009665507 -0.020766577 -0.032248784 -0.04057064 0.09585249 0.079652846 -0.035997167 0.0533096 -0.07576335 -0.093644865 0.08728284 -0.042550266 -0.027151173 0.111882545 -0.0011281053 -0.011071554 -0.023689022 0.027055858 0.053595815 -0.012119057 0.008338349 0.025640156 0.05206665 -0.059881292 -0.027378889 0.07022939 -0.09763583 0.004955659 0.081963725 0.006903068 0.023352783 -0.006589351 0.016561816 0.036995295 -0.034119014 0.0004446237 0.08603929 -0.032794688 -0.040503718 0.056327187 0.015320524 -0.054207932 -0.082515895 0.00519902 -0.0033261918 -0.03653823 -0.025654934 0.01189568 0.11418047 -0.010861553 -0.03670835 0.045203075 0.13082258 -0.024734115 0.07545627 0.090994656 -0.11668125 -0.00071995903 -0.0017824355 0.012027672 -0.030985912 0.047460172 -0.07225358 0.083899386 0.10513853 -0.115968496 -0.07123218 -0.008481009 -0.048866395 -0.13036256 0.0021883247 0.0559177 0.056633353 0.028308215 -0.012580885 0.012143416 0.007934633 0.048603844 -0.085393704 0.057599597 -0.08424401 0.029647104 0.043028377 -0.011376796 -0.010396627 0.06443449 0.026503045 -0.0003036407 0.009275177 -0.021716978 -0.080358274 0.06290741 -0.035424702 -0.021034343 0.00015488581 0.06905283 0.030492987 0.04310268 -0.00325 0.057514433 -0.007939207 0.028872112 -0.065647274 -0.007970555 -0.0065514087 0.037983548 0.056504905 0.13537844 -0.010379488 -0.039259385 -0.026334701 0.06419745 0.041285653 -0.14247465 -0.018200636 -0.01628414 -0.02434225 0.10729763 0.07949906 -0.042267032 -0.07911274 -0.051903877 0.04489333 -0.13571118 0.07300052 0.07942569 -0.00844704 -0.08118436 0.031244095 0.021467533 0.028306633 0.04288765 -0.018313803 0.021448787 0.024526734 -0.019174797 0.0747317 0.08947095 0.023017993 -0.014420149 -0.02554222 0.024957946 0.017854908 -0.099703506 -0.016388983 -0.072461605 0.018863136 0.08456128 0.026517479 -0.03827132 0.026649 0.034805037 -0.0065827444 0.07757326 0.034339257 -0.1275524 -0.029929984 -0.068560876 -0.007881623 0.08471293 -0.026840953 0.09972517 -0.043767665 0.074138686 -0.049993675 0.039723292 -0.10310012 -0.048799362 -0.03653166 -0.11553097 -0.02250929 0.018532226 -0.07081321 -0.014802415 0.01213466 -0.120866746 -0.05968787 -0.078212366 0.0070446874 0.015262301 0.04843722 0.115489036 0.074189804 0.040719178 -0.023847468 0.080949284 0.102265015 -0.08796742 0.0085009 -0.01842326 0.020441212 0.036079563 -0.020943223 0.052125487 -0.081918105 -0.013733366 0.037671383 -0.035082195 0.026324326 -0.051845267 0.0070872502 -0.012950146 -0.031600986 -0.059364174 0.064490706 0.013805895 0.00067995524 0.009166839 -0.018379474 -0.037769057 0.02617338 -0.021195764 0.046535615 -0.016864376 0.022739612 0.04412669 0.00071930897 -0.059211645 -0.053830404 -0.070208065 0.046695802 -0.059134196 -0.026275404 -0.12697767 0.0032446359
v -0.0019909872 -0.06222881 0.0381046 0.062326163 0.059251517 -0.00693311 0.06608073 0.00046851052 -0.042268533 0.02008244 0.0052025826 -0.014445813 -0.018504623 -0.076873094 0.029632539 0.030669214 0.0032219354 0.021332966 -0.08457847 0.096557975 0.036192443 0.013340027 -0.0020965424 -0.047710128 -0.07166956 0.027132645 0.015097151 0.028122518 -0.032400683 -0.042681318 0.017760132 0.0058353967 -0.018211119 -0.024928393 -0.035476904 0.08603835 0.06963895 -0.030776247 0.049270473 -0.061490305 -0.07530142 0.07434459 -0.030318527 -0.024783278 0.09354143 0.002753118 -0.0067771384 -0.024444735 0.023389941 0.041290347 -0.0063791447 0.008212877 0.025830043 0.042065535 -0.050995477 -0.020262461 0.061127562 -0.084694006 0.0089820335 0.06621804 0.010075144 0.017614264 -0.007497744 0.020053625 0.033378243 -0.03149108 0.004500701 0.07639925 -0.03125546 -0.03475299 0.049626205 0.011727611 -0.045646764 -0.06758991 0.0027840617 -0.004999185 -0.037481755 -0.0224592 0.012323177 0.10506675 -0.0051859394 -0.035441328 0.03335631 0.11453027 -0.017687926 0.066430025 0.07875776 -0.10041164 0.0032237286 -0.0030055202 0.010879707 -0.027826117 0.037810083 -0.06358485 0.070884556 0.08870537 -0.10068827 -0.06278523 -0.0102217505 -0.044587005 -0.108342625 0.004395071 0.04852367 0.045052458 0.022200884 -0.0068219425 0.013178196 0.0040691528 0.04486876 -0.073941715 0.049602933 -0.06648466 0.026598748 0.030997489 -0.008671153 -0.013121034 0.052480705 0.024203725 -0.00017296501 0.0063550333 -0.021723267 -0.065188274 0.04886915 -0.026442641 -0.022525484 0.001615093 0.06339993 0.025832472 0.037081264 -0.006566852 0.049759537 -0.0033516255 0.024223229 -0.058845654 -0.011254758 -0.006655901 0.030105352 0.045542013 0.117350824 -0.012499118 -0.034313995 -0.023264272 0.05768704 0.033457354 -0.12472942 -0.018072229 -0.01921759 -0.021577217 0.09367814 0.07050661 -0.038917407 -0.06433542 -0.046011798 0.040387116 -0.1194742 0.06223691 0.062365968 -0.0087041 -0.07182159 0.022389445 0.020079147 0.025445612 0.0410714 -0.015897127 0.017526226 0.016102528 -0.016382199 0.07017271 0.07392619 0.017784728 -0.010463575 -0.016776234 0.016724626 0.013228838 -0.08338425 -0.011092002 -0.059709188 0.01329277 0.07464084 0.021570051 -0.030680472 0.0229917 0.02781029 -0.0024718363 0.06748642 0.027977264 -0.11418218 -0.018558256 -0.058037657 -0.00772541 0.07428719 -0.022429086 0.08720394 -0.03760286 0.06656557 -0.042386897 0.036554426 -0.08991204 -0.039491918 -0.035938866 -0.10373457 -0.02411215 0.018094813 -0.06357479 -0.013648276 0.0057671196 -0.10189071 -0.052480135 -0.065855555 0.0034446414 0.01871317 0.046687737 0.09476146 0.06759456 0.030451948 -0.016091758 0.06636164 0.08643571 -0.07220162 0.012182322 -0.014409767 0.02261345 0.035308573 -0.018875206 0.038898837 -0.07174514 -0.013871347 0.029360326 -0.030552613 0.01776937 -0.043302942 0.00945434 -0.012308419 -0.02848918 -0.04708338 0.0543828 0.013917828 -0.0022226877 0.008687217 -0.019000603 -0.028123256 0.023526706 -0.017769348 0.038830366 -0.0193406 0.018475652 0.037271705 -0.0025528888 -0.053410947 -0.04714112 -0.059529543 0.042318605 -0.05068816 -0.0227921 -0.108079895 0.0044022263
u -0.0038260138 -0.04898793 0.029111397 0.044082757 0.04000131 -0.0064990916 0.0454963 -0.00060218986 -0.032720435 0.011815478 0.0049044415 -0.0093429005 -0.014460124 -0.060506262 0.02202901 0.017551716 0.0018635639 0.018011801 -0.059629433 0.06559335 0.022484763 0.0055017415 -0.0003699724 -0.031420596 -0.050782524 0.024646802 0.015622965 0.019852648 -0.020598749 -0.033311814 0.012144186 0.0057777446 -0.016064653 -0.020054474 -0.025814857 0.06558973 0.048817698 -0.022277612 0.03567208 -0.050635718 -0.054863717 0.058496445 -0.02901154 -0.015445427 0.07591025 -0.0036651772 -0.0075715957 -0.020966282 0.019322256 0.03174614 -0.0019647456 0.0010527187 0.018792903 0.034309473 -0.04048608 -0.015730465 0.04117383 -0.06515074 0.004954534 0.05273019 0.007960811 0.0171367 -0.0037127114 0.016304273 0.02041473 -0.021184934 0.00071777275 0.055573903 -0.017624188 -0.028885845 0.037161317 0.0039357883 -0.03465852 -0.05374247 5.2132604e-05 0.001033798 -0.026517099 -0.015091426 0.011741538 0.079515144 -0.009757473 -0.025751213 0.031466607 0.08454588 -0.015122268 0.04409726 0.057835974 -0.07665031 0.0036602586 -0.0047008186 0.0065867947 -0.019541109 0.029376678 -0.046257306 0.05430913 0.065910086 -0.07317409 -0.04455492 -0.0035410738 -0.0325527 -0.08163669 0.004299013 0.032692347 0.034225125 0.02003148 -0.0041829976 0.007863912 -0.00023887027 0.032486927 -0.05399992 0.041230608 -0.051410947 0.021159446 0.026652502 -0.008479146 -0.010591088 0.03938571 0.014157412 0.0030941789 0.0095168 -0.014930386 -0.049245253 0.03555897 -0.019622024 -0.017821455 -0.004093924 0.04314305 0.015035383 0.03068558 -0.006505745 0.03782991 -0.007365063 0.019885404 -0.036883764 -0.009068819 -0.008618957 0.020970324 0.033470307 0.08439728 -0.012826734 -0.030772228 -0.014020864 0.040421482 0.022750454 -0.09162417 -0.017381689 -0.015170726 -0.018836718 0.06855978 0.04882257 -0.026385333 -0.047472067 -0.034384828 0.030497374 -0.08946862 0.04317925 0.045885194 -0.008632804 -0.05300557 0.020513406 0.014452379 0.019400477 0.031374566 -0.013313852 0.014960169 0.016740562 -0.0154820755 0.05185408 0.058390018 0.01028616 -0.010631768 -0.012984007 0.01417866 0.007288894 -0.06010826 -0.010982569 -0.047696065 0.012605431 0.05207715 0.017949 -0.023273684 0.015891057 0.020519815 -0.0019725796 0.053138055 0.020734668 -0.0826604 -0.01416661 -0.04179526 -0.00535926 0.058003988 -0.013753618 0.06158649 -0.026017899 0.050042942 -0.03455898 0.021959402 -0.06837767 -0.029126888 -0.024469497 -0.07256937 -0.016075792 0.013390218 -0.044340793 -0.0094722975 0.0060552 -0.07918835 -0.042696927 -0.04795946 0.0056330194 0.011828558 0.028188614 0.06872531 0.050208975 0.022967221 -0.011197461 0.047638863 0.06648785 -0.05718934 0.008105731 -0.010512332 0.011712474 0.022575533 -0.01183614 0.029173434 -0.051647462 -0.014115585 0.023664255 -0.01685364 0.014599362 -0.034897644 0.00816594 -0.0025438254 -0.022369845 -0.038940538 0.040566023 0.012409648 -0.0003454216 0.002080574 -0.012330295 -0.018843874 0.013280264 -0.015674656 0.031721834 -0.0154737225 0.014837391 0.02835377 0.0033994939 -0.0335566 -0.03577908 -0.047275163 0.033978302 -0.034814727 -0.012340677 -0.08291487 0.007990439
-1 -0.0012246202 -0.03547356 0.023234565 0.03449286 0.03307081 -0.0039761434 0.03258197 0.0010577138 -0.017856158 0.0069710575 0.0022452236 -0.012350497 -0.011246465 -0.043392837 0.011767166 0.016537884 0.001581817 0.01039033 -0.04355937 0.054481935 0.021195866 0.005702415 0.00034428918 -0.027517222 -0.04242543 0.019256828 0.009254336 0.015074719 -0.018379986 -0.023842523 0.012505552 0.0029894582 -0.015254927 -0.010118855 -0.016901163 0.049404703 0.03864246 -0.014427182 0.029100165 -0.03631387 -0.04511745 0.041913338 -0.016826764 -0.014134344 0.056565177 -0.0020292823 1.27604e-05 -0.012551092 0.0093113985 0.0224099 -0.0070525147 0.0018871346 0.013221546 0.028295223 -0.026189253 -0.014605664 0.03376683 -0.04381853 0.0019325141 0.032843664 0.003910628 0.0073170946 3.1132902e-05 0.0072490065 0.020057537 -0.0127916485 0.00036371592 0.041501276 -0.0157491 -0.01671621 0.02724011 0.002051545 -0.026242247 -0.03533444 0.0016396999 -0.0023454286 -0.01935478 -0.012581774 0.006205085 0.056854658 -0.006506098 -0.019345142 0.02017405 0.060592465 -0.010660203 0.033095427 0.043419555 -0.054917376 0.0011061344 -0.0020077862 0.00766157 -0.017296245 0.018767994 -0.035737272 0.041591983 0.04759127 -0.05635406 -0.032389283 -0.0058150855 -0.021848036 -0.06327685 0.0015750012 0.02150971 0.025979733 0.014387898 -0.0018950147 0.0023505106 3.93102e-05 0.020786759 -0.041936114 0.02363736 -0.038749296 0.014527657 0.016062176 -0.0033685234 -0.0059535704 0.031107156 0.011345082 0.0009910776 0.0014583858 -0.0115680145 -0.035247866 0.026205704 -0.014263412 -0.01003359 -0.0011631607 0.03742607 0.016824959 0.021465018 3.5025926e-06 0.027411833 -0.0051022894 0.011468864 -0.03250479 -0.0073863515 -0.0002942582 0.015806943 0.022699647 0.060059685 -0.0047333487 -0.021168198 -0.012387828 0.032317743 0.018414268 -0.06699454 -0.009640918 -0.010252166 -0.0077859643 0.051881045 0.033293664 -0.018821612 -0.03817698 -0.023950549 0.022214731 -0.06594204 0.03214883 0.03875789 -0.006855624 -0.04107966 0.016778499 0.010737289 0.010747786 0.024505692 -0.0059632757 0.011065031 0.0142129725 -0.014229515 0.038372833 0.041549068 0.011097823 -0.0054757823 -0.008308851 0.01242686 0.009561379 -0.04816959 -0.0082818195 -0.03303003 0.010380125 0.037406106 0.015557497 -0.014388027 0.014838326 0.016234294 0.0015412164 0.035789344 0.01984553 -0.058609072 -0.01524358 -0.034518722 -0.0035572008 0.041788895 -0.012722508 0.04528813 -0.015804516 0.039130624 -0.024695633 0.015620708 -0.049874105 -0.023063192 -0.021810805 -0.05383222 -0.012970974 0.01104212 -0.030955533 -0.010141455 0.0005579923 -0.05561077 -0.031155478 -0.03408052 0.0005997155 0.010694859 0.02365714 0.05421488 0.033699106 0.016945656 -0.007145887 0.037392963 0.043937862 -0.043121975 0.005456795 -0.0047263606 0.0127008995 0.013910062 -0.0047306325 0.024563579 -0.034651108 -0.004309305 0.013731394 -0.018818453 0.013706151 -0.021594798 0.0062700897 -0.0019433616 -0.015086824 -0.023312386 0.027032103 0.0033853739 -0.0029388438 0.00257717 -0.006691163 -0.018224608 0.008470578 -0.006474706 0.01929042 -0.0053855916 0.0077675367 0.02191427 0.0025697404 -0.026172409 -0.026388945 -0.03217966 0.018819889 -0.027212849 -0.011860245 -0.055121727 0.0016043242
a -0.0030221753 -0.03057425 0.02154721 0.032489277 0.033639893 -0.0012782755 0.032139592 0.00034156113 -0.017332843 0.01159951 0.0036035702 -0.0069256243 -0.007594628 -0.04323962 0.012606709 0.014978753 0.00018482012 0.01079868 -0.047214683 0.05255764 0.014861176 0.003550072 -0.0015606749 -0.025967322 -0.04160682 0.016598912 0.007987819 0.014554863 -0.020262722 -0.020791303 0.011820074 0.0045805466 -0.013714181 -0.0139525905 -0.015521336 0.046342283 0.031688843 -0.016596183 0.025444526 -0.033141423 -0.045361184 0.04147296 -0.02126751 -0.014596433 0.053238668 -0.0019829038 -0.0021176576 -0.00917101 0.0101167625 0.026554171 -0.0033661858 0.0070079346 0.014987793 0.020534977 -0.030700922 -0.009199791 0.033857368 -0.040161863 0.0057174196 0.038964093 -0.00051854714 0.012006318 -0.004005204 0.010538184 0.02013042 -0.014575274 0.003299302 0.039151512 -0.01494201 -0.016810566 0.022871451 0.0055626645 -0.021074912 -0.038320225 0.0030339651 -0.005126723 -0.014797076 -0.008416532 0.006412436 0.056256246 -0.004326313 -0.019991742 0.019477688 0.0616417 -0.012037884 0.032991566 0.04268934 -0.051953476 -0.0005658169 -0.0033338787 0.0077696387 -0.016703121 0.019908749 -0.035980776 0.0352711 0.043816026 -0.05334572 -0.03507162 -0.0035893794 -0.027273312 -0.062148493 -0.0030020648 0.021934422 0.027769146 0.013128513 -0.004756759 0.0038096723 -0.000525277 0.023121135 -0.038096756 0.027034547 -0.036951322 0.015057591 0.018563882 -0.009161247 -0.008474847 0.025104389 0.009923772 0.0013435927 0.007373972 -0.011152647 -0.03725549 0.03127142 -0.01414403 -0.011838568 0.0027442158 0.03369289 0.011404354 0.022793226 -0.0010322508 0.021727275 -0.0028495602 0.01362473 -0.027061319 -0.004873918 -0.004567055 0.016935218 0.025261527 0.061029423 -0.007849686 -0.022108922 -0.0077642617 0.034424473 0.022419153 -0.06849217 -0.008680066 -0.010331052 -0.0070185256 0.050467696 0.03845096 -0.020264732 -0.032344356 -0.025867375 0.023134373 -0.063557155 0.03051748 0.034157787 -0.0011233471 -0.040047597 0.012039205 0.014282241 0.012442505 0.018076342 -0.009913648 0.013014507 0.012944399 -0.00859849 0.03413529 0.03626695 0.010846181 -0.0028982381 -0.012170749 0.0074231788 0.005809474 -0.048121415 -0.0074912603 -0.03284535 0.0071683256 0.0417798 0.009407603 -0.013792233 0.0136079015 0.014144198 0.0019870095 0.039552007 0.014362441 -0.061192803 -0.014534302 -0.035501048 -0.0037756695 0.037037127 -0.015570594 0.046027906 -0.017378319 0.03745052 -0.02472132 0.015463351 -0.04678589 -0.02070697 -0.014443039 -0.053377494 -0.00825434 0.006836887 -0.029297065 -0.008963614 0.0076847877 -0.05826094 -0.027205804 -0.03386161 0.002018527 0.005752058 0.019291896 0.04879155 0.030783392 0.018054074 -0.00987932 0.035221945 0.048047684 -0.040283103 0.004345711 -0.010945461 0.0062072864 0.020617548 -0.010504379 0.020185655 -0.034718215 -0.0056469617 0.013543693 -0.014596336 0.008843052 -0.024545569 0.0029764315 -0.0060657593 -0.013293652 -0.022355095 0.032949265 0.0024217705 -0.0024601303 0.0073899785 -0.0076033147 -0.018112484 0.011942635 -0.0057852687 0.01970611 -0.012265765 0.010205889 0.022419572 0.00322413 -0.024959119 -0.026933668 -0.03299662 0.021743739 -0.02399694 -0.013656152 -0.05996649 0.0029677742
p -0.003953244 -0.037840907 0.026655046 0.046151344 0.03616206 -0.0036804269 0.044646773 -0.001570927 -0.028225377 0.011533438 0.0026765817 -0.011912718 -0.007836656 -0.055730138 0.02003761 0.019033222 0.004396962 0.016375745 -0.052887905 0.06495826 0.017365534 0.011971899 -0.0037230467 -0.032807186 -0.049891204 0.018218711 0.008860373 0.015484303 -0.023501389 -0.027123513 0.011020991 0.0078062816 -0.018017408 -0.018760288 -0.018923242 0.058605537 0.046891212 -0.017315267 0.03068356 -0.044908 -0.049243852 0.050137874 -0.0193571 -0.01194772 0.06742178 0.0030200067 -0.008433996 -0.018600168 0.014514167 0.03141437 -0.0020240105 0.005937866 0.018796623 0.027554857 -0.033619665 -0.01620709 0.035695672 -0.050743535 0.0044448874 0.043265738 0.0030928212 0.011385367 -0.0007201634 0.013144335 0.02092045 -0.023138061 -0.001182401 0.04792075 -0.015820712 -0.024860106 0.031017968 0.007261348 -0.03375515 -0.044074234 0.0010870552 -0.0010090206 -0.021200987 -0.014819887 0.00598545 0.07027023 -0.0040228646 -0.019101325 0.026583763 0.07702512 -0.009852501 0.042393614 0.054108378 -0.06401655 0.0025589892 -0.0034833408 0.005633134 -0.019605825 0.022907719 -0.040005784 0.049596928 0.06275008 -0.06526867 -0.036745798 -0.0037227296 -0.031140467 -0.071741365 -0.0019626613 0.034046866 0.033553883 0.01575724 -0.0041924706 0.010162353 0.006017339 0.02804532 -0.050590668 0.03691787 -0.04347533 0.019257218 0.022758884 -0.009645559 -0.009247992 0.038865842 0.012397216 -0.0017220222 0.009618684 -0.01000599 -0.041369125 0.034270562 -0.021161681 -0.010050484 -0.0020196023 0.043182354 0.01864459 0.028685689 -0.0072556087 0.034693282 -0.007463307 0.013631934 -0.040286344 -0.0073741786 -0.0014096698 0.023751767 0.029860396 0.07699197 -0.009473423 -0.021150922 -0.011065467 0.039124016 0.02261948 -0.08393502 -0.010214073 -0.010281936 -0.014784427 0.06446818 0.04368026 -0.029490506 -0.04440354 -0.029373739 0.02220891 -0.0800505 0.036675043 0.04725899 -0.0034071666 -0.046521984 0.018976541 0.017339481 0.015440861 0.028407512 -0.0075873914 0.013593951 0.015951399 -0.015023277 0.043347992 0.049849518 0.013383411 -0.0058055148 -0.010324543 0.015161824 0.0054267077 -0.058627144 -0.011262947 -0.035877038 0.0131600285 0.047561254 0.017760882 -0.02251961 0.011836133 0.019773271 0.0006095228 0.046054866 0.022870677 -0.07399057 -0.016085342 -0.039559122 -0.0045650103 0.04641312 -0.01846793 0.059593406 -0.023835748 0.042304274 -0.032844108 0.025829569 -0.05825386 -0.024953589 -0.020891415 -0.06919178 -0.0131717 0.013763276 -0.043827146 -0.008379697 0.006405822 -0.06552417 -0.033042952 -0.044195425 -0.00025778735 0.012704562 0.029404618 0.06606328 0.04467648 0.022346629 -0.015066 0.045003183 0.05968863 -0.051039875 0.010146606 -0.012056906 0.014410551 0.022156272 -0.0072524776 0.026299808 -0.047513466 -0.012274059 0.02178226 -0.020503497 0.017509446 -0.032733433 0.0021206483 -0.007872313 -0.015123909 -0.034630787 0.035295047 0.005294573 0.0021818508 0.006497661 -0.009112407 -0.021467017 0.01713672 -0.0142057305 0.024070768 -0.012833845 0.011330894 0.024310052 0.0041312673 -0.03293109 -0.03399836 -0.04290376 0.024261333 -0.03111592 -0.009381624 -0.07286449 0.0067743203
Bo29 0.0025142045 -0.037728794 0.019698067 0.04041406 0.036069475 -0.005082627 0.033243533 0.003129561 -0.020868514 0.012789607 -0.0016620567 -0.013385242 -0.008314143 -0.04939534 0.014035363 0.014992411 0.0048430045 0.015197699 -0.049003176 0.055450127 0.021844052 0.0059098313 0.0033510206 -0.024423547 -0.04045353 0.015960699 0.0086106425 0.015103222 -0.01590475 -0.02591834 0.010212508 0.008429804 -0.010760445 -0.011872366 -0.022899369 0.04792878 0.04017395 -0.018455934 0.029512499 -0.032787863 -0.044918273 0.04159258 -0.019683162 -0.014946422 0.052244056 -0.0012390431 -0.0048966957 -0.012000926 0.009501435 0.02665862 -0.006758088 0.0004491967 0.016636407 0.029357046 -0.032594368 -0.011297626 0.031831343 -0.0508907 0.0008720824 0.04125767 0.006298335 0.015148548 0.00041280047 0.012892342 0.018967904 -0.021278022 0.00214568 0.04136685 -0.013413249 -0.019527027 0.025837427 0.009184989 -0.026072398 -0.03886795 -5.591022e-05 -0.005193764 -0.022947604 -0.0089893 0.0028148475 0.06212179 -0.0086657815 -0.018877923 0.020743068 0.06000414 -0.0075820265 0.039412208 0.044901513 -0.055134796 0.00036541678 0.0016024072 0.008489519 -0.019191077 0.020900251 -0.036557622 0.041210152 0.049016837 -0.05490906 -0.03691252 -0.003027606 -0.02360638 -0.06061973 -0.00047534137 0.0230552 0.023073394 0.012488655 -0.00795359 0.0028816191 0.0050477874 0.027616194 -0.040031392 0.025737919 -0.042392466 0.01883306 0.021420928 -0.008187091 -0.0096110655 0.030734628 0.0128262285 0.0015008306 0.0058583035 -0.0132907005 -0.042505 0.026680866 -0.015228857 -0.009815518 0.001328744 0.03571137 0.016095163 0.021442717 -0.0016431977 0.022567358 -0.00038848657 0.016705787 -0.029062346 -0.0018975659 -0.00038430226 0.017801298 0.026228597 0.065244265 -0.01084898 -0.017729202 -0.013918217 0.03701142 0.01877626 -0.069904335 -0.014516325 -0.013471382 -0.014951173 0.049871955 0.03942907 -0.025234787 -0.039210163 -0.027806405 0.020021936 -0.0645293 0.036639575 0.041139886 -0.0027546335 -0.042741258 0.0167147 0.008210343 0.01196774 0.01932715 -0.006156948 0.01077521 0.014040559 -0.009788196 0.03537507 0.04600799 0.0076297275 -0.002752186 -0.009335869 0.009504217 0.0056376574 -0.05107704 -0.009289378 -0.030940525 0.008745202 0.043918535 0.010015946 -0.016214741 0.011802947 0.01900893 -0.0053861397 0.04112505 0.01575539 -0.065553516 -0.01488105 -0.036058687 -0.004388538 0.040711924 -0.016130356 0.04902411 -0.019928543 0.03667775 -0.023870708 0.0155324945 -0.052047554 -0.020308305 -0.015440724 -0.061134797 -0.008941969 0.012684565 -0.036610555 -0.0055161198 0.001149904 -0.05625924 -0.027673136 -0.03644298 0.00022119904 0.006864134 0.023257807 0.05591353 0.03725049 0.021488931 -0.0064546936 0.042399317 0.04700524 -0.037985705 0.0048137694 -0.0058300337 0.012142117 0.018232042 -0.007346569 0.022193141 -0.04168901 -0.011741024 0.018119203 -0.01332543 0.012356088 -0.026498677 0.006366589 -0.0014357793 -0.018439626 -0.027099434 0.029324062 0.008394773 0.0033151445 0.007040123 -0.006476748 -0.014176941 0.015067108 -0.0075693415 0.025223542 -0.011260548 0.014051081 0.02353577 1.1656457e-05 -0.024874792 -0.024470706 -0.031574305 0.024876926 -0.023605904 -0.010679326 -0.05758496 0.004528727
çš„ 0.0018557617 -0.03728117 0.026402125 0.040393576 0.032457132 -0.0040787687 0.03833019 -0.0026638904 -0.019232623 0.0057250476 -0.001069791 -0.008572779 -0.0067505236 -0.049026813 0.01710702 0.02040448 -0.0015243924 0.009740099 -0.050939042 0.052890908 0.019966768 0.010845524 0.002130092 -0.027715638 -0.0407684 0.021191249 0.014420265 0.018891668 -0.016979944 -0.027173078 0.0103483545 0.002718164 -0.0096275965 -0.015541756 -0.023697192 0.05240581 0.042160958 -0.018372642 0.030886278 -0.037373964 -0.04724682 0.04309899 -0.019632885 -0.01437649 0.057990965 0.0017513995 -0.0015059605 -0.017819721 0.011576452 0.023054287 -0.0010251345 0.006084357 0.012005092 0.027437458 -0.034384932 -0.012921852 0.038544055 -0.0495234 0.00079253124 0.03650345 0.002655363 0.011091713 -0.0012422261 0.014427514 0.017549554 -0.017324947 0.004367211 0.043159284 -0.015954114 -0.0166818 0.031191824 0.009088767 -0.029628607 -0.035826795 0.0041254265 0.0017443519 -0.021106321 -0.011324032 0.009255001 0.05847207 -0.002554008 -0.018080872 0.025329849 0.064016625 -0.012601293 0.03998353 0.041008607 -0.06142263 -0.0021994873 -0.002391505 0.004794917 -0.013142118 0.026935892 -0.03765618 0.041352674 0.052865814 -0.05776682 -0.037901524 -0.0013544654 -0.02776812 -0.06253452 0.0041064722 0.028340887 0.028480677 0.014571468 -0.0062809396 0.0075232144 0.002676821 0.027679102 -0.039728433 0.030188393 -0.039156936 0.012631616 0.02288843 -0.0023855215 -0.008309531 0.031804793 0.0095003145 0.001025559 0.005698532 -0.008141192 -0.03944432 0.031096226 -0.0152317695 -0.008484854 -0.0027389408 0.033465933 0.013161804 0.021047205 -0.0013849786 0.023682518 -0.004458684 0.011361491 -0.02989185 -0.0059143477 -0.0072952085 0.019665247 0.031125842 0.06531605 -0.009630596 -0.020365365 -0.011998636 0.030411381 0.024385728 -0.074927755 -0.012931454 -0.01056248 -0.014501287 0.055028033 0.043996304 -0.021104712 -0.035073463 -0.026495904 0.022527158 -0.06994146 0.032323018 0.039802283 -0.004634059 -0.045147173 0.012436685 0.008377687 0.011578759 0.024574246 -0.0044388953 0.0121503705 0.012414104 -0.008003702 0.03833657 0.043601636 0.006716137 -0.0064765643 -0.011832672 0.011763292 0.0105949305 -0.05349225 -0.008954901 -0.038174648 0.008504267 0.040504266 0.014970874 -0.016018247 0.0106914565 0.014713681 -0.0016376436 0.041114233 0.02062508 -0.06599476 -0.014784071 -0.037849065 -0.0033288696 0.043677494 -0.012882844 0.052629855 -0.021534903 0.03823679 -0.028081309 0.01839077 -0.05509879 -0.0232307 -0.018926747 -0.061885428 -0.008202619 0.0069878404 -0.03967541 -0.012631968 0.007546626 -0.05866438 -0.027159156 -0.03692912 0.0026748606 0.0077156625 0.0290453 0.057842758 0.03899781 0.018962122 -0.010326444 0.042573232 0.04974964 -0.041764118 0.004824521 -0.005855901 0.012749051 0.019999487 -0.01130803 0.022896465 -0.03882151 -0.011434319 0.017513948 -0.01646023 0.013615125 -0.030674648 0.008753443 -0.005398663 -0.017967718 -0.027032228 0.032257278 0.00402689 -0.002535217 0.004160131 -0.012850839 -0.017624198 0.013985747 -0.011771158 0.023279374 -0.008502724 0.014764722 0.022671359 0.0016635772 -0.027818283 -0.028187232 -0.039487526 0.027286043 -0.029082255 -0.01524389 -0.06517742 0.0016471276
Di02 0.0010703675 -0.031668063 0.02512028 0.03250263 0.03276278 -0.003953388 0.032924432 0.0028294453 -0.020249408 0.007904611 -0.0024322795 -0.011213283 -0.009180038 -0.040887408 0.018390832 0.012376511 -0.0030244356 0.014626416 -0.047730967 0.05031928 0.020356333 0.004108146 0.0014558618 -0.026767815 -0.04312307 0.016738972 0.013022187 0.019513106 -0.017388249 -0.020262482 0.008902181 0.004473898 -0.014462019 -0.013540777 -0.01963167 0.045491386 0.03396028 -0.012042455 0.026828619 -0.036362633 -0.045083333 0.044501144 -0.021499302 -0.011190652 0.05440245 0.0027600417 -0.0010803862 -0.01417201 0.013218005 0.023436021 -0.008270631 0.0020888923 0.0138242105 0.027726447 -0.026612673 -0.008499354 0.029869672 -0.04298526 0.0011359631 0.036841847 0.003820528 0.013746816 -0.00048215335 0.011100301 0.022442143 -0.016623532 -0.0020668395 0.037873022 -0.012394161 -0.022276321 0.024879169 0.0072678234 -0.026797974 -0.040313236 0.0004946862 -0.0015088947 -0.018560745 -0.009595105 0.0039275168 0.05759373 -0.0024179425 -0.017318968 0.023138493 0.059753954 -0.008093464 0.033004966 0.04423945 -0.059031725 -0.0010549757 -0.0061502676 0.0051062643 -0.017234607 0.020545378 -0.034510378 0.03995004 0.04877931 -0.057393357 -0.03543332 -0.0038885667 -0.026759043 -0.06449695 -0.00024108763 0.02840076 0.028935231 0.008782079 -0.0038172011 0.0029772923 -0.0010508983 0.023936568 -0.040300347 0.025296569 -0.04133279 0.014564094 0.022178205 -0.009300651 -0.0031893824 0.029731113 0.011638081 0.0043594786 0.006619202 -0.012233773 -0.036331408 0.03017914 -0.012346292 -0.011334613 -0.002367753 0.03487137 0.012099402 0.021788955 -0.00078864524 0.02813921 0.0010028966 0.011062841 -0.033005044 -0.0018685554 -0.0032842641 0.014220555 0.026344517 0.064481564 -0.007869284 -0.022506533 -0.008980818 0.036604147 0.01694905 -0.06796014 -0.011181406 -0.011400523 -0.011723064 0.04939417 0.041797403 -0.024490621 -0.035121176 -0.025022496 0.022553617 -0.064342216 0.037663996 0.036632407 -0.007602439 -0.039401777 0.014154148 0.010883284 0.00971653 0.01934004 -0.010602879 0.012357998 0.012514395 -0.007593677 0.03987022 0.03927495 0.010896768 -0.002666224 -0.0102272285 0.012326229 0.009573335 -0.0518348 -0.0030828859 -0.03087069 0.013092697 0.036499735 0.016076166 -0.01364756 0.011493079 0.0129224565 0.000530396 0.034333035 0.014634429 -0.06015984 -0.009317898 -0.029843383 -0.0044546532 0.036890112 -0.008856255 0.05071671 -0.02112535 0.033011887 -0.026691185 0.01689818 -0.05049062 -0.021367796 -0.018688427 -0.057016183 -0.01431255 0.014472903 -0.035911065 -0.011655705 0.0075694853 -0.05688751 -0.025652688 -0.037775293 -0.0004947168 0.008542221 0.02327932 0.050165657 0.034649663 0.019377775 -0.007844134 0.040143237 0.04859651 -0.042743217 0.0045079626 -0.00922433 0.012713472 0.015217289 -0.0076644425 0.02334367 -0.04071847 -0.010999966 0.019619884 -0.018971533 0.011469019 -0.025089858 0.0076314677 -0.008165673 -0.013390805 -0.023039352 0.02853196 0.005113954 0.0021070065 0.0066816597 -0.007851771 -0.013989412 0.012451704 -0.008964626 0.020412453 -0.012219872 0.011193288 0.021857524 -0.0026135836 -0.028071078 -0.025588555 -0.034000028 0.026065934 -0.027942652 -0.013428918 -0.05618334 0.000100785546
m -0.004570668 -0.034285408 0.019002523 0.03536952 0.032755185 -0.004050713 0.03194324 -0.00031341298 -0.021793298 0.010602849 0.0043122177 -0.00686525 -0.0054093814 -0.04784425 0.019526098 0.0149505325 0.0046021612 0.012582544 -0.044989217 0.047904357 0.014214526 0.00988614 -0.0019034955 -0.025007192 -0.03723234 0.016861297 0.014243212 0.014994781 -0.022069342 -0.025265703 0.010856305 0.0014418154 -0.0089531215 -0.012546347 -0.022346975 0.050302055 0.0404376 -0.013545954 0.028636564 -0.039260115 -0.043242358 0.03758846 -0.020518417 -0.012112553 0.053806107 -6.399848e-05 -0.0025580812 -0.012287672 0.014027647 0.027056038 -0.0062615676 0.0064652762 0.015513305 0.028822498 -0.028463446 -0.013878198 0.031615965 -0.045833334 0.0025254055 0.04138971 0.0038987722 0.012746397 -0.0010580283 0.0060154856 0.021058345 -0.013256787 -0.00016910497 0.041062545 -0.01784558 -0.02250765 0.02918239 0.0045049456 -0.023057839 -0.036737066 0.00074193586 -0.00060592144 -0.020980038 -0.012721011 0.0064955144 0.058300834 -0.0056581995 -0.01782254 0.017266205 0.06558576 -0.01432156 0.03869251 0.04416872 -0.058078453 -0.0022057416 -0.0054024337 0.003537381 -0.012136468 0.025979334 -0.034108624 0.03877945 0.05303625 -0.05557532 -0.033406366 -0.0032576302 -0.027492974 -0.064074695 -0.0033532553 0.029597972 0.028096013 0.01046484 -0.008393808 0.0058565927 0.0037734478 0.023476858 -0.039247934 0.026339555 -0.03707641 0.015828742 0.02289064 -0.009784896 -0.008471675 0.025625793 0.010948699 -0.0030128127 0.0067160637 -0.013738205 -0.040342044 0.030857535 -0.018383078 -0.010378469 -0.0033754713 0.03798007 0.017412743 0.021454383 -0.00052987906 0.027890997 -0.0056771534 0.01806095 -0.03469688 -0.0010417835 -0.0024312707 0.015480177 0.024431346 0.06664883 -0.0091586 -0.017294137 -0.013656295 0.03570967 0.019592145 -0.06451911 -0.01126065 -0.006183742 -0.007913562 0.052498206 0.038400885 -0.019901922 -0.032735325 -0.021398965 0.024302728 -0.06212327 0.036781546 0.040001586 -0.005452077 -0.039345454 0.01377877 0.012125554 0.0133891525 0.017955577 -0.011553936 0.008951041 0.014127028 -0.012529995 0.033791568 0.044051226 0.009838154 -0.005269689 -0.00947996 0.012778712 0.009886196 -0.04737541 -0.0061603095 -0.030091356 0.010705763 0.03764188 0.015902672 -0.014072541 0.012885164 0.014544049 -7.4806354e-05 0.040026277 0.020012716 -0.06090878 -0.015970321 -0.033294413 -0.002501363 0.041977588 -0.016469842 0.05172829 -0.022178303 0.038437027 -0.028250448 0.021909596 -0.046127897 -0.021008221 -0.019390944 -0.055710904 -0.0111762555 0.0075270114 -0.031418562 -0.0078876335 0.005973033 -0.06068904 -0.025915073 -0.035511598 0.0020639484 0.004336071 0.025250647 0.056779027 0.038264718 0.015517725 -0.013770023 0.03539468 0.04721962 -0.044255804 0.0016640465 -0.008260095 0.011058718 0.013791338 -0.010247621 0.023557011 -0.03520293 -0.0076962505 0.016790282 -0.018191047 0.0089822365 -0.026113637 0.007817113 -0.0025745821 -0.015416181 -0.026616849 0.027457984 0.0056795087 -0.0021783016 0.006834814 -0.009764578 -0.018942934 0.008019693 -0.01051751 0.017990574 -0.009439312 0.008378647 0.01997293 -0.0006423631 -0.030912513 -0.026283104 -0.03321738 0.020853395 -0.029652605 -0.012608321 -0.06287869 0.0031256713
vn 0.0016927328 -0.031036146 0.021528179 0.033577476 0.031675022 -0.0007446753 0.034944326 -0.003603439 -0.02265413 0.005394525 -0.0017289454 -0.011430766 -0.011189114 -0.040393718 0.014477051 0.012818326 -0.0025120915 0.012231953 -0.041049257 0.048097182 0.018957052 0.008709974 -0.0009645523 -0.022276117 -0.03763753 0.015885087 0.010983162 0.017848724 -0.017613743 -0.018957289 0.007430088 0.0033821522 -0.0073773777 -0.013917941 -0.017376546 0.037913673 0.029042028 -0.010895556 0.02034421 -0.029558606 -0.04141774 0.035584178 -0.01979504 -0.0078091 0.050540533 0.0014627244 -2.5104018e-05 -0.012130896 0.007026154 0.024953384 -0.0056715687 0.005976679 0.01394549 0.02167984 -0.030026827 -0.01150391 0.03183792 -0.043424748 0.0032949643 0.030119898 0.0067127463 0.008647637 0.0016879467 0.006166944 0.0121571515 -0.018437317 -0.0013288961 0.037808634 -0.013757898 -0.014034347 0.024510588 0.006648584 -0.021912906 -0.03027811 0.00037390043 0.0011793234 -0.020785525 -0.009600847 0.004976579 0.05036235 -0.0017713496 -0.017369717 0.017550094 0.054734733 -0.009749389 0.030477023 0.04046307 -0.051755287 0.0035116149 -0.0019932052 0.00582753 -0.0119166365 0.019463522 -0.03011013 0.032910347 0.045892563 -0.047787677 -0.030651018 -0.0071265562 -0.026028378 -0.05409406 -0.0020538967 0.022765547 0.021637164 0.0075831627 -0.0038628571 0.007188563 0.0015106121 0.018477185 -0.034484006 0.024653971 -0.036451485 0.01322966 0.016797358 -0.006793993 -0.009599083 0.029523524 0.011723582 -0.00059789605 0.006924129 -0.009528433 -0.030669982 0.024818396 -0.010767981 -0.010191598 -0.0028842564 0.028381435 0.01623404 0.018896375 -0.00240357 0.02601755 -0.005318427 0.011702723 -0.030362854 -0.006756648 -0.0066446615 0.016559323 0.024327198 0.05864347 -0.00482066 -0.017160952 -0.007694951 0.028227951 0.019019308 -0.05699511 -0.008981881 -0.0056818365 -0.012776509 0.048360948 0.03559126 -0.017399592 -0.036049124 -0.022035819 0.019725991 -0.06040447 0.027286647 0.034912523 -0.0073981243 -0.036759965 0.015235781 0.0077397665 0.014845264 0.019429918 -0.0051277773 0.0073084333 0.007303417 -0.01325533 0.03281116 0.034756996 0.0076349434 -0.002281472 -0.012547821 0.007355596 0.004362501 -0.045103967 -0.009451063 -0.03021205 0.012338128 0.038493007 0.0098159285 -0.018065363 0.009859113 0.010352286 -0.0035962963 0.030674033 0.016250903 -0.057676915 -0.010466263 -0.028993098 -0.00024146702 0.03520375 -0.015195235 0.044416286 -0.019528165 0.034013122 -0.021282546 0.019769393 -0.04300831 -0.019958965 -0.0137440795 -0.052259907 -0.013666788 0.010645441 -0.031180046 -0.009252774 0.0031261519 -0.055068545 -0.025932351 -0.032291032 0.0008564719 0.008422897 0.022944707 0.05024863 0.028478181 0.014354913 -0.012756307 0.029928928 0.040649407 -0.036742017 0.0014209396 -0.008785053 0.008677463 0.018354189 -0.0069329254 0.024337942 -0.037452914 -0.008982274 0.014857403 -0.010355983 0.010759911 -0.022507105 0.0048366264 -0.002885015 -0.016847141 -0.022799592 0.029955504 0.00798625 0.0015930058 0.000389443 -0.0092752 -0.011931292 0.010467024 -0.012568519 0.020526584 -0.0102502275 0.011261803 0.020785015 -0.0012943599 -0.023617968 -0.020788722 -0.03181255 0.019668315 -0.020369392 -0.0061817593 -0.056458823 0.005524463
nr 0.0033005674 -0.034871567 0.023706224 0.034022402 0.03561034 -0.0033187764 0.037188377 0.004192323 -0.019927522 0.0061113997 0.0006369884 -0.008881683 -0.00793087 -0.04271782 0.019645544 0.017383762 0.0049119527 0.008035171 -0.04873855 0.0526493 0.019415418 0.006173015 -0.0035026053 -0.027712716 -0.0434648 0.020932037 0.011988476 0.012209324 -0.017149683 -0.020918692 0.0086996965 0.002181604 -0.011734867 -0.0105786845 -0.02265334 0.046791214 0.033859808 -0.016472695 0.026978415 -0.037618443 -0.044423196 0.041585498 -0.021327037 -0.009273101 0.055628933 -0.004147473 -0.004565811 -0.011916182 0.008984935 0.021209521 -0.007836674 0.001228367 0.016932873 0.027671572 -0.029299257 -0.015972167 0.03526648 -0.04345203 0.0032716375 0.03417438 0.002665395 0.011120081 -0.0056755836 0.010152812 0.018649116 -0.019532029 -0.0028739674 0.043073528 -0.018562883 -0.022440648 0.02852877 0.0053337608 -0.02744503 -0.03998762 0.0013201386 0.00013957318 -0.021366457 -0.014473214 0.0040574996 0.054499503 -0.0080866935 -0.022327838 0.023646379 0.064907156 -0.012607051 0.032221198 0.042244118 -0.056951072 0.0038424348 -0.0008678144 0.0030409426 -0.016374132 0.018487675 -0.03369179 0.03669656 0.048391268 -0.05185021 -0.02993157 -0.0026731368 -0.027266042 -0.057843428 -0.0037884754 0.023255453 0.023075482 0.011352533 -0.0049473015 0.003907445 0.0032677476 0.027785053 -0.03740964 0.02750999 -0.03530942 0.016173042 0.01854007 -0.009132153 -0.003830746 0.025679745 0.010362772 0.0031912825 0.003723244 -0.01030264 -0.040957585 0.030748757 -0.012271624 -0.01518801 -0.0020618124 0.037446663 0.01496406 0.021111127 -0.0025185565 0.022175148 0.00092331506 0.013140218 -0.032310594 -0.0032445067 -0.0031412093 0.014681425 0.028159939 0.062111206 -0.009365814 -0.017848447 -0.008494858 0.03629171 0.020657783 -0.06780193 -0.013252456 -0.0073752636 -0.0071360096 0.05115668 0.03723484 -0.023290709 -0.036744907 -0.027904555 0.022901911 -0.06455139 0.037333965 0.03351121 -0.0072161346 -0.041286945 0.01055971 0.013497221 0.015024561 0.0219073 -0.0066091823 0.0057191774 0.01015478 -0.014290485 0.03835417 0.04043925 0.013567856 -0.007985086 -0.00761768 0.0128101045 0.008029153 -0.04778353 -0.003504302 -0.032602165 0.012840571 0.04080311 0.016011937 -0.014237964 0.009081694 0.013155331 -0.0010645691 0.037355185 0.017746689 -0.061115555 -0.009469168 -0.035434414 -0.0026241865 0.044112794 -0.011571425 0.049212642 -0.01763958 0.035743896 -0.028195752 0.019342057 -0.052860808 -0.023247166 -0.022085905 -0.055893302 -0.014674807 0.013323165 -0.03562483 -0.004226773 0.0010356179 -0.059129134 -0.02832558 -0.03726382 0.0028718617 0.006542917 0.02345926 0.051602818 0.031444695 0.020528454 -0.010667762 0.040176928 0.043983348 -0.039266482 0.0013393092 -0.004671284 0.012959357 0.015121763 -0.005227756 0.021253893 -0.04174811 -0.0073554376 0.018367149 -0.018861864 0.008160518 -0.022351325 0.0055162045 -0.0048848833 -0.013818073 -0.028074253 0.03253853 0.007526791 0.0036525489 0.0019771834 -0.007730001 -0.014696565 0.009138974 -0.0136487195 0.02445419 -0.00634534 0.008013234 0.023236578 0.0011768831 -0.029877115 -0.026350135 -0.03608624 0.024810547 -0.026189676 -0.014723237 -0.059492715 0.0017245974
Hg20 0.0018065439 -0.031474274 0.023997437 0.033709638 0.02798439 4.015705e-05 0.03367531 -0.0015397563 -0.022953568 0.007256332 -0.0006456369 -0.0071559483 -0.012366525 -0.04308189 0.015853625 0.014909102 0.003593562 0.009038103 -0.04276389 0.049281165 0.018689115 0.006942575 0.003034092 -0.023371456 -0.039815195 0.014986596 0.006005276 0.012362735 -0.01798566 -0.024779117 0.013651587 0.0052578407 -0.011513097 -0.015311244 -0.020931166 0.0389182 0.03765303 -0.016012205 0.025194084 -0.03458661 -0.035922103 0.039208468 -0.016722847 -0.012596374 0.050102443 -0.0014638912 -0.00027834775 -0.010521814 0.011497015 0.023429023 -0.0020916446 0.00011953614 0.015798721 0.02330174 -0.03018665 -0.007829531 0.03009515 -0.03888142 0.0021373103 0.03735689 0.004420099 0.008697346 -0.003811862 0.012316011 0.017158234 -0.018112462 0.00038515122 0.036495432 -0.013635817 -0.021442685 0.027269872 0.0057887873 -0.020697935 -0.03312638 -0.00042063973 -0.00015902931 -0.0178531 -0.015234347 0.008753484 0.056098234 -0.00075000915 -0.018419575 0.015657548 0.05870184 -0.012919827 0.036331743 0.040406007 -0.048456647 0.0026784644 -0.0017596685 0.004105809 -0.013601217 0.024429528 -0.0346812 0.03473745 0.04481396 -0.04777123 -0.027569294 -0.0056730956 -0.021323651 -0.058311444 0.0013812127 0.027410854 0.025270045 0.00931372 -0.0056741973 0.008510172 0.0065123094 0.024436943 -0.03842079 0.024753926 -0.03838264 0.012681369 0.019284215 -0.008496903 -0.008563398 0.03077403 0.014561549 0.0035379985 0.0048629614 -0.013515073 -0.037992876 0.026997557 -0.018085225 -0.013626694 0.00018188801 0.030236851 0.009098238 0.022002276 -0.0063275965 0.020736592 -0.0038291458 0.013458024 -0.028868208 -0.006354963 -0.0007805392 0.01923506 0.020962508 0.062476736 -0.0029521757 -0.02150864 -0.011254294 0.032229204 0.021357033 -0.06389322 -0.012306259 -0.0063249734 -0.014127758 0.04487709 0.034346055 -0.017767949 -0.03584828 -0.0208997 0.018820828 -0.058791067 0.033685762 0.03459219 -0.0016009874 -0.036038607 0.009261009 0.014456973 0.010016945 0.021834528 -0.008578456 0.0055417055 0.0073223747 -0.0082468735 0.03405939 0.03882637 0.0055329087 -0.007919454 -0.012217754 0.013719448 0.0029663923 -0.041736983 -0.0064756684 -0.030789116 0.012036502 0.035586912 0.009640002 -0.0150149595 0.014394735 0.018414756 -0.0034229462 0.035392113 0.017599693 -0.058851436 -0.008502387 -0.03379021 -0.0016361857 0.03893925 -0.009968566 0.041808542 -0.016829833 0.036302023 -0.01932574 0.012652035 -0.043110024 -0.017920395 -0.017559757 -0.047392245 -0.012136659 0.008659877 -0.03383242 -0.0094037475 0.0042482456 -0.054221198 -0.029206175 -0.030662095 -0.00014750137 0.0051104864 0.025188738 0.053455535 0.03440724 0.017154336 -0.009734586 0.03448758 0.046345435 -0.04035059 0.005259786 -0.004990244 0.009172237 0.017056875 -0.006328798 0.02557536 -0.034699615 -0.003877192 0.013445136 -0.012425603 0.009376243 -0.025832843 0.0049693943 -0.005863529 -0.015864298 -0.023612352 0.03218305 0.003704308 -0.0039102784 0.0021941077 -0.0049035205 -0.02006937 0.015067996 -0.009741075 0.020466294 -0.008766603 0.00669704 0.020541515 0.0032461984 -0.02839472 -0.024351899 -0.03119211 0.022887185 -0.02197719 -0.0117044905 -0.05192228 0.00040618403
c -0.0014790444 -0.02555733 0.021646349 0.02726447 0.02714815 -0.0064682136 0.029858813 0.0024081776 -0.021970684 0.010154158 0.003885847 -0.00931507 -0.011698783 -0.039239705 0.012484386 0.015345279 0.00473177 0.010676915 -0.041117303 0.045836914 0.012521999 0.0052534137 -0.0011144076 -0.019105267 -0.037175864 0.011727065 0.010067371 0.014843808 -0.019003375 -0.021768782 0.0088201985 0.0025563138 -0.014092984 -0.01376667 -0.017778944 0.042969994 0.03215812 -0.013579499 0.022088422 -0.03215348 -0.036124054 0.035763733 -0.013701177 -0.0104505 0.042888723 -1.7746572e-05 0.0009485771 -0.013593599 0.008420446 0.019655395 -1.8084573e-05 0.0027896294 0.015128447 0.018019315 -0.02251221 -0.014754021 0.032498993 -0.03862273 0.0036799626 0.030008297 0.0063631623 0.012041262 -0.004181462 0.0043689795 0.01853803 -0.016845483 -0.0037360922 0.03559229 -0.015385726 -0.019881958 0.026758507 0.004220664 -0.023054134 -0.034003276 -0.00035822316 -0.0037262125 -0.019001877 -0.012628016 0.0019808044 0.052877046 -0.0017726284 -0.017083455 0.01904419 0.05004226 -0.006197309 0.034484223 0.03705441 -0.05077684 -0.001143147 0.00022671196 0.0034314585 -0.011450105 0.023034524 -0.0282328 0.030806633 0.045039307 -0.047796614 -0.030662838 -0.0009883522 -0.025182351 -0.052952666 -0.0003891906 0.018968483 0.021706693 0.012699514 -0.0067518465 0.0019429835 0.004835915 0.019450467 -0.037848633 0.024436343 -0.033796847 0.016400874 0.01696562 -0.002139896 -0.0094448 0.02736088 0.0122524435 0.00085751514 0.0028546476 -0.008736281 -0.032985836 0.0214366 -0.015808294 -0.009320243 -0.0013583704 0.033352163 0.011682583 0.020646846 -0.0014851337 0.025558483 -0.0066304347 0.012943521 -0.027086042 -0.002991136 -0.003073807 0.011808048 0.026610574 0.05360783 -0.0050074263 -0.020103803 -0.008153421 0.032645863 0.016947031 -0.056202266 -0.008889429 -0.0045004846 -0.0058366647 0.04421328 0.03222836 -0.022676712 -0.027472962 -0.022344377 0.018868316 -0.05699664 0.03280032 0.03506527 -0.0039650514 -0.032493964 0.014178303 0.010914588 0.013874414 0.018540422 -0.0074633257 0.010364974 0.0076944325 -0.010520311 0.035563022 0.031972084 0.0070583895 -0.0067135785 -0.006659068 0.012968491 0.0036848173 -0.03881283 -0.0060177334 -0.03281774 0.0073723374 0.033969983 0.009972673 -0.014515857 0.008093671 0.015740084 0.0022830684 0.031501696 0.016377619 -0.05337442 -0.01084557 -0.031924423 -0.0018063262 0.036877077 -0.008537598 0.043479428 -0.015462942 0.03295916 -0.024353184 0.01516954 -0.04507143 -0.015866665 -0.012528863 -0.049607843 -0.009434732 0.011050218 -0.028558008 -0.007045178 0.001162351 -0.04581217 -0.027988939 -0.033449367 -0.00026955947 0.0044548367 0.019399434 0.04250443 0.03128403 0.014518494 -0.010422705 0.034819186 0.04209743 -0.034639213 0.003876465 -0.002496932 0.009393906 0.017495684 -0.0037326843 0.016364703 -0.03687869 -0.0033590237 0.016017212 -0.014218268 0.012043241 -0.024789758 0.0017976381 -0.007183805 -0.00985726 -0.024200851 0.02411834 0.0032585142 0.0022804723 0.0023545155 -0.009815644 -0.015605136 0.009805298 -0.009905106 0.017388895 -0.005952928 0.009007205 0.016713852 0.0018207087 -0.02197437 -0.025980165 -0.03289205 0.022222511 -0.027070463 -0.009412057 -0.055124868 0.0061126566
ns -0.0023598915 -0.029132714 0.017107565 0.027186211 0.027991937 0.0013466356 0.027230999 0.0013438028 -0.0151784485 0.007254833 -0.001357756 -0.0076719467 -0.005931318 -0.031047184 0.010697896 0.008432433 0.0026815576 0.012731776 -0.03901603 0.040225774 0.012052315 0.007658393 0.003647326 -0.0211346 -0.02916218 0.015825728 0.009754222 0.009360835 -0.0130158095 -0.018212497 0.007714868 0.0058959415 -0.00984898 -0.0069046426 -0.014883618 0.03666595 0.02786021 -0.016109042 0.0159714 -0.02547179 -0.03664478 0.03326418 -0.013443302 -0.012369524 0.040925905 -0.002791401 -0.0065763383 -0.010139602 0.013572754 0.015980765 -0.0051900097 0.00599924 0.013957011 0.023656772 -0.027654016 -0.0075557223 0.023058731 -0.032901164 0.0049123773 0.02794603 0.0056196502 0.0052467403 -6.353253e-05 0.009325658 0.016785124 -0.011029326 -0.0007006529 0.033340268 -0.014123198 -0.017987093 0.021517709 0.0005775274 -0.020359598 -0.029007247 0.0044360515 -0.0043185316 -0.015995922 -0.0111269355 0.0028121332 0.04395689 -0.002212601 -0.01651422 0.015423024 0.051691316 -0.008809009 0.026686842 0.036276795 -0.042690087 -9.831424e-05 0.0018582237 0.0073727574 -0.010294157 0.0185686 -0.028268425 0.03332423 0.04058161 -0.044425286 -0.028389458 -0.0034497648 -0.022676624 -0.04604165 -0.0035889864 0.019579912 0.02191369 0.0110068275 -0.002791411 0.0007266502 0.0033348403 0.02092113 -0.029900977 0.02460596 -0.029656729 0.014420842 0.018514184 -0.005197304 -0.005224915 0.02401357 0.005982166 0.0025723614 0.0016202953 -0.009871858 -0.030290583 0.025807386 -0.010832099 -0.009229369 -0.0015534448 0.025983576 0.01038022 0.014479186 -0.0038542887 0.020250669 -0.00022255025 0.011570676 -0.02102535 -0.0033517426 -0.004357156 0.010570216 0.022472823 0.052037008 -0.007751398 -0.014175214 -0.0048715533 0.022979265 0.014382196 -0.05684735 -0.0069094417 -0.008330584 -0.008009442 0.044080332 0.026543528 -0.020559397 -0.027696725 -0.022630109 0.0127476975 -0.05465114 0.026117312 0.027817344 -0.0038691042 -0.030797917 0.014039158 0.013053546 0.0074090012 0.020448811 -0.00993416 0.0071485494 0.009622547 -0.0084411455 0.027558189 0.03261415 0.00806079 -0.008498411 -0.010187012 0.0056097847 0.0071802703 -0.03786982 -0.008055859 -0.023929186 0.0075876093 0.031757884 0.012771644 -0.0144626815 0.012439582 0.008800875 -0.0028229507 0.025909675 0.013475047 -0.05103137 -0.0064468007 -0.024213796 -0.005151911 0.034293823 -0.0072942656 0.03438903 -0.013462343 0.025236426 -0.01565515 0.016391454 -0.03851788 -0.020423176 -0.014775762 -0.043643158 -0.0088481 0.011436724 -0.02754489 -0.010145943 7.453708e-06 -0.045085322 -0.021949232 -0.027955031 0.0011260164 0.009944296 0.018641654 0.044756606 0.02932164 0.011456643 -0.008833178 0.026204282 0.034234043 -0.03300289 0.0066417237 -0.0060008396 0.011734675 0.013221656 -0.008645953 0.020240257 -0.029204939 -0.006522897 0.012269768 -0.014417797 0.010827747 -0.023199566 8.04011e-06 -0.0076550706 -0.008254041 -0.019330766 0.027257618 0.00935667 -0.0032493528 0.0049969894 -0.0056702057 -0.010767749 0.008095003 -0.003907009 0.014106066 -0.0044100746 0.010294986 0.016260687 0.002620442 -0.019015748 -0.019678734 -0.023424476 0.018547028 -0.021724591 -0.0056035537 -0.044116765 0.0009905738
r 0.00027803265 -0.028634446 0.021233575 0.027740462 0.02566177 -0.0029081414 0.030946484 -0.0027316895 -0.015124338 0.006652815 0.003408947 -0.0065496527 -0.0045481306 -0.039360836 0.011980115 0.014658762 -7.093408e-05 0.012329757 -0.041759748 0.045012034 0.014794629 0.0053153075 0.0005309025 -0.023211127 -0.035906624 0.010589296 0.009822656 0.015461977 -0.018153515 -0.01507573 0.010897488 0.0018527058 -0.011022268 -0.010361801 -0.019033391 0.04010601 0.033477128 -0.0109816305 0.023983436 -0.028588567 -0.037478518 0.032662477 -0.012540112 -0.013209792 0.04477974 -0.0014881737 -0.00033738377 -0.013787748 0.011381109 0.021241896 -0.005194052 -0.0007446021 0.0075985976 0.022403706 -0.029640468 -0.00822588 0.026884018 -0.042538002 0.00070428045 0.034561124 0.00215847 0.011763429 -0.0059237685 0.0045660078 0.01334756 -0.013780056 -0.0026512688 0.030209245 -0.01660276 -0.016842283 0.025053997 0.0015038948 -0.024106583 -0.03117728 0.0028663848 -0.005038149 -0.013425895 -0.013406321 0.0066564903 0.051673736 -0.0017358526 -0.012866677 0.020666234 0.053653657 -0.012125549 0.032810263 0.032444984 -0.04920974 0.002734905 -0.005288273 0.00217001 -0.013927482 0.019872604 -0.027398735 0.033375695 0.043762676 -0.046753816 -0.025910903 -0.0065665776 -0.021706462 -0.054685764 0.00024658814 0.023892535 0.023904199 0.008404552 -0.0034129694 0.007667336 0.00013233405 0.01891513 -0.03403619 0.021744085 -0.029352047 0.016155342 0.020172732 -0.0012673449 -0.008993246 0.024668703 0.0063808933 -0.0016193916 0.00028770007 -0.007782748 -0.03199243 0.021181677 -0.00965428 -0.009141688 -0.00012386563 0.02769636 0.010495193 0.016955398 0.0003911292 0.022795597 -0.004691687 0.013587651 -0.026025347 -0.0050294735 0.0005202321 0.012678438 0.025062807 0.05209265 -0.009170196 -0.018987898 -0.01116396 0.027621971 0.016278801 -0.055299502 -0.006240966 -0.008160376 -0.008050677 0.04246135 0.03271637 -0.019349921 -0.031982914 -0.022801682 0.015913462 -0.05503055 0.029321335 0.027004918 -0.0019546347 -0.033569522 0.009784793 0.008203204 0.009351261 0.016125789 -0.01040819 0.007846559 0.0057225525 -0.011272975 0.02815171 0.03948003 0.0077741845 -0.008067271 -0.0069431346 0.0063170204 0.0052126525 -0.039438777 -0.008766282 -0.031874858 0.0052766013 0.03672849 0.014817994 -0.0119744465 0.01088289 0.014891469 -0.0029497407 0.035363182 0.017349735 -0.050234336 -0.006749849 -0.031594314 -0.0018528829 0.03805457 -0.01140364 0.037499808 -0.017505307 0.029517658 -0.021666043 0.014607586 -0.03847994 -0.01832937 -0.013938353 -0.048799183 -0.006020785 0.0062546106 -0.032595634 -0.008782372 0.0010979851 -0.050858203 -0.024849245 -0.029644996 0.002351672 0.009003159 0.019654997 0.046553057 0.030195072 0.0185002 -0.0056437594 0.031043878 0.040440097 -0.03698815 0.0023710094 -0.009581739 0.009022579 0.013072459 -0.008917173 0.020450532 -0.031143537 -0.010686955 0.015029003 -0.010989416 0.011540488 -0.02356367 0.008176396 -5.8709044e-05 -0.012622534 -0.02246078 0.022726111 0.0032486955 -0.000301079 0.0054221433 -0.00726909 -0.01800695 0.012926849 -0.011462453 0.0208222 -0.005280287 0.0054770866 0.018933013 0.0037533746 -0.026041294 -0.024755258 -0.025252132 0.019776477 -0.018733753 -0.013513861 -0.050781615 0.005159413
Dn08 -0.0012431246 -0.029850028 0.016474787 0.028347097 0.025091806 0.0008045713 0.029150909 -0.003343002 -0.015414494 0.0068145744 0.00033873972 -0.008190969 -0.006284376 -0.040145937 0.013787696 0.012721199 0.004360839 0.012983127 -0.03966592 0.04210089 0.016784731 0.006307656 -0.0031838724 -0.024752332 -0.03537111 0.01536544 0.005821373 0.011117073 -0.012703796 -0.020946825 0.012570956 0.004349466 -0.012430199 -0.01405461 -0.01650231 0.042431433 0.029319193 -0.016021276 0.019726204 -0.027921004 -0.0384823 0.037008956 -0.017088706 -0.013566133 0.045811143 -0.00025485214 -0.001896784 -0.014773225 0.0076850182 0.018275555 -0.0023081298 0.0013235924 0.011964006 0.023228481 -0.02445369 -0.010144377 0.027733285 -0.039057717 0.0005589543 0.029860552 0.006619145 0.007910316 -0.006105191 0.009710713 0.019299285 -0.014425497 0.0013135538 0.03339203 -0.01514966 -0.020637073 0.019218054 0.0011327433 -0.024623552 -0.029255595 0.004924082 -0.0023948788 -0.016782923 -0.007138918 0.005529479 0.0466312 -0.0032834478 -0.0150371995 0.015995609 0.05157803 -0.0054268753 0.03404278 0.033597022 -0.049970675 0.0006444857 -0.001500836 0.0014043051 -0.009315583 0.01695891 -0.028335309 0.03708416 0.043022595 -0.044587452 -0.029574556 -0.0077611213 -0.021229152 -0.052457094 -0.0038563574 0.025262015 0.01955913 0.012546349 -0.0062244013 0.000768353 -0.0012552552 0.02333281 -0.036664266 0.026312295 -0.034435663 0.017176177 0.01952352 -0.0011260115 -0.0022851485 0.021815844 0.0056536 -0.0022032773 0.0038432048 -0.0075458335 -0.031418204 0.023996836 -0.010964743 -0.010929272 -0.0032222557 0.031298988 0.008087333 0.01835664 -0.004465665 0.025746122 -0.0042471066 0.013259293 -0.02912467 0.00026316647 -0.005211364 0.015896194 0.023508769 0.057999447 -0.008264847 -0.019565532 -0.012023303 0.030432353 0.015110599 -0.056521658 -0.0089998795 -0.0045734965 -0.011930948 0.04438937 0.03294498 -0.022191826 -0.027870724 -0.022246348 0.020387614 -0.056130316 0.031319454 0.032490484 -0.0010809716 -0.03691798 0.0147868525 0.014037071 0.011925017 0.020163912 -0.0052929986 0.010013748 0.007993296 -0.008294092 0.03202007 0.03825196 0.011531255 -0.008430097 -0.0094634695 0.0065291296 0.005751909 -0.04486559 -0.004287358 -0.029798683 0.008163 0.03691352 0.008377979 -0.013301268 0.009293058 0.012078689 -0.0041821776 0.029009191 0.018033426 -0.05575276 -0.008683242 -0.030404361 -0.002459802 0.036286466 -0.014258908 0.03901776 -0.01992337 0.027375996 -0.022940725 0.014531301 -0.042208873 -0.01910333 -0.018807517 -0.04956119 -0.010906705 0.0062911436 -0.03176424 -0.008389209 0.0007976675 -0.0532957 -0.028205216 -0.029758766 -0.0010265382 0.00537443 0.023226911 0.049738884 0.027937794 0.018588392 -0.012339562 0.032543067 0.04355023 -0.03649459 0.0076807644 -0.0066832243 0.0110076675 0.017853238 -0.0110751325 0.017876612 -0.03573813 -0.0076067206 0.011867509 -0.013053643 0.0067197657 -0.022064544 0.003951999 -0.0016393032 -0.016252557 -0.024522245 0.029561358 0.009049132 -0.0012198397 0.004174144 -0.010006857 -0.014431778 0.0069587785 -0.011799852 0.018442668 -0.0076307547 0.010682554 0.014191022 0.0011126723 -0.023422899 -0.024346244 -0.029392887 0.021821972 -0.025603522 -0.009554879 -0.04970269 0.003480224
è€ 0.00074103725 -0.02440092 0.02109865 0.030292256 0.029648835 -0.0054916227 0.031756166 0.0016912001 -0.02010364 0.0056902166 0.0033593 -0.0051639546 -0.011165678 -0.03574028 0.01298481 0.013307863 0.0035392141 0.0067676436 -0.03434423 0.03873508 0.017368536 0.009300544 -0.0021404256 -0.025339575 -0.03025967 0.010312595 0.005201528 0.012247565 -0.017545054 -0.014930877 0.01211545 0.0043930006 -0.006810132 -0.0075421263 -0.01351926 0.0400341 0.03206776 -0.010505617 0.022808613 -0.026586035 -0.038572036 0.037466895 -0.012101158 -0.0062062643 0.040723905 -0.0017517097 -0.0032200457 -0.00910839 0.0065887496 0.01994745 -0.00094087806 0.0064340015 0.009850781 0.021219995 -0.02264475 -0.010950564 0.028007168 -0.04096109 0.0029268495 0.032610867 0.004643192 0.005042563 -0.003980863 0.009011854 0.015735153 -0.015638351 0.0025367707 0.034328546 -0.01559746 -0.012353836 0.018185837 0.0033967956 -0.01727244 -0.030464623 -0.00093139306 -0.0013217743 -0.017584087 -0.012498806 0.001838552 0.04833251 -0.0076852925 -0.013381197 0.014931236 0.052513372 -0.010417955 0.027341885 0.037405618 -0.048632253 0.0006192825 -0.0028775514 0.0019967249 -0.0154627925 0.020749291 -0.030365469 0.033496838 0.036444377 -0.042966694 -0.027990714 -0.0061943494 -0.021564294 -0.053256094 -0.0013128186 0.020002075 0.020457104 0.008155071 -0.007963829 0.0063701402 0.0014741315 0.02205241 -0.031657003 0.026572997 -0.03326292 0.009222008 0.016277364 -0.008684277 -0.0029575569 0.027472742 0.008906907 0.0034159336 0.0072205877 -0.0073882183 -0.028973395 0.027085876 -0.011463739 -0.012652091 -0.0037325814 0.026947966 0.011259815 0.020779729 -0.0062303296 0.020193895 0.0013371059 0.01066811 -0.028818121 -0.0026244735 -0.0055366834 0.011623815 0.018567579 0.05180035 -0.0028434389 -0.015306833 -0.00569548 0.0304345 0.018222935 -0.058052648 -0.0055667246 -0.011357532 -0.011095786 0.045303665 0.03446287 -0.020258848 -0.033063494 -0.016885266 0.015453642 -0.055163465 0.03024504 0.032000598 -0.0027459846 -0.032370586 0.01431754 0.013408704 0.01353933 0.021180559 -0.008745949 0.008398442 0.008120552 -0.0063182525 0.034184545 0.036293827 0.009549648 -0.0023436903 -0.006223216 0.009223572 0.002668995 -0.040200595 -0.0019063913 -0.029398637 0.008211409 0.034417655 0.008355496 -0.009924183 0.010378018 0.013757233 0.0022139382 0.030939518 0.014084321 -0.054116543 -0.0061165984 -0.03150646 0.0015470128 0.035554342 -0.010455557 0.03596027 -0.012220379 0.029146936 -0.017944166 0.013749307 -0.042293735 -0.017807046 -0.018234834 -0.048328727 -0.013385313 0.010733398 -0.027762692 -0.00740085 0.0056451834 -0.048124965 -0.026878776 -0.028384836 -0.000678218 0.006742875 0.023125714 0.0439135 0.031118352 0.016662749 -0.010070244 0.02862199 0.042231407 -0.032559782 0.0040423074 -0.0060902154 0.006560667 0.015870612 -0.008356006 0.021064859 -0.033183727 -0.0074268533 0.015393881 -0.015475452 0.008487233 -0.025045572 0.004446546 -0.0032857168 -0.011254681 -0.02157829 0.026206145 0.0062137824 -0.0006898532 0.006006847 -0.008331604 -0.016116336 0.007892285 -0.012088305 0.013822869 -0.0065034614 0.009699002 0.014729517 -0.0032624353 -0.025295056 -0.019198561 -0.031784944 0.020408913 -0.019335456 -0.006601394 -0.051612787 0.0038448435
Ab02 -0.0024328933 -0.021142587 0.0148421 0.025017936 0.025361177 -0.0025693527 0.027810216 -0.0014629156 -0.013926735 0.0025474087 0.0033781047 -0.0071765915 -0.008847465 -0.032447185 0.011122002 0.011230409 -0.0003118079 0.004796182 -0.037084457 0.03492131 0.009968784 0.00330138 0.0030793583 -0.019771583 -0.0320962 0.009904935 0.008871298 0.010105424 -0.0137935765 -0.018118791 0.010561288 0.000444931 -0.011729661 -0.007182942 -0.016706659 0.03498816 0.026937617 -0.007748467 0.020442795 -0.025122996 -0.030949356 0.031104313 -0.012695422 -0.009948848 0.04109168 0.0018927855 0.000759883 -0.009835117 0.0084228525 0.020177552 -0.0062976843 0.0020992951 0.007030188 0.020175057 -0.026132062 -0.007908241 0.027817698 -0.03391388 -0.0013762794 0.024066325 0.003806996 0.005744162 0.0008458961 0.0066641336 0.016790288 -0.012506102 -0.00223917 0.027105225 -0.0110603925 -0.016461166 0.02164513 0.0028493097 -0.020957818 -0.027203945 -0.0007636369 -0.004857453 -0.016249524 -0.0096163815 0.0046295314 0.042923167 -0.000894162 -0.010692544 0.017495748 0.045275107 -0.0102749895 0.029892959 0.030749694 -0.038462013 -0.00044789843 0.0007340414 0.0062650004 -0.013772481 0.015031458 -0.025489876 0.028990483 0.032258023 -0.03708014 -0.022890981 -0.0033048082 -0.019463602 -0.047591504 0.0030697458 0.015220955 0.01608723 0.010675075 -0.007257428 0.0024759965 0.00091798825 0.016913366 -0.031777304 0.022380367 -0.028175587 0.0126186395 0.013559956 -0.001632819 -0.008388172 0.02376445 0.0056342916 0.00097865 0.00061972754 -0.009030386 -0.030316146 0.019473167 -0.006855579 -0.0072524296 0.00013997873 0.022252468 0.0124067385 0.012097584 -0.0030404609 0.01624007 -0.004761545 0.010949898 -0.023870219 -0.002021326 -0.0011034367 0.00985539 0.018311106 0.044955008 -0.009094551 -0.018938214 -0.0074196253 0.025550293 0.01457628 -0.051518038 -0.005917586 -0.006112011 -0.01186134 0.040496267 0.030881636 -0.019297129 -0.026952548 -0.01557249 0.01405426 -0.047833424 0.022878863 0.029065346 -0.0010034717 -0.027481565 0.007895567 0.008148214 0.008314034 0.0116957985 -0.0025949066 0.0070797578 0.0074792034 -0.0049538775 0.023230692 0.033051178 0.004096696 -0.0064006825 -0.0055201687 0.0065964106 0.0038382865 -0.03752658 -0.0064566648 -0.025453363 0.0052611977 0.032912675 0.013700858 -0.011878805 0.008774668 0.0091073075 0.0017570014 0.025112018 0.014744542 -0.0411339 -0.0067375973 -0.025096696 0.0005176209 0.03284444 -0.010987724 0.034919016 -0.011437499 0.028923979 -0.018067066 0.0141906245 -0.038709085 -0.019741818 -0.015254584 -0.042815086 -0.008186275 0.005971835 -0.024968911 -0.0030094336 0.006989227 -0.039025795 -0.020326931 -0.027485972 0.0025853873 0.004803989 0.013820638 0.042306077 0.022252534 0.014890738 -0.009473003 0.025188867 0.033975206 -0.032591447 0.0071419524 -0.008427507 0.003995195 0.015327843 -0.0046652216 0.019294832 -0.027147992 -0.0078194095 0.010245689 -0.010440926 0.011866206 -0.021381143 0.0024938683 -0.0028491032 -0.008213276 -0.022206018 0.021486757 0.0037838707 0.00028558896 0.005250381 -0.0041904226 -0.01615383 0.011877935 -0.00860421 0.014166542 -0.009975489 0.0048656454 0.019001834 0.0016915544 -0.023317823 -0.017701846 -0.028034417 0.012623871 -0.018124675 -0.0072064744 -0.042883314 0.0060426993
d 0.0018707361 -0.024855921 0.016430821 0.0249107 0.02264352 0.0012784951 0.020837292 -0.00090163876 -0.014228628 0.008719381 0.0005546989 -0.0029599606 -0.0078959875 -0.03329782 0.0078485105 0.009124584 0.004386371 0.0058819493 -0.033157002 0.038396005 0.009120548 0.0052220444 0.001705995 -0.020828228 -0.026988257 0.010512469 0.009153256 0.008671476 -0.0150290625 -0.011228419 0.0055384883 0.0063694757 -0.011374693 -0.0067034727 -0.014004836 0.028529532 0.024317322 -0.011862229 0.016616458 -0.024378916 -0.031869926 0.026434029 -0.013985522 -0.005199711 0.03873119 -0.0007776494 -0.0044697076 -0.00676794 0.00458048 0.016856087 -0.0012183941 0.001257999 0.0071804104 0.013608423 -0.023772677 -0.0055358675 0.023791926 -0.031007571 0.006128387 0.021740286 0.0026337255 0.0072919633 -0.0048196022 0.0027838482 0.015013695 -0.012900042 -0.002997524 0.030541513 -0.0127543 -0.014684098 0.018450405 0.0023940883 -0.020687021 -0.027015781 -0.0026858295 -0.00077892153 -0.014872168 -0.008196213 0.0050428645 0.037059892 0.00013111204 -0.009670173 0.013566407 0.041471127 -0.0068818512 0.026900398 0.032300927 -0.038120344 -0.0005332228 -0.0027216396 0.0038448717 -0.012647515 0.014013533 -0.027039465 0.02611201 0.03397245 -0.03495129 -0.02341761 -0.0006538571 -0.01957974 -0.036947474 0.0004036785 0.018469615 0.019253224 0.008465282 -0.0022164148 0.004369049 -0.0021611927 0.014946373 -0.027987458 0.015034154 -0.024845708 0.012324415 0.0121974 -0.0010476958 -0.0047077946 0.019545613 0.009968348 -0.0033036836 0.00032181703 -0.0044568633 -0.028306607 0.02248401 -0.008219806 -0.010987848 0.0031223241 0.025679743 0.006762621 0.0106841065 -0.0054756007 0.019180637 0.00046452717 0.008640401 -0.020269737 -0.0065142065 -0.004409139 0.013246214 0.013840965 0.03894373 -0.004259373 -0.017104195 -0.010410796 0.023918994 0.016685259 -0.048634686 -0.00366905 -0.0023148155 -0.005758358 0.033036865 0.029419636 -0.017761566 -0.025993567 -0.015945893 0.010932393 -0.047899265 0.023711935 0.02787363 -0.005771229 -0.02806704 0.010431052 0.0084905755 0.0055720545 0.017234202 -0.0065493286 0.007937493 0.008348658 -0.0037400294 0.028544025 0.031009516 0.0032421309 -0.003608143 -0.007685188 0.007918395 0.0084985625 -0.030341102 -0.007902973 -0.01857622 0.006060071 0.026954157 0.011033757 -0.013434245 0.007963322 0.0111578535 0.0016892304 0.026827719 0.010691371 -0.044863757 -0.009960457 -0.018984448 -0.005529357 0.03126968 -0.0084306635 0.031772505 -0.009442562 0.028170645 -0.013245435 0.016040685 -0.03714536 -0.011703169 -0.016184067 -0.040624708 -0.011242948 0.0077734087 -0.020005815 -0.008312371 0.002001574 -0.039714027 -0.021539243 -0.024894474 0.0034688332 0.007053295 0.014959807 0.034881607 0.023001334 0.011031536 -0.005404694 0.029352194 0.034970194 -0.030511336 0.0009248459 -0.008632475 0.005056705 0.013432862 -0.008191897 0.016517976 -0.022316214 -0.0043276353 0.0120679205 -0.0068916315 0.010438544 -0.01794878 0.0007316554 -0.0038052895 -0.0069974014 -0.015220616 0.019624285 0.008486305 0.00075523823 0.0048894472 -0.0082136 -0.009850997 0.008210956 -0.010720879 0.01612748 -0.009354859 0.0039930963 0.0151857585 0.004216429 -0.019744603 -0.014752342 -0.020842064 0.01694095 -0.020684345 -0.005546161 -0.043274287 0.0003224113
q 0.0015617943 -0.02756068 0.018414445 0.02416644 0.023176054 -0.0054130047 0.022408944 -0.0013147215 -0.011898596 0.008853065 -0.0028053254 -0.009262372 -0.00479225 -0.035441395 0.014262327 0.013958734 -0.0030806297 0.011863527 -0.030416334 0.0364233 0.01368537 0.0026742788 0.0018425355 -0.015668692 -0.026844243 0.008360103 0.009637726 0.009738682 -0.014219446 -0.013954994 0.008975659 0.005147623 -0.011002322 -0.008181425 -0.015157672 0.033854745 0.029001351 -0.009859933 0.021740036 -0.027166331 -0.030088864 0.032599453 -0.01522102 -0.006584619 0.035108805 0.0033072883 -0.0013505706 -0.007612087 0.010590808 0.019407308 -0.00411357 0.00025418564 0.008513076 0.018730985 -0.02309253 -0.012570607 0.021633336 -0.029646058 0.005773447 0.029654164 0.00083409593 0.008232279 -0.0054853265 0.009476998 0.013654088 -0.00881898 -0.001745483 0.027879214 -0.0103914095 -0.012918112 0.01608058 0.001008601 -0.017862048 -0.030714206 0.0034179266 0.0007290326 -0.015623772 -0.011000583 0.0008390984 0.03999509 -0.00088392664 -0.013115771 0.011564925 0.04831401 -0.011235886 0.02811299 0.033421833 -0.03971769 -0.0032169328 0.0010670803 0.0007296285 -0.012628636 0.019963784 -0.028744483 0.025009118 0.03353211 -0.037142552 -0.023157155 -0.0055990773 -0.019363513 -0.040179882 0.0039684535 0.02264647 0.019025853 0.010494975 -0.0034495376 0.0044975276 0.0038546799 0.018429598 -0.028701786 0.01934464 -0.030895375 0.014405781 0.011398043 -0.0028024921 -0.0049152793 0.019202689 0.005937706 0.0010060642 0.00096462417 -0.010713414 -0.028400693 0.022885766 -0.008456917 -0.008552699 0.0025248907 0.021542149 0.008298892 0.0119173415 -0.0045293914 0.02181895 -0.0061624623 0.0067415545 -0.026235096 0.0008988016 -0.0033210889 0.012356021 0.01642589 0.044579387 -0.0051655304 -0.015933853 -0.010861796 0.02079332 0.015113906 -0.05253301 -0.006749288 -0.007087285 -0.004736504 0.03711509 0.030126778 -0.018648172 -0.029149631 -0.015613666 0.015507829 -0.049052883 0.023417473 0.029767452 -0.007528269 -0.02955875 0.009954852 0.008750446 0.013587149 0.014226592 -0.008402099 0.0042902785 0.0035531158 -0.010791065 0.02393703 0.028288094 0.006357526 -0.004628537 -0.009716747 0.009084333 0.0070492057 -0.030966086 -0.006448095 -0.022471529 0.010010135 0.027136993 0.0067241075 -0.012887097 0.005686016 0.013973838 0.0027996376 0.030300418 0.0092384685 -0.041983876 -0.006864819 -0.022049367 -0.004919588 0.029679285 -0.012046696 0.030684618 -0.01306911 0.030057548 -0.01517975 0.010397645 -0.0346676 -0.01743334 -0.009141919 -0.04389758 -0.0043656207 0.004635506 -0.02724152 -0.005480739 0.003208241 -0.045216683 -0.021204282 -0.026077103 -0.00074917846 0.008019866 0.018294258 0.042608734 0.028438337 0.010777551 -0.0058354586 0.0292961 0.0364654 -0.027366452 0.0012169065 -0.003947006 0.008256094 0.012502376 -0.009106989 0.017599924 -0.025353707 -0.009662339 0.0157705 -0.009651264 0.008229209 -0.020116903 0.003638949 -0.0009033193 -0.008801501 -0.021894455 0.025862657 0.00395334 -0.0034952206 0.0068261987 -0.004293579 -0.010840184 0.011473249 -0.010374731 0.012575912 -0.0071765473 0.0055614277 0.014510942 9.4797746e-05 -0.023527063 -0.017903665 -0.0235866 0.01576762 -0.017158361 -0.0074384594 -0.040751882 0.0015754765
Aa04 0.0032178247 -0.02362326 0.016706608 0.022657443 0.02420365 -0.0009556279 0.023860073 0.003450687 -0.017867526 0.010250848 0.0013538095 -0.0072533307 -0.0075481846 -0.03385645 0.009529829 0.011951476 0.00336373 0.011521348 -0.03526528 0.038956627 0.008538655 0.006171709 0.002681888 -0.018909741 -0.030301634 0.007921299 0.00748432 0.010419909 -0.016581655 -0.013918394 0.008500148 0.004958249 -0.0063724476 -0.008210944 -0.01703809 0.033901066 0.026746029 -0.014032802 0.016688397 -0.024092585 -0.029878639 0.027683657 -0.015046405 -0.008184637 0.038374674 -0.00048569276 -0.0020764759 -0.008267069 0.006553241 0.013260843 0.0009369376 -0.001559886 0.007657548 0.016343895 -0.024003081 -0.0079037445 0.025825111 -0.03175467 0.0054489444 0.025642242 -6.483742e-05 0.0064832713 -0.002168495 0.009176213 0.015278119 -0.008965824 -0.0022919367 0.024662796 -0.008358605 -0.012204848 0.019861965 0.0038932501 -0.014497908 -0.02923431 0.005186125 -0.004676393 -0.013872698 -0.005628 0.00023931733 0.040412784 -0.006055423 -0.015097565 0.014857139 0.04285924 -0.008506083 0.027663564 0.026050359 -0.0378002 0.0038466388 -0.00069360744 0.00084156985 -0.008597746 0.01293629 -0.023562128 0.027335241 0.036743652 -0.033744644 -0.024128499 0.0009136483 -0.019136157 -0.038512345 -0.003080159 0.014514033 0.017233042 0.0048906757 -0.0048885765 0.0034472623 0.0017317092 0.012559236 -0.029772904 0.016335292 -0.026820153 0.012739179 0.013196136 0.00023740664 -0.006142784 0.023112308 0.009858469 0.003645075 0.0030837914 -0.007438232 -0.02477542 0.015442142 -0.0066270684 -0.00868615 0.002855422 0.024170393 0.010684532 0.013885849 -0.0061528315 0.018250244 -0.001165156 0.0054488983 -0.022649799 -0.0039649345 -0.0041661244 0.013050944 0.018837726 0.044814847 -0.007456534 -0.016310407 -0.005600071 0.025248434 0.015918992 -0.04431552 -0.009701301 -0.002807649 -0.010415349 0.032035623 0.029742451 -0.015948188 -0.028547572 -0.018284367 0.01652942 -0.045545273 0.025184743 0.025004236 -0.0017758971 -0.026095238 0.0051902253 0.006650968 0.012549681 0.015180106 -0.0075886035 0.009545491 0.010063407 -0.0044842665 0.02515815 0.024808623 0.005159961 -0.0019467723 -0.00980296 0.011487131 0.0009332914 -0.03592673 -0.006660543 -0.020548398 0.0033293795 0.030726846 0.005039718 -0.009571837 0.009295126 0.010604522 0.0027685408 0.027317408 0.011988682 -0.039966486 -0.0057972954 -0.021766843 0.0020487958 0.027446643 -0.012275544 0.030382173 -0.013866354 0.02158791 -0.017392097 0.015578138 -0.035581995 -0.012787349 -0.010627625 -0.038323916 -0.0070618396 0.009305311 -0.025837416 -0.004294321 0.006749922 -0.040802997 -0.023096848 -0.02842543 -0.0021250313 0.0072129723 0.018240746 0.039727267 0.023397028 0.012920616 -0.0058815265 0.021758286 0.028503798 -0.025976123 -0.00018755252 -0.006639708 0.005580292 0.014728082 -0.007247596 0.020158712 -0.025757795 -0.007793346 0.01010831 -0.009857044 0.005644599 -0.015045184 0.0072032134 -0.0013108035 -0.012910701 -0.020976927 0.021491578 0.003753798 -0.002600109 0.006100786 -0.0034747773 -0.013561692 0.009503527 -0.004831362 0.014983415 -0.0027643654 0.0060987812 0.011792674 4.415663e-05 -0.022284035 -0.013760429 -0.026955115 0.014943974 -0.019302819 -0.0062951883 -0.03866122 -0.0011480466
Ig01 -0.0023483601 -0.02112438 0.015709419 0.024482112 0.01950713 -0.002428416 0.018697366 0.001968387 -0.016880045 0.0070651346 -0.0006983241 -0.009110418 -0.0027253043 -0.028048975 0.0058963643 0.006400644 0.0007061782 0.0040713605 -0.027701534 0.0340329 0.012641004 0.001949011 0.0029104273 -0.020461697 -0.021972429 0.010278964 0.005843324 0.0118755195 -0.012568808 -0.0159401 0.005938674 0.00049221335 -0.0075027184 -0.011056233 -0.010237979 0.025695665 0.02146175 -0.013955765 0.01223691 -0.022562556 -0.030631311 0.02351022 -0.010849712 -0.008185585 0.03519334 0.0030585688 -0.0062253987 -0.0060332255 0.0043180203 0.017743997 0.00045554287 0.0056478903 0.004886411 0.017190978 -0.022245916 -0.0082368 0.018754477 -0.032489624 0.0038802316 0.025400126 0.0008656595 0.0038881453 2.0768377e-05 0.004321792 0.007703198 -0.012301559 -0.0006426702 0.029013608 -0.012192816 -0.009545934 0.01908025 0.0015585363 -0.016958866 -0.024574941 0.0023049244 -0.0012190175 -0.013439637 -0.011373953 0.0063840887 0.031734988 -0.0064984765 -0.011059477 0.014309046 0.038848355 -0.00669569 0.023619652 0.027470633 -0.031961996 -0.0012238685 -0.0040607355 0.00034865207 -0.005968153 0.01468402 -0.024575682 0.026903262 0.03455838 -0.03089993 -0.023394108 -0.0047111367 -0.016842028 -0.041103378 0.00229831 0.01879394 0.01388791 0.01071399 -0.0064331903 0.0061193584 -0.0004244853 0.016123356 -0.026345365 0.018999595 -0.02123809 0.009200357 0.010212959 -0.0071191355 -0.0022816656 0.020197751 0.010054013 -0.0014543344 -0.0010181222 -0.004075586 -0.025368948 0.019802755 -0.006378088 -0.0087898495 0.00058332185 0.020087784 0.006030697 0.010692352 -0.0021364545 0.01331852 -0.0030622708 0.0077802874 -0.016279774 -0.0024210736 0.00013246018 0.012316588 0.015145687 0.037773207 -0.000343559 -0.009976688 -0.010505413 0.022490134 0.015735058 -0.038809877 -0.01002516 -0.006544333 -0.00694272 0.033664726 0.023272699 -0.015529019 -0.02010496 -0.012821373 0.013318615 -0.043479916 0.019343294 0.020924695 -0.0019426568 -0.024600644 0.007534791 0.003503818 0.0072567007 0.016051108 -0.0022724508 0.007673786 0.005723125 -0.0029566586 0.023781905 0.026674133 0.008631366 -0.006396892 -0.0038218487 0.011172836 0.006373184 -0.028665619 -0.0023816067 -0.021843983 0.0028505179 0.025453461 0.008803151 -0.01296895 0.008288213 0.011891303 -0.0040308735 0.024410248 0.01410906 -0.042124383 -0.0063996655 -0.024560336 -0.0051141274 0.028445255 -0.0109241055 0.029342914 -0.015511817 0.01966805 -0.018402433 0.011757968 -0.03031687 -0.016875276 -0.014613506 -0.036340863 -0.0080860015 0.0039280453 -0.023311418 -0.004184833 0.0042024013 -0.033364505 -0.016657716 -0.023000238 0.0025883524 0.008805548 0.015937865 0.034588903 0.022973431 0.0077279382 -0.004228865 0.025938587 0.029636594 -0.021732138 0.0007138982 -0.0034507606 0.0039000262 0.0075288066 -0.0045457934 0.016599836 -0.02175654 -0.008863694 0.01261414 -0.008878723 0.009009654 -0.016763652 0.0052594063 4.637549e-05 -0.012885363 -0.021190498 0.022381643 0.0038488167 -0.0037674247 0.0009766876 -0.0051923003 -0.0069651613 0.0068364525 -0.006855348 0.009931765 -0.008839445 0.0070932386 0.0130555285 -0.0028806902 -0.017099345 -0.020065362 -0.02245995 0.016095677 -0.016377414 -0.0035670828 -0.034801062 0.0014021113
å’Œ 0.0013701742 -0.022040553 0.019824127 0.029635513 0.024872692 -0.0005973969 0.028563406 -0.00046158378 -0.018355167 0.010310184 0.0016681621 -0.008794453 -0.0069935555 -0.03419169 0.014966879 0.013015509 0.0027498333 0.010907281 -0.030256266 0.03555428 0.010349864 0.0032554197 -0.002152055 -0.022842057 -0.029436532 0.00888847 0.011362973 0.0099927755 -0.016006999 -0.019892043 0.006326728 -0.00046946888 -0.008309506 -0.008143395 -0.01513465 0.037168138 0.025953144 -0.015015405 0.017099613 -0.02701403 -0.034290183 0.025854876 -0.014948911 -0.009261988 0.040964726 -0.003481562 -0.0045876806 -0.009387625 0.007959485 0.0187313 -0.0035922895 0.004188303 0.012947001 0.014654838 -0.020465197 -0.0068736747 0.023895323 -0.030361095 -4.2933858e-05 0.025190974 -0.00060488936 0.011849077 -0.005571758 0.0056915954 0.012878059 -0.014372695 0.003654225 0.026397955 -0.014465734 -0.010800414 0.015701408 0.0079787 -0.020559639 -0.025132611 0.0009296875 -0.0030655058 -0.016797248 -0.011314623 0.0070945816 0.043779448 -0.0034671668 -0.010598546 0.016774097 0.046143852 -0.006647504 0.022064714 0.03464379 -0.04339435 -0.0010562729 -0.0007084479 0.0058677946 -0.014435724 0.016787726 -0.022620827 0.024180826 0.039612528 -0.041023113 -0.019866113 -0.0055460446 -0.015251353 -0.040274512 -0.00331173 0.018992685 0.015507381 0.0120566 0.00023270106 0.0013958234 0.002516848 0.016595481 -0.032404978 0.020770151 -0.03235013 0.012065274 0.0110057965 -0.002124785 -0.0016095588 0.020561583 0.006738518 -0.0034885006 0.0051678335 -0.006512723 -0.023934409 0.022029864 -0.012368037 -0.0068242922 0.0028251144 0.028383346 0.013121473 0.012074761 -0.005259114 0.021709692 -0.0055773826 0.011346281 -0.018890997 -0.004590479 8.2118255e-05 0.00917769 0.021779682 0.048076 -0.003584045 -0.01812152 -0.0045236754 0.027072905 0.013977357 -0.047683243 -0.004747793 -0.007240589 -0.005973656 0.035560858 0.027066315 -0.016271982 -0.027917573 -0.018369038 0.011915236 -0.04594163 0.028178988 0.028696345 -0.0012911125 -0.030338425 0.011885468 0.0059429198 0.0074327113 0.019654365 -0.00302858 0.0051176236 0.0049130716 -0.0048250775 0.027989956 0.032654796 0.004327409 -0.005241232 -0.007906677 0.007904028 0.005918829 -0.03695757 -0.003246701 -0.02573362 0.010195548 0.02865683 0.013321984 -0.012447414 0.010862614 0.0084543545 -0.005039201 0.026827252 0.01166282 -0.040598586 -0.007061163 -0.02670243 0.0010311274 0.029913982 -0.013206142 0.03648593 -0.014856508 0.02244204 -0.014463172 0.016161729 -0.032485105 -0.015524891 -0.00999307 -0.03828221 -0.011085363 0.011155916 -0.026070107 -0.009907742 0.0066645527 -0.04371058 -0.017578676 -0.029148314 0.0053818487 0.0036103628 0.018918745 0.042929206 0.027550165 0.012461214 -0.009697547 0.023469046 0.035900265 -0.026738169 0.0019291057 -0.0030562943 0.010417663 0.009681569 -0.005342106 0.014269505 -0.029840635 -0.005765758 0.0097790705 -0.012835804 0.0056428914 -0.022064082 0.0005003267 0.0007279295 -0.0072732363 -0.019521704 0.021721512 0.0075178053 0.00051984855 -0.0010292204 -0.0089472495 -0.012143766 0.011976367 -0.0060520684 0.019404963 -0.0036277708 0.0072840266 0.018378783 0.0042929896 -0.016996684 -0.015035824 -0.029015798 0.018143903 -0.022859856 -0.01081936 -0.04666677 0.0035954171
Hh04 -0.00038724855 -0.024485633 0.016875751 0.026588911 0.02245336 0.0009169033 0.021298721 -0.0024780259 -0.012776078 0.0049278163 -0.00187623 -0.004492021 -0.007121929 -0.030786537 0.011315373 0.013185185 0.0036114792 0.0075060437 -0.026564712 0.034747113 0.014093197 0.0039645997 0.00029696093 -0.014648135 -0.030026153 0.013203469 0.0072986777 0.012689829 -0.012678666 -0.015942547 0.004799382 0.0017875521 -0.008879413 -0.011278266 -0.012146814 0.03362004 0.025995215 -0.014028428 0.013680236 -0.024252903 -0.026669001 0.022806471 -0.00961057 -0.0064468645 0.03385793 0.0033628324 0.0008633708 -0.008584795 0.009749041 0.011848343 -0.006026642 0.001010022 0.012252193 0.017151233 -0.017413275 -0.010991035 0.023336329 -0.029501025 0.0015904198 0.02316329 0.0042555067 0.0036570076 0.0001980647 0.008511747 0.010592078 -0.012755187 -0.0029625976 0.023543015 -0.012186859 -0.011628832 0.01517823 0.003301324 -0.02042356 -0.025887124 0.00078833353 -0.004525073 -0.011280276 -0.0041244575 0.005643889 0.03773425 -0.005116088 -0.012245231 0.01449437 0.0405976 -0.0033417032 0.022820232 0.030537043 -0.033680946 0.0014034254 0.0018785086 0.0014793382 -0.0111238 0.017150808 -0.019080538 0.026138702 0.03050497 -0.031850193 -0.019979404 -0.0029077642 -0.0125638135 -0.037602767 0.0019898158 0.016829468 0.013069442 0.006864814 -0.0023416837 0.00114204 0.0048917765 0.018781368 -0.029676212 0.016131908 -0.027821224 0.009667831 0.0118692 -0.0048265355 -0.0049952306 0.020623831 0.011366119 -0.0015367924 -0.00041720577 -0.005227647 -0.027191127 0.021240182 -0.008827513 -0.010603711 -0.0036246662 0.018485332 0.0099007785 0.014927886 -0.0010476875 0.016975807 -0.0019359613 0.010365423 -0.020460676 -0.00618699 -0.002557725 0.012599461 0.016325677 0.04033792 -0.005189921 -0.010306391 -0.00852451 0.025188843 0.011596086 -0.048248097 -0.009176788 -0.0077344603 -0.006791687 0.03521014 0.025593957 -0.010531711 -0.023208681 -0.0139639545 0.013564427 -0.043283302 0.024540648 0.024557259 -0.00027460855 -0.028914854 0.005226437 0.007368625 0.0076143723 0.013062909 -0.005285359 0.004164013 0.0032843037 -0.0036233454 0.022904659 0.02586367 0.0056063863 -0.004789166 -0.010409183 0.0064733867 0.004110914 -0.027422024 -0.0076634292 -0.023994576 0.0055617825 0.027296629 0.0063269697 -0.013030167 0.004724985 0.012385179 -0.004624795 0.022890931 0.011499334 -0.03937583 -0.011692968 -0.018463498 -0.0024833754 0.026819764 -0.011947996 0.027474266 -0.011035107 0.02495191 -0.014880055 0.014149701 -0.034951385 -0.0144256195 -0.012837694 -0.036743015 -0.0056729056 0.007226336 -0.025202354 -0.0039907144 0.0054123653 -0.039784696 -0.017452592 -0.025099289 0.005050153 0.007035544 0.016358025 0.034320768 0.019575022 0.01546474 -0.0075519215 0.027431292 0.03221644 -0.029787071 0.002984986 -0.003709628 0.005946253 0.015580692 -0.007453245 0.012254762 -0.023648953 -0.006925499 0.008503935 -0.009165547 0.009622616 -0.019529529 0.0013328074 -0.005693074 -0.008930464 -0.019363454 0.023908881 0.0046842303 0.0006646561 0.0010806486 -0.0025747474 -0.011372278 0.0046052164 -0.009424849 0.01400957 -0.0025977527 0.0076922127 0.011494193 -0.0020637808 -0.022011925 -0.015186884 -0.0263867 0.016358245 -0.016975908 -0.007599656 -0.042741947 0.0044574584
Ng -0.0004675347 -0.026552536 0.011806802 0.02693628 0.022216007 -0.0051853964 0.022909949 0.0020305864 -0.018152606 0.0033153815 0.00016588937 -0.010034611 -0.005801437 -0.028297931 0.014091499 0.010860313 0.00091398176 0.009620458 -0.032506365 0.03731953 0.012076326 0.004291008 -0.004293539 -0.017458081 -0.023474272 0.011939188 0.0033473067 0.008898231 -0.014398014 -0.012307846 0.004821004 0.005524773 -0.009866146 -0.012068482 -0.015486175 0.032342114 0.020754175 -0.012833491 0.014232012 -0.02513399 -0.030306177 0.028149089 -0.009943778 -0.00867531 0.0335572 0.00043739314 -0.00016956154 -0.010738173 0.005998446 0.017878246 -0.00019212937 -0.0011859615 0.011965554 0.012503791 -0.023371099 -0.0104205515 0.02275418 -0.030295258 0.003644298 0.02757743 0.0043259086 0.00588145 -0.0042187474 0.0030993614 0.012015755 -0.0072048404 -0.0027987473 0.028169382 -0.008332253 -0.014954024 0.014384007 0.0015178183 -0.018896814 -0.027821127 0.0033391817 -0.004514335 -0.014243218 -0.0061402996 0.003954668 0.034342032 -0.0051061166 -0.010598696 0.014775516 0.039855257 -0.007391892 0.024780277 0.028797137 -0.037616204 0.002224676 -0.0047301915 0.0064804377 -0.014018381 0.01338838 -0.02046867 0.024286885 0.035274237 -0.03334134 -0.024864597 -0.003088334 -0.018465782 -0.043551773 -2.9396007e-05 0.019639084 0.020651383 0.0061187134 -0.0043503246 0.001281021 0.0020802384 0.01686903 -0.030348899 0.019608738 -0.029047878 0.010462458 0.014676505 -0.006339062 -0.0041398206 0.018698772 0.003841588 -0.0005891325 0.004831081 -0.010933155 -0.027408822 0.018595038 -0.0065031284 -0.0069481162 0.00380067 0.01941214 0.012887961 0.011855178 -0.0046256837 0.013876566 -0.0011894616 0.007992698 -0.017503299 -0.0029565245 -0.0017327215 0.013598847 0.013358429 0.04095648 -0.0062097665 -0.017028142 -0.005978781 0.022434542 0.012309491 -0.045554705 -0.009653232 -0.007613826 -0.007094972 0.037168775 0.028022068 -0.016146999 -0.022716882 -0.017399533 0.011823476 -0.04473115 0.01951857 0.025494395 -0.0067835227 -0.028747078 0.0069165234 0.011074992 0.0094073685 0.016544223 -0.0017120386 0.0038410793 0.005233861 -0.0039801155 0.026638815 0.029542957 0.010048208 -0.00025308735 -0.007912924 0.007771901 0.0070129 -0.028250657 -0.00027485113 -0.025268348 0.0042230086 0.027988557 0.009132175 -0.010565669 0.011179899 0.013146133 -0.0039046735 0.02345336 0.007820049 -0.037738215 -0.006799836 -0.023158615 -0.00073189544 0.029912379 -0.0049660574 0.034258425 -0.011642053 0.024604892 -0.012704184 0.012802146 -0.032212514 -0.01804493 -0.011228503 -0.040277462 -0.005266218 0.004620928 -0.023325257 -0.005462877 0.0020684116 -0.04185284 -0.017883021 -0.026580798 -0.0023959703 0.0070252386 0.015574782 0.038340323 0.020539965 0.0121752955 -0.0069849556 0.027132522 0.027281418 -0.024471218 -0.00025530095 -0.0083007375 0.007436825 0.010750136 -0.007241902 0.013513022 -0.02363159 -0.009382321 0.011601247 -0.008613774 0.0077311615 -0.017557891 0.0059652906 -0.0071690395 -0.013379149 -0.015972478 0.024717702 0.0012328182 -0.0034277083 0.0028272378 -0.009437334 -0.0104503315 0.011680816 -0.009238377 0.0110094845 -0.0023956816 0.006369274 0.012325615 -0.00084808253 -0.021973852 -0.019068742 -0.024351222 0.014986105 -0.017493151 -0.0042194794 -0.036220204 0.001507188
äº† -0.0045268885 -0.01877892 0.010648635 0.024298104 0.02006415 -0.0021847386 0.022972452 -0.00131502 -0.014209038 0.0053929295 0.0039516357 -0.0031825986 -0.004533885 -0.024317587 0.007813134 0.012966214 -0.0022552912 0.00561605 -0.029061673 0.033628304 0.009172605 0.0026517066 0.0026507142 -0.019325893 -0.024429109 0.01098446 0.003447262 0.012907751 -0.010223219 -0.015335439 0.008422335 0.0059599862 -0.0066292686 -0.0053919805 -0.013738492 0.025878668 0.025414964 -0.007354262 0.015533423 -0.021876207 -0.023455428 0.024912976 -0.0076128305 -0.00718434 0.034762383 -0.0027030841 -0.005122085 -0.008336127 0.008145097 0.013076633 8.575137e-06 -0.0014131665 0.0039657494 0.017621672 -0.014957055 -0.008699762 0.017594075 -0.028171755 0.0016367275 0.025425892 0.0024546331 0.0057803784 -0.0026676964 0.004828329 0.006830539 -0.006992915 -0.003390039 0.022413082 -0.011689144 -0.008030645 0.017440561 0.003081523 -0.013499324 -0.022833241 0.0049541346 -0.0024979487 -0.009318978 -0.008487326 0.007304968 0.036726773 -0.0005551922 -0.010694727 0.01157979 0.032286584 -0.002277179 0.017128937 0.02217278 -0.029975438 -0.0008050187 0.0021015715 0.00014935868 -0.0048868954 0.013621592 -0.023818163 0.024085945 0.026615467 -0.029000401 -0.016495256 -0.005838789 -0.0121015785 -0.033181578 0.0030329332 0.012239491 0.012309771 0.003831783 -0.00086402 0.0015038439 0.0034104127 0.0159676 -0.02005866 0.017099196 -0.0231187 0.009513121 0.0123853125 -0.006908542 -0.005999674 0.016806906 0.008582069 0.00035647774 -0.0013042687 -0.006388159 -0.018971676 0.019256765 -0.0073370724 -0.0084844 -0.0017204139 0.01898943 0.0055706003 0.008743412 -0.0021866264 0.015598047 -6.620133e-06 0.009558408 -0.013894664 -0.005526041 0.0016067463 0.008498928 0.015600092 0.035214264 -0.0056668734 -0.012532699 -0.009251059 0.022550318 0.013186702 -0.04021095 -0.0054864883 -0.0023634231 -0.009027158 0.031384826 0.022411024 -0.011558929 -0.021912815 -0.018458828 0.014715078 -0.03870853 0.016223596 0.02135896 -0.005704678 -0.019954387 0.005244277 0.0059381295 0.007029589 0.011025466 -0.0058179144 0.008475519 0.0071660327 -0.009963544 0.02156723 0.020448014 0.0043763346 -0.0015403406 -0.004566674 0.0042885863 0.0048913425 -0.02559253 -0.0065751863 -0.021088246 0.0046700477 0.019557277 0.008633404 -0.0070874454 0.007881908 0.0098923845 -0.0012386345 0.021276237 0.007573363 -0.035900086 -0.00465326 -0.018239923 -0.0016346087 0.02667254 -0.006228291 0.024596613 -0.008227127 0.024824087 -0.018008376 0.0133566 -0.031696916 -0.01268961 -0.008759142 -0.034620922 -0.0098545905 0.0031340132 -0.02385784 -0.007697006 0.006502021 -0.03207765 -0.020493234 -0.01756275 0.0042739925 0.00793192 0.017614566 0.027674412 0.019879354 0.011495751 -0.0049052183 0.02395273 0.02447755 -0.021642353 0.0068279156 -0.0076997634 0.009409277 0.011674005 -0.0064596394 0.012909821 -0.02585558 -0.007897377 0.012243608 -0.010338857 0.01068798 -0.01847883 -4.4520442e-05 -0.00016076543 -0.005511004 -0.0144422725 0.020916943 0.006445282 -0.0022918424 0.005794907 -0.0075511667 -0.010772349 0.004578837 -0.0032855242 0.010440403 -0.0040112417 0.005345336 0.01189867 -0.0019296728 -0.01825472 -0.016544448 -0.019813228 0.013978999 -0.016893057 -0.00550952 -0.03681713 0.0057512536
Ae15 -0.0006907299 -0.025917964 0.014533994 0.027053295 0.021255508 -0.0041622906 0.020684378 -0.0024384025 -0.016459554 0.009685473 -0.0018328674 -0.0058801 -0.006104421 -0.028432185 0.007302598 0.01409337 -0.00034700672 0.010134867 -0.03556155 0.037629843 0.008824264 0.0032556176 -0.000989681 -0.019593222 -0.02754828 0.011512765 0.008779856 0.009666144 -0.014342432 -0.018123891 0.010740381 0.0050588637 -0.004392547 -0.0074965064 -0.0149356 0.03510287 0.022375016 -0.009879359 0.016281156 -0.024127198 -0.028078698 0.02706356 -0.01476233 -0.009341449 0.037001863 0.0023037207 -0.0049400874 -0.007091822 0.0069656204 0.013178211 -0.005213451 0.0030698592 0.012411352 0.020136625 -0.01704586 -0.0058106305 0.021500949 -0.032257214 0.0057438635 0.028326903 0.0048112636 0.010296374 -0.00097512774 0.0072965575 0.0090541085 -0.008621533 0.003929472 0.02475516 -0.00992153 -0.010115819 0.019238165 0.006500122 -0.014523347 -0.02692978 0.0048132166 0.0011104321 -0.013641448 -0.008081106 0.008055865 0.041090544 -0.0063468744 -0.013874713 0.012630917 0.043216787 -0.0069896723 0.02129883 0.030020572 -0.033892214 0.0011443994 0.00020088072 0.004545834 -0.0071039232 0.01857668 -0.02235055 0.025401998 0.035257664 -0.04017136 -0.019180682 -0.0043581664 -0.0129148755 -0.045402933 -0.0008451829 0.021228408 0.016177554 0.0074596005 -0.0012987911 0.007674792 0.002009087 0.013581372 -0.02324007 0.015014451 -0.026251717 0.012628353 0.0102531025 -0.0066166096 -0.008284591 0.020414954 0.00987732 -0.002969593 0.0019319688 -0.0041132723 -0.027479708 0.02074364 -0.008709365 -0.009268673 -0.002306697 0.026671754 0.00846677 0.018080462 -0.0028215353 0.018952588 0.00010034048 0.009787214 -0.01923161 -0.0054542045 0.00070365565 0.0110911755 0.01591834 0.04516606 -0.0006692325 -0.01624467 -0.0075755427 0.024285305 0.0126665495 -0.04644158 -0.0033606458 -0.0030082967 -0.010283786 0.033888157 0.02973812 -0.014948965 -0.028788738 -0.01766261 0.01145867 -0.043921366 0.023281267 0.02333716 -0.005414895 -0.022873137 0.010998209 0.009507994 0.00953585 0.018017007 -0.0073041767 0.009016327 0.007004656 -0.010244323 0.02143691 0.027735446 0.010000579 -0.003352956 -0.010879114 0.00809866 0.003506308 -0.034191415 -0.001320716 -0.02047458 0.006390377 0.027975295 0.009411941 -0.015292787 0.009502024 0.013712796 0.00022576323 0.026399767 0.010030764 -0.04086046 -0.011637086 -0.021135902 -0.00093772204 0.027558543 -0.008918827 0.033491023 -0.012309202 0.025181428 -0.013039328 0.0141328145 -0.03292316 -0.015995178 -0.014988284 -0.041909005 -0.0090977 0.008797936 -0.020083819 -0.005404726 0.0011609026 -0.037933286 -0.021474183 -0.025052285 0.004991028 0.008925038 0.01612102 0.034388255 0.02569113 0.016169373 -0.0036095427 0.025244389 0.03504778 -0.02388594 -0.00067959353 -0.0015153297 0.007128592 0.010315875 -0.0043835947 0.019727781 -0.029069683 -0.002787216 0.008942233 -0.013715539 0.010222774 -0.019511377 0.005211369 -0.0005091528 -0.0062717595 -0.016225709 0.018069085 0.0058338367 -0.0037262607 0.0027909814 -0.0018560993 -0.013873776 0.010060898 -0.008991936 0.011296004 -0.0030153044 0.008239967 0.017138852 0.0020344802 -0.018603891 -0.016100068 -0.026726024 0.018453695 -0.020404896 -0.0058377176 -0.04278582 0.0022730844
Dm05 0.0008263128 -0.030650211 0.016597303 0.028456809 0.023781247 0.001273253 0.028481487 -0.00039774788 -0.022505397 0.0064285863 -0.00091341557 -0.007064821 -0.0051685963 -0.03684019 0.017317452 0.014660961 0.0047842334 0.013333708 -0.039531544 0.045986746 0.012647705 0.004828982 0.0019578186 -0.026463151 -0.033845406 0.011661024 0.012722698 0.01375966 -0.015522318 -0.021852734 0.012100685 0.0013050502 -0.013098388 -0.009656754 -0.017955402 0.04031085 0.034287415 -0.012264479 0.025027802 -0.027941717 -0.03558289 0.032257985 -0.014376715 -0.007330697 0.04529035 -0.00012726012 -0.004711375 -0.012760944 0.014141533 0.020808525 -0.0025291431 0.0007262755 0.013616465 0.020690119 -0.028649768 -0.009903076 0.032618985 -0.04246774 0.0043022768 0.032525394 0.00046258705 0.0078099817 -0.005241116 0.010626092 0.014782307 -0.017041238 0.0009924389 0.037308283 -0.009547979 -0.021156548 0.022637831 0.0044516046 -0.023740163 -0.03327771 0.0048303385 -0.0022236204 -0.012964584 -0.010212192 0.004936483 0.05204337 -0.0015583109 -0.01594598 0.017746808 0.056473173 -0.01105614 0.033146035 0.036960024 -0.050877083 0.0027967799 -0.003834505 0.0055177994 -0.015921 0.02042411 -0.028347453 0.035893295 0.039967958 -0.04976871 -0.026010636 -0.0022118445 -0.02121909 -0.055443604 -0.0003854739 0.018906023 0.023564674 0.009080431 -0.003989876 0.006826822 0.003438191 0.018187936 -0.034496814 0.021444144 -0.035506148 0.014082662 0.020207895 -0.007998404 -0.004675075 0.029022343 0.013930154 0.0027569437 0.0010871491 -0.007972459 -0.029272925 0.02674774 -0.0119807115 -0.010265811 0.0010677117 0.031660993 0.015434249 0.01685132 -0.005975535 0.025034023 -0.0050819456 0.011900782 -0.026115976 -0.0044402247 -0.005064535 0.015266174 0.018743405 0.055583816 -0.007588298 -0.020146942 -0.008425827 0.028741539 0.018833281 -0.0592766 -0.013014419 -0.003641499 -0.011660618 0.044034913 0.036246356 -0.018830271 -0.030397411 -0.0212853 0.019277312 -0.054089423 0.033088665 0.031506978 -0.006139038 -0.031894416 0.008450356 0.014001347 0.012287951 0.021357112 -0.0058627254 0.007955975 0.009723637 -0.011431622 0.035887994 0.03834019 0.009982018 -0.007542365 -0.013060828 0.012808005 0.0074452613 -0.043834697 -0.009142176 -0.03084704 0.008751174 0.030666357 0.011677301 -0.013286628 0.006495856 0.013383672 -0.0042586294 0.030956391 0.013982239 -0.05766385 -0.012412291 -0.032093696 -0.0056490055 0.035860788 -0.010218889 0.045310598 -0.013496794 0.028913926 -0.025176607 0.019417344 -0.040568877 -0.016073931 -0.017050227 -0.050801214 -0.011665344 0.0055798697 -0.027168844 -0.008990387 0.007448204 -0.05251484 -0.021501051 -0.033316597 0.005669299 0.0053638625 0.0176091 0.05018657 0.027198125 0.012232804 -0.0069497125 0.028879067 0.04325768 -0.033914138 0.0016161368 -0.005252355 0.009763654 0.01924265 -0.00626855 0.018692475 -0.0344381 -0.0040856483 0.012185951 -0.009766991 0.008994497 -0.024276398 0.0024967177 -0.0031905146 -0.016918125 -0.022268562 0.025633473 0.009983456 -0.0023178929 0.00055161136 -0.0061513274 -0.011329071 0.01181704 -0.009503124 0.019712191 -0.011416045 0.007190297 0.016660508 0.0016437992 -0.026626918 -0.02560346 -0.032155257 0.022021435 -0.022458635 -0.006206943 -0.050659467 0.004600494
ä¸€ 0.0010628595 -0.019993925 0.012290443 0.023448663 0.020708341 -0.000103603 0.01964331 -0.00028110502 -0.012021429 0.0041086874 -0.0025079132 -0.0038118833 -0.0058292695 -0.028620303 0.008028666 0.013775718 0.0010640637 0.008142627 -0.030247498 0.033368293 0.013987508 0.0005877871 0.00058617373 -0.01885758 -0.021731114 0.012467167 0.0045143217 0.009616777 -0.014019389 -0.011289587 0.010969111 0.0038834263 -0.003698684 -0.010852613 -0.0112038795 0.028608829 0.020304322 -0.012000342 0.016287878 -0.02520661 -0.029984595 0.026840052 -0.012390256 -0.011239414 0.03750133 0.0002577963 -0.0063549103 -0.009112783 0.0046519293 0.01856627 -0.002931436 0.0052835853 0.010509986 0.014725093 -0.02309324 -0.010848597 0.025017343 -0.030322889 0.0016849524 0.024407001 -0.0011260472 0.008812117 -0.0051117823 0.0099270195 0.008669187 -0.0072836136 -0.00050098513 0.024982337 -0.0111176595 -0.012395474 0.017825363 0.004354313 -0.016935319 -0.02111022 -0.0015363895 -0.004462784 -0.015721304 -0.005245679 0.0029300582 0.034753542 -0.0012649858 -0.014858078 0.014438315 0.043968447 -0.004244327 0.021879103 0.028492983 -0.033946477 0.003922087 -0.0020790482 0.0040096315 -0.011185226 0.013153777 -0.022428738 0.025940156 0.029648114 -0.032663226 -0.023393745 -0.004847001 -0.019734053 -0.035767104 0.0020409627 0.015806148 0.019909276 0.008974056 -0.0074241804 0.00019650927 1.708705e-05 0.012744556 -0.022782072 0.020406026 -0.02437136 0.00970203 0.009486356 -0.00092290784 -0.006329753 0.017492637 0.004630597 -0.0009746775 -0.0008769507 -0.0057307268 -0.02749386 0.02142596 -0.0126327295 -0.009459856 -0.00021995514 0.018729448 0.01110222 0.011699264 -0.0018550649 0.020131355 -0.0010567384 0.008970696 -0.016791288 -0.0026637265 0.00019080048 0.012985563 0.013708116 0.041507218 -0.008365396 -0.013958035 -0.0037193054 0.019995665 0.010734432 -0.042308986 -0.0036804131 -0.003123495 -0.009855141 0.036126617 0.027651763 -0.016215557 -0.023775462 -0.016165601 0.009921504 -0.04299298 0.025947638 0.02250936 -0.0065782303 -0.026959268 0.004710487 0.008398764 0.010926737 0.013901296 -0.0064029396 0.010323162 0.0029304428 -0.0088554695 0.019600831 0.031358395 0.005234399 -0.0061285715 -0.010104519 0.010633959 0.003764188 -0.033110883 -0.0028255943 -0.02489951 0.009956752 0.028197292 0.006815524 -0.011628895 0.008228135 0.006285907 0.0007288384 0.025974829 0.013594189 -0.04308213 -0.007990631 -0.024285272 0.00081973686 0.030552642 -0.008688373 0.027416714 -0.010687589 0.023326738 -0.014736776 0.00895369 -0.032151967 -0.015139232 -0.008720385 -0.03906513 -0.008802062 0.005799636 -0.023118522 -0.0031548606 0.002943062 -0.038468663 -0.022403669 -0.027091458 0.0023882824 0.0047934847 0.011362045 0.037934918 0.02580501 0.014497762 -0.008005831 0.024120169 0.033690654 -0.029047217 0.00011489072 -0.008294373 0.008579945 0.007438758 -0.0050043324 0.018232916 -0.024035823 -0.009351276 0.014383254 -0.0072687007 0.0041103195 -0.014549783 0.0064882766 -0.00024319618 -0.011339162 -0.015097301 0.018266238 0.00085902936 0.0011715739 0.0007573742 -0.0065184776 -0.012968244 0.004511036 -0.0074324063 0.013928915 -0.0050740014 0.009424727 0.015040797 -0.0037528723 -0.02128272 -0.017548243 -0.023034872 0.011953679 -0.013708906 -0.0055310647 -0.041509867 0.00464935
Ka16 -0.0011030026 -0.02061606 0.011632942 0.021374134 0.014895627 -0.0032166822 0.01704776 0.0018555301 -0.009037924 0.002050348 -0.0028026742 -0.005037314 -0.003172129 -0.022395078 0.009754024 0.00840497 0.00014674757 0.0077644424 -0.024602689 0.029397111 0.009809894 0.006885269 -0.0019999752 -0.012359577 -0.019466294 0.006192583 0.009157675 0.010195831 -0.007625344 -0.012530862 0.00995326 0.0040790713 -0.006843635 -0.005963219 -0.0077596796 0.028136779 0.02005547 -0.0076894546 0.01249636 -0.020903803 -0.026615648 0.020979246 -0.011244263 -0.005473612 0.02854536 0.0003730654 -9.673815e-05 -0.009424352 0.009166085 0.015308712 0.00039490286 0.0024808734 0.00670767 0.014043448 -0.01891093 -0.009194248 0.018399432 -0.024061816 0.0033010715 0.018027604 0.003802508 0.004388543 0.0010911628 0.0040150774 0.008344399 -0.0076877223 -0.00013336238 0.020119 -0.0098152645 -0.0072825607 0.010040501 0.0047920756 -0.014861811 -0.01594316 0.002493817 -0.00017798666 -0.01154121 -0.006842405 0.0009232427 0.028887035 -0.00010613212 -0.013272056 0.011893106 0.034546696 -0.002732026 0.017488465 0.024676083 -0.033377364 0.0003039548 0.002374462 0.0043508112 -0.009920244 0.01065352 -0.021982813 0.02067119 0.027836064 -0.030931666 -0.015324247 -0.00433548 -0.011155726 -0.029290274 0.000985166 0.013255204 0.009773216 0.004371783 -0.002700714 -0.0013850697 0.0050610364 0.014337443 -0.02142845 0.018565403 -0.022313425 0.0087162545 0.010663948 9.081058e-05 -0.0024245786 0.013782671 0.0038047715 -0.0033489014 0.004518613 -0.0036162657 -0.017399708 0.017841585 -0.011724326 -0.0019002282 -0.0034091487 0.018144358 0.0073596155 0.013911375 -0.00506652 0.015337965 -0.0041811466 0.007581934 -0.013402305 -0.0058471006 0.002214079 0.0049485527 0.016472764 0.029962685 -0.006597351 -0.01424179 -0.0033572412 0.016045865 0.010974573 -0.039200827 -0.0013395468 -0.003378963 -0.007624804 0.02600548 0.023282465 -0.010299266 -0.022975244 -0.01173044 0.008858854 -0.033420935 0.021258252 0.018637948 -0.0027002662 -0.018056791 0.0045861593 0.007890927 0.008658078 0.0071667307 -0.0057836953 0.008595643 0.006021425 -0.0021016533 0.018645003 0.026069595 0.0015601481 -0.001234251 -0.009280393 0.0072329757 0.0074079153 -0.026221504 -0.0005517297 -0.021832667 0.0048886267 0.022483673 0.004922774 -0.0053861076 0.0031046707 0.007920779 0.0029578165 0.022984201 0.009524367 -0.028280186 -0.010296775 -0.018921657 -0.00025078116 0.020827556 -0.0048450534 0.027954321 -0.011831897 0.018122664 -0.009071769 0.0068947393 -0.029522441 -0.011782149 -0.01265671 -0.029151574 -0.005084824 0.0022440671 -0.01829862 -0.0063930824 0.0013659351 -0.029726485 -0.0139774475 -0.019994961 0.0046770074 0.0043041916 0.015342362 0.030114321 0.020424468 0.013760258 -0.0073627834 0.019820286 0.023556603 -0.020026581 -0.0001434117 -0.0049007502 0.008476632 0.007896984 -0.0033393488 0.012362876 -0.019368967 -0.0047648377 0.005670573 -0.0042284797 0.008836378 -0.017480781 -0.0003243765 -0.0014516885 -0.007826143 -0.015490329 0.02014343 -0.00037001743 -0.001464797 0.005350946 -0.005101966 -0.011097118 0.009450867 -0.0028278776 0.009276354 -0.0075400406 0.004860958 0.014390107 -0.00087323296 -0.012745563 -0.014345446 -0.016286543 0.011256005 -0.011460821 -0.0018943257 -0.034688063 0.004383248
