598 256
n -0.020434959 -0.0665664 0.061345145 0.1023476 0.11037888 -0.009002148 0.08765531 -0.033884935 -0.051578302 0.044292 -0.008870313 -0.011087193 -0.02214368 -0.09664796 0.02926679 0.07667187 0.06289607 0.025548797 -0.108316965 0.13892438 0.030104328 0.021654114 -0.056928422 -0.10419503 -0.122369364 0.050296266 -0.014847893 0.037568703 -0.027142346 -0.036297746 0.014405449 0.0001108533 -0.006019407 -0.040493604 -0.028501064 0.11938656 0.076023676 -0.08703697 0.039351538 -0.0625552 -0.10489019 0.1112761 -0.024587272 -0.043024696 0.12067411 -0.005740875 -0.0070975274 -0.028230075 0.035508137 0.037512075 -0.0046676467 0.041529674 0.017771408 0.041445967 -0.08845399 -0.059130818 0.09078637 -0.09089786 0.02742453 0.06911144 0.015933529 0.0039913203 -0.039336454 0.024593975 0.04700834 -0.042799857 0.044070672 0.09314806 -0.0735055 -0.04628293 0.024347072 0.013407406 -0.07551408 -0.06445901 0.013583069 -0.0042936234 -0.049330346 -0.016612878 0.020307792 0.09873052 -0.023132682 -0.0439488 0.055183128 0.15519354 0.008888984 0.110262126 0.08224619 -0.14438915 -0.0064062905 -0.022073217 -0.0031149215 -0.033569355 0.026078364 -0.06332094 0.06366785 0.1014246 -0.119421475 -0.08303555 -0.00666733 -0.07713002 -0.082990944 -0.027298441 0.044228926 0.051702343 0.064962044 0.032417323 0.023681777 0.015880873 0.061591662 -0.08093634 0.053439755 -0.078215614 0.021455452 0.031789187 -0.017915068 0.0111932745 0.046022672 0.01590085 -0.016577482 0.012304095 -0.011933523 -0.05938314 0.08310254 -0.035365332 -0.024295127 0.011672682 0.07586873 -0.013678316 0.01958681 -0.040036224 0.049850572 -0.023297373 0.02145461 -0.06489464 -0.011029767 -0.023180107 0.03739105 0.055232197 0.11315605 -0.02502724 -0.026055053 -0.02646031 0.04342321 0.0938316 -0.1762614 -0.0140303 -0.03497031 -0.002908575 0.10130705 0.08948407 -0.0530732 -0.0988818 -0.06550158 0.045474857 -0.14187887 0.06033567 0.07410112 0.014111587 -0.10673006 0.018494263 0.06013279 0.022467427 0.056587618 -0.037628703 0.036707953 -0.010914846 -0.024538139 0.07934559 0.10033382 0.05492591 -0.0023461564 -0.040426165 0.0012693462 0.02061226 -0.09945595 -4.3469045e-05 -0.06012448 0.007826018 0.13118097 -0.017192356 -0.03335189 0.015958907 0.026172424 -0.053767487 0.10981481 0.035763897 -0.13551411 -0.059394673 -0.10283307 -0.013875139 0.08162018 -0.046799723 0.0884649 -0.033697862 0.038560454 -0.07128901 0.01438072 -0.09263449 -0.06577148 -0.03556292 -0.13235046 -0.011817992 0.051789213 -0.07752109 -0.039681382 0.0026558747 -0.12616426 -0.07859955 -0.09879204 -0.0029598323 0.023273466 0.0612301 0.11923323 0.090635195 0.03599741 -0.029405579 0.053189907 0.12347312 -0.08803896 0.029163908 -0.02249897 0.04820916 0.061464854 -0.017330524 0.04713015 -0.07257713 -0.014563363 0.0064924844 -0.030483665 -0.007093005 -0.034202605 -0.002617851 -0.025090754 -0.05419555 -0.05575581 0.097107045 0.039086074 0.004972954 0.026910447 -0.03427804 -0.059257653 0.040306736 -0.03528566 0.028819313 -0.016963553 0.041388273 0.047161885 0.025549997 -0.03429122 -0.07006356 -0.10521416 0.052507736 -0.0820818 -0.05129399 -0.15286249 -0.0055923723
v -0.021028373 -0.06767598 0.056425467 0.0960761 0.11485943 -0.00783592 0.08759814 -0.036578488 -0.05203535 0.048877984 -0.008425307 -0.00790625 -0.022832101 -0.096033335 0.032769486 0.07877023 0.062612295 0.025771985 -0.10544699 0.14453305 0.03075234 0.02089006 -0.06000576 -0.10340195 -0.123544775 0.048119083 -0.017342819 0.03496534 -0.02359885 -0.03664995 0.015052915 -0.0027144058 -0.0060601854 -0.036955744 -0.029043209 0.121660866 0.075915776 -0.08579324 0.042580158 -0.057828274 -0.09793672 0.1084313 -0.017764194 -0.04381327 0.11607464 -0.0017993137 -0.0037799766 -0.032562237 0.03530041 0.032312024 -0.00051409117 0.04215986 0.021620719 0.037971243 -0.08727474 -0.054912265 0.089849524 -0.08998028 0.031505372 0.06396325 0.020216424 0.0019464534 -0.040815685 0.03012007 0.047882 -0.044220027 0.047625333 0.09383879 -0.07558041 -0.04539036 0.024401616 0.011911825 -0.073216915 -0.06010939 0.011814252 -0.006034458 -0.05430845 -0.016989412 0.022907188 0.10453831 -0.018938 -0.04723617 0.04847014 0.15481485 0.012513 0.11072594 0.081766605 -0.14249024 -0.0026270144 -0.023511328 -0.0023286913 -0.03443098 0.023107821 -0.063830115 0.06090979 0.09853792 -0.118296504 -0.08332719 -0.009211004 -0.07906956 -0.07840655 -0.02450522 0.04330616 0.04710462 0.062026326 0.036213256 0.025528835 0.012570592 0.06395967 -0.08044031 0.053019736 -0.070992276 0.022341348 0.024579098 -0.016443849 0.0069239764 0.0421801 0.01647516 -0.016180579 0.01061199 -0.014769803 -0.05445415 0.07707877 -0.03042949 -0.029270303 0.012798591 0.07862087 -0.0146485055 0.019249136 -0.043295562 0.049139094 -0.019471707 0.021071862 -0.065500855 -0.015442343 -0.024114478 0.033871967 0.05163159 0.11214112 -0.02923354 -0.026837602 -0.026660504 0.04542857 0.09082756 -0.17633997 -0.016303496 -0.039624944 -0.0029803668 0.101658516 0.09019083 -0.05528403 -0.09315958 -0.06617345 0.046986576 -0.14283513 0.058202825 0.066830344 0.012660544 -0.107533716 0.013681592 0.06160628 0.023372917 0.060095225 -0.037478358 0.035462823 -0.016349519 -0.023782805 0.084972605 0.095289156 0.051881455 -0.00074466027 -0.034290273 -0.0042928425 0.017914612 -0.09543413 0.0035337955 -0.056106523 0.0051533165 0.13167377 -0.018165397 -0.03049436 0.015396887 0.02367589 -0.04974067 0.1089871 0.033506453 -0.13778326 -0.051042877 -0.100286715 -0.014497233 0.081634484 -0.04505518 0.0888607 -0.032788593 0.040982436 -0.06985446 0.0161833 -0.09259196 -0.062332857 -0.040061645 -0.13486567 -0.01664761 0.05356445 -0.07871199 -0.040479414 -0.0025151505 -0.12209408 -0.07839492 -0.09555703 -0.0057909684 0.028945504 0.06573492 0.112673014 0.09321232 0.030120682 -0.024406672 0.04931517 0.11998298 -0.082776695 0.03408598 -0.020622553 0.05350954 0.0652147 -0.017509108 0.040386908 -0.072995104 -0.016760314 0.0030407752 -0.030593606 -0.011874198 -0.032929417 0.0012257867 -0.025853544 -0.05471344 -0.0503051 0.09483096 0.040841937 0.0019392382 0.02700396 -0.037082743 -0.054019094 0.041196905 -0.03394632 0.027006794 -0.021932675 0.039892282 0.045418248 0.022590939 -0.035760175 -0.07005144 -0.10312569 0.054335188 -0.08113464 -0.05088938 -0.14960434 -0.0042899176
u -0.013084877 -0.038069732 0.029506577 0.04726876 0.056325637 -0.0055727013 0.042684738 -0.019913517 -0.02893566 0.022836132 -0.0028083401 -0.0021539964 -0.013359243 -0.05243048 0.017527541 0.035791308 0.032064836 0.015676895 -0.05169371 0.06962315 0.012212767 0.007069547 -0.030382065 -0.049762923 -0.06148888 0.028624568 -0.005043777 0.016896684 -0.008489479 -0.020867065 0.00577931 -0.0007103722 -0.004804315 -0.020346439 -0.014247748 0.06443958 0.037081655 -0.04410478 0.021569522 -0.034228336 -0.04868949 0.059296258 -0.014647926 -0.020166617 0.06580873 -0.006006255 -0.0047124885 -0.019254616 0.020581128 0.017602008 0.0028082037 0.017178472 0.0116800275 0.022515899 -0.046807565 -0.02836466 0.042644035 -0.048883956 0.015329825 0.036141597 0.011791245 0.0043998035 -0.019749708 0.017547453 0.020613797 -0.020961083 0.023144647 0.04826757 -0.03400036 -0.026320264 0.013615235 0.0017435723 -0.038800277 -0.034603015 0.0040042917 0.0014863637 -0.027177207 -0.0071044266 0.01446479 0.055473354 -0.015107468 -0.024470693 0.031174729 0.0800387 0.0050484296 0.05256815 0.04189303 -0.07572687 0.00054201623 -0.014430245 -0.0019394116 -0.016836401 0.012842775 -0.032120068 0.03308763 0.050916407 -0.060606837 -0.04181481 -0.00092741527 -0.04044994 -0.040984828 -0.01091511 0.019161703 0.024709778 0.035671204 0.020266674 0.012235648 0.00326419 0.03302372 -0.041110065 0.031360332 -0.037910156 0.012545564 0.015594331 -0.010797318 0.0025421432 0.022318546 0.005703662 -0.005106152 0.0100637125 -0.0065536024 -0.028364167 0.038711775 -0.01545877 -0.016484171 0.0018054931 0.037588105 -0.011750022 0.013240333 -0.024069019 0.026546933 -0.013543506 0.0126060555 -0.028162291 -0.009755619 -0.016416758 0.016054127 0.026356213 0.055843543 -0.018464314 -0.018291822 -0.010956641 0.02076647 0.044405565 -0.09054692 -0.012275514 -0.022104537 -0.0044215657 0.05138895 0.043682076 -0.02622272 -0.048122697 -0.03512704 0.025365524 -0.07493781 0.02728293 0.032954402 0.0042923717 -0.05537861 0.0106084915 0.030951388 0.012862436 0.03255406 -0.021416487 0.019775573 -0.0036993744 -0.014888598 0.04440688 0.05209854 0.024257055 -0.003248353 -0.01783717 -0.0011319172 0.006518033 -0.047187697 -0.00038054588 -0.031796623 0.0044392855 0.06554376 -0.008511577 -0.016374731 0.007007977 0.011996146 -0.026019005 0.05910415 0.016373489 -0.069871046 -0.025822619 -0.05000059 -0.008136898 0.045139164 -0.020127438 0.043130897 -0.015649173 0.021872198 -0.03873148 0.0038744905 -0.049741168 -0.03232537 -0.01938399 -0.06592143 -0.0077791195 0.027891787 -0.038781483 -0.020060156 -1.4958618e-05 -0.06632508 -0.04435156 -0.048796203 -6.116816e-05 0.0132738715 0.0288329 0.055845525 0.049185645 0.015595196 -0.011454917 0.023344569 0.06459029 -0.045776073 0.017578354 -0.0102151 0.023349106 0.031100009 -0.0076102233 0.020494102 -0.036669727 -0.012176277 0.0031497192 -0.010876484 -0.0054955515 -0.019299662 0.0017167263 -0.008090827 -0.029549325 -0.029255804 0.048766825 0.023789495 0.0025340796 0.00989703 -0.01820696 -0.025358206 0.01708225 -0.02031593 0.017019453 -0.01295591 0.022025386 0.023853064 0.016142834 -0.013020487 -0.037054688 -0.05610833 0.031059477 -0.03950925 -0.021994479 -0.08044874 0.0017603511
-1 -0.011317342 -0.03758257 0.032791127 0.052301656 0.062445913 -0.004088375 0.04355981 -0.01900763 -0.022509644 0.022031147 -0.005327929 -0.008718672 -0.013256111 -0.052828446 0.013169975 0.04166359 0.033570774 0.012620011 -0.05349261 0.07927407 0.017661044 0.009816922 -0.030566866 -0.056727283 -0.06926037 0.029727375 -0.00832898 0.018085018 -0.0136151165 -0.0204312 0.010710475 -0.0017076081 -0.009064948 -0.016246062 -0.012804546 0.06750913 0.04093592 -0.043748584 0.024732344 -0.033896975 -0.056297336 0.059246846 -0.009600776 -0.024224421 0.06757493 -0.0040834793 0.0015094924 -0.016528498 0.015095483 0.017170386 -0.0036811347 0.020077927 0.01104655 0.02565106 -0.044809543 -0.033051405 0.04829677 -0.045931917 0.013990211 0.030757511 0.009176291 -0.0013003703 -0.017367179 0.01206907 0.027908012 -0.019048914 0.023517696 0.049689744 -0.039032795 -0.021785533 0.013414208 0.0018246543 -0.040508807 -0.030865166 0.0060411403 -0.0026847925 -0.028081276 -0.009314212 0.011460872 0.055603884 -0.0138440505 -0.025089793 0.02820246 0.08074717 0.0060075773 0.055780478 0.044260558 -0.0760831 -0.0019963388 -0.012945115 0.0007454874 -0.020670127 0.010270786 -0.03515823 0.035462104 0.05178028 -0.064966284 -0.04279289 -0.0053708837 -0.039832458 -0.045943554 -0.014077322 0.018581074 0.026804723 0.035344742 0.021277446 0.008844762 0.0047467607 0.030192189 -0.044903748 0.024826663 -0.04034657 0.011959621 0.012464814 -0.0071465285 0.0045078383 0.02505669 0.0075966856 -0.007669493 0.0036423516 -0.0075242664 -0.0289677 0.040350508 -0.016078087 -0.013264677 0.0049198098 0.045080755 -0.004667303 0.0118088825 -0.019780954 0.026646579 -0.013599823 0.009371117 -0.03569598 -0.009824141 -0.009555943 0.01753072 0.0249791 0.056368973 -0.013282512 -0.016806811 -0.013743918 0.025712606 0.048567872 -0.093190625 -0.0081857415 -0.02085223 0.0021917017 0.05524326 0.043074597 -0.027072059 -0.052855562 -0.034082025 0.02504915 -0.077090554 0.02901671 0.040965497 0.004482197 -0.05924197 0.0118691055 0.032533493 0.009337271 0.03452053 -0.01733981 0.020194495 -0.0027376667 -0.017860701 0.045380384 0.052514132 0.029179897 -0.00020093782 -0.017874518 0.0017281148 0.01178403 -0.05366283 -0.00030730467 -0.030391024 0.005655889 0.06691943 -0.0058579454 -0.014132218 0.010878971 0.013759221 -0.023575759 0.057173703 0.022694543 -0.070151396 -0.03247824 -0.05616686 -0.007281253 0.04506037 -0.024774274 0.045373295 -0.0129245715 0.025031488 -0.038704805 0.004871902 -0.05031807 -0.035033666 -0.023611497 -0.06938833 -0.008557727 0.029901536 -0.03840521 -0.024163535 -0.003984132 -0.06549231 -0.044516936 -0.049595244 -0.0044065486 0.01618444 0.033367477 0.06285059 0.0466203 0.016857143 -0.011418352 0.027512647 0.06090797 -0.0480789 0.01690491 -0.007818886 0.028681768 0.029581327 -0.0042361473 0.025006492 -0.034332953 -0.005709776 -0.00070131634 -0.018495347 -0.0021280074 -0.01562969 0.0015258576 -0.008954443 -0.028873727 -0.024661848 0.047680616 0.017516535 -0.000911324 0.012347679 -0.016149899 -0.031719513 0.017325515 -0.015110596 0.012676444 -0.0059384704 0.019003741 0.026486078 0.016066764 -0.016212234 -0.03798984 -0.05492222 0.024698112 -0.043073878 -0.026479669 -0.07618815 -0.0030326664
p -0.01572808 -0.039977044 0.03724879 0.06073137 0.074569955 -0.0026468253 0.052313298 -0.023243124 -0.027373308 0.03185293 -0.004840001 -0.0046411185 -0.01155454 -0.06310067 0.017420145 0.04841301 0.03840459 0.01565818 -0.06888665 0.09269044 0.014413139 0.009412697 -0.038619034 -0.06635868 -0.08187617 0.032863855 -0.011249563 0.021615371 -0.018343633 -0.021395274 0.012223658 3.339643e-05 -0.008030386 -0.02414608 -0.014151379 0.077262096 0.04210638 -0.05499828 0.025953693 -0.037177864 -0.067842074 0.07046119 -0.016795436 -0.028801354 0.07732899 -0.00475237 -0.0009765356 -0.016723756 0.019736113 0.025638398 -0.00031911038 0.029196873 0.014710773 0.022364164 -0.059409685 -0.033408035 0.057974555 -0.051978536 0.020573165 0.044453207 0.0065405085 0.0042890985 -0.025889829 0.018561998 0.032746285 -0.025562411 0.03073019 0.057894655 -0.046088755 -0.027288714 0.011709566 0.0063922117 -0.04326319 -0.040528785 0.0088172965 -0.006008685 -0.028734636 -0.0070725605 0.013512025 0.06629412 -0.013621965 -0.030871687 0.03284058 0.098546706 0.0050005033 0.06741386 0.052613243 -0.0890743 -0.0039929654 -0.01671506 0.00017212264 -0.023364155 0.014119398 -0.042638168 0.036176626 0.05924602 -0.074653804 -0.0537403 -0.0040314556 -0.053816658 -0.054545954 -0.021580633 0.023607705 0.033974294 0.040736407 0.022029439 0.0131511055 0.0055575524 0.0395553 -0.049472246 0.03416392 -0.046927955 0.015148254 0.018137902 -0.015480157 0.0031316439 0.023642125 0.007459155 -0.009080344 0.010754155 -0.008887305 -0.037140246 0.0544571 -0.020019976 -0.01782413 0.0099213645 0.04998788 -0.012045506 0.015465112 -0.02497716 0.026578132 -0.013843772 0.014126139 -0.036980007 -0.008475294 -0.01634522 0.022294043 0.033925224 0.06949763 -0.019091196 -0.021057546 -0.011717183 0.03238974 0.06245624 -0.11365252 -0.009103887 -0.024645526 0.0024616616 0.06492859 0.057947364 -0.034660026 -0.0571149 -0.043443423 0.031115118 -0.09033691 0.034266848 0.04391902 0.011560714 -0.069888756 0.009006835 0.04294705 0.013336603 0.034354657 -0.025215866 0.026096094 -0.0056541557 -0.015284727 0.050203163 0.057699315 0.034381077 0.0020420505 -0.025525289 -0.0035585396 0.010066228 -0.0645018 0.00097519555 -0.036710802 0.0036205375 0.085522756 -0.013551803 -0.016903112 0.011142961 0.014811758 -0.028221825 0.07289184 0.021019278 -0.087845266 -0.037610047 -0.06844678 -0.008696737 0.048828434 -0.03209549 0.05574142 -0.018132946 0.027698057 -0.04668424 0.006093136 -0.056954972 -0.038974483 -0.02031206 -0.08337413 -0.00540307 0.031092312 -0.045035515 -0.027720243 0.00330147 -0.08144562 -0.049316946 -0.05981436 -0.0032267496 0.013863441 0.035738934 0.06995261 0.053691003 0.021497145 -0.017046155 0.03135773 0.07848713 -0.05450738 0.01945008 -0.01618991 0.027694523 0.04347902 -0.01109667 0.025487907 -0.04264803 -0.008657602 -4.0165487e-06 -0.017412983 -0.0077523654 -0.022214673 -0.0018085922 -0.015614012 -0.03268731 -0.029333921 0.064217515 0.020647049 9.573934e-05 0.019862926 -0.02054254 -0.037901152 0.025111726 -0.018075014 0.015807174 -0.01568132 0.025503656 0.031792965 0.019138834 -0.018663472 -0.046307422 -0.06700844 0.033302553 -0.048046667 -0.033846226 -0.09720289 -0.001687087
vn -0.0143628605 -0.033454422 0.03179105 0.057276484 0.059483007 -0.0035040537 0.049154475 -0.021859726 -0.028634267 0.025269005 -0.0050435197 -0.006682126 -0.0081313765 -0.056891423 0.01836241 0.04191809 0.03708325 0.016121091 -0.053815864 0.079934776 0.010789564 0.014733594 -0.035306554 -0.057390817 -0.06926542 0.025971074 -0.011159639 0.015779164 -0.014889105 -0.019406887 0.0073595457 0.0025455612 -0.0091464985 -0.022417473 -0.010887813 0.067735575 0.042307474 -0.04399139 0.02160995 -0.035260912 -0.051927686 0.05990769 -0.008431838 -0.019567652 0.06809793 0.000672085 -0.0062692603 -0.020016454 0.018678313 0.02098329 0.0020525015 0.02368872 0.01374795 0.020322377 -0.046975818 -0.032822147 0.044267595 -0.044028714 0.01584394 0.034246057 0.007819807 0.00040897256 -0.018394826 0.01666508 0.024858212 -0.026527671 0.02257166 0.04884379 -0.036484864 -0.026447723 0.011746483 0.0058374763 -0.04311652 -0.03202408 0.0056317747 -0.0013508009 -0.026039943 -0.009209558 0.0101296315 0.058238987 -0.010443594 -0.02137106 0.030358715 0.08579176 0.009023958 0.058565665 0.046611074 -0.075027436 -0.0007228837 -0.013949924 -0.0027134777 -0.019649446 0.009893304 -0.032932606 0.035959113 0.057073332 -0.06337232 -0.04066891 -0.0023690443 -0.04466167 -0.042201187 -0.01769644 0.025872868 0.02871326 0.03467555 0.020328483 0.015669687 0.010316636 0.03347153 -0.045359194 0.03251477 -0.03756028 0.0132576255 0.01505519 -0.012572792 0.0026687456 0.026795095 0.0055876067 -0.01078461 0.010949784 -0.0038601179 -0.027461262 0.043696463 -0.020458296 -0.01103117 0.004198315 0.044421677 -0.0065031536 0.0150403725 -0.026934104 0.028464247 -0.015444748 0.008919705 -0.037385516 -0.009049405 -0.010108053 0.022513848 0.027144618 0.060404856 -0.016999355 -0.012528248 -0.010497765 0.025309788 0.049108654 -0.09728844 -0.0071518864 -0.01954398 -0.0022736553 0.057616632 0.04636369 -0.03401854 -0.052130714 -0.034900684 0.021281153 -0.07847484 0.027371 0.041945368 0.00935318 -0.057516355 0.011515199 0.037367143 0.011082135 0.033997767 -0.017803296 0.020922804 -0.0039126733 -0.016780794 0.043117974 0.052950088 0.029828653 0.00088511297 -0.018015867 0.0015477488 0.0060562715 -0.054639928 -0.001386867 -0.027034488 0.006598082 0.06956911 -0.0068647224 -0.018824432 0.0050123986 0.014257925 -0.024901997 0.060563304 0.022373894 -0.07383366 -0.03132722 -0.0559291 -0.0076779495 0.041641146 -0.028035086 0.049933318 -0.016904294 0.02086713 -0.04208655 0.01054916 -0.048926502 -0.03285985 -0.019184776 -0.07436992 -0.0064113666 0.030488176 -0.044770904 -0.02090239 0.00092575414 -0.06419235 -0.040721126 -0.052792832 -0.0057111452 0.016239453 0.034663003 0.06471695 0.051228754 0.01855622 -0.017314963 0.02721926 0.06771739 -0.048376672 0.020673947 -0.013482989 0.028816096 0.03492564 -0.0045433715 0.021911955 -0.0398006 -0.01192607 0.0035816333 -0.017061425 -0.0013362125 -0.021618363 -0.0038597758 -0.013861028 -0.02604457 -0.031007186 0.050516292 0.018037623 0.004272172 0.015598898 -0.017317384 -0.032168068 0.023534564 -0.021196865 0.013085452 -0.012145513 0.020885853 0.024267983 0.01774006 -0.017322037 -0.041117895 -0.059423525 0.025900785 -0.0415829 -0.022347823 -0.0831 0.0015704572
Bo29 -0.0056671808 -0.033006962 0.023662092 0.048535258 0.05517064 -0.00479263 0.035660233 -0.013795779 -0.020776268 0.023788262 -0.008312897 -0.008468142 -0.008591712 -0.048979905 0.012335181 0.033686712 0.031646524 0.01491782 -0.04869764 0.06690399 0.015760742 0.008266827 -0.023191467 -0.04407727 -0.055725332 0.021967364 -0.008402461 0.014771973 -0.007480019 -0.018174302 0.006292242 0.0036166408 -0.0029372326 -0.014431125 -0.015638463 0.05430034 0.035264034 -0.040363457 0.020972073 -0.023551155 -0.045820758 0.04863501 -0.009828957 -0.02085033 0.0513598 -0.003327818 -0.0027310401 -0.012660197 0.01261444 0.017535036 -0.003338756 0.014730814 0.012123692 0.022373516 -0.042950932 -0.024683582 0.038032 -0.043397926 0.010684053 0.03215034 0.010139601 0.0055656033 -0.014396517 0.015176096 0.022060873 -0.023601176 0.02224305 0.040907737 -0.030366825 -0.020465624 0.008810039 0.007785013 -0.033403844 -0.02736186 0.0034920294 -0.005321235 -0.026438685 -0.0039985683 0.0061785644 0.049414147 -0.014320868 -0.020656178 0.023420325 0.06526449 0.008438715 0.052272316 0.03715855 -0.06262487 -0.002377281 -0.00740491 0.0012764856 -0.019267028 0.009526894 -0.02928172 0.028305728 0.043409847 -0.051642895 -0.039522786 -0.0018302622 -0.03421818 -0.03372331 -0.014147431 0.015402981 0.018560115 0.028064733 0.012832188 0.00750724 0.0083488785 0.03156544 -0.034831166 0.021488499 -0.03611804 0.013582426 0.014564966 -0.010862147 0.0010572965 0.01977467 0.007013847 -0.006029899 0.0067972327 -0.007697037 -0.029999727 0.033238076 -0.013907735 -0.010271117 0.00644161 0.036174577 -0.0051271603 0.009152997 -0.017508868 0.017022215 -0.0064406735 0.012417414 -0.026132597 -0.0030798865 -0.0077185617 0.015863612 0.02377767 0.04968421 -0.016933486 -0.009877344 -0.013205732 0.024487562 0.040767815 -0.0788207 -0.011413422 -0.020807302 -0.0040728333 0.04258689 0.04008236 -0.028177977 -0.04486686 -0.031864338 0.018536728 -0.06139624 0.02761149 0.035042528 0.00826043 -0.050666023 0.009753984 0.024738042 0.008708526 0.023633514 -0.014501448 0.016563084 -0.0029751814 -0.0108761545 0.03457654 0.046983324 0.021220937 0.0029871068 -0.01530241 -0.0020557872 0.00622477 -0.046769213 -0.00103523 -0.022236567 0.0028551908 0.061670467 -0.011232413 -0.012494175 0.0058598034 0.013769891 -0.026884608 0.052321758 0.014620882 -0.063437484 -0.027134037 -0.048326787 -0.006896536 0.035731025 -0.023509946 0.040073566 -0.014128421 0.017155945 -0.031271122 0.0024596984 -0.04296748 -0.026350927 -0.013702404 -0.06352233 -0.0032131267 0.027146475 -0.036777847 -0.016002897 -0.0036344319 -0.05331463 -0.03388979 -0.042634163 -0.004622514 0.009528801 0.027345978 0.052757073 0.041720577 0.018030725 -0.008216094 0.02660186 0.052542534 -0.034337856 0.01415237 -0.0067586144 0.024002055 0.028040687 -0.004920713 0.017477939 -0.034316897 -0.01116394 0.002689795 -0.010002239 -0.0037332317 -0.015989227 0.0015739093 -0.0069599925 -0.027181698 -0.022607008 0.041206323 0.01937431 0.005650605 0.014751566 -0.013110688 -0.022433264 0.020115651 -0.013255808 0.015266294 -0.010305527 0.021666717 0.022865215 0.011069088 -0.010912739 -0.029886674 -0.044322908 0.025414191 -0.031811457 -0.021132704 -0.06397079 -0.00026408426
的 -0.006377528 -0.031819675 0.029549468 0.047831055 0.05106863 -0.0035892797 0.039871342 -0.019774338 -0.01833915 0.016719658 -0.007913115 -0.0034812281 -0.006498291 -0.047345474 0.015360662 0.038628638 0.025141846 0.009093614 -0.049875345 0.06327789 0.013302739 0.01269403 -0.024367811 -0.047104973 -0.055346645 0.026955564 -0.0026393582 0.01830555 -0.008166815 -0.018900493 0.006195174 -0.00215012 -0.0016448846 -0.017982164 -0.015925508 0.057569265 0.03646267 -0.039807618 0.021610077 -0.027566694 -0.04724777 0.049247246 -0.009302101 -0.020118766 0.05614192 -0.00038457912 0.0011039195 -0.017870398 0.01441603 0.013317368 0.0023657659 0.02052543 0.0072542783 0.020063587 -0.04409121 -0.02582086 0.04409946 -0.04119167 0.010713607 0.026747622 0.006413461 0.0015154274 -0.015829757 0.016338198 0.020143833 -0.019019652 0.024465922 0.041686963 -0.032297485 -0.017057976 0.013958122 0.0079294555 -0.036529083 -0.023298552 0.00782446 0.0016099581 -0.024247807 -0.0058726096 0.012618441 0.044559073 -0.008013492 -0.019585127 0.02817851 0.06762711 0.003799199 0.05199265 0.032428797 -0.06754412 -0.0049087587 -0.0114364065 -0.0022691481 -0.012602498 0.014830294 -0.029239403 0.027732134 0.045730013 -0.05317408 -0.03981703 -5.2421205e-05 -0.03762819 -0.034078434 -0.009172443 0.019966766 0.023550093 0.02985846 0.014591138 0.011708706 0.0060393387 0.030821048 -0.033356413 0.025309786 -0.031679574 0.0071029346 0.015673961 -0.005164884 0.002277144 0.020124847 0.0035037214 -0.00637281 0.0065057892 -0.0023754954 -0.025994264 0.037283015 -0.013669313 -0.008933342 0.0025089923 0.03288519 -0.00864989 0.007954797 -0.017319767 0.017419798 -0.0107579585 0.006744063 -0.025990061 -0.0067991773 -0.01468573 0.0172083 0.027769426 0.04842501 -0.015602885 -0.011959116 -0.010802045 0.017252084 0.045843873 -0.08196496 -0.009662893 -0.018276006 -0.0031935817 0.046430882 0.04417125 -0.023450822 -0.039804757 -0.029994784 0.020372605 -0.06529571 0.022289965 0.03310336 0.0061465846 -0.05225235 0.004853544 0.024519844 0.00728697 0.028134467 -0.012769893 0.017493276 -0.0045763757 -0.009194767 0.036667492 0.043418486 0.020161243 -0.00057030603 -0.017880699 -0.00043689826 0.011065904 -0.047822505 -0.00027938437 -0.028512381 0.0024300881 0.05749785 -0.006747079 -0.0120032085 0.004563459 0.009088232 -0.022893656 0.051813666 0.018818427 -0.06266576 -0.02667104 -0.04945331 -0.005923126 0.03788028 -0.020264607 0.042714246 -0.015127084 0.017921293 -0.03518498 0.0049495846 -0.044717226 -0.028868806 -0.016448952 -0.06337435 -0.0026139764 0.021017587 -0.0389941 -0.022801762 0.00300012 -0.054321144 -0.03227965 -0.042123258 -0.0019559055 0.010239625 0.03223829 0.0533636 0.042771254 0.014556339 -0.011912875 0.025768878 0.053979583 -0.037005067 0.01391756 -0.006691832 0.02452106 0.02949364 -0.008710009 0.018015442 -0.030232696 -0.010587592 0.001919227 -0.01278474 -0.0026987854 -0.01994273 0.0037392343 -0.010614513 -0.026348872 -0.021822004 0.043534797 0.014706103 6.701851e-05 0.011839493 -0.01925647 -0.025330484 0.018653285 -0.01735842 0.0129202735 -0.007280693 0.022164645 0.021586632 0.012627641 -0.0134325465 -0.032692418 -0.051653877 0.027482618 -0.036470156 -0.025405068 -0.070422344 -0.0034274596
Di02 -0.0058274255 -0.022194045 0.024054196 0.0332533 0.04181791 -0.003467683 0.029063178 -0.010792672 -0.016343908 0.015333597 -0.0075574648 -0.0057702 -0.007606038 -0.03309029 0.013709875 0.024663977 0.018644249 0.011986893 -0.039340537 0.05051916 0.012064385 0.004885326 -0.019549297 -0.038117234 -0.048104513 0.018683743 -0.002564147 0.01647992 -0.008109448 -0.010818391 0.004139806 -0.0003025778 -0.00551331 -0.013230429 -0.010524892 0.042312477 0.0235408 -0.02713458 0.015613575 -0.022929206 -0.03854231 0.042628657 -0.010178275 -0.013806271 0.044164766 0.0012411054 0.0012854389 -0.012815619 0.01311026 0.011898067 -0.0042287507 0.013598679 0.0077824895 0.017585762 -0.0295471 -0.017314088 0.029274477 -0.029413996 0.008071432 0.023428898 0.0061702314 0.0040979995 -0.012008794 0.011875123 0.02119669 -0.015717933 0.013774544 0.030605264 -0.023700979 -0.019027764 0.007022797 0.0054348814 -0.028039342 -0.02465684 0.0031544643 -0.0012849155 -0.018032696 -0.0035006225 0.005638199 0.03846057 -0.005413293 -0.015505828 0.021257015 0.053569067 0.0065284204 0.036670227 0.030706672 -0.05571271 -0.0030223439 -0.012581309 -0.0018198072 -0.014372226 0.0072858226 -0.02274111 0.0229384 0.03553251 -0.045245163 -0.03141893 -0.0022472164 -0.030567266 -0.03291299 -0.010564195 0.017649136 0.02036085 0.018988272 0.013861142 0.005918684 0.001209336 0.02271697 -0.028842056 0.016834004 -0.029686823 0.007531414 0.013167071 -0.0098878825 0.0060810857 0.015455143 0.0050652907 -0.0016580803 0.0065165614 -0.006015649 -0.019446358 0.030595891 -0.009245355 -0.009939275 0.0020035366 0.028761566 -0.007845195 0.008097534 -0.013576203 0.019012293 -0.004395132 0.004991738 -0.02463844 -0.0020244534 -0.008236047 0.009907444 0.019560307 0.040877633 -0.011672389 -0.0126990285 -0.006484259 0.02084007 0.03135577 -0.06375604 -0.0069280397 -0.015989153 -0.0013380665 0.03468577 0.03594719 -0.022714557 -0.033093825 -0.023889175 0.017745601 -0.050724626 0.024704881 0.02618687 0.0021673995 -0.039410494 0.0063850526 0.021912634 0.004417292 0.018971637 -0.015621622 0.0153666865 -0.0030798824 -0.0065433206 0.032404363 0.03305851 0.020109853 0.0027469802 -0.01276299 0.001002888 0.008758094 -0.03947377 0.004673342 -0.018087693 0.0067355013 0.04379607 -0.003353061 -0.008168448 0.0046719657 0.0064321677 -0.01600973 0.036924776 0.0112129 -0.04791883 -0.01699479 -0.034380563 -0.0060474435 0.025790287 -0.012826603 0.034563668 -0.012516592 0.011255156 -0.028045848 0.0028339252 -0.034581408 -0.02211588 -0.013643635 -0.049436416 -0.0073355753 0.02355766 -0.029731728 -0.018478727 0.0030167429 -0.044115733 -0.025337905 -0.036421396 -0.0046930467 0.009515563 0.022245038 0.038353797 0.0322565 0.01300119 -0.0071637505 0.021280132 0.044863768 -0.03273282 0.010675359 -0.0088057 0.020529656 0.02046394 -0.0042362395 0.0154949175 -0.028099937 -0.009404408 0.0037956664 -0.013588226 -0.0035062437 -0.01210304 0.003098967 -0.011034536 -0.018000443 -0.015021576 0.032642037 0.012591789 0.0034127426 0.0117165595 -0.0118340645 -0.017618947 0.014685581 -0.011874312 0.0088343 -0.009929329 0.015509242 0.017613826 0.0061966516 -0.011939416 -0.02534108 -0.03865478 0.022726618 -0.02976898 -0.020017175 -0.051426213 -0.0040618754
m -0.01355876 -0.034745056 0.026488677 0.050078694 0.058867194 -0.004197542 0.040504184 -0.019088324 -0.025502816 0.024524715 -0.002967922 -0.0031789658 -0.006646484 -0.054054458 0.019748703 0.038483836 0.034732193 0.013812091 -0.05208783 0.06874099 0.009990107 0.013756759 -0.031053139 -0.051880058 -0.0607062 0.02602831 -0.0026595488 0.017678514 -0.016322015 -0.020477934 0.008266805 -0.0034302368 -0.0014644745 -0.017447209 -0.017692251 0.064383104 0.040356673 -0.040736195 0.022768801 -0.034697406 -0.05120817 0.051509745 -0.012804194 -0.020669976 0.06088695 -0.0019760719 -0.00068907853 -0.015229405 0.018896272 0.02024389 -0.0034820077 0.02353982 0.012589522 0.025273412 -0.044731814 -0.030316422 0.043886516 -0.04509065 0.014060073 0.03733764 0.009102718 0.003745703 -0.01792728 0.010555284 0.026753023 -0.018782722 0.021641353 0.04707287 -0.03923753 -0.025833158 0.015016476 0.004180199 -0.03509515 -0.03015949 0.005237263 -0.0010225651 -0.028133405 -0.008659781 0.011027553 0.053643566 -0.0122384075 -0.022810873 0.023826823 0.08129821 0.0022705463 0.058160875 0.041981548 -0.07495223 -0.00467171 -0.016037513 -0.003935123 -0.013971084 0.016400298 -0.031135228 0.030909693 0.054209005 -0.060782444 -0.040871464 -0.0021075744 -0.043183032 -0.044632338 -0.018314315 0.024681289 0.027207637 0.029609142 0.013994753 0.0122275995 0.008015657 0.03101453 -0.038894065 0.02539753 -0.03593716 0.012647518 0.01834244 -0.014054092 0.0019325733 0.018456474 0.0066346 -0.010837697 0.00831754 -0.008882656 -0.031373635 0.04261321 -0.019231528 -0.013520443 0.0023154814 0.04328831 -0.004189352 0.010945448 -0.019181902 0.025338322 -0.013286829 0.015051412 -0.03567071 -0.0030863571 -0.011006906 0.016358275 0.02510872 0.059435528 -0.016963176 -0.011639917 -0.014062712 0.027307969 0.047148682 -0.085428886 -0.010051044 -0.016228188 0.0024242662 0.052268516 0.04596671 -0.026315458 -0.04513155 -0.029704299 0.02570218 -0.0686718 0.032284323 0.03932059 0.0058774925 -0.054214913 0.008552565 0.0318927 0.011063193 0.025955884 -0.021851549 0.017026013 -0.0025808106 -0.015699193 0.038363744 0.051285286 0.026919395 0.00035045447 -0.017423721 0.0010362476 0.011104224 -0.049781628 0.0017379206 -0.02512026 0.0057422062 0.06389384 -0.0057395753 -0.013066848 0.008035631 0.011000565 -0.024132613 0.057736546 0.02123743 -0.068277046 -0.031517893 -0.05236108 -0.005499093 0.042694777 -0.027135996 0.04838887 -0.01802914 0.022779321 -0.040469725 0.0105261635 -0.043515522 -0.031043727 -0.020425737 -0.06744201 -0.0070171626 0.025049994 -0.036679354 -0.020425376 0.0015288128 -0.0662218 -0.037029885 -0.048256632 -0.002630697 0.0089775715 0.033239465 0.061305616 0.04870482 0.01414938 -0.016805254 0.02316468 0.06043356 -0.04646537 0.011894036 -0.010832611 0.026170285 0.027703268 -0.008710968 0.023088217 -0.03305929 -0.008461855 0.0017686575 -0.01730385 -0.0073693334 -0.01875784 0.0037341674 -0.0085921995 -0.027896075 -0.02601747 0.045183204 0.019216763 7.015012e-05 0.015423241 -0.0180001 -0.030748297 0.015912643 -0.018235615 0.010253759 -0.009950112 0.01820642 0.022809347 0.012101424 -0.020038355 -0.035864543 -0.053219873 0.025359835 -0.04292317 -0.02574464 -0.07944103 -0.0019833439
q -0.008218162 -0.037204005 0.032933436 0.054983698 0.06469277 -0.00109577 0.049281035 -0.024271756 -0.02967238 0.021654485 -0.009532083 -0.008845216 -0.013727119 -0.05437329 0.01736615 0.04052266 0.029483704 0.015597295 -0.05629563 0.0786934 0.017373804 0.013903001 -0.032059435 -0.054905944 -0.06893068 0.028601747 -0.0053885095 0.022687307 -0.014649457 -0.017552363 0.0070805154 -0.00080847926 -0.0015831388 -0.02159511 -0.015268158 0.060930658 0.035152767 -0.041901093 0.018803239 -0.030576205 -0.05721205 0.05715243 -0.015040153 -0.018890217 0.067214705 -0.00080204476 0.0012673326 -0.017319921 0.013949248 0.02192331 -0.0030286117 0.024690762 0.013068809 0.02213684 -0.05251788 -0.031250387 0.050685957 -0.050014928 0.016208244 0.03172216 0.012698899 0.001028485 -0.016427506 0.012490439 0.021589149 -0.02680793 0.022264574 0.050782062 -0.03894482 -0.021031043 0.013432324 0.0071270242 -0.038811397 -0.029170938 0.005348341 0.00043886338 -0.031666875 -0.0070163226 0.011029258 0.054851666 -0.009726149 -0.025700752 0.027719507 0.08192161 0.0057457294 0.057028715 0.045224752 -0.078840695 0.00058134383 -0.01372663 -0.0007868935 -0.016361143 0.013014424 -0.033155322 0.031138929 0.05509195 -0.06230021 -0.043975424 -0.0072005247 -0.046950627 -0.042626243 -0.0180573 0.021797601 0.025079675 0.030114774 0.018994728 0.014914421 0.0062962472 0.03056429 -0.040413868 0.028634004 -0.042055637 0.012327621 0.015036236 -0.01183124 0.0006528373 0.026279844 0.008297144 -0.009232401 0.009574524 -0.00643966 -0.027887905 0.042432718 -0.013978982 -0.014510381 0.0032577652 0.039931856 -0.0044556367 0.010944811 -0.022396274 0.02812972 -0.013904568 0.011230559 -0.036898304 -0.009499952 -0.016491408 0.020186976 0.029253278 0.061247285 -0.014675919 -0.014791738 -0.010202185 0.02417347 0.051463313 -0.090591766 -0.009045965 -0.017142879 -0.0038760712 0.056968957 0.049647447 -0.028039223 -0.054969657 -0.03524303 0.024611253 -0.07818149 0.0279418 0.040319443 0.0036755372 -0.05891192 0.011502237 0.030991897 0.014811307 0.031409286 -0.017206563 0.017365986 -0.0088205645 -0.018746832 0.043536216 0.05005645 0.026997227 0.002787354 -0.02296687 -0.00263819 0.0073992056 -0.05593912 -0.002020533 -0.03079652 0.008671978 0.07281665 -0.010835814 -0.018993055 0.0064559076 0.009185246 -0.029272053 0.056102563 0.020751419 -0.07544183 -0.029375039 -0.054431487 -0.004024386 0.042601805 -0.02887315 0.049202118 -0.018668428 0.023463778 -0.038110897 0.010730527 -0.048330303 -0.034098618 -0.017513009 -0.07388405 -0.010669272 0.030675683 -0.042434968 -0.024735687 -0.00063091755 -0.070915215 -0.04259664 -0.051617898 -0.0037640096 0.014471842 0.035432726 0.064494126 0.045113225 0.015970185 -0.018216396 0.023245927 0.06269017 -0.046061475 0.013096177 -0.012328557 0.026234718 0.036066685 -0.006894853 0.027463375 -0.04085619 -0.011209324 0.0019202051 -0.011723445 -0.0046061687 -0.019168194 0.0012437394 -0.0105188675 -0.032587033 -0.026832446 0.054334834 0.02326384 0.00375293 0.010542837 -0.01957518 -0.027306713 0.020845167 -0.022385623 0.015558781 -0.012113156 0.023957158 0.027197748 0.012349088 -0.01645783 -0.035241466 -0.0585543 0.028059803 -0.038676225 -0.021968964 -0.08385817 0.0011437858
Dn08 -0.0045677135 -0.029682731 0.026494624 0.04094352 0.05238968 -0.0025746461 0.03851684 -0.012545434 -0.01951838 0.016565723 -0.005829785 -0.00397644 -0.0077050263 -0.041331194 0.017339528 0.034894474 0.030308584 0.007539563 -0.04708631 0.06187742 0.012995618 0.008223755 -0.028021121 -0.04575845 -0.056701038 0.025975576 -0.00415602 0.012009703 -0.009136759 -0.013240587 0.0048210253 -0.0022317893 -0.0034704085 -0.012293531 -0.015517227 0.051292337 0.028335819 -0.036748633 0.018172087 -0.027879335 -0.044280753 0.046593945 -0.011798837 -0.0144977 0.053258546 -0.0058273473 -0.002312701 -0.012434665 0.011137038 0.011732757 -0.0039500175 0.014815661 0.012232194 0.020604663 -0.038022757 -0.027769752 0.040345263 -0.035606965 0.012354929 0.024363413 0.0065210955 0.0016603426 -0.019364063 0.012708125 0.020469766 -0.021413948 0.0154137965 0.041371293 -0.03408761 -0.022035161 0.011897962 0.0043133316 -0.03317423 -0.027860511 0.004631896 0.00013798886 -0.02463706 -0.00857712 0.0070650238 0.041478615 -0.013123227 -0.023462793 0.025644377 0.06827841 0.0030809254 0.04293097 0.03316411 -0.06219366 0.0013792354 -0.009570929 -0.0037145528 -0.01563837 0.0067357053 -0.025985803 0.024030168 0.041448344 -0.047393665 -0.031049483 -0.0010140742 -0.036651656 -0.031308733 -0.015957428 0.014699495 0.017725008 0.02577373 0.0150618935 0.008154719 0.006338285 0.030603396 -0.030874198 0.022507405 -0.02815975 0.010647584 0.011151506 -0.010992403 0.0061680465 0.01478337 0.0048669693 -0.0034017425 0.0042253393 -0.004788441 -0.027550794 0.03620866 -0.010330878 -0.015478398 0.003004074 0.036187574 -0.005673071 0.008496123 -0.018010186 0.015559951 -0.0051569366 0.00863436 -0.028870154 -0.004672019 -0.010115876 0.012442503 0.024925938 0.04553092 -0.014911234 -0.009647981 -0.007614321 0.02339606 0.04046286 -0.07439186 -0.0103428075 -0.014032758 0.0030466758 0.042481214 0.037330337 -0.025273152 -0.040864974 -0.030840768 0.02101704 -0.059949443 0.028050013 0.027393548 0.002935003 -0.04795921 0.0035467574 0.027697604 0.010904453 0.025563385 -0.013745469 0.011051266 -0.005422828 -0.014745975 0.036118627 0.04028525 0.025759608 -0.00165236 -0.012960991 0.001218676 0.007879617 -0.042163588 0.0044719074 -0.023342503 0.0069333077 0.05675968 -0.004956164 -0.010673837 0.0027157075 0.007821967 -0.021108275 0.04666397 0.016470175 -0.057052724 -0.020551499 -0.045682188 -0.0049833967 0.037265655 -0.01872718 0.038997542 -0.011283935 0.016652359 -0.034162465 0.0068046264 -0.04270805 -0.027739663 -0.019947864 -0.056587383 -0.008845203 0.026100028 -0.03490617 -0.014078869 -0.0037486844 -0.054846797 -0.03297275 -0.041929618 -0.0016021229 0.0089764325 0.026401268 0.046862856 0.034536913 0.016526947 -0.011619428 0.024174584 0.048042055 -0.0348124 0.00925283 -0.005066985 0.024064993 0.024484837 -0.0025242104 0.016528772 -0.033354733 -0.0071782027 0.0029468264 -0.015278122 -0.0077090766 -0.012108071 0.001026045 -0.009159472 -0.02166598 -0.02360706 0.04226892 0.017700577 0.005610451 0.008726907 -0.013650911 -0.021829346 0.013899854 -0.018487325 0.014577532 -0.004875897 0.015228803 0.022326535 0.011623408 -0.015893912 -0.0303358 -0.047367696 0.025365291 -0.03286828 -0.023937162 -0.06383324 -0.0025482299
为 -0.0061582737 -0.029158209 0.028826555 0.043588668 0.0479451 0.0003346174 0.03789027 -0.01790602 -0.023838555 0.018684648 -0.0068943845 -0.0029872276 -0.012432676 -0.0451578 0.014806964 0.03378422 0.029178852 0.009598027 -0.045772165 0.06308455 0.013923749 0.009039409 -0.021771839 -0.043976612 -0.057427544 0.021798579 -0.009841111 0.013279763 -0.011520886 -0.019106502 0.011133418 0.0008769941 -0.0046208496 -0.018538408 -0.015144529 0.048501153 0.03528999 -0.037831716 0.019158069 -0.028164035 -0.03979727 0.04879963 -0.008646539 -0.01972579 0.05255845 -0.0034873257 0.0010537339 -0.012192087 0.015091058 0.016735349 0.0008347308 0.014700516 0.012088772 0.018630281 -0.04222556 -0.0214555 0.03815043 -0.03483475 0.011823771 0.031211175 0.008193445 1.882429e-05 -0.018194407 0.01617467 0.021441355 -0.02132933 0.019502586 0.0386853 -0.03111076 -0.0231933 0.012558507 0.0048053125 -0.029201113 -0.024754692 0.0031178182 -0.00048592233 -0.023121582 -0.010983612 0.012610971 0.048424475 -0.0058625066 -0.02093677 0.019138614 0.06827075 0.0017033851 0.05101389 0.035947308 -0.05970252 0.00037347456 -0.010339689 -0.0022944314 -0.014473065 0.0149052 -0.030333363 0.025390785 0.04222136 -0.048315022 -0.032227397 -0.0049810545 -0.033351853 -0.036739852 -0.011147858 0.021125507 0.02290217 0.025277684 0.01364109 0.012907987 0.009533948 0.029709602 -0.035741657 0.022568021 -0.035134777 0.00862542 0.013836339 -0.010791497 0.0007937416 0.021901777 0.009693319 -0.0033875536 0.0062371683 -0.009354723 -0.027934652 0.035512704 -0.017822118 -0.014741375 0.0051627685 0.03269792 -0.010547756 0.011309395 -0.021995096 0.017417565 -0.010209475 0.01030626 -0.027387237 -0.0076011983 -0.0077055697 0.01859284 0.020090818 0.05112579 -0.009796393 -0.015994066 -0.010947823 0.022085013 0.043471668 -0.0777994 -0.00978152 -0.0138161965 -0.004804694 0.041597396 0.03828524 -0.022226555 -0.043737676 -0.026562886 0.019299662 -0.06044361 0.027522592 0.031522524 0.008289735 -0.046205115 0.0033362582 0.0313895 0.0074645225 0.02712538 -0.017237471 0.0126956925 -0.008186045 -0.009630088 0.035306986 0.042983007 0.019084323 -0.0025502334 -0.01850714 0.003301779 0.004345907 -0.04069096 0.00077460584 -0.024943067 0.007249724 0.054715734 -0.009454452 -0.012372631 0.0092866765 0.01439514 -0.023587836 0.04857803 0.017735828 -0.060954846 -0.021033501 -0.047707826 -0.004504091 0.037036378 -0.018009635 0.036214046 -0.012135971 0.020151896 -0.02784628 0.0013296013 -0.037679568 -0.02489565 -0.0166409 -0.053849522 -0.007322871 0.022793915 -0.036017064 -0.020426428 -4.231542e-05 -0.05501002 -0.03673749 -0.03863064 -0.0043632775 0.008450654 0.030035922 0.054205768 0.040842555 0.014206044 -0.011398703 0.021844238 0.054821443 -0.039204016 0.013967563 -0.006611441 0.02086969 0.027772624 -0.0044278614 0.022881027 -0.030082043 -0.0039409404 -0.0007344431 -0.010490878 -0.0051382044 -0.01773228 0.00016559918 -0.011366663 -0.025237117 -0.021291465 0.045457397 0.014351185 -0.0022322955 0.010021179 -0.01177082 -0.02864642 0.021044873 -0.015176013 0.012045507 -0.008826815 0.014910102 0.021576846 0.01391461 -0.016905708 -0.030949097 -0.045194212 0.024665302 -0.031358473 -0.022814438 -0.061865 -0.003166887
Ih01 -0.0079619745 -0.01949931 0.022945391 0.030922214 0.0391756 -0.0056473613 0.028964093 -0.010984429 -0.020564888 0.018384628 -0.0013712678 -0.005166713 -0.011017384 -0.035424586 0.009884761 0.028685769 0.025043447 0.009707587 -0.03772538 0.051274415 0.006673163 0.0063475934 -0.021150645 -0.032846384 -0.046211258 0.015281142 -0.004307071 0.013625267 -0.011720274 -0.014634971 0.0054551386 -0.0011150414 -0.0065771095 -0.014667327 -0.010819008 0.044736017 0.025912233 -0.029015115 0.014225845 -0.022681108 -0.03409588 0.038328838 -0.005101799 -0.014868025 0.038411513 -0.0016348484 0.0025029758 -0.013382415 0.009976161 0.011382596 0.0027509718 0.013644821 0.0108161075 0.011173029 -0.028474916 -0.023702562 0.035019904 -0.029919468 0.011228419 0.020612525 0.009112676 0.0038607225 -0.015594483 0.0062542288 0.019379495 -0.017621424 0.011728633 0.033075005 -0.02747425 -0.019171465 0.0117638735 0.002968351 -0.026550706 -0.022878544 0.002304883 -0.0035685191 -0.020497894 -0.007674309 0.0041816942 0.039763615 -0.0052934154 -0.017090648 0.018906413 0.050484437 0.006837645 0.041555192 0.028409673 -0.052779466 -0.0029616293 -0.0069451574 -0.002579028 -0.010505735 0.012635972 -0.020372298 0.019041244 0.0367166 -0.041753553 -0.03043115 0.00030925966 -0.031732097 -0.028641477 -0.010273162 0.0109511595 0.016751893 0.023982469 0.00997517 0.005078725 0.007107012 0.020731093 -0.030706843 0.018723713 -0.026325626 0.011339463 0.010286631 -0.0037067425 -0.0011744809 0.016648155 0.007189844 -0.004789324 0.0033936528 -0.004299922 -0.020346412 0.024975091 -0.013962284 -0.008993574 0.002840421 0.031025624 -0.0058408855 0.009541962 -0.014058839 0.019508064 -0.011185475 0.008797621 -0.022497317 -0.003597446 -0.008403027 0.009626594 0.022211095 0.037139647 -0.009587565 -0.01277607 -0.0068472615 0.02032794 0.032048907 -0.058928333 -0.0059758835 -0.009732269 0.0028998023 0.035116203 0.030451437 -0.023375649 -0.029429123 -0.023994906 0.016575366 -0.05018883 0.023444232 0.028220132 0.004717683 -0.035893682 0.007944623 0.023345541 0.010116259 0.020255275 -0.013543609 0.014442393 -0.005789194 -0.010242752 0.032236528 0.030330148 0.016897218 -0.0013462722 -0.01078381 0.0031042304 0.0037154616 -0.03222186 0.00083513185 -0.02358672 0.0021711427 0.044597242 -0.0072376807 -0.010407306 0.0027586233 0.010869245 -0.0139892595 0.03761468 0.013889476 -0.047533087 -0.019533243 -0.039182197 -0.0036816052 0.029766148 -0.013223396 0.03315876 -0.009078542 0.015808824 -0.02817036 0.0037932394 -0.034278363 -0.018851692 -0.009806035 -0.048224937 -0.0044069877 0.020823492 -0.026121285 -0.014756449 -0.0026193769 -0.03950261 -0.030543186 -0.035564817 -0.0040942933 0.006263531 0.020425051 0.03688589 0.032144684 0.009808642 -0.010307619 0.020020625 0.043253727 -0.028890887 0.010497153 -0.0027466281 0.01747772 0.02429689 -0.0009435681 0.011392228 -0.028522635 -0.0021557456 0.002481196 -0.010761824 -0.0014958659 -0.0145690115 -0.002515164 -0.0109604765 -0.015617509 -0.01912587 0.031106321 0.011151903 0.0036724994 0.0078049274 -0.01426875 -0.02068784 0.013330603 -0.013369595 0.008018723 -0.004862914 0.0143447025 0.014837795 0.010296699 -0.009401075 -0.028032191 -0.03995819 0.021075403 -0.031132307 -0.017048294 -0.05583229 0.0025266777
d -0.011885219 -0.03489814 0.028366402 0.047449037 0.05843333 0.00044924577 0.041395914 -0.017152747 -0.022114314 0.02229468 -0.008074601 -0.0050861468 -0.008847987 -0.044662487 0.0138982935 0.033441123 0.032093924 0.016111393 -0.0539691 0.06912223 0.0109221935 0.012141358 -0.025175503 -0.05103332 -0.058693133 0.027695918 -0.005410001 0.013793794 -0.010359351 -0.017472977 0.0077397535 0.0021575105 -0.005192053 -0.014351787 -0.0133273145 0.058582548 0.034487724 -0.044684436 0.015469389 -0.027301656 -0.051837295 0.05411236 -0.00911461 -0.022996772 0.057287034 -0.0049018376 -0.005388919 -0.015434294 0.020329712 0.014075417 -0.0022156555 0.022799069 0.013207225 0.02382694 -0.048550334 -0.025702504 0.040323433 -0.040227365 0.01631017 0.030455047 0.010687353 -0.0012183848 -0.016681485 0.0152638545 0.025647657 -0.018864352 0.020713111 0.045667857 -0.03759379 -0.025251843 0.01172829 0.0012892223 -0.03669864 -0.029096246 0.008739338 -0.004728424 -0.026263902 -0.009519445 0.008036597 0.04904308 -0.009184577 -0.02380031 0.024957256 0.07723409 0.004891519 0.05203966 0.041799113 -0.06874069 -0.0026857427 -0.008416821 0.0017442304 -0.014764637 0.013222909 -0.03149283 0.03215247 0.0501458 -0.0584371 -0.04159255 -0.0035845344 -0.041868366 -0.03745001 -0.017564265 0.019643905 0.02510262 0.031462934 0.018129563 0.0074762017 0.007752914 0.032770507 -0.037088163 0.029393515 -0.035848416 0.013837856 0.017581671 -0.009788702 0.0039739455 0.021450594 0.0032290048 -0.005396774 0.004299507 -0.007543121 -0.028591676 0.042376265 -0.014347263 -0.013260292 0.003970979 0.037049502 -0.008390163 0.0076343236 -0.022584306 0.022533938 -0.008692737 0.011297777 -0.027426839 -0.005905678 -0.013066995 0.014067894 0.02842631 0.055682138 -0.01651513 -0.012400427 -0.007820064 0.019942475 0.044468164 -0.088531725 -0.0067904782 -0.019461432 -0.000470788 0.052792124 0.04000578 -0.031262353 -0.04537522 -0.034910053 0.018150717 -0.072814375 0.02734422 0.033994004 0.0060966183 -0.052030426 0.011193194 0.03415921 0.007796946 0.032014884 -0.021085024 0.016444879 -0.005207587 -0.013110765 0.038106088 0.047392115 0.02574987 -0.004454675 -0.019941421 -0.0033613169 0.010216162 -0.04860623 -0.0014249891 -0.025667133 0.0044026645 0.06401041 -0.005525543 -0.015835099 0.010268639 0.008504257 -0.026275469 0.050069734 0.0180712 -0.06870653 -0.023343906 -0.04825977 -0.009131444 0.04183738 -0.019662168 0.039709568 -0.012922037 0.016038176 -0.03140292 0.007915164 -0.044551827 -0.033787 -0.018397912 -0.0643897 -0.0060749045 0.029989954 -0.038386706 -0.024493963 -0.003475749 -0.060831904 -0.038078338 -0.046256226 -0.0033078163 0.015692642 0.030543238 0.05855019 0.04556424 0.013290452 -0.0142922895 0.02180329 0.055629935 -0.042168368 0.018351853 -0.00984988 0.028025161 0.03001221 -0.008965633 0.022974823 -0.033350464 -0.008689262 0.0011224108 -0.016076187 -0.0024359808 -0.020842606 -0.0036527254 -0.014840193 -0.022665177 -0.023731677 0.050306045 0.023107938 -0.0011564493 0.014423435 -0.015602469 -0.025446918 0.01764188 -0.013252636 0.010206851 -0.006389125 0.022146828 0.022078512 0.015102884 -0.013033288 -0.03333977 -0.048477773 0.02664636 -0.03914606 -0.020444592 -0.07068837 -0.0028848732
a -0.008229656 -0.02958957 0.028186973 0.041446567 0.04890155 -0.003179453 0.039415985 -0.01915149 -0.018904641 0.01886033 -0.0028247372 -0.0033726937 -0.0062002824 -0.04568114 0.0124581475 0.03533508 0.026103036 0.013469992 -0.048768513 0.06397021 0.0118309865 0.0084736105 -0.025356013 -0.04704742 -0.05686702 0.019570375 -0.0051838253 0.017544976 -0.012954026 -0.011791898 0.009263078 -0.0018783611 -0.004890826 -0.015010179 -0.014851475 0.054053795 0.034415543 -0.034889374 0.019656312 -0.02546471 -0.0457127 0.045958623 -0.0061423494 -0.02116862 0.052835118 -0.0036870134 0.00070539815 -0.016757835 0.016210323 0.015573054 -0.0022948296 0.014482733 0.0054544434 0.019799255 -0.044347636 -0.023110976 0.038224414 -0.042765375 0.010671766 0.03196788 0.0066769365 0.0044378364 -0.020446984 0.0085192155 0.018865153 -0.018847972 0.016971232 0.03627981 -0.035436608 -0.021044202 0.012674184 0.0013955529 -0.034977563 -0.02650368 0.0065871114 -0.0052449144 -0.019727407 -0.010611982 0.011468762 0.048972048 -0.007941996 -0.017559264 0.026808683 0.0685823 0.0020871921 0.05055654 0.031932678 -0.06532349 -9.259493e-05 -0.014042561 -0.0040318808 -0.016499223 0.012231877 -0.026086662 0.027371993 0.04579001 -0.0521133 -0.03381677 -0.0059275636 -0.03578754 -0.038146384 -0.012512022 0.020506302 0.02389622 0.025702905 0.016087828 0.013193419 0.003689953 0.025895089 -0.035055723 0.02183888 -0.029734649 0.013399885 0.016412137 -0.0044178762 0.00042105105 0.018917037 0.002702938 -0.008613225 0.0019797098 -0.0041704187 -0.025361843 0.032604203 -0.010613785 -0.011699764 0.0046511064 0.032925595 -0.008223781 0.007998834 -0.015961247 0.02126628 -0.011686869 0.011285496 -0.027287895 -0.0066038845 -0.0076694726 0.013844674 0.026278725 0.046932094 -0.015373365 -0.014778175 -0.012112051 0.020695725 0.04078147 -0.075323015 -0.0053208536 -0.017234592 0.00036480496 0.043910317 0.03971648 -0.025201064 -0.043195482 -0.030757038 0.017667515 -0.06253829 0.025855005 0.027499797 0.00745426 -0.047889195 0.005898407 0.02599328 0.0078058494 0.0239076 -0.019514114 0.015373517 -0.008842999 -0.014189523 0.03334186 0.047150347 0.022635322 -0.0035569477 -0.014299377 -0.003754241 0.007155465 -0.042811416 -0.0016168358 -0.028923385 0.0011346517 0.059867736 -0.0033687167 -0.01171476 0.007523914 0.012392325 -0.023967698 0.052279424 0.019175775 -0.058213416 -0.020896154 -0.04931908 -0.004826816 0.03961583 -0.020990921 0.036084138 -0.014495578 0.016608901 -0.033133816 0.004817804 -0.037506748 -0.027781598 -0.014844032 -0.059713434 -0.002434206 0.02151026 -0.037534427 -0.020403204 -0.0031214894 -0.057114765 -0.035073508 -0.041324917 -0.0018682252 0.012946085 0.02716262 0.052175738 0.03995908 0.017704261 -0.008744784 0.021748101 0.053403676 -0.039945424 0.011966929 -0.011508239 0.022282455 0.025710495 -0.008074431 0.020108446 -0.030218909 -0.0115559045 0.0025715532 -0.0103605725 -0.0022022477 -0.017355759 0.0038904385 -0.0059029534 -0.023607695 -0.022873458 0.0395392 0.015307215 0.0015938154 0.013314754 -0.014979325 -0.028619718 0.019691328 -0.018173737 0.015254135 -0.006105964 0.014650839 0.02164404 0.014706746 -0.016782714 -0.03347541 -0.043228053 0.024355981 -0.031112714 -0.02510837 -0.06664648 0.0010593681
c -0.010208321 -0.030963946 0.024360115 0.04305731 0.049614727 0.0007491082 0.0385457 -0.02040509 -0.01904049 0.019780738 -0.006109922 -0.0049851113 -0.007974673 -0.04720987 0.014121087 0.034052346 0.03192986 0.01439842 -0.047306933 0.06249169 0.013566707 0.009635435 -0.029474707 -0.050150063 -0.0580095 0.024571853 -0.009701715 0.013841591 -0.00786518 -0.017518966 0.011158227 0.00046179575 -0.0065779635 -0.019018477 -0.012376516 0.05674488 0.030904757 -0.040964585 0.015194726 -0.024921602 -0.047198325 0.051524352 -0.010203348 -0.02190972 0.05484704 -0.0023271246 -0.00055658445 -0.018320872 0.012531418 0.012808948 0.0004912315 0.016932862 0.009247584 0.020423874 -0.040218946 -0.024997573 0.03905221 -0.04000144 0.010764903 0.027463565 0.0107324645 0.00013702721 -0.021068024 0.014035333 0.025180338 -0.019783035 0.021212302 0.039625827 -0.034688387 -0.024491666 0.00687271 0.0011547738 -0.03651062 -0.024375495 0.00929846 -0.0025495728 -0.023724064 -0.004583451 0.010172018 0.044303313 -0.009413365 -0.01963754 0.02270455 0.06743928 0.009090447 0.052892823 0.032923866 -0.06720185 -0.0019183632 -0.010846216 -0.0048585515 -0.011600415 0.009076563 -0.027036462 0.031286407 0.045762286 -0.051000297 -0.03766038 -0.007002337 -0.036147393 -0.036914248 -0.017086076 0.022278273 0.019660687 0.030475618 0.014241836 0.006553309 0.0022939164 0.03079626 -0.037961476 0.026863318 -0.034896713 0.014661573 0.015983818 -0.004601554 0.0072051063 0.016520552 0.002082611 -0.00942554 0.00524597 -0.0036097365 -0.024874644 0.035723586 -0.0123246685 -0.013826717 0.002178262 0.037389148 -0.010962586 0.009498502 -0.021811355 0.02398859 -0.011483586 0.010840899 -0.030968182 -0.002028857 -0.013265083 0.017654615 0.025541622 0.053554915 -0.015148009 -0.015069426 -0.013167984 0.023842083 0.04124586 -0.07742092 -0.007967526 -0.014200434 -0.0035206554 0.0461095 0.040670466 -0.029052049 -0.04011636 -0.030494759 0.022706725 -0.06474444 0.027811892 0.033246994 0.008843473 -0.05213713 0.010666828 0.032143757 0.009874823 0.028680284 -0.01481076 0.017790118 -0.006711207 -0.011461235 0.03750033 0.046291303 0.027151378 -0.003704475 -0.016937554 -0.004101245 0.0072383606 -0.048965033 0.0028229814 -0.026703466 0.0036100012 0.06145378 -0.010530146 -0.013050601 0.0057331426 0.009752088 -0.026009735 0.046344705 0.020430116 -0.064608574 -0.023377651 -0.048960645 -0.00603362 0.03820244 -0.024524897 0.03792546 -0.017117454 0.014486294 -0.034998275 0.0043425057 -0.041592482 -0.028695174 -0.020335944 -0.061743785 -0.006979473 0.022219984 -0.03755318 -0.020448688 -0.0031670784 -0.060282744 -0.0392477 -0.042324394 -0.0054429513 0.010032786 0.03127508 0.055865314 0.03873976 0.017822694 -0.015555176 0.023300402 0.057425063 -0.03988028 0.018141063 -0.009338413 0.024998818 0.031459518 -0.009957451 0.017982846 -0.035030328 -0.00891576 -0.0006393568 -0.0127011 -0.0068620006 -0.016569147 -9.256996e-05 -0.0073134135 -0.027878948 -0.025030877 0.046908416 0.021628857 0.00073399505 0.012529716 -0.01788592 -0.025915446 0.01431766 -0.019110603 0.012321295 -0.008341358 0.020204905 0.017205779 0.012829637 -0.014029474 -0.033853773 -0.048224956 0.0264332 -0.038710885 -0.02169835 -0.06667699 -0.00078043825
r -0.0061698454 -0.020679343 0.023920996 0.037135057 0.04445367 -0.005514649 0.033924308 -0.011762452 -0.020309055 0.014836199 -0.0017855532 -0.0013332291 -0.011300258 -0.035383463 0.011059037 0.028173134 0.02515383 0.0062050456 -0.034100216 0.047363475 0.012324929 0.011060315 -0.02295979 -0.041488957 -0.042473327 0.015273749 -0.00814072 0.012454304 -0.011466559 -0.009231071 0.009155895 0.00035483204 -0.0001294423 -0.009446136 -0.0077507435 0.045218162 0.028486887 -0.028021311 0.016289745 -0.019521466 -0.03954518 0.043069825 -0.0045385044 -0.011017163 0.040034734 -0.0034630548 -0.001639258 -0.009978368 0.008848825 0.012427389 0.001775679 0.0183947 0.0058131437 0.015698325 -0.03056885 -0.021550508 0.03267378 -0.03565072 0.010373817 0.025710836 0.007717982 -0.002559085 -0.015687529 0.011169914 0.017776337 -0.01753677 0.018458 0.03402794 -0.029201873 -0.012671333 0.004841492 0.002717231 -0.02311765 -0.021577291 0.0019568235 -0.000824457 -0.020185806 -0.008837449 0.00479909 0.038669553 -0.011870004 -0.014666677 0.017011935 0.056908004 0.0022504518 0.03707067 0.031190746 -0.05510567 -0.001426363 -0.009791001 -0.0040213685 -0.015211461 0.011779612 -0.02476061 0.023547422 0.031891745 -0.040678 -0.029780816 -0.0047255466 -0.029951738 -0.03211927 -0.011837584 0.0140437605 0.016936295 0.020505816 0.008906223 0.010228986 0.0042125853 0.024917666 -0.027157485 0.022893537 -0.02832877 0.004729842 0.010952793 -0.010348247 0.00551701 0.01896765 0.004748316 -0.0024866827 0.008044907 -0.0027549218 -0.018619938 0.032501664 -0.01090438 -0.013280164 0.0004170883 0.027387368 -0.0058899573 0.011161292 -0.019310065 0.015430011 -0.0039761392 0.0071775513 -0.025901765 -0.0039587147 -0.0111040445 0.010239727 0.01643322 0.039578665 -0.007498971 -0.008828712 -0.0049492847 0.020695781 0.035580285 -0.06531298 -0.0033231275 -0.017442867 -0.0027211213 0.039655842 0.0353097 -0.022407621 -0.03759613 -0.020146329 0.014457667 -0.05262233 0.023340218 0.027875906 0.0057815523 -0.039071884 0.009228298 0.02612689 0.010326842 0.024849787 -0.015393396 0.013312553 -0.005105991 -0.007209132 0.033459164 0.037413552 0.020425716 0.0022945586 -0.010903595 -0.00018276165 0.0030046578 -0.03674896 0.004884709 -0.022852028 0.0036294286 0.0484818 -0.008583817 -0.007305743 0.0056919153 0.009812457 -0.0148673495 0.040012162 0.0137870535 -0.052531753 -0.016034132 -0.041479792 -0.00078268454 0.031487513 -0.016547628 0.028480018 -0.007228745 0.013738158 -0.024158567 0.0031581183 -0.035120867 -0.022456829 -0.016741902 -0.050249945 -0.008675278 0.021951292 -0.027559128 -0.015796449 0.0020872527 -0.04591046 -0.031659245 -0.033270534 -0.004299613 0.009063916 0.026608737 0.041125 0.035276968 0.013862385 -0.010921102 0.016156014 0.046684578 -0.029710205 0.011166639 -0.006750438 0.016231589 0.024103837 -0.006428195 0.017660636 -0.027263552 -0.0070157973 0.0031486445 -0.0129004745 -0.004072924 -0.01668933 0.00085842435 -0.0069659636 -0.018295368 -0.018336223 0.035188917 0.015265229 0.0011524123 0.011929867 -0.013628375 -0.022435775 0.012060357 -0.016858447 0.00631007 -0.005986623 0.015878657 0.01425135 0.00573397 -0.014100062 -0.023041582 -0.04205192 0.021344705 -0.025990205 -0.014833095 -0.057128634 -0.00014363052
以 -0.008902538 -0.017689632 0.0174444 0.030571189 0.038622726 -0.0026241916 0.029179765 -0.013823374 -0.013904139 0.010822166 -0.0013364264 -0.0037122667 -0.00865483 -0.031766675 0.009643406 0.02428654 0.018981256 0.004346626 -0.036888044 0.04310058 0.005290255 0.0045504943 -0.015574527 -0.03416054 -0.04315301 0.01423541 -0.003474006 0.010207721 -0.008592151 -0.012981466 0.0077685453 -0.003091667 -0.0059775524 -0.008966248 -0.011403475 0.039451253 0.023424534 -0.023453657 0.014351957 -0.018355338 -0.03139051 0.035793368 -0.005922049 -0.014312584 0.0401054 0.0007689608 0.0023900678 -0.010495074 0.010315337 0.0139706815 -0.0039622695 0.012443273 0.003527401 0.0149801085 -0.03300642 -0.017146317 0.03206747 -0.028843671 0.0057138386 0.017680224 0.00675752 -0.000984182 -0.009516237 0.008378976 0.018708153 -0.014136128 0.011737141 0.027159385 -0.022949794 -0.016890435 0.009756595 0.0019200043 -0.02632017 -0.019238573 0.0015343524 -0.0048577245 -0.01888186 -0.005933359 0.006796241 0.034193352 -0.0044516036 -0.011728858 0.018969849 0.049149238 0.0012617183 0.03869926 0.025463877 -0.043912448 -0.002265969 -0.005701414 0.0013594349 -0.013634408 0.0066882186 -0.02050352 0.020207023 0.028376685 -0.035201654 -0.024465358 -0.0024328183 -0.027081698 -0.02872346 -0.0063365013 0.009687031 0.012937551 0.021803278 0.0076235645 0.0060285856 0.0034685913 0.019744204 -0.02815476 0.019109229 -0.023782467 0.008959239 0.008742254 -0.0034850147 -0.0009644893 0.015891125 0.001964642 -0.0042373314 0.0015213019 -0.0053213737 -0.021045607 0.02459961 -0.006481518 -0.0075188973 0.004182903 0.022448245 -0.0029058906 0.0033310612 -0.014434655 0.012438084 -0.009523002 0.008117605 -0.0212145 -0.00292471 -0.006096681 0.008527088 0.016492803 0.033835787 -0.01349806 -0.01349204 -0.006987977 0.016704824 0.03014621 -0.058324046 -0.0036933224 -0.011159114 -0.004594699 0.035306692 0.031405926 -0.021174194 -0.03049929 -0.018469552 0.013309627 -0.045532625 0.016631512 0.02516261 0.0067744916 -0.03338114 0.0030444646 0.019748248 0.0052102176 0.014787469 -0.008500073 0.0109510785 -0.0046280418 -0.0055816453 0.022761725 0.033562444 0.013642727 -0.002567577 -0.009807034 -0.001531725 0.0043740612 -0.034221537 -0.0007147395 -0.019258143 0.001250915 0.04538557 -0.0011700537 -0.009455494 0.004368611 0.0054429453 -0.013189384 0.032964688 0.013911246 -0.03985242 -0.0155603895 -0.033461604 -0.001735916 0.028606214 -0.016103683 0.028421706 -0.0072726537 0.015032475 -0.023083571 0.0049677226 -0.03215405 -0.02362667 -0.014052337 -0.044700675 -0.0040119346 0.015893994 -0.024794456 -0.010892786 0.0039130067 -0.036557637 -0.02437962 -0.031684425 -0.0007632532 0.007163188 0.016431665 0.039937582 0.025768105 0.011928546 -0.010299242 0.014149539 0.03789038 -0.029798826 0.013817519 -0.009090956 0.012484051 0.022554962 -0.002518747 0.016125897 -0.021707915 -0.0070318803 -0.0007547499 -0.008488077 0.00053424994 -0.013997405 -0.00094507216 -0.0067101456 -0.014458404 -0.019175282 0.029596841 0.011560549 0.0017842437 0.010493666 -0.008904608 -0.021759037 0.01562781 -0.012143779 0.006917104 -0.0095181605 0.010393875 0.018498035 0.009648501 -0.01369935 -0.02130108 -0.036812425 0.013358025 -0.023854973 -0.014801899 -0.047277767 0.0024012825
j -0.0040131095 -0.023569493 0.020546958 0.03308129 0.0381538 0.0012237852 0.02503782 -0.013220921 -0.015383821 0.01712397 -0.0041169347 -0.0003972362 -0.008214195 -0.03589497 0.007359378 0.023404563 0.024031747 0.0061438223 -0.035707645 0.049720865 0.005815973 0.00746875 -0.01708094 -0.036870666 -0.040424276 0.015794337 -0.002395864 0.009319702 -0.010541181 -0.0072578774 0.0035126465 0.0029676692 -0.006776454 -0.009150079 -0.010126841 0.035914056 0.023028588 -0.028504035 0.011897016 -0.020298382 -0.035332832 0.03378505 -0.008175378 -0.010269013 0.041401 -0.0020519304 -0.0032552464 -0.008333915 0.007141326 0.0113809835 0.0011127477 0.012245227 0.0046570683 0.010032373 -0.033051237 -0.016040688 0.030125625 -0.028680712 0.013120981 0.017797785 0.005508467 0.00089064374 -0.015599024 0.0051000407 0.018556029 -0.015507402 0.01129597 0.032514367 -0.025785472 -0.016387193 0.007829729 0.0019235449 -0.02753481 -0.021303136 6.6158127e-06 -0.00071579334 -0.018783957 -0.005188872 0.007906391 0.032057468 -0.004156363 -0.011718993 0.01695478 0.049264703 0.0040402617 0.037963577 0.029567348 -0.04674906 -0.0023891332 -0.009356182 -0.00078069593 -0.013498995 0.006970772 -0.023872232 0.019600147 0.032705855 -0.036172472 -0.026895821 0.000121693185 -0.028461821 -0.021967534 -0.009211914 0.014391511 0.017828424 0.02025241 0.012466744 0.007869201 0.0004640991 0.018954253 -0.026563857 0.013741265 -0.022809312 0.009299345 0.008368435 -0.0030548845 0.002053855 0.013690357 0.006648623 -0.008295481 0.0013947149 -0.0010292047 -0.021416834 0.029248144 -0.007984076 -0.01219962 0.006613789 0.027914017 -0.0076049864 0.0033595033 -0.017561683 0.016379794 -0.0045079873 0.0060300236 -0.01970336 -0.007702459 -0.00989647 0.013151934 0.013395409 0.031811338 -0.008901041 -0.012972198 -0.010583562 0.017407866 0.033611912 -0.059449926 -0.001972403 -0.008394056 0.0013098598 0.030962402 0.0327244 -0.021121921 -0.032405972 -0.020142565 0.011284434 -0.04971632 0.019648517 0.02625283 0.001701772 -0.03629296 0.0066524604 0.02060694 0.0032307708 0.021561159 -0.012807596 0.012625534 -0.002578676 -0.0053835767 0.029945271 0.034600034 0.013510901 0.0002171501 -0.012338409 0.00028798977 0.009110592 -0.030095845 -0.0025406242 -0.014682881 0.002492795 0.04193196 -0.0031964611 -0.0121068265 0.004472415 0.008475781 -0.013401355 0.037119865 0.011397362 -0.04706916 -0.019522341 -0.029894779 -0.0076854066 0.030252084 -0.015120928 0.028061273 -0.0059892214 0.016863475 -0.02012788 0.007772305 -0.03366692 -0.01735051 -0.015867533 -0.04575027 -0.007655159 0.018573426 -0.02192696 -0.016276658 -0.0012713852 -0.041318938 -0.027482754 -0.031481743 0.000111658235 0.009601282 0.01909111 0.03620276 0.028249811 0.009417886 -0.007303365 0.020352867 0.041800667 -0.030784251 0.007333093 -0.009961997 0.014114398 0.021553958 -0.006911975 0.014869602 -0.019225622 -0.00444972 0.0016817509 -0.005727444 -0.00033115657 -0.012362165 -0.0023916757 -0.0076182475 -0.014064583 -0.014029079 0.029950516 0.01658087 0.0020024814 0.010621534 -0.013360052 -0.016733764 0.012628345 -0.015139221 0.01058133 -0.009319835 0.010056521 0.016475568 0.012315052 -0.0112321805 -0.019865265 -0.0324092 0.018794574 -0.027975192 -0.013634605 -0.051834866 -0.0029254865
Jd07 -0.0039467565 -0.022544982 0.019520126 0.027178302 0.033705227 -0.00474141 0.022432905 -0.012293401 -0.011375625 0.015624708 -0.007257334 -0.0058314954 -0.004477135 -0.03238121 0.0117996 0.025258135 0.014382301 0.010635586 -0.027528668 0.04092116 0.008588981 0.0037175247 -0.014897435 -0.027534973 -0.03494357 0.011520117 -0.0019771724 0.009128286 -0.008085896 -0.0077663995 0.0058803284 0.0017670293 -0.0050749048 -0.008642191 -0.009381521 0.03484866 0.023763826 -0.023158489 0.014777998 -0.019184245 -0.028137514 0.034766667 -0.0076897317 -0.0098195365 0.0315347 0.0019754982 0.00040512305 -0.0071586547 0.011763268 0.01193567 -0.0019637812 0.009260094 0.0047492133 0.0125982 -0.02811948 -0.02002637 0.023569643 -0.022538189 0.012300469 0.021597391 0.003353752 0.0014872566 -0.014507272 0.010996952 0.013970343 -0.009873415 0.0106436815 0.025637273 -0.020130154 -0.012106621 0.003803708 0.0003522147 -0.021117859 -0.02131388 0.005794307 0.0008815702 -0.016686494 -0.007066053 0.0028824029 0.029143997 -0.003759493 -0.013410352 0.0121929515 0.048344422 -0.00010503091 0.03440918 0.025957799 -0.041320715 -0.0051103896 -0.004935251 -0.003986613 -0.011909102 0.011131347 -0.021859502 0.014529856 0.027288893 -0.03254396 -0.02247356 -0.0041413433 -0.024674298 -0.019978723 -0.0045102974 0.016292647 0.01465288 0.019761413 0.010655527 0.0072734784 0.0059349565 0.01938566 -0.022912443 0.014421418 -0.024558611 0.010195847 0.00609974 -0.0046038693 0.0020364772 0.011278674 0.0016046634 -0.0030900342 0.0016177678 -0.0067688446 -0.01784434 0.025433898 -0.006743972 -0.008668755 0.005977415 0.019623594 -0.006656305 0.0028933305 -0.01477065 0.016258944 -0.010079278 0.0032260623 -0.02221399 0.00010084838 -0.00797967 0.010579189 0.013044925 0.031085001 -0.008427702 -0.009633996 -0.009904619 0.011350438 0.02835859 -0.05512112 -0.004655685 -0.011853134 0.0026955048 0.029255264 0.028582454 -0.019323507 -0.030914776 -0.016702212 0.013399329 -0.04336099 0.01560289 0.023999652 8.657119e-05 -0.03256443 0.004942185 0.018470977 0.01020409 0.016133027 -0.013245949 0.0072230822 -0.0078448765 -0.010939205 0.021405414 0.026025666 0.014725459 -0.0001823525 -0.012477942 0.00041623117 0.006703178 -0.025456073 -0.0010204194 -0.014657796 0.005392472 0.03650141 -0.007802047 -0.010047135 0.0012314388 0.00968212 -0.011151294 0.03510006 0.0073607746 -0.037417967 -0.014013239 -0.028205693 -0.0067851897 0.023712503 -0.01619967 0.022062467 -0.00785023 0.0156292 -0.018672245 0.0009690609 -0.025855457 -0.019787932 -0.007206121 -0.042226736 -0.00015903101 0.013333375 -0.025290107 -0.011862246 -0.00024490771 -0.03988139 -0.023570513 -0.0280006 -0.004168659 0.009618132 0.019552043 0.037249178 0.029590214 0.007165855 -0.006024446 0.017045332 0.037304774 -0.022706421 0.007318663 -0.0043485877 0.015501102 0.018443234 -0.006339336 0.0135344025 -0.018400462 -0.008947383 0.0047055962 -0.007149348 -0.0025369544 -0.012171482 0.00039080041 -0.0040083304 -0.0137721 -0.017685715 0.03173866 0.010971384 -0.0020216864 0.011152699 -0.007887192 -0.015414736 0.014763611 -0.013128068 0.0052277674 -0.0064473767 0.009982462 0.012686649 0.0076374137 -0.0128652 -0.019668449 -0.029883668 0.015310379 -0.021101264 -0.013604995 -0.041246466 -0.0022039844
Ih05 -0.0018183119 -0.017653428 0.016414305 0.023694864 0.031817716 -0.00023799462 0.022174664 -0.0061124368 -0.01576657 0.01536652 -0.0028747197 -0.0037318228 -0.006770346 -0.029206512 0.0071779746 0.021124631 0.018517673 0.010035612 -0.030294936 0.040219657 0.0035076626 0.0066518853 -0.012082611 -0.027627949 -0.03506779 0.009855547 -0.002782458 0.0085391635 -0.010119859 -0.0075025945 0.0051644905 0.0017558489 -0.0007218753 -0.008156583 -0.011011957 0.033113074 0.020325031 -0.024781797 0.009097713 -0.015412874 -0.026331889 0.027293324 -0.007794499 -0.010325379 0.032608695 -0.0016174497 -0.00051203114 -0.0074147065 0.006711677 0.0052228593 0.003086136 0.006303978 0.0041056885 0.0099316975 -0.026603019 -0.014107729 0.02608325 -0.023115685 0.010863875 0.016736144 0.002186747 0.000251899 -0.010009048 0.00924903 0.014991876 -0.008744332 0.008613929 0.02042137 -0.016064081 -0.011086233 0.008043599 0.002955682 -0.01609393 -0.019235546 0.0069766208 -0.0043990226 -0.013943622 -0.0014202422 0.0015209568 0.027820984 -0.008932595 -0.01433421 0.01462581 0.039754733 0.0017606025 0.030950762 0.017652359 -0.036355108 0.0018873231 -0.005747044 -0.0035681878 -0.0072520836 0.004238735 -0.015986716 0.016513893 0.02850989 -0.026671512 -0.022135915 0.002218733 -0.022333592 -0.017181514 -0.010597152 0.0074718324 0.012085129 0.012756684 0.007705271 0.005583244 0.0033841708 0.011740261 -0.022618229 0.010544679 -0.01915804 0.008245139 0.0073291496 -0.00079218665 0.000488233 0.014308034 0.005853784 -0.0005789137 0.0032935583 -0.0033206525 -0.014128813 0.016287232 -0.0042099566 -0.007947955 0.0056836507 0.020704035 -0.002767745 0.004639145 -0.014782427 0.012135768 -0.0045447936 0.0016127959 -0.01777657 -0.004273889 -0.008250992 0.010440935 0.014269851 0.029863564 -0.009917243 -0.009810992 -0.004303566 0.014708346 0.0262031 -0.042761344 -0.007388382 -0.006533242 -0.0031133643 0.022540703 0.026155565 -0.015121314 -0.028089626 -0.01774658 0.013481248 -0.037341632 0.016640449 0.017932855 0.004668025 -0.026759809 0.00036330236 0.014670344 0.008869709 0.015390863 -0.011456713 0.011556828 -0.00045865533 -0.004449813 0.021036686 0.021233695 0.0118453605 0.002047337 -0.012111224 0.0037613888 0.00060283724 -0.028747085 -0.0013405173 -0.012216077 -0.00082537724 0.036528703 -0.007934779 -0.0062523675 0.0048613064 0.0061562876 -0.009072004 0.030022614 0.009647571 -0.0324384 -0.011682737 -0.025315274 0.0009343813 0.020060057 -0.015410685 0.02075707 -0.008430632 0.007440054 -0.019234108 0.0066351537 -0.025478939 -0.013934345 -0.00790411 -0.03415225 -0.0030150295 0.016319659 -0.022144107 -0.009305089 0.0036055022 -0.033505604 -0.023304371 -0.028434003 -0.004982644 0.00793789 0.017852774 0.032356784 0.022331052 0.00890425 -0.005939499 0.008915485 0.02672207 -0.02007604 0.00438393 -0.006374623 0.01125054 0.018459259 -0.005114343 0.015416343 -0.017738648 -0.006624049 -0.00035377863 -0.0067480155 -0.0046195914 -0.0062694843 0.004060907 -0.003839561 -0.01658152 -0.015846642 0.025029521 0.009652675 -0.0011165176 0.009724736 -0.006182458 -0.016240353 0.010949246 -0.006724948 0.0077135484 -0.0010475393 0.009427342 0.009327007 0.006555859 -0.01154847 -0.013669204 -0.030533014 0.013034697 -0.02140662 -0.0111106895 -0.03624513 -0.0043818573
Di09 -0.0069666803 -0.01658642 0.016719257 0.02716477 0.028355693 -0.0018042523 0.018377127 -0.0076114195 -0.015391731 0.012921291 -0.0043546064 -0.0056990962 -0.0024621869 -0.025483493 0.004011086 0.015691945 0.015928946 0.0031843386 -0.024932457 0.037201565 0.008233343 0.0027304036 -0.011896881 -0.029919568 -0.028411096 0.01295934 -0.0041938904 0.010623356 -0.0070285276 -0.010596817 0.003312794 -0.0021364999 -0.0023849676 -0.011587971 -0.005071011 0.026638687 0.016720956 -0.02507765 0.0060631717 -0.015497561 -0.028743597 0.025511712 -0.0040448285 -0.011180175 0.03188779 0.0018001737 -0.0047871484 -0.005835964 0.0054498096 0.01124356 0.0026513129 0.013388507 0.0016089941 0.011816931 -0.026255712 -0.015075559 0.020120835 -0.025776653 0.008972492 0.018442243 0.0023682928 -0.0021343373 -0.008187075 0.005569747 0.00849867 -0.012528534 0.010547621 0.026374146 -0.020967828 -0.008741901 0.007992816 0.00073042786 -0.019736135 -0.016294543 0.004388582 -0.001210199 -0.014254462 -0.007759495 0.007997962 0.021758057 -0.009226715 -0.010879109 0.014649533 0.038284503 0.0031118682 0.028582878 0.020887755 -0.03298833 -0.002689774 -0.009039664 -0.0040534833 -0.005281971 0.0070776897 -0.018363414 0.017750299 0.028442457 -0.025791053 -0.02312381 -0.003604941 -0.021028709 -0.022812538 -0.005336464 0.012948819 0.010054576 0.018619636 0.005890636 0.00807557 0.0016756539 0.016742062 -0.021253807 0.015312499 -0.015943658 0.005335313 0.0052444455 -0.008210091 0.0035351333 0.012602515 0.005892939 -0.005612923 -0.0007390125 -0.0002723536 -0.016498078 0.021891976 -0.0045601083 -0.008488423 0.0032865307 0.018309245 -0.006645514 0.0028398507 -0.01099716 0.0085522905 -0.006179907 0.004420546 -0.013043885 -0.0026391076 -0.0038333475 0.010492564 0.012182965 0.025573619 -0.0035983315 -0.004569053 -0.009428441 0.014162669 0.026930155 -0.040096916 -0.0075625884 -0.010304212 -0.00032385078 0.0266318 0.02180618 -0.016159888 -0.021486498 -0.013813689 0.0111785745 -0.038222186 0.01260019 0.015632384 0.004595979 -0.026823053 0.0030568603 0.01215075 0.004904003 0.017479895 -0.0066952454 0.010762654 -0.0044026263 -0.003145769 0.020831523 0.024936656 0.015630974 -0.003026729 -0.0067740004 0.0034338592 0.005774765 -0.023651777 0.0024049603 -0.015208034 -0.0009392825 0.03319389 -0.0038825131 -0.010282843 0.0045104153 0.008491505 -0.015716495 0.028492566 0.012318183 -0.037717238 -0.012412442 -0.029705614 -0.0062865866 0.023499759 -0.014432547 0.021506473 -0.010937309 0.0067627244 -0.021135569 0.0030800195 -0.022474676 -0.019001208 -0.012828945 -0.0345952 -0.0039703413 0.0113826515 -0.021254767 -0.009286677 0.0013159895 -0.028886918 -0.018472312 -0.02460688 -0.00038326567 0.010007079 0.01668744 0.029776655 0.023418665 0.0047159847 -0.004557521 0.014911948 0.03035437 -0.017738538 0.00584367 -0.0040148264 0.009700977 0.012307275 -0.002830502 0.01299214 -0.015493346 -0.008059233 0.0030140385 -0.0060332743 -0.00040313337 -0.009525893 0.0022679921 -0.0027894329 -0.016820619 -0.017078273 0.027449144 0.009548353 -0.0028679834 0.005202986 -0.008267497 -0.011092819 0.009084426 -0.009432969 0.0037296154 -0.0077611096 0.010588739 0.0114646545 0.0035990286 -0.007678242 -0.021295004 -0.02770531 0.015081433 -0.019522328 -0.008881093 -0.035098575 -0.0013499617
f -0.005782866 -0.02228063 0.025575787 0.04037544 0.044394128 -0.00066485733 0.03434734 -0.014670938 -0.020487528 0.020461801 -0.004023222 -0.005816623 -0.007845468 -0.03889286 0.015331407 0.02998569 0.024486504 0.012081006 -0.035791185 0.05108944 0.007508193 0.005919823 -0.023574175 -0.042522877 -0.046512168 0.015978111 -0.0014219956 0.011763971 -0.011440593 -0.016126258 0.00493756 -0.0037547215 -0.00332974 -0.011444077 -0.011230928 0.047586497 0.02619991 -0.03466006 0.0133866025 -0.023538776 -0.04049283 0.03644198 -0.009586302 -0.015790092 0.046665717 -0.0050374516 -0.0033098618 -0.0111546805 0.011687179 0.014192305 -0.0012354017 0.016472787 0.010385033 0.012244487 -0.032563202 -0.018865032 0.032752957 -0.030132594 0.008382998 0.022459159 0.00297285 0.0053076497 -0.017773777 0.008771956 0.017541777 -0.018167367 0.02032509 0.03101381 -0.030207334 -0.013577227 0.0049747 0.0076946374 -0.029555552 -0.02020699 0.004182528 -0.0032478212 -0.022194581 -0.008382148 0.01055446 0.040207166 -0.008427669 -0.01420354 0.021345213 0.058042612 0.005284884 0.036773697 0.033477787 -0.056173977 -0.0031360756 -0.008497012 0.0011651882 -0.016087873 0.009781008 -0.020937394 0.018733257 0.040635988 -0.04508106 -0.025949344 -0.0049368474 -0.02697358 -0.025717437 -0.014297235 0.015472373 0.014985937 0.02631988 0.01675248 0.0057368996 0.0052583436 0.022527713 -0.032360956 0.020417288 -0.031818442 0.009688003 0.007596468 -0.004999513 0.0063087256 0.014929662 0.0031247367 -0.009477507 0.0065322733 -0.0034636345 -0.018001756 0.030912107 -0.012859484 -0.008495629 0.0074069095 0.032662738 -0.0028841805 0.004049856 -0.018924141 0.019805564 -0.010954233 0.009421986 -0.019804236 -0.006025541 -0.0061653648 0.009512789 0.02252752 0.042761803 -0.009505277 -0.01412089 -0.005078464 0.0207199 0.03408626 -0.0632208 -0.0036228674 -0.014587782 0.0013174898 0.035845067 0.03224382 -0.02141386 -0.036739655 -0.024447003 0.013514384 -0.051077336 0.024678916 0.028159905 0.007079148 -0.04128983 0.007664591 0.020681273 0.00581475 0.025644176 -0.010761259 0.010834263 -0.007196633 -0.0070512677 0.03152153 0.038684335 0.016574115 -0.0007985457 -0.013867105 -0.00025132098 0.007456018 -0.039518207 0.0028461826 -0.022293549 0.006410415 0.047713075 -0.0023013637 -0.0112958 0.007188089 0.0059519876 -0.022624698 0.040400807 0.012700296 -0.046119384 -0.018664122 -0.04071953 -0.0016696915 0.030259954 -0.020798238 0.034964383 -0.011976042 0.0110046165 -0.023182489 0.0076011084 -0.030697385 -0.0229712 -0.010796005 -0.04691497 -0.0076469122 0.023994466 -0.030186933 -0.01989361 0.00334939 -0.04821854 -0.025961347 -0.038582657 0.0017978143 0.0070919837 0.024990354 0.046612274 0.035470735 0.011588808 -0.012170846 0.015045039 0.046045724 -0.028451463 0.009940243 -0.004894004 0.021514572 0.019897483 -0.004432492 0.013646294 -0.028036783 -0.006411814 -0.0012738273 -0.012096532 -0.00609268 -0.016372887 -0.0027572815 -0.004387736 -0.016516985 -0.019542137 0.03525306 0.017237201 0.0020080335 0.006232133 -0.015669758 -0.020711936 0.017865628 -0.011665942 0.013588725 -0.0042246403 0.0149436565 0.020473268 0.013374463 -0.008491389 -0.022124054 -0.043286074 0.021121636 -0.032385543 -0.020568317 -0.05870936 -0.00010138192
等 -0.0063490956 -0.024080334 0.02151661 0.035091277 0.03872536 0.0014657325 0.0257964 -0.0150497 -0.014241344 0.013270085 -0.006624406 -0.0017656683 -0.007827508 -0.034393664 0.011456167 0.02765024 0.022380117 0.0084117465 -0.03037633 0.047309026 0.011368856 0.006223306 -0.018228259 -0.031157445 -0.044380017 0.019263187 -0.0038011612 0.013691324 -0.008432327 -0.01230289 0.0030100727 -0.0013334361 -0.0041731643 -0.014031719 -0.008438303 0.042202264 0.025445947 -0.030367099 0.009748262 -0.020805327 -0.03107546 0.031157855 -0.0044895136 -0.012012576 0.037778184 0.0017428099 0.001981852 -0.010144007 0.012789495 0.0071065933 -0.004102715 0.011657469 0.010300252 0.014963254 -0.027203614 -0.021161573 0.030474773 -0.028284421 0.00902315 0.019691901 0.0075088376 -0.0023874473 -0.0103545785 0.010977797 0.014550611 -0.015622195 0.011219874 0.026701862 -0.025555281 -0.013787591 0.0056644846 0.0028558497 -0.02766585 -0.02088774 0.003551153 -0.004493027 -0.015845548 -0.0010930756 0.0087882625 0.033371333 -0.009579885 -0.0152644 0.017971115 0.049991887 0.0073279426 0.03479296 0.028603956 -0.043577224 -0.00053853757 -0.005171227 -0.0028358686 -0.012522852 0.010750506 -0.016815871 0.020653866 0.030396448 -0.034530405 -0.024681285 -0.0021376342 -0.02205559 -0.023774728 -0.0076223146 0.013127967 0.01227374 0.01900468 0.012328331 0.005313498 0.006880721 0.023092542 -0.029015195 0.0149856005 -0.026181653 0.0074000456 0.008247349 -0.006679124 0.0018278103 0.015283854 0.008354024 -0.0066457684 0.0006023487 -0.0024738533 -0.021285003 0.028475413 -0.00883522 -0.012124324 6.201386e-05 0.02129123 -0.0041745463 0.007235375 -0.012625653 0.014839234 -0.0064225127 0.0083136745 -0.020986097 -0.0076451106 -0.008271105 0.012551908 0.015938817 0.03457302 -0.010195534 -0.0065085227 -0.008948569 0.018760696 0.0287164 -0.06045817 -0.008073311 -0.0136727365 1.2766377e-06 0.03442138 0.029461617 -0.01431767 -0.030350782 -0.018636078 0.014131513 -0.046461806 0.020792877 0.02349667 0.0069640065 -0.037655737 0.0014528825 0.019670665 0.00602129 0.018168632 -0.01185715 0.008916492 -0.0069794715 -0.0057983883 0.025244063 0.030180054 0.016112423 -0.0008606064 -0.015545386 -0.00090942654 0.0049724467 -0.028465135 -0.0022603031 -0.020170005 0.0020584562 0.042978484 -0.0076940716 -0.01179763 0.0015046208 0.009763064 -0.020019071 0.03380701 0.011799626 -0.042608794 -0.021775845 -0.029649824 -0.0048074992 0.026391413 -0.018420544 0.025241096 -0.008479887 0.014730308 -0.022256877 0.006636497 -0.032608174 -0.020824289 -0.013261568 -0.043100607 -0.0025335455 0.018266462 -0.028023116 -0.012243663 0.0022934703 -0.042848438 -0.02416956 -0.03268926 0.0018520226 0.009608755 0.021161964 0.036925543 0.025347045 0.014392187 -0.0095830895 0.01925615 0.03989673 -0.030754454 0.0097344695 -0.004935481 0.01529314 0.024073686 -0.006681602 0.011554352 -0.021072533 -0.0072983108 -0.0016132913 -0.008201589 -0.0011936158 -0.014047102 -0.0015810087 -0.009905263 -0.016373524 -0.018701833 0.0346626 0.013201435 0.0019189949 0.006898935 -0.007980658 -0.01840689 0.009282671 -0.014254598 0.008671066 -0.0024482058 0.014059775 0.013217088 0.0059849396 -0.014226504 -0.020909036 -0.03817184 0.018591769 -0.024960268 -0.015947277 -0.052362848 0.0010626792
Di18 -0.0053248107 -0.020731337 0.012073053 0.028606532 0.029833527 -0.0049524186 0.02120973 -0.0073512937 -0.01618713 0.008912655 -0.0032972915 -0.006634739 -0.004970539 -0.024439039 0.011435758 0.019861765 0.01634009 0.008272487 -0.028396972 0.039216444 0.0069525316 0.0048108012 -0.019109264 -0.026617873 -0.02910849 0.013705884 -0.0070647043 0.0076470897 -0.008585336 -0.0065792883 0.0020610504 0.0021258714 -0.004748422 -0.012387031 -0.009935289 0.0322205 0.015013714 -0.023950512 0.0071774814 -0.017096266 -0.027335241 0.028384367 -0.00272824 -0.011026726 0.028396757 -0.00061201554 0.0012725694 -0.010054743 0.0063673174 0.010657526 0.0022195831 0.0070081414 0.008375597 0.0064710607 -0.026168386 -0.016971191 0.023440685 -0.022437437 0.008580194 0.019383945 0.006040569 -0.00036247348 -0.0122943 0.003621746 0.012133071 -0.0072294953 0.008398583 0.024458278 -0.016589139 -0.013585556 0.0027944127 0.0004771415 -0.021187305 -0.018273348 0.0054442817 -0.0043175267 -0.0144027695 -0.0024857037 0.0054824306 0.022922162 -0.0076905857 -0.00990652 0.014584229 0.038126618 0.0024726465 0.028780827 0.02086925 -0.037053086 0.00065043103 -0.009455321 0.0017163142 -0.012577191 0.005366205 -0.013396561 0.013834111 0.027758926 -0.02735378 -0.02328602 -0.0020524638 -0.022122292 -0.02350873 -0.0077749686 0.013364133 0.016106347 0.013622583 0.0076715164 0.0034692427 0.003978835 0.017070875 -0.023974348 0.014674547 -0.022581214 0.006251041 0.009439139 -0.006993788 0.0020275642 0.010177491 -0.00011691387 -0.00479941 0.004964724 -0.0067169107 -0.017103737 0.02016183 -0.004850676 -0.0062791742 0.0067164972 0.016845496 -0.0001538948 0.0033166395 -0.013486897 0.008315035 -0.0047328398 0.00450013 -0.012902428 -0.0032340046 -0.005082545 0.011134707 0.0097685335 0.027031258 -0.00933665 -0.0109593 -0.0045292457 0.013032753 0.02295006 -0.04534324 -0.007018221 -0.011016614 -9.035308e-05 0.028851518 0.025402293 -0.015557165 -0.02250193 -0.017512597 0.009515342 -0.037491187 0.011823059 0.019561779 -0.00013767602 -0.029832607 0.0020385624 0.019191025 0.006157094 0.016968092 -0.0057934923 0.0063613732 -0.004968609 -0.0039654067 0.02268694 0.02672297 0.016849218 0.0032291862 -0.010405692 0.00049623597 0.006877988 -0.021631235 0.0046862443 -0.017831674 0.00013579351 0.03481105 -0.003697062 -0.0073608477 0.006721982 0.008669523 -0.015914584 0.026660072 0.006002308 -0.031651583 -0.013060978 -0.027389465 -0.0023724623 0.023742203 -0.0085677765 0.024809977 -0.0064680083 0.010780772 -0.015062773 0.0037539129 -0.023090478 -0.019737469 -0.008526716 -0.03703178 -0.000728184 0.011533202 -0.020246686 -0.010653243 -0.00081196637 -0.035384964 -0.018648574 -0.026934166 -0.0048406073 0.008218004 0.015672058 0.032207705 0.020252753 0.00881743 -0.007169692 0.015272966 0.026434384 -0.019220926 0.004355939 -0.0080053285 0.013082854 0.014961383 -0.0051418855 0.008951814 -0.016148595 -0.008217248 0.0015479618 -0.005577395 -0.0021261272 -0.009610116 0.0029811722 -0.009387578 -0.017331233 -0.0116017675 0.028262358 0.0066404026 -0.0024433832 0.0063265613 -0.012514479 -0.013734884 0.013670893 -0.011508168 0.0037978608 -0.00082468096 0.009779502 0.01032403 0.0056015104 -0.011770875 -0.01970049 -0.028757397 0.013460004 -0.019795323 -0.009071935 -0.035203192 -0.0014333728
Dj05 -0.00943617 -0.017399581 0.013806438 0.030983912 0.032875676 -0.0020069806 0.026007535 -0.011700896 -0.015365582 0.012625495 0.00033372414 -0.0005167499 -0.0051589007 -0.025860088 0.007135762 0.02516895 0.014315722 0.0057793306 -0.031236162 0.04278097 0.0061029843 0.0043544364 -0.013158709 -0.03297676 -0.035675775 0.01561293 -0.006602042 0.013703944 -0.00652802 -0.011909851 0.0066644577 0.0034852244 -0.0019877376 -0.007898771 -0.010342301 0.03178112 0.0241421 -0.021244144 0.011636094 -0.01857811 -0.026099684 0.031447224 -0.002579539 -0.011489565 0.036704227 -0.0041119982 -0.0044396208 -0.009559182 0.010629913 0.008782806 0.0021659168 0.007802648 0.001806826 0.014671698 -0.022632964 -0.017258354 0.023186514 -0.025854815 0.0077264765 0.021887472 0.004565688 0.00050127483 -0.012158214 0.0073993355 0.0092803445 -0.009239697 0.008873682 0.023997856 -0.022933768 -0.0090388935 0.00863313 0.002538196 -0.018805718 -0.017780704 0.007361198 -0.0028257924 -0.012626926 -0.005832044 0.0100013325 0.03229516 -0.0038020846 -0.012547906 0.013557199 0.038664132 0.006793473 0.026587693 0.019369459 -0.037538435 -0.0020987852 -0.0035431506 -0.004406418 -0.005461643 0.007871141 -0.02086719 0.018274264 0.025335798 -0.029557502 -0.019564627 -0.0054394025 -0.019673018 -0.020074857 -0.005278915 0.008686581 0.010989216 0.013753497 0.011600665 0.0046842773 0.005531697 0.019116715 -0.018359533 0.015556634 -0.021322105 0.0068974164 0.009422891 -0.008734079 -0.00011588623 0.011735759 0.005854021 -0.004302492 -0.00048318974 -0.0037039183 -0.012868911 0.0247132 -0.0076125334 -0.009412438 0.0012072695 0.02089476 -0.006824599 0.002066938 -0.01224042 0.013845503 -0.0040914617 0.0075103194 -0.013687204 -0.006306413 -0.0028595359 0.008877695 0.014887556 0.028656753 -0.009759859 -0.008472444 -0.009611585 0.01670367 0.027299121 -0.049020298 -0.004171434 -0.006483849 -0.0030248913 0.02941819 0.02511658 -0.0143059045 -0.027298424 -0.022206038 0.014607219 -0.039412603 0.012938478 0.020024458 0.0005112452 -0.026114158 0.0017752141 0.016661588 0.0056031714 0.014232538 -0.011425044 0.013065656 -0.0024900222 -0.0111114215 0.022267474 0.023132626 0.013285945 0.001550228 -0.008836686 -0.0021960025 0.005295208 -0.02470139 -0.0023557006 -0.017311424 0.001518565 0.031688474 -0.0036524294 -0.005547327 0.0049730353 0.007935932 -0.014535442 0.029851116 0.0075406837 -0.03784661 -0.012655465 -0.02763137 -0.0033158255 0.025755685 -0.011372345 0.021055331 -0.005233741 0.014847669 -0.023781052 0.0060439426 -0.0284506 -0.017324962 -0.008131188 -0.03865605 -0.006823477 0.011744668 -0.025258081 -0.014554923 0.0039601983 -0.033259667 -0.025821975 -0.022690868 0.0015213657 0.009948182 0.021389797 0.02865537 0.024204839 0.009861539 -0.0064010224 0.015986765 0.030095723 -0.021589039 0.012450307 -0.0089890715 0.016867032 0.018700618 -0.0054264395 0.0114849545 -0.02305765 -0.007900463 0.0035336278 -0.008833084 0.001541562 -0.0132991 -0.0027554894 -0.003493052 -0.011503621 -0.012745896 0.029704006 0.013316903 -0.0014391224 0.010596617 -0.011742341 -0.01689193 0.008512017 -0.0072126836 0.00522259 -0.003920849 0.010341534 0.0124851195 0.0048282114 -0.011438289 -0.020769354 -0.029030291 0.015233568 -0.023167796 -0.012896371 -0.043782156 0.0035089762
Dn04 -0.005339077 -0.01983268 0.013791504 0.02799447 0.028113186 -0.003486097 0.017999172 -0.011939184 -0.013726544 0.01459163 -0.0060932045 -0.0021232243 -0.004977773 -0.023323929 0.00457745 0.02272662 0.014499897 0.0087211 -0.030501612 0.03809691 0.0036256479 0.0036632523 -0.015082551 -0.027876263 -0.03147282 0.012842952 -0.001477588 0.008291573 -0.007946528 -0.011453934 0.007626067 0.0018823158 0.0015776913 -0.0072959615 -0.008999107 0.033446405 0.015398314 -0.020208148 0.008496353 -0.0152663905 -0.023776876 0.025961077 -0.0074943127 -0.011032538 0.030344047 0.0013462898 -0.003511576 -0.006109316 0.006724167 0.0054735127 -0.0027454721 0.010981737 0.008756494 0.014014274 -0.019302154 -0.011443709 0.02141547 -0.023352105 0.0107787745 0.018962028 0.0066161016 0.0039665173 -0.008831442 0.008032268 0.008560898 -0.007884602 0.015035706 0.019987257 -0.017701034 -0.0080664465 0.0074885194 0.005361481 -0.015527212 -0.01564783 0.006649239 0.0011874818 -0.014042353 -0.003726382 0.009151862 0.02796828 -0.008480302 -0.012807098 0.012039814 0.039389502 0.0034470882 0.023857098 0.020851482 -0.03189788 -0.00012168875 -0.0046734083 -0.00016503313 -0.0047347667 0.009665593 -0.014414854 0.014186195 0.026321938 -0.03246973 -0.016816197 -0.0032919745 -0.01625514 -0.023983624 -0.008328047 0.013984976 0.010777046 0.014811861 0.010773005 0.009622434 0.00312963 0.012689074 -0.01536115 0.009579483 -0.018121818 0.008209579 0.004335074 -0.0073602865 -0.001576112 0.011043433 0.0055120303 -0.0071563968 0.0017447778 0.00034383754 -0.015958788 0.021313783 -0.0066265897 -0.008266691 0.00062785123 0.022954023 -0.004582639 0.008476392 -0.011745449 0.013031941 -0.0032960922 0.0058449195 -0.013887415 -0.005554121 -0.0026328315 0.008172804 0.011415019 0.02985953 -0.0033940154 -0.009378462 -0.005352379 0.013619693 0.022178248 -0.04337247 -0.0009596639 -0.00594397 -0.00326842 0.024270626 0.026112594 -0.0141016655 -0.027598962 -0.016814975 0.008259728 -0.035014104 0.014812782 0.016166555 0.0010301135 -0.022922857 0.005696338 0.016780261 0.006038644 0.017827645 -0.010941106 0.01119326 -0.003366935 -0.010256719 0.016316624 0.02370986 0.016587574 0.00058586826 -0.012984717 0.0005247593 0.002898724 -0.026631992 0.0039578895 -0.011864333 0.0025826623 0.033340186 -0.0038501231 -0.011236607 0.0045521334 0.008946092 -0.0111373775 0.028447686 0.007659036 -0.033088163 -0.017320232 -0.024317378 -0.001894049 0.020185448 -0.01187471 0.02320349 -0.006678494 0.01061454 -0.014653775 0.004948186 -0.022304222 -0.016709546 -0.011479074 -0.03696846 -0.004903904 0.015318465 -0.016304716 -0.010452424 -0.0018636861 -0.030008957 -0.021457631 -0.024267556 0.0025310842 0.009478669 0.015537424 0.026627388 0.024165358 0.012100518 -0.003355131 0.011688538 0.032994132 -0.017544972 0.003583603 -0.0011684721 0.01269935 0.013456837 -0.0021340284 0.014846364 -0.020671716 -0.0015342266 -0.0014534034 -0.010187417 -4.8094193e-05 -0.011131871 0.0023144206 -0.0022510525 -0.00985904 -0.010757495 0.020484693 0.01129237 -0.0025965958 0.006193601 -0.004376083 -0.01619336 0.011661901 -0.010933323 0.0030740337 -0.0014557983 0.011363723 0.014964139 0.0077610924 -0.00781487 -0.015943801 -0.030073978 0.015994139 -0.021605672 -0.010053824 -0.039724227 -0.0001184944
Ah08 -0.003760665 -0.018929293 0.012366648 0.023707677 0.02602899 0.0023697608 0.020707237 -0.010623145 -0.016835926 0.010271033 -0.0050964463 -0.0015549365 -0.0030494332 -0.024546936 0.011870191 0.021347 0.02025282 0.009926419 -0.027087035 0.038922984 0.0040365723 0.004137656 -0.013046099 -0.031297605 -0.031928424 0.010549317 0.00022465814 0.009447363 -0.0064098635 -0.011490404 0.007254151 -0.002595851 -0.005116981 -0.007200971 -0.009028095 0.031456437 0.021290824 -0.02062451 0.01274204 -0.013582714 -0.024599029 0.025245845 -0.0039603715 -0.007220421 0.030064994 -0.00092976686 -0.0026466416 -0.00954985 0.012189601 0.009032309 0.0010151281 0.008713494 0.0077966135 0.010114502 -0.026000908 -0.014062646 0.027623476 -0.025935946 0.0089989565 0.01695141 0.001432516 -0.00042842925 -0.013376849 0.00963817 0.011324552 -0.013578699 0.012328248 0.025980761 -0.015486757 -0.016076084 0.0063420227 0.0021649164 -0.020367678 -0.016150944 0.006399771 -0.0018682291 -0.010206671 -0.0039070034 0.005263859 0.03011479 -0.0033683586 -0.011853763 0.013842811 0.043008335 0.001394565 0.030538123 0.021092005 -0.040108234 0.0015421052 -0.008162275 -0.00018303117 -0.011205992 0.007695174 -0.014319672 0.018181343 0.022922937 -0.033411883 -0.018231545 -0.0008248739 -0.02085907 -0.023884846 -0.00814597 0.0072961706 0.013702728 0.014465537 0.009434184 0.008068615 0.004358073 0.013446463 -0.020063477 0.011260075 -0.021297507 0.007059468 0.011097561 -0.007942113 0.0030643912 0.0150070265 0.0076079303 -0.0015791178 0.0001979312 -0.0017202158 -0.011482696 0.023008648 -0.0075908294 -0.007855385 0.003992408 0.022321159 -0.0004224388 0.003974346 -0.014838535 0.015186751 -0.008224971 0.0057408824 -0.01599782 -0.0038143906 -0.0077841165 0.00970837 0.009787322 0.029808873 -0.009406607 -0.010002325 -0.0047125765 0.013061097 0.025906114 -0.045966648 -0.00827106 -0.0052019795 -0.0022898912 0.026087008 0.026534125 -0.014605207 -0.023948705 -0.016626624 0.012491692 -0.034614045 0.019047411 0.018857561 0.0014372965 -0.025657456 0.0008562544 0.020253789 0.006620999 0.017627537 -0.008413645 0.009067605 -0.0025089288 -0.009730075 0.024754008 0.02782115 0.015585247 -0.00252607 -0.013447066 0.003521318 0.0058640647 -0.027843798 -0.002644815 -0.01677776 0.0031138656 0.0304781 -0.0041349144 -0.0066003692 -0.00023818995 0.00642031 -0.015775025 0.027636057 0.008788476 -0.040018108 -0.016549097 -0.03021945 -0.0061784484 0.022216752 -0.011372387 0.026882371 -0.00424536 0.008232643 -0.022906756 0.00660908 -0.02204484 -0.013531692 -0.010640295 -0.037089493 -0.0054871775 0.010679486 -0.017898824 -0.012809958 0.0035834524 -0.035287224 -0.017527835 -0.02700452 0.0025270176 0.0045031956 0.013545864 0.033764914 0.02013877 0.0050987946 -0.0053075375 0.00927623 0.033868037 -0.021216359 0.004938985 -0.0034878228 0.013798281 0.019746093 -0.0027271523 0.009935076 -0.019815676 -0.0018232043 -0.0015097349 -0.00386909 -0.0034382858 -0.011620866 -0.0013311853 -0.0041935965 -0.018039037 -0.012447634 0.023628734 0.014221226 -0.0011664012 0.0033054133 -0.007355852 -0.011525558 0.011648258 -0.010006638 0.00791466 -0.008300039 0.009009585 0.010947316 0.0078073423 -0.011457904 -0.021640562 -0.030616859 0.016132686 -0.019875415 -0.009168229 -0.03882813 0.0017388741
元 -0.0037154036 -0.01697757 0.014066178 0.027986469 0.03167674 0.0005621357 0.020960262 -0.010914114 -0.012295055 0.010661017 -0.0068257954 -0.0006266853 -0.0058037755 -0.027255105 0.0060613872 0.025437595 0.01762612 0.007904298 -0.029686334 0.04024094 0.009876901 0.0015421535 -0.015161201 -0.03155526 -0.0307933 0.016022412 -0.00624413 0.009747967 -0.009134684 -0.006615384 0.008505766 0.001105804 0.0016245514 -0.012475812 -0.0070087533 0.03141207 0.016637146 -0.025153948 0.010382302 -0.01946886 -0.02991569 0.030437076 -0.0062797833 -0.014845261 0.03622584 -0.0007785112 -0.005077641 -0.009283818 0.0061143017 0.012746892 -0.0007189382 0.01441734 0.007824262 0.010385153 -0.02897754 -0.0182209 0.028552337 -0.025286322 0.007841235 0.018326782 0.0011434301 0.0029185032 -0.013988534 0.011764829 0.009589235 -0.008818616 0.011592769 0.0245305 -0.021117087 -0.01219917 0.0077229687 0.0033662585 -0.02057864 -0.0134333465 0.0007651144 -0.004422974 -0.017591983 -0.0015602738 0.0052614575 0.02677412 -0.0043912213 -0.015704399 0.015825436 0.046343382 0.006135526 0.028978057 0.022893803 -0.037446022 0.0030547306 -0.00826871 -0.00073712354 -0.01061634 0.0058288965 -0.017068535 0.017729169 0.025406988 -0.030775154 -0.024009373 -0.003968016 -0.026108194 -0.019412639 -0.0062828013 0.010764034 0.017232748 0.017933458 0.005331847 0.0033987274 0.0018661335 0.014213495 -0.018402709 0.01681755 -0.019824026 0.006453142 0.0053786715 -0.0030285902 -0.00012227338 0.01143645 0.0016874239 -0.0050528357 -0.0005064601 -0.0020443085 -0.018688044 0.024944441 -0.0119006075 -0.010146729 0.0026058906 0.0183308 -0.0018843793 0.003944002 -0.011713142 0.016539905 -0.004776098 0.0061572143 -0.01426297 -0.0035833349 -0.00428908 0.012331325 0.011130711 0.031408686 -0.01192062 -0.0085593285 -0.0029468506 0.012304151 0.023847232 -0.047335993 -0.0019653954 -0.007124774 -0.0034725945 0.031043984 0.028122941 -0.017531238 -0.026956055 -0.018346239 0.008410341 -0.040045016 0.020104712 0.018797616 -0.00031776034 -0.03082979 0.00047693643 0.018300822 0.008335175 0.016294489 -0.011237998 0.013833961 -0.0068860077 -0.009889573 0.01818838 0.030884765 0.01397774 -0.0025492785 -0.013812468 0.0033122017 0.0036663092 -0.029881585 0.0021967448 -0.018529521 0.006297777 0.03845645 -0.0064036306 -0.009483165 0.0044325106 0.002904174 -0.012425755 0.032156445 0.012313625 -0.04154833 -0.015676796 -0.03139391 -0.0009081659 0.026962606 -0.013416238 0.021179698 -0.0063324785 0.011038373 -0.01921788 0.0010184796 -0.025590518 -0.01813825 -0.0071057226 -0.04014571 -0.005474867 0.014333524 -0.022496985 -0.009491394 -0.0001599803 -0.03565793 -0.02579211 -0.030228432 -0.00024909445 0.006502551 0.013564774 0.035087578 0.027945662 0.011738378 -0.008743476 0.013698092 0.0366729 -0.026454475 0.0051168106 -0.008489653 0.015720611 0.013438212 -0.0033274963 0.015807835 -0.01919817 -0.008651062 0.0043802136 -0.0055697435 -0.0057000304 -0.007986565 0.0038373014 -0.0031916124 -0.016883489 -0.011764149 0.024716005 0.007661395 0.0023313777 0.0046785325 -0.009900286 -0.017946113 0.007940643 -0.010458913 0.0073007406 -0.004465156 0.014359133 0.014807272 0.0034031041 -0.013078079 -0.020405583 -0.030444168 0.012157904 -0.018331828 -0.011478075 -0.044824935 0.0019961947
Cb25 -0.007446201 -0.024843318 0.01970293 0.035406925 0.035960272 -0.003537973 0.027274346 -0.010623845 -0.014621675 0.012350678 -0.0071764747 -0.0037231536 -0.005422601 -0.031698804 0.011662637 0.025709724 0.019871045 0.009744729 -0.03513583 0.049779147 0.009281407 0.010063225 -0.021370387 -0.033602297 -0.040418524 0.014733276 -0.0012817325 0.013897314 -0.0061394908 -0.01213237 0.009804526 0.0015773178 -0.0038322567 -0.010926049 -0.006639928 0.04302852 0.024833655 -0.02750327 0.012142921 -0.022159377 -0.036979515 0.03553389 -0.008074829 -0.012803413 0.039955683 -0.0011938035 0.000779379 -0.012915724 0.014022597 0.014185269 0.001986344 0.01386225 0.0065185353 0.01429896 -0.033602685 -0.021410147 0.030489707 -0.02942496 0.011302226 0.019792713 0.0073412093 3.3007847e-05 -0.010080275 0.0080119595 0.014278203 -0.013694643 0.014460963 0.029291691 -0.025456842 -0.012341609 0.0038575071 0.005371873 -0.026249595 -0.016367871 0.005652794 -0.0008555614 -0.018478237 -0.0059677893 0.004907929 0.032935213 -0.00496982 -0.018705554 0.01876817 0.05237015 0.0065719225 0.03497172 0.02876508 -0.051172078 -0.0015769507 -0.005000157 0.00076280755 -0.013294628 0.007016109 -0.024279114 0.019881874 0.03475269 -0.041578237 -0.024530644 -0.0039048493 -0.024407819 -0.024161028 -0.008540276 0.013204066 0.012444014 0.018333841 0.011903088 0.0034377696 0.008287232 0.022397133 -0.026649155 0.0213235 -0.026686596 0.008289681 0.010016958 -0.0036433344 0.00382447 0.013070511 0.0025935394 -0.008117629 0.0063511473 -0.0022470292 -0.01647832 0.029214788 -0.014388615 -0.0048779408 0.00041312366 0.026196217 -0.0052609933 0.009615903 -0.01765165 0.016537875 -0.0095081 0.0072843726 -0.017741662 -0.007828656 -0.003973646 0.008025139 0.020406252 0.032862782 -0.012358369 -0.01305347 -0.005439078 0.01446133 0.031716492 -0.06204559 -0.0015770167 -0.011330605 -0.0023047696 0.032349482 0.032810133 -0.01746329 -0.03524921 -0.020462032 0.012623175 -0.046320233 0.022037864 0.022958975 0.00423105 -0.032936588 0.0027312525 0.022471227 0.0086272145 0.015592153 -0.013515778 0.01478519 -0.0038192512 -0.0051386445 0.02663876 0.03566023 0.013955166 0.0018184163 -0.01557244 0.0007842823 0.009254945 -0.03383074 0.0038697515 -0.022967199 0.0023659817 0.044655968 -0.0075233313 -0.0067785596 0.0016159137 0.007548624 -0.013483458 0.03945839 0.01239375 -0.041015014 -0.022275444 -0.03584115 -0.00316752 0.025964215 -0.013142863 0.032265283 -0.01154048 0.012403232 -0.020176992 0.0016489417 -0.03389926 -0.020879246 -0.015335339 -0.043844867 -0.0035094605 0.015081389 -0.02600938 -0.016304296 -0.0011634609 -0.040151354 -0.024789006 -0.032601625 0.0015803766 0.008820795 0.023645792 0.03988534 0.032158777 0.014991254 -0.010719268 0.017039567 0.03813332 -0.026555896 0.008094358 -0.0073831454 0.019709632 0.020054255 -0.002970343 0.014567665 -0.02271018 -0.0058977203 -0.0020968197 -0.0058625517 -1.293849e-05 -0.015995922 -0.0029805698 -0.0068210284 -0.017614868 -0.018432422 0.03596797 0.009379829 0.00010010581 0.011712116 -0.011642331 -0.02127178 0.016776271 -0.008884542 0.0068853176 -0.009189489 0.012946219 0.018432843 0.007984985 -0.008937432 -0.024043113 -0.033577234 0.017173465 -0.023610493 -0.012235828 -0.05291588 0.0012475834
