611 256
v -0.033337317 -0.11800788 0.056772143 0.13614741 0.15529634 -0.01880267 0.15206337 -0.006731298 -0.08479708 0.08217268 -0.013495692 -0.01022546 -0.055624977 -0.06770407 0.04079466 0.12433186 0.09111285 0.03254686 -0.19553746 0.19722515 0.0680424 0.05212408 -0.034966517 -0.17784126 -0.19329324 0.05773087 0.024663584 0.088999696 -0.036259376 -0.08649629 -0.0156078115 -0.027812898 -0.012809853 -0.028926548 -0.062175788 0.1491586 0.12531966 -0.09120067 0.09073132 -0.10737901 -0.13557045 0.14420243 -0.053975217 -0.023922335 0.16181365 0.052092977 0.0045661475 -0.051945902 0.06194112 0.069163285 -0.027561335 0.049650613 0.05447983 0.088414215 -0.058711015 -0.040377032 0.11889589 -0.14308272 0.07353228 0.10496894 0.006508127 0.04277891 -0.01901285 0.032205857 0.044143196 -0.04083048 -0.008799747 0.14865087 -0.110050194 -0.05351381 0.10100806 0.048683856 -0.13822445 -0.100912906 0.016926618 0.036377914 -0.10130548 -0.05975317 0.03701271 0.19116217 0.054130055 -0.070427455 0.08382403 0.2149463 -0.01661063 0.1446169 0.14463355 -0.25524685 0.0021417385 0.021897867 0.010990642 -0.13317692 0.076068245 -0.088342495 0.17405516 0.17954665 -0.2555138 -0.107766934 -0.055583388 -0.12095219 -0.2049402 -0.002503212 0.08338339 0.04619329 0.037470587 0.032559194 0.078419566 0.038420323 0.102073796 -0.1639551 0.012282541 -0.1763829 0.06946602 0.07196234 -0.05458376 0.020130986 0.12256492 0.05140249 -0.0014443318 -0.026992803 -0.027552929 -0.051992692 0.12740773 -0.018077062 -0.05641936 -0.0042617368 0.1284924 0.037756328 0.0711334 0.0016250536 0.07942301 0.0024912972 0.029136786 -0.13080962 -0.01898059 -0.027410574 0.0139134275 0.12118539 0.22829162 -0.008412392 -0.046050254 -0.08681323 0.1502894 0.0700172 -0.29499346 -0.0698042 -0.040207896 -0.033374906 0.16283365 0.15894997 -0.10837005 -0.20380901 -0.07751073 0.12712197 -0.23566857 0.06870705 0.15738823 0.025436012 -0.10635144 0.04858745 0.085305475 0.030376593 0.07755538 -0.075270735 0.08280904 -0.04486793 0.006591931 0.17354529 0.07926563 0.07420066 -0.06041873 -0.027441962 0.026058903 0.10061449 -0.17177531 -0.021340156 -0.11688902 0.013529892 0.14738803 0.042137206 -0.075949855 0.013634327 0.05195935 -0.016588306 0.13392739 0.05316046 -0.22968584 -0.07631449 -0.10291649 -0.071224704 0.15323034 -0.037702583 0.16786256 -0.060674988 0.114712335 -0.111531004 0.088145524 -0.17748128 -0.089684576 -0.09830003 -0.1810341 -0.086504824 0.10822389 -0.13248782 -0.017622761 0.045765884 -0.18625374 -0.049104292 -0.15619041 0.011816084 0.036519848 0.10537493 0.2108912 0.15149924 0.06784037 0.023134574 0.10196185 0.19647941 -0.1697254 0.038629908 -0.06814873 0.08040061 0.059148893 -0.07401538 0.061388623 -0.17430098 0.0039758417 0.048893206 -0.09253195 0.0699247 -0.06806178 -0.0067906682 -0.013895837 -0.070871554 -0.11768393 0.06218808 0.038161885 0.019789202 0.036674142 0.012618871 -0.014127545 0.056548674 -0.020167701 0.05651552 -0.055341147 0.022053912 0.11587064 0.038012147 -0.121667884 -0.10181708 -0.12794226 0.10523557 -0.15220036 -0.11038595 -0.21725938 -0.033713844
n -0.030952655 -0.108882286 0.046369825 0.11782954 0.14559874 -0.016050696 0.1380529 -0.008107683 -0.077065825 0.07945219 -0.011801369 -0.0057831462 -0.05062896 -0.06114384 0.040182292 0.114691794 0.082849905 0.030088259 -0.17383108 0.18461654 0.061941464 0.0463993 -0.0354124 -0.16061649 -0.17589007 0.050278217 0.019132989 0.07814554 -0.029261852 -0.07895954 -0.013436301 -0.02746306 -0.011353644 -0.023527116 -0.05676728 0.13744447 0.114011064 -0.08175486 0.08499215 -0.09328017 -0.11614489 0.1281968 -0.04232602 -0.023184352 0.14221571 0.050099894 0.0068824603 -0.051049903 0.056237612 0.05726455 -0.020981796 0.045743875 0.053829342 0.076699145 -0.051517323 -0.033253863 0.1071486 -0.12878077 0.070868395 0.090825334 0.009781059 0.036910444 -0.01839268 0.03445236 0.041074574 -0.03809613 -0.0033982934 0.13630044 -0.102229826 -0.04875988 0.09169545 0.04223336 -0.123171754 -0.087802164 0.013048882 0.03130504 -0.097894326 -0.054166373 0.035603683 0.1794733 0.05288154 -0.06724583 0.06943858 0.19473812 -0.011606811 0.13169268 0.13107781 -0.22988907 0.0059657115 0.018135011 0.010793099 -0.1213264 0.065763995 -0.080452636 0.15442804 0.15961272 -0.23159684 -0.098634236 -0.053403754 -0.11085463 -0.18162541 0.0005627785 0.07513559 0.037388854 0.03172456 0.033747904 0.07384289 0.03157262 0.09556805 -0.14764743 0.010104356 -0.15315782 0.06337342 0.05846264 -0.04839088 0.013499368 0.107003346 0.047166836 -0.00049253827 -0.02551511 -0.02864422 -0.043288063 0.10892668 -0.012044597 -0.0550664 -0.0022978506 0.11906988 0.03359046 0.06383108 -0.002299214 0.0711301 0.005625782 0.025802396 -0.12001523 -0.021491216 -0.026105842 0.009380892 0.10593205 0.2062793 -0.011092907 -0.04123604 -0.07911701 0.13770689 0.060827114 -0.26773897 -0.06536621 -0.041529316 -0.030309757 0.14729522 0.1456289 -0.09954858 -0.17920458 -0.07133073 0.115679346 -0.21458429 0.060552593 0.13605103 0.020500265 -0.09849599 0.040111322 0.078717284 0.028375573 0.073366046 -0.06802275 0.07382177 -0.045275453 0.005632133 0.16166194 0.06841047 0.06496685 -0.05276599 -0.019189209 0.017798157 0.08943761 -0.15167071 -0.015587618 -0.10290063 0.009330238 0.13418409 0.037222255 -0.065999776 0.012267416 0.044892926 -0.011188578 0.12158028 0.04578104 -0.21060044 -0.06236299 -0.091013126 -0.065599374 0.13890773 -0.03307254 0.15259218 -0.054523777 0.10626363 -0.09908589 0.081195176 -0.16039784 -0.077886395 -0.09312773 -0.1673876 -0.08221379 0.09933307 -0.12136306 -0.016770974 0.035877008 -0.1650293 -0.044359826 -0.13900627 0.008315663 0.03800857 0.09933925 0.18420194 0.13993415 0.05521648 0.02533621 0.08893977 0.1749821 -0.14845833 0.039316725 -0.058635857 0.07756594 0.057492163 -0.067632586 0.049145155 -0.15852465 0.0015349039 0.040541895 -0.08460115 0.05807917 -0.05968575 -0.0029641257 -0.013580564 -0.06444543 -0.101504944 0.05473765 0.03662432 0.014409151 0.034671936 0.008878503 -0.008340983 0.05201955 -0.017253388 0.04898764 -0.055306282 0.018905124 0.10445251 0.031569522 -0.1114729 -0.09172338 -0.11356481 0.09761894 -0.13744946 -0.100165725 -0.19431315 -0.02919175
u -0.025781026 -0.084710844 0.03569208 0.08702049 0.10584856 -0.013261509 0.10017579 -0.007145641 -0.058812622 0.05650565 -0.0075014345 -0.0030826067 -0.038853716 -0.04983279 0.030730197 0.08016724 0.061939646 0.025412964 -0.12776078 0.13261767 0.04222259 0.030650392 -0.025383407 -0.11667998 -0.13070148 0.042517014 0.01958677 0.057434008 -0.018445998 -0.06132898 -0.011518515 -0.019703036 -0.011878109 -0.019611297 -0.04203079 0.10517898 0.08320107 -0.061029784 0.06265111 -0.075587496 -0.086103514 0.09924799 -0.03833628 -0.014720153 0.11395431 0.031897243 0.0026090983 -0.041231383 0.04426414 0.04420927 -0.013327331 0.028930344 0.040510956 0.06156966 -0.04110091 -0.024927279 0.07598329 -0.09903172 0.051469445 0.07132819 0.008116417 0.031939205 -0.011629343 0.027349161 0.026648503 -0.026432263 -0.0056202 0.10109919 -0.07139758 -0.03978894 0.07003056 0.026759235 -0.0938578 -0.06964121 0.007888909 0.028467182 -0.07277583 -0.038618993 0.02912326 0.13605736 0.03436944 -0.050629687 0.05959164 0.14638573 -0.010239887 0.09420764 0.098057784 -0.17503013 0.005765754 0.011609093 0.007087064 -0.09073386 0.05123829 -0.059124306 0.11780895 0.120730825 -0.17320274 -0.07203554 -0.03603926 -0.08276887 -0.1379833 0.000853689 0.052877005 0.029011583 0.027700473 0.026388023 0.053575866 0.020705432 0.07125549 -0.11078677 0.0112938555 -0.11732674 0.049853984 0.048181232 -0.0389096 0.008971219 0.081176564 0.03195801 0.002427029 -0.014382201 -0.019798107 -0.033203207 0.08186554 -0.009102985 -0.04251175 -0.00761662 0.08624296 0.021025417 0.051384054 -0.0031393352 0.054381743 -0.00033280186 0.021853521 -0.08331677 -0.017548883 -0.022923432 0.005053942 0.07967019 0.15216936 -0.0122961495 -0.036224276 -0.056293085 0.101317555 0.043240782 -0.20101719 -0.053408813 -0.031646397 -0.025456546 0.10964893 0.105828755 -0.07277398 -0.13488676 -0.053422578 0.08773547 -0.1619691 0.043694314 0.10205398 0.013968134 -0.07312715 0.034055963 0.05910723 0.020958297 0.056129176 -0.05303642 0.05721335 -0.029398492 0.001204247 0.1210483 0.054762468 0.046028562 -0.042794097 -0.015171741 0.015285102 0.06457201 -0.11283963 -0.014894503 -0.080129266 0.010020864 0.09764707 0.029858328 -0.05042166 0.00801873 0.03355774 -0.0089924075 0.09413278 0.03448167 -0.15629396 -0.0474052 -0.067113616 -0.049247406 0.107200466 -0.021984795 0.11189504 -0.03926441 0.08042953 -0.07725052 0.05600427 -0.12230922 -0.058726378 -0.06808167 -0.12115786 -0.059801623 0.07522023 -0.08909259 -0.012270949 0.029536188 -0.12741446 -0.03698473 -0.10425555 0.009272427 0.026366195 0.06847809 0.13717525 0.10537113 0.042550694 0.019684497 0.06503933 0.13395788 -0.11522665 0.028904568 -0.044029944 0.053278923 0.039103813 -0.048726983 0.036932893 -0.11714691 -0.0028771425 0.03221941 -0.05800632 0.04508479 -0.048339963 -0.000642107 -0.0041008606 -0.04961819 -0.07984116 0.041369576 0.030067097 0.012863739 0.022117218 0.00871361 -0.004274056 0.034069326 -0.015596919 0.03986602 -0.042628717 0.01597852 0.07985767 0.029782247 -0.07767292 -0.069630794 -0.08879086 0.075994454 -0.10137602 -0.07089987 -0.14871655 -0.01734554
的 -0.01900123 -0.068215445 0.031400062 0.07348353 0.09027879 -0.00975599 0.080396935 -0.004716344 -0.0420809 0.044257056 -0.008131726 -0.007868027 -0.03213197 -0.039730377 0.020831157 0.069814585 0.05037046 0.017661436 -0.103772886 0.11458395 0.039184697 0.027306264 -0.020087786 -0.099468775 -0.11146359 0.035620496 0.013814565 0.04744713 -0.018772699 -0.049302652 -0.0054066433 -0.016673846 -0.0131621165 -0.011195112 -0.032206297 0.087041624 0.0704656 -0.047590736 0.053992838 -0.060568158 -0.07542734 0.08003602 -0.026466966 -0.01495218 0.09337724 0.026964398 0.0083498955 -0.030843979 0.03045924 0.035321623 -0.016898498 0.025240714 0.032336637 0.0531911 -0.030034443 -0.023956688 0.06579081 -0.07684431 0.04049333 0.05221 0.004452741 0.020885155 -0.006674234 0.017042957 0.027228853 -0.018886808 -0.004716311 0.082429215 -0.061392218 -0.027222047 0.056576237 0.02151474 -0.077067465 -0.052536592 0.0078124125 0.020033699 -0.058920395 -0.03281771 0.020957988 0.10968497 0.02856805 -0.041869573 0.045200773 0.1177263 -0.007826826 0.07732854 0.08092786 -0.14150538 0.0025719018 0.011240595 0.008537598 -0.07723761 0.03912381 -0.05076471 0.097632684 0.09762835 -0.14375739 -0.058513984 -0.033023264 -0.06531705 -0.11546899 -0.0012385434 0.04051173 0.024476087 0.021790873 0.022257464 0.040120117 0.017634064 0.054960866 -0.09249421 0.0023813895 -0.09708277 0.039770033 0.03540611 -0.028323567 0.009451231 0.06858005 0.027157739 0.00012202019 -0.017481368 -0.016716486 -0.026284521 0.06649094 -0.0076163867 -0.030914834 -0.004066876 0.07601302 0.023200015 0.040702984 0.0025665795 0.043831766 8.360449e-05 0.014686882 -0.073804945 -0.015048193 -0.012070916 0.004940665 0.063081436 0.12233109 -0.004904485 -0.02807213 -0.048035115 0.085779876 0.037327766 -0.16381258 -0.039837904 -0.024695056 -0.014435923 0.09115181 0.08393973 -0.05869662 -0.11362322 -0.042257357 0.07091584 -0.1322992 0.036296092 0.08913906 0.010939527 -0.062001914 0.029309154 0.048301212 0.013982887 0.04746481 -0.03923209 0.04697196 -0.022006685 -0.0017702961 0.098855615 0.043263786 0.04117484 -0.031768326 -0.011781093 0.014948923 0.056775384 -0.09634725 -0.012119651 -0.06345867 0.00895159 0.07923752 0.026725221 -0.03821266 0.009486509 0.028453438 -0.004072243 0.07335032 0.03310942 -0.12521972 -0.0438182 -0.05884564 -0.039651774 0.08645211 -0.020704294 0.09159113 -0.028875038 0.068260886 -0.062339094 0.04534961 -0.09962183 -0.049652904 -0.059075877 -0.09977863 -0.049686957 0.062164184 -0.07100268 -0.013252598 0.020412445 -0.10123469 -0.029895643 -0.08408199 0.004089318 0.023889238 0.059071988 0.115492515 0.082627304 0.03486384 0.016943563 0.055598896 0.10406928 -0.09500452 0.022855924 -0.03305745 0.0478229 0.029428734 -0.03604606 0.033534218 -0.09188037 0.0040032524 0.02248388 -0.053569533 0.03998476 -0.03533942 -0.00054045575 -0.0032461123 -0.038724307 -0.059300434 0.031101033 0.01835566 0.007522247 0.019163651 0.009504748 -0.007948909 0.02683122 -0.0076207127 0.027870307 -0.028020164 0.00996424 0.065875016 0.023753956 -0.06521231 -0.056825824 -0.070203364 0.055558078 -0.08430942 -0.060452305 -0.1154662 -0.018796269
Bo29 -0.021060841 -0.063151784 0.02972233 0.07123222 0.09007441 -0.0072499705 0.07976853 -0.005402286 -0.041300148 0.04889695 -0.0064410963 -0.002896561 -0.028069142 -0.03944525 0.021292446 0.06802063 0.048592 0.01808214 -0.1067529 0.1124111 0.032631498 0.024766216 -0.021689337 -0.09745533 -0.10977205 0.03303316 0.012004435 0.046506785 -0.021259084 -0.045803543 -0.0057945056 -0.014889438 -0.011315463 -0.015264396 -0.030517535 0.08406772 0.063490756 -0.050001327 0.050517213 -0.057409115 -0.075684145 0.07933181 -0.030866805 -0.015142262 0.08959398 0.026804008 0.0058236253 -0.027120939 0.031568576 0.039311837 -0.012813737 0.029722122 0.033748493 0.0450421 -0.03479127 -0.018704643 0.06599417 -0.07327851 0.043858234 0.058318302 0.00018504554 0.025222339 -0.011323735 0.020706173 0.026987264 -0.020848908 -0.0017805488 0.08067323 -0.060265258 -0.027489915 0.05204439 0.024715956 -0.07130062 -0.055394158 0.009192805 0.016841961 -0.053926624 -0.0285257 0.021064473 0.10861836 0.030516118 -0.0423577 0.04402295 0.118665315 -0.0094862925 0.07655247 0.08003858 -0.13758072 0.0012853051 0.009266563 0.008066875 -0.07565705 0.03990933 -0.050636675 0.09117869 0.09349631 -0.13976206 -0.060627677 -0.030592388 -0.07087623 -0.11423928 -0.005412981 0.04126601 0.026611106 0.020917695 0.019239448 0.041677345 0.016611362 0.05716717 -0.08810413 0.006576404 -0.09439014 0.039918166 0.037660647 -0.033968166 0.0065352074 0.06178628 0.02557176 0.0007775091 -0.011532595 -0.016708037 -0.028503561 0.07103255 -0.007888505 -0.032750543 -9.523293e-06 0.07199171 0.017703788 0.041683856 0.0010372767 0.038386323 0.0019989826 0.01686761 -0.068174824 -0.012234221 -0.016743 0.0062786606 0.06497561 0.12288023 -0.008129399 -0.028985677 -0.04310969 0.087245665 0.04128191 -0.1644982 -0.039169665 -0.024774836 -0.013592373 0.08945616 0.08835014 -0.05977438 -0.10682212 -0.044205125 0.07165359 -0.12958945 0.034493323 0.083987884 0.016303409 -0.06088058 0.024094488 0.05126623 0.01548401 0.040859103 -0.0428022 0.04763912 -0.02302945 0.0036942873 0.09449503 0.038196415 0.040636536 -0.029056571 -0.015261248 0.009845789 0.052333556 -0.09565187 -0.01099392 -0.06320775 0.005992412 0.08343605 0.020168526 -0.03737133 0.008373315 0.026775962 -0.0036403919 0.07716003 0.027156685 -0.12762812 -0.04268721 -0.05961895 -0.039009567 0.08146283 -0.023451112 0.09196752 -0.03009851 0.066086456 -0.061703335 0.04509174 -0.095852785 -0.04697627 -0.051531255 -0.099099 -0.044590745 0.057196993 -0.069121465 -0.012080429 0.02688802 -0.103555195 -0.026087781 -0.08364973 0.005215418 0.018627267 0.054384954 0.109960884 0.079474166 0.035836685 0.013865756 0.053697612 0.107702225 -0.09161866 0.021515168 -0.038511757 0.041283667 0.036208194 -0.041133374 0.029120404 -0.09190902 0.0025271988 0.022467023 -0.04901369 0.034439757 -0.037868783 -0.003730532 -0.0074830875 -0.03698095 -0.058712527 0.037275314 0.017556522 0.0076307184 0.023743147 0.008272308 -0.008086715 0.03012676 -0.0071139373 0.028583467 -0.03465091 0.012149203 0.06627948 0.02418728 -0.063702345 -0.05756718 -0.07058453 0.058067605 -0.08049177 -0.06209413 -0.11985478 -0.01689714
d -0.023392465 -0.06731862 0.031960815 0.08222511 0.09133228 -0.009826827 0.09122804 -0.007212714 -0.050406095 0.050036654 -0.008270353 -0.006784657 -0.028704539 -0.04455748 0.026563326 0.073774405 0.056667853 0.021473957 -0.110036835 0.12097875 0.03454713 0.033575874 -0.02582027 -0.10555128 -0.11712144 0.033029635 0.011426994 0.047670532 -0.020873947 -0.0506704 -0.009793192 -0.013981532 -0.0135269845 -0.017920885 -0.032154974 0.091429785 0.07522354 -0.05036744 0.05331715 -0.06469495 -0.07492874 0.08479716 -0.02673053 -0.010713045 0.09822531 0.0336977 0.00073026854 -0.035592046 0.035653695 0.041572183 -0.011714942 0.0304624 0.03650324 0.049677983 -0.033383295 -0.0248201 0.06474432 -0.07875393 0.04422295 0.058670092 0.0031028497 0.023364948 -0.007889965 0.022093846 0.025133334 -0.027316995 -0.0058783414 0.08627782 -0.062045056 -0.03347933 0.057992164 0.027031245 -0.084115684 -0.056030832 0.0084228795 0.022940926 -0.06002849 -0.035418894 0.021208514 0.11773873 0.033955723 -0.0398825 0.050478596 0.12851673 -0.005141384 0.084039085 0.08694401 -0.14717922 0.0039834715 0.0103058815 0.0056378576 -0.080048636 0.04076251 -0.050884053 0.10368319 0.10815817 -0.14982665 -0.059768822 -0.031680204 -0.07448185 -0.11749145 -0.0051509333 0.051347636 0.028414473 0.021935029 0.022558875 0.049651913 0.024383243 0.06091076 -0.09812978 0.010582921 -0.09907574 0.04283644 0.040063888 -0.035845082 0.008073179 0.073663354 0.026633155 -0.0027017677 -0.011784549 -0.013496885 -0.02621323 0.07337086 -0.011334876 -0.031062245 -0.00496869 0.07878738 0.022979219 0.04623047 -0.00423119 0.048187144 -0.0013101622 0.014541513 -0.07915003 -0.014285727 -0.014144564 0.009929478 0.06864752 0.13360675 -0.008655721 -0.025479987 -0.047372058 0.09048165 0.03985703 -0.17550512 -0.040805943 -0.025015859 -0.020544613 0.09829502 0.091279246 -0.06883601 -0.118602686 -0.045315478 0.07126111 -0.14062843 0.035051692 0.09394484 0.016595393 -0.062383935 0.030271873 0.0555781 0.016542608 0.049648166 -0.041701645 0.050183825 -0.024860302 -0.00053306913 0.102282286 0.04504484 0.04407129 -0.033200987 -0.011537869 0.015886473 0.054504693 -0.102438554 -0.013709403 -0.06305287 0.010628054 0.08564417 0.027465813 -0.04542738 0.004248571 0.030311842 -0.005500869 0.080035895 0.033801515 -0.13585487 -0.04437773 -0.060928874 -0.042287506 0.087781094 -0.024868682 0.10142472 -0.034462687 0.067101136 -0.069604 0.054610234 -0.104004286 -0.0499837 -0.05804968 -0.109230705 -0.050878428 0.06656946 -0.081460215 -0.010374336 0.026468378 -0.10560967 -0.02727889 -0.0913523 0.002798292 0.02513528 0.063183874 0.12404185 0.09191525 0.03941371 0.012744564 0.058890756 0.11637364 -0.1005465 0.0278547 -0.04115202 0.050095778 0.036035065 -0.038072858 0.032450356 -0.10312773 -0.0017764271 0.028812442 -0.054826867 0.04346859 -0.04333859 -0.005625037 -0.007983519 -0.038135685 -0.06934131 0.035032816 0.019978378 0.013815144 0.022866802 0.008941304 -0.007915925 0.035149038 -0.014254407 0.030935783 -0.03597526 0.011933638 0.06714765 0.02639517 -0.070026524 -0.06303466 -0.07774555 0.059833083 -0.08724661 -0.059566993 -0.12833333 -0.015045128
Di02 -0.012786373 -0.05947095 0.022515899 0.06700315 0.07934154 -0.009228402 0.06813556 -0.0016572216 -0.03739918 0.043075033 -0.010631454 -0.007856024 -0.024540963 -0.037909996 0.018695882 0.057836503 0.046829686 0.01930336 -0.09196756 0.0976719 0.03397276 0.022831164 -0.014086476 -0.081654906 -0.09234711 0.02676756 0.010061448 0.03997332 -0.012542023 -0.04336562 -0.007147963 -0.00916457 -0.006625091 -0.010339367 -0.032162264 0.071377285 0.060673267 -0.044080086 0.045974836 -0.04694325 -0.06261429 0.0665619 -0.024244396 -0.013399157 0.07364162 0.023758383 0.002950331 -0.024868216 0.025959715 0.03328765 -0.014515613 0.019486552 0.030708732 0.046009686 -0.030434705 -0.016805643 0.053090777 -0.07016596 0.033512816 0.05092262 0.0060039274 0.024721324 -0.005153859 0.01961846 0.0217725 -0.02347989 -0.0021311103 0.06970132 -0.04954305 -0.025460158 0.04609124 0.024498085 -0.06468062 -0.046361018 0.005109244 0.014143539 -0.05355477 -0.024233751 0.0143284835 0.096504286 0.0228314 -0.034654684 0.038168486 0.0977503 -0.0032806057 0.07097415 0.06932064 -0.118804134 0.0016415993 0.012952636 0.007899896 -0.067662224 0.0342393 -0.042564522 0.08160082 0.08264269 -0.12001239 -0.052863613 -0.026117805 -0.056608588 -0.09397221 -0.0032352454 0.034823824 0.01698288 0.016789043 0.013797809 0.034611516 0.019632382 0.05256705 -0.07630696 0.0022915194 -0.08489387 0.037666496 0.034367986 -0.02881024 0.0045988583 0.057315152 0.02439395 0.0009842011 -0.011019305 -0.016164824 -0.027986389 0.056083415 -0.006870198 -0.02561335 -0.0009757146 0.06266395 0.019106448 0.03403679 0.0009173055 0.03217646 0.0048033153 0.016688175 -0.05906647 -0.0072916984 -0.010260274 0.005153155 0.05588776 0.1069201 -0.00969476 -0.01966739 -0.042482227 0.07638352 0.031438842 -0.14001219 -0.03855819 -0.024299871 -0.018456258 0.073931605 0.07574516 -0.055606827 -0.09715688 -0.038546383 0.05784443 -0.109233685 0.03353707 0.07714725 0.013470198 -0.053013217 0.024915366 0.038500562 0.012664603 0.0346728 -0.033420436 0.039619233 -0.01938288 0.0024883552 0.08018518 0.039651368 0.03167844 -0.024410088 -0.010008221 0.009426574 0.045235053 -0.08332249 -0.01132405 -0.050538577 0.0060849367 0.07230548 0.017186197 -0.0334955 0.005251675 0.026630703 -0.0095954165 0.06677377 0.023495657 -0.11135023 -0.037229683 -0.050704077 -0.0348184 0.0714115 -0.020372078 0.08008298 -0.027774632 0.054516047 -0.05136868 0.037902012 -0.08521554 -0.038912248 -0.04429587 -0.09020548 -0.038514677 0.054932777 -0.0646066 -0.006622207 0.016922537 -0.08448442 -0.021207787 -0.07244406 0.0025616544 0.016437642 0.049269676 0.09895608 0.07283452 0.03346207 0.016047098 0.050964143 0.08983273 -0.07494072 0.019297482 -0.028225856 0.04044364 0.028160503 -0.03228889 0.025470182 -0.08388193 -0.0026925046 0.022438215 -0.040656608 0.032620225 -0.033437986 -0.000650747 -0.0020346136 -0.03574955 -0.053078104 0.027179234 0.019886013 0.012320271 0.021021213 0.009027508 -0.0024849586 0.028775627 -0.0065913177 0.028524738 -0.029356904 0.013633566 0.057756435 0.018097553 -0.053202994 -0.04599992 -0.05737956 0.051885575 -0.06780166 -0.050915588 -0.09804552 -0.013366183
-1 -0.012653368 -0.055578075 0.027596656 0.06347842 0.0719061 -0.008288427 0.06998735 -0.007315835 -0.033783656 0.034305435 -0.010168818 -0.0031082449 -0.022196943 -0.034220528 0.02090921 0.06066437 0.03846428 0.012560215 -0.0895899 0.0904533 0.030563615 0.026967542 -0.014688716 -0.08127535 -0.08847036 0.030515147 0.015210967 0.041605033 -0.01292471 -0.042039428 -0.007232658 -0.014813109 -0.0049642674 -0.0129795475 -0.031392187 0.0716314 0.059147306 -0.042063463 0.04540291 -0.048594475 -0.0616306 0.06452924 -0.023316303 -0.011634195 0.07522866 0.026136499 0.0062026177 -0.0293301 0.026423594 0.027624238 -0.008431811 0.02434487 0.024172911 0.041262075 -0.030538397 -0.017672021 0.05709629 -0.065314494 0.032128286 0.04329439 0.0021726517 0.019151514 -0.0063644866 0.019802805 0.019149298 -0.01806907 -8.671363e-05 0.067284934 -0.049493846 -0.021014836 0.048906147 0.023979306 -0.06511768 -0.04061192 0.008929851 0.020147113 -0.04885621 -0.025879525 0.019998556 0.087436624 0.027678657 -0.031967856 0.04104176 0.0957294 -0.007796426 0.068248644 0.061635375 -0.11899025 -0.0010049624 0.008396951 0.004028789 -0.058332987 0.03771486 -0.040875103 0.07837337 0.081664845 -0.11604461 -0.05153614 -0.0227406 -0.058045283 -0.09085724 0.0016953074 0.038306847 0.021122182 0.017208356 0.014842242 0.03720267 0.01650581 0.04944426 -0.071522385 0.006417668 -0.07683085 0.029260335 0.034158885 -0.022008887 0.0062279887 0.055161957 0.019732438 0.00032487695 -0.0111772325 -0.009686405 -0.022730043 0.05760747 -0.006010186 -0.023940561 -0.004915172 0.057015393 0.015038858 0.03191033 0.0016692018 0.031162154 0.0008060835 0.010259081 -0.056801263 -0.010236397 -0.016670587 0.006299101 0.057846107 0.101135775 -0.008046328 -0.021213328 -0.038698684 0.06644871 0.035170067 -0.13731104 -0.03563033 -0.020646004 -0.016876312 0.074927606 0.07617413 -0.04944148 -0.088050924 -0.035340477 0.05766803 -0.10868692 0.026673134 0.071919486 0.011261592 -0.052411713 0.01919411 0.03681151 0.010921673 0.03815632 -0.030501058 0.038971264 -0.020723106 0.004595059 0.07981946 0.034265604 0.029417833 -0.02691062 -0.012133108 0.010978453 0.047685362 -0.08119627 -0.009961833 -0.054880872 0.005324353 0.065214075 0.020960845 -0.03189063 0.0037036694 0.020842638 -0.00572155 0.06312769 0.026730526 -0.10612652 -0.034761287 -0.049769238 -0.031741463 0.07062403 -0.01611082 0.07941951 -0.027471794 0.053429075 -0.053592484 0.038723655 -0.08379153 -0.03966653 -0.045280088 -0.085958526 -0.036422927 0.04698269 -0.06393804 -0.012697961 0.022465829 -0.08219196 -0.019067774 -0.06926469 0.00468971 0.016452868 0.052262694 0.095645204 0.07075795 0.029097324 0.0120707685 0.04830012 0.08757742 -0.07491566 0.018136578 -0.028045094 0.039033763 0.028259633 -0.034555417 0.024872089 -0.07698641 -0.002295976 0.021246899 -0.04164502 0.032495685 -0.035271607 0.0019217907 -0.005443177 -0.034019858 -0.05037676 0.027624888 0.01475397 0.006749777 0.016527852 0.0026458723 -0.0050531784 0.026588641 -0.010234506 0.025536448 -0.02524064 0.013179616 0.05360565 0.01882476 -0.053823825 -0.047371667 -0.06220176 0.051916137 -0.06919572 -0.053117245 -0.10029633 -0.016116716
a -0.015796209 -0.060311884 0.03135192 0.067325816 0.08414727 -0.009861829 0.07625046 -0.002325544 -0.04159636 0.042710897 -0.01255216 -0.006619605 -0.028419295 -0.034238506 0.025119323 0.06219169 0.0434642 0.020143507 -0.10200636 0.10446581 0.03669502 0.024145762 -0.01744914 -0.093365975 -0.105824195 0.031544123 0.016255854 0.04927282 -0.016634803 -0.04298705 -0.008797221 -0.015340335 -0.0114419805 -0.013743682 -0.03302178 0.07822132 0.061685286 -0.04283253 0.049082015 -0.05712454 -0.07093594 0.07793428 -0.02916455 -0.010574189 0.085235395 0.030942978 0.0071441564 -0.030900037 0.032527883 0.03370742 -0.01732203 0.023871109 0.030815935 0.049465578 -0.028298797 -0.016903287 0.05812789 -0.071399026 0.037194286 0.052656244 0.0039753583 0.025564061 -0.0068332367 0.020243363 0.02729102 -0.021465633 -0.0069777244 0.074741825 -0.054826096 -0.030752264 0.05126682 0.02567325 -0.07345122 -0.054002453 0.006367084 0.019652873 -0.05473269 -0.02833704 0.018055812 0.103943385 0.031407792 -0.0370143 0.045174785 0.10963213 -0.0051265913 0.07223311 0.07701863 -0.13761196 0.0004591408 0.0070541142 0.0051930794 -0.072820835 0.0383969 -0.045938857 0.09123954 0.09256523 -0.13645543 -0.057676457 -0.029440923 -0.06626372 -0.11020105 -0.0025593154 0.04561583 0.025283273 0.014393088 0.020238463 0.03886855 0.015242819 0.055156164 -0.085377105 0.0027865202 -0.09426838 0.037197318 0.03921784 -0.032960985 0.012171172 0.06291356 0.025865883 0.0036451558 -0.01225611 -0.016180143 -0.02466682 0.06724725 -0.004779732 -0.030968554 -0.005298559 0.06905202 0.017503144 0.038541056 0.0014190872 0.041667998 0.006002453 0.012801707 -0.07016274 -0.008789148 -0.013947308 0.0027941845 0.06325529 0.11915588 -0.0077624484 -0.027511546 -0.042679563 0.08557608 0.033376142 -0.15551597 -0.039602008 -0.025052994 -0.017181156 0.08371269 0.08689494 -0.06102485 -0.10392613 -0.040543992 0.06813399 -0.12343425 0.039367557 0.082023904 0.0099645965 -0.05649382 0.024906438 0.04509543 0.011551446 0.03979473 -0.041411452 0.045576327 -0.023185462 0.005124232 0.095436856 0.03752976 0.038976293 -0.027785309 -0.012221078 0.013981388 0.05422009 -0.0938243 -0.006405016 -0.05775015 0.011235439 0.07337117 0.025110345 -0.035374112 0.005699059 0.023658477 -0.0053659566 0.06757029 0.026634142 -0.119628526 -0.035032038 -0.050775584 -0.038675074 0.07660883 -0.015366424 0.09083889 -0.03167859 0.057959966 -0.061038002 0.04365684 -0.09500153 -0.045259874 -0.053548113 -0.09700504 -0.04811736 0.06226698 -0.071973294 -0.013904219 0.026190508 -0.09604114 -0.022525962 -0.08286442 0.0026024212 0.020570256 0.055526458 0.104918875 0.07880397 0.035445776 0.015990462 0.05575119 0.10249424 -0.08970801 0.021366142 -0.03547232 0.045888294 0.028887816 -0.036946442 0.030054536 -0.09306134 -0.0025444126 0.026957957 -0.05116068 0.035683822 -0.036063254 0.0011770736 -0.009152049 -0.035037257 -0.056019776 0.030406768 0.019479023 0.011759193 0.021568574 0.008343711 -0.0022966338 0.029091733 -0.010125512 0.027412377 -0.033119965 0.012927531 0.06216235 0.017186917 -0.06364759 -0.053599194 -0.067869246 0.05984002 -0.08012699 -0.058839694 -0.109658435 -0.019063083
nz -0.021706728 -0.06441108 0.02583027 0.071161605 0.085992575 -0.009523867 0.07653284 -0.0050908383 -0.044120457 0.04632036 -0.005466632 -0.0021561224 -0.024991542 -0.04186896 0.026644003 0.06548204 0.051535282 0.018907797 -0.10047444 0.103149116 0.03079738 0.030193277 -0.021092327 -0.09326528 -0.10200528 0.031906284 0.017759332 0.045643643 -0.02143119 -0.048880674 -0.0072489358 -0.01804333 -0.00594391 -0.013152602 -0.03622568 0.08415519 0.06936125 -0.04510952 0.051032916 -0.060727056 -0.06977155 0.07202339 -0.028432598 -0.012290596 0.08619192 0.027830169 0.0058190916 -0.02920342 0.034117203 0.03769965 -0.015818303 0.028417341 0.033281542 0.051760446 -0.030567711 -0.021761358 0.06046731 -0.07529935 0.03938881 0.0583043 0.0047237542 0.025039019 -0.0073670847 0.015309365 0.02634577 -0.018481035 -0.0053422437 0.079662055 -0.061260477 -0.031792846 0.05678602 0.022687946 -0.0708323 -0.051571593 0.0068634963 0.020924365 -0.05854681 -0.031725172 0.020695591 0.10615109 0.029025769 -0.03876248 0.04044202 0.11743171 -0.011036123 0.079633296 0.07811137 -0.13846016 -0.00029674865 0.007354928 0.0035011263 -0.06877512 0.044513162 -0.046317015 0.09080794 0.09871928 -0.13761498 -0.05672965 -0.02923398 -0.06788233 -0.11221608 -0.0057946807 0.046677224 0.025249977 0.017259004 0.015438159 0.042709414 0.020238763 0.055578515 -0.08590573 0.0038406006 -0.09092104 0.03957454 0.040359586 -0.03408429 0.0063764886 0.060272947 0.025591595 -0.0031278008 -0.012039255 -0.018065566 -0.029303884 0.06821783 -0.010901892 -0.030521443 -0.006098084 0.07340112 0.02294249 0.038947392 0.001946825 0.042084213 -0.00018070101 0.02030404 -0.072546214 -0.008395896 -0.014080831 0.004047369 0.062191173 0.1234013 -0.009039104 -0.022333149 -0.047840443 0.08551671 0.036779113 -0.15436362 -0.04056267 -0.020491054 -0.01372676 0.08743077 0.08513721 -0.057067994 -0.10357118 -0.037609898 0.07054817 -0.123041816 0.038846895 0.086302154 0.011851139 -0.057267204 0.025574801 0.047439262 0.015609323 0.039091703 -0.0434206 0.0428331 -0.02139986 2.2410786e-05 0.090441935 0.04327718 0.038708683 -0.030945474 -0.011130232 0.013952916 0.05526202 -0.091321036 -0.0096638445 -0.057331122 0.009092133 0.07586809 0.026181918 -0.0366758 0.007589367 0.025317041 -0.005559902 0.07435625 0.03164136 -0.12206709 -0.042772885 -0.05465438 -0.037504144 0.08326475 -0.023371203 0.09322737 -0.033787232 0.06443597 -0.06328123 0.049398135 -0.091563 -0.04553972 -0.055234373 -0.09715128 -0.045919478 0.05661235 -0.06856283 -0.0101131825 0.02476245 -0.10076966 -0.022857644 -0.08167123 0.005266142 0.016646411 0.058126744 0.11269119 0.08400159 0.031670168 0.010409211 0.051172227 0.10239727 -0.091921546 0.018579273 -0.034538515 0.04455435 0.02795689 -0.039367355 0.031171218 -0.088749364 0.000787235 0.02451902 -0.051377617 0.033496857 -0.037962206 0.0013725384 -0.003651226 -0.037413366 -0.06015059 0.029654149 0.020733362 0.007804689 0.022439998 0.006680513 -0.008123458 0.025044933 -0.011053405 0.025312133 -0.03122541 0.00981547 0.061540235 0.020093026 -0.066994846 -0.054451223 -0.06778082 0.05560445 -0.083854035 -0.059240505 -0.11769692 -0.01705919
r -0.010797511 -0.047447626 0.022993386 0.054093968 0.06582866 -0.0043942337 0.06263934 -0.007972376 -0.03552112 0.030202746 -0.009256329 -0.0067454474 -0.02405699 -0.028884532 0.01742979 0.04806635 0.031784095 0.014923671 -0.074784145 0.08019921 0.028874263 0.023106996 -0.015246942 -0.06819031 -0.078777 0.02414311 0.011568747 0.038207516 -0.014280704 -0.032283053 -0.0075118486 -0.011730424 -0.003204741 -0.011829467 -0.024391228 0.054908637 0.044017687 -0.03116217 0.033473413 -0.03922723 -0.054532867 0.054557633 -0.023003548 -0.0055764997 0.06596743 0.02235964 0.006345658 -0.022101501 0.019494716 0.029522428 -0.011689821 0.0217735 0.024324397 0.034341503 -0.02720189 -0.016012179 0.04863445 -0.05781118 0.029529734 0.036401983 0.0063965176 0.015492939 -0.0028038211 0.011222302 0.014076346 -0.019963758 -0.004799058 0.05900513 -0.043057475 -0.017041365 0.039753795 0.019293522 -0.05264075 -0.0347629 0.0048561236 0.017093115 -0.04499704 -0.021812538 0.014446078 0.07651974 0.023715734 -0.029464012 0.031537823 0.082935445 -0.0056862314 0.054769374 0.058234576 -0.102175884 0.0045508146 0.0073094307 0.0053043496 -0.051130224 0.029115295 -0.03422281 0.065485634 0.07154851 -0.09877317 -0.04225982 -0.025099315 -0.052606583 -0.0785638 -0.0041825487 0.03098612 0.015906176 0.0099762175 0.014189855 0.03296747 0.013075127 0.037357476 -0.061870564 0.0046452684 -0.06957195 0.027530828 0.026821239 -0.023490211 0.0022567129 0.049903736 0.020066436 -0.0010114935 -0.007646367 -0.010769952 -0.01699405 0.04778311 -0.0024052018 -0.023106825 -0.0047667855 0.049257603 0.018237036 0.02854821 7.246331e-05 0.032743193 -0.0009293373 0.010778672 -0.053555552 -0.010892203 -0.014725987 0.005728045 0.04739631 0.08988185 -0.0039781183 -0.018557435 -0.030498127 0.059166927 0.028677795 -0.11165338 -0.028357418 -0.014508381 -0.015456224 0.06610014 0.06400142 -0.041432705 -0.08247156 -0.030468948 0.050681636 -0.09458797 0.022947386 0.06309199 0.00671904 -0.04357412 0.02125655 0.031751763 0.014669162 0.031329703 -0.026974915 0.030352408 -0.020413375 -0.0024862324 0.068706445 0.027753117 0.026901528 -0.019381069 -0.0122268945 0.0067636347 0.036176283 -0.07004251 -0.01087446 -0.044953823 0.009705031 0.06018694 0.014832676 -0.031278484 0.0038606818 0.015830798 -0.0075111794 0.050039798 0.022150103 -0.092768915 -0.027719311 -0.040187158 -0.024799237 0.05903429 -0.018666415 0.067615055 -0.024946883 0.047225684 -0.043178253 0.037073117 -0.06856862 -0.03423709 -0.0364508 -0.07369784 -0.037882764 0.04520531 -0.05299584 -0.009933987 0.016133156 -0.07655155 -0.019540036 -0.060488187 0.002616348 0.015975025 0.043740395 0.08405583 0.056126233 0.02348085 0.0067228368 0.035532136 0.073667064 -0.06585194 0.012178084 -0.027652286 0.031550873 0.026335493 -0.026917655 0.02650226 -0.07078911 -0.00154314 0.017604666 -0.031852633 0.026987065 -0.026704825 -0.00060763187 -0.002808229 -0.031056918 -0.0434924 0.026796151 0.017179966 0.009098692 0.011273762 0.0033190332 -0.0014029745 0.02145406 -0.011640051 0.023457343 -0.024629936 0.010799151 0.047508653 0.013211645 -0.045583494 -0.037474807 -0.051950082 0.040919382 -0.05487415 -0.03836842 -0.08729814 -0.009206933
p -0.010900808 -0.054035664 0.025588712 0.058352895 0.07438344 -0.0074432 0.0691452 -0.00089434214 -0.03507731 0.034612678 -0.008301655 -0.0033086787 -0.023197802 -0.029937744 0.022840548 0.057855457 0.044064168 0.011132315 -0.08780814 0.0907137 0.030826788 0.022141883 -0.019693647 -0.08072326 -0.09075416 0.030579327 0.012918926 0.03534804 -0.013674577 -0.03597608 -0.00807052 -0.014371543 -0.0068125096 -0.008163935 -0.031167097 0.06714896 0.05149381 -0.040383186 0.042204205 -0.0494656 -0.060020383 0.06355618 -0.025190825 -0.006671649 0.074255414 0.019612113 0.0021584549 -0.023523977 0.023256883 0.026246537 -0.014273487 0.018888062 0.029080093 0.042336468 -0.026611252 -0.020962015 0.054735035 -0.060692377 0.03397002 0.04156228 0.0025404855 0.019081376 -0.010783546 0.016780352 0.020251077 -0.021462107 -0.0071371985 0.067930184 -0.0523815 -0.02638012 0.046583623 0.02023271 -0.06247216 -0.045264315 0.005745912 0.01844487 -0.049122676 -0.028338708 0.015163882 0.08476222 0.021204792 -0.036485657 0.039583415 0.09793215 -0.008126471 0.060218666 0.06286863 -0.114479855 0.005309951 0.009225172 0.001851915 -0.060710657 0.02931544 -0.038891044 0.07442855 0.0779426 -0.11000797 -0.043727245 -0.023472613 -0.05804943 -0.08725214 -0.0057358965 0.033445705 0.016461585 0.014855063 0.01563185 0.03358681 0.01661266 0.05011118 -0.06903969 0.0052669337 -0.07302593 0.032756016 0.029852757 -0.02790253 0.010124773 0.049364503 0.02039841 0.002906417 -0.013013518 -0.0120981345 -0.025677789 0.0570697 -0.003153238 -0.030375086 -0.0042824014 0.06122954 0.017393589 0.03193872 -0.00015203886 0.029690761 0.0062624984 0.012247672 -0.05942032 -0.008010514 -0.012523823 0.0025074277 0.055333007 0.098760314 -0.008147819 -0.019023376 -0.034886997 0.07203415 0.031600323 -0.13073313 -0.03618157 -0.017179068 -0.010421654 0.07200912 0.070028394 -0.05166187 -0.08955991 -0.037434723 0.058152154 -0.10478673 0.033034924 0.06622231 0.008136577 -0.049992893 0.0176202 0.040817924 0.014848221 0.03632118 -0.031608835 0.03229348 -0.021740427 -0.0020689378 0.07992442 0.032962915 0.035527185 -0.027498836 -0.008200765 0.012290601 0.044340245 -0.0763923 -0.0048500192 -0.05024827 0.010228048 0.06669145 0.021781048 -0.03007649 0.0021520872 0.02014498 -0.005600462 0.060015187 0.024608131 -0.102292754 -0.0293173 -0.048448272 -0.030510154 0.07132434 -0.015683219 0.07654793 -0.023914166 0.05151286 -0.05374095 0.039560664 -0.0825234 -0.039566055 -0.048495706 -0.08115557 -0.042284206 0.052512906 -0.061284352 -0.0049423887 0.015348105 -0.0840151 -0.021262247 -0.06963681 0.0050964416 0.0155232735 0.047095876 0.0897602 0.06331861 0.031315014 0.011748428 0.04713775 0.08265575 -0.07266839 0.013781222 -0.025914643 0.038828723 0.024280282 -0.02817922 0.024259761 -0.08045379 0.0005497031 0.02219422 -0.0433744 0.026306799 -0.027582034 -0.00094715296 -0.004345804 -0.030261148 -0.05266537 0.028744185 0.01831701 0.012269909 0.014061041 0.007086916 -0.0025346738 0.0218428 -0.012739006 0.027619112 -0.02253908 0.0074968296 0.0539875 0.01781306 -0.055473886 -0.046031505 -0.059171855 0.05021471 -0.06621916 -0.0514154 -0.0952851 -0.015014021
m -0.011263767 -0.050443403 0.026319684 0.056938585 0.06575222 -0.0033501394 0.06434275 -0.0059525957 -0.036908146 0.03432646 -0.0091324365 -0.0027675563 -0.026262142 -0.031976834 0.019662362 0.052925333 0.040401578 0.012080817 -0.08139984 0.08591153 0.029360764 0.021815738 -0.012104484 -0.073875904 -0.08568555 0.024620326 0.0072643952 0.03473649 -0.014960586 -0.03993274 -0.0015356253 -0.011150071 -0.007538615 -0.013327209 -0.029257298 0.059238963 0.055316836 -0.0385175 0.040466227 -0.04653915 -0.051933296 0.06160956 -0.020599045 -0.0112442225 0.06899162 0.020863557 0.006173624 -0.021808825 0.025882933 0.029381203 -0.008906992 0.017525543 0.027232101 0.038106497 -0.028640054 -0.012775479 0.049386457 -0.05589121 0.031039262 0.045763 0.0038185634 0.01656061 -0.008853489 0.018686615 0.019400794 -0.020187346 -0.0036270497 0.06156708 -0.045448218 -0.026280727 0.0449026 0.019678736 -0.055404887 -0.03926472 0.0050862874 0.016568962 -0.04462787 -0.029011415 0.019149248 0.086154446 0.027379643 -0.032032106 0.031223044 0.091893435 -0.009336263 0.0646136 0.061288122 -0.10530138 0.0039522867 0.0085871685 0.0036889773 -0.055932578 0.035625152 -0.040038846 0.07168981 0.07421873 -0.104990676 -0.04194678 -0.025345715 -0.050863173 -0.08746741 6.824768e-05 0.037626397 0.02022058 0.0131645035 0.013508735 0.036202215 0.019431664 0.046182733 -0.07007653 0.0043460894 -0.07607574 0.02880232 0.03058802 -0.026218997 0.004545127 0.054071832 0.024121929 0.0032392414 -0.01111371 -0.015820302 -0.024138479 0.053395007 -0.009836556 -0.02789111 -0.0015651631 0.054122526 0.011837591 0.03277484 -0.004185012 0.029349929 0.0007482587 0.0132538695 -0.055030398 -0.010695856 -0.009196683 0.008169032 0.047549002 0.099223465 -0.0021987427 -0.023510678 -0.03624312 0.067163326 0.032379217 -0.12579215 -0.03384899 -0.015847636 -0.017608194 0.06644211 0.06703513 -0.045051765 -0.08707174 -0.03090341 0.053261958 -0.09866746 0.030652912 0.065729454 0.012731509 -0.04497562 0.016047698 0.040874816 0.009945621 0.035529796 -0.032621868 0.031491254 -0.022554696 0.003638115 0.07409546 0.032930154 0.027003337 -0.027287284 -0.012666233 0.013365582 0.03794468 -0.070905864 -0.00836527 -0.04827735 0.009804172 0.06002627 0.015746763 -0.03039763 0.008293927 0.024873704 -0.007137357 0.057745613 0.024829898 -0.09958219 -0.027763829 -0.0467654 -0.028504796 0.066660404 -0.0140374685 0.06899689 -0.023198895 0.051447347 -0.044527154 0.03262183 -0.07244639 -0.034282118 -0.043037545 -0.07348691 -0.038910948 0.04658662 -0.058964193 -0.010179796 0.018432325 -0.07932781 -0.02304111 -0.062138498 0.001975326 0.013479638 0.04808487 0.09179223 0.06568669 0.027546342 0.011198095 0.041692518 0.084954314 -0.07326858 0.017598473 -0.025829457 0.033746604 0.026328182 -0.028515583 0.028749824 -0.07232485 0.0043386724 0.017748954 -0.03609333 0.027335512 -0.031815056 -0.0010589852 -0.0065632723 -0.03184689 -0.046885017 0.029789947 0.013474713 0.0042123673 0.014037343 0.008531097 -0.008852823 0.027192507 -0.00845653 0.023876803 -0.025091462 0.0064234817 0.050561145 0.019367961 -0.05355708 -0.043439116 -0.054023825 0.046705253 -0.060623012 -0.046996474 -0.08759712 -0.015293667
vn -0.011319127 -0.03538116 0.02053702 0.040420342 0.05163418 -0.00892352 0.04808462 -0.0011711683 -0.030318739 0.029776262 -0.0031481676 -0.0046620816 -0.02181854 -0.024581887 0.013208422 0.04258351 0.033002302 0.011622713 -0.06416546 0.06772654 0.018867705 0.015930733 -0.012980622 -0.054654628 -0.0672516 0.017134458 0.0096772155 0.029805679 -0.013949144 -0.030259605 -0.0046439343 -0.010053661 -0.009618636 -0.010690843 -0.021384565 0.05231774 0.04071542 -0.028794391 0.0300791 -0.03680721 -0.042117108 0.04687001 -0.014365923 -0.0073500667 0.04954857 0.017573444 0.006766271 -0.02044739 0.017855242 0.020105276 -0.0047321576 0.015058908 0.022805251 0.025791328 -0.016460637 -0.016603658 0.042340044 -0.045353457 0.02612685 0.030900106 0.005813377 0.016700562 -0.008117019 0.007960497 0.01765494 -0.01589709 -0.00680567 0.049246702 -0.03784317 -0.020824594 0.036707003 0.014192708 -0.0459732 -0.033895705 0.002957 0.009782624 -0.036720317 -0.021025881 0.0094919475 0.06825483 0.020447044 -0.025552003 0.02812348 0.06639535 -0.0014275095 0.050261654 0.047553733 -0.086518265 -0.00035491525 0.008122982 0.0021320414 -0.04314909 0.028725458 -0.02706771 0.05443524 0.060504455 -0.08446309 -0.037152294 -0.015815308 -0.04419876 -0.0668277 -0.0020048402 0.023087377 0.013721533 0.013689491 0.009284819 0.023003707 0.014472429 0.033126913 -0.05625463 0.0035619908 -0.05746388 0.027261611 0.02321969 -0.015575209 0.0019504555 0.040980544 0.018661676 0.00013831136 -0.01025593 -0.008981904 -0.016738819 0.03770276 -0.007337669 -0.018723154 -0.0028626034 0.046899457 0.01180035 0.0260748 0.000779591 0.027987484 -0.0024689108 0.010706184 -0.042853743 -0.0062449207 -0.009163291 0.00084356184 0.042702697 0.07252322 -0.0032788708 -0.01879048 -0.026509682 0.055050116 0.022143437 -0.09471391 -0.024508525 -0.01027051 -0.0061619193 0.05352178 0.051497646 -0.040564645 -0.0618475 -0.02659781 0.042078882 -0.07862022 0.02556941 0.05449433 0.0083552785 -0.033955276 0.017676545 0.029894374 0.011826148 0.026215496 -0.02505887 0.028753126 -0.016903551 0.00015171396 0.061471533 0.021272989 0.022218985 -0.020695766 -0.0062659597 0.011399342 0.02966495 -0.053802263 -0.006154552 -0.041855313 0.0039823325 0.047753364 0.01239306 -0.0240043 0.0017258888 0.018922076 -0.0011073344 0.043345314 0.01940437 -0.07584344 -0.024379957 -0.0371646 -0.022489065 0.052044075 -0.009433496 0.057282533 -0.016824873 0.040360175 -0.039757174 0.02771636 -0.06096423 -0.025877114 -0.02984131 -0.06134641 -0.02813027 0.03862097 -0.042895988 -0.0066146688 0.0116976 -0.056805227 -0.019386906 -0.05302543 0.001180363 0.010097838 0.033527527 0.063952036 0.049979776 0.01964578 0.007145541 0.035374753 0.0650427 -0.054672394 0.01286676 -0.01718088 0.027414132 0.022007953 -0.019923165 0.014941336 -0.05992128 0.004279918 0.016378669 -0.030581411 0.02419598 -0.025024248 -0.0036735032 -0.007386816 -0.020061646 -0.038529437 0.017609287 0.010317979 0.008807519 0.011101894 0.002232208 -0.004622647 0.017401513 -0.008427548 0.01669713 -0.016424783 0.007571633 0.03690642 0.014183101 -0.037736557 -0.03750174 -0.04593764 0.037779044 -0.05291887 -0.03566436 -0.07461397 -0.006938962
中华 -0.015242359 -0.050491832 0.021169227 0.05270416 0.06677484 -0.0024001414 0.059016824 -0.0028245992 -0.030720528 0.033373818 -0.0089125065 -0.0036186397 -0.020321809 -0.025298737 0.015725704 0.04541345 0.03828939 0.017627802 -0.07911344 0.07956386 0.023861954 0.022408906 -0.011227578 -0.07096771 -0.07594032 0.02647566 0.012229116 0.03152158 -0.011870135 -0.035085212 -0.00590157 -0.00844341 -0.007273031 -0.006739161 -0.024504088 0.06059449 0.048199847 -0.03869049 0.032117624 -0.040666748 -0.055243745 0.057446506 -0.01905626 -0.012162203 0.063120276 0.01805562 0.00014782079 -0.022385756 0.027698925 0.023510965 -0.011763723 0.022427239 0.026824014 0.039794993 -0.028432528 -0.013212791 0.043419674 -0.05355938 0.03250993 0.039051283 0.005720703 0.014550825 -0.0046528946 0.016178437 0.019995082 -0.013795217 -0.004477679 0.060369495 -0.04620294 -0.024512574 0.040675163 0.014265959 -0.055069275 -0.038295943 0.009145511 0.0119104255 -0.04339793 -0.024863549 0.0130183045 0.07784556 0.024357963 -0.031170806 0.031997573 0.088209614 -0.0059505617 0.055941105 0.06028544 -0.10077069 0.0014222282 0.011443116 0.00743626 -0.05238243 0.03191319 -0.036065858 0.07077547 0.07307774 -0.103432685 -0.044404596 -0.023142058 -0.05221227 -0.079132006 -0.005391446 0.031536795 0.018400067 0.015390681 0.015305739 0.02727289 0.015802033 0.043753352 -0.06324559 0.007413492 -0.069075435 0.03173959 0.031030308 -0.022750864 0.0059587685 0.048537776 0.016252356 0.0018281195 -0.012116403 -0.012979857 -0.020771233 0.052689012 -0.0050455267 -0.023359815 -0.0034433182 0.051349778 0.013621427 0.026616028 -0.0020398702 0.030298281 0.0034347875 0.013018929 -0.04811515 -0.008499804 -0.01246436 0.0008118748 0.049798377 0.092281096 -0.0075243926 -0.017581088 -0.02940384 0.058934007 0.026399959 -0.121622816 -0.028096575 -0.018456118 -0.012264435 0.0686109 0.060161836 -0.04814939 -0.079371385 -0.033671893 0.046366144 -0.09750061 0.026719319 0.061603583 0.008971114 -0.04288737 0.022167347 0.038833383 0.0089896 0.035352636 -0.033131164 0.032017782 -0.017625598 0.0014094294 0.067957014 0.030939791 0.02906774 -0.027122686 -0.01146261 0.006176624 0.041087564 -0.06893201 -0.010269238 -0.04329782 0.00584096 0.059303638 0.019817775 -0.03051846 0.0077767307 0.016692346 -0.0062445933 0.05060669 0.021974042 -0.09417531 -0.026048362 -0.03878905 -0.031083275 0.063422665 -0.012169149 0.06402008 -0.02120753 0.04292281 -0.040474907 0.036139917 -0.07082169 -0.03810425 -0.04049809 -0.07255318 -0.034366902 0.047577824 -0.054033507 -0.011864398 0.013902957 -0.073702954 -0.018771332 -0.061273467 0.0030498207 0.018675508 0.042446695 0.084956944 0.06251304 0.022998868 0.009322312 0.03672319 0.07378876 -0.067332126 0.018968146 -0.025637701 0.03685666 0.022480452 -0.03042571 0.024655076 -0.06733682 -9.1769594e-05 0.01722197 -0.03857331 0.028761163 -0.031530347 -0.004906886 -0.008055586 -0.024449617 -0.04355301 0.028021397 0.019821007 0.004329782 0.016902838 0.006747559 -0.002216651 0.02054803 -0.0039471705 0.018671442 -0.019904025 0.011033831 0.04649857 0.017778303 -0.044754043 -0.039572474 -0.0484291 0.04350437 -0.060908046 -0.039908815 -0.083743885 -0.0137791205
Ig01 -0.011146285 -0.042236887 0.020979924 0.045103915 0.05440403 -0.0058474313 0.05425405 -0.005949469 -0.026107369 0.02831092 -0.003477841 -0.0023899074 -0.016219802 -0.026640872 0.013838505 0.044905867 0.031065239 0.014306044 -0.07050947 0.0719899 0.023174053 0.017650813 -0.01244589 -0.06387914 -0.07111247 0.017892642 0.010038111 0.033204336 -0.013813108 -0.026711756 -0.0028163956 -0.011923442 -0.006331065 -0.008096768 -0.024342714 0.0539173 0.045488454 -0.02899717 0.034114942 -0.036211908 -0.04775649 0.04775427 -0.014793942 -0.011377813 0.056994643 0.016885102 0.0055093896 -0.022647183 0.022518035 0.02366679 -0.010408829 0.013674057 0.016475588 0.032841567 -0.025667742 -0.011271332 0.039806664 -0.05345156 0.02426926 0.039292164 0.002061964 0.01770502 -0.009917818 0.008806841 0.013658353 -0.013909253 -0.005938957 0.047794756 -0.04241908 -0.019716524 0.038053658 0.012681317 -0.05123497 -0.033733487 0.007238073 0.009416285 -0.034270827 -0.024168834 0.015536753 0.072882324 0.021895546 -0.023622204 0.032556187 0.07641396 -0.0078271665 0.053390246 0.046919774 -0.092109054 0.003559775 0.0037026084 0.0012467427 -0.04862679 0.027714051 -0.02894093 0.061348595 0.0652944 -0.09059816 -0.03568192 -0.022722134 -0.044205833 -0.07484468 -0.0015642216 0.030419374 0.017399056 0.01051506 0.0130814975 0.030924914 0.01079272 0.035017937 -0.05742629 0.002244505 -0.05813631 0.028674088 0.028412396 -0.016100854 0.002720035 0.042263933 0.013628411 -0.0024286688 -0.01322193 -0.008338957 -0.017492121 0.041552212 -0.0015067229 -0.020508625 -0.0023454493 0.04492356 0.011229195 0.024325594 0.0025685907 0.027951568 -0.000795616 0.012782051 -0.04486024 -0.008506475 -0.0068252357 0.0020660649 0.045000743 0.077915676 -0.0074947425 -0.019095773 -0.031220071 0.054384 0.02399759 -0.10228357 -0.023823641 -0.015771618 -0.010605218 0.056798946 0.05634606 -0.040072262 -0.07156795 -0.02945803 0.043150794 -0.08331631 0.024274299 0.05060437 0.010643748 -0.038239773 0.015234939 0.029597037 0.008106943 0.02653056 -0.029911662 0.028524138 -0.020054454 -0.0004909728 0.05902024 0.031176515 0.024865845 -0.024195189 -0.0061654747 0.004963082 0.034080878 -0.059861273 -0.009059684 -0.043961704 0.0022731943 0.05460062 0.019195918 -0.02448068 0.005512182 0.019173345 -0.006713111 0.05088017 0.022137841 -0.0796659 -0.021904992 -0.040298905 -0.024519516 0.057810463 -0.0134823965 0.056549706 -0.021625413 0.039379895 -0.040929113 0.029628465 -0.05991327 -0.030661006 -0.033840854 -0.065576844 -0.027761193 0.03684908 -0.051265944 -0.0092043765 0.012243664 -0.067528926 -0.017504036 -0.053473525 0.0039487397 0.016014654 0.03711056 0.074173115 0.05414306 0.026334858 0.01240466 0.034686152 0.06865512 -0.061212912 0.012495616 -0.025864612 0.029178625 0.019158764 -0.02665759 0.021016939 -0.059725694 -0.0034884824 0.017384907 -0.02995664 0.025734302 -0.026289476 0.0031445946 9.8193974e-05 -0.025161337 -0.039930083 0.018673819 0.011846649 0.0067662005 0.014644633 0.0047268947 -0.007608709 0.021651527 -0.009999185 0.022442253 -0.018151192 0.0048151417 0.04221004 0.01708825 -0.044649635 -0.038585115 -0.042123113 0.038610667 -0.049480606 -0.04202317 -0.076396294 -0.008251271
了 -0.012484196 -0.043451108 0.0165399 0.045494214 0.054213304 -0.0019227992 0.053155474 -0.0069207572 -0.026276305 0.02911299 -0.0063200872 -0.003734279 -0.017971909 -0.027077915 0.015081953 0.043491144 0.036229055 0.014565935 -0.06897872 0.069824055 0.02502493 0.018654354 -0.015976256 -0.06640109 -0.07180334 0.022394469 0.0058328663 0.029163517 -0.0081502395 -0.032412313 -0.0011756354 -0.010008723 -0.0083174445 -0.011928426 -0.022254188 0.055995677 0.041718207 -0.03425213 0.029789044 -0.03544116 -0.04797362 0.052682344 -0.01922326 -0.011599507 0.057646226 0.018652925 0.0044542826 -0.023791417 0.01898585 0.020544305 -0.00768238 0.015768837 0.020641575 0.03345463 -0.020184182 -0.012768584 0.040356357 -0.050314613 0.024387116 0.034018427 0.006104595 0.013682432 -0.0101169655 0.014306312 0.019214792 -0.014759837 -0.0018380807 0.050846253 -0.041254867 -0.02330404 0.03255949 0.012497522 -0.052062422 -0.031543836 0.009468711 0.01248196 -0.038033873 -0.018219331 0.01441942 0.068164594 0.020839334 -0.025427328 0.028186683 0.074039206 -0.00095773226 0.054952882 0.047230344 -0.09315985 0.0017971257 0.0070443912 0.00033670414 -0.044074625 0.024654042 -0.029466653 0.06533852 0.06432504 -0.08926378 -0.03919371 -0.024285346 -0.044154394 -0.073044494 -0.0056297695 0.032019228 0.012722874 0.014577736 0.010990621 0.024900166 0.009381742 0.039919145 -0.060211983 0.0064382926 -0.06278045 0.029933447 0.028157666 -0.016261252 0.009561249 0.03963667 0.01295888 -0.0026505988 -0.009993987 -0.007765733 -0.016439304 0.04404931 -0.0027107813 -0.022620922 -0.005128852 0.04867074 0.008704548 0.026052076 -0.002391566 0.030700568 -0.00016699913 0.012156762 -0.04867327 -0.0035100821 -0.012869349 0.004987407 0.044026278 0.084486194 -0.0067834766 -0.019096008 -0.033139177 0.057820186 0.02327423 -0.10396027 -0.026538353 -0.0123162465 -0.014542217 0.058276426 0.05661924 -0.043603163 -0.06812258 -0.028811721 0.047947094 -0.0844892 0.025668772 0.055937473 0.012099598 -0.04133793 0.020106561 0.035625484 0.010573674 0.03035018 -0.024866914 0.03087196 -0.018469037 0.0021863838 0.06341966 0.029695742 0.02912611 -0.024555925 -0.008353491 0.0049751797 0.034567777 -0.06539498 -0.0055397195 -0.041856516 0.0045445305 0.05514036 0.01255805 -0.025514215 0.0035534694 0.016376717 -0.008289687 0.04455988 0.022893792 -0.08538896 -0.024088891 -0.03888971 -0.025647033 0.056226056 -0.016936496 0.057703037 -0.023987046 0.03738806 -0.042473905 0.029633218 -0.06339242 -0.031314135 -0.03913741 -0.066417195 -0.032486923 0.03737332 -0.050562248 -0.0088024875 0.012137002 -0.06980224 -0.021211658 -0.05367762 0.0003037453 0.012296746 0.04081308 0.077388465 0.052137293 0.026422573 0.006272919 0.03629217 0.07178582 -0.060909037 0.018632678 -0.02361876 0.03143023 0.02422688 -0.028805822 0.018354662 -0.06480703 -0.00021126037 0.014056217 -0.032521434 0.021049762 -0.025361117 -0.001011678 -0.0010133227 -0.028990857 -0.042233363 0.024857389 0.0179214 0.006129914 0.01335628 0.00243189 -0.0040387455 0.016687062 -0.010303476 0.019953206 -0.020630807 0.009907219 0.037562966 0.015016708 -0.042261653 -0.038506787 -0.04628361 0.041077197 -0.05660477 -0.038782403 -0.07554579 -0.010490023
Jd01 -0.010419524 -0.038289256 0.021970356 0.04800362 0.059310984 -0.008565914 0.05532689 -0.002191097 -0.03129516 0.027419923 -0.003210458 -0.00052796834 -0.02272934 -0.024493411 0.014784727 0.043864258 0.03443277 0.0084929885 -0.063328035 0.066450946 0.02532378 0.021679418 -0.014742858 -0.0661578 -0.06602907 0.01717889 0.0058325753 0.029963296 -0.014261304 -0.026452374 -0.0011906598 -0.009077164 -0.0027442575 -0.0052093943 -0.019302683 0.05464292 0.044991765 -0.028392257 0.033954993 -0.034455873 -0.049563013 0.053305842 -0.014460548 -0.0039347843 0.05295715 0.016978145 0.0026945816 -0.017501328 0.017478403 0.023103787 -0.0061979396 0.020580439 0.018695286 0.031933773 -0.01916596 -0.014485461 0.041989036 -0.05332213 0.026874403 0.03718813 0.004270307 0.010936404 -0.007746719 0.013494089 0.016609643 -0.016427994 -0.0005630889 0.052738503 -0.04153463 -0.0149092935 0.03144995 0.014575206 -0.04408125 -0.033946194 0.0028236639 0.013093666 -0.03823781 -0.023274625 0.01002185 0.07002628 0.015422949 -0.023839785 0.026470674 0.07660591 -0.006687682 0.04784572 0.05289196 -0.092353 0.0016406585 0.0060194223 0.00096542394 -0.050052587 0.028970165 -0.03311526 0.061657302 0.058146033 -0.08738132 -0.03732013 -0.022215826 -0.044164635 -0.074066095 -0.0027349961 0.02689609 0.01421835 0.010060128 0.008349926 0.029368691 0.012155129 0.03876601 -0.055115793 0.007953976 -0.06202232 0.021936905 0.024734253 -0.02335916 0.008350981 0.045185458 0.01664272 0.0030189648 -0.005699515 -0.008314002 -0.015586356 0.0471212 -0.0043584127 -0.023674523 -0.005706901 0.044900697 0.0125479875 0.028878814 -0.0039669243 0.025506144 0.005290169 0.009811453 -0.048945744 -0.0064086155 -0.012163927 0.0015349014 0.039060514 0.07838163 -0.0014682566 -0.015559137 -0.025843473 0.057537176 0.026392998 -0.1058678 -0.022815635 -0.018707687 -0.012900783 0.060102925 0.05877213 -0.041090507 -0.07336707 -0.023730395 0.042293187 -0.08407067 0.025706653 0.05654047 0.009685436 -0.037685886 0.019740883 0.034369964 0.01318019 0.03165061 -0.027951904 0.028774448 -0.017020762 0.0035143301 0.065543205 0.028928045 0.026819734 -0.017709795 -0.0058316425 0.008157744 0.030986935 -0.061210923 -0.0027876503 -0.04235765 0.005496586 0.053412233 0.012514128 -0.022202425 0.004616611 0.018548213 -0.0013808099 0.047447763 0.019232025 -0.084153526 -0.021661302 -0.040578168 -0.020743582 0.05550493 -0.013319861 0.055408172 -0.016464997 0.040059276 -0.036928985 0.0289106 -0.064042404 -0.030393267 -0.038317345 -0.06641151 -0.034571573 0.040770203 -0.04627291 -0.0076291915 0.01701989 -0.06581723 -0.020213699 -0.052567102 0.0007691224 0.013721721 0.04120962 0.07232065 0.05527867 0.02449535 0.0072185434 0.03313281 0.07066727 -0.05751598 0.013628373 -0.02243451 0.026935821 0.022603668 -0.026176456 0.022070993 -0.06202038 -0.00033385862 0.017757107 -0.03429024 0.022535859 -0.02822616 -0.0007375363 -0.0029037446 -0.023442319 -0.039695058 0.022622896 0.014425058 0.0059166593 0.015286841 0.0032968216 -0.0063785543 0.017177647 -0.010869458 0.01557927 -0.01913952 0.00877742 0.037862696 0.009704412 -0.04431706 -0.03345865 -0.049088452 0.039293796 -0.049989946 -0.03491804 -0.07789022 -0.009790009
Dn08 -0.016134193 -0.045339584 0.02064361 0.053924978 0.06794966 -0.0067866486 0.06358867 -0.005521367 -0.031860106 0.03074108 -0.0044878353 -0.0041643623 -0.024302464 -0.02889982 0.01734989 0.051064845 0.03620382 0.00941708 -0.08279101 0.08029249 0.022977456 0.018947523 -0.011717533 -0.07443037 -0.08410295 0.022226218 0.0119628655 0.034922976 -0.014173928 -0.037059348 -0.0025835526 -0.015067261 -0.010407432 -0.0077924724 -0.028474523 0.06255479 0.050942607 -0.03271832 0.039338246 -0.04277246 -0.053336445 0.05978456 -0.019678503 -0.010750338 0.06874381 0.024123646 0.006692285 -0.02338573 0.024384787 0.029893732 -0.013704506 0.019347457 0.020487629 0.038408138 -0.029403923 -0.014260696 0.052516494 -0.0587205 0.027590573 0.038449906 0.004047601 0.015642954 -0.004305018 0.014410248 0.021585416 -0.017537726 -0.006254544 0.058813404 -0.044432465 -0.024989031 0.044036098 0.017110538 -0.059689075 -0.03988937 0.0044491165 0.011501385 -0.045673016 -0.02538125 0.015852615 0.08197487 0.025949687 -0.027015476 0.036232512 0.08798658 -0.008709304 0.06342731 0.058597155 -0.10314128 0.00086819613 0.010635058 0.0070167384 -0.058295082 0.030133393 -0.03643017 0.07174885 0.069659226 -0.10247371 -0.042080596 -0.023139223 -0.05215275 -0.08736527 0.0020160922 0.030104445 0.014933961 0.016603023 0.011147784 0.030925686 0.014315255 0.04229935 -0.0696957 0.006540645 -0.0713221 0.031132448 0.028293023 -0.020645266 0.003337487 0.05224965 0.01800368 0.00090410956 -0.014191131 -0.012749467 -0.023535276 0.050251797 -0.0016876736 -0.023235602 -0.0018402096 0.051689107 0.017587552 0.026330916 -0.0015733127 0.028448317 -0.0009097722 0.013353451 -0.05464384 -0.0076626316 -0.009837694 0.0020882594 0.048683576 0.09197366 -0.00923093 -0.0242265 -0.0342097 0.06580183 0.02871 -0.12383835 -0.029294636 -0.016674278 -0.017767042 0.069929935 0.06877356 -0.049772378 -0.082946986 -0.02948232 0.05098025 -0.09781558 0.02562139 0.06594949 0.0124817 -0.043439962 0.016979516 0.035624847 0.009760277 0.02912244 -0.0271697 0.033525024 -0.019848255 0.004828626 0.06888286 0.034391996 0.026538925 -0.026903085 -0.007842308 0.008313081 0.038871516 -0.07378705 -0.009221084 -0.048375454 0.004373168 0.06356299 0.022098195 -0.0301494 0.0049463543 0.018318746 -0.0023649363 0.05307954 0.024812732 -0.09167105 -0.027343497 -0.043541785 -0.026173247 0.06577013 -0.016727256 0.06983659 -0.021154243 0.050367765 -0.046929695 0.036831934 -0.07576937 -0.039511085 -0.043821488 -0.077468544 -0.03614648 0.044708826 -0.05506815 -0.0053911 0.022065436 -0.07296906 -0.019158972 -0.06484865 0.004991029 0.014539123 0.04062278 0.08860912 0.059009295 0.02855915 0.00893723 0.038994275 0.079688236 -0.071634665 0.020555466 -0.029750893 0.030172134 0.027467787 -0.027600287 0.025942584 -0.07084284 -0.0012970417 0.017363664 -0.036861934 0.031703956 -0.031895056 -0.002462767 -0.0040263305 -0.026174108 -0.04958024 0.02401954 0.0150512 0.008288359 0.017129777 0.007725797 -0.008163137 0.02590897 -0.009061394 0.021136165 -0.02785088 0.0063927365 0.051947676 0.017621107 -0.053097203 -0.040501863 -0.056272116 0.04042673 -0.060552865 -0.04377993 -0.08746074 -0.0094667105
c -0.009661591 -0.04582434 0.02146059 0.050303 0.060088497 -0.0026507622 0.052810613 -0.0045423363 -0.030526083 0.033621743 -0.006376974 -0.0005081113 -0.021990227 -0.029739669 0.012938535 0.04458484 0.03719167 0.009857302 -0.07330301 0.0781325 0.021313053 0.019256547 -0.011796332 -0.06929806 -0.07275084 0.021104772 0.011787118 0.030265747 -0.014972914 -0.027352566 -0.0066170525 -0.0069592264 -0.009679849 -0.0071169706 -0.024023019 0.05261029 0.044723593 -0.034124088 0.033100467 -0.039846793 -0.051331013 0.0514679 -0.02007093 -0.0050029024 0.062139954 0.018979885 0.000628311 -0.018521706 0.01887381 0.024610905 -0.0072488356 0.017060528 0.019209296 0.029168105 -0.026129693 -0.0116433725 0.045071475 -0.052179422 0.031744722 0.034163825 0.0028057161 0.015735706 -0.009846486 0.009267678 0.019720651 -0.017035177 -0.0060878233 0.057591558 -0.042850815 -0.0213282 0.037360176 0.015661996 -0.054157432 -0.03800116 0.0015991348 0.01396568 -0.04054322 -0.022078231 0.015394671 0.0713801 0.023607466 -0.023735227 0.02991371 0.078338146 -0.004900983 0.05578434 0.056440797 -0.09469109 0.0003027239 0.0058594034 0.0042074383 -0.05228362 0.027025327 -0.0363085 0.0635784 0.06634897 -0.0920817 -0.040505834 -0.018261505 -0.048852503 -0.0708562 -0.0011590467 0.031062437 0.018012669 0.013128235 0.013955622 0.029590948 0.0092216125 0.037312627 -0.06099838 0.0009201163 -0.06280815 0.028599884 0.024861878 -0.017709048 0.006279182 0.044229086 0.020340739 -0.0034448702 -0.012656718 -0.0077349246 -0.021387316 0.04948211 -0.003201542 -0.025350038 0.0014293855 0.050938338 0.010660173 0.023202239 -0.0039040453 0.029509606 0.0042309538 0.009905194 -0.047455683 -0.011030763 -0.012607933 0.0062270947 0.040335137 0.079568714 -0.0039938213 -0.021556921 -0.03430102 0.059176706 0.02898072 -0.112074986 -0.023691757 -0.0118322065 -0.009845147 0.05852378 0.062457025 -0.04450761 -0.07578241 -0.028138027 0.043553703 -0.09142252 0.025512498 0.06039182 0.0064188982 -0.041175734 0.018598039 0.033207294 0.007367727 0.031767096 -0.02851192 0.031775203 -0.016297136 0.00467435 0.068867415 0.031260822 0.023442743 -0.021610374 -0.009605732 0.009387955 0.040107314 -0.061416946 -0.010548558 -0.03889471 0.0050554127 0.054222416 0.018072119 -0.02921737 0.004429946 0.019020058 -0.0025366675 0.05133952 0.019152742 -0.08865264 -0.028616179 -0.03515265 -0.029630138 0.060659684 -0.013746135 0.06124342 -0.01708284 0.047192544 -0.038513068 0.03547396 -0.06963287 -0.028999906 -0.040792614 -0.070231915 -0.035900127 0.041839134 -0.04584875 -0.010245222 0.014708818 -0.0695304 -0.020508822 -0.05734867 0.0055833086 0.01574968 0.038242105 0.075218506 0.05501604 0.022583421 0.0109865125 0.041343722 0.074673675 -0.06492751 0.012502438 -0.02772243 0.02824661 0.02371658 -0.028803365 0.022144496 -0.060515933 0.0017009574 0.017812032 -0.030090626 0.027904093 -0.026416654 -0.0039665056 -0.0046310253 -0.023014003 -0.039627075 0.021642724 0.018278426 0.0077741635 0.015447826 0.0028273214 -0.0027990586 0.020910209 -0.011532015 0.021997951 -0.024377067 0.004858775 0.04418911 0.018280612 -0.04555474 -0.0352055 -0.04561585 0.041263267 -0.05799605 -0.037975013 -0.082716174 -0.013316814
b -0.008190989 -0.0403835 0.019440413 0.040451493 0.050557334 -0.007885851 0.043805603 -0.0045631775 -0.022287477 0.028610835 -0.008889361 -0.005267074 -0.014703782 -0.026039321 0.016594272 0.04128879 0.02414972 0.014015358 -0.056399036 0.061991125 0.02075465 0.013188826 -0.008945322 -0.0521365 -0.059538376 0.015043387 0.010364268 0.025580684 -0.011312204 -0.024431204 -0.002997095 -0.006431042 -0.0077266996 -0.0065297796 -0.020630244 0.047231294 0.04119628 -0.025992006 0.03146519 -0.034993924 -0.039520893 0.04708326 -0.016795596 -0.004901026 0.046856582 0.019837273 0.0038728814 -0.015240426 0.020455698 0.02231033 -0.009003659 0.012217907 0.017507385 0.028607024 -0.02007952 -0.015249422 0.034137867 -0.040778376 0.02767875 0.03431638 0.00047282735 0.014146838 -0.008884924 0.013827205 0.014114317 -0.010419969 -0.0046102284 0.044986036 -0.033285167 -0.015517359 0.028642355 0.01113545 -0.0420242 -0.034399763 0.0067347386 0.013608944 -0.03494307 -0.020075932 0.008223062 0.060622994 0.019926773 -0.022810088 0.022230301 0.07024828 -0.0077746236 0.046946306 0.047776144 -0.079056755 -0.002568064 0.008678633 6.210802e-05 -0.0447316 0.02783868 -0.031008787 0.04960895 0.05317954 -0.077763714 -0.03213656 -0.020684088 -0.039362717 -0.05997705 0.002688222 0.02853491 0.013530135 0.01308989 0.011060884 0.025649441 0.013344298 0.03316038 -0.05050929 0.0023672124 -0.057010856 0.026197733 0.01891934 -0.016485179 0.004397297 0.035977513 0.013423812 0.0015159624 -0.010390712 -0.012332397 -0.01715692 0.040265664 -0.0024151478 -0.0186827 0.0013113342 0.03772632 0.009438489 0.0190222 -0.0025246232 0.026228672 -0.00261198 0.006245569 -0.04462655 -0.003108743 -0.0097806705 0.0036078426 0.034479327 0.06943079 -0.0043478855 -0.01622852 -0.029804472 0.04562232 0.023078183 -0.09653803 -0.022821382 -0.013827328 -0.0066772243 0.05042517 0.05231336 -0.037334252 -0.06568635 -0.021865964 0.039432447 -0.075729035 0.019522252 0.05233879 0.003020209 -0.034941267 0.014635708 0.027644679 0.012994639 0.023783796 -0.02576377 0.022386929 -0.01840408 -0.002579372 0.0517528 0.021848513 0.021826897 -0.018321844 -0.009309978 0.008194469 0.03243447 -0.049807336 -0.008119218 -0.033489376 0.007376932 0.044157427 0.010884169 -0.024106435 0.001063431 0.01806975 -0.00017483415 0.045424275 0.013159965 -0.06992627 -0.021106767 -0.030280938 -0.025259582 0.047696337 -0.014657035 0.048815995 -0.017171202 0.04076207 -0.031973198 0.024102371 -0.054222293 -0.028669467 -0.027175017 -0.060648333 -0.023373289 0.031800713 -0.04400531 -0.00563682 0.013520927 -0.060768172 -0.015394248 -0.0480442 0.00050165365 0.013999479 0.034493733 0.06796969 0.050138462 0.017003318 0.009590908 0.033436537 0.06244475 -0.04967746 0.010436875 -0.017689781 0.026623523 0.018556375 -0.025085663 0.018614303 -0.05143029 -0.0038817797 0.017683985 -0.02735033 0.020671071 -0.023539972 -0.0013046443 -0.0010667685 -0.019524172 -0.03789715 0.023176301 0.011777474 0.0020656872 0.015730947 0.0062330505 -0.0021355974 0.020302745 -0.009015698 0.01385606 -0.018508827 0.004990787 0.03608209 0.012330445 -0.04096494 -0.030738374 -0.039435867 0.03278394 -0.04508063 -0.033513617 -0.0646116 -0.010855094
是 -0.0075150747 -0.03975674 0.019499723 0.04260524 0.05553754 -0.0040249517 0.050249748 0.00014177883 -0.03078899 0.031602252 -0.005058279 -0.0039197304 -0.0195179 -0.027151372 0.013458449 0.042459764 0.03260827 0.014444955 -0.06709309 0.070177905 0.018142864 0.018200424 -0.009231749 -0.06021075 -0.06802346 0.016181467 0.00892721 0.028387638 -0.015200004 -0.027011005 -0.0030558289 -0.0069470094 -0.0037053567 -0.0071049444 -0.024145698 0.05229528 0.042169597 -0.0327199 0.029410252 -0.034873817 -0.04404453 0.04673625 -0.019061973 -0.0070237634 0.05536684 0.017226208 0.002801406 -0.01730243 0.018193161 0.018708302 -0.0041561457 0.011988005 0.017751444 0.029066157 -0.023588916 -0.01226278 0.042278018 -0.047533035 0.028431999 0.03380479 3.884244e-05 0.013389137 -0.005718566 0.014249344 0.017858984 -0.01152145 -0.0052333097 0.045845393 -0.033848286 -0.016795998 0.035026822 0.015324589 -0.042179607 -0.036141552 0.008854741 0.008419441 -0.03545361 -0.016966006 0.008650978 0.06647195 0.015162865 -0.026722709 0.02780161 0.07118063 -0.005611791 0.050832625 0.044837445 -0.08379512 0.0047171004 0.0073220013 0.00081889343 -0.04322525 0.02275297 -0.029316917 0.05746844 0.062082052 -0.08064087 -0.036590345 -0.014813213 -0.04300912 -0.063898444 -0.004488199 0.02336721 0.013786733 0.007819416 0.009706338 0.02544337 0.011914463 0.0300696 -0.05576027 0.0014265245 -0.057570383 0.02610709 0.022881126 -0.014750337 0.0040440843 0.042997282 0.018299907 0.0032455346 -0.00864731 -0.009762574 -0.01603861 0.037302 -0.0014000329 -0.020420624 0.0012028299 0.04406104 0.0130602345 0.023557363 -0.0044233063 0.02543655 0.0027848033 0.005656599 -0.044253796 -0.0076983497 -0.011203983 0.0052669225 0.040099695 0.07616222 -0.006731646 -0.018699404 -0.025685644 0.053968582 0.025430134 -0.095928326 -0.027177252 -0.010848896 -0.013376735 0.050797176 0.056076158 -0.038006704 -0.07028743 -0.026750762 0.043934386 -0.07903193 0.023597239 0.051431622 0.0091681145 -0.03472192 0.011459985 0.027918901 0.013525615 0.026763953 -0.02667463 0.029605333 -0.012241718 0.004099914 0.058186438 0.021704404 0.022450484 -0.017062882 -0.010366298 0.011675387 0.028549515 -0.060183465 -0.008085361 -0.035648018 0.0016357892 0.05189172 0.010489783 -0.022820668 0.005175356 0.016723692 -0.00042391516 0.04645254 0.017853593 -0.07405035 -0.021657305 -0.033359826 -0.019123446 0.05006153 -0.015662763 0.05339394 -0.01967329 0.035777424 -0.037566748 0.03148738 -0.060843986 -0.026661824 -0.03122716 -0.06048009 -0.028938577 0.038821366 -0.046393033 -0.0051970324 0.017892161 -0.06286264 -0.019532321 -0.05449903 -0.00068987824 0.014189869 0.037631094 0.07183177 0.049361445 0.021787042 0.009369683 0.029116927 0.059774727 -0.05336362 0.009480351 -0.022931702 0.02566384 0.022539223 -0.024747785 0.023303388 -0.05664115 -0.0022073823 0.013905637 -0.02931976 0.02023546 -0.02028386 0.0023062096 -0.0018772898 -0.026046515 -0.040402487 0.021235846 0.012116801 0.0038619675 0.0154315885 0.0068661515 -0.0060237423 0.019530619 -0.0043499903 0.01878514 -0.015235498 0.0062080505 0.035672378 0.012279161 -0.043156005 -0.029595874 -0.04638478 0.03451193 -0.050924893 -0.03403467 -0.06898037 -0.013763767
Jd02 -0.011401641 -0.033664383 0.01725548 0.04017993 0.044832878 -0.004914513 0.039849043 -0.0008039686 -0.02676846 0.025251146 -0.006137661 -0.0059370776 -0.012532028 -0.020012585 0.008437952 0.032103516 0.025930637 0.0056742677 -0.053518932 0.05890226 0.020050468 0.012148571 -0.0075764824 -0.054660235 -0.053189438 0.016798321 0.0064307614 0.026442014 -0.010469433 -0.025832202 -0.0046609044 -0.010414562 -0.00499237 -0.009780323 -0.015625602 0.038610872 0.032951172 -0.029257387 0.022291526 -0.030383814 -0.040854614 0.03841728 -0.013154672 -0.006880587 0.047622893 0.018037992 -0.0019483183 -0.013274763 0.013974457 0.021351017 -0.0041039516 0.017125253 0.012720729 0.02669164 -0.020984005 -0.011372781 0.031454295 -0.043140143 0.02347481 0.030865343 0.00035531298 0.009006855 -0.0035625426 0.008410595 0.009221379 -0.013822968 -0.0034664038 0.045553014 -0.03386617 -0.012547194 0.030980656 0.011119831 -0.040243074 -0.028767712 0.005765187 0.010165436 -0.030903071 -0.02074258 0.013486389 0.051449 0.01248112 -0.020005962 0.024587575 0.06054564 -0.004105697 0.04227372 0.041237846 -0.06929946 -0.00043640978 0.0024582942 -0.00021439919 -0.03463547 0.021875648 -0.027855698 0.05128792 0.05414561 -0.06880114 -0.032487236 -0.017976997 -0.03612206 -0.060388327 0.0008580575 0.025497517 0.01020023 0.012884581 0.0067208926 0.024874583 0.00857599 0.030551776 -0.047392663 0.004672705 -0.046048358 0.019889448 0.017768594 -0.019560883 0.0065860976 0.036058567 0.016255362 -0.0017691851 -0.011754166 -0.0053125126 -0.016122166 0.0376555 -0.0006669242 -0.01854774 -0.0010018728 0.035809632 0.007857212 0.018072525 -0.00062233413 0.018451424 0.00068953185 0.007351934 -0.03423106 -0.005434736 -0.0057561523 0.004826514 0.032453995 0.062005542 0.0005343653 -0.01085431 -0.02758038 0.046099853 0.02334489 -0.08013668 -0.024112774 -0.012925983 -0.008938011 0.047424212 0.044723418 -0.033994064 -0.05462691 -0.019196244 0.035682805 -0.06971394 0.017169664 0.04176492 0.008106708 -0.030187432 0.012216215 0.021675779 0.0072492356 0.02545288 -0.018524026 0.024927918 -0.014597749 0.0046093334 0.050513517 0.022213988 0.023158493 -0.019606445 -0.0040659835 0.010820662 0.029466366 -0.04746274 -0.0035069755 -0.03325835 0.0010494934 0.042157523 0.0131265065 -0.02340067 0.0043609277 0.016561894 -0.006854017 0.03896496 0.018358631 -0.06914201 -0.019034054 -0.03318287 -0.023157619 0.046609096 -0.013456908 0.047147702 -0.019506983 0.029741993 -0.035432536 0.024653556 -0.049920097 -0.027669702 -0.032102507 -0.053349342 -0.026081217 0.02944889 -0.039781485 -0.004462891 0.013525022 -0.05003126 -0.012258217 -0.04390339 0.003946587 0.014664601 0.031203965 0.05979923 0.043772455 0.014716393 0.009620864 0.03058537 0.054996796 -0.0437274 0.009327966 -0.017225198 0.020177217 0.013686985 -0.01938157 0.018768433 -0.046976935 -0.0031943684 0.015292517 -0.02505821 0.021065837 -0.02065466 0.0012137116 -0.00010919269 -0.023209196 -0.03667921 0.02075992 0.010640644 0.0016247923 0.0084927 0.0042726514 0.00010997645 0.015387813 -0.0062261573 0.012423192 -0.019429049 0.0064928993 0.03274322 0.008085688 -0.03380393 -0.03254872 -0.03781713 0.032096565 -0.042539082 -0.027785141 -0.058061447 -0.009366401
华夏 -0.010716023 -0.041776143 0.023510307 0.053324718 0.061605055 -0.004053914 0.058054443 -0.004243977 -0.03236753 0.034906823 -0.005651665 -0.0052763307 -0.019767983 -0.028777856 0.019886505 0.047517307 0.035166975 0.014998558 -0.06775586 0.0725124 0.021462081 0.017152974 -0.01536174 -0.06981061 -0.07292902 0.019113163 0.013711064 0.030610189 -0.014502148 -0.03519094 -0.005949905 -0.01388974 -0.0060661593 -0.0075630047 -0.023961248 0.059142448 0.044963885 -0.035879374 0.03225231 -0.040809404 -0.051706742 0.048639998 -0.020069074 -0.00936156 0.06208998 0.015971953 0.0008652476 -0.020431064 0.0215182 0.025587609 -0.009946495 0.019207072 0.024837686 0.03030107 -0.020963302 -0.011906317 0.042966835 -0.04958173 0.025953501 0.03583667 -0.00051620876 0.020163242 -0.010039872 0.011891943 0.016406415 -0.017268863 0.00082354463 0.05194117 -0.0440658 -0.016559498 0.033908922 0.020604039 -0.052742008 -0.033733793 0.005410307 0.012139602 -0.042769942 -0.02401465 0.016454581 0.075261764 0.020834872 -0.024731284 0.032166194 0.08061577 -0.004074892 0.04928041 0.056817573 -0.0974797 3.6152505e-05 0.007895938 0.0061184927 -0.053942043 0.02914723 -0.030358708 0.059347473 0.069581114 -0.096269645 -0.035326622 -0.023998395 -0.043236792 -0.07133193 -0.0053593055 0.029779447 0.012921345 0.01663458 0.016729845 0.026665526 0.013822458 0.037654053 -0.06334271 0.004539797 -0.068448484 0.028188005 0.022485787 -0.018862978 0.008662947 0.0433749 0.016170641 -0.0038822293 -0.007972067 -0.009634004 -0.015547807 0.047247026 -0.0063264407 -0.020288428 0.0012144169 0.05218322 0.016493203 0.023185546 -0.0035574161 0.030662922 -0.0014930236 0.012526187 -0.044760734 -0.0093682865 -0.0078985095 0.0003714462 0.046564836 0.085621305 -0.0037891367 -0.02139039 -0.027745169 0.060441874 0.025172284 -0.10827687 -0.024856817 -0.016630163 -0.009942067 0.058680907 0.058596384 -0.04175558 -0.07608661 -0.029027896 0.04360852 -0.086075895 0.028397998 0.059719425 0.0109266825 -0.041448187 0.01901714 0.030493721 0.008394615 0.03362892 -0.025068207 0.028428128 -0.019790214 0.003870804 0.06566956 0.031175278 0.02391548 -0.022081168 -0.00911013 0.008481418 0.03741988 -0.0663687 -0.0052800816 -0.043266237 0.008749362 0.05391881 0.02027735 -0.027258981 0.006649056 0.015216143 -0.008232826 0.0498931 0.018937007 -0.08143642 -0.02548673 -0.04087233 -0.023153825 0.057168942 -0.017839063 0.064635135 -0.022330211 0.039768424 -0.038020365 0.034926377 -0.06251663 -0.031863388 -0.034048554 -0.06560544 -0.035302334 0.044819757 -0.05085586 -0.011527159 0.01964919 -0.07025529 -0.014590178 -0.06008871 0.0074720304 0.011921753 0.04103713 0.080788985 0.057986792 0.022946067 0.0074824793 0.033033717 0.07289834 -0.05838719 0.013385931 -0.021055955 0.033619262 0.018404907 -0.025577232 0.018951468 -0.0654567 0.00032322656 0.01421545 -0.03536653 0.021947803 -0.029320817 -0.004180903 0.00020626721 -0.022310058 -0.04215474 0.022455307 0.017184319 0.0073159034 0.0107619595 0.0025897976 -0.0036332388 0.023534708 -0.005987609 0.023623489 -0.018380195 0.008054346 0.04697389 0.018424861 -0.041181464 -0.03356323 -0.051650163 0.040893633 -0.05907678 -0.042996522 -0.0827779 -0.010378955
Gb09 -0.008124603 -0.03382657 0.017235903 0.038481113 0.04363016 -0.0013255944 0.036494598 -0.0056125945 -0.020002292 0.020652214 -0.008004196 -0.0005823826 -0.015701149 -0.02089334 0.012627071 0.035083063 0.026312951 0.009276061 -0.04687083 0.054216925 0.020150091 0.0129828695 -0.008425693 -0.04373236 -0.055813093 0.018599233 0.0077467375 0.02574593 -0.009987011 -0.023366684 -0.0059859348 -0.008885991 -0.0059783948 -0.00978722 -0.015713954 0.043517325 0.034282256 -0.026522657 0.02058319 -0.030368045 -0.03332395 0.03322782 -0.010819332 -0.004479471 0.040995657 0.017899083 0.0062491167 -0.014552885 0.017912768 0.012756049 -0.010747002 0.010944878 0.019144088 0.024812285 -0.013476085 -0.013180015 0.032352243 -0.037013464 0.0195578 0.02484256 0.003710138 0.00817086 -0.0023997345 0.011965219 0.010848718 -0.012454469 -0.005664663 0.035481166 -0.030857092 -0.0127650825 0.024145486 0.011849692 -0.04003036 -0.027979149 0.0032650796 0.006017621 -0.026696155 -0.010606757 0.011950266 0.052122917 0.0118722 -0.019982403 0.022154687 0.05627677 0.00024023787 0.03668571 0.04108989 -0.06470774 0.0019634892 0.008641127 0.00081191305 -0.03763488 0.02316465 -0.019056696 0.046965152 0.045021825 -0.06338925 -0.026522718 -0.015112764 -0.028655665 -0.051121987 0.00019079818 0.021308323 0.0076764883 0.007887726 0.010514877 0.018286062 0.0123130735 0.030894563 -0.046223525 -0.00034509395 -0.048974648 0.019593611 0.017832767 -0.015596295 0.0038803099 0.032600548 0.017126266 -0.0024496168 -0.010724158 -0.005590079 -0.015398729 0.03579059 -0.00263424 -0.018514333 -0.005652 0.030716855 0.01109177 0.020233193 0.0011707799 0.019701509 0.0015304179 0.009264313 -0.03481478 -0.009516216 -0.006829374 0.004260867 0.030521104 0.057956155 -0.004302852 -0.009770913 -0.023686444 0.04552923 0.01616688 -0.08255498 -0.022189526 -0.0126687605 -0.0071594724 0.045278464 0.042576224 -0.02544356 -0.052228402 -0.017953504 0.03359113 -0.06306402 0.02141611 0.042412903 0.01008807 -0.031379435 0.0081062885 0.02236399 0.006322478 0.019760545 -0.019673986 0.018961195 -0.0152938105 0.0050283954 0.04517255 0.018563796 0.018246247 -0.016106147 -0.01091579 0.0062673357 0.025276171 -0.04137815 -0.007957583 -0.032653138 0.0030374634 0.039853044 0.008032655 -0.020718511 -0.000116373965 0.015602412 -0.008038361 0.033743076 0.015181649 -0.059458837 -0.023067812 -0.02341871 -0.019657694 0.04016138 -0.012981137 0.040289853 -0.013383564 0.032067392 -0.027396264 0.02471417 -0.05012059 -0.02356561 -0.027967837 -0.048499968 -0.020600274 0.029554125 -0.03887989 -0.004221911 0.01441006 -0.05114937 -0.011766073 -0.042812593 0.0063917874 0.012047671 0.029153524 0.0535457 0.035450675 0.02080305 0.005730875 0.029882787 0.052019212 -0.04770316 0.010843544 -0.0154761085 0.021229504 0.020087823 -0.021392887 0.011879968 -0.04328249 -0.0011753875 0.00940567 -0.023159316 0.019953845 -0.020856673 -0.0025755665 -0.0068261493 -0.017515766 -0.03183209 0.02025089 0.010796449 0.0055727996 0.008688781 0.0074000764 -0.0027199502 0.010041669 -0.008914615 0.013930031 -0.011061826 0.0076292427 0.028643617 0.0073812325 -0.036106877 -0.025667358 -0.03845161 0.029577008 -0.039058924 -0.028729837 -0.06107042 -0.005345425
t -0.0106028635 -0.040385995 0.013908981 0.044438604 0.049603198 -0.008287625 0.04562153 -0.00083067786 -0.029571483 0.022966295 -0.0055057867 -0.007055722 -0.016311899 -0.020744117 0.016365621 0.038981605 0.028063696 0.01179753 -0.060443755 0.06453917 0.020208731 0.015050277 -0.015450245 -0.054684173 -0.05729003 0.018928314 0.004485386 0.025123976 -0.012534386 -0.023670483 -0.006489254 -0.0061533083 -0.0072130514 -0.01101355 -0.021919176 0.04768529 0.03384477 -0.02953025 0.025178723 -0.03418001 -0.041926835 0.04438571 -0.012729233 -0.0071973903 0.04753972 0.016718982 0.0044748797 -0.019381778 0.01616699 0.021952283 -0.0047668 0.011527459 0.020597504 0.022883883 -0.022085981 -0.01428046 0.036632463 -0.04309274 0.024397546 0.03391481 0.0041373675 0.011574001 -0.007912247 0.007498131 0.013438847 -0.008951615 -0.0056991507 0.046754736 -0.031784706 -0.018613992 0.027263409 0.011886986 -0.04457475 -0.03283676 0.00697 0.008029373 -0.03325485 -0.016199635 0.011991635 0.056769773 0.01493565 -0.020583477 0.026126994 0.06443635 -0.004605779 0.045126032 0.044340678 -0.07855576 0.0030942971 0.002535773 0.005286209 -0.04527572 0.022236114 -0.024575401 0.050868887 0.057339933 -0.07513911 -0.035334527 -0.017519243 -0.03967718 -0.065260164 -0.0016985543 0.027723068 0.017056845 0.008733459 0.009726037 0.021699416 0.011506158 0.032658923 -0.053860985 0.004713424 -0.056427836 0.022111915 0.022664841 -0.019211918 0.0051430557 0.0358586 0.011433624 -0.0010763098 -0.0064718914 -0.01221234 -0.01808147 0.03774303 -0.0009500814 -0.01767825 0.0017348614 0.03677215 0.014786056 0.020240542 -0.00286833 0.019818427 0.0020879742 0.008000712 -0.036311284 -0.006509948 -0.0077606495 0.0056367745 0.032609176 0.068141736 -0.005771391 -0.018686064 -0.02462425 0.04845409 0.020638531 -0.09113352 -0.025546402 -0.014424837 -0.009750494 0.0527289 0.05152607 -0.035803065 -0.06005375 -0.024835834 0.036366794 -0.07390698 0.017526891 0.04857427 0.0036018237 -0.03557026 0.012237192 0.030459201 0.009501969 0.026844816 -0.018883448 0.02259733 -0.016655678 0.004235399 0.05585019 0.02542429 0.02555626 -0.0145106595 -0.008608571 0.007714493 0.032509744 -0.048994783 -0.0017170281 -0.038387474 0.0025334477 0.04646135 0.01383307 -0.02224148 0.0068683685 0.018025376 -0.007310686 0.039742384 0.012932473 -0.06785818 -0.021220889 -0.032749202 -0.020192498 0.050038688 -0.008101124 0.053983603 -0.016538851 0.036201585 -0.031188581 0.02719703 -0.05405388 -0.030309398 -0.030111663 -0.058935445 -0.024459457 0.031987414 -0.041070312 -0.005849392 0.012518935 -0.06042755 -0.013686426 -0.04988448 -0.00049584976 0.013586733 0.032354396 0.0658719 0.04369092 0.02034602 0.007912114 0.03304492 0.05510564 -0.048649833 0.008685327 -0.02330218 0.025809444 0.017450748 -0.023279015 0.015911622 -0.051283404 -0.0036671115 0.014890598 -0.025818992 0.020865163 -0.02160429 0.0016773118 -0.0071582333 -0.024975834 -0.03336064 0.022775613 0.00864309 0.0023183783 0.010971645 0.0003625419 -0.0026119081 0.02100786 -0.008556899 0.013964339 -0.013841929 0.005971567 0.03399231 0.011064389 -0.040314924 -0.033182718 -0.04115194 0.032886576 -0.0460643 -0.029871216 -0.062771685 -0.010186515
Aa01 -0.014234088 -0.034361586 0.013767381 0.04356896 0.04990221 -0.0049261446 0.04831663 -0.0046121147 -0.026312811 0.025191171 -0.0010994312 -0.00054878014 -0.015385117 -0.019958721 0.011598054 0.041557007 0.02412573 0.0078043784 -0.060614116 0.064800605 0.018719355 0.014352631 -0.008694313 -0.058011923 -0.0600905 0.019146487 0.005109365 0.02940671 -0.009271735 -0.027865944 -0.0014350369 -0.0046679787 -0.00514919 -0.005365231 -0.021356001 0.04381612 0.04074137 -0.024663018 0.028202403 -0.033160836 -0.037908036 0.044383142 -0.011797067 -0.0065087453 0.05250025 0.013750562 -0.0013174745 -0.01722148 0.019355806 0.018621324 -0.004537836 0.011079516 0.01297002 0.029944357 -0.016104793 -0.013373481 0.033856582 -0.043855134 0.022470076 0.034251165 0.0022956827 0.011967827 -0.0066600963 0.00946398 0.010001238 -0.010250887 -0.00596803 0.042844668 -0.035868246 -0.012542333 0.03251447 0.013699155 -0.039753407 -0.030221656 0.008518867 0.009538248 -0.029564774 -0.019832427 0.015499718 0.06273358 0.018907413 -0.021479445 0.02380472 0.06048364 -0.00023237965 0.03954293 0.040274397 -0.0739602 4.549146e-05 0.009426689 6.146828e-06 -0.036565177 0.022944245 -0.030832233 0.052965943 0.051366143 -0.07335102 -0.02882825 -0.020589598 -0.03459621 -0.058438767 0.0018476128 0.021558499 0.010406557 0.0066101123 0.012889393 0.022024764 0.012907222 0.033138473 -0.045367684 0.005017227 -0.052870218 0.022212278 0.021987412 -0.020478964 0.0030492893 0.035950333 0.016675057 -0.00029279926 -0.012110084 -0.008687947 -0.012277464 0.04043848 -0.002957955 -0.02001634 -0.0034407468 0.038493063 0.00827035 0.018447276 -0.0007447756 0.023529312 0.0039524515 0.010157055 -0.035731763 -0.009049544 -0.0044835256 0.002019945 0.036113515 0.06629876 -0.005459874 -0.01548374 -0.02857901 0.05039509 0.023022903 -0.089759536 -0.020727484 -0.009507992 -0.012130249 0.05064742 0.048032794 -0.032085218 -0.06115154 -0.027692534 0.040198658 -0.071828514 0.015917338 0.046477724 0.0044797845 -0.028798897 0.011149407 0.02649619 0.008898461 0.022123482 -0.023506464 0.027653955 -0.013471501 -0.003005551 0.053176027 0.019168071 0.020130387 -0.015679508 -0.0056197727 0.0047287946 0.030222036 -0.048968405 -0.008606647 -0.035914913 0.0034541215 0.040102918 0.014076374 -0.019565796 0.004638843 0.01604191 -0.004613369 0.039986547 0.013638559 -0.06983454 -0.019100307 -0.030107837 -0.020550614 0.04953321 -0.01001748 0.047243454 -0.014308776 0.039278977 -0.037876163 0.028978065 -0.056903675 -0.026010113 -0.028295454 -0.057509545 -0.030200299 0.03041427 -0.043605447 -0.008819966 0.016608233 -0.054797973 -0.018843153 -0.042308945 0.005775763 0.015161746 0.036433354 0.059119664 0.04455963 0.020432154 0.008527179 0.03251742 0.054782066 -0.048436493 0.016409338 -0.023519157 0.028349701 0.019489435 -0.023386592 0.016834483 -0.0556415 -0.002735258 0.016179098 -0.028408619 0.024579367 -0.024294002 -0.0041702418 -0.0006395345 -0.017659415 -0.03327952 0.022453671 0.013696077 0.0033537706 0.014260322 0.0012134431 -0.0047874996 0.014747036 -0.0036628305 0.014611331 -0.015781987 0.00558581 0.034095205 0.009304532 -0.03867892 -0.03234952 -0.03834166 0.032467607 -0.046577897 -0.03133229 -0.06655544 -0.0051494585
ns -0.01211266 -0.044296738 0.018430065 0.049866475 0.055239085 -0.007924079 0.049542595 -0.0055883755 -0.03023458 0.032413244 -0.008679824 -0.0029742522 -0.019159004 -0.023081537 0.01187055 0.047092844 0.030368162 0.013415407 -0.071100086 0.07257895 0.019860724 0.016367279 -0.013721454 -0.06400204 -0.069050714 0.020834414 0.010622729 0.029684732 -0.013066929 -0.03242488 -0.0011098769 -0.007900729 -0.0022096056 -0.007287435 -0.023374844 0.05594106 0.039947253 -0.02998918 0.030765802 -0.037001885 -0.044827804 0.048793685 -0.019644411 -0.008733983 0.056979503 0.020738918 0.00021502683 -0.017736482 0.019526875 0.019528674 -0.010868147 0.017515387 0.023321917 0.034079127 -0.017789679 -0.010793653 0.039881032 -0.050188396 0.029781343 0.03824119 0.005054075 0.017843544 -0.0053387135 0.01314186 0.012487274 -0.0115453135 0.0009420709 0.04860096 -0.037800316 -0.015677143 0.03625361 0.018914234 -0.045436118 -0.03487926 0.008735647 0.015067575 -0.037629355 -0.0208078 0.017156437 0.07055422 0.01654015 -0.02636584 0.027375452 0.07563613 -0.004500133 0.046925995 0.050936364 -0.08533326 0.002032077 0.008408261 0.0045240032 -0.04340504 0.029685415 -0.029685106 0.05852106 0.06354116 -0.091825396 -0.03360306 -0.021224936 -0.039021518 -0.07487059 -0.0024316013 0.032165147 0.013609511 0.011338571 0.014334316 0.031186244 0.012468134 0.03354697 -0.052759457 0.00026263966 -0.060206965 0.027341593 0.02101595 -0.022032171 0.0024746384 0.041898597 0.019038439 -0.0035041668 -0.010629197 -0.0066254367 -0.019486383 0.044918705 -0.003603466 -0.022288727 -0.0042523253 0.048978392 0.011649944 0.028749762 -0.0014623583 0.027488284 0.0036823805 0.010640658 -0.043303046 -0.009661408 -0.0066290232 0.0031124428 0.039983567 0.08094895 -0.0001239077 -0.019307036 -0.029376063 0.055720653 0.023283212 -0.10276858 -0.02217599 -0.011989552 -0.013930839 0.05561022 0.05929972 -0.039164353 -0.07381587 -0.027419738 0.041296512 -0.08227646 0.023414748 0.05221623 0.0060193893 -0.03396583 0.018016296 0.03226025 0.010715219 0.031407017 -0.02782524 0.031248018 -0.016968781 -0.0018970267 0.057769615 0.026164746 0.028362531 -0.019808661 -0.012115152 0.008897271 0.033168465 -0.0616517 -0.0031491735 -0.03781627 0.0054253363 0.05182757 0.015889153 -0.02956813 0.0056515187 0.020570323 -0.00345959 0.047653686 0.017424785 -0.07976807 -0.028284563 -0.03485023 -0.023500733 0.053174008 -0.013041094 0.059744824 -0.019337792 0.0415198 -0.035976905 0.03152129 -0.061561003 -0.03125497 -0.03764037 -0.067259915 -0.032213688 0.040833693 -0.043145455 -0.006999199 0.013177075 -0.063288674 -0.019116214 -0.054137256 0.007108538 0.016737077 0.037037566 0.07002464 0.054296218 0.026776394 0.0126413945 0.03438123 0.070557415 -0.05488814 0.010672108 -0.019449268 0.02894976 0.018943993 -0.023583725 0.024270467 -0.06340636 0.003112574 0.013805115 -0.03490622 0.026177242 -0.026490072 0.00054286106 -0.0007103019 -0.020638287 -0.037790734 0.018192511 0.015091651 0.0031008578 0.012530115 0.008728124 -0.005956907 0.021415763 -0.009413092 0.015693722 -0.016658569 0.0085972315 0.043558117 0.015131799 -0.041748144 -0.03411194 -0.048437014 0.040123727 -0.054293483 -0.035996873 -0.077170886 -0.01068471
q -0.0075505045 -0.033793516 0.012266678 0.03460083 0.040229183 -0.00041159903 0.03967698 -0.0032274032 -0.026298743 0.021635748 -0.0068790955 -0.0015565888 -0.012591677 -0.0179065 0.016148515 0.035317674 0.02874461 0.0117274355 -0.052499793 0.056730382 0.014575109 0.012904441 -0.007952711 -0.052968934 -0.053715244 0.013353861 0.010887656 0.02439188 -0.008833786 -0.025595093 -0.0008255428 -0.011031018 -0.007803604 -0.0045413054 -0.018468136 0.0407098 0.036313225 -0.022682393 0.02800471 -0.026442228 -0.034506023 0.036084622 -0.011685589 -0.0027787096 0.043694165 0.015099781 0.00074063265 -0.016896825 0.020527817 0.018649746 -0.00541628 0.011062672 0.017805336 0.023122888 -0.019576706 -0.009303286 0.03696477 -0.041275777 0.0225002 0.027818369 -0.0011772143 0.010218679 -0.008313797 0.0123590855 0.011158398 -0.01388539 -0.002202118 0.043184925 -0.026240386 -0.019315371 0.027650148 0.011992331 -0.040005744 -0.02716815 0.0077279755 0.009021955 -0.025528133 -0.016540242 0.010138318 0.056948517 0.01870208 -0.019954849 0.022536898 0.061936986 -0.0060615307 0.042373702 0.039436046 -0.07327688 0.003527645 0.0040661385 0.004251434 -0.039940916 0.022163928 -0.022320589 0.049949244 0.046323568 -0.07273384 -0.02641216 -0.014233536 -0.03362574 -0.059406374 -0.0010391712 0.01915205 0.012715738 0.0082231425 0.009880842 0.023721252 0.011393007 0.025971688 -0.045010883 0.00054345554 -0.05007729 0.020687064 0.022556102 -0.018245202 0.0057283486 0.037075534 0.017783195 0.0027271546 -0.010854013 -0.0066746483 -0.010384031 0.03655194 -0.00292816 -0.017057328 7.889192e-05 0.038241565 0.013826189 0.018270865 -0.0041694264 0.023689928 -0.0016119101 0.008072429 -0.035559062 -0.0061916513 -0.009206131 0.0035043582 0.029346177 0.063633054 -0.0051582796 -0.016062973 -0.021742426 0.043807447 0.020900024 -0.08178928 -0.024530416 -0.0075874636 -0.01112313 0.04446215 0.047333702 -0.031250972 -0.05464833 -0.020583607 0.036236446 -0.06303603 0.022300683 0.04246769 0.0050193556 -0.02790126 0.009140065 0.027973529 0.008377995 0.024530984 -0.019416457 0.022090476 -0.012768286 -0.00030758168 0.052665215 0.023459349 0.021409977 -0.018935489 -0.010407903 0.009791188 0.028285664 -0.049763136 -0.008883742 -0.033406526 0.0046296273 0.03651736 0.0122261625 -0.019254683 -0.00053944 0.0139895715 -0.0061632325 0.035674173 0.0143253235 -0.06846247 -0.0213067 -0.031994503 -0.022177575 0.04311057 -0.009380121 0.050451934 -0.0124506205 0.02957261 -0.035491858 0.027362222 -0.0467824 -0.021060405 -0.029356953 -0.05304914 -0.026533999 0.028043026 -0.034665987 -0.0072569186 0.015831292 -0.053629085 -0.009695418 -0.044443086 0.0063030417 0.008383851 0.026641136 0.06104251 0.038356535 0.014524749 0.009138313 0.023538249 0.056702014 -0.045261633 0.0087878 -0.01691538 0.023238542 0.020821383 -0.018698225 0.014318258 -0.04939209 0.0030873735 0.010538689 -0.02132541 0.017835781 -0.022022005 -0.0028612444 -0.002155398 -0.023626195 -0.030211397 0.015488925 0.014343841 0.0030276543 0.006863106 0.0049531045 0.0004981595 0.016611004 -0.006525713 0.01643219 -0.01992425 0.0040139826 0.03089121 0.012187813 -0.036127195 -0.031189045 -0.038461585 0.031638127 -0.040364437 -0.026541485 -0.058528826 -0.0067833154
nr -0.008981245 -0.036973823 0.015818315 0.044428803 0.051776964 -0.003205917 0.046476405 -0.0041588894 -0.025586724 0.025263986 -0.009332203 -0.00031363303 -0.018114744 -0.022668432 0.01201465 0.044121772 0.029674312 0.011877445 -0.062223572 0.06538378 0.023582822 0.012743121 -0.011709459 -0.06030297 -0.05926798 0.021583071 0.005917931 0.027506858 -0.0133320745 -0.02455436 -0.00043251668 -0.008122979 -0.0010697814 -0.010579466 -0.018494977 0.046395663 0.036186703 -0.030797875 0.028728833 -0.036789313 -0.045041777 0.045831848 -0.016524116 -0.010716882 0.056437936 0.017542392 -0.0018702328 -0.019324599 0.015831118 0.024732271 -0.00850439 0.018605608 0.020467414 0.026839461 -0.024097208 -0.01556912 0.041494925 -0.046638433 0.024378931 0.03261752 -0.0014023172 0.015320269 -0.009069742 0.014921551 0.010850814 -0.010204597 -0.0034338196 0.046238426 -0.036726892 -0.01704151 0.033398453 0.015987793 -0.044853847 -0.028255977 0.0015252588 0.008832647 -0.036822222 -0.016867679 0.011771628 0.061146703 0.020084372 -0.0270818 0.027841898 0.0731989 -0.0017803318 0.04590483 0.04783788 -0.08057192 0.0057523553 0.004932428 0.00398821 -0.045202196 0.023275703 -0.02807169 0.05652992 0.05539366 -0.079735465 -0.036875896 -0.019676583 -0.04423859 -0.063012995 0.0007201929 0.025579112 0.018270962 0.011605431 0.0066516856 0.021691373 0.00956386 0.02984384 -0.049549643 0.0066688443 -0.055631462 0.023167772 0.019510984 -0.015146952 0.0029302326 0.037869845 0.012877149 -0.0015676285 -0.013025129 -0.0077993562 -0.019571349 0.042973872 -0.008527024 -0.022157293 -0.0019797164 0.039273128 0.013655956 0.021539774 0.0001638263 0.02790211 0.0025045504 0.009316502 -0.03833504 -0.0068957815 -0.00686737 0.006058681 0.03544488 0.073758304 -0.008225302 -0.016708516 -0.023570526 0.049318373 0.020400757 -0.09417816 -0.021292146 -0.011151452 -0.013533903 0.05598512 0.054661054 -0.038623165 -0.06589581 -0.025389357 0.037166752 -0.077180624 0.02578279 0.04917098 0.004129323 -0.036349956 0.0112232175 0.030116662 0.011919518 0.026412198 -0.026165195 0.03060705 -0.019327272 -0.00090426154 0.053231828 0.029112313 0.02257918 -0.021250585 -0.011631122 0.011885649 0.030707618 -0.058332518 -0.0042321114 -0.040229037 0.008723667 0.05028483 0.012634202 -0.025551459 0.004795809 0.011454257 -0.002347227 0.04520534 0.020596359 -0.07886207 -0.023430053 -0.03642899 -0.019506512 0.054340903 -0.01269769 0.05136505 -0.016772015 0.03812117 -0.035685718 0.025012743 -0.057300758 -0.028684715 -0.029481934 -0.06173561 -0.030359954 0.035467103 -0.044131033 -0.0040740324 0.014122636 -0.06115574 -0.019722091 -0.0541266 0.0044501335 0.012268603 0.030699063 0.07027551 0.052402243 0.024150318 0.00674204 0.031950127 0.06609435 -0.057343327 0.00996395 -0.02504892 0.028127696 0.014988179 -0.022595119 0.022741606 -0.055413347 -0.004754207 0.018727262 -0.026728068 0.018585626 -0.020333584 0.002248799 -0.0008663192 -0.024942571 -0.03480275 0.017870964 0.009487547 0.007867974 0.009389981 0.0036529656 -0.005979992 0.015078144 -0.007090169 0.017997297 -0.018016102 0.009468631 0.03911418 0.00885291 -0.042744346 -0.03415112 -0.042778414 0.031640787 -0.045160517 -0.03300017 -0.07296617 -0.007775253
Di01 -0.009634369 -0.035241872 0.014873575 0.03864216 0.04143419 -0.0055101095 0.039233923 -0.00076128566 -0.020210363 0.01928398 -0.007819134 -0.0024199109 -0.0132160885 -0.018266791 0.012935946 0.03315597 0.024191963 0.010913598 -0.051822998 0.056166023 0.017929543 0.016857022 -0.011738778 -0.04656804 -0.051390838 0.013450811 0.010727034 0.025606638 -0.006836543 -0.024065131 0.00051094807 -0.0053973645 -0.0050964262 -0.0057356837 -0.0140921865 0.0442255 0.033895966 -0.023147358 0.023292178 -0.030995851 -0.038971793 0.037157644 -0.014735488 -0.005083374 0.04345709 0.014323413 0.0046061547 -0.017421622 0.018788166 0.020218838 -0.0041520675 0.013614041 0.015599076 0.024978038 -0.019737024 -0.012860304 0.03185122 -0.038397726 0.02229791 0.025497673 0.004115199 0.010332755 -0.0017175019 0.008342639 0.010260794 -0.010008588 -0.0028456412 0.03867505 -0.031304605 -0.011476883 0.023213992 0.014067484 -0.03809233 -0.022597933 0.005633726 0.010834935 -0.029853402 -0.016241066 0.0079132095 0.051945165 0.01759045 -0.02379092 0.022979097 0.059255045 -0.0006660616 0.037239507 0.041194756 -0.072201215 0.0013064094 0.008570633 0.0041987 -0.03858037 0.019446164 -0.027186379 0.045916993 0.050061073 -0.071287 -0.02622174 -0.017229106 -0.030911407 -0.05212797 -0.00032788847 0.02109667 0.007659863 0.00721552 0.009684213 0.016887771 0.013629032 0.029561447 -0.04381566 0.006552191 -0.048899934 0.020395493 0.019092087 -0.012176608 0.005326054 0.030979786 0.011358921 -0.0033639553 -0.004574698 -0.005632456 -0.010839176 0.035855368 -0.00774716 -0.011673791 -0.0048881886 0.035315853 0.009638167 0.022364596 -0.003630575 0.02191033 -0.0012521537 0.008407372 -0.031483617 -0.009400488 -0.0034655766 -0.0012856966 0.03487151 0.05711123 -0.00596125 -0.016026374 -0.019940773 0.04031 0.019536613 -0.08344205 -0.015992317 -0.010366208 -0.010515729 0.042511072 0.045969773 -0.028518636 -0.05818516 -0.019068452 0.031375945 -0.0625913 0.021402735 0.0414244 0.0059422455 -0.026071435 0.010243416 0.025451489 0.009702204 0.017708056 -0.021265551 0.025187282 -0.011739602 0.0047007008 0.046322376 0.024231482 0.015935265 -0.013702242 -0.010030326 0.007289301 0.029983835 -0.04740846 -0.0021203056 -0.0347095 0.0034522875 0.041192595 0.009741567 -0.016724693 0.00014034107 0.01296794 0.00029060963 0.03924564 0.015217758 -0.057658724 -0.024031073 -0.028907487 -0.018008599 0.040237103 -0.008091904 0.048098568 -0.017119857 0.030233648 -0.025858734 0.020571986 -0.05130969 -0.023601657 -0.030228317 -0.048638124 -0.022539549 0.02672188 -0.03614434 -0.007644693 0.010777354 -0.04881235 -0.011711662 -0.042424794 0.005783735 0.010755607 0.031610414 0.05714054 0.04306302 0.021333365 0.0051853503 0.027057584 0.050006628 -0.043166883 0.008138118 -0.018267047 0.02543395 0.014479646 -0.017761149 0.015614957 -0.04538213 -0.00020946012 0.009057732 -0.020767482 0.020872856 -0.023087043 -0.0034879604 -0.002235029 -0.018745966 -0.031848274 0.020755613 0.0070508295 0.0036678794 0.013342076 0.0033964145 -0.0054605505 0.018092614 -0.0024794724 0.012427764 -0.018020475 0.005387672 0.03483698 0.009713814 -0.030194918 -0.028087188 -0.033122648 0.028298892 -0.038376424 -0.024871765 -0.061270468 -0.0060672457
