349 256
n -0.0006614881 -0.009205251 0.0004243455 0.01231533 0.011462563 -0.005150369 0.009300365 0.00456996 -0.004803615 0.008159526 0.0010094291 -0.0020416002 -0.0026449913 -0.012103642 0.003146098 0.013246943 0.010917022 0.013339224 -0.014347628 0.016631503 0.0047036423 -0.00075079664 -0.0017333466 -0.008496767 -0.011287993 0.0038674583 0.0011821024 0.0039144666 -0.012209112 -0.0052446485 -0.002434066 0.0012385253 0.000912659 0.000989416 -0.0071708336 0.01524993 0.015308455 -0.012315636 0.006963513 -0.0071119396 -0.022210712 0.013947746 -0.010673256 -0.0090927705 0.0117886 -0.003166037 0.001952829 -0.0029873352 0.0066797305 0.00817738 -0.0013150346 0.007144308 0.005931604 0.0016733069 -0.00488989 -0.0053530843 0.010486634 -0.009274328 0.006397663 0.012284948 -0.0001208433 0.0076362956 -0.0029718152 0.0022175475 0.007806217 -0.0030079354 -0.0028223572 0.01689796 -0.002946553 -0.0050203954 0.012502561 -1.3926068e-05 -0.008778849 -0.018565005 -0.000517389 -0.0012096855 0.0031103638 -0.006637395 -0.004776376 0.020833777 -0.0026107493 -0.0069926884 0.007736206 0.023790242 -0.0060149613 0.008827281 0.01788623 -0.021868736 -0.001097304 0.000115820636 0.003562794 -0.007412486 0.007119638 -0.010618338 0.013387028 0.014079239 -0.019799875 -0.016000807 0.0009968658 -0.0077662705 -0.017985092 0.0026091395 0.00896789 0.008876156 0.006439604 0.0068272073 -0.001273513 0.005068281 0.008340611 -0.014703736 0.008157592 -0.01420092 0.0017412795 0.006294305 -0.005149047 -0.00019299632 0.009513847 0.0074031884 -0.005145874 4.2334348e-05 -0.0033695493 -0.012174047 0.0030386827 -0.009221249 -0.0036448115 0.0010113285 0.0070571746 0.0021874167 0.006223267 -0.0018535862 0.012710236 -0.005699917 0.0025741926 -0.012267954 0.002301186 -0.0018395121 0.0068738316 0.013960288 0.02088245 0.0026124066 -0.0008768495 -0.0057653403 0.008933028 0.0060495012 -0.01968842 0.000690771 -0.006886602 0.0038508526 0.015008134 0.014735903 -0.009999618 -0.019184345 -0.009248059 0.007112058 -0.025416398 0.014632086 0.012240505 -0.00020320054 -0.017542468 0.0037219126 0.0010530803 0.0075988024 0.0066945213 -0.002783297 0.012188384 0.0052907304 -0.00027519846 0.010424485 0.0114920065 0.0020393706 -0.0051328563 -0.0032839235 0.0032728107 0.001421408 -0.012597361 -0.0020183094 -0.012479538 -0.0010082448 0.020601109 -0.0010030979 -0.0037219685 0.00070910016 0.0060123694 0.0017615731 0.014685365 0.007480792 -0.02178295 -0.011818296 -0.007334387 -0.0020873402 0.015349958 -0.00581579 0.010617286 -0.0077548027 0.0016022751 -0.008682338 0.0069950847 -0.016033709 -0.015533271 0.00027204986 -0.015721848 -0.005761646 0.0020565824 -0.012060204 0.0010245334 0.0027998707 -0.015119502 -0.0062651634 -0.016888581 0.0019489304 6.799449e-05 0.005485419 0.02110393 0.0150920125 0.004509784 -0.0006872183 0.012853448 0.020556891 -0.01920381 -0.0018896967 -0.007853534 0.0026597446 0.003170978 -0.0128682135 0.0085905185 -0.014957052 0.003613345 0.0049751345 -0.005988472 0.0005208592 -0.0071857683 -0.0029867706 -0.004160004 -0.005640499 -0.00868327 0.008652767 0.0008273646 0.00039494215 0.005454538 -0.0078729335 -0.009589409 -0.000111229114 -0.0030257518 0.007177209 -0.0066401726 0.0037641027 0.006435872 -0.0017863733 -0.009230005 -0.007825896 -0.009137033 0.011628666 -0.009582721 -0.012417062 -0.026945662 0.00037509526
v -0.0012973581 -0.010111663 -0.0042530107 0.0064026816 0.015849087 -0.0034048012 0.009703171 0.0014793321 -0.005626154 0.01277377 0.0011211579 0.00083900563 -0.0032316593 -0.011252566 0.006224 0.01499442 0.010995318 0.012669984 -0.011481225 0.021915782 0.005465588 -0.0008525119 -0.005243559 -0.0081255 -0.012023994 0.0015288339 -0.0019025247 0.0012503078 -0.008270021 -0.0056139193 -0.0013542551 -0.0014555405 0.0008952678 0.0035391727 -0.0075820554 0.01693496 0.0147596905 -0.0110520795 0.009471076 -0.0029267995 -0.014690667 0.011216006 -0.0033430182 -0.0097416965 0.007566973 0.0006290298 0.0045979517 -0.007255613 0.0062951394 0.002593478 0.003068397 0.007709359 0.009247879 -0.0017454186 -0.0038801858 -0.0014942369 0.009680073 -0.008696678 0.010590563 0.007210079 0.003895223 0.0046753595 -0.004702368 0.0076241153 0.008437728 -0.004636826 0.0015286548 0.017489482 -0.0058008865 -0.004513367 0.011918322 -0.0016902302 -0.0067193066 -0.013502778 -0.0016768349 -0.0027350956 -0.0029128438 -0.0066049774 -0.0019610862 0.025959713 0.0014560822 -0.009903028 0.0015947093 0.023068557 -0.0020598595 0.009683803 0.01678809 -0.019549562 0.0030773277 -0.0014131845 0.0037698557 -0.0075638737 0.004277189 -0.010926185 0.01050563 0.011289884 -0.018650286 -0.015913768 -0.0016790098 -0.009544552 -0.01265818 0.004824698 0.008614128 0.004282215 0.003319944 0.010585287 0.001438793 0.0017936865 0.010477138 -0.0136262495 0.0075734933 -0.006808665 0.0025948146 -0.0006311444 -0.0038822542 -0.0043239766 0.006043651 0.008120531 -0.004097461 -0.0019625695 -0.0059482837 -0.0066844686 -0.0026157866 -0.0041246777 -0.008079346 0.0022698496 0.010101282 0.0015507002 0.0058049536 -0.0052052797 0.011686536 -0.0015953964 0.0016524703 -0.013179354 -0.0023 -0.0035194359 0.003685152 0.009911662 0.0197595 -0.0010680767 -0.0013686224 -0.0055847387 0.0107225645 0.0036969092 -0.019928345 -0.0020306322 -0.011250539 0.0032094065 0.01474856 0.015123763 -0.011677565 -0.013426347 -0.010104988 0.00839168 -0.025580432 0.012185373 0.0047320724 -0.0017370093 -0.017838942 -0.001347795 0.0028811176 0.008064334 0.010249643 -0.0028400582 0.010274729 -0.00038690984 -0.000106189014 0.015602971 0.0065159975 -0.00019613418 -0.0032810103 0.002440822 -0.00237558 -0.0007163583 -0.008834908 0.0015715737 -0.008398463 -0.0037714345 0.020540806 -0.0023193052 -0.0009867375 0.0007306538 0.0033526053 0.0046559405 0.013790532 0.0052668615 -0.024370903 -0.003782573 -0.005378996 -0.002965861 0.015033311 -0.004864013 0.010912404 -0.0072299563 0.0038235046 -0.0074915197 0.008574112 -0.015759993 -0.011429691 -0.004464263 -0.018424667 -0.010302447 0.003993354 -0.013194481 -4.661112e-05 -0.0024064786 -0.011900865 -0.006412276 -0.013862631 -0.0009512075 0.005624606 0.009924747 0.014429304 0.017445352 -0.0007649345 0.0038946013 0.008706973 0.016891047 -0.013466741 0.0029115377 -0.0055835815 0.007665684 0.0073109725 -0.01268414 0.002081999 -0.014801316 0.0014194025 0.0014059332 -0.0059653856 -0.0045347335 -0.005494787 0.00071596954 -0.0047864164 -0.006008018 -0.0037036096 0.0071747466 0.0030440618 -0.0026746166 0.0055892146 -0.010111811 -0.004639771 0.0009855024 -0.0021854038 0.005129173 -0.011100414 0.002731849 0.0049412674 -0.0040218406 -0.010720308 -0.007406506 -0.0072775614 0.013318309 -0.008946774 -0.01141482 -0.023651531 0.0014657775
u -0.0032112696 -0.010854695 -0.0023895493 0.0035338413 0.009393761 -0.0038651587 0.00442057 0.0002097404 -0.0057609747 0.0072925272 0.0017151473 0.001871423 -0.003302632 -0.012949199 0.0051351115 0.0070152557 0.008345865 0.012559158 -0.0063125384 0.012518385 -0.0004575284 -0.0050490913 -0.0035332686 -0.0032601282 -0.0082517965 0.005922459 0.0030662876 -5.688631e-05 -0.0034847374 -0.0058624498 -0.0024497474 0.0005585161 -0.0023269118 0.0014306997 -0.0050414857 0.015208886 0.0091209 -0.008521053 0.006291819 -0.0072589796 -0.011328731 0.01259685 -0.009444678 -0.0048091365 0.013185654 -0.0054307305 0.0009488666 -0.008516791 0.0067700003 0.003353521 0.005168767 0.00086459744 0.00743979 0.0020433483 -0.006184714 -0.0016386517 0.0038766859 -0.008902746 0.00692589 0.009184507 0.0034572927 0.008101984 -0.0014748491 0.0072656395 0.00273125 -0.0018902012 -0.001784063 0.012948682 0.0014312805 -0.00695215 0.010217511 -0.0064632413 -0.0067542694 -0.014858473 -0.0036910726 0.0025568667 -0.0007236043 -0.003521752 0.00067620847 0.022343734 -0.0049284413 -0.0074609797 0.008234137 0.018150121 -0.0034377452 0.002950822 0.01316804 -0.018044591 0.0033788893 -0.0037422539 0.0019826174 -0.0052297865 0.0043119113 -0.008027501 0.009850149 0.009503412 -0.01371072 -0.010893726 0.0029218562 -0.00746561 -0.011459179 0.0045371633 0.003434651 0.004604897 0.006344667 0.009842907 -0.000574423 -0.0016409213 0.007742047 -0.010402843 0.010269164 -0.007907792 0.0036903396 0.0037178188 -0.0057263924 -0.004502564 0.005649737 0.0027928061 -0.00018570069 0.0035575505 -0.003437267 -0.006847044 -0.0028397338 -0.0035326618 -0.007617458 -0.003488821 0.0046428023 -0.0031530706 0.008192742 -0.0058305506 0.010046302 -0.005880781 0.0034641502 -0.0040243315 -0.0026786735 -0.0063951598 0.0017650112 0.008045602 0.013160908 -0.0043257694 -0.0065249926 -0.0012329522 0.0063836263 0.0014108579 -0.015098596 -0.0052797454 -0.009850168 -0.0002676764 0.010898411 0.008965506 -0.0075314487 -0.011329209 -0.008439943 0.0069962176 -0.021788888 0.0068346285 0.004019907 -0.003862534 -0.01405056 0.0029027846 0.002288589 0.006794434 0.009226308 -0.0034704704 0.010117379 0.004980266 -0.0037585143 0.0125197265 0.008856481 -0.0031193872 -0.0054750224 0.0011714228 0.00039503226 -0.003373141 -0.005943915 -0.0016882417 -0.009809016 -7.872948e-05 0.013460489 0.00042740532 -0.001392006 -0.0007647154 0.0028677117 0.0036757574 0.014206108 0.004411868 -0.017870152 -0.003832548 -0.0033973376 -0.0019338496 0.014907232 -0.0009464924 0.005759723 -0.0036886195 0.003607058 -0.00906478 0.001648277 -0.014292167 -0.009279697 -0.0011389888 -0.010520479 -0.0065361657 0.003603855 -0.007850567 0.00036699194 -9.432026e-05 -0.0132562155 -0.00929526 -0.01050137 0.0021394629 0.0021281012 0.0016875247 0.01038263 0.014187516 -0.00025224875 0.0038510843 0.0057863677 0.016266206 -0.014736171 0.0012857611 -0.004269211 0.0009602068 0.0023858876 -0.007872568 0.0021891554 -0.010592752 -0.0028203402 0.0032801798 0.00095014775 -0.0018126143 -0.007590475 0.0013528178 0.0026071307 -0.0058924966 -0.0067558 0.0062872055 0.0043558446 -0.00044666993 0.00035366009 -0.0063937614 -0.001968468 -0.0036545955 -0.004161844 0.0069322386 -0.009921316 0.0032699192 0.0047156434 0.0022738965 -0.0023493941 -0.0067176824 -0.009085808 0.013337453 -0.004328359 -0.004722681 -0.021935472 0.0056976955
的 -0.0008730431 -0.006879554 0.00040391248 0.0040454557 0.009211436 -0.002080708 0.0017629786 0.0014008101 0.0019360066 0.0027679757 7.788513e-05 -0.0038219301 -0.003099768 -0.0074227196 -0.0010971662 0.007850589 0.005576143 0.0054127024 -0.0035565114 0.01388728 0.0043168776 -0.0021842183 -0.0014108829 -0.0058679753 -0.0101269465 0.0050163777 -6.164372e-06 0.0005319175 -0.005347566 -0.0035474855 0.0019157669 -0.0007926886 -0.005219675 0.005311502 -0.0013828097 0.011399811 0.00848055 -0.0037335758 0.007278815 -0.0043872367 -0.011820771 0.0075107343 -0.0022051765 -0.0059544626 0.0095269475 -0.0030021186 0.006124387 -0.0029752988 -0.00036430667 0.0015261114 -0.002110546 0.0014614419 0.0040673018 0.0042855176 -0.00044821584 -0.0044504404 0.0055716783 -0.0023829374 0.0027939312 0.0005187496 0.0007206901 0.00049740134 0.0019467486 0.00026658378 0.0062391344 0.0019380746 -0.001260304 0.009062759 -0.0016833381 -1.9695071e-05 0.006682366 -0.005192297 -0.0048465505 -0.006023244 -0.0011325214 -0.0011624574 -0.00044077876 -0.003653109 -0.0016951469 0.013519338 -0.0028077387 -0.0054110494 0.0027986006 0.01020023 -0.0019084701 0.0019548389 0.009158877 -0.010779624 0.00090024713 -0.000936283 0.0038419557 -0.0064672907 5.570229e-05 -0.007179625 0.008362957 0.0052339165 -0.011692947 -0.0066281282 -0.0014319262 -0.002758019 -0.010899387 0.0016926025 -0.00031672468 0.0036535503 0.0039724153 0.0073096575 -0.0038730127 -0.001169529 0.001891585 -0.009048647 0.00026413382 -0.0061320555 0.0015995915 -0.0011230349 -0.0005926319 -0.0010880063 0.005644586 0.0028921051 -0.001536727 -0.0028167083 -0.0029867932 -0.003623277 -0.0022256367 -0.002115449 -0.002007412 -0.00066858035 0.008359209 0.0035166952 0.004226614 0.00066848844 0.006576208 -0.004076327 -0.0006403177 -0.0074191936 -0.0025433463 0.0018461494 0.0012635093 0.002895919 0.0066576414 0.0015187617 -0.0029760576 -0.0030315535 0.006752684 0.0019236926 -0.00957894 -0.0007462715 -0.0056658858 0.005349536 0.00857354 0.002859348 -0.0041013043 -0.010271713 -0.0042230384 0.004518571 -0.014081828 0.004802474 0.0074102404 -0.0030683274 -0.011305241 0.0039956314 0.001306241 0.0013171508 0.0074903136 0.0013060403 0.006959658 0.005152031 -0.0051098787 0.008223188 0.004995858 0.0013494315 -0.001154444 0.0019234312 0.0024570923 0.001853676 -0.007296327 -0.001489002 -0.004904654 0.00095064135 0.007843868 0.0026331965 0.0016141857 0.0026682678 0.0030749615 0.0051984945 0.0064118044 0.0072416244 -0.009269468 -0.0069871475 -0.0056842314 -0.0010288084 0.009035377 -0.0027981577 0.0036793554 0.00063460047 0.0049951873 -0.005295343 0.00022459446 -0.009245873 -0.0077658566 -0.0044483254 -0.0071375566 -0.0050237603 0.0034356867 -0.0032813672 -0.002560154 -0.003887418 -0.0061711683 -0.006326207 -0.005774665 -0.0017280213 0.0038215038 0.0034965249 0.009819877 0.006125445 6.119853e-05 0.0039196033 0.005959573 0.005720012 -0.01082465 0.0005525185 6.958519e-05 0.0043098717 -0.001235576 -0.001227998 0.004357019 -0.003428015 0.004222398 -0.0014371905 -0.0051315194 0.0019736276 -0.0007846409 0.0013103294 0.0021283636 -0.0029564863 0.0006270083 0.00083794125 -0.0026885858 -0.0030014052 0.0007304168 -0.0015988908 -0.005120136 -0.0035838226 0.002122523 0.0007872442 -0.00071427476 -0.000964708 0.004489183 0.0015151906 -0.0026350187 -0.0045708623 -0.0035369399 0.003065434 -0.0043368805 -0.005689182 -0.008574228 -3.5596146e-05
-1 -0.0029616728 -0.0038175539 -0.001212738 0.0037094674 0.01175649 0.00027117945 0.0024930926 0.00086019357 0.0018169509 0.008826731 0.0012199847 0.0010147236 0.00045308066 -0.009439227 0.000462058 0.008319977 0.005284897 0.007559902 -0.008983457 0.015113837 -0.0016506682 -0.004455971 -0.00360972 -0.0058132373 -0.011195436 0.0034342406 -0.0013257419 0.00041117336 -0.008579323 -0.0014132676 0.0016221533 0.0010479175 -0.0038105873 0.0015193804 -0.00089952536 0.0109699825 0.0036703777 -0.0074118874 0.0050022677 -0.0023745468 -0.014637226 0.008986659 -0.007747571 -0.007336359 0.008347961 -0.0032303038 0.0043371744 -0.0006356431 0.0015025315 0.006372677 0.0018774823 0.0070028245 0.0067993817 -0.0028360886 -0.006229998 0.0004520091 0.0073605217 -0.0005214178 0.0074451654 0.008279607 -0.0035351326 0.0061623706 -0.002878671 0.004531628 0.007279245 -0.0006778839 0.001379627 0.009343085 -0.0016648032 -0.0011313602 0.0039649853 -0.0020462456 -0.0010958868 -0.011113161 0.00012351118 -0.003981595 0.003805742 -0.00044610354 -0.0017910467 0.01649663 -0.0007417305 -0.0074165757 0.0027549444 0.014974897 -0.003891252 0.0031752626 0.011217609 -0.010843784 -0.00068735704 -0.0027212324 0.004082973 -0.0066921166 0.0023097997 -0.0090507995 0.0040362165 0.003765515 -0.011408406 -0.01122585 0.0009171249 -0.009557702 -0.012480016 -0.0024755304 0.0013829079 0.0065438445 0.0035787395 0.0056914636 -0.0021508588 -0.0014910325 0.005804062 -0.0071438667 0.005032062 -0.0061449776 0.0026202337 0.0019809776 -0.0071088583 -0.0042394483 0.00079431164 0.0022059546 -0.001434563 0.0028830834 -0.0032543172 -0.007069789 0.0034054806 -0.0031297426 -0.0048703216 0.0032369026 0.00639638 -0.0018042446 0.006701382 -0.0009494858 0.002522838 -0.0024119734 0.0020014765 -0.0037240568 -0.00030559805 -0.0030012205 0.0032931333 0.007155501 0.010659661 -0.0017229053 -0.004746446 0.0011492667 0.010447762 0.0069152284 -0.01448109 -0.0004394699 -0.0068177194 0.0062692678 0.009772674 0.010116632 -0.0068077673 -0.0065067257 -0.007694996 0.006615644 -0.015899163 0.0048476052 0.004336147 0.002107642 -0.013013211 -0.0006111873 0.00542012 0.0037590521 0.0027090157 -0.0031351342 0.009832048 0.004365979 -0.00014416949 0.006374856 0.001285764 0.0009573628 0.00060010684 -0.0021313624 -0.0022829482 -0.0018724385 -0.009245946 -0.0004628321 -0.0064888233 -0.0019887404 0.014753494 -0.0034564305 0.0018134075 0.0016053184 0.001757685 0.006173803 0.012305347 0.0028449397 -0.01560804 -0.0073799547 -0.008080981 -0.0013652217 0.0065613235 -0.0063966834 0.006060416 -0.001683087 0.0040784096 -0.0068396004 0.001310512 -0.008537962 -0.006821277 0.0024532052 -0.009330869 -0.0015445796 -0.00038553544 -0.0034642785 -0.0019817892 0.0033810935 -0.011167235 -0.0036286523 -0.0076879016 -0.00028100365 -0.0007874365 0.00036253728 0.007535154 0.005884584 0.0016995346 0.0013171397 0.0058059837 0.012718767 -0.010379635 -0.00032328154 -0.0064833695 -0.001139087 0.006392477 -0.007931763 0.00085889595 -0.0056925947 0.0027932548 -0.0009523719 -0.0015815872 -0.0030542025 -0.0048473882 -0.0017174468 -0.002081939 -0.0018974288 0.0003231599 0.008435899 -0.0030828787 -0.002835882 0.0059707733 -0.0036760971 -0.0061029987 -0.00032151493 0.0021250937 0.0021507938 -0.008633592 0.0018941136 0.005875612 0.0021844297 -0.0029165968 -0.0066378876 -0.005912256 0.007611274 -0.0020885963 -0.008720729 -0.017156158 0.0017749469
Ig01 -0.0037899932 -0.004741662 -0.0016146332 0.010716502 0.009581759 -0.0017255654 0.008327844 -0.0007192496 -0.0042280145 0.008142508 -0.0004598678 -0.002148126 0.002095162 -0.014334218 0.0051769423 0.011054987 0.0110854935 0.012320972 -0.005841139 0.018902399 -0.00249943 0.0018623195 -0.0065063164 -0.007946253 -0.012522934 0.0021171689 -0.0021595675 -0.0019010826 -0.009012816 -0.0034129354 -0.0016759434 0.0038192614 -0.0056674425 0.0005869088 -0.001046906 0.01498778 0.012370597 -0.0062573287 0.0052762376 -0.0064667705 -0.011907551 0.010202214 -0.0025083676 -0.0033546211 0.012199045 0.0010007735 -0.00028157313 -0.008132139 0.0041855103 0.006109158 0.004625514 0.006283838 0.008793141 -0.0009916323 -0.003755184 -0.0042040427 0.0031732619 -0.0016264456 0.006538173 0.0058250725 -0.00065387716 0.004147714 0.0005873471 0.0058182133 0.0052156113 -0.0061895275 -0.0033506325 0.011241576 0.000824507 -0.0055477642 0.008004533 -0.002207743 -0.009266332 -0.010659966 -0.0020703177 0.0001194755 0.0019243618 -0.0053211134 -0.003967347 0.021855082 0.00019984678 -0.0037190258 0.0061243637 0.019605804 0.0001445554 0.0059155957 0.015316405 -0.013329997 0.0022953008 -0.0025369015 0.0013280985 -0.007288042 0.0012202647 -0.007106753 0.01101653 0.012909502 -0.013208552 -0.0078405645 0.0018830675 -0.009548952 -0.010452657 -0.0011155135 0.008655131 0.0072313286 0.0040836125 0.00880648 0.002332936 0.0049281646 0.0069813738 -0.012188217 0.009792663 -0.005636243 0.0036575755 0.002162705 -0.0074617877 -0.004191201 0.008873376 0.002309782 -0.005390656 0.0038980069 -0.0001773241 -0.0043425323 8.078857e-05 -0.0075643854 -0.0014548022 -0.0015303144 0.009099355 0.0020221567 0.009095335 -0.007173286 0.010358571 -0.0067056348 -0.000449141 -0.011376691 -0.0017374336 0.00035656514 0.0069127805 0.007692015 0.014770727 -0.0021531119 9.075573e-05 -3.4642293e-05 0.009651924 0.0035129988 -0.017121645 -2.3462595e-05 -0.006361655 0.002040887 0.014069056 0.009332934 -0.013682898 -0.012808575 -0.0069891503 0.0018468987 -0.02156384 0.00532825 0.010419568 0.00075299316 -0.013279747 0.0031141907 0.0066596013 0.0046726256 0.009200484 0.0010065224 0.010332725 0.005309217 -0.004467182 0.008983782 0.0066708406 0.0012282742 -0.0016255687 0.0020962004 0.0027689699 -0.0043121693 -0.010752408 -0.0024456037 -0.0036680733 0.0017714889 0.0145219555 0.0018626715 -0.003185377 -0.003215298 0.0043743667 0.0058137374 0.012518383 0.008976277 -0.017904278 -0.007493878 -0.006413362 -0.0014896439 0.00929319 -0.007295392 0.009951984 -0.0041047973 0.0011771361 -0.010625217 0.0074748956 -0.011205066 -0.008337367 -0.0001279431 -0.015179476 -0.0047413423 0.0046893354 -0.012402849 0.00036831273 0.0010549765 -0.007649472 -0.003586252 -0.0115937935 -0.003133147 0.004258071 0.005948767 0.015496663 0.0140118 0.001944278 -0.0012432536 0.008352155 0.016271487 -0.014540639 0.003713732 -0.0066022603 0.0051459842 0.004483013 -0.004570764 0.002315773 -0.0117744105 -0.0024269307 0.003576686 -0.004342522 0.0022709589 -0.008798383 -0.0035521598 -0.0028184387 -0.0010458361 -0.0066715092 0.005354283 -0.0021454215 0.0015236115 0.005139978 -0.0045990353 -0.00702577 0.0016034591 -0.004516253 0.0024764684 -0.00872769 0.0012857097 0.0037025632 0.0029968647 -0.0058103786 -0.009071059 -0.009701164 0.0071147955 -0.004112656 -0.0035614711 -0.020370888 0.005124312
Bo29 0.0030062117 -0.00925669 -0.0046979575 0.009900998 0.013856164 -0.0034305525 0.0021724044 0.0038587602 -0.00050669746 0.010092002 -0.0043385075 -0.0047632167 3.2339984e-05 -0.01433627 0.0015829159 0.008511033 0.010813438 0.012509779 -0.00895236 0.016829748 0.00443793 -0.0027398376 0.0005274988 -0.0034034722 -0.008982486 0.0020933615 -0.0008790829 -2.7557682e-05 -0.0036284174 -0.005160218 -0.0007288258 0.004754521 -0.00057471433 0.0048942193 -0.007486858 0.011040281 0.010692147 -0.008992223 0.007751739 -3.953222e-05 -0.013427898 0.0075698257 -0.005628745 -0.0075842272 0.005052972 -0.00284069 0.0023871043 -0.0030952028 0.0005098944 0.0055740695 -0.0013414973 0.0006272947 0.00863177 0.004426049 -0.0072608367 -0.0011098844 0.0037739077 -0.008220158 0.0032908765 0.008853422 0.002856337 0.009025741 0.0018399562 0.0063157436 0.0062957252 -0.0066497074 -2.506074e-06 0.010158559 0.001164932 -0.0034217485 0.0060609356 0.000615571 -0.0051826583 -0.010591266 -0.00331929 -0.0041832402 -0.002840522 -0.00091311644 -0.0061834273 0.020792384 -0.005110529 -0.0057745464 0.0032151383 0.01135372 0.00069451536 0.008252369 0.012115284 -0.0122882705 0.0001556667 0.0019088518 0.0050112545 -0.00911372 0.0023512188 -0.008237999 0.008029463 0.006827479 -0.011013681 -0.012410406 0.0015321211 -0.005415156 -0.008398311 -0.00043287344 0.0016254543 0.0010821179 0.0022304158 0.003811641 -0.0037795797 0.004208287 0.009512201 -0.007930676 0.002848137 -0.010021787 0.0060606333 0.004092563 -0.006794705 -0.005098718 0.005273487 0.004588378 -0.0018315796 0.0013760396 -0.0051272796 -0.011320539 -0.0029741854 -0.0037478234 -0.0026801748 0.0016703535 0.0071633663 0.00235807 0.004808797 -0.0015773455 0.0026516712 0.00015589072 0.004501788 -0.0050731427 0.003256841 0.0011987711 0.0033382399 0.00768267 0.012355751 -0.004463873 0.00043511164 -0.004617292 0.012178596 0.0027805455 -0.012853663 -0.0051500928 -0.010246884 -0.00017957152 0.0072054365 0.009883108 -0.0120446095 -0.012921658 -0.008530773 0.0025204874 -0.014953091 0.009866476 0.009615468 0.0008730715 -0.014493137 0.0032693357 -0.00054815784 0.003525604 0.002948322 0.0010779063 0.008376968 0.0050653205 -0.001328984 0.0062932177 0.008998008 -0.0028085823 0.00092274905 0.0013977413 -0.0007479397 -0.0027361186 -0.010433564 -0.002067091 -0.0031247789 -0.0011350852 0.01629069 -0.0035366197 0.00077181443 -0.001219419 0.0058383807 -0.00063554995 0.013081827 0.0040396755 -0.017857332 -0.007777864 -0.0072410395 -0.0015031525 0.009066517 -0.006703431 0.0071718604 -0.003587565 0.0011694032 -0.005338088 0.0004306938 -0.011883182 -0.006354697 0.0024836466 -0.015006107 -0.0021627557 0.005532143 -0.009638619 0.0018551372 -0.003624695 -0.00710981 -0.00312917 -0.009183462 -0.002364614 -0.0001640577 0.0034094837 0.012929347 0.011263305 0.0041148947 0.005176506 0.011199657 0.0102580385 -0.0074398923 -0.00017845888 -0.0016844466 0.0042241924 0.0030326592 -0.0054544313 0.0019160757 -0.01143965 -0.0026676317 0.002753644 0.00010195181 -0.00027754865 -0.0060650683 0.0011413435 0.0024005382 -0.0064199944 -0.002973942 0.0037991952 0.0021287932 0.0030451065 0.0063474267 -0.0027887453 -0.0020385992 0.0020490799 0.00080185273 0.0065263724 -0.007847764 0.005183457 0.0060188696 -0.0012217205 -0.0017662606 -0.0030310892 -0.0030550165 0.010137035 -0.00081015565 -0.0061202566 -0.0130276615 0.0033022119
了 0.002364033 -0.005954802 0.0018139269 0.007309585 0.0068197846 -0.0016144367 0.0048060953 -0.002282358 0.0022815564 0.000864828 -0.003530934 0.00043780572 0.0023949274 -0.009463374 0.0036484632 0.010633836 0.0023826216 0.0041105864 -0.0074979253 0.008780701 0.0016040385 0.0027335389 0.00045657862 -0.004378618 -0.0059945392 0.0060442463 0.004270523 0.0029535634 -0.0023613945 -0.005006651 -0.0012350979 -0.0013904289 0.0010758891 0.0008095546 -0.0065001007 0.011024559 0.009317486 -0.0063397973 0.006906675 -0.0029979793 -0.010534775 0.005820826 -0.0035444153 -0.0050976877 0.007050169 0.00082386873 0.005175077 -0.007115486 0.001569866 9.939471e-05 0.004039947 0.0052108895 0.002082689 0.0015204328 -0.0064411378 -0.0015747421 0.008291787 -0.0043207225 0.0019022811 0.0015519762 -0.00087452267 0.0033688564 0.0005982618 0.006659672 0.0028557356 -0.0014509629 0.0025368745 0.007918746 -0.00056760875 0.0009688283 0.008889217 0.0012720098 -0.0065630777 -0.0035125646 0.0013476799 0.0028930197 -0.00074834895 -0.0016915821 0.0008982404 0.010727653 0.0014971229 -0.0030487375 0.006416025 0.00914094 -0.0029549405 0.0066520977 0.0041583898 -0.01281225 -0.0024216124 -0.0016909154 0.0003351757 -0.0008776474 0.0066526206 -0.0057344623 0.00545443 0.0069359876 -0.008771805 -0.009729646 0.0033152273 -0.0068851793 -0.0054665254 0.004184434 0.004554213 0.0043749176 0.0033291632 0.0034642583 0.0007845306 0.0012893776 0.0068543404 -0.003998871 0.0048859017 -0.0030966038 -0.0016102312 0.004323722 0.0003694248 -0.0031930294 0.0043573123 0.00041719354 -0.0013372937 0.0010715419 0.0012258104 -0.0047723576 0.0006449141 -0.0021008872 0.00017795044 -0.00237671 0.0019981521 -0.0012011947 0.0026226288 -0.0003300413 0.0012027229 -0.0030814174 -0.001900398 -0.0030375782 -0.0007828965 -0.005335523 0.0039499584 0.009317804 0.007290707 -0.0027422567 -0.00088580477 -0.0016753142 0.0024269123 0.0065501393 -0.012132683 -0.003361108 -0.0054246425 -0.00031975316 0.007759635 0.0109760985 -0.004725225 -0.004525409 -0.0046555977 0.0032486133 -0.013650128 0.0021269135 0.0058108917 -0.0005541967 -0.012318248 -0.0019779627 -0.0015894211 0.0009369698 0.0059218104 0.0030365693 0.0069415164 0.0025166634 0.0016243276 0.0061264797 0.0033798872 -0.0038212256 -0.0019651703 -0.0009663095 0.0009180075 0.00223531 -0.009096031 -0.0012513007 -0.0073317867 -0.001455947 0.008030766 0.0009018357 0.0012257711 -0.0024022823 0.00014984274 0.0027358143 0.009198158 0.0065914616 -0.012376443 -0.005697012 -0.0064816433 -0.00043109944 0.00824251 -0.0022488525 0.0077544404 -0.0036157372 0.0010858546 -0.0073456834 0.0022632093 -0.010614126 -0.006119304 -0.00023320022 -0.011362448 -0.0002185578 -0.0011735692 -0.009466153 -0.004312418 0.0029577117 -0.004711012 8.8145876e-05 -0.0057204817 2.952518e-05 -2.4702318e-05 0.007073317 0.009802287 0.009043427 0.00030754774 0.0012334258 0.007915436 0.008216148 -0.0065781143 -0.00022249839 -0.0004105755 0.003651762 0.0035499155 -0.0069773537 0.0009422081 -0.00477519 -0.0022786853 0.0012360915 -0.0019308527 0.00066376163 -0.007932375 0.0036081928 -0.0011505774 -0.0042878026 -0.0011743194 0.0043094493 -0.0024441998 -0.0023260633 0.0022283494 -0.007232328 -0.0034947123 0.00025359754 -0.002694518 0.0031269456 -0.0031926255 0.0050076023 0.0034315255 0.0006618665 -0.0027181937 -0.0045923535 -0.008437659 0.009475996 -0.004185214 -0.008473936 -0.014314076 -0.00029882646
Di02 0.0013394395 -0.002182533 0.001744801 0.0011355896 0.0069246823 -0.001988172 0.00097041274 0.0032475889 0.00024197611 0.003055733 -0.004285245 -0.0025593515 -0.0005564016 -0.0033344475 0.004537049 0.0028788217 0.00057651557 0.008457592 -0.00577963 0.0073925485 0.0029459402 -0.003485772 0.00018583216 -0.003846325 -0.008717057 0.0021379187 0.0032467095 0.004308399 -0.0032417774 0.00027139636 -0.0017014293 0.00047149736 -0.0033593362 0.0021722915 -0.0034979023 0.0055228276 0.002547872 -0.00076927623 0.0041158227 -0.003196364 -0.009840732 0.008313169 -0.005799095 -0.0019712874 0.0055232565 0.0018453232 0.004828197 -0.004042844 0.0030151217 0.0013828089 -0.0027950963 0.0012596651 0.0038622834 0.003185491 0.00032972853 0.0020345536 0.00061543006 -0.0005533405 0.001149207 0.003459462 0.00036111282 0.0059718112 0.0011116007 0.0040881177 0.0073320284 -0.0015586037 -0.003659259 0.0040742676 0.0018081898 -0.0045760386 0.003391197 0.00016122762 -0.0044593825 -0.008896986 -0.0018874308 -0.00012653187 0.0009369948 -0.00026431328 -0.003688744 0.01184879 0.0019626482 -0.002808501 0.004573322 0.007370936 0.00080804195 0.00053276523 0.008168907 -0.012555197 -0.00083516084 -0.004713505 0.0006756351 -0.005387711 0.0010773585 -0.004234018 0.00534523 0.0046554217 -0.010378506 -0.008193273 0.0006697643 -0.00600244 -0.010034172 0.0002744911 0.00571372 0.005272784 -0.002381284 0.0053302115 -0.0031250804 -0.0023946178 0.0042073973 -0.0056778514 0.0010352602 -0.0074482504 0.0008661371 0.0042971172 -0.00576014 0.001532531 0.0028971157 0.002464417 0.002073855 0.0017604097 -0.0031807132 -0.0031329694 0.0013307929 0.00021151197 -0.0028586506 -0.0019014829 0.0044008163 -0.0019219599 0.0035862282 -1.7092349e-05 0.0059161023 0.0018401792 -0.001774017 -0.006514857 0.0027463296 -0.0007029928 -0.0007596566 0.0054911766 0.008476841 -0.0015436134 -0.0038908813 0.00075503334 0.0092214625 -0.00023339497 -0.008178319 -0.0021631727 -0.0063868426 0.0012883281 0.004252175 0.009684033 -0.008002392 -0.0053881216 -0.004214862 0.0042595705 -0.01018362 0.00878067 0.0040789475 -0.0033439298 -0.008049124 0.0009591663 0.0005915341 -0.00030031826 0.0017093963 -0.0031916967 0.0072419383 0.0028626034 0.0017587983 0.008153786 0.0012972241 0.0007717656 0.0017400464 0.0006142747 0.0017248521 0.0018225827 -0.008998805 0.0038714344 -0.0015365131 0.003341847 0.00493643 0.0024787358 0.0025427963 -0.0009956313 -0.000727976 0.0040525333 0.0035835197 0.0016212757 -0.008262657 -0.0003362736 -0.00025271229 -0.0018067431 0.0028548962 0.0015470705 0.006701327 -0.003429224 -0.002215011 -0.006030443 0.0007277425 -0.007968858 -0.0048654177 -0.00073965866 -0.008241861 -0.0054816054 0.005795336 -0.0068818587 -0.0036451775 0.0030486777 -0.005129451 0.00026415978 -0.0077014742 -0.0028775276 0.0013154849 0.0024543144 0.0038552962 0.005957793 0.0020268005 0.0033891737 0.007424335 0.00870041 -0.008740519 -0.00072571944 -0.0038314245 0.004378587 -0.00048673124 -0.0034280405 0.0019693796 -0.007954584 -0.002849145 0.0035165334 -0.004681702 -0.00067708653 -0.0028792722 0.0030306254 -0.003419269 -0.00085015886 0.0014836825 0.0014275924 -0.0008844821 0.0015068083 0.0042062504 -0.0027317272 -9.433995e-05 -4.0446073e-05 -0.00040445424 0.0013653724 -0.0068112914 0.0022473012 0.0033049516 -0.0035553665 -0.0035948881 -0.0032612267 -0.00426015 0.009032908 -0.0039143655 -0.0063553373 -0.0074079954 -0.0016049321
d -0.0037860412 -0.0058481926 -0.0043353797 0.0049683703 0.00923249 -0.002229583 0.0011838247 0.000393199 -0.0020010914 0.0068268995 0.0020859253 0.001486294 0.002851841 -0.011601216 0.0066482187 0.007129775 0.008789833 0.008220941 -0.0047777845 0.007536219 -0.0027326252 0.002042531 -0.003589067 -0.0038781664 -0.0049892226 0.0028054914 0.004539834 0.00040925888 -0.009008704 -0.0047417143 -6.16719e-08 -0.0025396463 0.0015304548 0.0037020107 -0.0069478066 0.012181702 0.010217163 -0.0034663836 0.006478174 -0.0067884787 -0.010030057 0.0031407403 -0.005361586 -0.004210448 0.0063847573 -0.0012523452 0.0040680566 -0.0029554358 0.004895277 0.0054517793 -0.001180942 0.0060653603 0.00640945 0.004587122 -0.0027632983 -0.0033625632 0.0033873832 -0.003882464 0.0038371526 0.008834432 0.00073089777 0.005750996 0.0004256238 -0.00042712438 0.0074144597 0.0010379513 -0.002003741 0.009050627 -0.0037324042 -0.0058378936 0.008884954 -0.0031118842 -0.0018353708 -0.0077493843 -0.0019397631 0.0004226836 -0.0015500877 -0.0043230094 -0.0015998469 0.015448531 -0.0017879059 -0.004354276 -2.007086e-05 0.015358028 -0.0055569545 0.007501071 0.0101416465 -0.013712494 -0.0020392905 -0.0045482935 -0.00037390864 -0.0013031192 0.0070897467 -0.005194586 0.0055603697 0.010590792 -0.010894944 -0.007899286 0.0016562928 -0.008205524 -0.011935515 -0.0029993625 0.0074532926 0.005759419 7.050572e-05 0.0019870056 -0.00035288642 0.0026379877 0.0048178723 -0.0063231126 0.0029700224 -0.004009645 0.0027546394 0.0054901 -0.0077408766 -0.003710125 0.00015927617 0.0023597865 -0.005174564 0.0019835434 -0.004908137 -0.008008762 0.0017237704 -0.0063312924 -0.002968953 -0.002860343 0.008956764 0.0037116313 0.0045964443 -0.00017224271 0.0066199442 -0.0047202427 0.00534868 -0.009526009 0.0035828124 -0.00056717003 0.0011742822 0.0053036143 0.013083561 -0.0026880777 0.0011119844 -0.003916985 0.010314383 0.0033174616 -0.0072171157 -0.0027351205 -0.0026714792 0.0060840333 0.008976255 0.008236791 -0.0053449124 -0.005535999 -0.0017833402 0.006699958 -0.01123414 0.009387691 0.008242064 -0.0014094282 -0.009986967 0.0008490317 0.002537802 0.0038381626 0.0013511095 -0.004299762 0.005249324 0.00529668 -0.003420244 0.004284537 0.006638657 6.891221e-05 -0.0013451655 0.0014333884 0.00206641 0.0015845173 -0.0063677705 0.0007706558 -0.0018128653 0.0012062098 0.008453336 0.0026405614 0.0022246807 0.0008533364 0.0009995279 0.0035922155 0.010462756 0.0074359244 -0.011942183 -0.007892661 -0.004709259 5.7767855e-05 0.00977258 -0.0066269245 0.009221613 -0.0053565013 0.003673114 -0.009089354 0.006672346 -0.0055643115 -0.005961699 -0.0020985408 -0.0088611655 -0.0038305686 3.4334196e-05 -0.004288381 -0.00029226058 0.0013864547 -0.010435811 -0.0008328598 -0.0073221573 -0.00035797313 -0.0025711118 0.005408288 0.012459365 0.011236415 -0.0015762034 -0.002002294 0.0038169383 0.009019711 -0.012035315 -0.0031082942 -0.0036091437 0.0030072695 -0.0011861714 -0.0067923083 0.0033738543 -0.0045022764 0.00081630325 0.001293336 -0.0047947215 -0.0033275115 -0.005662975 0.00281497 0.0014256979 -0.0029918514 -0.0024268713 0.0015762224 0.000105617764 -0.0023341074 0.0051476094 -0.0051208967 -0.00611049 -0.0041451654 -0.0020489066 -0.00038330402 -0.005269269 -0.00045320584 0.0022946147 -0.0015625727 -0.007344947 -0.004696886 -0.004792689 0.0055621336 -0.006918166 -0.0065905727 -0.016494235 0.0012244066
vn 0.0020326695 -0.0066480506 0.00030198722 0.0070627313 0.012215737 0.0009323852 0.0077992035 -0.0032401243 -0.004807734 0.003064119 -0.0041159717 -0.0040882174 -0.0035534515 -0.009828213 0.0033746578 0.0069994954 0.0023975847 0.009561495 -0.0061757024 0.0138675 0.003928507 0.0014528608 -0.0027808314 -0.003705826 -0.01021715 0.0038867623 0.0027373235 0.0049356017 -0.0069232145 -0.0010465296 -0.0018789454 0.00016877333 0.001583378 0.00068827055 -0.0041234526 0.0058009196 0.0034385852 -0.0023281488 0.00175804 -0.001220474 -0.013592939 0.006029162 -0.00751108 -0.0014671972 0.009376925 0.00028600043 0.006234719 -0.004282979 -0.000873292 0.0061556413 -0.00089440215 0.00638154 0.0066133076 0.00020230285 -0.007998559 -0.0026160749 0.007672491 -0.00668597 0.0051779253 0.0018147965 0.0037431754 0.0033657153 0.00295093 0.00081749324 0.0009986254 -0.0058117905 -0.0030907474 0.010484837 -0.0011450675 0.00021512882 0.007369236 -0.0005721009 -0.0036267485 -0.005532308 -0.0022910754 0.0021179863 -0.0037787552 -0.002432303 -0.0024642579 0.01459173 0.0014690219 -0.0058220597 0.002481008 0.012131406 -0.0023906396 0.0032716203 0.011638972 -0.014402104 0.0031404379 -0.0015455512 0.002817691 -0.003203051 0.0033145214 -0.0057389666 0.0043425458 0.008903096 -0.009459854 -0.009066101 -0.00293814 -0.010103813 -0.008428597 -0.0015138244 0.0036481712 0.0021245552 -0.0012679325 0.005872983 0.0013338476 0.00066923903 0.0026936552 -0.005848055 0.0045883125 -0.008548581 0.0018694402 0.0017650543 -0.005100646 -0.0057842406 0.0070643965 0.004218692 -0.003110989 0.0029637343 -0.002322176 -0.003285597 -0.00093005126 -0.00024632105 -0.0037695917 -0.002354823 0.0035337845 0.0041596913 0.0043183984 -0.002343074 0.008544939 -0.004850347 0.0010180828 -0.009011388 -0.0022224258 -0.005262385 0.004151274 0.007810167 0.012224137 0.00039166736 -0.0015384894 0.00049243623 0.006595854 0.0049654366 -0.007563292 -0.0012919616 -0.002871469 -0.0001864199 0.011033731 0.0101258205 -0.0056644306 -0.012950176 -0.0055714324 0.004601024 -0.016899886 0.0040650074 0.0076228282 -0.004363654 -0.0121219475 0.0035783562 -0.00023030811 0.0070434604 0.005176629 0.0012562863 0.0051603885 -0.00017008951 -0.00551191 0.007284944 0.002944031 -0.001751435 0.00096130103 -0.002865922 -0.0016479099 -0.0027648488 -0.00980687 -0.0030729016 -0.0060797594 0.0037140555 0.014006028 -0.0017979108 -0.0032637503 -0.0014546558 -0.0013523938 0.0006227371 0.0059326375 0.0060947174 -0.015944194 -0.004175108 -0.0040363977 0.0020055266 0.00784542 -0.006960385 0.0078456905 -0.005199966 0.00345371 -0.0049323477 0.00636557 -0.008162248 -0.0075835325 0.001800947 -0.011985121 -0.007499636 0.0043751113 -0.0075380676 -0.0029625106 -0.0008957965 -0.011947698 -0.004253731 -0.008524101 -0.0014656967 0.0021030246 0.0057160524 0.012749692 0.0056152493 -0.0010683413 -0.0024724265 0.0028687995 0.008374391 -0.009782475 -0.0032079348 -0.00501292 0.0018232808 0.0052811615 -0.004871961 0.0066012475 -0.010824071 -0.0013629263 0.0013488866 0.0015226356 -0.00016587263 -0.004865281 0.00052612385 0.00043355668 -0.0063410946 -0.0018371559 0.0076960293 0.0026281746 0.0013409802 -0.0005122779 -0.0059925225 -0.0010099785 -0.00066458894 -0.0053162514 0.0045196814 -0.0074686455 0.0037852337 0.005707438 -0.002369376 -0.0033117374 -0.0021359953 -0.0070293783 0.006840592 -0.00047672095 -0.002065902 -0.017494343 0.0046336637
m 0.0036553286 -0.005429486 0.00023083965 0.0028537358 0.010536714 -0.0011182581 0.005438551 0.004088476 0.00039796677 0.0018511215 -0.0018035604 -0.00022468682 0.00046935258 -0.0056278594 0.006076881 0.008308285 0.008577662 0.0025979527 -0.0074840914 0.010348948 0.0023480179 -0.0016832047 -0.004808702 -0.0054631685 -0.009953989 0.006284587 0.002191354 -0.0024719958 -0.0032480976 -5.1955634e-05 -0.0019259204 -0.0015209886 -0.00094125397 0.0053898194 -0.0067902855 0.0075600045 0.0029541529 -0.0051429435 0.0044993386 -0.004613841 -0.009732239 0.0058360053 -0.0058346773 -0.0007247384 0.007242871 -0.004969493 0.0014726426 -0.0019405516 -0.0009905946 -0.0007232121 -0.0025243384 0.0002987527 0.0069816126 0.003429928 -0.002691302 -0.0049968786 0.0063158283 -0.0013032324 0.0037604137 0.00059818744 -0.00052905164 0.0037177934 -0.0037398303 0.003539939 0.004149934 -0.0046620513 -0.0044332016 0.00930759 -0.0041941334 -0.004970938 0.00706527 -0.0017772343 -0.004914415 -0.009080748 -0.0014848729 0.001468161 -0.0023330273 -0.004873152 -0.003726442 0.009516769 -0.004242864 -0.007696139 0.005660076 0.012855777 -0.0033939076 -6.749187e-06 0.0064217667 -0.0110336235 0.0036665325 -6.0583137e-05 -0.0010505118 -0.0048326594 -0.0011383927 -0.004312977 0.002848229 0.004498778 -0.00560009 -0.0031485911 0.0020810266 -0.0074503333 -0.0044101523 -0.003112603 0.00042869413 -3.838885e-05 0.00063321437 0.0045528375 -0.0023470607 0.0019734039 0.008009916 -0.0031802878 0.0034331742 -0.001572893 0.0024610087 0.0008018977 -0.005715467 0.0010753812 -0.0005153739 0.0014192982 0.0012572168 -0.0010804757 -0.0013988905 -0.007789387 0.0017144841 0.0003961767 -0.0066928226 -0.0015244 0.007389127 0.0015091528 0.003155476 -0.0019254605 6.202633e-05 0.0021605645 0.0005430771 -0.006536759 0.0014084388 -0.0009639424 -0.00036323865 0.007820476 0.0069909203 -0.002910602 0.000972404 0.0011765134 0.009436166 0.0033516015 -0.008567434 -0.0044989944 -0.0023820566 0.005730991 0.0065431073 0.005969468 -0.007691621 -0.007432345 -0.007355952 0.005044358 -0.01110415 0.009038386 0.0015223975 -0.003365599 -0.010475525 -0.0026721354 0.0031669268 0.004810398 0.004556203 0.0008368351 0.0013078453 0.0010136517 -0.0046780775 0.007211902 0.0028507584 0.0032290958 -0.0030707282 0.0027651608 0.00224626 -5.1154175e-06 -0.0058377753 0.0035831358 -0.0036942286 0.0032478212 0.009894873 0.0024183406 0.0020100677 -0.003397403 -0.00044288184 0.0025012519 0.0067397635 0.0047958917 -0.009979268 -0.00067181804 -0.005797596 -3.0801762e-05 0.009624918 -0.0015047947 0.0062091863 -0.00044002818 0.00064915675 -0.007924391 0.0033766497 -0.010484911 -0.006550086 -0.004462577 -0.0076582134 -0.006361961 0.0052593383 -0.0072376067 0.0027897866 -0.0036670626 -0.008112222 -0.00262474 -0.007482888 0.00041668082 -0.00052309775 0.0027662239 0.0058388053 0.00306293 0.003317535 0.0009960808 0.0077434117 0.0048387526 -0.006040788 -0.0038687475 0.00075943925 0.0043819016 -0.00017452169 -0.0012441174 0.00048121682 -0.009407042 0.00087844045 0.002566253 -0.0048359907 -0.004008332 -0.00068751327 0.0006557955 -0.00016614312 -0.0010277278 -0.0037201026 0.0051236018 0.0012021773 0.003337348 0.000115617324 -0.0025905322 -0.0009856079 -0.0030452947 -0.0047618034 0.005490004 -0.0012050025 -0.0007476852 0.005095206 7.4373485e-05 -0.0055737905 -0.003977599 -0.006498963 0.008513811 -0.0024181672 -0.007826862 -0.010977523 0.00027127165
nr 0.0023972404 -0.00503937 0.0020414647 0.005384972 0.0060171676 0.0021994566 0.004638761 -0.0010700495 -0.003558928 0.0036792164 -0.002958613 0.00076108804 -0.0040435786 -0.009637784 0.0036629308 0.007144774 0.0072458168 0.00487096 -0.005576315 0.01123905 0.0029743684 -0.00066149386 0.0017431605 -0.0031595132 -0.009919516 0.0022546132 -0.0028019839 -0.0012568417 -0.0055942554 -0.0058300556 0.004098791 0.001839026 -0.001990024 -0.00039317057 -0.006352915 0.004088164 0.009522514 -0.006054361 0.005387419 -0.0043547763 -0.0050110635 0.007538308 -0.003044267 -0.005394481 0.006500084 -0.0026896014 0.005128189 -0.0016300605 0.0027564634 0.0036928519 0.0025222905 -0.00032499447 0.0071340874 0.0014472168 -0.006476734 0.0016484507 0.0037204816 -9.5912255e-05 0.0033299194 0.0070679802 0.0015423605 0.001997225 -0.0022411982 0.006266636 0.004625701 -0.0045491 -0.0010939802 0.0065493607 -0.0004288876 -0.005770235 0.008189783 -0.0011401218 -0.0008100669 -0.005724515 -0.0028412936 0.00066934584 -0.00011245081 -0.0069095935 0.0014973751 0.016186973 0.0028590192 -0.0055893906 -0.0007657203 0.012385812 -0.004787252 0.007549833 0.008640202 -0.0076109194 0.0022673577 -0.001028904 0.00054882246 -0.0032229351 0.006802512 -0.008506569 0.00415713 0.005103747 -0.0060907407 -0.0041277804 -0.0014715985 -0.0037074299 -0.0089028785 0.0018329504 0.006540269 0.00483386 -0.00015029308 0.0034621386 0.0024431827 0.0052525355 0.0069378377 -0.00725718 0.0034000007 -0.0077204267 0.00035353896 0.0031280378 -0.006047737 -0.004421053 0.006727055 0.0059969407 0.0012080189 0.0006503229 -0.005695987 -0.008152697 0.00027806294 -0.006532253 -0.0059683495 0.000638328 0.0034674047 -0.0036114482 0.0060086222 -0.005709397 0.0014016158 -0.0025205542 0.002220734 -0.005254305 -0.0017662909 0.0012085504 0.005838707 0.002923865 0.012333726 0.002215925 -0.005116869 -0.0022228956 0.007843796 0.0057378267 -0.010644447 -0.004059369 -0.0025885284 -0.0016424968 0.0048903525 0.0064834864 -0.004372667 -0.009708715 -0.002762848 0.0030029288 -0.011424066 0.008186424 0.0049228603 0.0016031949 -0.008612719 -0.0030894051 0.005967372 0.0012249368 0.0061894674 -0.0019688746 0.0023116462 -0.0011557596 -5.8223814e-06 0.0061921095 0.0044649225 -0.0041091507 -0.0036681804 -0.0023008534 0.0038899102 -0.0042445217 -0.003956755 -0.00017543166 -0.0048020612 0.0035344174 0.0077822767 -0.002328711 0.00032202376 0.0025075327 0.0057691876 0.0005518717 0.008276568 0.0061400374 -0.013313751 -0.0012219845 -0.0068933433 0.0006104705 0.009295176 -0.0008281726 0.0028415609 -0.0011878093 0.0043590725 -0.0014555621 -0.0013035403 -0.0052996557 -0.0038442689 -0.0011282826 -0.004297968 -0.0052345227 0.0014469124 -0.008579496 -0.002543584 -2.6140759e-05 -0.008064668 -0.005751151 -0.0038435042 -0.0022988992 -0.0013288875 0.006323735 0.0124804955 0.009083881 0.00085318973 0.0012366982 0.0050043096 0.010796761 -0.010385374 0.00022888406 -0.00078972045 0.0012904546 0.0028676435 -0.0031702751 0.006740243 -0.005593124 0.003769473 -0.000915959 0.00038416966 -0.0019633966 -0.0063382443 0.0005059421 -0.00209227 -0.004439465 -0.0013380938 0.008123089 -0.0020701122 -0.004067385 0.001266335 -0.0006471504 -0.0075698714 0.003475109 -0.0015824793 0.0030237092 -0.0047309096 -0.0012650656 0.0040906323 0.0022461347 -0.0065068603 -0.004394116 -0.004274987 0.008098192 -0.00036905115 -0.006300109 -0.00864051 -0.0006532805
ns -0.0009452699 -0.00032828093 0.0014459235 0.0003242739 0.0057194787 -0.004472471 0.0021556523 0.0026321295 -0.004081705 0.00627565 0.0013867419 -0.0020286597 -0.0041696434 -0.0071547353 0.0011570242 0.0073024775 0.007628235 0.0061956435 -0.0054611717 0.009582103 -0.0018256905 -0.0016716344 -0.0024600772 0.00017614118 -0.008075212 -0.00052335404 0.0016976545 0.0016718342 -0.006786031 -0.003890693 -0.00027886563 -0.00059524714 -0.0047180136 -3.8639657e-05 -0.0037770753 0.009221573 0.0053075408 -0.0036844912 0.0028332635 -0.0036066396 -0.0066561303 0.0051575946 -0.0007605919 -0.0033245431 0.0012979304 -0.0011199263 0.0058471137 -0.0049240105 7.4312356e-07 0.0008496 0.0041954876 0.0019652843 0.0069072316 -0.002740843 0.00024151073 -0.005322168 0.0074357255 -0.0021297494 0.004375377 0.0013531494 0.0035150996 0.0056012208 -0.0027563693 -0.001434121 0.0061559845 -0.0038135976 -0.0047242674 0.0071598156 -0.0027873109 -0.0053909966 0.008208246 -0.0018544388 -0.0038782961 -0.007840736 -0.0026095144 -0.0023816172 -0.0022367968 -0.00461686 -0.004684277 0.013881138 0.0016860067 -0.004889056 0.0033907776 0.0057573025 0.001493579 0.0064983824 0.0068923687 -0.011163391 -0.0010453456 0.00071586017 -0.000112181304 -0.0019626652 0.006179318 -0.0027286077 0.0019718048 0.007128562 -0.007941647 -0.008115685 0.00315133 -0.007960419 -0.0065984665 -3.5440637e-05 -0.00045889767 0.0023310948 0.0036790238 0.0018232735 -0.0036225007 0.0035636357 0.0025353262 -0.008380239 0.0035368297 -0.00480154 0.0044777845 0.0017219629 0.00033850782 -0.0052242465 0.0044654645 0.0044525783 -0.0011358778 -0.0012259951 -0.0012683667 -0.0046597556 -0.0032587508 -0.0049327277 -0.0022044838 -0.00091778877 0.0076195276 -0.000164582 0.0052659507 -0.0010239248 0.006841913 -0.0052748625 0.0019638787 -0.0047000116 0.0011615768 -0.0013787735 -0.00084508175 0.008541738 0.0059980196 0.0002420391 -0.004281782 0.00028452082 0.009160906 0.0019760772 -0.00522862 -0.0011325807 -0.0005066367 0.00556595 0.0058013746 0.005290971 -0.009247441 -0.0025905364 -0.0050102286 0.003270535 -0.011063346 0.008131664 0.0068899775 -0.00057226233 -0.005996082 0.0026022661 0.002654923 0.0050899573 0.0036421393 -0.0014301288 0.0066968105 -0.00012934847 -0.0024246557 0.008753579 -0.00011562074 -0.0015834005 -0.0027787886 0.0021118745 0.003695335 -0.002885607 -0.0029651423 0.00024146243 -0.007563386 -0.0008958968 0.0071050776 -0.0016909416 -0.00036986844 -0.0026166309 0.003958059 0.0055771316 0.0054236385 0.004753542 -0.009655615 -0.0037051616 -0.006307913 0.0005359758 0.0076834573 0.00052320206 0.0066610705 -0.00044951102 0.0028055676 -0.0069662267 0.0015242058 -0.008654445 -0.0022176632 0.0025629397 -0.008281748 -0.0025863694 0.0041332883 -0.004087608 -0.00057938724 -0.002653792 -0.0018843045 -0.005882486 -0.008058438 -0.00232024 -0.0017409746 0.0014846873 0.0035390707 0.0067311623 -0.0007969203 -0.00025145576 0.0068530357 0.008496801 -0.005977642 -0.00067758653 0.0017879771 0.0020330274 0.0039283154 -0.00038928614 -0.0014664176 -0.009021955 0.004139625 0.0021427842 -0.0021187747 0.0013473866 -0.0055102333 -0.0024629126 -0.003792735 0.00096470723 -0.0031191842 0.0009800048 -0.0020669953 0.0021298763 0.0009815934 -0.0056402874 -0.0038330578 -0.0010430776 -0.002397534 0.0010794469 -0.0019539949 0.0013606664 0.001016766 0.00080534036 -0.0010915631 -0.0067097526 -0.0071000326 0.007802714 -0.006311207 -0.0038120796 -0.013434734 0.0044108285
p -0.0020214836 -0.007596612 -0.0014556429 0.0042339787 0.0111933 0.0024540192 0.0034634299 0.0016756353 0.00024065233 0.0054513155 -0.003453622 -0.0011605617 0.00036645192 -0.0046998286 0.0011635865 0.0037479147 0.0074590766 0.010891032 -0.008786261 0.010885047 -0.0010373439 0.001221641 0.0015342716 -0.005044835 -0.0053217313 0.005537862 0.0025961732 -0.0023415484 -0.003774283 -0.0025140885 -0.00055323297 0.0030573965 -0.001900251 0.0060293865 -0.0036927452 0.008728475 0.005536263 -0.008738174 -0.00010872982 -0.0009400351 -0.012717319 0.007658777 -0.0027949107 -0.00694078 0.005241062 -0.003881839 -0.0008116796 -0.0037192763 0.0064519183 -0.00022733619 -0.00061740505 0.006158451 0.007633004 0.00461277 -0.008458317 0.00014385508 0.0021944775 -0.00091720244 0.0067515196 0.003248315 0.0030529574 0.0009167904 0.001009499 0.0046748547 0.0069368556 0.000110669964 -0.0023927672 0.00951303 -0.0035884134 -0.0057064 0.006636185 -0.0055242004 -0.004657817 -0.0076724747 0.0018718609 -0.0035627508 -0.00089558435 -0.0049812044 -0.0041534123 0.013003779 0.000679851 -0.0065005524 0.0023516172 0.014934192 -0.0024538422 0.002982445 0.011417125 -0.010180504 -5.081528e-05 0.0023407857 0.004900573 -0.0027081568 0.004428479 -0.0066716606 0.008476196 0.008587458 -0.0109520685 -0.009806152 0.00019920549 -0.008777616 -0.0065998337 -0.0029990093 0.0031530603 0.004918803 0.0030859963 0.0062395986 -0.0045832708 0.002765897 0.007266754 -0.005232604 0.0075547206 -0.005170147 0.004653512 0.005404208 -0.0038603886 -0.0018598569 0.0045612133 -0.00050460675 0.00029419383 -0.0018975425 -0.0036085926 -0.006329158 0.0030711354 -0.0021031133 -0.0038944718 -0.001106792 0.0041545695 -0.00036317483 0.0016437821 -0.004109466 0.0048831184 -0.0003489963 0.0022249531 -0.0028606611 0.0007077306 -0.0029236039 -0.0006918314 0.00866765 0.012115087 -0.002942327 -0.00018147417 0.002170883 0.004349167 0.0022484616 -0.0136974715 -0.000109466666 -0.0064512794 0.0032855426 0.011520872 0.004448325 -0.010797558 -0.007894894 -0.008264151 -0.00041977488 -0.017480247 0.0060890396 0.004296853 -0.0011623437 -0.009867934 0.0039773257 0.005914694 0.0008533151 0.008052999 -0.0039678398 0.005479754 0.002796423 -0.0018798235 0.005429433 0.00491602 0.00015618827 -0.0058131767 -0.0018020718 -0.002428804 0.0010286248 -0.007077396 -0.0027211504 -0.0029205983 7.3765095e-06 0.01115473 0.0024478289 -0.0016727569 0.0027412807 -0.00096992526 0.0010453934 0.004735089 0.004971991 -0.014873812 -0.000749194 -0.00228944 -0.002970584 0.01053073 -0.00020163723 0.002260026 -0.0007742606 -0.0016945465 -0.0015339011 0.004577777 -0.008332084 -0.009768112 -0.0012688821 -0.008769811 -0.003541685 0.006053754 -0.0072834212 -0.0046010436 -0.0036862886 -0.007737758 -0.0035183711 -0.00741959 -0.0011992774 0.0045458334 0.003814351 0.01204759 0.009672374 -0.001927996 0.00015262191 0.0027099622 0.0063215406 -0.009801623 0.0026753389 -0.0032445157 0.006065945 0.0016389773 -0.0072656088 0.004649804 -0.0061675804 7.307539e-05 0.00074618333 -0.0041647293 0.0009867509 -0.008084384 -0.003673985 -0.004375049 0.0008165269 -0.0012989355 0.0078937225 0.004468747 -0.003471857 0.004384491 -0.0028839065 -0.0016258236 -0.0017597551 0.0023203047 0.00014354185 -0.001766525 0.003903522 0.0030042552 0.0016862312 -0.0014376105 -0.0033638128 -0.0023219208 0.007766098 -0.0044985036 -0.0020368183 -0.010785849 5.0407284e-06
t 0.00053198653 -0.004128152 0.0012732099 0.0016833746 0.004802005 -0.0012394611 0.004444698 -0.0020938343 0.0018832355 0.0030767946 0.0012716515 0.00057451637 0.0024858809 -0.008085818 0.0007412454 0.007059006 0.0031904455 0.007953971 -0.0071659996 0.009960515 0.00035106 -0.0012729658 -0.00069907616 -0.004731713 -0.007545239 -0.0011760396 0.0015922535 0.0026511427 -0.0063894386 0.0020316285 0.0019353948 -0.0013116318 -0.0016813629 0.0031419352 -0.0054864604 0.007759549 0.007463384 -0.00199895 0.005034694 -0.0006824856 -0.009153426 0.0026298373 7.481712e-05 -0.0060487334 0.00432437 -0.002600712 0.004606791 -0.005219456 0.0033328203 0.0029674282 -0.00074539933 -0.0009886681 0.00011340348 0.0018635109 -0.007497292 0.0007430676 0.0024627545 -0.0065808343 0.001393891 0.0068126386 -0.0005155727 0.0056737326 -0.0042992327 -0.0012769953 0.0015539475 -0.0015273636 -0.003958216 0.0024915757 -0.0043688104 -0.002687494 0.00726899 -0.004640301 -0.005353943 -0.00582671 0.00036760708 -0.0038960744 0.0031987275 -0.0058120787 0.00017926797 0.014236878 0.0013408569 -0.001201799 0.005599399 0.010473835 -0.0044414136 0.005674041 0.0034494202 -0.010853485 0.002380802 -0.004014141 -0.00092122477 -0.004672455 0.0038982423 -0.002581073 0.005037862 0.0071180365 -0.008104766 -0.0040327488 -0.0025302034 -0.0050600944 -0.009392487 0.00040456982 0.004777574 0.004735307 -0.0003923704 0.00477084 0.0023871625 -0.00078160525 0.0026042839 -0.0055054394 0.0017249805 -0.0013101653 0.004827658 0.0052724164 0.0009137251 -0.0045695137 0.0027245588 -0.0011555403 -0.0034108094 -0.0034010592 -0.00026675873 -0.0043882797 -0.00272416 0.00090685993 -0.0023721769 0.00013059069 0.0023174228 -0.0011676266 0.0019286247 0.00093770394 0.0047814 -0.0038426123 0.0031722744 -0.0039876513 -0.00074649096 0.001664293 0.00036965197 0.008090366 0.005790187 -0.003417469 -0.0036071062 -0.0027599402 0.00510212 0.002193614 -0.00603746 0.0012561821 -0.0046132808 0.0033349947 0.0054726563 0.006300541 -0.0060008685 -0.007683584 -0.005775847 0.0007827603 -0.010720535 0.005792415 0.000161392 0.001396618 -0.00810626 -0.0010895221 2.7091479e-05 0.0010494533 0.0018157676 -0.004371431 0.004179571 -0.0016805605 -0.0032059113 0.0024974276 0.0074668187 -0.00083144254 -0.0047409087 0.0022857443 -0.002606438 -0.0013759459 -0.0043043755 -0.0025179065 -0.007658675 -0.0027449587 0.011054777 0.0036425502 0.0014334023 0.000553148 0.0034021742 0.00018215497 0.009988837 0.0063699577 -0.007879796 0.00010322637 -0.006883171 0.00018469793 0.009828365 -0.0028375024 0.0015151026 -0.0029185538 -5.8460082e-05 -0.004953861 0.001467097 -0.0035897286 -0.0051154825 0.0010967884 -0.008304673 0.00028445202 -0.00059555034 -0.008740009 -0.0027054013 -0.0028838413 -0.007920807 -0.0027804573 -0.0050325585 0.0005617601 0.0029785447 0.002349449 0.00858233 0.0066163153 0.003956869 0.0036894046 0.004055894 0.0077547487 -0.009135092 -0.0018345463 -0.004853501 0.0019536053 7.1509916e-05 -0.005848621 0.0030578559 -0.0046031997 -0.003529527 0.0019566175 0.0005477736 0.0011696793 -0.0052070967 0.0037051488 0.0030957903 -0.0019325659 -0.00216366 0.00055556145 -0.0014221716 -0.0005310833 0.0038207339 -0.003147053 -0.0065971585 0.0021955438 -0.0040451535 0.0052428474 -0.0013160108 -0.001677361 0.0035964618 0.0028812704 -0.005635801 -0.0058171228 -0.0006761426 0.0062326402 0.0010940167 -0.007871969 -0.010600644 0.0040781246
l -0.0007864241 -0.004969286 -0.0036157712 0.001964819 0.0047526984 0.0027237805 0.0026867467 -0.0028085776 0.0016502416 0.003517318 -0.0014522921 -0.0009970235 0.0009897278 -0.00897032 0.0022490667 0.005635239 0.008356167 0.00888748 -0.0048954412 0.0074588405 0.0020475439 -0.0004405909 -0.0045395177 -0.006638056 -0.007841236 0.003452058 -0.002760412 -0.0012779752 -0.0011735519 -0.0033418052 0.0034042224 0.001105906 -0.0034372427 -0.00043311017 -0.002926553 0.009389722 0.0034167897 -0.007090731 0.00044135097 0.00016092016 -0.0097633 0.0072484575 -0.004069084 -0.006604792 0.0051557454 -0.0011575884 0.003671214 -0.006959647 -0.00036672884 -0.00044159955 0.0023953235 0.0011677275 0.004160019 0.0022276568 -0.0021980004 -0.00047003498 0.003229979 -0.0029222425 0.0016837763 0.0017752837 0.0035293621 0.001888901 -0.004588103 0.0041299704 0.007275058 -0.0022459056 -0.0003412936 0.0057066204 -0.002590175 -0.006144335 0.001855804 -0.0053146593 -0.0063467277 -0.0035529297 0.0028470964 -0.0013081133 2.1369785e-06 0.00030041512 -0.001315909 0.00980094 1.3109998e-05 -0.0032966777 0.0012051727 0.008130857 0.002120212 0.0071187294 0.0039312732 -0.011502247 0.0007650542 -0.00096124044 -0.0020376097 0.00029609774 0.0008749714 -0.0034080513 0.008431941 0.0062406636 -0.0059717773 -0.0073864283 -0.0035410288 -0.004877819 -0.0072932346 -0.003363032 0.0060512414 0.00011580337 0.0037236295 0.0024955587 -0.0040824045 -0.0023627807 0.006823835 -0.0078974785 0.006267594 -0.005809991 0.00575826 0.004437159 0.0006633459 0.0017514917 0.00048456385 -0.0013790136 -0.0038044602 -0.00045929835 2.4561356e-05 -0.0033444667 -0.0010961501 -0.0005744997 -0.0044005783 -0.0026885744 0.00613214 -0.0038218428 0.003736145 -0.004184471 0.0072264224 -0.0031979259 0.0024308567 -0.0072806445 0.0040660757 -0.0039200126 0.0036594372 0.0066837533 0.01196136 -0.0026429347 -0.0037566351 -0.003985111 0.008485596 0.0013785764 -0.0069716475 -0.0016043151 -0.0014344804 -0.00065075647 0.006686476 0.006732187 -0.009516832 -0.003882925 -0.005083629 0.0052983654 -0.012056913 0.0072296024 0.0050773593 0.0021127341 -0.011484866 0.0032783882 0.0056302794 0.0034400153 0.005984941 0.0012164444 0.006746871 0.00040037086 -0.00049511174 0.0066029397 0.005760382 0.0029502853 -0.004789724 0.00026391717 -0.0028005978 -0.0011816792 -0.0095772445 0.0014279608 -0.005117769 -0.0006627027 0.011529092 -0.0030853 0.00027892314 -0.0013395366 0.00045850582 -0.0007018904 0.0036571322 0.0076389303 -0.013758631 -0.001917279 -0.0055481386 -0.0006198368 0.008203822 -0.00619294 0.0022362738 -0.0054476624 -0.002600575 -0.0066833235 0.0013683968 -0.006986006 -0.00579243 -0.0037469903 -0.009162175 -0.004615464 -0.00024877072 -0.008101932 -0.001860451 -0.0030394918 -0.009893398 -0.006500278 -0.0051164455 -0.0034252773 -0.0005026367 0.0058626886 0.01133397 0.004637573 0.0034566717 -0.0023181073 0.0051585273 0.010781795 -0.008613797 0.0036252064 -0.0023813914 0.0040334444 0.005108805 -0.008073863 0.00036081029 -0.009073881 -0.0006050749 -0.0015578471 -0.001516296 -0.0040459204 -0.0042614928 -0.00011634289 0.0020503644 -0.005710062 -0.0039110994 0.0071419636 0.004249526 -0.001277226 0.0027321891 -0.005899646 -0.003199056 -0.0038052232 -0.0043232706 0.0024705168 -0.0039717928 0.0033456553 -0.0011655816 0.00043505157 -0.0030918426 -0.0055911974 -0.0048198993 0.008323267 -0.0057212356 -0.004458811 -0.009799471 0.001682478
c 0.000894546 -0.000523548 0.0018813099 0.0049243625 0.009386551 -0.0039275764 0.0058848117 0.0020615046 -0.003545696 0.002390147 0.001684174 0.001681589 -0.0041713025 -0.0057217795 0.0017940936 0.005975917 0.0070593166 0.0022889646 -0.00065715227 0.0047323513 0.0031424188 0.002661092 -0.0035834007 -0.007442147 -0.003123278 -0.0014918632 -0.0028951245 0.0002242077 -0.0065185423 0.0020353666 0.003289348 0.0011202736 0.002052779 0.0054224217 -0.00045332324 0.008265144 0.0070912875 -0.0016453472 0.0045489557 0.00041378214 -0.010571859 0.008477055 0.00042843996 0.0006504087 0.001080261 -0.002797606 0.0018388903 -0.0012471916 -0.0012777175 0.0019190176 0.0033336529 0.005934556 0.0019090394 0.0013050446 -0.0010161505 -0.0022643094 0.004464255 -0.00644189 0.0035015391 0.0053073377 0.0019603265 -0.0009345002 -0.0025613438 0.0033260866 0.0040550567 -0.0035776994 0.0013672115 0.0074824765 -0.0038476344 0.0015024466 0.001134369 -0.002632443 0.00039618355 -0.0057646427 -0.00309436 -0.00020359644 -0.001770477 -0.005211614 -0.0047145174 0.011842215 -0.004609974 -0.001713922 0.00010763863 0.010807406 -0.0031235882 0.00104397 0.008935075 -0.011501743 0.00069641817 -0.001841498 -0.0014902401 -0.006047552 0.0050225267 -0.00619317 0.0057077142 0.0010357283 -0.0058570206 -0.006108406 -0.0020057936 -0.0052901544 -0.009487164 -0.0008397812 0.0017827444 0.0017058377 -0.00053862145 0.0002925279 0.0014779327 0.0005381481 0.006380457 -0.0038868852 0.006884451 -0.0058868346 -0.0019022607 0.0019482577 -0.0062930477 0.0011480693 0.006337237 0.0020182019 0.0016860793 0.003507871 -5.4363365e-05 -0.0021315757 0.0033563375 -0.001844781 -0.005913549 -0.0033899054 0.0028745013 -0.00016070525 0.0062819244 -0.005621692 0.002483057 0.0020132985 0.00049581035 -0.007780693 0.0011026376 -0.0036971131 -0.00033589674 0.0023068585 0.007095293 0.002508577 1.5620677e-05 0.0020706756 0.008660529 0.004395762 -0.009952149 0.0017607088 -0.00769028 -0.00013456067 0.0090785595 0.008805593 -0.007618242 -0.009577647 -0.00051863916 0.00084742246 -0.011856687 0.007462799 0.0057818126 0.00031351263 -0.0075918627 0.003610875 0.0052779955 0.005437367 0.0070244516 -0.0025787642 0.0048785843 0.000623686 0.0011941676 0.009131342 0.0054025166 0.0014126389 0.0010006995 0.0025960882 0.00045201747 -0.0038291323 -0.0058832304 0.0037502174 -0.0058634593 0.0002788188 0.009723913 -0.0026108006 0.0032661858 0.0002111479 0.0026840318 0.0051349914 0.006459639 0.0039183125 -0.012874945 0.00070996594 -0.007490459 0.0032484299 0.008049877 -0.002272597 0.00074362615 0.0018831602 0.00045430686 -0.0018478482 0.00068659446 -0.008070418 -0.0047211493 -0.0038172535 -0.00906727 -0.006603003 0.0041124015 -0.0045701107 -0.0011469052 0.002030348 -0.0065243244 -0.0059610712 -0.0043982514 -0.0025829193 0.0008939151 0.0065765996 0.006834696 0.008693721 0.0024705748 -0.0007284783 0.002394002 0.010358922 -0.005630466 -0.00011073603 -0.0016185398 -0.00014988394 0.0034426914 -0.0051528877 0.003966586 -0.007076492 -0.00022565923 0.0026921057 -0.004198709 -0.001534906 -0.007290228 0.0005164355 0.00037372997 -0.00092733814 -0.0017016005 0.0040019727 0.0010720595 -0.00083245494 0.0043284493 -0.0042428756 -0.005116872 -0.002375059 -0.004937637 -0.0015663784 -0.002660508 0.002352134 -1.39883205e-05 -0.0041254726 -0.005395422 -0.0011702792 -0.00767341 0.007191488 -8.948894e-05 -0.0014017385 -0.012560531 0.0021548094
Aa01 -0.0023744854 0.0007821815 -0.0022390082 0.0015096125 0.00658788 -0.0011393725 0.0039895186 -0.0013613887 0.0012188919 -0.0009948623 0.0019183907 -0.0010110129 -0.0024717832 -0.004330231 0.0010779834 0.003827643 0.0022257976 0.00016111115 -0.0065372596 0.0033575392 -0.0027405662 -0.0026329884 0.002314296 -0.0033493664 -0.007086928 -0.0006765606 0.0018969615 -0.0005947995 -0.0033757347 -0.0027575737 0.0024690563 -0.0026907432 -0.00384768 0.0041779075 -0.004609614 0.0055997847 0.0037214968 0.00074306404 0.0038017402 -0.0007552182 -0.00446526 0.0045199366 -0.0012419128 -0.0033967535 0.005167575 0.0015179871 0.004947533 -0.0023581637 0.00095112977 0.0038983305 -0.002817645 0.0013718184 -0.0005057005 0.0022817382 -0.0060759243 0.0001444572 0.0061436584 -0.0027521842 -0.001158364 -0.0006193078 0.0014310887 0.00017199531 0.0021019187 0.0010682839 0.0056976564 -0.0012268586 -0.0031092335 0.002221114 -0.00021412654 -0.0037054247 0.0057365736 -0.0023909966 -0.004662899 -0.004147448 -0.002499647 -0.0036793048 -0.0019773217 -0.002749676 -0.00091652403 0.008584582 0.0020653845 0.00019962607 0.0040836036 0.006211919 -0.003507959 0.0059329537 0.0043569133 -0.0041182907 -0.0005817975 0.0015094815 0.002952054 -0.005003063 0.0005859532 -0.0031807045 0.0036262868 -6.935302e-05 -0.0029416147 -0.0026362634 0.00016335527 -0.0044229473 -0.0073413164 0.003426684 -0.0013725081 -0.00075934833 0.0028161954 -0.0005944426 -0.0019378283 -5.7464596e-05 0.0021304558 -0.006355944 0.0040905206 -0.0028821111 0.002586753 0.0005349204 0.00084715924 -0.004641385 0.0043196282 -0.0007475204 -0.0004079898 -0.002731908 -0.0023496018 -0.0056297593 -0.0014140297 0.002156792 -0.0007788715 0.0007178464 0.00036884367 0.0024323128 -0.0012234288 -0.0022184667 5.911446e-05 -0.0036625848 0.0016861478 -0.004267839 0.0012202754 0.00065168506 -0.0013397291 0.0028230464 0.0039036807 -0.004255963 -0.005054538 -0.00037624236 0.0053822855 0.001928029 -0.0074745365 0.00071618677 -0.0020794817 -0.0023176135 0.007207355 0.007261072 -0.0071083177 -0.0048854607 -0.0004243188 0.0006418779 -0.007629399 0.0016623525 0.0049636955 0.0019633751 -0.004142296 -0.0015723442 0.0006054934 0.00028611976 -0.0013425356 0.0028193735 0.0029921297 0.00067877857 0.0017726449 0.0002703367 0.00500672 -0.0031048583 -0.0032421583 0.0020310169 -0.0011076893 -0.0017414093 -0.006041966 -0.001312932 -0.0039760685 -0.0016085593 0.009162993 0.0038211877 -0.00014348906 -0.00033124635 -0.0009269933 0.004488848 0.0022391137 0.004768542 -0.0029689285 1.6937229e-05 -0.0029568614 0.002110341 0.007257266 -0.002924152 0.0032987825 0.0012056052 0.0031807388 -0.0028635322 0.00230955 -0.0071567423 -0.007212856 -0.0024355296 -0.00685551 -0.0018656326 -0.0001181515 -0.0036217587 0.00235265 0.0037151482 -0.00088226335 -0.0012334498 -0.0051183105 0.0007584918 -0.000503538 -0.0014617695 0.00788776 0.0010959107 0.0019029261 -0.0010999151 0.001063489 0.0045245066 -0.0073420545 0.0035490736 -0.004234536 -0.0022416953 0.0035834096 -0.0010625885 0.0034905816 -0.0029037022 -0.001250469 -0.0011579879 -0.00039517015 0.0030369204 -0.0050248164 -0.0010440128 0.00021883969 0.0013083146 -0.0039379536 0.0009470527 -0.000829329 0.00025849204 0.0036569268 -0.00020346903 -0.0056536486 0.0027006422 -0.0018101855 0.0002183493 -0.005993058 -0.0016588595 0.005486619 0.001096935 -0.005320257 -0.0010281812 -0.005648961 0.00021850452 -0.0005211393 -0.0019533124 -0.0064384113 0.004202536
f 0.0022279033 -0.0063001085 0.00035184057 0.0051896153 0.008192017 0.0022827736 0.00056736363 -0.00042426973 -0.0009837719 0.0072786785 -0.0012794462 0.002451244 -0.0021591496 -0.0106843 -0.00043906138 0.005077122 0.008625132 0.0041212165 -0.0072460794 0.013032304 -0.002097928 -0.0004141454 5.4431133e-05 -0.007251301 -0.0066801035 0.0015886774 0.002908584 -0.001111926 -0.0069390577 0.0021241708 -0.0015644568 0.003932054 -0.0046354923 0.0045011397 -0.004254402 0.0044991993 0.005355431 -0.005691309 0.00259556 -0.0028967694 -0.011417898 0.0043287366 -0.004635562 -0.0006313933 0.0080987895 -0.001698275 0.00036750536 -0.0011149918 -0.0011819011 0.002821621 0.0026074983 0.0019272252 0.0017611444 -0.0026509322 -0.007412787 0.00110188 0.0055890237 -0.0033129076 0.0075889877 0.0007900749 0.000496719 0.0033376964 -0.0038620834 -0.0010476981 0.0068353917 -0.0034067829 -0.004318669 0.010225026 -0.0034136595 -0.003973106 0.0055936067 -0.0029542113 -0.007131953 -0.008682642 -0.0046476377 -5.1802286e-05 -0.0018144178 -0.002973891 -0.00074100407 0.010724335 0.002473465 -0.0011327504 0.0025926845 0.00982554 -0.0013654175 0.0065377257 0.010973127 -0.010289217 -0.0004982349 -0.0024242369 0.0016518519 -0.006227353 0.002069982 -0.008754665 0.004957284 0.006432876 -0.0062682033 -0.007481636 0.0025924393 -0.007787535 -0.0030554011 0.0008454116 0.0042752572 0.004938511 0.001795299 0.0053522717 -3.2670236e-05 -0.0025512858 0.0032564118 -0.0068110167 0.00030917357 -0.0038807655 0.0038218943 0.00087181083 -0.00024268798 -0.0020104365 0.0032213063 0.0044451696 -0.00513404 -0.002732537 0.0007955435 -0.0075376886 0.0031622017 -0.0004926041 -0.006238323 0.0034352576 0.0068981117 -0.002572279 -1.4976749e-05 -0.0056713363 0.0056915944 0.000653913 0.000443354 -0.004296169 -0.0030194118 -0.003432216 0.003893753 0.0018902685 0.0046592588 -7.885661e-05 -0.005320816 -0.004195224 0.007958206 0.006262872 -0.01181777 0.0020116984 -0.00069740997 0.0038637975 0.0051328023 0.010606599 -0.009349679 -0.009107927 -0.0036580614 -0.00032694664 -0.015868315 0.006451171 0.0074118045 -0.003314494 -0.009842904 0.0018849568 0.0023978946 -0.0002532741 0.0067590335 -0.001686312 0.0067348806 0.0028756799 0.0018268161 0.009593774 0.006940507 -0.003516362 -0.0013793671 -0.0002115055 0.0009043264 0.0030318762 -0.003972156 -0.0031837446 -0.00082741334 -0.00046003587 0.009102307 0.0021543966 -0.002436504 -0.0005061813 0.002423478 0.004838852 0.008506202 0.0032626167 -0.013858077 -0.005265725 -0.00059106934 -0.0038434786 0.01096819 -0.002673375 0.0041684555 0.0014262781 0.0050316015 -0.001419585 0.0058946074 -0.011174757 -0.0025828087 -0.004403065 -0.010639852 -0.006968226 0.0030648583 -0.002669708 -0.0034658327 -0.0010136102 -0.0074337977 -0.005329155 -0.007152843 0.001549102 0.0025032745 0.0020078404 0.006997069 0.006216806 -0.00047667013 0.0024147816 0.008956012 0.011173469 -0.01056213 -0.0024319259 -0.00609566 -0.0001474593 0.0038844268 -0.006937894 0.0034127869 -0.0027236938 0.0014245873 0.0018930369 0.0019192485 0.0020334946 -0.0049923994 -0.0024564834 -0.0011146495 0.0005970415 0.0004893104 0.0030099084 0.0044996706 0.0003963789 0.004383411 -0.005767999 -0.0018251103 -0.00025233527 -0.005059042 0.0041187834 -0.0075716185 -0.0015053976 0.0038076781 0.003343342 -0.004465768 -0.00086492515 -0.002592577 0.007623554 -0.005744992 -0.0024676677 -0.014483405 -0.0005012341
r 0.0019020273 -0.0071745357 0.0015262372 0.0023451475 0.006518354 -0.0037812844 0.00051382754 -0.0008262144 0.002157091 0.0063507324 -0.0046049757 -0.003178072 0.0009978545 -0.00970086 0.004709994 0.008403583 0.0005804481 0.008942837 -0.0016588628 0.008078337 0.0013596752 -0.0033499596 0.00067488855 -0.0008012879 -0.0043104687 -0.0011971092 0.0024543894 -0.00050375104 -0.00494213 0.00082167814 0.0010120838 0.0025394796 -0.0036199226 0.003698015 -0.004092549 0.006762591 0.007600244 -0.0027685931 0.0058976454 -0.0038062593 -0.006594163 0.008040555 -0.004438301 -0.0009820788 0.0012633573 0.0021745646 0.0034713203 -0.00078730076 0.0039923675 0.0036862213 -0.00039795562 -0.00017920656 0.0021901934 0.0012085517 -0.004713823 -0.004891051 0.0012170861 0.0004170815 0.0069957613 0.0060386094 -0.0013419237 0.0034250668 -0.0040491764 0.0049284943 0.0039060772 0.0011480622 -0.0030807678 0.005168677 0.00023100969 -0.0010991076 0.0018748178 -0.0044140406 -0.002644702 -0.0100462735 0.0013567721 0.0015707752 -0.0015224258 -0.0049597337 -0.0049638986 0.00963762 0.0016797506 -0.0036600698 -0.0008108082 0.012520121 -0.004931394 0.0056203967 0.009148525 -0.008171741 -0.0034126316 0.0014385756 -0.0018532184 -0.005217324 0.0063820872 -0.0078258645 0.0011352929 0.0031871751 -0.0055641206 -0.0049130633 -0.0018932912 -0.0056773084 -0.0028670805 0.004393807 0.0068634227 0.0032658724 0.0030724613 0.0045692543 4.5822344e-05 0.0030398811 0.0049695023 -0.0051773917 0.0023711468 -0.0072111343 0.004818011 -0.00082686637 -0.0017914713 -0.0015658549 0.0014357038 -3.223095e-05 -0.00032384804 -0.0022823282 -0.0047175316 -0.005436784 0.0016854153 0.00012525552 -0.0033466276 0.0028042046 0.00079171185 -0.0016830203 -0.00012208332 -0.004394614 0.0067306384 -0.00544486 -0.0021771016 -0.008234068 0.0039219526 -0.0024435432 0.0021972912 0.0026401698 0.0063331816 -0.00043822353 -0.002677413 -0.004177199 0.0029319897 0.003702557 -0.011762402 -0.00051375804 -0.004781639 0.005201543 0.0060096364 0.008382767 -0.008250943 -0.00954635 -0.0018152599 0.0029010614 -0.012776754 0.0037745757 0.0071702315 -0.0048325765 -0.008883396 0.0006248652 0.0018780353 0.006555151 0.0029000095 -0.0032725593 0.0016215447 -0.0025165074 -0.004476817 0.0030189515 0.0013190889 -0.000873429 -0.0018156479 -0.0017681288 0.0013455902 0.0008913481 -0.001666254 -0.001517411 -0.002041757 0.002909774 0.0065295454 -0.002784592 -0.0013046747 -0.0031533663 0.0042334786 0.00555128 0.009376415 0.00017806605 -0.007482617 -0.0014304371 -0.0014887044 -0.0034165985 0.006407084 -0.004970839 0.00058370346 -0.0009681402 0.0051150573 -0.0015761327 -0.0006750394 -0.0056721973 -0.006549689 0.003367968 -0.010259288 0.0007980558 -0.00054106454 -0.007720657 -0.0003410673 -0.00029617737 -0.009215944 -0.003390948 -0.0058990773 -0.0026098967 0.0030975356 0.0041867886 0.01083947 0.009354787 -0.0018421871 0.0025606316 0.0069863047 0.009438629 -0.004650339 -0.0017862915 -0.0004005003 0.0024106598 0.0020139236 -0.006696667 0.0030556326 -0.0034382516 -0.0035227933 0.0046907095 -0.00018145233 -0.0005651351 -0.0053093573 9.855362e-05 0.0018338347 -7.445649e-05 -0.0045999647 0.0072848024 0.00015737733 -0.0036349741 0.005581763 -0.0012664329 -0.0018029253 0.0028426866 -0.0041735684 -0.00034538674 -0.004302208 -0.00066641124 0.0019380706 -0.00044507897 -0.006497002 -0.0024524962 -0.0031622627 0.0051666987 -0.0009881728 -0.003402091 -0.0076717185 0.0002943919
Di22 0.0031275663 -0.0039185314 0.0005495534 0.001878782 0.008124226 0.00053629064 0.0028415439 0.0037351493 -0.004340475 0.0074359733 -0.0004502944 -0.0014165763 -0.0016098738 -0.009107602 0.0010503174 0.0063871033 0.0065188245 0.008442383 -0.0075870603 0.01127064 -0.0029163437 0.00085294095 0.0014285509 -0.0045094937 -0.008170106 -0.0013051076 0.00073862396 0.00021189779 -0.0071341954 -0.00022927002 0.0011332975 0.0024193532 0.000761927 0.002464581 -0.0061021284 0.008257949 0.0062510576 -0.0069633382 0.0015198338 -0.0018951183 -0.007123817 0.0040247897 -0.004850742 -0.002906575 0.0062982477 -0.0013448639 0.0020252995 -0.0020865684 0.0002963237 -0.0015248603 0.0046093795 -0.0018464276 0.0018950403 -6.709324e-05 -0.0061508934 -0.0004677647 0.006625442 -0.0031280383 0.0062117176 0.0035171746 -0.002243044 0.0019600904 -0.0010889805 0.0046147252 0.0059323637 0.0006901944 -0.0033217638 0.002838987 0.0016152494 -0.0011971497 0.0060060113 -0.0012784572 -6.191405e-05 -0.008893591 0.0032069043 -0.0037470886 -0.0007873303 0.00025368074 -0.005005284 0.010826483 -0.0035944497 -0.0058664996 0.0030362413 0.008610286 -0.002334759 0.0064254934 0.0029328521 -0.0071789077 0.00361254 -0.00034410754 -0.0017891217 -0.001199613 0.0004077484 -0.003771443 0.0049074674 0.007742369 -0.0030985978 -0.0068312907 0.0039405865 -0.0061761 -0.0024361927 -0.0027685105 -0.00047147114 0.0019062236 -0.0019392968 0.0019697873 -0.00051994575 0.00086033763 -0.0004577184 -0.0071369093 0.0003111105 -0.004122245 0.0034368287 0.0013938885 0.0013738459 -0.0027690867 0.005929121 0.0042877845 0.0019011735 -6.5120585e-05 -0.001656189 -0.00299312 -0.004150802 0.0015089455 -0.0033013031 0.0028989587 0.004111081 0.0012494725 0.0021120568 -0.0055882223 0.0037925304 -0.00032161913 -0.002866809 -0.0053157425 -0.00079557335 -0.0033793794 0.0033743067 0.0051095565 0.008222202 -0.002883723 -0.003975353 0.0005385033 0.007376269 0.0047844104 -0.005079418 -0.0039652204 -3.7162983e-05 -0.0014304618 0.0022335397 0.008682324 -0.0058113863 -0.009506503 -0.0044415984 0.0046066856 -0.010634591 0.005971496 0.0034592382 0.0004975106 -0.0059307315 -0.003827794 0.00041298915 0.005885906 0.003960572 -0.0026292643 0.0068226038 0.004233212 0.001682242 0.0049951095 -0.0005376921 -0.0015855301 0.0006221229 -0.0023950734 0.004382617 -0.0041215303 -0.007943454 -0.0019072487 -0.0012598924 -0.003275337 0.010373452 -0.0037418592 0.0013698726 0.0010896302 0.0014750669 0.005397461 0.007418323 0.0035753674 -0.006512341 -0.0004954382 -0.0020451883 0.0036471055 0.005082206 -0.0054993336 0.0017957403 -0.0025230728 -0.0021470888 -0.0044196746 0.005274546 -0.007575944 -0.0021803447 0.0011196681 -0.006277039 -0.0023100823 0.0039492203 -0.006885004 0.0007572249 0.003635694 -0.006518537 -0.0056427177 -0.00863408 -0.0038305973 0.0022395689 0.004674544 0.009430634 0.005079176 0.0010331776 0.0018435867 0.00017443027 0.0026839133 -0.0039583147 -0.0034136595 -0.0029732485 7.765657e-05 0.004090262 -0.0051143146 0.006128158 -0.004567389 -0.0022612144 -0.00051338173 -0.00076643954 -0.0027497306 -0.00051912334 0.0035960074 0.0012395486 -0.004489238 -0.0044886847 0.0039144894 0.00011919247 -0.0028307328 0.0050722896 -0.00030830543 -0.0043956377 0.00030677955 0.00096011965 0.0024189202 0.00030453768 0.00036117443 -0.0005097062 -0.0004693472 -0.0062059304 0.0009666326 -0.0071766134 0.0041017076 -0.0036967862 -0.0022792183 -0.006867862 -0.0024470442
三座大山 -0.0019064015 -0.0025489535 0.0010100623 0.004740944 0.0040526465 -0.0007825569 -0.0009930782 0.00212963 -0.0039503756 0.0042120563 -0.0019428753 -0.0034633896 0.0027214792 -0.0045773494 -0.002199196 0.00064982293 0.00341737 0.00072767725 -0.0018944519 0.0076338076 0.0017814285 -0.0026638708 0.0017045988 -0.006284982 -0.001190488 0.0013548902 -0.00033572322 0.0018896614 -0.0036599792 -0.0028536306 -0.0007753828 -0.0018183845 -0.0008408822 -0.0011839654 -2.460289e-05 0.0010482627 0.0020776582 -0.0067327865 -0.0017694917 -0.0018960179 -0.008645784 0.001341952 -0.0010160224 -0.0028786075 0.0048213517 0.0023969386 -0.0024018285 4.3371318e-05 -0.0016155272 0.00391516 0.0037665144 0.004941726 -0.0008041051 0.00164549 -0.0056367605 -0.001414542 0.000692552 -0.005324313 0.0043424214 0.0044576735 -0.0014703445 -0.0008799489 0.000860148 0.00020851454 -0.00094216893 -0.0031672497 -0.0017148936 0.007927699 -0.0031509034 0.0010942017 0.005533397 -0.0030110166 -0.0032913052 -0.0052846777 0.00073334895 -0.00051816687 -0.0010746191 -0.005329314 0.0013924481 0.0036604952 -0.004066023 -0.002014107 0.002936194 0.0064064483 -0.0008518728 0.0036687672 0.005252935 -0.0028635948 -0.0011273621 -0.0036751027 -0.0022873953 0.0010000429 0.0026339693 -0.0055582235 0.005642132 0.0070902915 -0.001711506 -0.006698752 -0.0018836985 -0.003972523 -0.006936546 0.0021909075 0.004366878 -0.0004936296 0.0038333947 -0.0002813752 0.002153158 -0.0009953188 0.003581307 -0.0049566664 0.003952943 -0.00025523824 0.0006391308 -0.00078376743 -0.0054169833 0.00046528195 0.0039166957 0.004091832 -0.0027093242 -0.0038675917 0.0014423447 -0.0047792015 0.0015229001 0.0014970811 -0.0034090213 0.00062438834 0.0011916093 -0.0024853018 -0.000120983765 -0.0014938938 -0.00031630354 -0.001959356 -0.00013577912 -0.0004478438 0.00068294175 0.0012113837 0.0029126387 0.002068338 0.0032842208 0.0034956406 0.0015065058 -0.0046948986 0.0058259075 0.005287597 -0.0019832053 -0.004044003 -0.0034251604 0.0014269719 0.0053749713 0.003651316 -0.0057322695 -0.0021968756 0.00010007826 0.0015707606 -0.009963735 0.0015920117 0.0007264713 0.0008443668 -0.004988989 -0.0010386135 -0.002048191 0.001379653 0.0051785787 0.0023078278 0.0048987484 -0.00011370874 0.002553016 0.004208417 0.00288826 0.0021871314 -0.0037456516 0.002650331 0.0042839227 0.0010535795 -0.0024674295 0.0017016021 -0.0036868686 -0.0034604268 0.0063132006 0.00045557355 -0.0026679977 0.00047178424 0.0033489973 -0.0015092185 0.005326852 0.005811692 -0.010152208 -0.0010121523 -0.0059038852 -0.0031944585 0.007330404 -0.004736288 0.002244637 -0.0046212547 -0.0024525244 -0.0058529526 0.0018245552 -0.0037540954 -0.0065320856 -0.003656264 -0.006011861 -0.002898232 -0.0010477791 -0.0052749827 0.0007946203 0.0013852501 -0.0015233681 -0.000513079 -0.0044353246 0.00083149923 0.0040745353 0.0028818732 0.006094168 0.004950324 -0.0031484491 0.0025395947 0.0051959883 0.005188463 -0.001205605 -0.0023199786 -0.00020324568 -0.0016410868 -0.002073347 -0.002232137 0.0036151563 -0.0014905734 -0.0035798629 0.0024790205 -8.2937055e-05 0.0011411685 -0.0030327071 0.002190922 0.002494305 -0.0046329186 -0.005664132 0.005869129 5.9474078e-05 -0.0041170754 7.1755026e-06 -0.0016583946 0.0010415909 -0.0010726175 -0.0012006398 -0.001706899 -0.0054136966 0.0012764394 0.0014398228 -0.0031579032 -0.0020971326 -0.005836566 -0.0040227277 0.005450047 -0.001581397 0.00020030851 -0.004464882 0.00012113791
Dm02 0.0017554302 -0.0012089916 0.0027349885 0.006996155 0.007868116 0.0008704668 0.0056513576 -0.00011393779 -0.003296099 0.0074032107 -0.0003483084 -0.0026623681 -0.0006614441 -0.0078422185 0.005437714 0.006775629 0.0055585317 0.007559381 -0.0011680279 0.0061739525 -0.0018345214 -0.0025618665 -0.0032142033 -0.0072146407 -0.005569014 -0.0011965506 0.0043895673 -0.00070331275 -0.0062520993 -0.0046344963 -0.0012250191 -0.0031149217 -0.00082902325 0.0035983156 -0.0035593493 0.009390944 0.0041346257 -0.0068766386 0.001502207 -0.0032614393 -0.01009977 0.0007518931 -0.0045752306 -0.0035551419 0.006511339 -0.0042553167 -0.00023670642 -0.0020497302 0.0012072874 0.0031947223 3.9522743e-05 0.0038917176 0.006058621 -0.0027453653 -0.001735696 0.0008702141 0.0031257938 -4.496013e-05 0.0009300541 0.0016714799 -0.0029486301 0.006633292 -0.0042991466 0.00066619203 0.003022652 -0.0035309917 0.00284721 0.0030414131 -0.003901488 0.0013096393 0.0007581647 0.002583192 -0.0047969306 -0.0037973993 -0.0009968531 -0.0020393366 -0.0028332656 -0.0049698874 0.0012246578 0.0120194545 -0.00083770533 -0.0006551654 0.003734188 0.009721222 -0.00041158064 -0.0007596071 0.009834351 -0.011028034 -0.0012855395 -0.0005342916 0.0033294507 -0.0065713013 0.0029456383 -0.0017053813 0.00026313547 0.008358324 -0.008493142 -0.0014306006 -0.0024260492 -0.0012971178 -0.0019774125 -0.003134559 0.0028058314 -0.00034882166 0.0046894564 0.0075822594 -0.003212769 0.0013488851 0.0029400387 -0.007896917 0.003624034 -0.008410606 0.0025323406 -0.0016830895 -0.0003188817 0.0018241394 0.0015515396 4.0602816e-05 -0.0053403885 0.0020630825 -0.0004893037 -0.0007340999 0.0012472225 -0.0032943226 -0.0010427098 0.003470088 0.0072348565 0.003124382 -0.0006078088 -0.004862621 0.006443401 -0.0044158706 0.0024627736 -0.0007636941 -0.0010229313 0.0014074884 -0.001616978 0.007185244 0.008846962 0.000877138 -0.004811667 0.0025870109 0.00832308 0.0018647043 -0.005773439 0.0017005296 -0.004297244 0.0038591383 0.0040897583 0.0050529987 -0.00560963 -0.007703074 -0.003961122 -0.00084097695 -0.008312766 0.008047877 0.0051866965 0.0014264705 -0.008545157 0.002215122 -0.00090870744 0.00050273776 0.007206958 0.002123415 0.0023239483 -0.0011845015 0.0015164615 0.006008561 0.005922501 -0.0029664573 -0.0018714007 -0.00023646076 0.00038184962 0.00040966689 -0.0075731776 0.0021102326 -0.005026638 0.0032681858 0.0068374686 0.0037934312 -0.00046047295 0.001589899 -0.0015018238 -0.0018129116 0.005367477 0.0023174286 -0.0046307156 -0.0014119186 -0.005469288 0.002800334 0.006045771 -0.0058787735 0.006178503 -0.0025879873 -0.0027229988 -0.00028080348 0.0047570644 -0.0026210214 -0.0044945837 0.0025583578 -0.0040629804 -0.0054207146 0.005626366 -0.0059214267 -0.004744466 0.0033550293 -0.0074466118 0.00045993426 -0.008603332 0.003490879 -0.0016480531 0.0042338865 0.0107550565 0.007581351 -5.805951e-05 -0.001393999 0.00062540337 0.008278193 -0.0032379124 -0.0017305887 0.0003885765 0.004541204 -0.0017345187 -0.0028798904 -0.00046989165 -0.0067930324 0.0004739685 -0.0016697765 -0.0029993688 -0.0034284533 -0.006397356 -0.0028922847 0.0033445875 0.0015154425 -0.002164898 0.002695731 0.0028414978 0.00029814837 -0.0016321635 -0.0058478964 -0.0026119254 0.0029401865 0.00019040953 0.005712812 -0.0008084819 0.00094910717 0.005668789 0.0033316363 0.0002794357 0.0008239358 -0.007480566 0.006338921 -0.0056709107 -0.006565834 -0.012546309 0.0023966464
中国 1.0761374e-05 -0.004774462 0.0017952602 0.005224728 0.0052662552 0.00265493 -0.00013944168 -0.0021716105 0.00080495584 0.0012074821 -0.0034310038 0.0011856786 -0.0014116011 -0.005513103 0.0022395053 0.0062742825 0.0049551367 0.0033300512 0.0006552492 0.0060181306 0.0029671483 -0.00097312086 -2.6952586e-05 0.00038029416 -0.0072412994 0.0036637874 0.0009118449 0.0027479862 -0.0028460694 -0.0020116183 -0.0021022377 -0.0006917667 -0.0017265689 -0.0011903016 -0.0011271015 0.0070351395 0.004943945 -0.0055609965 -0.0013535204 -0.0025173859 -0.0029373325 -0.0008021986 0.00067464856 -0.0005871782 0.0016719301 0.002924825 0.0043645203 -0.0014736521 0.003122939 -0.0025412363 -0.0030230447 0.00012087328 0.0056073335 0.0014896576 0.00031419398 -0.0035025307 0.0039243456 -0.0014603293 0.001732338 0.000819259 0.0020236874 -0.0016958296 0.0017392013 0.0037330561 0.0010451579 -0.002652725 -0.0037602936 0.00092282647 -0.0023501145 -0.00025800764 0.00059348834 -0.0011808702 -0.005524856 -0.0048281774 -0.0006918559 -0.0034345284 0.0013569571 0.002462275 0.0008497408 0.0065548513 -0.0022921772 -0.002436851 0.002312166 0.0056941253 0.002669311 0.001632963 0.0064822948 -0.0026250079 0.0012708944 0.0021481838 -0.0013178956 -0.0034169776 0.0043519433 0.00088345644 0.0036714028 0.0012551547 -0.0009548367 -0.002072568 6.3888394e-05 0.00092956296 -0.0018587863 0.0019134254 0.0017884912 -0.001908943 -0.00036970992 0.003140238 -0.0026089442 0.0036068403 0.0051838807 -0.006595299 -0.00013605462 -0.005146165 0.00063406373 8.181958e-05 -0.0024059543 -0.0016551266 0.0031224464 0.00505871 -0.0027150349 -0.0034192477 0.0004607105 -0.004959915 0.0025201852 -0.00019800304 -0.004599596 -0.0031616334 -0.0014679212 0.0011443777 0.0027852731 5.6585736e-06 0.0020837076 -0.00050011906 0.0018042581 -0.002971406 -0.0030688748 -0.0009399743 0.0025149095 0.0017482053 0.0033954396 -0.001099783 0.0018290387 -0.0018970572 0.0067677638 -5.0181003e-05 -0.008435105 -0.00329998 -0.003689679 0.0014826206 0.0054041245 0.0043026907 0.00040118047 -0.0033814642 -6.253266e-06 0.0013811977 -0.0068878154 0.005291702 0.0028910397 0.002596383 -0.0074701663 -0.0035239311 0.0009413967 0.0007654111 0.0012338544 -0.00048634314 0.00067367754 -0.0024866662 0.0024799858 0.0018449619 0.0007863524 -0.0007820581 -0.0013142554 -0.003740218 -0.000268361 -0.0008437667 0.00036482536 -0.0029190122 -0.0042533106 -0.00076186925 0.005615917 -0.002351761 -0.0022615124 -0.0034982073 0.0031678723 -0.002350146 0.0021755358 0.0022530619 -0.004772639 -0.005920966 0.0014269685 -0.0008153758 0.0036215675 -0.004795106 -0.0008478555 0.00038328013 0.0020485597 -0.0013004885 0.0036622619 -0.0062797754 -0.0033733647 -0.0014125863 -0.0043952083 2.6957803e-05 0.001714995 -0.0057850517 0.00088559854 0.0025585946 -0.005741246 -0.00033029928 -0.005007544 0.003345749 0.0020755492 0.0023860894 0.0037980857 1.7501614e-05 0.003822193 -0.00024048297 0.0055696415 0.005629532 -0.0071137073 -0.00036889504 -0.00023426775 0.000112418595 0.0049768467 -0.004322593 -0.0014606429 -0.0015743526 -0.001392629 -0.0020699408 -1.3708062e-05 0.0017753383 -0.0043594725 -0.0016654081 -0.0032180934 -0.0005062412 -0.0031746503 0.0056650136 0.00044667564 0.00056314113 -0.00010052009 0.0012108159 -0.0020264562 -0.0035201 -0.003645864 0.0011503183 0.0011079094 0.00168057 -0.000766778 -0.0027889032 -0.0059210816 -0.00033056308 -0.006226299 0.0043095243 -0.0009096816 -0.0027314606 -0.009665132 0.0029768853
人民 -0.00013788126 -0.006549512 -0.0034824845 0.0056596794 0.005108485 -0.0040476345 0.0016087412 0.0025267988 -0.004370878 0.00010066619 -0.0009975344 -0.004296336 -0.00019455294 -0.0032574025 0.0049103294 0.004447777 0.0033494337 0.0054641427 -0.00492612 0.008559776 0.00062909006 -0.0009948489 -0.0050409622 -0.0021969257 -0.0011499244 0.0022595979 -0.0027521874 -0.00087815867 -0.0049533146 0.0013529325 -0.002468783 0.0024002155 -0.0028613803 -0.0015671587 -0.004786181 0.006015509 -3.513482e-05 -0.005218746 -0.00088530476 -0.0032588486 -0.00693577 0.003946696 0.00045714702 -0.0026476367 0.0012028364 -0.00027170047 0.0036602411 -0.0040339343 -0.0008085348 0.0032551293 0.0028976472 -0.0015172872 0.0052679474 -0.0035402842 -0.005232235 -0.0034350918 0.0032072724 -0.0019186228 0.00363985 0.0052477224 0.0019964704 0.0010134517 -0.0029274453 -0.0017796815 0.0021615701 0.0027870557 -0.0038269456 0.005642943 0.0012373053 -0.0034673058 0.0001933403 -0.0030873767 -0.004306539 -0.006965694 0.0017965513 -0.0033936086 -0.0011074173 -0.00019472872 -0.0009852909 0.0036990456 -0.0024020837 -0.0010278304 0.0027074427 0.005086412 -0.0013898957 0.003374446 0.004835891 -0.006680855 0.0020788042 -0.0037123726 0.0033362757 -0.006054496 0.00080622296 -0.00034549588 0.001320353 0.0060667368 -0.0024447257 -0.0066525424 0.00014505908 -0.0046699066 -0.0072872625 4.516956e-05 0.0045190006 0.0053644464 -0.0009393317 0.0014697494 -0.0030370038 0.001359056 0.0037762662 -0.007379359 0.003215358 -0.0067519457 0.0012487335 0.0027970416 -0.0038865309 -0.0007770451 0.001106718 -0.002103154 -0.002115156 0.0016793167 -0.0046204543 -0.005249866 -0.00015895987 0.001555747 -0.001232144 0.0039641494 -0.00038204898 0.0039187805 1.2449996e-05 -0.003702429 -0.0006308407 -0.0003020764 -0.00036574135 0.00016081917 2.7279306e-05 0.00020823331 0.0033877473 -6.537117e-05 0.004014191 -0.0022587425 -0.0045724264 0.00044961076 0.004428702 0.00088656286 -0.005952126 -0.0034229273 -0.0036977911 0.0017691862 0.0071379207 0.0066933613 -0.0052227997 -0.0030702981 -0.0035860483 -0.0001235372 -0.008542522 0.0007550399 0.0038094441 -0.0038553867 -0.007808027 -0.0016729111 0.0041512297 0.002486519 0.0045660944 0.0030106148 0.0006222494 -0.00089817576 0.0021725958 0.005614986 0.0043056034 0.003417364 0.0024920597 -0.0010142671 0.00070045126 0.0019477304 -3.7537156e-06 0.004088377 -0.0060517048 -0.0020127343 0.007161517 0.0004900135 9.897519e-05 0.0026811226 0.0037078657 -0.0015537287 0.0028986405 -0.00094306865 -0.003377397 -0.0011510652 -0.0032399204 0.00082064467 0.0071933763 0.0018137962 0.00524981 -4.836153e-05 0.0013806033 0.0005085815 0.0019356717 -0.0041238484 -0.007109695 0.0005066369 -0.007830875 0.00038220067 -0.0008579135 -0.0040059728 -0.00016851588 -0.0007489126 -0.007400607 -0.00045442375 -0.0065505207 -0.003635198 0.0019790013 0.0016203356 0.0074924175 0.00153049 0.00082576356 0.00019416257 0.0052853334 0.0008476932 -0.0020651778 -0.0035701669 -0.0045383703 0.0016111268 3.5069752e-05 -0.004239133 -0.00052080065 -0.002031913 -0.0035578324 0.0011733023 0.0006280715 -0.0003975335 -0.0027813108 0.00276782 -0.004185913 -0.0048368764 0.0002630311 0.006037958 -0.0028294835 -0.0034971675 0.0011918568 -0.0057648253 -0.0012497382 0.0033462017 -0.003135103 -0.0013675368 0.0011699728 0.0001991818 0.00010107737 -0.001249974 -0.0055680266 -0.0037808479 -0.004273213 0.0036731514 -0.0016779401 0.00035889528 -0.003935847 1.751671e-05
Al02 -0.004116115 -0.001778621 -0.003183176 0.0066655874 0.0062852185 -0.0011303651 0.004984365 -0.0011044476 -0.0022907895 0.0029735903 0.0028110181 0.0021613287 0.0002689565 -0.002972266 0.00023966351 0.008243397 0.00012851262 0.0025100764 -0.0055402787 0.009959832 -0.0008266544 -0.0017068642 0.001646756 -0.0068379836 -0.0057677147 0.002965444 -0.0025108645 0.0041573504 -0.0025195815 -0.003445431 0.0021809435 0.00390831 -0.00080829335 0.003754552 -0.0046753986 0.003501362 0.0076726754 -0.0010589622 0.0030853336 -0.0030357854 -0.0037738306 0.005069246 0.0011933111 -0.0023419827 0.007393573 -0.0033967993 -0.0014666045 -0.0024348102 0.0026449242 0.00070202915 0.0030576582 -0.002084745 -0.0014365759 0.00351602 0.00014025862 -0.0027774733 0.0010831665 -0.003491036 0.0022393642 0.0064906217 0.00079974026 0.0015646857 -0.0021560872 0.0007263473 -0.0012854496 0.001107948 -0.004203866 0.003307536 -0.003651267 0.0020755478 0.0058074784 -0.0012548782 -0.00076445466 -0.0057578636 0.0030543273 -0.0019497041 0.002034838 -0.0035138188 0.0029170744 0.011717354 0.0019091624 -0.0029057201 0.00076102087 0.0032079706 0.0027582725 -0.0005562198 0.001984589 -0.0038574692 -0.0010320931 0.0023415992 -0.0024747092 0.0015851607 0.0027481199 -0.0070498656 0.004625759 0.0017248603 -0.0024671168 -0.0016452508 -0.003692208 -0.00060012075 -0.0022941658 0.0030352068 -0.0007580884 -0.00028066678 -0.0025821133 0.0048481603 -0.002028915 0.0028622658 0.004891091 -0.0004952744 0.0035055804 -0.0036999348 0.00178536 0.0022496658 -0.0057455157 -0.0035817649 0.0019003089 0.0032326146 -0.0015346748 -0.0038026525 -0.0018553623 -0.0005379293 0.002271556 -0.00053759845 -0.0037659388 -0.0017479012 0.002110639 -0.0024506426 -0.0011235435 -0.0015520871 0.0034452246 0.0009011559 0.0023385936 0.00042376565 -0.0027107822 0.0029950135 0.00016493606 0.003987389 0.0035690274 -0.0020645133 -0.0021990468 -0.0039175837 0.007359372 0.0035447632 -0.006596488 -8.963829e-05 0.00048455346 -0.0011051326 0.0061445595 0.00468343 -0.002916911 -0.0053024893 -0.006829598 0.0045612003 -0.008397693 0.0001088609 0.0029396948 -0.0034092946 -0.0021989853 -0.00238382 0.0009122448 0.0017329421 0.0012217583 -0.0017370322 0.006065706 0.0014960774 -0.004887535 0.0040517673 -0.0013691835 -0.0017610007 0.0010900084 0.0015387809 -0.0020111431 4.9483697e-05 -0.0013754738 -0.0028842548 -0.004576265 -0.00065480714 0.0022915064 0.001109198 0.0027457597 0.0004640869 0.002448813 0.00093207415 0.0043790964 0.00013291741 -0.007396339 0.00015440573 -0.001694905 -4.7452926e-05 0.007943333 -0.0003591648 -0.000110623216 0.0016681686 0.004792074 -0.0065344335 0.0043676854 -0.007767443 -0.0037128623 0.0016702551 -0.0073613334 -0.005576808 -0.0017290855 -0.007828763 -0.0032623706 0.003657731 -0.0028687483 -0.0058067376 -0.00038443145 0.0026748928 0.0039360886 0.0059232 0.001920159 0.0039916346 0.0014438842 0.0015325948 0.0052327416 0.0019428517 -0.003158033 0.0040454147 -0.0052413004 0.0044862987 0.0028772743 -0.004543188 0.0013528174 -0.0075413208 -0.0031203707 0.00291444 -0.002106171 0.0035111804 -0.0058903713 -0.0028589421 0.0023444593 0.0016161125 -8.9669156e-05 0.0059172763 0.0027522212 -0.0026598123 0.0051354524 -0.004832087 -0.0035823379 -0.0025855394 0.0016085901 -0.0004037073 -0.0010534399 -0.0001324145 0.0012321923 -0.0024289386 -0.0046661436 -0.004209112 -0.002802767 0.004950904 -0.0032170154 -0.0024510322 -0.009358615 0.004976443
一个 -0.00033381293 -0.005384812 -0.0011315143 0.0055095563 0.0036976 -0.0026212982 -0.0013175746 -0.0020244236 -0.0020745047 0.005828039 -0.003553762 0.00021890845 -0.00020338042 -0.0025802343 -0.001666121 0.0070638335 0.0015514363 0.0058246558 -0.006769116 0.007504224 -0.0027956956 -0.0020624874 -0.0016696007 -0.0038216019 -0.0040677674 0.0015240526 0.0023848533 -0.00046232753 -0.0041726828 -0.003466267 0.0033923031 0.0022770464 0.0027616082 0.003257109 -0.0036544949 0.0076299934 0.00053910783 -0.0015871977 0.0005220193 -0.0014363284 -0.0035586911 0.002176826 -0.0037002058 -0.0027860831 0.0034135121 0.0016565258 -0.00095563265 1.148564e-06 -4.758462e-05 -0.001856652 -0.0017010331 0.0021622728 0.005640178 0.0034823043 0.0013392479 0.0017601692 0.0012042477 -0.0028603044 0.005711931 0.004934214 0.0024919077 0.004882602 0.00024410713 0.0024937317 -0.00094653555 0.0018550727 0.0030416022 0.0012600685 9.439173e-06 0.001768403 0.0042663333 0.0017831518 0.0006682461 -0.004922495 0.0028821665 0.0019908731 -0.000677972 -0.001689849 0.002808711 0.009019082 -0.0032641913 -0.0036004575 0.0002506975 0.0069445 -0.0005981039 -0.0012430245 0.005233818 -0.001888634 0.0009873485 0.00092178816 0.0015098648 0.0011752084 0.005158837 -0.0017225213 0.0016615114 0.004711161 -0.007510313 -0.0005291115 -0.0012804926 0.0010229223 -0.007841851 -0.00070095644 0.0053693675 0.00015525564 0.00020875568 0.004569884 0.0031579456 0.00053098594 -2.7085047e-05 0.00052128214 -0.0014429375 -0.0026153899 0.003265938 -0.0020876154 -0.0040308065 -0.0045036017 0.0017846957 0.003285699 -0.004258642 -0.0012661717 0.002185897 -0.004701231 0.0011237008 -1.853867e-05 -0.0032292593 -0.0021133684 0.0058455383 -0.0009313324 0.0054360963 -0.0021728016 0.0034886114 0.0011996649 0.00091501843 -0.0009255218 -0.0021929785 0.0025030577 0.0005682089 0.0014888563 0.0067523927 0.0035251337 -0.0033417773 -0.0003115661 0.005204816 0.0005381599 -0.0048810598 0.0027272773 0.00059724605 -0.0013006985 0.0026558589 0.007569189 -0.0038403936 -0.008004496 -0.0029501698 -0.00109024 -0.006481126 0.0034567832 0.00056137936 -0.0026421237 -0.0012572415 0.0019002217 0.0020816226 0.0024390134 0.005642616 -0.0023015228 0.005449066 0.00041333877 -0.003995331 -0.00028322148 0.0016099224 0.0029327015 -0.00014139722 -0.0036166168 0.00089260325 -0.0017289177 -0.0050533516 0.003373689 -0.00042391222 0.00020875358 0.0061108028 0.00042918447 -0.0038942976 0.00093239034 0.0038895367 0.0027188412 0.00501546 0.00081659603 -0.00520793 -0.0051596235 -0.0006793981 0.0007722697 0.003922444 -0.0016743741 0.0037507522 -0.0004183301 0.001205305 0.0008119942 0.0026812633 -0.0036161586 -0.0044130324 -0.0027618022 -0.008053481 -0.0032008116 0.002980916 -0.00013450017 -0.00028180948 -0.0019856887 -0.0024441346 -0.0035282786 -0.0040577007 0.0034610704 0.003692879 0.0016712388 0.0023166162 0.005539597 0.00432318 0.003907432 0.0023007705 0.007560675 -0.00078566873 -0.0037498653 0.002059906 0.0012204667 -0.0005782479 -0.0011442743 0.0050091175 -0.006455883 0.0028387192 -0.0017169169 -0.003925643 0.0018394947 -0.0043480173 0.00196298 0.002510729 0.0024567773 0.00088044145 -0.00089809945 0.0015794709 -0.0037873425 0.0011724143 0.0018355642 -0.0039965333 0.0013881784 -0.0030862258 -0.0019593677 0.00073607016 0.001837527 0.004517342 0.0010653002 -0.001693992 -0.0005171218 -0.0060979566 0.0062193344 -0.0036168238 -0.00089709606 -0.008658239 0.0011788191
Dn08 0.0015401418 -0.003037082 -0.003272023 -0.00054260367 -0.00069815526 0.0034063372 -0.00033836882 -0.00016880633 -0.004173199 0.00031521727 -0.002461373 0.00096892676 0.0021346956 -0.001759048 0.0050193737 0.0038914212 0.0059674866 0.005864094 -0.001210833 0.0050147623 -0.0025634686 -0.0015097752 0.0013672721 -0.004984905 -0.0020195665 -0.0017530922 0.004198196 0.00027378768 -0.0016589537 -0.002707349 0.0025048575 -0.002438771 -0.0034724858 0.0034226445 -0.0026978662 0.0030892845 0.004660898 -0.00033200896 0.0038158228 0.0015081653 -0.001687733 -0.00094434846 0.00048357676 0.0019796065 0.00085298857 -0.00019271542 -0.00017448078 -0.0027744044 0.0045305 0.0007988041 0.0016714574 -0.0010122086 0.003912244 -0.0011018846 -0.003583107 2.1106307e-05 0.0056722015 -0.003859066 0.0031469918 0.0014969831 -0.0027116586 5.9198526e-05 -0.0035086712 0.003450218 0.0006588767 -0.0028900907 -0.0002187786 0.0048988736 0.0034443534 -0.0051526045 0.0020908955 -0.001176477 -0.0027727897 -0.0034158754 0.0028063126 -0.0009824967 0.0037680038 -0.0011813114 -0.0012099133 0.007915243 0.0022931243 -0.0015737492 0.0011021681 0.006910639 -0.002288082 0.0034965076 0.0033139214 -0.0067493697 0.0024948737 -0.002139982 0.0013877233 -0.004200371 0.0024198815 -4.296605e-05 0.0040097893 -0.0006057311 -0.005731161 -4.886542e-05 0.001465454 -0.0017725924 -0.0055346536 -0.00026147297 -0.002105532 0.0019143177 -0.0010202472 0.002198732 0.0014174485 0.0015611654 -0.0008028956 -0.0022739738 -0.00096286926 -0.0039482825 0.0015085142 0.003925832 -0.0039056581 0.0002024288 0.0046795695 0.0049870024 0.0015929592 -0.0029611404 0.00064576167 0.0012651732 0.0015619457 -0.0001446898 -0.0019904482 0.0013718515 0.0035929952 0.0035893712 -3.383821e-05 -0.004355609 0.004336564 -0.0031960204 0.00031015582 -0.0015149814 -0.0003633459 -0.0022349753 0.0012983446 -0.0013730668 0.004196474 -0.0018767553 -0.0031208736 0.0009842094 0.0032559896 0.002753642 -0.0036781996 -0.0043633245 0.0021029913 -0.00042445032 0.002139915 0.005897412 -0.0027647892 -0.0021182534 -0.0010540384 0.0022508388 -0.0026980133 0.0061584506 0.0015214225 -0.001927369 -0.0018823721 -0.0032908532 0.0042350153 0.0022620203 0.004227574 0.0008344703 0.0018222642 0.0010512487 -0.0026019954 0.0062943366 0.0036505375 0.001249394 -0.0026502958 -0.0035462473 0.0034659675 0.0009632008 -0.0042857984 -0.0031873262 -0.0036487142 0.0006176894 0.00027270877 2.6812679e-05 0.0010846392 -0.0040994436 0.00079817785 -0.001382816 0.001666408 0.0010809997 -0.008708502 -0.0032144496 -0.004478944 -0.002976808 0.0037674508 -0.00019032032 0.005751921 0.0025095432 -0.0020132898 -0.0058134743 0.0041833464 -0.0010783202 0.00021018494 -0.0014600583 -0.0055294824 -0.003265891 -0.0022971593 -0.00012459129 -0.0017607168 0.0033369842 -0.0051946864 0.0023244468 -0.0046570017 0.0033553683 -0.0017214478 -0.001531532 0.0066272337 -0.0006649149 -0.0030977805 0.002355941 -0.0014238579 0.0057325605 -0.0019609055 -0.002791591 0.00015468648 0.001423116 0.0044447067 -0.00096274226 -0.0009452369 -0.0036654375 0.0027636809 -0.0019380299 0.003018472 -0.001519628 -0.0037969113 -0.0015563018 0.0008127361 -0.00487209 0.00014078633 0.00028981493 0.0040100473 -0.0022067607 -0.0020917226 -0.00013694659 0.0019246879 0.0008235844 -0.0016120281 0.002312085 -0.0053462177 -0.001201581 -0.0004639343 0.00067904324 -0.0041926494 -0.0045470395 -0.0047105164 0.004849798 -0.0004015031 0.0013328809 -0.0041483273 0.002642466
