387 256
u -0.013345373 -0.02050361 -0.0050335056 0.028370954 0.030877534 -0.010766774 0.040652435 -0.011499832 -0.015534257 0.028558755 0.00067445234 0.0083082635 -0.0061350637 -0.041825794 0.006844749 0.03349854 0.044275522 0.015351198 -0.03912907 0.056058068 0.004683101 0.0047582756 -0.025035582 -0.031828314 -0.031535726 0.011949154 -0.009165678 -0.0012076902 -0.026720937 -0.026173998 0.007953379 0.009737931 -0.003973213 -0.0024526613 -0.016510777 0.05023377 0.04342356 -0.031707488 0.03168313 -0.01746766 -0.03984472 0.02899895 -0.023115642 -0.027323157 0.039691444 -0.0021724992 -0.010255699 -0.005917152 0.014870826 0.01746062 0.016641337 0.025374832 0.011359109 -0.008958784 -0.010205769 -0.008699462 0.03185406 -0.028318455 0.039046295 0.01838938 0.0012582099 0.017180352 -0.009418065 0.017325044 0.03086688 -0.015166331 0.018513385 0.03694929 -0.014609891 -0.008153586 0.018478297 0.0091996975 -0.022802142 -0.02721803 -0.0012771509 -0.0040509985 0.008607628 -0.00907246 0.006620034 0.059076507 -0.00054179947 -0.02134554 0.01234045 0.06074147 -0.004553614 0.026430892 0.041328978 -0.052830912 -0.0010167508 0.0063838367 0.024324836 -0.022368904 0.007402195 -0.0252791 0.031483997 0.02699848 -0.04481531 -0.03354911 0.008685496 -0.011775995 -0.035599403 0.0015891728 0.015252264 0.0028061739 0.01869081 0.019834453 0.0072009736 0.004432426 0.02178038 -0.039249294 0.023936706 -0.017386109 0.008340446 0.016882736 -0.018748403 -0.02553785 0.019903995 0.026784612 -0.0052178404 0.013013311 -0.012875132 -0.026688956 0.00027468082 -0.011745956 -0.016579904 -0.0020105368 0.029476102 0.009024429 0.02586938 -0.019932404 0.022906553 -0.010420446 -0.002989393 -0.024924876 -0.0041477596 -0.008841226 0.018652959 0.023927545 0.05714272 -0.00572221 -0.013390287 -0.008068302 0.033175927 0.012653558 -0.052771207 -0.018140297 -0.026582675 0.00606601 0.022114268 0.035482347 -0.017536689 -0.036230356 -0.023865346 0.022756925 -0.05584578 0.013035336 0.017071512 0.017816776 -0.03835187 0.0064283214 0.023354644 0.012282175 0.0118011255 -0.008119963 0.02114653 0.006616953 -0.007135017 0.031138217 0.018755248 0.007095915 -0.0037477827 -0.004762456 0.005399518 0.0020746514 -0.036083136 -0.014106389 -0.037405975 -0.004868947 0.04381764 -0.009788551 -0.007720798 -0.00034664234 0.018945884 0.0064757043 0.030407397 0.0105108395 -0.051648024 -0.022115968 -0.033991136 -0.0071317255 0.022025334 -0.01624283 0.039079167 -0.013748718 0.022155672 -0.020245342 0.018541656 -0.034068923 -0.019373657 -0.019753909 -0.03864933 -0.018475614 0.012319742 -0.031200817 -0.0042222673 0.0055177202 -0.04422892 -0.023248658 -0.03642876 0.00096686446 0.016072297 0.014660858 0.0342959 0.034997333 0.008001385 -0.0038080155 0.025750909 0.044016425 -0.038436618 0.016413327 -0.003875421 0.012226333 0.03716758 -0.010949003 -0.0039939885 -0.03520181 0.014232987 0.005545263 -0.018233424 0.009369067 -0.020709816 -0.025592096 -0.008949894 -0.013288881 -0.02299458 0.020633906 0.0054156817 0.0028988563 0.021955092 -0.014291804 -0.017146362 0.007141007 -0.001777861 0.018353365 -0.032222707 0.010039672 0.024053963 0.009002562 -0.018785309 -0.026635136 -0.027894616 0.021257777 -0.032431785 -0.021192739 -0.05415459 0.005470335
n -0.01689564 -0.026851136 -0.011203241 0.0286781 0.043585293 -0.011272056 0.049630996 -0.017383972 -0.019209614 0.040167093 0.00020284943 0.013181808 -0.007942734 -0.05120945 0.012540773 0.043755174 0.05450844 0.018995484 -0.04476934 0.07567791 0.0056797196 0.004790754 -0.035016596 -0.03908439 -0.040734205 0.012870283 -0.014120756 -0.0041802945 -0.027964324 -0.032044657 0.011446932 0.009349366 -0.0063025863 0.0005671449 -0.020654574 0.06421987 0.05258443 -0.03732941 0.041805804 -0.016792642 -0.04196092 0.03310199 -0.020991344 -0.033745885 0.044792045 0.0010306007 -0.008928124 -0.012377127 0.017371576 0.015275797 0.025362661 0.031684235 0.018248625 -0.014460439 -0.0125875585 -0.007048366 0.038148124 -0.03377998 0.052319344 0.017039813 0.0055951206 0.018715085 -0.012632779 0.027180389 0.038577117 -0.020548971 0.02660093 0.04608092 -0.020320658 -0.010127874 0.0219587 0.00878031 -0.026163269 -0.028655717 -0.003173106 -0.006752716 0.0039797453 -0.011402706 0.010940891 0.07928414 0.0032334502 -0.02952515 0.008731872 0.07439162 -0.0014588534 0.033205625 0.049668703 -0.06319054 0.0029919571 0.0056622475 0.02987156 -0.02802558 0.0061734966 -0.03139402 0.035060406 0.030419055 -0.054428153 -0.040801767 0.007708687 -0.017355824 -0.03832691 0.00380286 0.018433183 -0.0011189543 0.019486073 0.029028855 0.01125106 0.002082087 0.0297735 -0.04700316 0.028775448 -0.0139569305 0.011497586 0.013162385 -0.022440977 -0.035685413 0.020453447 0.033062924 -0.005525374 0.014484906 -0.01868788 -0.027399477 -0.0056627216 -0.00855901 -0.025047272 -0.0015520845 0.039824635 0.010108826 0.031353258 -0.028685056 0.026671791 -0.00869322 -0.0041897376 -0.031196102 -0.009696094 -0.012593725 0.018828293 0.025231015 0.06857543 -0.011255541 -0.01750103 -0.009514552 0.043525938 0.013641502 -0.065462515 -0.025319923 -0.03815806 0.0071282205 0.027399493 0.044736445 -0.024877377 -0.03866821 -0.0304821 0.028906852 -0.06983851 0.01383375 0.013234579 0.019252256 -0.0482281 0.0025112785 0.031216925 0.01565514 0.019073237 -0.00908025 0.024342135 0.0023032343 -0.0090626 0.044279303 0.018271985 0.0058145146 -0.0024193958 0.0006112522 0.00068447867 -0.0002551041 -0.040570866 -0.013097671 -0.04161128 -0.008503945 0.05402191 -0.01272792 -0.0059012366 -0.0009179088 0.020639934 0.011247793 0.03704221 0.011152861 -0.066552766 -0.01874586 -0.04004005 -0.009072088 0.0273467 -0.01888396 0.048485074 -0.015488046 0.029662233 -0.024093026 0.023825046 -0.042358927 -0.019450286 -0.02922638 -0.050702844 -0.027411126 0.01804965 -0.03975802 -0.006933087 0.00085039105 -0.051099293 -0.02899286 -0.041605085 -0.0019667568 0.025627367 0.022850761 0.03539489 0.04544534 0.0037929663 0.0005662055 0.027768524 0.049937077 -0.04138745 0.025543831 -0.002114703 0.020572817 0.04996488 -0.012973605 -0.0121778585 -0.043604344 0.014659179 0.003017493 -0.021840509 0.0067165727 -0.024696678 -0.026913537 -0.010980651 -0.016804917 -0.022781206 0.024162501 0.008855338 0.0006402058 0.02697457 -0.020059817 -0.015389899 0.009653704 -0.0013279185 0.020170273 -0.04449529 0.011033914 0.027962187 0.0086733885 -0.024245052 -0.032417335 -0.032939557 0.02873874 -0.038992427 -0.024574362 -0.063398294 0.008539642
的 -0.013746111 -0.020758461 -0.0068842825 0.016885491 0.026004354 -0.008744896 0.030129101 -0.012941555 -0.014517369 0.024214115 0.0014677036 0.010527586 -0.0063529112 -0.037369706 0.008589021 0.02429765 0.03604261 0.014780868 -0.027144097 0.045456592 -0.0005016786 -0.0011286659 -0.022630725 -0.022590555 -0.025611807 0.012960654 -0.005285784 -0.0040096366 -0.015299946 -0.02287551 0.0060911356 0.007151979 -0.0068049096 -0.0009166624 -0.012909567 0.044844653 0.032644123 -0.024731565 0.026959838 -0.016096076 -0.026876045 0.025583649 -0.019982994 -0.019925559 0.03641566 -0.0048151463 -0.008805275 -0.010945068 0.01380692 0.011032419 0.019982914 0.016271474 0.011985693 -0.006660483 -0.010777861 -0.004893342 0.02187143 -0.02471236 0.0341622 0.0144423 0.0043272767 0.016153602 -0.0066172574 0.01991307 0.021932343 -0.011786319 0.0154302195 0.030018356 -0.008182513 -0.01005667 0.015491802 0.0010399116 -0.018564686 -0.022776308 -0.004256112 0.00025387347 0.003875847 -0.0059520015 0.00989654 0.054551333 -0.003604434 -0.019563822 0.01227126 0.04949242 -0.0026167545 0.017546503 0.03312774 -0.044349 0.003300096 0.0012000417 0.018951591 -0.017920977 0.0048712976 -0.020253409 0.024975523 0.020615816 -0.035452634 -0.025632938 0.009148221 -0.010977221 -0.026962632 0.0038787257 0.008912019 0.00010664547 0.01677962 0.021025766 0.0061990577 -0.001993638 0.019247191 -0.031125896 0.023277653 -0.01114165 0.008931794 0.012485096 -0.017442986 -0.025026385 0.014276859 0.018827314 -0.00048695106 0.01450492 -0.011306585 -0.019220652 -0.0046014707 -0.005504577 -0.018289829 -0.006209038 0.02337142 0.0025139675 0.02433857 -0.020646451 0.018870266 -0.009974282 -0.0007555855 -0.014796588 -0.007678482 -0.012365335 0.011279002 0.016574072 0.04348286 -0.010950866 -0.016697474 -0.0035620376 0.026731908 0.0072258958 -0.043229014 -0.02062621 -0.026398763 0.002085941 0.017425926 0.026825298 -0.0141904615 -0.025965163 -0.02055304 0.020182818 -0.04792862 0.006071324 0.008175893 0.010720885 -0.031793237 0.0053628334 0.020801727 0.0108880885 0.014070896 -0.0077545196 0.01801322 0.006329233 -0.0093111675 0.030164316 0.015447626 0.0012035675 -0.004607528 -1.2412018e-05 0.0020296355 -0.0026679474 -0.02558259 -0.011596847 -0.03101568 -0.0034028965 0.03307797 -0.006686454 -0.0046674563 -0.0016468047 0.013729486 0.0076656444 0.027550226 0.0071312007 -0.04299847 -0.0129759 -0.02533867 -0.006024511 0.02116509 -0.009528739 0.029687975 -0.008457593 0.020707197 -0.018956687 0.011281014 -0.029904759 -0.013077361 -0.017947918 -0.029681312 -0.017186992 0.012243439 -0.024094004 -0.0041363826 0.0022142516 -0.037698917 -0.02350607 -0.027168637 0.0017018188 0.015193217 0.009526199 0.021934412 0.030856907 0.002640023 0.0013596354 0.017030977 0.036279302 -0.031249132 0.016653536 -0.0013739719 0.008867666 0.03044485 -0.006742971 -0.008257692 -0.027729155 0.006031133 0.0037712657 -0.009393042 0.005661454 -0.019204933 -0.017202679 -0.0016192719 -0.012336432 -0.018770354 0.016417695 0.008225916 0.001712591 0.014016374 -0.011880869 -0.008416473 0.002117521 -0.0030968988 0.016359042 -0.03132013 0.008410437 0.019427503 0.010908216 -0.010605706 -0.022471692 -0.024896123 0.02182951 -0.023851406 -0.012422997 -0.045247186 0.010135519
Bo29 -0.011919923 -0.020581417 -0.005038868 0.021420082 0.03224522 -0.0078314105 0.0315882 -0.012065994 -0.008391435 0.024298253 -0.0008074643 0.0049056374 -0.0063482034 -0.03875535 0.004397253 0.031224437 0.038526464 0.012160672 -0.029392123 0.056075938 0.004647563 0.001630918 -0.023386667 -0.029560981 -0.03305051 0.014259324 -0.008426987 -0.0033647825 -0.021218373 -0.023253541 0.011086767 0.0069061676 -0.010359638 0.0038127974 -0.011944273 0.048430607 0.037892114 -0.024686562 0.03162173 -0.015330991 -0.034698468 0.02547699 -0.015908275 -0.024672512 0.038496517 -0.0034120576 -0.0027286364 -0.008102606 0.008663386 0.011509497 0.014406966 0.019597355 0.011761122 -0.0045305975 -0.008234461 -0.008943522 0.02770051 -0.021801256 0.0345019 0.00919854 0.0020723087 0.011752886 -0.0039755255 0.015717568 0.029512323 -0.010391259 0.016423395 0.032219317 -0.012672785 -0.0050779865 0.015773106 0.0016424615 -0.020471 -0.019272467 -0.0025942284 -0.003979972 0.004496121 -0.008129131 0.006999409 0.056239363 -0.0019566484 -0.021156747 0.008893216 0.050765708 -0.0022992329 0.020763831 0.03577378 -0.045655876 0.0009940983 0.0036312407 0.023045177 -0.022159465 0.0024571177 -0.023928275 0.027789272 0.021412319 -0.040175352 -0.027162986 0.005733742 -0.010067763 -0.03230642 0.0013556575 0.00811562 0.0008860378 0.016660783 0.022495404 0.003089141 -0.0006898117 0.017549708 -0.035328884 0.017168479 -0.013368491 0.008617677 0.009680356 -0.015010298 -0.02412182 0.017330363 0.021588001 -0.0028714028 0.008925533 -0.012867426 -0.020205278 -0.00457279 -0.006287986 -0.015461655 -0.0035040516 0.03133308 0.009667137 0.024094453 -0.0169008 0.019062636 -0.009951839 -0.0042300406 -0.022599539 -0.007879749 -0.0057841167 0.013175524 0.01636896 0.045044225 -0.0061209444 -0.015293839 -0.006460559 0.032616235 0.010322583 -0.045958742 -0.018264435 -0.026496578 0.0090383785 0.02021121 0.026743114 -0.015603026 -0.030985152 -0.020489627 0.020716771 -0.050532162 0.0077356934 0.0151556395 0.01157351 -0.036320813 0.0066220146 0.022407249 0.007781131 0.01527362 -0.003536501 0.019167418 0.00784977 -0.012038605 0.031262882 0.014939985 0.0056938417 -0.0015055409 0.0005888346 0.004628084 0.0020651985 -0.032677766 -0.011972595 -0.030484915 -0.0023183846 0.03517837 -0.005164314 -0.002043566 0.001433454 0.016034758 0.01095741 0.02555389 0.013137014 -0.04404611 -0.019408934 -0.03205384 -0.0056451256 0.020703949 -0.013999668 0.032482207 -0.006251258 0.023881143 -0.019352911 0.012237154 -0.031287335 -0.015649596 -0.022776593 -0.033391684 -0.018839655 0.014121662 -0.02450847 -0.007871054 -0.0015120563 -0.037006024 -0.023872374 -0.02791198 -0.0025708003 0.01850928 0.014077676 0.028175956 0.02924783 0.003945346 0.0018302866 0.021713743 0.032945834 -0.033771493 0.01700255 0.0015693386 0.014433503 0.03051896 -0.0033378697 -0.004936258 -0.026450867 0.013409192 0.00031977336 -0.017307824 0.009383684 -0.016572643 -0.018494658 -0.002528947 -0.011324183 -0.014190277 0.014969244 0.0018825277 -0.0010312857 0.017096097 -0.010170341 -0.014411742 0.0021851799 0.0020211085 0.012290417 -0.0263687 0.0055796844 0.021965152 0.01088209 -0.013926133 -0.02377682 -0.02362125 0.016507085 -0.027300479 -0.016910737 -0.041371796 0.005426227
v -0.01792912 -0.022613937 -0.008604369 0.02753983 0.043213133 -0.0078067216 0.04295307 -0.017233655 -0.012222067 0.03800429 -9.709953e-05 0.012534589 -0.0039518243 -0.052288294 0.007934857 0.039674073 0.05035013 0.017394422 -0.044684775 0.07277122 -0.0006675382 0.00037946695 -0.033505972 -0.03821016 -0.042943597 0.015924962 -0.0120350225 -0.004703554 -0.030374397 -0.02794769 0.01418661 0.011831306 -0.011148985 -0.000332748 -0.015522855 0.06125549 0.04369502 -0.035803683 0.038076635 -0.017376026 -0.046273466 0.033526376 -0.026733361 -0.03281932 0.047691643 -0.0040512565 -0.0075349147 -0.007986806 0.013804285 0.020010758 0.023920538 0.03154202 0.01769761 -0.014597363 -0.017384028 -0.005668912 0.037372142 -0.026707945 0.050264455 0.020279601 -0.0016320227 0.02183199 -0.011075667 0.025172435 0.03920976 -0.017371673 0.025198298 0.04098451 -0.016347533 -0.008402915 0.016697863 0.0067258417 -0.022341326 -0.029803889 -0.0019404973 -0.007937656 0.01052732 -0.006947264 0.009387478 0.07511936 0.00030126938 -0.028685844 0.011240985 0.07070793 -0.0047812704 0.028847748 0.047499888 -0.05903415 -0.0005582156 0.0030632876 0.030199733 -0.02841409 0.0057227453 -0.032325823 0.03051171 0.02606351 -0.050469212 -0.039047554 0.01050353 -0.020610102 -0.041967906 -0.0033124401 0.012859756 0.0031178454 0.020233518 0.026089208 0.0067439913 -0.0007126576 0.027003223 -0.042842913 0.028506808 -0.016477862 0.012615905 0.016813694 -0.027093094 -0.03521882 0.016802698 0.027691266 -0.0036768406 0.018712467 -0.016926818 -0.030265674 0.00028023022 -0.009040734 -0.023153668 -0.0003387949 0.038254447 0.006461082 0.033667937 -0.024663454 0.019658001 -0.010381908 -0.0025090456 -0.02424786 -0.0068584564 -0.012966807 0.019338371 0.025996631 0.06311396 -0.011945415 -0.021870475 -0.0033170998 0.04598438 0.018305799 -0.06356997 -0.024028948 -0.035029422 0.011695586 0.026115468 0.042593304 -0.023194643 -0.03533312 -0.030075287 0.028316027 -0.06587238 0.009936735 0.015042701 0.021568157 -0.046965428 0.0033345257 0.034053706 0.012817887 0.013436278 -0.009507222 0.026623266 0.008075152 -0.010011569 0.037792474 0.014940027 0.0069334735 -0.00023059706 -0.0038671962 0.0010042924 -0.0016931779 -0.043856673 -0.014470138 -0.041523304 -0.0061240024 0.05249541 -0.013253215 -0.0029525787 -0.00021294456 0.01945869 0.013990606 0.03855144 0.01124567 -0.06300443 -0.024130004 -0.04430864 -0.00730285 0.023002064 -0.021402236 0.045159202 -0.011636684 0.029512081 -0.02610865 0.017280223 -0.038227253 -0.01791534 -0.02212624 -0.044901423 -0.02011054 0.014242401 -0.032160282 -0.009436098 0.0063524083 -0.05359967 -0.027717074 -0.038381476 -0.0015344537 0.018899987 0.014898697 0.032985035 0.03754969 0.006925042 -0.0015690146 0.02740039 0.050053738 -0.042108815 0.021134852 -0.00458879 0.012708102 0.048991337 -0.011349769 -0.010812854 -0.03708191 0.015773823 0.0013322684 -0.017904097 0.007185206 -0.026470656 -0.02838263 -0.008251446 -0.013579785 -0.019694274 0.027737753 0.002873781 -0.00014760044 0.027981414 -0.015353855 -0.01906022 0.0076762894 0.001969629 0.018168459 -0.0438536 0.010670088 0.029907942 0.014785531 -0.018286847 -0.032954678 -0.033293948 0.02597725 -0.03309572 -0.024233881 -0.061968867 0.009165372
a -0.013912986 -0.014317026 -0.0057134223 0.024057029 0.025710449 -0.006721231 0.033728145 -0.013428016 -0.012653109 0.024686359 -0.00069198903 0.0063296533 -0.00080659427 -0.038435016 0.008318508 0.027674716 0.03840978 0.014223162 -0.026265126 0.051048324 -0.0024366807 0.0060621975 -0.025351044 -0.027067866 -0.02945593 0.008775097 -0.010201196 -0.005897823 -0.020675015 -0.020194331 0.0069995383 0.010615578 -0.009924791 -0.0016445379 -0.008777048 0.04386863 0.035579227 -0.021735402 0.025983853 -0.014734157 -0.027037105 0.022986341 -0.013066571 -0.017961947 0.035043523 0.0016829863 -0.00991249 -0.010271271 0.010698002 0.013742199 0.018823922 0.021259412 0.013254864 -0.00956435 -0.008277015 -0.0072981175 0.02076975 -0.017109586 0.032942414 0.010652078 0.00057785684 0.0121821845 -0.004233304 0.017937342 0.024221204 -0.016009808 0.0137501 0.027780486 -0.008536224 -0.008310134 0.01292633 0.005120327 -0.020526582 -0.01816914 -0.003016706 -0.0022213212 0.006729423 -0.0075321402 0.0049474225 0.053203456 0.0018822035 -0.015315163 0.009934241 0.050073758 0.00079551537 0.0204152 0.034683533 -0.039378136 0.0021120324 0.0024902925 0.018350013 -0.019689197 0.001699602 -0.019255714 0.025767885 0.023546042 -0.03427431 -0.022183498 0.008414099 -0.013239025 -0.02546434 -0.0020827218 0.013970459 0.0026439172 0.014094105 0.01929034 0.008712757 0.0045396704 0.01813077 -0.03245246 0.02278804 -0.008645414 0.009025074 0.01092356 -0.018827634 -0.02429551 0.017166823 0.01807919 -0.0054870015 0.0146465255 -0.008059305 -0.016377082 -0.0018327945 -0.009478656 -0.011989168 -0.0039283424 0.027657593 0.007698162 0.025160331 -0.021902598 0.018888138 -0.010722571 -0.0048495876 -0.021896828 -0.006519972 -0.0051440634 0.016467672 0.016375165 0.044292446 -0.008766212 -0.010138691 -0.0018943066 0.029489303 0.009010492 -0.044391036 -0.01500868 -0.022561884 0.0044634733 0.0205137 0.026514804 -0.02033303 -0.027063323 -0.018872716 0.014507853 -0.046956602 0.0046169166 0.014810491 0.015050704 -0.03060535 0.005925264 0.02457209 0.008533688 0.01370506 -0.0031109157 0.018078884 0.006813451 -0.010186866 0.02612065 0.013058443 0.005381387 -0.0006254807 0.00080840837 0.004452454 -0.003830199 -0.029979069 -0.012324276 -0.024222655 -0.0010121951 0.033716846 -0.0049300347 -0.0061518587 -0.003972226 0.014967742 0.010032917 0.02541951 0.011539937 -0.042447336 -0.016017247 -0.02819161 -0.005525171 0.0149504375 -0.015690826 0.033170413 -0.00878968 0.017984884 -0.020351453 0.01687522 -0.026430607 -0.011793331 -0.016481116 -0.03397694 -0.015099316 0.013141043 -0.027867343 -0.0038995594 0.0031581637 -0.0315353 -0.0176468 -0.027698176 -0.0039459025 0.017086035 0.013462949 0.026538689 0.030406777 0.004912299 -0.0036640426 0.019235324 0.03562353 -0.03070809 0.018704882 -0.0037101926 0.012953375 0.03204033 -0.0033391453 -0.007534432 -0.028624406 0.0066247317 0.004284326 -0.014457391 0.009967659 -0.020317798 -0.022002205 -0.0065651536 -0.0073372493 -0.018313566 0.015083933 0.0016716777 0.0037840726 0.018594341 -0.010113513 -0.01344065 0.0074865227 -0.0036411127 0.011911646 -0.029641414 0.0064871185 0.018051583 0.011622312 -0.01379193 -0.024565253 -0.025018053 0.01519828 -0.022912411 -0.010800773 -0.042810075 0.009359565
d -0.006504854 -0.01818059 -0.008708209 0.022528991 0.029345023 -0.007927382 0.02600025 -0.008184573 -0.008634866 0.025670826 -0.004586979 0.0030388169 -0.0025737842 -0.037112117 0.0046658064 0.024259122 0.036454722 0.014734193 -0.028213283 0.04710081 0.004593783 0.0014213072 -0.017151073 -0.021331953 -0.024843367 0.008485544 -0.008526161 -0.0038422102 -0.014610245 -0.020954382 0.0071171545 0.011278783 -0.004377464 0.002646863 -0.014836051 0.038200244 0.03244123 -0.023895796 0.026680278 -0.0079629505 -0.027651627 0.019538026 -0.0150453625 -0.021539083 0.026489168 -0.002291336 -0.006685568 -0.0055069197 0.0069825086 0.012557462 0.012127212 0.014835248 0.013147907 -0.0034174833 -0.011691103 -0.0038268955 0.020241011 -0.022775115 0.028188288 0.013561605 0.0039161136 0.01670221 -0.0031727927 0.017815497 0.024229415 -0.016099293 0.016068967 0.025696037 -0.007779577 -0.0059179054 0.010973221 0.007351919 -0.016062362 -0.017633948 -0.004034861 -0.0063687954 0.0011735436 -0.003201564 0.0020965063 0.05050707 -0.0038112255 -0.01687173 0.0069411816 0.040176075 0.0016515111 0.021977961 0.030366868 -0.03649138 5.158277e-05 0.0065269573 0.020745317 -0.020796549 0.002922803 -0.019646531 0.022087747 0.017181508 -0.030613067 -0.026187496 0.0076129124 -0.00921051 -0.022483565 -0.001366492 0.006660291 -0.0032129495 0.01176121 0.013570637 0.0022710077 0.0039089676 0.020070367 -0.026773755 0.015160211 -0.013032809 0.011161938 0.012372365 -0.017452536 -0.024038842 0.01323448 0.01945746 -0.002137226 0.011335514 -0.012517436 -0.02267123 -0.0049436116 -0.0058207475 -0.012496968 -0.00054527074 0.024598004 0.0075990097 0.019870011 -0.015197647 0.010634496 -0.0037348005 0.0004313008 -0.015032582 -0.0011223294 -0.0041671977 0.012225442 0.015721153 0.04047822 -0.010753573 -0.009009513 -0.006476721 0.030707302 0.007895628 -0.038467642 -0.019494856 -0.025499655 0.00202716 0.013340475 0.026202273 -0.01846334 -0.026244462 -0.019823845 0.014383035 -0.038930226 0.0094032055 0.0138022285 0.014319661 -0.03074741 0.0056690765 0.016361736 0.0073023587 0.0070983963 -0.002854324 0.01549406 0.006351155 -0.0064462037 0.022369659 0.014889743 0.0012195591 0.0016861479 8.658506e-05 0.00097400707 -0.0023081442 -0.0287343 -0.010970219 -0.022449028 -0.0037280275 0.034633867 -0.009989856 -0.0021619266 -0.0019012798 0.015768697 0.0030676124 0.025203435 0.0065054535 -0.041233703 -0.01600686 -0.027826596 -0.0054171174 0.014847167 -0.014741334 0.029066984 -0.008274671 0.016600806 -0.014786921 0.009204768 -0.026153311 -0.009623996 -0.012758672 -0.032928843 -0.011956853 0.013137528 -0.024417495 -0.0020148996 -0.0016617134 -0.029332038 -0.016057473 -0.024244517 -0.0030346985 0.011832403 0.010351046 0.023725757 0.026649527 0.007043036 0.0025783791 0.021393621 0.028763758 -0.02264912 0.013573816 0.001297454 0.0116458675 0.028844655 -0.0042797606 -0.007488998 -0.027444877 0.0052668136 0.0034383426 -0.009179637 0.0064182268 -0.016828906 -0.015808983 -0.0012795937 -0.012222328 -0.013943186 0.012999281 0.0056681717 0.0050187404 0.018983584 -0.0079700425 -0.008144249 0.007291008 0.0015753687 0.015202197 -0.027384104 0.009996245 0.019478608 0.0068821996 -0.009517324 -0.01788189 -0.017455539 0.017591033 -0.018291593 -0.013114164 -0.03437724 0.0072046174
c -0.005336217 -0.01398812 -0.0016358194 0.018060496 0.02017342 -0.0056166006 0.024577068 -0.011911399 -0.004408313 0.014170905 -0.003873206 0.00673662 2.9542778e-05 -0.028931469 0.006450339 0.024313606 0.023834078 0.006722727 -0.024098635 0.034855887 0.0015940177 0.0056338734 -0.014503286 -0.019427195 -0.019820144 0.011475548 -0.0018135665 0.00019782009 -0.011939098 -0.018047696 0.0051673395 0.0039875465 -0.0022073106 -0.00058589043 -0.012835998 0.0342819 0.027800651 -0.019206867 0.02297421 -0.00962555 -0.02367993 0.016279755 -0.012001122 -0.016960137 0.02515169 0.0010119757 -0.0017612443 -0.009419911 0.006731418 0.0064178333 0.015175107 0.01719018 0.0062703164 -0.0047008726 -0.010567651 -0.0042406307 0.02203817 -0.016724987 0.022471163 0.0059475545 -0.00016223492 0.01025127 -0.003319284 0.016058689 0.01782632 -0.009043072 0.015430332 0.021716174 -0.007892439 -0.0014030138 0.013436819 0.0068451744 -0.015872026 -0.010471283 0.0006901485 0.0011355053 0.0028786235 -0.0039836294 0.007391374 0.036521945 0.0025305524 -0.012608151 0.009877283 0.03413664 -0.0027181173 0.018098107 0.020027103 -0.03402864 -0.0025300113 0.0020355023 0.013590121 -0.010807041 0.00762767 -0.015803227 0.01729296 0.016032467 -0.026111297 -0.021679524 0.008231063 -0.010611023 -0.01810916 0.0035669415 0.009251471 0.0016448759 0.011351079 0.012297225 0.005468931 0.0014195458 0.016305955 -0.020283641 0.015362881 -0.006446872 0.0028359208 0.011227315 -0.008979686 -0.018855523 0.011045875 0.012578654 -0.0019984732 0.009282957 -0.0050701792 -0.015060163 -0.00049468875 -0.004188637 -0.008264515 -0.0042686467 0.016906323 0.0031768638 0.015238353 -0.011809687 0.008425756 -0.0063542207 -0.004676403 -0.011641098 -0.004393509 -0.009477172 0.011342739 0.016896248 0.03128585 -0.0078795925 -0.008810458 -0.0032786462 0.018471057 0.011241545 -0.034461048 -0.014653945 -0.018575778 0.0018906898 0.013921621 0.025180077 -0.010829745 -0.016479922 -0.014477508 0.013257863 -0.034869853 0.0028006223 0.009725597 0.010116999 -0.026790777 0.00029842526 0.012260753 0.004530188 0.009961016 -0.000115358 0.013623874 0.003831235 -0.0028690584 0.019991888 0.008997773 -0.0005915472 -0.0014232622 -0.0019321996 0.0021759598 0.0023863092 -0.024561385 -0.008604248 -0.02394701 -0.0037527294 0.024263887 -0.0042918855 -0.0009791915 -0.003068479 0.008523625 0.0058552665 0.020228479 0.009030644 -0.032501105 -0.012798627 -0.023655737 -0.0035603447 0.013772896 -0.008928996 0.02608079 -0.007501426 0.014054057 -0.0153168375 0.009431166 -0.023257265 -0.009895366 -0.012687115 -0.027004227 -0.008414053 0.005399898 -0.022466313 -0.0076556513 0.004592357 -0.023976844 -0.010902187 -0.018991241 -0.00032503196 0.00994431 0.013281114 0.01971129 0.022718739 0.0027843814 -0.00062801415 0.017246371 0.024136417 -0.019865524 0.011117302 0.0014917693 0.010057483 0.024711661 -0.0067560086 -0.006338874 -0.018786462 0.004464232 0.0021471172 -0.009729689 0.0064370455 -0.017513191 -0.010473827 -0.004134933 -0.0097805755 -0.010227361 0.0122597655 0.00034807794 -0.0006948525 0.012828557 -0.012180097 -0.008933939 0.0046958746 -0.0020427404 0.010643483 -0.019727146 0.009327623 0.014863591 0.00694846 -0.009207385 -0.016981658 -0.020984901 0.01671184 -0.018850537 -0.014807071 -0.03342409 0.0031501993
-1 -0.004220202 -0.007316843 -0.00078109745 0.008444389 0.01570812 -0.004787179 0.0149216885 -0.0039521945 -0.004387689 0.012197154 -0.004256691 0.0019900994 -0.0021257552 -0.016660787 0.0063370806 0.011961357 0.01563581 0.00952905 -0.017028583 0.025245456 0.0030255953 -0.0010423191 -0.010548758 -0.014449293 -0.0178925 0.005876678 -0.0014507698 0.0020732353 -0.0096467845 -0.008950278 0.002887931 0.0041031204 -0.0054915696 0.0005272521 -0.0076369103 0.021458607 0.015185925 -0.009394058 0.015315626 -0.00782053 -0.017958459 0.01517845 -0.011445129 -0.010260434 0.017978294 0.0021222704 -0.00057569455 -0.0054627634 0.006735481 0.0055591604 0.0050229123 0.00956657 0.0063077323 -0.0015744951 -0.0022716278 0.00021300225 0.010265022 -0.009030495 0.015847007 0.0061940495 0.00097204885 0.010227685 -0.0016003926 0.01082613 0.017777108 -0.007103607 0.006179561 0.012988448 -0.0035679697 -0.006053182 0.0060248226 0.004329231 -0.010819117 -0.012979433 -0.0021545633 -0.0014003601 0.0034809965 -0.0014781364 0.0014277454 0.028938644 0.0026723703 -0.009163799 0.006662283 0.024063557 0.0013241398 0.008611751 0.01870437 -0.026527366 -0.00096396066 -0.0017871682 0.009911626 -0.012056562 0.0011901272 -0.010767307 0.013358838 0.010693481 -0.021766592 -0.015999535 0.0041375784 -0.008004604 -0.018203981 -0.0003906699 0.00867424 0.0024913133 0.003221405 0.011149321 0.0005520805 -0.0027617072 0.010435869 -0.016627777 0.008095966 -0.008853746 0.003736948 0.009170335 -0.012005124 -0.0095497975 0.007460627 0.011172981 0.0019678765 0.008000672 -0.007595867 -0.009727899 6.46635e-05 -0.0009923057 -0.0084429905 -0.0032502788 0.01476522 0.0012622649 0.01244248 -0.008114087 0.010461252 -0.00027959814 -0.004192308 -0.012246371 0.00017456802 -0.003924505 0.004549531 0.010303296 0.025057683 -0.005149579 -0.009276625 -0.00035496242 0.020095387 0.0028458063 -0.023106534 -0.010531914 -0.015570576 0.0024912525 0.0075087845 0.019081006 -0.01164599 -0.013022216 -0.01070099 0.0112133715 -0.023987083 0.0084324395 0.0062322305 0.0046303654 -0.017631091 0.0024828152 0.010483478 0.0018372319 0.0037975437 -0.0053525534 0.011263875 0.0036232881 -0.0011301886 0.01745228 0.004618486 0.0032045154 0.0022729614 7.7584016e-05 0.002632403 0.0021309264 -0.019609151 -0.0015519313 -0.012856003 0.0017099398 0.015392167 -0.001378037 0.0008139997 -0.0013846414 0.0051925057 0.006074344 0.010620382 0.0030470777 -0.021736449 -0.0049925037 -0.01246987 -0.004052663 0.006029104 -0.003141943 0.01966998 -0.0064502773 0.006914486 -0.011448162 0.005673572 -0.016175898 -0.0067029186 -0.009721109 -0.018611345 -0.011134197 0.010539272 -0.015533387 -0.0061757304 0.004165766 -0.018218385 -0.007330213 -0.016505178 -0.0032885354 0.008365592 0.0066388072 0.010052572 0.014963167 0.0036910756 0.001819392 0.013414438 0.019138996 -0.017318657 0.007614349 -0.0020152894 0.008564726 0.01473811 -0.0025585433 -0.0038191432 -0.017395785 0.0021194445 0.0039595105 -0.010364006 0.0033998417 -0.009306595 -0.0071348515 -0.0055852337 -0.004049544 -0.0049653905 0.0067953286 0.0010911252 0.0029000256 0.011525455 -0.0056869094 -0.0034637963 0.0031279998 4.825186e-05 0.0062672305 -0.018388258 0.005136705 0.0111750085 0.0011000513 -0.007696138 -0.011701856 -0.012714969 0.013410578 -0.0142452605 -0.0103673255 -0.019608779 0.0005494374
Jd07 -0.010651151 -0.011773654 -0.007184179 0.013572916 0.019186297 -0.0052830833 0.01772563 -0.008018391 -0.0078014918 0.01732511 0.0019259985 0.007037651 0.0010806731 -0.0271392 0.008448702 0.017165147 0.026692664 0.008883791 -0.017795952 0.028004115 -0.002761532 0.0052196486 -0.016016288 -0.015962122 -0.015661914 0.0070279017 -0.00089197286 -0.0023943863 -0.016456887 -0.01587548 0.0054772864 0.002055844 -0.0011582497 0.0015408087 -0.011875234 0.030570474 0.025154049 -0.013394905 0.019709779 -0.012125168 -0.019148635 0.010802035 -0.012120693 -0.0135959545 0.020860896 -0.00069183874 -0.002624097 -0.0043295966 0.009063854 0.010334183 0.008194574 0.015709758 0.0096425945 -0.0011016912 -0.005537104 -0.0052021155 0.014555031 -0.013878779 0.020987885 0.011817185 0.0013731812 0.010861386 -0.0029694377 0.0070937937 0.019627618 -0.0055628386 0.00947117 0.019295216 -0.009748572 -0.007173874 0.011902001 0.0017710913 -0.009088588 -0.012129532 -0.0023485192 -0.0010962862 0.0015898861 -0.005490435 0.004708013 0.035385482 -0.0006409636 -0.011619824 0.0023010846 0.03503863 -0.0046619517 0.016439475 0.022272455 -0.030061955 -0.0019158398 -0.0011896656 0.010518288 -0.009215088 0.0070657465 -0.0126294345 0.015026201 0.017089639 -0.023943773 -0.016876632 0.005911386 -0.010458392 -0.021083597 -0.0037980406 0.010538567 0.0023143284 0.006438773 0.008384775 0.0040520737 0.0022380825 0.011849108 -0.019098297 0.011266361 -0.0058034733 0.0062268744 0.010998293 -0.014813785 -0.017054433 0.0055911643 0.012715387 -0.0052042822 0.009125373 -0.010046186 -0.015768766 0.0005174512 -0.0075385785 -0.009665608 -0.004604765 0.020831883 0.007392484 0.014859631 -0.009847659 0.011971131 -0.0070409714 0.0023918222 -0.015890608 0.00041515692 -0.004149995 0.007408663 0.01026461 0.03218864 -0.007077268 -0.00559777 -0.005058598 0.023017775 0.0065068165 -0.024203679 -0.012657772 -0.013197976 0.0070587676 0.012495568 0.019010935 -0.009073264 -0.014109019 -0.009200906 0.014844324 -0.026743338 0.008560724 0.010614951 0.0081819445 -0.020782787 0.0027150605 0.014305077 0.006104717 0.0038690642 -0.007049143 0.009541744 0.0059743957 -0.0068376292 0.014967448 0.01028588 0.0027240268 -0.00043608894 0.0008171453 0.0033299695 0.001959095 -0.018652698 -0.0057918066 -0.014880596 -0.0008192439 0.020586153 -0.001823892 -3.6594596e-05 8.9098256e-05 0.0077437456 0.0060895756 0.018353432 0.00899165 -0.027302215 -0.013015568 -0.018929444 -0.002592957 0.013213638 -0.012140972 0.024239028 -0.008531131 0.014585311 -0.015355626 0.012501763 -0.01467165 -0.0077345166 -0.012668991 -0.020677516 -0.010240433 0.0055306405 -0.01393356 -0.0030639507 0.003031149 -0.025737807 -0.009354887 -0.017520854 -0.0008579155 0.005814514 0.0100171575 0.019047158 0.021375693 0.00032153417 -0.0041160965 0.0106139425 0.021348068 -0.022033699 0.0063742637 -0.0012773909 0.00814149 0.01676497 -0.005717165 -0.003517236 -0.015115547 0.0065103523 0.0015857989 -0.011298314 0.0014469979 -0.012531749 -0.009242786 -0.0010356647 -0.007074223 -0.010034136 0.007634898 0.0022994706 -0.0008620897 0.013537166 -0.008485624 -0.009849752 -0.00031620936 -0.0013223591 0.0054851505 -0.01871584 0.00293942 0.011469439 0.004109292 -0.01220074 -0.014613574 -0.014624398 0.010143411 -0.01878254 -0.011035108 -0.030415464 0.003874507
Dn08 -0.0028390652 -0.009303009 -0.0015141746 0.01174573 0.017080504 -0.0009313061 0.01876701 -0.009779002 -0.00850372 0.009188515 -0.0036695257 0.00040918222 -0.004765221 -0.018562896 0.004000925 0.012362535 0.013583139 0.007982998 -0.01401868 0.025379177 0.0034832596 0.0040991073 -0.011186444 -0.011248025 -0.015397735 0.005921834 -0.0016298888 0.002434476 -0.010613906 -0.008620003 0.0020091466 0.003085278 0.00018108396 -0.0013654978 -0.0066004423 0.016500348 0.012204656 -0.008099041 0.010263403 -0.004097193 -0.016979132 0.009674351 -0.010918604 -0.007233904 0.01805712 0.001158539 0.00031603329 -0.004181235 0.001416935 0.009239751 0.0059039867 0.012490389 0.0074285474 -0.0041018333 -0.008453961 -0.003229659 0.014373726 -0.013027354 0.016532136 0.0026364345 0.0041108713 0.005570548 0.00055595854 0.005817185 0.008618461 -0.009788879 0.005985866 0.015550313 -0.005485913 -4.5259014e-07 0.00765979 0.0038483753 -0.007627003 -0.0060871732 -0.0020996926 0.0012035465 -0.001537947 -0.0023458158 0.0025924626 0.02484831 0.0025701916 -0.009997962 0.003087185 0.02295498 -0.001173476 0.008869568 0.017900316 -0.022735937 0.0032336228 0.0013892063 0.010500772 -0.0076605296 0.0021942435 -0.009440995 0.009606044 0.011847894 -0.01619634 -0.013460321 -0.00017431063 -0.009678242 -0.012648315 -0.0021350412 0.004726093 -0.0013391618 0.0028490704 0.009147568 0.0049911165 -6.416423e-05 0.006050858 -0.013367103 0.009481536 -0.007795675 0.003767643 0.005431459 -0.009061738 -0.015146777 0.00974415 0.0108897835 -0.0024425841 0.00809011 -0.005293286 -0.007135102 -0.0017117424 -0.00020899286 -0.0075127822 -0.0035883158 0.010560943 0.006652142 0.010832281 -0.0084423 0.010859224 -0.0059283455 -0.0015686159 -0.012290971 -0.0047994116 -0.0072862646 0.00785037 0.009588292 0.023252042 -0.002705381 -0.00578339 0.00024295507 0.013573158 0.006387612 -0.017052624 -0.008123919 -0.00874209 -4.6237194e-05 0.011026146 0.015623326 -0.0062244283 -0.016736254 -0.009640344 0.009681631 -0.02422234 0.0012892156 0.0078551285 0.0032717946 -0.016938148 0.0044309795 0.007785147 0.0077882484 0.0055396706 -0.0006405642 0.006679129 -0.00028872257 -0.0075772116 0.012798582 0.0043976507 0.0006089651 0.0021997667 -0.0037325623 -0.0011854409 -0.0022183626 -0.016841393 -0.008055154 -0.014183932 0.002245659 0.019777974 -0.0054247766 -0.0047701723 -0.0015373769 0.0031332227 0.0015665947 0.009420148 0.0056946264 -0.02347148 -0.006698461 -0.012984811 5.41468e-05 0.0077816537 -0.010053039 0.017182736 -0.0066238497 0.011139044 -0.007605462 0.009873935 -0.01244318 -0.0067759207 -0.0058993013 -0.018025829 -0.010928545 0.0072796764 -0.013060447 -0.0044811703 0.00014123938 -0.020937493 -0.009546319 -0.013495794 -0.0016629397 0.008054446 0.008063304 0.01464788 0.0105188 0.000112915644 -0.004074172 0.0059111747 0.014424362 -0.01442367 0.0039450736 -0.0025060591 0.0047185025 0.01782272 -0.0024228564 0.000640408 -0.016487448 0.0025185791 0.0009820439 -0.0027524815 0.0035334658 -0.008477944 -0.008470174 -0.0011707868 -0.008556642 -0.006454886 0.0104198195 0.0042305687 0.00232229 0.005225209 -0.0070486534 -0.0026559567 0.002346737 -0.0041974112 0.008151424 -0.0157788 0.0058880085 0.011377951 0.0020795364 -0.0058336775 -0.008328366 -0.012520072 0.008053223 -0.0079866685 -0.0036073078 -0.02357239 0.0060985046
m -0.0031976912 -0.012591092 -0.0029591366 0.013126042 0.022604061 -0.0047196345 0.023443256 -0.004425406 -0.0059261587 0.014044109 -0.0020411492 0.005221756 -0.0013666701 -0.02311657 0.008386461 0.020697236 0.027938696 0.0051243193 -0.022372931 0.033882134 0.0023763035 0.0012526601 -0.018218257 -0.01951869 -0.022250488 0.010997479 -0.0032057622 -0.005040847 -0.011837746 -0.012081578 0.0039992095 0.0030752672 -0.003950187 0.0040466315 -0.012281248 0.028419577 0.019294463 -0.016691746 0.018924996 -0.010677462 -0.021548994 0.015181934 -0.013963526 -0.011134299 0.023711842 -0.004474175 -0.0050140987 -0.0038955077 0.0035605768 0.0050501577 0.0075895013 0.011192235 0.010690957 -0.0023262058 -0.006310767 -0.0073963804 0.019152168 -0.012503518 0.022454955 0.0043760394 0.00030971717 0.009687471 -0.007556046 0.012222275 0.017562427 -0.012166999 0.007653636 0.0215412 -0.010981398 -0.006600661 0.010854214 0.0034601835 -0.013314351 -0.01524787 -0.0020527951 -0.00018716614 0.000960924 -0.006961248 0.0024106833 0.032764904 -0.0033776623 -0.016144883 0.008663507 0.035557512 -0.0030986709 0.010387924 0.020880645 -0.029989386 0.0033871233 0.003435968 0.010516304 -0.013868288 -0.0004733592 -0.013340514 0.013433699 0.013213242 -0.021185014 -0.013819571 0.0063819415 -0.010768221 -0.015242891 -0.004146001 0.0046394775 -0.0032795323 0.008001948 0.012336447 0.0019340384 0.001926034 0.016462585 -0.018037185 0.012728113 -0.00431509 0.006382255 0.006732324 -0.013687904 -0.012902699 0.005923879 0.012632679 0.00053243246 0.006506416 -0.0067526773 -0.016548838 0.0005640977 -0.001338513 -0.013854356 -0.0029501084 0.021398628 0.0052100387 0.0148944035 -0.012560607 0.006492737 -0.0007482042 -0.0024514287 -0.014262334 -0.002011966 -0.0048068473 0.006396871 0.014702094 0.028592309 -0.0072746035 -0.006456982 -0.000103494334 0.024059448 0.0077421092 -0.028365012 -0.014686636 -0.014288209 0.0073974538 0.01141941 0.018821817 -0.013140898 -0.018586418 -0.016076194 0.014089661 -0.030183874 0.009641117 0.0047039874 0.006584292 -0.02379985 -0.0009108515 0.015785085 0.008147049 0.008509271 -0.0017803448 0.0074568554 0.0021368156 -0.008290162 0.019904416 0.007839319 0.0060141995 -0.0023877753 0.0017962703 0.0035354786 0.00039577112 -0.020311356 -0.0027222775 -0.018507062 0.001361519 0.024433993 -0.0023857309 -4.5748595e-05 -0.004095262 0.0071303123 0.005439917 0.016568959 0.0072917743 -0.02806883 -0.0070953076 -0.02161255 -0.0025018156 0.014832398 -0.007888949 0.023009462 -0.004500066 0.012074277 -0.01506362 0.01041776 -0.021680519 -0.009791142 -0.015853388 -0.021609295 -0.014088641 0.011515807 -0.018814784 -0.00021944598 -0.002141852 -0.025373178 -0.012490903 -0.019660475 -2.5759806e-05 0.008600478 0.008642651 0.014639833 0.01530874 0.005715814 -0.0008399071 0.015848665 0.019465907 -0.017200924 0.0060582724 0.0028016295 0.0102961445 0.018696064 -0.0008787418 -0.006050367 -0.022409393 0.006914309 0.002988494 -0.011966765 0.0008962471 -0.009251364 -0.012174214 -0.0026365414 -0.005746612 -0.01248249 0.012604923 0.0037834106 0.005012121 0.009643312 -0.006974402 -0.0057615223 0.0011945663 -0.004400292 0.012207171 -0.016100965 0.0031633147 0.015549035 0.006139614 -0.0110087 -0.015041714 -0.017946102 0.014942615 -0.015858138 -0.013083878 -0.028020026 0.0032503512
t -0.0042232517 -0.011403885 -0.0007856372 0.013881751 0.016733218 -0.0010455953 0.021579575 -0.009603505 -0.009431909 0.014769948 -0.0032891487 0.0062381774 -0.0060022343 -0.025757568 0.0061299666 0.018309057 0.02536873 0.0066299317 -0.019263642 0.03268634 0.0031026623 0.0021668116 -0.010916258 -0.015672654 -0.020735271 0.0065055224 -0.007983334 -0.0040935953 -0.013464466 -0.017024644 0.009626611 0.0062241885 -0.004427759 -0.0020552906 -0.011758773 0.02309722 0.025024101 -0.016708393 0.018660057 -0.010119917 -0.015221225 0.015707318 -0.010304527 -0.015221804 0.021334346 -0.0023350588 -0.0010238818 -0.0033677607 0.0072891614 0.008884621 0.012086883 0.009922449 0.010673485 -0.004208085 -0.009626193 -0.00015612658 0.015569616 -0.010628245 0.020935211 0.010674723 0.002052719 0.0075133215 -0.005662528 0.01430434 0.017392788 -0.011248011 0.010439245 0.017677547 -0.006528151 -0.007939182 0.011569439 0.003710251 -0.008530007 -0.01062477 -0.0032650556 -0.000519534 0.0028490222 -0.008600128 0.0072463695 0.037047014 0.0037521678 -0.013523714 0.0018928716 0.032767694 -0.0044826865 0.017251818 0.021767093 -0.025110634 0.0025484206 0.0020719238 0.01196591 -0.011643847 0.0073338244 -0.016195217 0.014107851 0.012167167 -0.020085016 -0.013696461 0.002835239 -0.0064112954 -0.01918365 0.0011089734 0.010333264 0.0018739618 0.006517831 0.0106521845 0.006796792 0.004762466 0.014334159 -0.020817721 0.01205997 -0.010254182 0.0038375035 0.008921998 -0.013541722 -0.017549975 0.012170255 0.01653247 0.0012334296 0.0076792426 -0.010859846 -0.016409917 -0.00077188277 -0.008008543 -0.013071146 -0.00074882904 0.015710419 0.0002922363 0.016628549 -0.015530111 0.007058408 -0.0053450176 -0.0008082133 -0.012480949 -0.0048902263 -0.002578255 0.0120138405 0.008711248 0.032572187 -0.0018880888 -0.011926114 -0.003586509 0.021142628 0.0096346 -0.028864007 -0.0141119445 -0.013369541 0.00021235347 0.009122931 0.017937316 -0.0087232925 -0.01943481 -0.010864014 0.011184339 -0.028448125 0.007866068 0.007908581 0.011268876 -0.020222517 -0.0014026411 0.017903233 0.00391266 0.009136113 -0.0047872043 0.007646308 -9.332062e-05 -0.003492774 0.017563522 0.009009253 -0.0010976394 -0.0032140643 -0.0031682102 0.005281494 -0.0037065297 -0.017072903 -0.006464183 -0.018578274 0.0016477192 0.02089115 -0.0072374446 -0.0016540618 0.0020538447 0.012714764 0.00314455 0.017033542 0.008103696 -0.029686837 -0.0070460006 -0.021392763 -0.0020925861 0.0131685445 -0.006564251 0.018657103 -0.0045592585 0.015334476 -0.007927737 0.0048067956 -0.015454314 -0.006151582 -0.011967143 -0.016889026 -0.012032648 0.0071171406 -0.019010343 -0.005424592 0.0015830443 -0.024317436 -0.015037644 -0.01491035 -0.002772971 0.006855744 0.011420489 0.020206712 0.019926637 0.0028233964 -0.00043288682 0.012235037 0.024096014 -0.021163391 0.009973796 0.0012871223 0.0065119956 0.0211192 -0.0026864856 0.0001999576 -0.016934048 0.009783398 -0.0005717807 -0.0064575183 0.0026992918 -0.013931144 -0.0116659645 -0.004868372 -0.008925063 -0.00925391 0.014708208 0.0004557916 -0.0027314874 0.009972865 -0.0045108376 -0.01170021 0.0072573326 -0.001065377 0.009385346 -0.018894074 0.0023024902 0.013573522 0.007985914 -0.01189624 -0.014587583 -0.014512134 0.013432017 -0.012827356 -0.0112514105 -0.02382831 0.0019772232
r -0.007416082 -0.0068903547 -0.0014158747 0.009196484 0.01673861 -0.007742628 0.018539095 -0.005218266 -0.009752915 0.01742053 0.0014654098 0.0030956087 -0.0060732085 -0.023292199 0.0034942399 0.018900096 0.02560019 0.008419 -0.01911615 0.031224048 -0.001769978 0.0009483247 -0.014696214 -0.012252858 -0.019493943 0.0038119287 -0.0036968794 -0.000474194 -0.0147296395 -0.014846579 0.0049238894 0.0036774296 -0.007313925 -0.0014862687 -0.008940147 0.028559186 0.020874714 -0.014176657 0.016167171 -0.009248339 -0.017128864 0.014086717 -0.007696028 -0.013435146 0.016371746 -0.0007421157 0.00033040295 -0.0070097223 0.0044708666 0.0060436507 0.013496353 0.011677535 0.010400694 -0.008125276 -0.003180735 -0.0075252587 0.018886965 -0.012529096 0.021444207 0.005143472 0.0043580844 0.011166358 -0.0059816823 0.006434796 0.018605705 -0.010488045 0.005917014 0.018603913 -0.008922927 -0.007591866 0.011998602 0.0024549598 -0.011801037 -0.013492372 -0.0032039997 -0.003989709 0.0006329181 -0.0064089615 0.0007783921 0.035514824 0.0025408769 -0.012768253 0.006239455 0.0262648 0.0018690415 0.016383598 0.0200045 -0.028502433 -0.0010646961 0.0038156908 0.010793632 -0.009993343 0.0067613823 -0.010933008 0.011791505 0.014818878 -0.02221217 -0.018150108 0.007060101 -0.010966332 -0.016798407 -0.00033866268 0.003368992 -0.000100493264 0.010466401 0.009132187 0.0006421297 0.0037535126 0.010227425 -0.021773439 0.012408867 -0.0071229944 0.008190454 0.007410619 -0.007046741 -0.018280398 0.010247979 0.014707786 -0.0013471617 0.005751162 -0.006694507 -0.013025039 -0.0047259633 -0.006789013 -0.00894585 -0.0025535107 0.01966494 0.0034392904 0.015785068 -0.010448798 0.012937532 -0.0082844 -0.00017245222 -0.011904834 -0.0018694773 -0.005245027 0.005315734 0.014612433 0.025958948 -0.003938611 -0.010788551 -0.0011629405 0.02244345 0.006046015 -0.023298569 -0.01079533 -0.011666042 0.007042848 0.010393819 0.016848344 -0.014317153 -0.012366288 -0.01288997 0.011832545 -0.028652392 0.008379819 0.010113869 0.008077178 -0.018057728 0.004259842 0.014274278 0.008255824 0.0068687787 -0.0039700456 0.0120869605 0.001100999 -0.0061146053 0.02016848 0.004447522 0.00088334497 -0.0021939797 0.0015231152 0.004885917 -0.0028944826 -0.015700277 -0.0059708986 -0.021173067 -0.0028654248 0.020476196 -0.0061567686 -0.002436474 -0.0030843115 0.011084997 0.008177519 0.014571868 0.0070503033 -0.026515167 -0.009466219 -0.020497687 -0.0020382192 0.012255197 -0.0049670166 0.021995407 -0.0039533144 0.01358606 -0.013760486 0.007574987 -0.019063484 -0.005013972 -0.007677009 -0.021341696 -0.00935005 0.0096773915 -0.0145486975 -0.0031776777 -0.001593939 -0.01789235 -0.015111973 -0.01912857 -0.0028371648 0.00651078 0.0063149557 0.011412264 0.017988557 0.001164082 -0.0016786391 0.014409464 0.02190744 -0.017063178 0.008866456 0.0034322704 0.0071817725 0.021637412 -0.00019393921 -0.0074825548 -0.020609006 0.0096172625 0.002937751 -0.008756812 0.0060163634 -0.013468915 -0.014216189 -0.006311762 -0.0033143165 -0.011138766 0.0078020217 0.00047454474 0.0034666574 0.009737566 -0.00950062 -0.0080433125 0.002666871 -0.0018728364 0.0072914306 -0.015443743 0.0048035276 0.010652823 0.0061541856 -0.006401528 -0.016977457 -0.017270243 0.013740996 -0.018679792 -0.00904828 -0.029072013 0.007408779
着 -0.006074912 -0.0095085185 -0.0028903934 0.007880751 0.014478541 0.001071907 0.012563579 -0.0038982036 -0.0025537512 0.009913385 -0.0027798605 0.0027518324 -0.00058252114 -0.01137627 0.0014254412 0.0073657045 0.016444415 0.0088700345 -0.014754048 0.01955979 -0.0013916773 0.0035265167 -0.005232368 -0.010751396 -0.009323231 0.006980928 -0.0009033313 -0.004424789 -0.0064554797 -0.00861543 0.0026737428 0.0055268966 -0.0030264326 0.004062111 -0.0054384787 0.017009338 0.012565435 -0.013068385 0.0065711034 -0.0031842964 -0.014608536 0.010104933 -0.0053807218 -0.011190969 0.012025475 -0.003064937 -0.0060116854 -0.003186992 0.00817713 0.0019725051 0.0047127325 0.011032848 0.008098249 0.0009955117 -0.0084379865 -0.00010843819 0.007280921 -0.005700221 0.015813617 0.003455454 0.0034016399 0.0024984414 -0.00070565747 0.008639198 0.012776452 -0.0030418301 0.005113775 0.012857628 -0.0070090755 -0.0054948395 0.0066731805 -0.0018823472 -0.0075902203 -0.0073283976 0.0021995988 -0.0042070164 0.00088602793 -0.0046090167 0.00038965576 0.020553384 0.0016971396 -0.009375749 0.0027762582 0.02268425 -0.0012689751 0.007065368 0.015736371 -0.016404916 5.040962e-05 0.004945876 0.01110871 -0.006092978 0.0031821702 -0.009434066 0.012393941 0.010469565 -0.015919719 -0.012471842 0.0025743651 -0.007957524 -0.009424755 -0.0035900634 0.003768242 0.001530654 0.0065358416 0.008624551 -0.0012311641 0.0019415169 0.009682117 -0.010740846 0.011105428 -0.004105672 0.0060416544 0.008385963 -0.0070306417 -0.009652527 0.0066044577 0.004916794 0.001013695 0.0023716695 -0.005851747 -0.009024127 0.0021989138 -0.0015718503 -0.006611773 -0.0021931431 0.00953488 0.0018718496 0.0067849793 -0.009005009 0.006381747 -0.0011733415 -1.2736558e-05 -0.004887584 -0.001584059 -0.0046119355 0.0023244913 0.009494023 0.020430436 -0.0056045493 -0.0035239435 0.0018491537 0.009614632 0.003017554 -0.020504108 -0.0057902564 -0.010704099 0.002945199 0.010949607 0.008188816 -0.01041103 -0.010052928 -0.011168161 0.0034098797 -0.022028424 0.0031211686 0.0040993686 0.005360618 -0.013062558 0.004789077 0.012346778 0.0011854713 0.007859833 -0.005588805 0.0059531936 0.0025086475 -0.0035392153 0.009378181 0.005506092 0.002124884 -0.004686509 -0.0024047229 -0.002050792 0.0013606369 -0.012231453 -0.006874778 -0.00922525 -0.0010684347 0.014898725 -0.00040431414 -0.003035654 0.0024719487 0.0025583212 0.0015261932 0.0068276008 0.004095819 -0.0200005 -0.0026069472 -0.009475747 -0.0047080372 0.009566624 -0.002558399 0.009716939 -0.0017308015 0.0045246966 -0.0034592075 0.007232218 -0.01108139 -0.008609575 -0.007470367 -0.012800943 -0.006184505 0.008331569 -0.011168974 -0.005934812 -0.0027104472 -0.014565814 -0.007545352 -0.010802741 -0.0012751708 0.009306459 0.0052796463 0.012867551 0.012937681 -0.0010451459 -0.0013706572 0.0048715193 0.010667093 -0.012985602 0.008703974 -0.00064456376 0.008370948 0.011889077 -0.004550033 -0.0008524886 -0.010091435 0.0034496812 0.00019573307 -0.007587725 0.004356716 -0.010628831 -0.0109512415 -0.005362955 -0.0007054417 -0.0048086937 0.009683475 0.005718033 -0.0023639444 0.0085797245 -0.0033169554 -0.002509355 0.0007817005 0.0031373217 0.0029280803 -0.008419533 0.005440638 0.0075965873 0.0054722535 -0.003136559 -0.00813625 -0.006317125 0.008254528 -0.0102814 -0.003070997 -0.014761228 0.0013789289
Ca19 -0.0040372936 -0.0073891496 -0.0005622964 0.006511133 0.010490187 -0.0031330688 0.01511027 -0.008108906 -0.0017687621 0.009225561 0.0014391586 0.004256449 0.0010149458 -0.017300561 0.0018644771 0.013126499 0.014072487 0.0077497293 -0.015184795 0.022025328 0.00037674964 0.0009039985 -0.008652571 -0.012251238 -0.013517855 0.0013230528 -0.0018959509 0.00075445464 -0.010657952 -0.005114419 0.0054014144 0.0015641598 -0.003158965 0.0016926893 -0.008236778 0.018815752 0.016395373 -0.0079016695 0.013196756 -0.0042011333 -0.013587983 0.007215032 -0.0037121114 -0.011900596 0.013354565 -0.0020138854 -0.00011817785 -0.0059992634 0.0061251544 0.00568265 0.005323889 0.0050792107 0.0016876349 -0.0017350207 -0.00865828 -7.0430187e-06 0.0095432345 -0.012693598 0.012261114 0.00817232 5.1159386e-05 0.008470051 -0.006477983 0.0035423557 0.009131401 -0.005331963 0.004011633 0.008382852 -0.008255863 -0.00344095 0.008843544 -0.001265506 -0.009922864 -0.007633833 0.0003942659 -0.0047661955 0.0050741164 -0.006505376 0.0045208842 0.02580816 0.0021851973 -0.0055829803 0.006867454 0.021929022 -0.0036518802 0.011290352 0.010386723 -0.020156913 0.0024957806 -0.0018880698 0.0060590827 -0.009289438 0.0036180727 -0.0068956404 0.010657721 0.010844919 -0.015603463 -0.009030566 7.711319e-05 -0.005910325 -0.014421252 4.9558992e-05 0.006551165 0.002068625 0.0037726108 0.008525497 0.005441571 -0.0015162948 0.006491178 -0.013093368 0.0068485322 -0.0016289973 0.006741829 0.008641418 -0.0034132472 -0.01330866 0.0058696195 0.005386927 -0.003202766 0.0011157679 -0.0035536382 -0.008752488 -0.0037477405 0.00037313506 -0.0063435715 -0.00097150105 0.009643151 0.0012781605 0.008429683 -0.005000409 0.0077256854 -0.0051298346 0.0008243749 -0.007687147 -0.003040476 -0.00054630515 0.004038299 0.010434955 0.01726608 -0.0062374845 -0.007691872 -0.0033672466 0.012633954 0.0037057376 -0.016079169 -0.0053930297 -0.010739723 0.0038124234 0.006876027 0.012523444 -0.0076861186 -0.0124569 -0.010386006 0.0057742824 -0.019567668 0.004121123 0.0009639355 0.0077849333 -0.014002502 2.8044182e-05 0.0076499134 0.0021607953 0.0029022465 -0.006108153 0.0065177646 -0.0014263998 -0.005523999 0.0087859975 0.0095051285 0.0011714074 -0.004052074 0.0015252563 -0.001999482 -0.0009174724 -0.011463061 -0.0069034733 -0.015816908 -0.0039104265 0.017725196 0.00066652003 0.00019800225 0.00024220374 0.0075868517 0.0015799337 0.014364866 0.0066672703 -0.016561614 -0.0029084035 -0.015719494 -0.0014859007 0.011096925 -0.0057464596 0.010865073 -0.004812867 0.007036538 -0.008544974 0.0049679573 -0.008792003 -0.0055615953 -0.0058609773 -0.015013751 -0.0037437847 0.002613823 -0.014490561 -0.004408514 -0.0020715054 -0.017065186 -0.008361361 -0.0107540395 0.00020994875 0.008203483 0.005020657 0.011944557 0.012355195 0.0049792416 0.0025384184 0.0074754073 0.014658755 -0.014893532 0.0045688134 -0.0030024804 0.0051105157 0.011701732 -0.0042305724 -0.001820393 -0.010663876 0.0002199877 0.0017085397 -0.0034653132 0.0043557817 -0.009359321 -0.004302792 0.001746818 -0.0042479406 -0.006535569 0.0038537486 0.00020230643 0.00046931478 0.009057386 -0.004752385 -0.008687762 0.0046068043 -0.003507697 0.008993147 -0.009885451 0.00022768577 0.0094042625 0.0066817473 -0.008496785 -0.012055309 -0.006350554 0.00844191 -0.00646427 -0.010261338 -0.018349519 0.0055254526
vn -0.0075820265 -0.011653008 -0.0064881085 0.010715327 0.015656354 -0.00081817526 0.0196988 -0.011336364 -0.0039836625 0.0147055 -0.0017160116 0.0044680987 -0.0012806846 -0.025230706 0.0045770057 0.016955912 0.026426869 0.010786306 -0.018705828 0.029285537 0.0021556173 0.0017961587 -0.017012022 -0.019506069 -0.019309906 0.008101213 -0.007954683 -0.0037739112 -0.009153372 -0.014423218 0.008994128 0.005451597 -0.00640185 -0.0017590228 -0.008315848 0.028918462 0.01883507 -0.017524725 0.014233345 -0.005548703 -0.020252397 0.015990106 -0.011271079 -0.016442353 0.020469537 -0.001120379 -0.002484113 -0.008676971 0.0039359666 0.0048333392 0.011740784 0.011078177 0.007290538 -0.0033927849 -0.005559279 -0.0027704183 0.014791447 -0.013514191 0.01932672 0.005061531 0.0044308053 0.0075549325 -0.007851226 0.01225817 0.019906435 -0.008646829 0.010934126 0.017129567 -0.008871997 -0.008322542 0.0052721575 -0.00054114644 -0.014117533 -0.0093053095 0.002226425 -0.0027357962 0.0029778641 -0.001425742 0.0046180547 0.03091598 0.00093789416 -0.011103261 0.003804598 0.028936071 0.0025346845 0.01668642 0.017298386 -0.029224165 0.00064319256 0.002454104 0.009345675 -0.0081833685 0.001237243 -0.011810635 0.018211132 0.013701562 -0.02048406 -0.017385688 0.00067335926 -0.007527346 -0.01750741 -0.003967684 0.010105902 -0.002704395 0.01056418 0.010105742 -0.00012107834 -0.002632921 0.014592561 -0.021622991 0.014899002 -0.008162237 0.009457211 0.010421792 -0.006781805 -0.0114655085 0.006029676 0.009041741 -0.0042691883 0.0067648925 -0.005186689 -0.011690917 -0.002285129 -0.0021152447 -0.011589535 -0.004465967 0.018738585 -2.0307609e-05 0.014303159 -0.013906116 0.013081396 -0.0060597383 -0.00034472486 -0.014650203 0.0009925055 -0.0076276013 0.009808691 0.012853519 0.031954687 -0.0070404015 -0.010519596 -0.0051998235 0.021763533 0.004996815 -0.025492115 -0.011524468 -0.012500096 0.0011210263 0.0113307685 0.018648148 -0.01443837 -0.013965609 -0.013354966 0.01396944 -0.029509157 0.007284437 0.007945933 0.011387695 -0.023376558 0.005203844 0.017531065 0.006260642 0.009126345 -0.0015829442 0.011994095 0.0013044125 -0.0042042937 0.018153306 0.010306845 0.005657606 -0.0043521933 -0.00060792867 -0.0015535236 -0.000964195 -0.022488002 -0.0046949987 -0.019216994 -0.0022637132 0.024744503 -0.0077364617 -0.0016731088 -0.001968988 0.007599327 0.0017945387 0.012528309 0.009429626 -0.030351082 -0.0076244413 -0.020164847 -0.003210191 0.012431986 -0.011707882 0.018030252 -0.008891865 0.008451843 -0.013162408 0.007374913 -0.017607464 -0.008487764 -0.014670906 -0.021908661 -0.0116230305 0.0055311928 -0.018691633 -0.0049811704 -0.0018071891 -0.026109165 -0.015901353 -0.016205149 -0.0037385286 0.008041291 0.01106735 0.01914777 0.015809372 0.0057271365 -0.003962357 0.012693704 0.023896702 -0.019716695 0.013615588 -0.00066841504 0.009394747 0.023407254 -0.0074007553 -0.0061272 -0.020734873 0.00544806 -0.00089835416 -0.0081972 0.0010346279 -0.01206502 -0.012222399 -0.00067214953 -0.00994311 -0.011811973 0.013747214 0.00678523 0.00042161279 0.011716933 -0.009820652 -0.007450869 0.00015335342 -0.0039994144 0.008898048 -0.018122137 0.006809215 0.0085720895 0.0061550946 -0.008484275 -0.015987098 -0.015171325 0.014231651 -0.018461138 -0.009472431 -0.025308054 0.0047065043
Hh04 -0.005231277 -0.006566826 -0.0005068214 0.013222124 0.019510357 -0.006888598 0.02121819 -0.005753119 -0.008682588 0.012280321 0.0015623026 0.006755133 -0.006030447 -0.020402642 0.004052315 0.016641885 0.023479497 0.004129209 -0.013272241 0.024483794 0.0031823297 0.0050350833 -0.014854498 -0.01910817 -0.013737862 0.0028388875 -0.007579868 -0.0018666497 -0.01370187 -0.008276129 0.008424914 0.0049897484 -0.00037015145 0.004223702 -0.0052597644 0.026183998 0.021279091 -0.011150786 0.01717961 -0.004774412 -0.020418698 0.01639225 -0.006081562 -0.008478255 0.015239828 -0.0024090903 -0.0035434733 -0.0029367646 0.0025454978 0.0066882097 0.011928043 0.01515825 0.004868202 -0.003674267 -0.003953253 -0.004239875 0.015084342 -0.016122945 0.019263575 0.008662744 0.002766006 0.004327415 -0.0055648037 0.010827391 0.015373381 -0.009526808 0.011219087 0.017962297 -0.0097362725 -0.00042235752 0.0044167945 0.0015929552 -0.0068646697 -0.010664452 -0.0035210496 -0.0013756913 0.0011091073 -0.0066959006 0.0007531018 0.031476866 -0.0035348057 -0.008862728 0.0026245033 0.029674482 -0.0028148992 0.010071244 0.020987447 -0.0276355 0.0005564403 0.00094869686 0.008544727 -0.013697022 0.005727494 -0.013910995 0.014944986 0.008020693 -0.018972894 -0.015239702 0.0018622243 -0.008042673 -0.018985016 -0.0012625813 0.005454782 -0.0007795517 0.005664823 0.006886215 0.0053236745 0.00043703557 0.013460715 -0.016293012 0.014931607 -0.008040831 0.0013462673 0.0073164585 -0.013278072 -0.0108360965 0.011420731 0.011620397 0.0012548683 0.009818748 -0.0046714814 -0.009785803 0.0023653589 -0.0030394855 -0.0122341085 -0.0050839013 0.014163886 0.0031895072 0.015985997 -0.014405526 0.008031702 -0.000811249 -0.0018300236 -0.014303605 -0.0017040868 -0.0071289255 0.0052780113 0.0078658685 0.02530845 -0.0015468461 -0.0060755317 0.0006339625 0.0208086 0.008033242 -0.02709597 -0.007314063 -0.017650329 0.0011335557 0.013402046 0.019965854 -0.012104404 -0.018439671 -0.007854766 0.008566627 -0.028029043 0.0075486405 0.008813756 0.008662253 -0.018481715 0.005135386 0.015779253 0.008003446 0.010130597 -0.00501313 0.009751975 0.0015927224 -0.0021618172 0.019764204 0.009625228 0.0038069289 0.0014144239 0.0017193721 0.0015559372 -0.003654831 -0.017835908 -0.0018365377 -0.018639987 -0.0013583394 0.021838777 -0.00669426 0.0013375046 -0.0003227723 0.00915857 0.007529251 0.014805446 0.0058289566 -0.02819894 -0.004811596 -0.020571306 0.0008595221 0.012014359 -0.007401312 0.014886439 -0.001274122 0.010482686 -0.008146926 0.0064015808 -0.018015137 -0.0073002707 -0.013534242 -0.020941064 -0.013084769 0.008990947 -0.014327354 -0.003727116 0.003346119 -0.021155909 -0.01440014 -0.014415865 -0.0029195196 0.008695695 0.011190657 0.013933367 0.018825727 0.0043022963 -0.0021438077 0.009298093 0.022583645 -0.01575876 0.008725942 -9.3037925e-05 0.0045799934 0.020111341 -0.004686171 -0.0018316779 -0.017685056 0.004879619 0.0033233785 -0.010223348 0.0030543269 -0.014647943 -0.010129787 -0.0021079688 -0.0048601963 -0.009120781 0.010331275 0.0036807128 0.0007051761 0.012567019 -0.007759802 -0.009212521 0.00084802776 -0.0046820813 0.0043554395 -0.015492805 0.005803162 0.008796296 0.0011390684 -0.0106294835 -0.010502907 -0.017257582 0.012606696 -0.011654914 -0.006061953 -0.027143408 0.0047897063
和 -0.0063963863 -0.0031319407 -0.0038885677 0.0072327517 0.013269788 -0.002987713 0.0145488875 -0.006533061 -0.002337323 0.0056692823 0.0018593819 0.0025300763 -0.0037005197 -0.014370152 0.0023965507 0.011006934 0.013594319 0.0011544671 -0.014835939 0.016817609 -0.0029087884 -0.00069860084 -0.005494677 -0.011251721 -0.014155548 0.0019887497 -0.0014510702 -0.0021555263 -0.008108668 -0.009813039 0.005969178 3.557348e-05 -0.0053833285 0.0031720789 -0.00782095 0.017724058 0.013401879 -0.0056235986 0.012104871 -0.0041772537 -0.010912832 0.009705339 -0.0055730217 -0.009464105 0.014488295 0.0017912496 0.0012128496 -0.0034584897 0.0034927744 0.007075807 0.003180412 0.007614762 0.0015559095 -0.0010399733 -0.007840129 -0.0009607851 0.013407846 -0.0092688035 0.009480461 0.0012927789 0.0020683801 0.0035040374 0.00019290065 0.0061916355 0.013240402 -0.0054217926 0.0038089836 0.009170658 -0.0043052984 -0.004785044 0.0077998466 0.0006188532 -0.009543139 -0.0072217574 -0.0027997307 -0.004323958 -0.0002287831 -0.0036217263 0.0026996234 0.021727001 0.0028090936 -0.0045951726 0.005547942 0.018986113 -0.0030010901 0.011925268 0.0123364525 -0.014855916 -0.000589115 0.0036897676 0.010012468 -0.010176532 0.0011174022 -0.008307722 0.0098581035 0.00454836 -0.01170612 -0.008545534 0.0027655512 -0.0061081825 -0.0137620615 0.003079169 0.0010752256 -0.0028041583 0.00705198 0.0038895246 0.0009837046 -4.7324673e-05 0.006932491 -0.014667924 0.009525228 -0.0042333277 0.004852836 0.0042194403 -0.003994524 -0.012788854 0.007877587 0.0058697844 -0.0005884335 0.0015530799 -0.0053039896 -0.010572153 -0.002176345 0.0014094753 -0.0051424257 -0.0005674957 0.007847938 0.0046578143 0.0053790696 -0.00828463 0.0036715465 -0.0054707043 0.00015781075 -0.008818754 -0.00089634076 -0.0017424171 0.00260254 0.0065004593 0.016254349 -0.0068343636 -0.008959936 -0.0013017888 0.0135802105 0.004443946 -0.01896676 -0.0053979824 -0.008742332 -0.0016602287 0.00978388 0.014484079 -0.009901538 -0.010829534 -0.0052586994 0.0057551665 -0.018254587 0.0016651434 0.007066229 0.0076975957 -0.011569948 -0.0006288619 0.0077962503 0.0020733755 0.0007549559 0.0013288084 0.006212646 0.0013662226 -0.0005902554 0.0074749924 0.0076961955 -0.0013860912 -0.0028766599 0.0016364687 -0.00028814547 -0.0016403329 -0.014213773 -0.005282286 -0.012389641 -0.0028712915 0.017354595 0.00097165565 -0.0014129098 -0.0007143986 0.0033400194 0.006066018 0.007635629 0.006123215 -0.013265021 -0.0036119397 -0.011787102 0.00043547043 0.009663706 -0.0066665052 0.012652424 -0.00084010256 0.010064995 -0.007024618 0.006189193 -0.013624072 -0.008765235 -0.009242494 -0.014788166 -0.006212342 0.0032772454 -0.010205673 0.00070485077 0.0046947696 -0.010807195 -0.0069182348 -0.011766174 0.00056232203 0.0048048035 0.0016712523 0.012453974 0.007818617 0.0033142457 -0.0021387178 0.005552193 0.012621038 -0.013905666 0.009591917 -0.0028796361 0.0011287268 0.015139324 -0.0006824282 -0.0005664451 -0.009982068 0.002233279 -0.00091196614 -0.00453491 0.0060726632 -0.00997671 -0.008390764 -0.0013305304 -0.0012380665 -0.008975657 0.0052062226 0.0008911 0.0011977003 0.009082845 -0.002370331 -0.008285851 0.004893881 -0.0016054728 0.0039912597 -0.014559235 0.00069476553 0.011408372 0.004550665 -0.008708394 -0.0074184826 -0.012184597 0.0036556865 -0.008196901 -0.005081742 -0.016069686 0.005978632
Ec07 -0.0020731126 -0.009094213 -0.0013423176 0.00948696 0.012838174 0.00045187474 0.01034419 -0.0061149932 -0.0043301284 0.012623022 -0.00094589725 0.0064063813 -0.003337542 -0.018722735 0.00035844496 0.010086085 0.0187773 0.0030488747 -0.014193038 0.0235973 -0.0024453355 0.0017228803 -0.007289841 -0.0140471645 -0.011816357 0.0036363683 -0.001114598 -0.0029509992 -0.010745296 -0.004625644 0.0019958888 0.0063938177 -0.0060461164 0.0030943544 -0.0066564768 0.014558066 0.0134102 -0.0109900385 0.010419494 -0.005735046 -0.015145494 0.00785891 -0.0080793565 -0.0056802994 0.015917191 -0.0011225701 -0.004342006 -0.0012388207 0.000845323 0.005579892 0.008631457 0.0074290982 0.0024422973 -0.006469251 -0.0079218205 0.0003755894 0.011788896 -0.009107945 0.017663315 0.0015854649 0.0008817039 0.0056463657 -0.005715284 0.0032948162 0.01356782 -0.0069327448 0.0033845208 0.01526629 -0.0071635344 -0.004398179 0.006253252 0.0006860759 -0.01075462 -0.009708317 -0.0045077805 -0.0006507238 0.00020238881 -0.0029476325 0.0038321738 0.020537231 0.0034445357 -0.0048427014 0.0031646807 0.019617084 -0.00053991185 0.011635397 0.017000955 -0.018329637 -0.00056474964 0.00021879551 0.0083295675 -0.010107693 0.0015103687 -0.0121144345 0.009792471 0.008999349 -0.012860096 -0.011566561 0.005317352 -0.007593132 -0.007504944 0.0003900965 0.005566785 0.0019294487 0.0055236667 0.008611393 0.0030241034 -0.0030776942 0.006647567 -0.013820797 0.0046022637 -0.003455337 0.005375177 0.004023534 -0.004172344 -0.010163781 0.005768693 0.010577677 -0.004675029 0.0017560713 -0.0017794793 -0.010987689 0.0024782878 -0.0005173173 -0.009790842 0.0020918103 0.013244161 1.9372387e-06 0.005692923 -0.011360372 0.008063208 -0.00055437867 -0.0016499215 -0.0072328513 -0.005234346 -0.005468702 0.0073888334 0.0038228275 0.014546334 -0.0026948508 -0.009082089 -0.0046577477 0.014514496 0.0076319138 -0.020861918 -0.0040494073 -0.0061573414 0.0041064587 0.0056792353 0.01592004 -0.010189066 -0.012665656 -0.0072427536 0.004330391 -0.023066368 0.004365995 0.008039914 0.0031591612 -0.014694179 0.002759571 0.009273788 0.00036383493 0.0074804067 -0.0032108354 0.008201352 0.0029594551 7.3540956e-05 0.015131451 0.008427694 -0.0018079918 -0.00029264906 -0.00083881087 0.0014516887 0.0031780696 -0.010269806 -0.007763396 -0.0081342785 -0.001745954 0.014472723 -0.0010282075 -0.0038046816 -0.00074057496 0.006395149 0.0059559694 0.011885228 0.0031536391 -0.021190813 -0.0076316735 -0.008472299 -0.005670997 0.011332326 -0.0054777595 0.012590068 0.00040838541 0.012064632 -0.0041362448 0.009253719 -0.015630936 -0.002556276 -0.011327419 -0.016333302 -0.010313868 0.0059045167 -0.0077631506 -0.004904261 -8.855775e-05 -0.015602583 -0.010096496 -0.011852705 0.0015266018 0.0077178325 0.0042747804 0.009052754 0.011051829 0.00040563496 0.001033588 0.012072686 0.016742205 -0.0150285205 0.0040954365 -0.0040816003 0.0023196158 0.014951167 -0.005123126 -0.0018536131 -0.008010477 0.00508658 0.0017608113 -0.0018178308 0.005414585 -0.0086534545 -0.01034985 -0.002558615 -0.0015093535 -0.0038510307 0.0057429345 0.0060438747 0.0015821756 0.009464405 -0.007202881 -0.003460498 0.0021432957 -0.00436066 0.007349126 -0.015318749 0.0004380699 0.009072622 0.0070678056 -0.0068675997 -0.0061877663 -0.008020234 0.009240093 -0.0128007 -0.0040495177 -0.020823015 0.00089210016
Ig01 -0.0016651856 -0.009559065 9.811529e-05 0.0061516752 0.010574181 -0.005506809 0.00913811 -0.0058247717 -0.00083980756 0.011432847 -0.0046059056 9.874128e-05 2.4451741e-05 -0.0170201 0.0053599253 0.013062739 0.009524526 0.008212473 -0.0080342535 0.017647613 0.0012289366 -0.0014628039 -0.005983073 -0.0068455026 -0.008924855 0.00059807097 -0.00069957704 -0.0022269967 -0.008156021 -0.005104769 0.004043216 0.0048566265 -0.004908827 0.0021589475 -0.0062523144 0.015599194 0.014797988 -0.007535073 0.012743344 -0.0063303527 -0.009718992 0.011227897 -0.007422223 -0.0056704315 0.008331413 0.0027360264 -0.00093281333 -0.00099217 0.005932214 0.0061381576 0.004809649 0.0046584583 0.0031146372 -0.0024133746 -0.005413499 -0.005466018 0.0068091983 -0.0046780217 0.016298559 0.0068630246 -0.0010441522 0.005518014 -0.0058251885 0.009037714 0.009929494 -0.0020610932 0.0036087178 0.009474218 -0.0028374528 -0.0014780912 0.002389145 -0.0011311908 -0.0058165425 -0.010953215 0.0014580489 0.0010418555 0.00040180914 -0.0049041715 -0.00092074677 0.018444356 0.0027084122 -0.006942567 -3.829239e-06 0.021202609 -0.0042793006 0.010108389 0.014513447 -0.015396127 -0.0034550268 0.0035486023 0.0041855117 -0.008888045 0.0056985053 -0.010992524 0.0055231 0.0058692396 -0.011411888 -0.00870184 0.00045034738 -0.00585577 -0.0067365775 0.003793147 0.008004117 0.0005412602 0.00665427 0.007440276 0.0028126983 0.0025237123 0.007833395 -0.011212594 0.0060020415 -0.0071657645 0.0064267726 0.0020536946 -0.005063127 -0.008938804 0.003776646 0.0054521174 6.533131e-05 0.0019123636 -0.0072228583 -0.0086876955 0.0009865272 1.6218732e-05 -0.006451769 0.0020192217 0.0067672883 0.00035033244 0.0050944844 -0.009303619 0.008712028 -0.006414431 -0.004262992 -0.010847857 0.0019899346 -0.004244012 0.0054498594 0.0043078004 0.015484576 -0.002858377 -0.0061665033 -0.0045120516 0.0088344375 0.004938608 -0.019664757 -0.006075349 -0.00951921 0.0053565265 0.006361688 0.013159103 -0.009209047 -0.013183299 -0.00516013 0.0070962026 -0.019094577 0.0020624744 0.007561349 0.0009780416 -0.013301548 0.0014886721 0.00808064 0.007152927 0.0034885367 -0.0046770833 0.0029481896 -0.0023477518 -0.0061378656 0.007834469 0.0025724394 0.00077688735 -0.00093313673 -0.0023159147 0.0019608578 0.0013035714 -0.0075175003 -0.005398325 -0.008772399 0.0018513103 0.011289597 -0.005573379 -0.0025748697 -0.0032979473 0.0077542528 0.0064177685 0.01240308 0.00014578171 -0.013903194 -0.0035501155 -0.008595645 -0.0048162644 0.006655527 -0.007458845 0.008269932 -0.002343651 0.010957454 -0.00402355 0.0023443992 -0.009460199 -0.0063094664 -0.0026864929 -0.015340229 -0.0021894758 0.002163273 -0.012154147 -0.0017008361 0.0005394343 -0.016682204 -0.0078045693 -0.010404453 -0.002889351 0.00775649 0.0061053867 0.012754733 0.013590932 -0.00088792125 0.0015093716 0.009620069 0.014775013 -0.0087147085 0.0037700017 0.0013181547 0.004949113 0.011893338 -0.0048702583 -0.0016160961 -0.008377677 -0.00021315929 0.0045173327 -0.0036222853 0.0023944944 -0.008356559 -0.0069235456 0.0004981923 -0.0019264377 -0.008523462 0.009626565 0.0016448202 -0.0028066968 0.010207331 -0.0022462774 -0.0031684549 0.0049809786 -0.003418024 0.002503353 -0.011204311 0.0009809163 0.0066585876 0.002917918 -0.008592223 -0.00735746 -0.00770334 0.0064650183 -0.0072859665 -0.0050892895 -0.01303227 0.0013354592
了 -0.0014952525 -0.008682462 -0.0016246509 0.008110017 0.015788987 -0.0019382985 0.014908762 -0.0024079913 -0.008359103 0.015563067 -0.0006588174 0.0025345357 -0.0033370047 -0.020846235 0.0025189137 0.014420306 0.019223051 0.009444323 -0.01752829 0.026723476 -0.0027614082 0.0026513392 -0.0074530034 -0.013480285 -0.016307492 0.0018778911 -0.0028548727 -0.0017659974 -0.012897379 -0.008182621 0.0050886297 0.0055973795 -0.0012338768 0.001457312 -0.009993394 0.022235481 0.017343663 -0.014533645 0.011437596 -0.005842117 -0.014267305 0.01013528 -0.009958024 -0.009864703 0.0170549 -0.0011536371 -0.002623852 -0.0030380301 0.0035690828 0.0022781708 0.011286379 0.005195208 0.0040401123 -0.004116928 -0.008349478 -0.001974879 0.014862067 -0.010551824 0.019022042 0.0057115927 -0.0015031527 0.0057917885 -0.0033514444 0.010450302 0.015148275 -0.0037789461 0.0049917563 0.010556923 -0.0027666974 -0.002557155 0.008566936 0.002469493 -0.005255555 -0.012714112 0.002819863 -0.004768857 0.0017355478 -0.0009917505 -0.0006739974 0.025982 -0.0027854166 -0.011371904 0.0048312373 0.023054115 -0.0021922349 0.013039007 0.012277202 -0.019676704 0.0035016069 0.0023062143 0.0065012677 -0.0072210515 0.0004236444 -0.009618033 0.012002523 0.0126650985 -0.013158132 -0.013893858 0.007093451 -0.007940678 -0.0096292235 -0.0031922972 0.0019247846 -0.00020087216 0.0029784618 0.007152638 0.0024051862 0.0007674995 0.004886693 -0.016832579 0.006482151 -0.005818671 0.006177184 0.005473515 -0.0038482817 -0.012428633 0.009736188 0.011731012 0.0017938891 0.0052299206 -0.0055394177 -0.008931226 -0.005090266 0.0007068269 -0.008377374 0.0018340066 0.013126854 0.0039500603 0.009834304 -0.012680942 0.007993195 -0.0022210279 -0.0049928008 -0.010331337 -0.0029457887 -0.0059024114 0.007878324 0.009399353 0.022571594 -0.006238257 -0.008889881 -0.00017671792 0.016944716 0.0070819412 -0.01811891 -0.01107376 -0.0077649658 -0.00018298067 0.0053500882 0.016806427 -0.008945485 -0.016367685 -0.010432712 0.010669288 -0.022742571 0.005831888 0.0051594195 0.007417916 -0.014482488 -0.0023175047 0.008869256 0.0077277063 0.0059205717 -0.0047736648 0.010334861 0.004768751 -0.0010790617 0.013008503 0.0024930944 0.00037643648 0.0009946539 -0.003231344 0.0052013197 -0.0040989458 -0.017219959 -0.0066098273 -0.011272805 -0.004412726 0.019579459 -0.0071324217 -0.0002443637 0.0004969051 0.006526738 0.0073807286 0.013520821 0.004467369 -0.018134281 -0.0044265646 -0.012445761 0.0016521042 0.007992466 -0.009327311 0.013137333 -0.004858829 0.0060310164 -0.008935623 0.0096058035 -0.014943858 -0.0040661218 -0.00662913 -0.015308974 -0.0071685854 0.008149855 -0.014528482 -0.0014539782 0.004595921 -0.018017557 -0.012493211 -0.016540831 -0.004080905 0.008470823 0.008133649 0.014784997 0.012960791 0.002565602 0.00067033153 0.0054285345 0.011982812 -0.011801511 0.003826838 -0.001764814 0.003863516 0.017224852 -0.0044205994 0.0011908343 -0.012850668 0.0021282493 2.8078663e-05 -0.0055163177 0.00089043484 -0.005956957 -0.0053346264 -0.0005921943 -0.0076873363 -0.009885312 0.008134572 0.0019608715 -0.0017341019 0.011482081 -0.0029398 -0.0075421566 0.0033571671 0.0014423764 0.007077976 -0.009885699 0.0027189942 0.006539191 0.0036008956 -0.00984026 -0.0064650755 -0.014401251 0.007966951 -0.012729186 -0.00580173 -0.017463502 -0.00033022318
一 -0.006176048 -0.0071043856 -0.000841441 0.011153187 0.011710041 -0.0032905007 0.0104018925 -0.0033250873 -0.00781751 0.011922452 -0.0021443735 6.642255e-05 0.0013852246 -0.015482053 -0.0008053047 0.008186658 0.015342804 0.002244224 -0.01124778 0.022308337 0.0018982249 -0.0010909528 -0.006620157 -0.015246657 -0.008929454 0.0043577594 -0.0033800956 0.0003124435 -0.009278305 -0.0104008205 0.0030672168 0.0010437665 -0.0028377052 -0.0017175202 -0.0035887905 0.014203922 0.012052488 -0.013952942 0.007280675 -0.005707771 -0.016172355 0.0071173236 -0.0060707466 -0.009317417 0.015112295 0.0025724554 -0.0065752245 -0.00080863986 0.001205726 0.007400167 0.0096635455 0.011871351 0.0013477467 -0.0017313688 -0.0077174557 -0.0029695823 0.008427846 -0.012499986 0.016081203 0.0066680736 -0.0008369646 0.003068242 -0.0015392235 0.005587477 0.0074377954 -0.0075746365 0.0062052915 0.015531039 -0.007360286 0.0003418145 0.007872573 0.0004707807 -0.008264528 -0.009276935 0.00023592968 -0.001437446 0.0009679694 -0.0068395445 0.00531753 0.018051784 -0.0036803128 -0.007301587 0.004743334 0.02039818 -0.00067667855 0.009773406 0.014432081 -0.015079895 -0.0014960689 -0.001375334 0.00516277 -0.004791522 0.0030183482 -0.011135891 0.012077999 0.012370385 -0.01166982 -0.013246365 0.0008801209 -0.0059602535 -0.01384709 0.0015844943 0.0069565983 -0.0024336055 0.008395426 0.004651789 0.0045577306 -0.0010935195 0.00877422 -0.0143392775 0.009577266 -0.001964572 0.003224622 0.0027628164 -0.010430546 -0.008183149 0.0076292017 0.010996224 -0.0034270235 0.0008798474 -0.0017868441 -0.010364833 0.0009832979 0.0005383345 -0.007959942 -0.00030827205 0.01029993 1.3491801e-05 0.007103058 -0.008200707 0.0036193659 -0.0036668535 -0.002054094 -0.004998263 -0.0015992158 -0.0008398221 0.006812737 0.0064590834 0.016752383 0.00070866564 -0.0030622792 -0.0050508166 0.015036827 0.007694914 -0.014516215 -0.01031693 -0.010920256 0.0028853046 0.008664154 0.011678718 -0.009149349 -0.009252815 -0.005554606 0.0071685254 -0.021772774 0.0021290716 0.0024822329 0.007096215 -0.01317742 0.00040769833 0.0056345407 0.0032567827 0.0077406634 0.000492431 0.008697738 0.00040174747 0.00027584715 0.012185349 0.006109069 0.0041551483 -0.0032934912 0.0018618578 0.0051205605 0.0013646383 -0.011548397 -0.0018886632 -0.013145695 -0.0042596464 0.0152426055 -0.002385803 -0.003937729 0.00011888794 0.007986631 0.0003141381 0.011225091 0.0070594572 -0.021231761 -0.0049982383 -0.015807109 -0.004892068 0.010428959 -0.008508258 0.012973091 -0.007064714 0.0046330746 -0.010089016 0.0060036206 -0.010900682 -0.00860179 -0.010952628 -0.014819704 -0.007780548 0.0029974997 -0.012427494 -0.0011668267 0.0021273762 -0.012175771 -0.0066817137 -0.012008243 0.00085915055 0.010038084 0.006390149 0.01141852 0.012630379 -0.0014080898 0.0015137066 0.010334058 0.014113659 -0.00794786 0.0040356894 0.0013076104 0.002043887 0.009710699 -0.0017949063 -0.0004421058 -0.009701562 0.00043850057 0.0027739194 -0.004529943 0.0044172904 -0.0083661415 -0.0058485195 0.0011117451 -0.0076103727 -0.010883328 0.0101575805 0.00170121 -0.0030279271 0.0058820737 -0.004566155 -0.0019001444 0.00172541 -0.0009836715 0.0026581292 -0.014843345 0.0035264983 0.008191732 0.0006104738 -0.0053569204 -0.01279596 -0.011104718 0.009604529 -0.010007586 -0.002928232 -0.015052958 0.0022059737
Ka16 -0.0030869406 -0.0058575515 0.0007088561 0.01395824 0.01564216 -0.0015453815 0.018146528 -0.0062837233 -0.0076779607 0.015531033 -0.00046532208 0.0015931354 -0.0017543447 -0.019425387 0.0069521884 0.014823136 0.018783972 0.008675706 -0.011206447 0.021710867 -0.0017897756 -0.00011217708 -0.012664526 -0.016917868 -0.013692545 0.0019965307 0.00061884377 -0.0026599779 -0.011841631 -0.013043466 0.003046298 0.00016179518 -0.0026457547 0.0026155934 -0.0072160545 0.023313943 0.01490705 -0.014450814 0.011240203 -0.0074808453 -0.01738467 0.0067754737 -0.009698997 -0.010622523 0.0175789 -0.0037417104 -0.0050292015 -0.0029812204 0.004236938 0.0068145245 0.0068765087 0.0112995505 0.008181425 -0.0064748945 -0.0036217384 -0.0005434914 0.0116739515 -0.0076305014 0.013797397 0.0037879949 -0.0022515282 0.01074626 -0.0069116135 0.006628978 0.012221262 -0.008535987 0.011795814 0.010990991 -0.008672924 0.00072016736 0.002933742 0.0065575563 -0.010221357 -0.0072073997 -0.0012608733 -0.0031387568 -0.0006679597 -0.0062409723 0.005839047 0.02717017 -0.00023338414 -0.0062305355 0.005509412 0.024610661 4.595725e-05 0.006006535 0.019134251 -0.023624007 -0.001464479 0.0022353004 0.011398793 -0.012600945 0.0033013495 -0.0074752523 0.0072956514 0.013889163 -0.01865592 -0.008254035 0.00071712566 -0.0031503702 -0.008926123 -0.0040169666 0.0055088988 -0.0031647633 0.009442197 0.012404364 -6.301202e-05 0.0012124674 0.0081894 -0.01781043 0.009726597 -0.00952852 0.0052948003 0.002235782 -0.005676341 -0.007971333 0.005778222 0.0078271385 -0.005665764 0.007279327 -0.0039162883 -0.006278758 0.00041948885 -0.0041383174 -0.0058862288 0.0024592148 0.016880488 0.005968199 0.007222103 -0.012198469 0.010221762 -0.0061655543 -2.3989276e-05 -0.0054653264 -0.0035642458 -0.00081526267 0.0027562983 0.011513685 0.023413533 -0.0020756398 -0.009771505 0.0018969725 0.017951744 0.004390826 -0.018756129 -0.0056508887 -0.012283244 0.0050254366 0.006858064 0.013466279 -0.008735061 -0.015005723 -0.009543145 0.00526568 -0.02054073 0.007960894 0.007028699 0.008697861 -0.01707405 0.0033867105 0.0077503845 0.0025298453 0.009731217 0.00032611995 0.005893496 -0.00066044077 -0.0008625526 0.0145379165 0.009008867 -0.0007170595 -0.0010581136 -0.001098161 0.0014232831 0.0009416579 -0.017184144 -0.0021988624 -0.01500926 0.0019489953 0.01626783 0.00055398286 -0.0016536163 0.0012861099 0.0036667818 -8.919901e-05 0.011563046 0.0037148558 -0.01619602 -0.005383285 -0.016395915 0.00091775577 0.008814887 -0.010027113 0.017524384 -0.005286285 0.0050698807 -0.0047306353 0.009527614 -0.009736141 -0.0061286194 -0.0057648653 -0.013346831 -0.010687539 0.009761956 -0.013621293 -0.0066724396 0.0044644736 -0.01875279 -0.006049548 -0.016200572 0.0032826418 0.0049028816 0.008016996 0.015923167 0.015390307 0.0015307477 -0.0026741854 0.0055583194 0.01756599 -0.010007952 0.005221255 0.0024146086 0.008489581 0.011405402 -0.0021063387 -0.0052916463 -0.015381448 0.004696719 -0.0016183616 -0.007854196 9.9752375e-05 -0.011878267 -0.011878254 0.0018180127 -0.0015614918 -0.008004339 0.007419488 0.0047323923 0.0012256412 0.0049846433 -0.008520218 -0.0054754317 0.0059063137 0.0006086853 0.010141707 -0.010713309 0.0033729228 0.012841902 0.007586667 -0.003273694 -0.00669347 -0.015157469 0.010319672 -0.014884436 -0.009760159 -0.023225144 0.0041645872
Bg06 -0.004351181 -0.009056021 7.147044e-05 0.010748222 0.01253521 0.00058042887 0.0103178155 -0.0071658543 -0.0026632652 0.008240661 -0.003422162 0.0043280222 -0.0027381638 -0.015842449 0.0039982684 0.013492189 0.016197745 0.004551068 -0.007647917 0.01978081 0.0029467861 0.00040023983 -0.007969365 -0.007440638 -0.014476211 0.0064896205 -0.0025531847 0.0015954454 -0.007823548 -0.0086124595 0.001103492 0.0018137487 -0.0035333298 -0.0019143007 -0.004410094 0.01928116 0.014716772 -0.0121469665 0.006838791 -0.0059531773 -0.010112931 0.004853459 -0.0037160206 -0.006769957 0.011382911 0.002916998 0.0012256025 -0.0026398087 0.005769296 0.00068026676 0.0027409878 0.0063586324 0.007613303 -0.0016409018 -0.0018003627 -0.005231353 0.0110206725 -0.00804776 0.012020782 0.003436857 0.0023548587 0.0018073794 -0.00021900139 0.008637031 0.0085311 -0.0065880595 0.0029398054 0.008594528 -0.006486214 -0.0017619992 0.0032070226 0.0014051859 -0.0106795 -0.008820208 -0.000997971 -0.0045398786 0.002738223 0.0011135766 0.004307633 0.020291224 -0.002147005 -0.0076340316 0.004114561 0.018741302 0.0029171146 0.0075891893 0.01496951 -0.0137564875 0.0013055207 0.0041439603 0.0053732973 -0.0084589105 0.0045726807 -0.0042559155 0.009692747 0.0062363325 -0.010074318 -0.008567188 0.0024719276 -0.0007421079 -0.00847903 0.0017144327 0.004247864 -0.003404604 0.0038385116 0.008133196 -0.000121180325 0.003364952 0.01033501 -0.015050341 0.005210682 -0.0067874365 0.002790373 0.003529839 -0.0070873573 -0.009753453 0.006938853 0.011258035 -0.0028733753 0.0010656072 -0.0026090397 -0.010408903 0.0018591478 -0.0013295825 -0.009008044 -0.0043963585 0.005925428 0.003465364 0.009122151 -0.0060417703 0.006177579 -0.002453421 0.00046020033 -0.007683183 -0.005094229 -0.0034808547 0.0061565866 0.005626783 0.015928313 -0.0037419987 -0.0019671402 -0.0031991345 0.0153329475 0.0026235715 -0.020098802 -0.0092572225 -0.011044704 0.0023512067 0.008581619 0.011835867 -0.0031614646 -0.009551649 -0.0051190536 0.0070450776 -0.018069768 0.00548838 0.005062136 0.007925531 -0.015143557 -0.00238573 0.008079633 0.0027559584 0.0032802601 -0.002167937 0.004127784 -0.0017969324 0.00035286567 0.009162168 0.00405851 0.00080363353 -0.0010680176 -0.0038270967 0.0003142673 -0.00050116394 -0.007825497 -0.0067822332 -0.0126534635 -0.002273889 0.01413252 -0.00524099 -0.003534172 -0.0037603925 0.0077293324 -0.00072071963 0.008169601 0.0036437397 -0.015532632 -0.009706966 -0.007342311 -0.0024637752 0.006829514 -0.008318817 0.008839482 -0.0017371186 0.008749827 -0.005372704 0.0072527607 -0.013395277 -0.0053766784 -0.007939198 -0.012719422 -0.00438031 0.0053599034 -0.0126247415 -0.000996282 0.0033687742 -0.015808253 -0.0061906003 -0.011987741 0.0032186154 0.0071708155 0.005721814 0.009081399 0.007171887 0.004903179 -0.0011524555 0.010357341 0.013941917 -0.014177891 0.0060180924 0.0007783353 0.0032566942 0.016147723 -0.004206597 -0.0054510524 -0.009021947 0.0018906168 -0.001589171 -0.004169016 0.0046749157 -0.009251114 -0.008774361 -0.0049030315 -0.0031386104 -0.008077953 0.0101534575 0.0018831652 0.0013261465 0.005276224 -0.0014344228 -0.0046842718 -0.0012926275 -0.0031142356 0.004813213 -0.00763001 0.0038975566 0.005177654 0.00034582397 -0.009053937 -0.0063415146 -0.012560721 0.008447309 -0.008908156 -0.006029489 -0.019987559 0.0047825165
z -0.0055321744 -0.012549733 -0.0059498395 0.013444896 0.015025684 -0.0066921245 0.0154675925 -0.0039929845 -0.009326593 0.009785231 -0.001315158 -3.3190787e-05 -0.001646992 -0.017368646 0.0070676613 0.014519663 0.018468767 0.008087178 -0.0165751 0.027516231 0.00070742454 0.00093542173 -0.015354416 -0.013056161 -0.011360534 0.0062325834 -0.006978444 -0.0027850033 -0.012095399 -0.007597951 0.0019078818 0.006126916 -0.005169647 -0.0025828339 -0.009461329 0.022589995 0.013106787 -0.014339654 0.0102198515 -0.008229251 -0.016710365 0.011805106 -0.0056582484 -0.01104406 0.014081364 -0.00027444068 -0.00078027364 -0.006010109 0.0030807604 0.007872287 0.010638538 0.006823907 0.0085667735 -0.007860843 -0.0085627595 -0.005268876 0.013024043 -0.010621361 0.018088007 0.008757145 0.0026570964 0.005910608 -0.0058432063 0.004814917 0.01260103 -0.002903443 0.004765603 0.015679726 -0.003914286 -0.0055076745 0.003916936 0.00033056375 -0.011170827 -0.012572633 0.0011362088 -0.004731656 0.0011000213 -0.0018878402 0.003176203 0.022689715 -0.002093621 -0.007815708 0.005240092 0.023269916 -0.0012434565 0.011625211 0.016671298 -0.022066832 0.0021337182 -0.0014138953 0.012270569 -0.013247914 0.0015293924 -0.0077349762 0.009691313 0.0129715325 -0.015044671 -0.015807483 0.0035180764 -0.007635279 -0.01654499 -0.00028999042 0.008093148 0.0036935704 0.004532812 0.008121258 0.0002625394 0.0012528116 0.010476198 -0.019287216 0.010843341 -0.009328727 0.0043413346 0.0077010524 -0.010465584 -0.011419389 0.0061791586 0.0065556527 -0.0025247352 0.0073806862 -0.008939178 -0.012595201 -0.0014276156 2.5481571e-05 -0.007244744 0.0025934295 0.010092312 0.006735605 0.009058463 -0.011822771 0.00478622 -0.0027855507 -0.002112659 -0.006292642 -0.0023719473 -0.0031963836 0.008928274 0.0055878456 0.021252036 -0.0057086633 -0.010126657 -0.0009794867 0.016093794 0.00440591 -0.021921305 -0.011415025 -0.013343915 0.0033172225 0.0118764825 0.01736458 -0.009919299 -0.011930235 -0.0106094135 0.007025976 -0.024437578 0.0017714171 0.0068955184 0.0031198491 -0.01870405 -0.00035942803 0.013935726 0.0053360383 0.007896789 0.0007334627 0.005708909 0.00016965708 -0.00094982155 0.015927179 0.008334345 0.0054550427 0.002546275 -0.0016252944 0.0017952285 0.0019573446 -0.01134693 -0.00085438165 -0.017644659 -0.0037088876 0.019269181 -0.0030681912 -0.0015548057 0.0021392382 0.0094603235 0.00072921417 0.011205614 0.0013637369 -0.018587181 -0.0064922157 -0.015351912 -0.0014134514 0.011839762 -0.003237348 0.018287139 -0.0032760222 0.010161594 -0.005664878 0.007243719 -0.013507956 -0.010180571 -0.007883381 -0.019342987 -0.0056815976 0.0039840825 -0.01331422 -0.002762994 0.00022851938 -0.021283196 -0.008423401 -0.016218055 -0.003982715 0.008793682 0.0062354947 0.0151737435 0.011537781 0.0025717928 -0.0009154048 0.012237268 0.012748158 -0.012106716 0.0041191736 -0.0034939465 0.006147873 0.014925541 -0.0047543966 -0.005107155 -0.012373365 0.0008331936 0.0019002374 -0.0048823464 0.003038888 -0.009566916 -0.006422915 -0.006290484 -0.008502297 -0.0063370937 0.012318076 -0.0009379483 -0.0025591615 0.008471341 -0.009502909 -0.0051545734 0.006284453 -0.0030018743 0.00379828 -0.010499351 0.0033404655 0.007993371 0.0030874077 -0.010516535 -0.012590611 -0.013395011 0.009307153 -0.012040489 -0.004501864 -0.018120117 0.0024524785
Ca03 -0.008328331 -0.0057934048 -0.0048192795 0.011840606 0.012924226 -0.00307805 0.015366307 -0.0062972493 -0.0059383754 0.00985479 0.0025091532 0.005333611 -0.00083668437 -0.013116239 0.0017584277 0.015085442 0.011615103 0.0035557905 -0.014023473 0.023247885 -0.0007156337 -1.0880953e-05 -0.0064384327 -0.014598587 -0.012407881 0.0055860584 -0.0055943327 0.0023300585 -0.0073003555 -0.010298087 0.0055987597 0.0065572644 -0.002349788 0.0028819782 -0.0077858707 0.015572345 0.01744817 -0.0074555473 0.011245378 -0.0064712586 -0.010287044 0.009966211 -0.0032886127 -0.008462559 0.016480993 -0.0029602922 -0.0053513455 -0.0038259486 0.0054329433 0.0036107597 0.009057381 0.0044482453 0.0006229825 -0.0001591153 -0.0019108593 -0.003962948 0.008440418 -0.009965967 0.013245854 0.008385145 0.0009762078 0.004832973 -0.0038072628 0.005883105 0.006713199 -0.0027781802 0.0027062823 0.010376441 -0.0072663296 0.00051826984 0.007623653 0.001971639 -0.0057735243 -0.0088344095 0.0030369256 -0.002844522 0.0039012854 -0.004405978 0.006442767 0.024488864 0.0024092048 -0.007584043 0.0026584687 0.015786756 0.0029423025 0.0053162733 0.010292937 -0.014795728 -0.0009326545 0.004398795 0.0047279936 -0.0036502653 0.0030606987 -0.011689505 0.010702853 0.0062427577 -0.011200611 -0.0075096744 -0.0005956835 -0.002016721 -0.008700638 0.002496846 0.0018127706 -0.0024287016 0.0016818912 0.009497616 0.00047300223 0.002673898 0.009586591 -0.0090804575 0.008854933 -0.005114014 0.003984895 0.0058072833 -0.010252927 -0.011855371 0.0053902892 0.009776937 -0.0012924176 0.00075468747 -0.004700876 -0.0054104854 0.0016750853 -0.0013578279 -0.008354957 -0.0026215077 0.009686695 8.908082e-05 0.0054113697 -0.007884351 0.006956949 -0.0008686512 0.0005255768 -0.004167416 -0.0045430083 0.0005594404 0.0040589063 0.0074922405 0.016067205 -0.0047018863 -0.006077396 -0.004707821 0.015862027 0.006075362 -0.018077718 -0.006234043 -0.0064909738 -2.7926097e-05 0.008724255 0.011948364 -0.0059172544 -0.011523049 -0.011759743 0.00942776 -0.018968305 6.579349e-05 0.004720175 0.002699241 -0.00962343 -0.0014634387 0.00819487 0.0034798793 0.0029933066 -0.0032891205 0.0093980525 0.0021746112 -0.0069143544 0.011213332 0.001443118 0.00019824397 0.0013750934 0.0010781328 -0.0013142695 0.00032039205 -0.00952611 -0.006889567 -0.012859297 -0.0022555992 0.010406866 -0.0019605088 0.0012626529 0.00032773672 0.0066484883 0.002648753 0.009576514 0.0013676097 -0.01735757 -0.0032573554 -0.0104140155 -0.0013916676 0.010269146 -0.0041503077 0.009832474 -0.0005388753 0.011426495 -0.010625226 0.008326858 -0.014003011 -0.0053435615 -0.005402704 -0.015237813 -0.009673105 0.0021506108 -0.014258457 -0.0050029843 0.0047034724 -0.012954658 -0.011576317 -0.007551208 0.0025358463 0.008963333 0.009100471 0.0066692703 0.010629698 0.0025704876 0.00038458838 0.009706744 0.010281519 -0.009643094 0.0103445845 -0.0039156266 0.0077400315 0.014106231 -0.004229374 -0.0029793666 -0.014597266 0.0006695038 0.0035019089 -0.006465132 0.006702269 -0.010720443 -0.0104715405 0.0003520918 -0.0010262874 -0.005071283 0.009942092 0.0044272486 -0.0018138175 0.010611617 -0.0072420263 -0.0061547034 -0.0003117427 0.001972754 0.0033325977 -0.010197247 0.0021853058 0.007277916 0.0010231662 -0.0079340255 -0.010235584 -0.009438848 0.0079810005 -0.011255222 -0.0053084604 -0.019041028 0.006516808
q -0.0046135937 -0.0097707985 -0.0030856892 0.011998096 0.011335449 -0.004882037 0.0098374635 -0.007205653 -0.0058568204 0.013252213 -0.0036273391 0.0035413683 -0.001118092 -0.013184906 -0.0002948618 0.0146976635 0.013519387 0.0072844354 -0.015952058 0.02216383 -0.0028289906 -0.00027167576 -0.009962818 -0.012786661 -0.011698012 0.0044956594 -0.0008312209 -0.0020800123 -0.009584271 -0.010859242 0.00724904 0.005157399 0.000978785 0.0025599087 -0.0069603245 0.020484535 0.010534276 -0.0087514715 0.009361356 -0.0052756825 -0.010972799 0.007927394 -0.0087273335 -0.009182158 0.013614016 0.0020019868 -0.005031698 -0.001225312 0.0026893476 0.0016007248 0.004516166 0.008963846 0.007720487 0.00017269459 -0.0007446973 0.00026354677 0.008967623 -0.009825516 0.017081313 0.0073991576 0.0030480584 0.008673297 -0.0021233659 0.0076329666 0.007235368 -0.002730161 0.010573218 0.00890727 -0.004238831 0.0009897769 0.006686286 0.0051532043 -0.0043719164 -0.008718451 0.0025977308 0.001176509 0.0012623777 -0.0031628187 0.0065431776 0.023409298 -0.002987016 -0.008828587 0.0021246 0.020892179 -0.00046902063 0.005004294 0.014049881 -0.0136716245 0.0006800756 0.0030571904 0.008722763 -0.0043748394 0.005848323 -0.0073306863 0.008110771 0.0101961875 -0.017413687 -0.0069980295 0.0011077465 -0.0009293218 -0.014615366 -0.0011908319 0.008013523 -0.0017601338 0.004539394 0.00938708 0.005756003 0.0006494484 0.004989125 -0.008723683 0.0042302646 -0.0043499204 0.0057370407 0.0013320895 -0.009043546 -0.012847125 0.005702177 0.010003885 -0.004885162 0.0032769577 -0.0009843248 -0.010053506 0.00058770913 -0.0010739077 -0.0076033766 -0.0028880588 0.014558316 0.0015369259 0.012577082 -0.008958951 0.0075894413 -0.0006510546 -0.00086726213 -0.005617183 -0.004440729 0.0002831311 0.004487142 0.0057686516 0.019960504 0.0010625481 -0.007905853 -0.0011458737 0.014281184 0.0033901816 -0.017121075 -0.003483677 -0.00668796 -0.000104092156 0.005856905 0.01562891 -0.0070949355 -0.015225526 -0.008201143 0.0043332544 -0.018391667 0.004126277 0.0025948188 0.0033879783 -0.009484371 0.0029831282 0.009911739 0.004472843 0.008328602 -0.0038316892 0.009255193 0.0011070777 -0.0061349105 0.0076711457 0.004896917 0.004826815 0.0002666672 -0.0041825115 0.0018390034 -0.0014549777 -0.013937858 -0.00014813287 -0.009656414 -0.0009735695 0.015113115 -0.002279142 -0.0050558154 0.00058886857 0.008509958 0.004485512 0.010911882 0.0025779426 -0.016284987 -0.009186005 -0.010407973 -0.00072622066 0.007147945 -0.0056087053 0.014087221 -0.0029480075 0.008076537 -0.0034225334 0.007029285 -0.010677068 -0.0064339424 -0.009995143 -0.016685326 -0.008022707 0.00688409 -0.0073691052 -0.0022389167 -0.0009350767 -0.012877573 -0.009569962 -0.011522129 0.003253022 0.009398279 0.005311718 0.0079003135 0.013228225 0.005929317 0.002848018 0.007353629 0.016475093 -0.0074207233 0.0022665495 0.0036463875 0.004977539 0.010680113 -0.0009005949 0.0013772685 -0.014453473 0.0064706234 -0.001615414 -0.0083276685 0.0048620533 -0.009687506 -0.005873391 0.0013494507 -0.00039029028 -0.004546482 0.0038088846 0.0032178687 -0.0029488187 0.0069977646 -0.000998147 -0.007030204 0.003973472 -0.00283442 0.0022240465 -0.008184306 0.004204474 0.011026676 0.0047811093 -0.0050327242 -0.007461313 -0.013253363 0.010391511 -0.011836963 -0.004078328 -0.019196866 0.0030459762
Jd04 -0.0033884826 -0.008550181 -0.0057126144 0.0066671423 0.008651391 0.0010046861 0.012404709 -0.005931234 -0.008517203 0.009251517 -0.002788158 0.0045554773 0.000677844 -0.014805133 0.007155926 0.013182044 0.01983203 0.008510156 -0.012217566 0.022655059 -0.0023005838 0.00016722786 -0.007920212 -0.015113579 -0.011511336 0.001878342 0.0006372646 -0.0015007446 -0.0083353715 -0.010913373 0.006424177 0.0011033252 -0.0058132084 0.0027557996 -0.007082702 0.01829471 0.017016344 -0.008944702 0.014216725 -0.0029466783 -0.010929897 0.006317033 -0.0054198275 -0.0056752614 0.012801428 -0.00033509565 -0.004046269 -0.0049769175 0.008368997 0.004958059 0.008836796 0.006491189 0.0071058553 -0.004733396 -0.0069625257 -0.0015217088 0.014950735 -0.011838896 0.016266441 0.004931595 -0.002105957 0.004506903 -0.006123788 0.009544795 0.010551506 -0.00819344 0.0074534738 0.014498137 -0.0011288527 -0.0072562876 0.00599203 0.0015787092 -0.009043772 -0.008836047 0.0021083537 -0.0021094976 0.005904144 -0.0031280934 0.0023064127 0.025736002 0.002790221 -0.008018811 0.0033901387 0.02386665 -0.002491503 0.011307941 0.0142242955 -0.021182835 0.0026237105 -0.00030035106 0.009706836 -0.010879991 0.003479064 -0.0071596606 0.0123051945 0.0056193313 -0.017496156 -0.008294491 0.004351569 -0.0051135663 -0.014341973 -0.0006661722 0.001225585 0.0008551709 0.0038968849 0.008445211 0.0042389403 0.0016434852 0.005569743 -0.013067217 0.0063112793 -0.0067011295 0.004531279 0.00839359 -0.010213329 -0.0093404455 0.00929752 0.012772883 0.0010696973 0.0019221765 -0.0035426558 -0.0056644897 0.0006245583 -0.0019822035 -0.007774414 0.00031510394 0.013296554 0.006106345 0.008328359 -0.011906527 0.009472767 -0.005584143 -0.0012788192 -0.00785008 -0.0024102426 -0.0052667246 0.0062693954 0.0041325125 0.020249443 -0.0050211116 -0.008487129 -0.0003955296 0.014083486 0.005988449 -0.018595487 -0.011601007 -0.006378903 0.0011932733 0.0071946066 0.015574033 -0.007567553 -0.010512901 -0.007931939 0.008696968 -0.017821822 0.007420849 0.004836987 0.004274021 -0.012011027 -0.0020384165 0.013243046 0.0048783612 0.0074407253 -0.0011429547 0.0067107934 0.0020888755 -0.005666797 0.015967991 0.0076239845 0.0029891452 -0.0029095854 -0.004012985 0.004360679 0.000718308 -0.014505114 -0.007815065 -0.014381149 -0.00067690003 0.011735028 -0.0029851897 -0.0003956885 -0.00466089 0.0061785476 0.0008556369 0.009540141 0.003511945 -0.02301899 -0.007910839 -0.015686153 -0.00495555 0.008496944 -0.0047872057 0.017678821 -0.0001957314 0.0061810925 -0.011464346 0.009154045 -0.009887918 -0.0028769465 -0.009034757 -0.016102143 -0.008963598 0.0020541057 -0.008887944 -0.00410756 0.004450254 -0.018043483 -0.0051552467 -0.0139097 0.0028708575 0.0043446957 0.00286854 0.014377498 0.008838465 -0.0015861026 0.0013838585 0.0048065824 0.01685241 -0.0116316695 0.0040050643 0.0008987773 0.0056870705 0.01769841 -0.0019080177 -0.004510303 -0.013059167 0.0068167797 -0.0013447176 -0.0019783822 0.0016596912 -0.010267591 -0.0102454815 -0.0009385182 -0.008523388 -0.005908486 0.0061252527 0.0059402804 -0.0013879981 0.0045844554 -0.0036295955 -0.0020306737 0.003520448 -0.0016781846 0.007360928 -0.016251473 0.0014275169 0.0068373894 0.0046487665 -0.008864328 -0.012849265 -0.013051087 0.010138811 -0.009780271 -0.0031870224 -0.017429952 0.005025931
Ea04 -0.0021555286 -0.004154093 -0.0041053914 0.00807277 0.010382408 -0.00027839103 0.008682973 -0.0047805766 -0.0024370712 0.007015281 -0.0039319135 0.004816793 -0.0015719511 -0.013130372 7.626975e-05 0.013477912 0.013090478 0.0052196314 -0.010848724 0.018003047 0.0028897088 -0.0027852883 -0.007271331 -0.011694034 -0.0064461543 0.0057544243 -0.0046868855 -0.0015290665 -0.00921278 -0.004056788 0.006948929 0.004101005 0.0016287401 -0.001850871 -0.003582687 0.013179815 0.00856231 -0.010379721 0.0089879865 -0.0068243365 -0.012632773 0.00837669 -0.006066697 -0.010965407 0.014614607 5.7598158e-05 -0.0059877653 -0.0034524295 0.0006885184 0.0071208435 0.00549009 0.010342582 0.0059227585 -0.004378826 -0.007532794 -0.004488176 0.012452618 -0.008287658 0.01184659 0.004475551 -0.0026425796 0.0068050157 -0.0057893363 0.009717453 0.0062796576 -0.0017143852 0.004773108 0.009604102 -0.004998394 -0.0022070585 0.005924183 0.002371433 -0.0068490193 -0.0040204898 -0.0033823408 -0.004480069 -0.0011043921 -0.00017266619 0.0014273829 0.016708156 0.0019801063 -0.0098653 0.0042561037 0.021257566 0.0020777832 0.006351308 0.012616981 -0.013256924 0.0039782 -3.543369e-05 0.0076938723 -0.008324042 0.00064496096 -0.0073659853 0.009248081 0.0052567273 -0.010542606 -0.011380365 0.00060320215 -0.007980608 -0.006648757 0.0017217534 0.003056194 0.003547488 0.0054187486 0.002516626 -0.0010961661 -0.0009995913 0.003939582 -0.008045981 0.009352013 -0.0035026271 0.0029729176 0.0012556483 -0.003532561 -0.010414719 0.0040118163 0.004815068 -0.0020247262 2.4707837e-05 -0.0028073452 -0.010499377 0.001789339 -0.0053868704 -0.008249019 -0.00085438404 0.0061193015 0.0042936876 0.006244851 -0.0065574143 0.008874984 -0.0013930445 -0.0008219219 -0.0037398734 -0.0018121892 -0.00059545843 0.00717772 0.003260759 0.016724609 -0.0067038736 -0.005517635 0.001938453 0.009984691 0.001863999 -0.014285351 -0.0032783526 -0.0057439473 -0.00057620864 0.0094577065 0.0133652175 -0.00820238 -0.010003472 -0.0073421514 0.002529289 -0.017534407 0.00681397 0.0030796332 0.0015396646 -0.013101919 -0.0027203162 0.008915531 0.005772556 0.0043460396 -0.0031674625 0.009792066 -0.0023913211 -0.0049996907 0.0059604775 0.00848885 0.0007314431 -0.0029168471 -0.0035318865 0.004184033 -0.001383648 -0.012926972 -0.0019586817 -0.013157841 0.002486943 0.01519449 -0.0040379106 -0.002346307 4.877384e-05 0.00107979 0.0044616256 0.010570461 0.005695815 -0.019002736 -0.005534268 -0.012985253 0.00069144985 0.010554923 -0.0050007026 0.008098425 -0.0011891335 0.006904083 -0.005380989 0.0024671594 -0.010160144 -0.0057625733 -0.0034540195 -0.014621015 -0.007399763 0.003777488 -0.010282913 0.00021597238 0.00062708586 -0.013611119 -0.010741701 -0.013665319 0.00030605507 0.0049599907 0.0008935797 0.012134554 0.013195611 0.0042142114 -0.0016191856 0.007048971 0.015144786 -0.013287826 0.0024466063 -0.0036514576 0.005971226 0.007737308 -0.0017020287 0.001144418 -0.009216911 -0.000616075 0.0043412563 -0.0022876682 -0.001069324 -0.004449484 -0.0033444338 0.0007724246 -0.00547632 -0.0031529395 0.004267942 -0.0013898673 0.0019433851 0.004195032 -0.00485052 -0.0065035215 -0.0009833219 -0.0009938183 0.005191679 -0.0095765265 0.0054009077 0.008328339 -0.0009671241 -0.008749392 -0.008886822 -0.009501658 0.0040615024 -0.0051834187 -0.0038632837 -0.018125558 0.004565438
