445 256
v 0.0020374637 -0.037851 0.005966847 0.03303407 0.052439667 -0.014783467 0.034564618 -0.0057971966 -0.017825179 0.027956514 -0.0008093993 0.009874062 -0.0054296483 -0.056129884 0.0143902 0.036363598 0.02691393 0.037340637 -0.04058169 0.062953405 0.0246854 0.007247087 -0.016684746 -0.02517647 -0.03998176 0.013255133 0.01719111 0.01940712 -0.018057551 -0.023249999 0.002126115 0.006078415 -0.0016387698 0.0022485468 -0.043527797 0.06407966 0.062079288 -0.02640209 0.0367945 -0.017693328 -0.042674214 0.037926923 -0.017391626 -0.037390076 0.04803896 0.0030506914 -0.012294901 -0.014875624 0.022089193 0.01376565 0.006529339 0.024264507 0.015495523 0.009714243 -0.026417697 -0.0038707226 0.033485137 -0.04573284 0.018729994 0.02797092 0.0035417331 0.022834245 -0.0003678494 0.019889079 0.040943805 -0.012842056 0.01248346 0.04467297 -0.026986996 -0.008621082 0.038649622 0.0027648136 -0.033284936 -0.02533937 -0.013251908 -0.0018202375 -0.014529273 -0.013604381 0.0014265985 0.0637296 -0.0040709153 -0.032832813 0.015904296 0.059890445 -0.0042250794 0.029985826 0.04171147 -0.06470222 -0.0049242247 -0.005580509 0.0072210687 -0.024395756 0.010648994 -0.027038664 0.0436196 0.053440444 -0.063503996 -0.04483519 -0.001407497 -0.024613928 -0.063679464 0.0064506675 0.02218384 0.023841685 0.014162186 0.024796562 0.00046211114 0.023453286 0.031094316 -0.024864929 0.02043975 -0.04708699 0.014085595 0.012875622 -0.008986135 -0.012215799 0.012735665 0.01864386 -0.018051904 0.00382266 -0.00018367502 -0.035433367 0.0141958995 -0.007706416 -0.022747569 -0.023163524 0.039155148 0.0068700938 0.033795804 -0.0060610576 0.034730308 0.0010476421 0.015116942 -0.030489227 -0.013186085 -0.005643495 0.02829614 0.041989863 0.055066966 -0.024385527 -0.011540789 -0.0150019 0.046120584 0.01485481 -0.07815567 -0.01702259 -0.022193264 0.0012683101 0.04392433 0.04701733 -0.011573688 -0.033410672 -0.03514304 0.01519252 -0.05981624 0.024393974 0.033280157 -0.0006139482 -0.038203366 0.015263684 0.010798291 0.010782526 0.013172727 -0.007338774 0.023131719 0.01609837 -0.022152275 0.0388147 0.028835148 0.008341694 -0.0075789695 -0.015741184 0.003945548 0.021108711 -0.050553042 -0.011064994 -0.027726365 -0.00926346 0.039692618 0.0020038344 -0.006980709 -0.0029972892 0.02377449 0.0009927015 0.044473305 0.0091108335 -0.070536174 -0.024588058 -0.024297556 -0.015366452 0.049243547 -0.009537512 0.052613992 -0.015122767 0.03066819 -0.027669353 0.017174957 -0.05544664 -0.03814159 -0.025838714 -0.069981635 -0.0019772293 0.005877041 -0.0490556 2.7399543e-05 -0.0069616707 -0.059904996 -0.028566921 -0.040872898 0.0018460811 0.011620647 0.03994247 0.03660826 0.04242872 0.012185422 0.00041422527 0.059541162 0.045778953 -0.0485856 -0.012920442 -0.007516203 0.025566433 0.019194681 -0.024575146 0.011455114 -0.047380902 -0.0134155145 0.009674296 -0.016934054 0.006848749 -0.022599893 0.005019618 -0.013183805 -0.01643781 -0.017884826 0.01927591 0.020761345 -0.0067926706 0.026787756 -0.03573555 -0.01582029 0.009056733 -0.007211131 0.023388088 -0.03598465 0.014031633 0.028207427 -0.005160445 -0.02622233 -0.03585719 -0.030291598 0.030716533 -0.034943983 -0.029226845 -0.065558575 -0.008014679
n 0.0014828774 -0.047303803 0.002250578 0.033877082 0.06892816 -0.016015852 0.041740783 -0.010705389 -0.022243762 0.039079137 -0.0020958832 0.014850139 -0.007100738 -0.06792679 0.021350753 0.046314117 0.032569196 0.04525916 -0.04612316 0.08287122 0.030030003 0.0075880275 -0.02447561 -0.030609693 -0.050029717 0.014312613 0.017846335 0.02035677 -0.017339095 -0.028806364 0.0040822662 0.004378769 -0.0026822533 0.0062075043 -0.05305649 0.07974817 0.073958926 -0.03027226 0.047537223 -0.016951263 -0.044449564 0.0432714 -0.012900473 -0.046074707 0.054201514 0.0072311843 -0.011393583 -0.023264593 0.02663334 0.010491591 0.013069007 0.02980846 0.023098068 0.008030782 -0.0320164 -0.0009969919 0.03930908 -0.053932875 0.027823728 0.028143425 0.008832133 0.024920832 -0.0017837617 0.030350998 0.050914142 -0.017110476 0.019690324 0.054769084 -0.035378993 -0.010527342 0.045629174 0.0010279497 -0.039092872 -0.025821306 -0.018279701 -0.0040888838 -0.023780063 -0.016697252 0.00467466 0.08370755 -0.000570729 -0.042833194 0.012706508 0.072815195 -0.00071130606 0.037369315 0.05006034 -0.07624926 -0.0011999124 -0.009027802 0.008824139 -0.030180596 0.010520196 -0.033733487 0.049436167 0.06175278 -0.075786024 -0.054280497 -0.004547586 -0.032839037 -0.07163377 0.0096977055 0.02645513 0.024181241 0.013919985 0.034961175 0.0027873584 0.024515286 0.040239874 -0.02947299 0.024655964 -0.04871956 0.018263362 0.008216349 -0.010071559 -0.019386834 0.011272223 0.022549277 -0.020980721 0.0025807586 -0.0036936144 -0.037427902 0.010810733 -0.003735786 -0.032729365 -0.026846714 0.051123194 0.0068986723 0.04094701 -0.0118517615 0.040704295 0.0052551483 0.017401038 -0.037149657 -0.020855278 -0.00862282 0.02996599 0.046736624 0.065368205 -0.033658274 -0.014959974 -0.017371694 0.058589295 0.015721174 -0.09482707 -0.023847869 -0.031842593 0.001389267 0.053670008 0.058119293 -0.017154442 -0.034676276 -0.04374792 0.019441994 -0.07422154 0.027509253 0.032067884 -0.0030029176 -0.047515746 0.012854194 0.015552982 0.013191621 0.020410009 -0.008663322 0.026513528 0.013146678 -0.026620908 0.0529383 0.029902054 0.0068320367 -0.0072936504 -0.013245853 -0.0015720236 0.022612415 -0.056965616 -0.0091879135 -0.029749395 -0.01295104 0.048899733 0.0017180456 -0.0048918813 -0.003950141 0.026214963 0.0046616225 0.053680968 0.009122625 -0.08885035 -0.02101342 -0.027805211 -0.019157723 0.059636343 -0.011010639 0.06414017 -0.017752403 0.0395698 -0.033021808 0.02186022 -0.06672243 -0.041844312 -0.036271945 -0.08749685 -0.007978012 0.009911029 -0.06055636 -0.002372502 -0.014080205 -0.06985026 -0.03487793 -0.046377566 -0.00056485867 0.019874923 0.052797846 0.037958045 0.054024465 0.00895907 0.005625392 0.067778625 0.05224818 -0.053407922 -0.010556247 -0.0069457754 0.036364775 0.027763363 -0.029220233 0.006968306 -0.057414707 -0.018858435 0.008106522 -0.020129364 0.0030813317 -0.026589084 0.010561404 -0.016092308 -0.020370228 -0.01615142 0.021977477 0.027289815 -0.011310124 0.03238279 -0.045365337 -0.013834701 0.011746194 -0.008174126 0.026166031 -0.048692483 0.015916692 0.032642864 -0.008012741 -0.03286761 -0.04289461 -0.034929167 0.0393729 -0.04088937 -0.03377269 -0.07660233 -0.007740057
u -0.001004391 -0.03622108 0.002209786 0.021891145 0.045536704 -0.012803606 0.026440587 -0.008667169 -0.01733547 0.025130684 -0.00015916277 0.012063989 -0.006190792 -0.051775653 0.015288044 0.02773252 0.02289203 0.034052934 -0.029636147 0.053389326 0.016696066 0.0010641521 -0.016526897 -0.01796398 -0.03363142 0.014722775 0.016844051 0.012984773 -0.00914677 -0.021607624 0.0016600242 0.004407538 -0.004497083 0.003192358 -0.036757044 0.05834554 0.05005254 -0.021335136 0.03270955 -0.016412562 -0.029965412 0.034033425 -0.015638571 -0.029509425 0.044803433 -0.0007288126 -0.011062577 -0.018895825 0.020538183 0.008288255 0.012324599 0.01605737 0.016123548 0.008832388 -0.024948454 -0.0009881603 0.02406484 -0.04030593 0.018467711 0.022903163 0.0068935202 0.021589505 0.0010941211 0.023073062 0.03200658 -0.010391884 0.011326312 0.03753901 -0.019279396 -0.010760988 0.033329427 -0.0039162138 -0.028306963 -0.02180511 -0.015170969 0.0020068337 -0.015564519 -0.009839407 0.0057221586 0.06090879 -0.006142818 -0.030362047 0.015558946 0.050847188 -0.002298502 0.021574963 0.034998313 -0.056180142 7.008319e-05 -0.008655589 0.005317472 -0.02041792 0.008097768 -0.023018103 0.03628666 0.043820404 -0.052739006 -0.036550082 0.00096627144 -0.02249793 -0.051745173 0.008030852 0.015060098 0.01812706 0.013237103 0.026076872 0.0006952635 0.014470407 0.027914887 -0.020147508 0.021180611 -0.03668991 0.014313874 0.009609394 -0.009509387 -0.014802204 0.00859394 0.012640973 -0.011575695 0.0065959273 -0.0012947642 -0.027478632 0.0071186884 -0.0028537288 -0.024369802 -0.02407915 0.0329869 0.0006395767 0.03256041 -0.009960712 0.02962788 -0.0006665703 0.014458216 -0.020298492 -0.015707072 -0.009518294 0.019980198 0.032924898 0.04369579 -0.027396278 -0.015565898 -0.009369822 0.03910059 0.00926194 -0.0666789 -0.020540863 -0.02336435 -0.0018086454 0.036992304 0.03772125 -0.009674703 -0.024726486 -0.031103779 0.014332675 -0.053261284 0.016486995 0.022339795 -0.0042317635 -0.032950576 0.012740121 0.010808197 0.009633488 0.015492234 -0.007591302 0.02056483 0.014228611 -0.022323377 0.037657082 0.024351856 0.0021664074 -0.008049502 -0.00984984 0.0012014441 0.013535236 -0.03882711 -0.009228613 -0.023794046 -0.0071187452 0.031194849 0.0028351827 -0.004083618 -0.0041637295 0.01862213 0.0036846385 0.04103555 0.0060131666 -0.061007824 -0.015431555 -0.01836681 -0.013361099 0.044896137 -0.004246779 0.04225307 -0.0099394545 0.028898649 -0.02600348 0.010293376 -0.048817422 -0.02921451 -0.023736712 -0.057858616 -0.003901359 0.0072475756 -0.04045128 -0.0008670236 -0.008340492 -0.05270942 -0.028823132 -0.032124255 0.0023197213 0.011866335 0.031720337 0.024867084 0.038826235 0.0067130206 0.004937664 0.046344984 0.03951824 -0.04135093 -0.008288191 -0.004591568 0.02077815 0.016400918 -0.018560411 0.004945113 -0.039047085 -0.017291924 0.0076278527 -0.008729869 0.00351034 -0.021449994 0.008491391 -0.0052501294 -0.015713193 -0.014871408 0.015486332 0.021480389 -0.0065163625 0.019019322 -0.030705363 -0.008135649 0.0042135646 -0.0079593565 0.021392398 -0.03541827 0.012189123 0.02382013 -0.00066771347 -0.017440481 -0.03139487 -0.027937295 0.030417355 -0.026560627 -0.01994234 -0.05669657 -0.0012558897
Bo29 0.00089109375 -0.029782612 0.004166673 0.021168562 0.04227387 -0.00964743 0.021769308 -0.0060049943 -0.008294176 0.019330837 -0.0021234155 0.004263015 -0.0053857695 -0.04256101 0.00849177 0.027844893 0.019250473 0.025716132 -0.025171975 0.051740777 0.01930866 0.003137854 -0.0134649165 -0.020032719 -0.033565935 0.01331163 0.012167815 0.011843307 -0.011548655 -0.017693147 0.0050672744 0.0027109294 -0.007588573 0.0074499925 -0.029253554 0.05068215 0.044792973 -0.016438717 0.030651696 -0.013025381 -0.030887842 0.027713766 -0.00834689 -0.028003296 0.0387514 0.0007238443 -0.003151908 -0.0132418 0.012299284 0.0065199407 0.0040726797 0.015355977 0.013008402 0.0101577705 -0.018156335 -0.0041418145 0.024125576 -0.030008785 0.0133687025 0.013512861 0.003591147 0.013087823 0.0035606772 0.014450573 0.03243651 -0.0059258533 0.009441152 0.03248903 -0.01973101 -0.003980152 0.02763159 -0.0036051744 -0.024792498 -0.014232923 -0.010998033 -0.0020110847 -0.0129697425 -0.010183292 0.0020412237 0.05003963 -0.0043631643 -0.026131354 0.009938166 0.041693322 -0.0014818388 0.0190338 0.03061447 -0.04633659 -0.0017621719 -0.0055432757 0.007278805 -0.020672658 0.0042593707 -0.021527486 0.032676045 0.03672859 -0.047165703 -0.030812845 -0.0029957148 -0.017326163 -0.04759578 0.0047784043 0.010726485 0.016468473 0.011038515 0.023057727 -0.003215294 0.012639358 0.02029883 -0.019545123 0.01116093 -0.032076135 0.011192138 0.0043099183 -0.004542741 -0.01041241 0.009450715 0.01168696 -0.0119408155 -0.00013731608 -0.0014940893 -0.022301888 0.0061010537 -0.002576612 -0.017216774 -0.018326309 0.033814944 0.0066308603 0.026283141 -0.003508793 0.024841843 -4.308542e-05 0.009016865 -0.022901336 -0.013952267 -0.0015089196 0.017578948 0.026306475 0.035674307 -0.018122781 -0.011604327 -0.010007629 0.036544513 0.009918928 -0.056403212 -0.013994377 -0.018640297 0.004654027 0.033113502 0.0293918 -0.00801626 -0.024145609 -0.025157766 0.011625881 -0.045260005 0.014914513 0.024468048 -0.0036198024 -0.03042841 0.012363919 0.009283021 0.004945697 0.0145048825 -0.0023389424 0.017366663 0.013600303 -0.021276679 0.031880688 0.019357111 0.0056547793 -0.0040554977 -0.007752565 0.003007246 0.015600317 -0.03744115 -0.007621221 -0.018376863 -0.0047058444 0.02600131 0.0048164884 -0.0007418235 -0.00021676626 0.016841132 0.005645268 0.03128815 0.01021848 -0.04982119 -0.0181151 -0.019796584 -0.01067742 0.037047964 -0.0068638115 0.036502644 -0.0057645924 0.026852762 -0.02144658 0.008646793 -0.04090252 -0.026701951 -0.024004111 -0.049845327 -0.0039400305 0.0073052733 -0.032590248 -0.0041752905 -0.010751262 -0.041854173 -0.023663789 -0.02625671 -0.001535239 0.01242556 0.03003535 0.025224827 0.029487276 0.006411007 0.0049241316 0.042134818 0.028260306 -0.036098003 -0.0074028717 -0.0011001874 0.022312295 0.011133923 -0.011707024 0.0077069523 -0.029770836 -0.008220468 0.002726284 -0.014065211 0.006375917 -0.014075665 0.0075866 -0.0046642763 -0.011766318 -0.0073641315 0.010713032 0.011989792 -0.008398823 0.017321253 -0.023519117 -0.011390742 0.0026815704 -0.0017352853 0.013813452 -0.023852004 0.007294094 0.02154964 -0.0006556686 -0.01640432 -0.026877182 -0.021203682 0.019340442 -0.024486635 -0.019769305 -0.042082287 -0.0054860557
的 -0.0016032782 -0.01839532 0.0020257453 0.014320677 0.032539595 -0.004836574 0.015439989 -0.0045561516 -0.005102511 0.018833343 0.00024960865 0.0073204315 -0.0012290895 -0.03196531 0.006100225 0.019475587 0.0132540995 0.019379195 -0.022224246 0.038322218 0.008975454 -4.917078e-05 -0.011458847 -0.014342092 -0.025460074 0.008123997 0.007320291 0.008406686 -0.010993801 -0.010965691 0.004087305 0.0031749655 -0.0048923693 0.0020959694 -0.019991115 0.036033195 0.02797205 -0.014182799 0.020702742 -0.007412019 -0.02445831 0.020919623 -0.010653648 -0.021771897 0.027037287 0.0002760189 -0.0035852694 -0.006591842 0.009411019 0.008861182 0.005959482 0.015894322 0.011476916 0.0012396242 -0.01711716 0.0014416209 0.019141505 -0.019272693 0.013578502 0.01574286 -0.0015050562 0.013627146 -0.0010997597 0.013684192 0.02458817 -0.0055589373 0.009748925 0.023040922 -0.014362157 -0.0028012285 0.017064048 -0.00020623575 -0.013905573 -0.013521099 -0.006574907 -0.0043088784 -0.0055243224 -0.0038421615 0.0019188023 0.03778271 -0.0013519925 -0.020671703 0.0067411344 0.033175446 -0.002807991 0.014120005 0.0229411 -0.032242708 -0.0025250213 -0.005335959 0.0058963033 -0.015451519 0.0037561948 -0.01718805 0.019592261 0.02408262 -0.033751838 -0.025608253 -0.00019586705 -0.01791067 -0.036074143 -0.0005942316 0.007985152 0.013970421 0.007474556 0.014733749 -0.0011538314 0.008264031 0.017169178 -0.011849121 0.010991711 -0.022697616 0.008835448 0.005303263 -0.008496876 -0.010237781 0.0022083963 0.007892079 -0.008194874 0.0049203043 -0.001287025 -0.01872129 0.009573604 -0.0022092909 -0.014424638 -0.009469678 0.023121938 0.0006717158 0.021179106 -0.0029475156 0.013714686 0.0012271217 0.008451321 -0.012713433 -0.008600686 -0.0045994264 0.014178854 0.02122992 0.027841328 -0.015978193 -0.010197328 -0.0034973775 0.02942005 0.011278913 -0.044318486 -0.009687894 -0.014182645 0.0046586692 0.024311922 0.026441418 -0.006789659 -0.013221768 -0.020820582 0.010521515 -0.032737657 0.009626894 0.01497858 0.002167981 -0.02295934 0.005581693 0.010347648 0.0048213825 0.0056229346 -0.0053922096 0.015182023 0.009795395 -0.011178563 0.020635923 0.010173578 0.0045099696 -0.00051952974 -0.008958859 -0.00207671 0.008726258 -0.028361246 -0.00540726 -0.0139485095 -0.0064296215 0.023792276 -0.0016859093 -1.9626843e-06 -0.0003027301 0.011076011 0.005586467 0.027395325 0.0031711292 -0.03998912 -0.013757145 -0.016746854 -0.008543712 0.023618232 -0.008147057 0.02789881 -0.0051668994 0.019638395 -0.016484473 0.006131126 -0.028349824 -0.017925488 -0.011647699 -0.03714054 0.00085162284 0.0014183793 -0.022120014 -0.0025201845 -0.0018372481 -0.03422366 -0.014756843 -0.019651372 -0.00023326166 0.0049183783 0.018147813 0.014832669 0.019331142 0.0056918096 0.0018289393 0.029654086 0.02522562 -0.025225349 -0.0066592204 -0.0061259195 0.010822411 0.014312548 -0.013285734 0.002087183 -0.021953745 -0.006134842 0.0013274568 -0.0073290598 0.00047986492 -0.012539422 0.0027782065 -0.006670618 -0.0074561546 -0.004104199 0.013073436 0.0072135814 -0.0064918753 0.016818803 -0.017819067 -0.00886541 0.004646107 -8.378303e-06 0.010708989 -0.023481797 0.0072444244 0.017137984 0.00035191295 -0.0113384165 -0.02102996 -0.016425775 0.016672067 -0.015248922 -0.01689643 -0.03617697 -0.0029489584
-1 -0.0024014642 -0.016283818 0.0019436781 0.018384885 0.02523338 -0.006090653 0.0186918 -0.006281873 -0.0096998755 0.014904019 -0.0010083602 0.00401089 0.00074128073 -0.031780824 0.009395576 0.01829534 0.016073849 0.020405114 -0.015675742 0.03561808 0.00692983 0.006551684 -0.012870615 -0.013609952 -0.022744123 0.0052635954 0.005388629 0.005234955 -0.00905488 -0.011285741 0.00023165929 0.005610895 -0.0063758437 0.0005381417 -0.017133445 0.03454385 0.0316918 -0.010044605 0.018379357 -0.010113211 -0.016590966 0.018516615 -0.003581732 -0.014936341 0.026422955 0.0049474016 -0.0083187865 -0.011975964 0.010403109 0.007630953 0.007721137 0.013343104 0.011658885 0.0021938127 -0.011917608 -0.0027364667 0.011787785 -0.017353047 0.010358656 0.010671322 0.00093818037 0.009311955 0.002503732 0.012849182 0.0193823 -0.0095106 0.004930113 0.020663163 -0.010342763 -0.005768331 0.017386323 0.00025576304 -0.01903898 -0.0096383 -0.007918144 6.036496e-05 -0.0065001934 -0.007127564 0.00017866908 0.035582695 0.00011160387 -0.013961158 0.008483472 0.031364124 0.002098407 0.013867688 0.022668354 -0.028783537 0.0003211263 -0.004524163 0.0023250266 -0.0138448905 0.0012884608 -0.012122935 0.023139255 0.028866127 -0.030116193 -0.018181482 0.00067042955 -0.015071355 -0.028700082 0.00017723834 0.013255481 0.012813938 0.006757102 0.015013213 0.0030498568 0.013161095 0.015322436 -0.013820259 0.013399415 -0.018403498 0.008565515 0.0044433516 -0.0072904155 -0.009104075 0.008105424 0.0062508187 -0.010658242 0.0057827085 0.0025639457 -0.012761004 0.0057962583 -0.004996515 -0.009246838 -0.013294284 0.022426212 0.0041833813 0.020763125 -0.008022265 0.018903485 -0.0022626477 0.0046205437 -0.017239276 -0.009514328 -0.00041230558 0.016026696 0.018042048 0.026354395 -0.015192038 -0.004073999 -0.0037076375 0.024293669 0.006010815 -0.0403808 -0.008023239 -0.011224244 -6.902281e-05 0.02422213 0.021029526 -0.010867071 -0.015254029 -0.01722545 0.004193921 -0.031323157 0.0071939947 0.01804596 0.0014392759 -0.018764524 0.008809836 0.009990726 0.004224556 0.010023003 -0.0012089709 0.012447977 0.009597177 -0.0140942605 0.019273063 0.012892439 0.0045145224 -0.001749563 -0.0042357296 0.0025505957 0.0057160137 -0.025649536 -0.007027264 -0.0083909435 -0.0018044779 0.01859623 0.0032322223 -0.0045832447 -0.0046801935 0.011918281 0.0042626583 0.023060689 0.0072297375 -0.035258215 -0.011490036 -0.012391559 -0.0077927117 0.02162489 -0.007398409 0.02782691 -0.0064332527 0.014916413 -0.01724251 0.010929867 -0.026267739 -0.016153105 -0.012702723 -0.036877904 -0.0009236774 0.005322184 -0.026960412 7.32718e-05 -0.0036202604 -0.025885863 -0.012370961 -0.019464096 -0.0028054728 0.009266619 0.02099798 0.018009381 0.022936242 0.005206607 -0.0012027941 0.028223358 0.023949465 -0.024620928 -0.0016455719 -0.0052919122 0.015288683 0.010916701 -0.007235626 0.0020459304 -0.023974711 -0.010301384 0.0049289963 -0.008802899 0.0061293733 -0.013911426 0.00027121443 -0.007065117 -0.0046557947 -0.009272734 0.0077096666 0.0072911996 -0.0014183475 0.013998219 -0.016161732 -0.007950883 0.006423958 -0.005862115 0.009362588 -0.02080419 0.0057329936 0.012700521 0.0016786519 -0.011725305 -0.020820592 -0.017090794 0.012812104 -0.014536523 -0.008774995 -0.032651853 0.0002614026
d 0.0049565695 -0.02768162 -0.0010137467 0.022821533 0.039957743 -0.009669504 0.018020047 -0.0031959084 -0.008659484 0.022433426 -0.0053817965 0.0029830448 -0.0015702507 -0.042206805 0.008817973 0.023008486 0.02090396 0.027614951 -0.025396224 0.045803037 0.017561946 0.0025311492 -0.0088367285 -0.0137030445 -0.026815642 0.007865396 0.009364673 0.010020103 -0.006634356 -0.016661732 0.0023172994 0.007724883 -0.0020013442 0.0055365474 -0.030928459 0.041946482 0.040528975 -0.017718729 0.02698308 -0.006531228 -0.025529094 0.022549855 -0.009256939 -0.025409767 0.028284734 0.0014510031 -0.006938448 -0.010461406 0.010263363 0.008908142 0.0035483353 0.011673274 0.01469862 0.00966405 -0.020998318 -2.7549142e-05 0.018376239 -0.031658053 0.0110128205 0.018450044 0.005130968 0.018491482 0.0037874905 0.017696217 0.027716516 -0.012954493 0.010207372 0.027482746 -0.014486972 -0.005642316 0.022513902 0.0026938333 -0.020833224 -0.01414475 -0.011881117 -0.004738646 -0.014241131 -0.0051165116 -0.002134157 0.047395226 -0.006150248 -0.02233806 0.0082818065 0.0336877 0.0018779207 0.021741075 0.02701291 -0.03907825 -0.002210705 -0.0015712645 0.0068733124 -0.020135036 0.0043570264 -0.018235395 0.027180066 0.0316811 -0.03836755 -0.030628353 -0.00014588187 -0.015819011 -0.03738785 0.00204645 0.00966892 0.010553933 0.0069648935 0.014984867 -0.0026965411 0.016174117 0.023649134 -0.013643045 0.010297488 -0.030980773 0.01365305 0.008271467 -0.008624195 -0.012710755 0.0067944303 0.011648568 -0.01003182 0.003633215 -0.002966754 -0.025971482 0.004456525 -0.0026403388 -0.014422939 -0.01410962 0.02759354 0.0052518556 0.022516718 -0.003826302 0.016516473 0.0049037347 0.012342583 -0.016384508 -0.0066930642 -0.00091909093 0.016978566 0.0253197 0.033509675 -0.021971762 -0.0060758195 -0.010515523 0.03558319 0.008337542 -0.049977787 -0.01677126 -0.019680334 -0.001956199 0.025047807 0.030223329 -0.012267013 -0.021324873 -0.024787553 0.007333234 -0.036219418 0.015790148 0.022698654 0.0009007515 -0.026968507 0.0106815705 0.005680516 0.0051620924 0.006467055 -0.0020386179 0.014967667 0.011672487 -0.015163432 0.024025911 0.019846901 0.0011366062 -0.00045220586 -0.0069598486 -0.00032941913 0.010288973 -0.034650136 -0.007977263 -0.01264604 -0.006403228 0.027568515 -0.0017681138 -0.0013027654 -0.003510648 0.017439362 -0.0013737426 0.031803533 0.0047903857 -0.048526287 -0.015832517 -0.017812481 -0.010106052 0.030491637 -0.008815087 0.033864636 -0.008142762 0.020196835 -0.017193057 0.00672542 -0.036587257 -0.0204165 -0.014403109 -0.049677033 0.0008227378 0.007487716 -0.033328287 0.0013479317 -0.009948331 -0.035410244 -0.016942298 -0.023878349 -0.002428685 0.007250623 0.0257368 0.022268966 0.028127791 0.009122434 0.0058786594 0.040933844 0.025777075 -0.025720172 -0.0076671573 -0.0012101481 0.018781647 0.013145766 -0.012379005 0.003084015 -0.031740163 -0.013913274 0.00592784 -0.0067254095 0.0036051306 -0.015710017 0.006530761 -0.0036538087 -0.012965831 -0.008612122 0.010108312 0.015044967 -0.0013058654 0.020167993 -0.020408118 -0.0058690766 0.008174383 -0.0016692562 0.016904972 -0.026468908 0.011732012 0.019936753 -0.0033745624 -0.0127161 -0.02111303 -0.016353505 0.021430973 -0.016902367 -0.016502451 -0.036684114 -0.0023463455
r 0.003746847 -0.022941208 0.0049216007 0.019440284 0.03063945 -0.0074554584 0.019431213 -0.008321904 -0.0052975416 0.01275435 -0.004778348 0.0070846337 0.0006088049 -0.035129465 0.010266142 0.024547106 0.01185758 0.018395353 -0.02298188 0.035679266 0.013071745 0.006837183 -0.008497775 -0.014081952 -0.022658791 0.011781421 0.0135673545 0.0116855055 -0.006055486 -0.0152146015 0.0013501646 0.0011611927 -0.00022158521 0.0020408626 -0.027412811 0.03958234 0.036253426 -0.0148200905 0.024406651 -0.009044448 -0.023300271 0.020228963 -0.0076168478 -0.021601416 0.028010823 0.003964354 -0.0026450318 -0.014065745 0.010698199 0.0033728834 0.008540145 0.0154991 0.007965661 0.005979946 -0.019302785 -0.0011958451 0.021625506 -0.02507025 0.009325679 0.010457617 0.001439177 0.012241895 0.0022232584 0.016908597 0.022063319 -0.0068953177 0.01132563 0.024568835 -0.014291902 -0.001893972 0.023953553 0.0027984434 -0.020672917 -0.00805486 -0.0061815153 0.0025638684 -0.010475164 -0.00619571 0.0041836295 0.036123008 0.0007598693 -0.017975258 0.011422225 0.030849295 -0.0024937042 0.018760111 0.018905448 -0.03813421 -0.0047799083 -0.0052493084 0.0025866078 -0.011069182 0.009141974 -0.015661612 0.023019122 0.02937183 -0.034491908 -0.026883617 0.0019652697 -0.017136505 -0.032229956 0.006404217 0.012375057 0.013554728 0.008213638 0.014406465 0.0016964392 0.011961745 0.020212756 -0.010496651 0.012418881 -0.021985961 0.0053263376 0.008291053 -0.0021944477 -0.010230138 0.006113124 0.0063986396 -0.008887166 0.0033352687 0.0025928922 -0.018568905 0.007207821 -0.0018956019 -0.010747057 -0.015838722 0.020735445 0.0010647787 0.01857839 -0.0029524292 0.014157963 0.00041897365 0.005316929 -0.013723428 -0.009196893 -0.007289897 0.01575536 0.02584215 0.027834345 -0.017929431 -0.006941536 -0.006744078 0.023736216 0.011954414 -0.04627664 -0.013200427 -0.01465245 -0.0012776651 0.025110148 0.02982486 -0.0063294237 -0.013530145 -0.019766435 0.0076874373 -0.03479938 0.008380002 0.01788163 -0.0009773762 -0.025090564 0.004788741 0.004025601 0.0030054883 0.010215574 0.00032797872 0.0138714425 0.008750603 -0.0108898105 0.022706792 0.014042198 -0.00041496052 -0.0035452938 -0.008140617 0.0011862074 0.013334681 -0.030623203 -0.006178825 -0.016734881 -0.0059302165 0.019746067 0.0027635677 -0.00064219616 -0.00447441 0.010490921 0.002429699 0.026879884 0.007692723 -0.04096283 -0.013341249 -0.01635555 -0.007862871 0.027925104 -0.004493353 0.031926323 -0.00795974 0.017837321 -0.018333817 0.007963097 -0.03333929 -0.019617666 -0.015069431 -0.04253382 0.0016470498 0.0010888764 -0.030827552 -0.005336667 -0.0027113901 -0.030720819 -0.012929301 -0.019979073 -6.180778e-05 0.006475629 0.026777638 0.019565735 0.02529712 0.0047580814 0.0019525887 0.03487274 0.02336413 -0.02409662 -0.006386639 -0.00057527516 0.016677277 0.012481987 -0.01390862 0.0028165225 -0.023725154 -0.011746928 0.0043172594 -0.008409707 0.004339193 -0.017439567 0.008076479 -0.0063018105 -0.010895007 -0.006758364 0.010601608 0.008666543 -0.0063269585 0.014512698 -0.023291448 -0.0075866645 0.0057166633 -0.005112554 0.012822896 -0.020193089 0.010905363 0.015976304 -0.0014284174 -0.012505159 -0.020773424 -0.020795316 0.020801561 -0.018855482 -0.018527506 -0.037343796 -0.004765398
m 0.0025087085 -0.02235039 0.0048408415 0.015773429 0.03598368 -0.00835129 0.01801154 -0.0031733576 -0.0082555525 0.017155213 -0.0062133456 0.0045765657 -0.001913782 -0.03409353 0.013161147 0.019805828 0.012972927 0.026339358 -0.024996087 0.040873703 0.016232966 0.001125193 -0.010426935 -0.016367689 -0.029518541 0.009564318 0.013758531 0.014411536 -0.008630362 -0.012056722 0.00073281286 0.0038068132 -0.005122956 0.0038026532 -0.027851474 0.03988164 0.034198977 -0.011461747 0.024349943 -0.011482612 -0.026367884 0.026081666 -0.011076948 -0.02177659 0.030660128 0.005525443 -0.0025589238 -0.012955049 0.014039321 0.0058258986 0.0021288206 0.013480679 0.011593657 0.008834991 -0.015072469 0.0021309736 0.016371468 -0.024461415 0.010444526 0.0150330365 0.0029363502 0.016734747 0.0025411532 0.016189296 0.03011792 -0.008380948 0.0057546054 0.02436036 -0.014060573 -0.008772573 0.021837374 0.0010718459 -0.022490459 -0.016193902 -0.010455448 -0.0009230181 -0.010092386 -0.0060902806 -0.00058036536 0.04334788 0.00045166974 -0.020422626 0.010697778 0.034559134 0.0017514845 0.015944595 0.02655973 -0.04344602 -0.003371212 -0.009013988 0.0032345152 -0.017503547 0.004355249 -0.016494889 0.026512193 0.032447293 -0.04126429 -0.029079529 -0.0012512607 -0.018673575 -0.04233827 0.0025837785 0.01579568 0.015745409 0.0033501883 0.018312825 -0.0027923328 0.009592015 0.02100353 -0.014762623 0.010186571 -0.02960233 0.00939936 0.00976595 -0.009672874 -0.006372139 0.0055794325 0.009970047 -0.007320373 0.0043187644 -0.002001892 -0.019978631 0.008429657 0.00055830297 -0.01642255 -0.017451713 0.02643229 0.00083725207 0.022486513 -0.003644391 0.021746518 0.005623972 0.006581217 -0.01954846 -0.0066452064 -0.0033140527 0.013345218 0.025612105 0.033506405 -0.01890472 -0.010943162 -0.005835822 0.03590995 0.006599515 -0.048445698 -0.014207772 -0.017933553 0.0007020832 0.02546979 0.033380836 -0.011776522 -0.016929597 -0.022288404 0.010498247 -0.036953762 0.01785321 0.018951293 -0.004164376 -0.024985356 0.008592079 0.0074522607 0.0024634376 0.007114089 -0.005808111 0.01597226 0.010467286 -0.012444785 0.028287645 0.014224468 0.005052481 -0.0010599061 -0.0071971663 0.0019752749 0.014369662 -0.035063222 -0.001472669 -0.013245629 -0.0017205226 0.020868571 0.0047985944 0.00065844617 -0.0033276114 0.0112918615 0.0042721904 0.025025176 0.004585814 -0.043587744 -0.01000622 -0.012661124 -0.010787988 0.02730791 -0.0019512109 0.03508242 -0.009979983 0.016349617 -0.020411707 0.007981701 -0.035685416 -0.021965759 -0.018207327 -0.045456663 -0.0044903527 0.008925592 -0.032527067 -0.0052053784 -0.0033845897 -0.036541 -0.014933149 -0.025629342 -0.0030546137 0.008956254 0.02580717 0.017166065 0.026087618 0.0071697775 0.0044005457 0.039221734 0.027751692 -0.030736344 -0.007832047 -0.0051553883 0.019948171 0.010134194 -0.012723231 0.004394365 -0.031126153 -0.013708214 0.0071642855 -0.012380433 0.002977561 -0.014505558 0.008501577 -0.009591911 -0.008499492 -0.0049939654 0.010215216 0.01163186 -0.0030788747 0.018809583 -0.021968603 -0.0056839855 0.0051628724 -0.003939466 0.01225081 -0.027172972 0.009077226 0.018069439 -0.0059792106 -0.015807683 -0.022580981 -0.019265817 0.023888577 -0.021304963 -0.018642101 -0.036774825 -0.0064420216
q -0.0031414074 -0.017102502 -0.0015481652 0.012730497 0.024976166 -0.0054802154 0.011054572 -0.0042087063 -0.007060441 0.013663339 0.0013150437 0.006697277 0.002392061 -0.02869905 0.010986405 0.014648525 0.014667253 0.016812183 -0.014922037 0.024779784 0.0058846814 0.006122753 -0.009485826 -0.009872857 -0.015688049 0.0063129286 0.0114597725 0.0069302684 -0.010263347 -0.012362398 0.0014614196 -0.00049817894 0.0009208345 0.0036091262 -0.021835482 0.031374928 0.0287183 -0.007982692 0.018421948 -0.010794478 -0.016492888 0.011943376 -0.007179817 -0.015720373 0.020404136 0.0022614163 -0.0024592972 -0.007147676 0.011200158 0.007258884 0.0016052701 0.013080228 0.009764906 0.0080982875 -0.011000364 -0.0022224225 0.011582393 -0.01841578 0.0078001805 0.014489894 0.002208683 0.011040336 0.0018097312 0.006233891 0.020644601 -0.00248291 0.0048583862 0.019025274 -0.0138199 -0.0068074344 0.01876198 -0.0017035602 -0.012170915 -0.008785418 -0.007053239 -3.0514261e-06 -0.009052532 -0.006496002 0.0016163226 0.030443773 -0.002246973 -0.014055823 0.0026009192 0.028511276 -0.0038718085 0.015654095 0.018487584 -0.029558368 -0.0037936198 -0.0068586445 0.00059027324 -0.0075398725 0.0078114155 -0.010698316 0.017646011 0.026120484 -0.027686227 -0.018566238 6.963053e-05 -0.014103916 -0.029981643 -0.0017084645 0.012638469 0.011218298 0.0029570516 0.007972591 5.707707e-05 0.0099620735 0.013756617 -0.009339177 0.007199382 -0.016522937 0.007604262 0.008168125 -0.008429297 -0.008276744 0.00027517998 0.0062488117 -0.0106433015 0.0034408702 -0.0028705762 -0.016915722 0.0069829724 -0.0042340425 -0.010710014 -0.0135561675 0.021290366 0.005517814 0.015507969 -0.0015385307 0.015307713 -0.0010043604 0.010276364 -0.0155086 -0.0030051596 -0.0016446655 0.009548043 0.015578829 0.02548378 -0.01433735 -0.0027727403 -0.007594117 0.025078936 0.006281454 -0.029535484 -0.010287171 -0.008222684 0.0041901204 0.01977947 0.020841401 -0.0044796383 -0.009115624 -0.011669758 0.00921223 -0.022675222 0.012634507 0.016051896 -0.0013509862 -0.01705555 0.0060542887 0.0059807496 0.0039455043 0.0029064391 -0.006069891 0.008117021 0.00953093 -0.011799855 0.014566098 0.013277012 0.0031553137 -0.0022705637 -0.0036433658 0.0016937763 0.010414683 -0.020835396 -0.003178514 -0.007009864 -0.0023290236 0.014539227 0.004500259 0.0006659029 -0.0007337247 0.008008922 0.0027521823 0.021158265 0.007438205 -0.030121185 -0.0121463 -0.010932762 -0.0062490073 0.022567894 -0.0076829325 0.025746807 -0.00851581 0.015444177 -0.016394839 0.010334295 -0.020468978 -0.014766511 -0.013585683 -0.030197557 -0.0013940099 0.0009375747 -0.018502245 -0.00055606704 -0.0027594166 -0.028411 -0.009024851 -0.016059497 -0.00037807622 0.002245553 0.019198608 0.017046578 0.020970285 0.0014397564 -0.0018699107 0.022436436 0.017775835 -0.023078464 -0.008075631 -0.0033867569 0.012480866 0.004693257 -0.0107309045 0.003610216 -0.01663594 -0.0066885073 0.0027338627 -0.009115997 -0.00051504147 -0.011054617 0.0065420982 -0.0023916408 -0.007137831 -0.0053672995 0.0052570137 0.008352766 -0.005109702 0.013389578 -0.016266711 -0.007769328 -0.0005854695 -0.0037357507 0.00580944 -0.016764084 0.0037883818 0.010670543 -0.0031063785 -0.013821481 -0.015890181 -0.012221611 0.012232081 -0.016660184 -0.012374249 -0.030526727 -0.0028534483
a 0.0035490915 -0.023795955 0.0034398537 0.018659519 0.03640751 -0.0047325897 0.022901453 -0.009559919 -0.012741497 0.014226159 -0.0058187232 0.003077439 -0.0052053644 -0.034845456 0.010344401 0.020375542 0.0111997435 0.023682024 -0.02171112 0.040537916 0.015600771 0.0060010236 -0.011393493 -0.01362502 -0.026375607 0.009772054 0.012071988 0.013886995 -0.009793174 -0.011800345 0.00051464397 0.0028582066 0.0002593379 0.0015610592 -0.02559589 0.033618797 0.02992214 -0.010579634 0.018949345 -0.007419818 -0.025357408 0.020037033 -0.011338664 -0.01765381 0.02973645 0.0040374096 -0.0019107292 -0.011111956 0.008572547 0.009297178 0.0039872327 0.016183091 0.012462588 0.0050130375 -0.020622052 -0.0017079082 0.020948429 -0.027755506 0.012273578 0.010934502 0.0058163498 0.011676275 0.0045365007 0.010775579 0.020341577 -0.011234728 0.0057186945 0.026807824 -0.014694269 -0.0020958288 0.022527006 0.0014373729 -0.01777869 -0.009415142 -0.009926945 0.0016157668 -0.013967156 -0.0069432864 0.0013501422 0.039215714 0.00061470096 -0.020583922 0.0069979983 0.032937076 -0.0010427214 0.015591208 0.025576107 -0.03909151 0.0012477589 -0.005227419 0.0046990323 -0.012938393 0.005507198 -0.0147013515 0.021885205 0.032092076 -0.035145197 -0.025569027 -0.0044929064 -0.020184698 -0.035079353 0.0006328163 0.011410432 0.010718812 0.0029884228 0.016196588 0.0023209755 0.011153947 0.015954174 -0.011934594 0.012014903 -0.027149329 0.008889253 0.005959006 -0.007704899 -0.012599404 0.008868709 0.010266072 -0.010543046 0.005125879 -0.00034975715 -0.016573044 0.0058866804 0.0010888036 -0.015124546 -0.016908232 0.021776354 0.00687316 0.020265715 -0.0047532474 0.021582171 -0.00062017416 0.008015003 -0.019300604 -0.010996679 -0.007638965 0.016442556 0.02422786 0.032212786 -0.01526272 -0.0074665775 -0.0050982693 0.028196681 0.009902484 -0.04096225 -0.011776078 -0.011747845 -0.0013956884 0.027838582 0.0288121 -0.0064107804 -0.02112321 -0.02058931 0.009086647 -0.03694399 0.009627927 0.019821402 -0.0045347847 -0.02398132 0.010057127 0.0052660215 0.008425396 0.009064649 -0.001332003 0.010982218 0.0059406306 -0.0183085 0.023554638 0.012494973 0.0022562805 -0.00081221695 -0.010519177 -0.0017079927 0.008607503 -0.031686455 -0.008386792 -0.015215556 -0.00056847127 0.0252458 7.001641e-06 -0.005282283 -0.0030199238 0.008733529 0.000105335916 0.023053424 0.0067761443 -0.044163898 -0.011810416 -0.013524808 -0.005654752 0.027988093 -0.009050001 0.03259263 -0.0093956245 0.020539224 -0.016047232 0.012655117 -0.030958697 -0.020628652 -0.013583817 -0.043128677 -0.0053034276 0.006436323 -0.029092195 -0.0036998608 -0.006619093 -0.038138203 -0.016931303 -0.022337193 -0.001213154 0.0085207 0.026153086 0.021736942 0.020979347 0.0028745048 -0.0021493877 0.030066643 0.022876102 -0.02669077 -0.009571352 -0.0050135884 0.0150516685 0.014612974 -0.01176535 0.008429773 -0.030287197 -0.01180955 0.004188434 -0.004806907 0.003831721 -0.01382859 0.005366597 -0.0051720454 -0.013036875 -0.007090624 0.01417107 0.014456215 -0.0028425958 0.011944417 -0.02267742 -0.0047597154 0.0046190857 -0.0076277866 0.014515271 -0.024556668 0.009647634 0.018149521 -0.0043087206 -0.013332201 -0.01853564 -0.019246515 0.017879233 -0.015367951 -0.011179906 -0.039717834 -0.00026968648
Dn08 0.0049260636 -0.018886011 0.0028316334 0.012483767 0.029904343 -0.0058021727 0.017321305 -0.00048944633 -0.005985927 0.010973338 -0.0029806814 0.0052356524 -0.00096310873 -0.026354663 0.011703964 0.019040361 0.016235977 0.013969891 -0.020004269 0.032204032 0.011562245 0.0019714434 -0.01179766 -0.013309095 -0.023431808 0.010885375 0.009730005 0.004851377 -0.005826717 -0.008576128 -0.00014174262 0.0005614808 -0.00208057 0.0060996288 -0.024117293 0.030369563 0.024895018 -0.011809124 0.018439827 -0.009806971 -0.019351484 0.017215583 -0.009118136 -0.013838237 0.024162184 -0.0018938588 -0.005014133 -0.007587892 0.0062667644 0.00194332 0.0013808684 0.008339425 0.011738768 0.0070323776 -0.012663421 -0.0043915445 0.017068133 -0.01830717 0.009662701 0.0077951998 0.0011451272 0.010771508 -0.002612256 0.011775076 0.020033268 -0.009329122 0.0026456362 0.022325918 -0.015402915 -0.0067303204 0.019306602 -0.00031565255 -0.016969249 -0.012419946 -0.0075901463 0.0013927631 -0.010610474 -0.0082179755 -0.00088174647 0.02954154 -0.00499722 -0.019874474 0.009449449 0.030123856 -0.0022411083 0.010214844 0.017618202 -0.031060638 0.0018312872 -0.0028496024 0.00065597997 -0.012789546 0.00057893695 -0.011692419 0.017170055 0.023374455 -0.026365973 -0.016703054 0.00081523083 -0.0154270325 -0.025787761 -0.0015405979 0.0068058986 0.006826389 0.0042203045 0.012725351 -0.0017354987 0.010609873 0.019060006 -0.008087617 0.009167574 -0.016773488 0.008271194 0.004267962 -0.0075665754 -0.0044866195 0.0009374911 0.0065251617 -0.0049167247 0.0009401695 0.00010003403 -0.0187213 0.006933694 0.0014611047 -0.01598482 -0.012705625 0.022365807 0.0035032518 0.016331637 -0.004249924 0.010630863 0.0053506526 0.0061963536 -0.015152791 -0.0059461724 -0.002904192 0.009578609 0.020933429 0.0230997 -0.015669478 -0.004002413 -0.0033305732 0.027167615 0.0074274675 -0.035940364 -0.012890729 -0.009609721 0.004872912 0.020132076 0.021307746 -0.008532661 -0.014108596 -0.019587908 0.008865995 -0.027353624 0.013933372 0.011398368 -0.003602719 -0.020382844 0.0028319615 0.0076915384 0.00606051 0.0074697677 -0.00094318815 0.0064173643 0.006229129 -0.014745614 0.020366298 0.011011852 0.0062915967 -0.0043571694 -0.0031036127 0.0025061723 0.0093366215 -0.023502689 -0.00052472006 -0.010865397 -0.00045947186 0.019307273 0.0036859473 0.00069910946 -0.0050737946 0.007877642 0.0024291961 0.020686023 0.005346029 -0.03278669 -0.0066720773 -0.0137323905 -0.0063509345 0.026013836 -0.0032689513 0.025930908 -0.004134928 0.014301319 -0.016960116 0.008261553 -0.02932498 -0.017303204 -0.016968273 -0.032969937 -0.0048183026 0.007083827 -0.024773711 0.0023665493 -0.008161512 -0.029462978 -0.013163354 -0.01891578 0.00058947405 0.0047505824 0.01918249 0.013130887 0.015908757 0.006802178 0.0014252444 0.029770207 0.016874718 -0.02004304 -0.009169475 0.00046547398 0.015538473 0.0072636525 -0.0067403642 0.0017099346 -0.02511857 -0.0072101983 0.0048489813 -0.010152999 -0.00113416 -0.007939847 0.0045866566 -0.004646136 -0.006214303 -0.007830241 0.0099163875 0.010625242 2.8559753e-05 0.010080868 -0.016098041 -0.004024058 0.0010020704 -0.0070180967 0.013229618 -0.014963615 0.00415829 0.015296402 -0.0016589389 -0.013393387 -0.017226452 -0.016435564 0.017516796 -0.01426292 -0.01550957 -0.029614488 -0.0038174011
f 0.0036114315 -0.016998341 0.0047488273 0.013422711 0.023182375 -0.002119556 0.015267543 -0.005430396 -0.009230136 0.0118268365 -0.0039684186 0.0058660638 -0.0053676423 -0.028002853 0.008521793 0.016410854 0.013734228 0.014612635 -0.016457558 0.030129649 0.011566332 0.0028833863 -0.0044961073 -0.00992362 -0.021316165 0.0061083757 0.00435168 0.0052736583 -0.007625039 -0.013491847 0.005682355 0.0035394633 -0.0028185954 9.925523e-05 -0.022176117 0.02441231 0.029233038 -0.011592403 0.018031359 -0.008914712 -0.0131347235 0.017300593 -0.0057930015 -0.017202053 0.0211563 0.00026271513 -0.00089649454 -0.0064128074 0.009220117 0.0060749166 0.0056612846 0.007259117 0.0111489175 0.0045445105 -0.015319892 0.0023714374 0.01343885 -0.015343663 0.0084236255 0.013280321 0.0028964265 0.008059647 -0.00055111764 0.013670559 0.018986082 -0.0085144425 0.005677719 0.017892295 -0.010614233 -0.0071858796 0.018882759 0.0006452454 -0.011268771 -0.007785235 -0.00861737 0.00074907497 -0.0076778904 -0.009970018 0.0043967203 0.033248357 0.0023164682 -0.016524827 0.0025797759 0.02686655 -0.003827146 0.016241051 0.018107021 -0.025207771 0.00092338846 -0.0033025872 0.001977445 -0.01033128 0.008101424 -0.014573744 0.016729403 0.021578413 -0.024412666 -0.015721818 -0.0022862626 -0.010606927 -0.028325235 0.0034121817 0.011953275 0.010823339 0.0030874219 0.0105781015 0.0028809172 0.013191794 0.016528528 -0.011268293 0.00822794 -0.021418974 0.0051883543 0.0057230266 -0.0070574093 -0.009212882 0.007678444 0.010548737 -0.004006269 0.002237256 -0.0040057544 -0.017624468 0.00538108 -0.005549342 -0.0140587855 -0.009739239 0.016937988 -0.001361437 0.017793901 -0.0074493983 0.010712131 0.0006844882 0.0073164552 -0.012722009 -0.008454286 -0.00037674513 0.01461161 0.014348591 0.026223373 -0.009457795 -0.009367869 -0.006321636 0.023629572 0.009276284 -0.035128962 -0.011678198 -0.008575662 -0.0025260882 0.016762465 0.019709114 -0.0043130135 -0.015277613 -0.013350464 0.00612416 -0.025197433 0.01199784 0.013413883 0.0016350643 -0.016559454 0.0018987388 0.009907296 0.001982836 0.008334404 -0.003819832 0.006589062 0.003312234 -0.009121801 0.017705753 0.011662743 -0.0009032456 -0.004782961 -0.00806685 0.004308261 0.0046015843 -0.019829685 -0.0041346936 -0.010845293 7.423838e-05 0.015195645 -0.0014288689 -0.0009846456 0.0009343097 0.013170305 0.00035983435 0.02032753 0.006080099 -0.033012968 -0.006620507 -0.0137347905 -0.0049817762 0.023434423 -0.0022253725 0.020712383 -0.0040810737 0.017177654 -0.009367602 0.00283105 -0.021712251 -0.013058087 -0.012788347 -0.026734645 -0.0030646739 0.003118544 -0.023828305 -0.0031750463 -0.0041185496 -0.026867999 -0.015038455 -0.013801648 -0.0021174825 0.003182741 0.021089077 0.018128984 0.020126201 0.0038594403 0.001388292 0.024887197 0.021023184 -0.022270277 -0.004606707 -0.0003278689 0.011166872 0.009359226 -0.007667945 0.007598163 -0.019242851 -0.0033462674 0.0010188211 -0.0044423225 0.00092889345 -0.012411667 0.003932553 -0.006166586 -0.008973413 -0.0049759513 0.0119845485 0.0064547886 -0.0072150924 0.009971376 -0.012690765 -0.01019662 0.007584835 -0.0032756098 0.009978579 -0.017264273 0.0028932896 0.0132333925 0.0006693216 -0.013302131 -0.01595663 -0.012870827 0.015567204 -0.011166633 -0.012795521 -0.024287999 -0.0048392587
p 0.00021226073 -0.012830138 0.0038658439 0.009371883 0.023709137 -0.008822711 0.013139156 -0.0018696125 -0.009880889 0.014992294 0.0005964684 0.0031533798 -0.00549276 -0.02656493 0.0062684617 0.017736513 0.014828515 0.016835535 -0.017006224 0.030053265 0.006787998 0.001547037 -0.009060914 -0.0073560355 -0.020715846 0.0037571692 0.008573074 0.008653461 -0.00939046 -0.011998325 0.0015862186 0.0011882286 -0.005809712 0.0005671581 -0.019622039 0.03079163 0.026029183 -0.00986857 0.016465507 -0.008196513 -0.015406096 0.015927495 -0.003596908 -0.015922073 0.017137662 0.0018823906 0.00026111235 -0.010295465 0.006793192 0.0035292734 0.007744271 0.009572818 0.011413745 0.0003311899 -0.0093467 -0.0046221255 0.017536929 -0.017853798 0.010122908 0.008157809 0.0053435722 0.012181871 -0.001471265 0.006282041 0.020926815 -0.008243712 0.0018660912 0.019515716 -0.013206785 -0.007220745 0.019700099 -0.0006315679 -0.015091997 -0.01096025 -0.008358745 -0.002712752 -0.009558292 -0.007958548 -0.0018054117 0.032927923 0.0010577139 -0.016222792 0.0070826216 0.021608472 0.0020685333 0.016186057 0.017525867 -0.02998434 -0.0027692504 -0.0018842333 0.001428877 -0.009263044 0.007936801 -0.010232418 0.015283587 0.02454727 -0.027333567 -0.02083496 0.0021774205 -0.015720954 -0.026930755 0.0015141588 0.0053969566 0.008970039 0.0070633576 0.009623951 -0.0027794165 0.011862513 0.012765571 -0.012855935 0.0090087475 -0.018927699 0.0100015 0.0046552 -0.0012557389 -0.010579687 0.006019854 0.009252163 -0.0068534766 0.00066285726 -6.472157e-05 -0.014781499 0.0014853454 -0.0046695573 -0.010537709 -0.011123382 0.021868728 0.00173804 0.017418234 -0.003220335 0.016815983 -0.0024006972 0.0074141314 -0.012825579 -0.0055443705 -0.002860872 0.008300472 0.020757591 0.021246523 -0.011300379 -0.009003801 -0.0036562546 0.025585605 0.0060873535 -0.030818636 -0.008839566 -0.007293903 0.0047020814 0.01865979 0.019456405 -0.010082146 -0.008954337 -0.01606952 0.0069653676 -0.026651217 0.012746274 0.015962254 -0.00077562954 -0.015453878 0.007580255 0.0070845922 0.006526119 0.0065230336 -0.0032278453 0.011586862 0.0045483075 -0.011731607 0.021381374 0.007469826 0.00101338 -0.003862751 -0.0033718033 0.004108808 0.0054690423 -0.01930457 -0.0038171415 -0.014383648 -0.004502879 0.015789123 -0.00039524664 -0.0017402106 -0.004261663 0.011913316 0.005304518 0.018562384 0.0056634624 -0.031120656 -0.009453171 -0.013741568 -0.005164542 0.022786826 -0.0012547409 0.025000796 -0.003936824 0.015721109 -0.015672442 0.006068216 -0.025829308 -0.012148514 -0.0088791745 -0.03208682 -0.0010819454 0.005810557 -0.020185633 -0.0012459231 -0.0067885304 -0.021606095 -0.015706435 -0.01868809 -0.0021993248 0.0032215798 0.016490199 0.010438785 0.018874781 0.0024339336 0.00020076365 0.027375296 0.020001203 -0.018953875 -0.0055311583 0.001803238 0.012064178 0.011018267 -0.005304813 -0.0005457717 -0.023284838 -0.0030384066 0.0044683074 -0.006924605 0.0041824086 -0.01270596 0.0008820577 -0.007942168 -0.0039016574 -0.0071141464 0.0056487983 0.006665259 -0.00094413507 0.010237238 -0.017893352 -0.0067257416 0.0030915386 -0.004392143 0.008174916 -0.015051913 0.005783131 0.010548535 -0.0007334556 -0.008527728 -0.018997027 -0.016553853 0.016323144 -0.017420761 -0.011277261 -0.030541224 0.0007576301
Ka16 -0.0013018263 -0.017703222 0.001049575 0.010998508 0.025041567 -0.00077539514 0.01235516 -0.0028190464 -0.004179443 0.011349031 -0.004155141 0.0036944582 0.00013804209 -0.019805728 0.0053108516 0.010338706 0.012387829 0.018406402 -0.017745769 0.025780348 0.0069361394 0.00496228 -0.0038013484 -0.0101266485 -0.014537069 0.008520675 0.008924799 0.0036483556 -0.0047592567 -0.009366046 0.0008510601 0.0047806962 -0.0022719011 0.00602694 -0.01712057 0.025884204 0.022074886 -0.0127617 0.01053919 -0.004555617 -0.018101074 0.015573994 -0.0042052343 -0.017423626 0.017443221 -0.00088421284 -0.0067110034 -0.0072515756 0.0121995155 0.0013287006 0.0017721367 0.012450858 0.010450264 0.007922655 -0.0158108 0.0010892053 0.009241117 -0.014024555 0.009951665 0.008365256 0.0043514366 0.005561396 0.0022877718 0.010627021 0.018793095 -0.0028392498 0.0039917547 0.018345179 -0.012853677 -0.0067181406 0.015455551 -0.0041564796 -0.013591374 -0.008300292 -0.0026007968 -0.003994668 -0.007875414 -0.006898204 -0.0011610221 0.025972407 0.0004246241 -0.014873387 0.004693742 0.026256295 -0.00087406975 0.010338707 0.018703192 -0.024360307 -0.001624681 0.00025456175 0.005730637 -0.008003738 0.005006768 -0.011460339 0.019162377 0.022690859 -0.025874926 -0.019093405 -0.001356132 -0.013750178 -0.022698043 -0.0018030142 0.0078366455 0.009803863 0.0058647827 0.0116449725 -0.0039979094 0.009389036 0.015166462 -0.0077177924 0.011150952 -0.016088523 0.008939114 0.007851157 -0.004480417 -0.0060999985 0.0043298462 0.0028795684 -0.0048100613 -0.00055613817 -0.0015914422 -0.014159053 0.007958382 -0.000253138 -0.0107146315 -0.011017557 0.015221312 0.0013679406 0.011503855 -0.0051096273 0.012570926 0.0030108741 0.0067034992 -0.007957065 -0.005371314 -0.0035726975 0.0068942644 0.018137 0.023118919 -0.013531311 -0.0035873505 -0.0009829002 0.01747508 0.004818264 -0.0335672 -0.0069647394 -0.011166347 0.0015661587 0.020966507 0.015212421 -0.009668129 -0.010529841 -0.016883362 0.0017793037 -0.026996879 0.00882528 0.011120996 -0.0008222699 -0.015804574 0.008587455 0.008783216 0.00086119404 0.009166831 -0.0057111434 0.0077673644 0.0066609588 -0.009623945 0.014240405 0.010607015 0.0029289923 -0.006502025 -0.0066246213 -0.0026754944 0.008959159 -0.019870808 -0.006063798 -0.0076632877 -0.0029748278 0.015961703 0.0038720006 -0.002981884 0.0015030879 0.005300586 -0.00012845799 0.014226148 0.0045763864 -0.030963354 -0.0043051527 -0.007812334 -0.008668337 0.021743065 -0.0009213988 0.017287828 -0.003560524 0.009000772 -0.007908799 0.0079011135 -0.021412883 -0.017654404 -0.011611795 -0.027673196 -0.00088526926 0.0065868013 -0.020161752 -0.0049685445 -0.007346885 -0.023742856 -0.010811639 -0.014880192 -0.0011100618 0.008730762 0.016306495 0.01572563 0.018263549 0.00081621564 0.00026341653 0.019709101 0.0137964105 -0.019331925 -0.0016424691 -0.0027877183 0.014647157 0.0068043987 -0.0106684975 0.00460294 -0.016765496 -0.0069574183 0.0019066104 -0.008082465 0.003687038 -0.012777291 -7.388178e-05 -0.0077829044 -0.0027474426 -0.003993992 0.011020765 0.012055839 -0.005933534 0.011935751 -0.013045991 -0.0028275698 0.0015463448 0.00078241527 0.005702778 -0.012145422 0.0077449107 0.010528738 0.00038843084 -0.0070727672 -0.013594549 -0.008855584 0.013678597 -0.013323701 -0.0071721263 -0.02285559 -0.003514864
一 0.0012966667 -0.017469672 0.0038177664 0.011139587 0.023822851 -0.0054663923 0.015880302 -0.0070479033 -0.0038214468 0.011698097 0.00010309325 0.005685364 0.001873008 -0.028484743 0.006420766 0.017691895 0.010800419 0.019182088 -0.019560855 0.031250194 0.009952698 0.0023724772 -0.0077995053 -0.012436895 -0.020957606 0.0033561215 0.009109394 0.009995719 -0.00916101 -0.006531571 0.0036899494 0.0011183107 -0.0026977076 0.0038655698 -0.022288006 0.030619683 0.028771624 -0.008329603 0.018747393 -0.0059170052 -0.01904649 0.014172696 -0.0030765685 -0.019817919 0.021087853 0.0004476629 -0.0012948585 -0.010893247 0.010708319 0.005543097 0.0024712633 0.0072404365 0.0044794357 0.0060319137 -0.017437847 0.0012773109 0.012528698 -0.023017451 0.006806475 0.014180431 0.0012274039 0.012700811 -0.0032210222 0.006553365 0.016922079 -0.0055506523 0.0027824957 0.015500703 -0.015505236 -0.005008916 0.019522471 -0.0038457152 -0.01772409 -0.00956072 -0.0053370036 -0.004780317 -0.004823858 -0.009232737 0.0028801067 0.033983573 0.00069722766 -0.012628483 0.009378184 0.027458128 -0.0031322157 0.015970126 0.014712425 -0.03096464 0.00052230456 -0.0070154923 0.0006363766 -0.012229288 0.0053056926 -0.010077012 0.019188864 0.025702057 -0.028346136 -0.017556587 -0.0041091917 -0.012724962 -0.030773884 0.002085396 0.011415332 0.01159947 0.0033279373 0.012685532 0.0025475386 0.0071673756 0.013594729 -0.010732355 0.007395756 -0.015982097 0.010667193 0.0087976465 -0.0009572359 -0.0099587515 0.003847955 0.0038390993 -0.009920071 -0.0018353806 0.0010727465 -0.015420006 0.0026982317 0.0019011415 -0.011443336 -0.011268867 0.01713031 0.00080413657 0.014514372 -0.0011405969 0.015351886 -0.0006809371 0.008925708 -0.011971029 -0.0075561195 0.0003005926 0.009843553 0.021209432 0.02158959 -0.01589328 -0.008259433 -0.0070423917 0.023012647 0.006140274 -0.032727115 -0.0072651603 -0.012024567 0.0023197741 0.019004663 0.021839192 -0.0076282076 -0.013898294 -0.017713256 0.004494916 -0.026784312 0.010916411 0.009746255 0.0009947924 -0.01827599 0.0045502214 0.00447181 0.002183919 0.004747619 -0.0062082964 0.009425732 0.0034301754 -0.012965097 0.01527227 0.016034288 0.002212782 -0.006376617 -0.0031280513 -0.0026469582 0.007883722 -0.02161955 -0.0064124884 -0.014925465 -0.0062815235 0.020241536 0.005477027 5.9470363e-05 -0.0010544626 0.011358031 -0.00011349011 0.023434052 0.0075832563 -0.03053532 -0.0056211986 -0.014901827 -0.0063233804 0.025600227 -0.0044153794 0.02070484 -0.0071139983 0.012696725 -0.014253756 0.0060850466 -0.021914952 -0.016293058 -0.011345683 -0.0333416 0.0018423976 0.0011939284 -0.0258819 -0.0034571683 -0.0074297506 -0.02878235 -0.012898199 -0.016277742 0.00040259626 0.008135258 0.018128661 0.015981512 0.019281492 0.0074944412 0.0044958554 0.025521215 0.019398393 -0.023310838 -0.0067813075 -0.0053961985 0.012758616 0.0070090434 -0.011542195 0.004096136 -0.019433334 -0.011617929 0.003991848 -0.0045230896 0.0042031757 -0.012481731 0.007690752 -0.0009771659 -0.0069906707 -0.006059022 0.005796212 0.0075804936 -0.0035797067 0.013605294 -0.016386123 -0.009688904 0.005685903 -0.006239959 0.012453254 -0.0151077965 0.003070246 0.013470162 0.0011939694 -0.013562786 -0.019007767 -0.010088049 0.015424134 -0.0108394 -0.01552026 -0.029082749 0.00014130904
Dj05 -0.00023300548 -0.014607034 -0.0014480419 0.008378291 0.01781806 -0.0004160038 0.010739604 -0.0067626284 -0.0023239844 0.009080468 -0.0021071339 0.0033756734 0.0005006031 -0.023122493 0.0061205206 0.012037108 0.013064635 0.016254557 -0.013405908 0.0218657 0.0093800435 0.0025481456 -0.009304079 -0.011468398 -0.016574284 0.0064079245 0.0032406976 0.0042551532 -0.002327484 -0.009618304 0.004705245 0.002956413 -0.003807848 -0.00016799028 -0.015734062 0.025633525 0.01884283 -0.010850499 0.010512094 -0.0032779844 -0.015112493 0.014791828 -0.0055685914 -0.016316257 0.016992666 0.0017536535 -0.0014326876 -0.010195228 0.0047977227 0.0011433486 0.004464633 0.0069163325 0.0067290505 0.00546819 -0.00907033 0.00018564433 0.009875288 -0.015252964 0.0050510503 0.006364464 0.0050555975 0.0063978205 -0.0031078083 0.009839545 0.01838997 -0.0048633423 0.00544859 0.013897795 -0.011171933 -0.007181181 0.01013102 -0.00404053 -0.015021515 -0.0046531577 -0.0016095387 -0.0016853209 -0.006275311 -0.0016159944 0.0012920502 0.022103108 -0.00030027545 -0.011421536 0.0034938613 0.018938133 0.003743221 0.013873963 0.011065116 -0.02496699 -0.00073898636 -0.0028355196 -0.0012072709 -0.0050987727 0.0009815549 -0.007835308 0.018288229 0.019481827 -0.020003859 -0.016405957 -0.0049222265 -0.00953104 -0.022574995 -0.0022895278 0.010583641 0.004548022 0.005920124 0.007851964 -0.00394403 0.003909362 0.014543104 -0.010360682 0.009356068 -0.01622347 0.009901113 0.0068863863 0.00017986856 -0.0020464463 1.0144335e-05 0.0016268727 -0.0085503375 0.0009799562 0.001741534 -0.010982513 0.0034217685 0.0011701753 -0.01084575 -0.011875905 0.016642218 -0.0020911992 0.012930112 -0.005124526 0.014404489 -0.00028430554 0.006483037 -0.012407072 -0.0012245444 -0.004315007 0.010483378 0.015606147 0.022085542 -0.012587117 -0.0067285877 -0.0069020884 0.02111781 0.0035065627 -0.025735142 -0.008097959 -0.006200599 -0.0017930927 0.015754176 0.017364701 -0.008845994 -0.0067711347 -0.013443003 0.007479539 -0.021377599 0.010105206 0.0116762165 0.0023721645 -0.017466446 0.00803667 0.00851152 0.003619368 0.00695242 -0.00029369254 0.009393098 0.0040336545 -0.0076909005 0.014886387 0.011526274 0.0058198683 -0.0055470713 -0.0042782086 -0.0030517187 0.006310759 -0.021868724 -0.0015713626 -0.009481062 -0.003185281 0.016395194 -0.0017085735 -0.00082278444 -0.0024996253 0.0062803323 -0.0016767851 0.0124825295 0.0072419504 -0.028595304 -0.0056218305 -0.010716464 -0.005845947 0.018797358 -0.0067110034 0.016421745 -0.008070123 0.007258351 -0.012548302 0.0043549407 -0.019451763 -0.013237975 -0.013680865 -0.027010197 -0.0023425587 0.00042091904 -0.020168584 -0.00226475 -0.0066092676 -0.024902401 -0.01344008 -0.012375914 -0.0033191876 0.0035460512 0.017645573 0.014999962 0.012805914 0.006148681 -0.0019014202 0.020933285 0.017697109 -0.017829346 -0.00053795765 -0.0024579486 0.011987553 0.009893528 -0.0111513985 0.00028970212 -0.019276686 -0.0069127427 -0.000103301165 -0.005000401 -0.0013672067 -0.008693839 0.0030554468 -0.0013095133 -0.009021328 -0.006171096 0.009828432 0.010962714 -0.003521518 0.0098585775 -0.015476332 -0.004621573 -0.00052794005 -0.00573856 0.0077050193 -0.013690906 0.006661636 0.005978296 -0.001055264 -0.008406124 -0.015057317 -0.01114 0.014287766 -0.014252404 -0.009024738 -0.021215875 -0.0014273595
了 0.0019107972 -0.00922785 0.0038916974 0.011133307 0.021606483 -0.00714849 0.013761985 -0.0014345463 -0.007831577 0.008201487 0.0013762699 0.005646604 -0.005220583 -0.018935725 0.005071823 0.012646105 0.011419314 0.009375302 -0.008467344 0.018098738 0.0095774 0.0056134025 -0.007818733 -0.0121004665 -0.0114132855 0.0012773809 0.002490379 0.0051081176 -0.007740196 -0.0037797182 0.00501294 0.0022762928 0.001578446 0.0056137224 -0.011901659 0.023095716 0.021762287 -0.005400175 0.0139134675 -0.002425866 -0.015667863 0.015129977 -0.0011822779 -0.008101256 0.012391446 -0.000585349 -0.0033492637 -0.004561609 0.003397635 0.0030239036 0.005638886 0.0113542825 0.0042176056 0.0037427188 -0.0071149296 -0.0016237475 0.011166949 -0.018017352 0.0067572417 0.009717554 0.0031733413 0.0035937463 -0.0016735815 0.008953284 0.014226861 -0.0064315847 0.0065748636 0.015406818 -0.011587415 0.0007961827 0.009056255 -0.0013598113 -0.0067963535 -0.00689346 -0.007000279 5.78003e-05 -0.0073220315 -0.0069443393 -0.0021684398 0.024186615 -0.004843988 -0.009589957 0.002348042 0.021111107 -0.0023393545 0.007255038 0.015545363 -0.024192514 -0.0006440098 -0.0035808033 -0.0004640314 -0.011001457 0.0058377003 -0.010611049 0.015003834 0.013069988 -0.01912702 -0.01470153 -0.002800573 -0.009920265 -0.023329463 0.00039522728 0.005597437 0.0062612724 0.0017301451 0.0055145216 0.002413071 0.0064727496 0.012981809 -0.006223641 0.010040143 -0.015818205 0.0016550376 0.0038398523 -0.0068286248 -0.0026425172 0.0066034924 0.005381496 -0.0023304657 0.0047223396 0.0012239845 -0.0087677045 0.0073208804 -0.0009652913 -0.0115903085 -0.011357641 0.012946257 0.0012461498 0.015117088 -0.006506168 0.009092128 0.004384046 0.004411413 -0.013046947 -0.004269105 -0.004650379 0.0062663816 0.010594828 0.01701506 -0.0062659825 -0.0029459188 -0.00087409915 0.019838665 0.007036179 -0.027941788 -0.00378256 -0.011793529 -0.0014529872 0.017512131 0.018313732 -0.0067005805 -0.013113949 -0.008356455 0.0030883662 -0.02121836 0.00981161 0.011889226 0.00039398743 -0.012894734 0.00740508 0.007927892 0.0059348834 0.008719678 -0.004107791 0.0077059404 0.004195986 -0.005597151 0.017454738 0.010608281 0.0035450363 0.0005978014 -0.0017558502 0.00062865455 0.002634248 -0.017498842 0.000828938 -0.010210559 -0.0025541217 0.014217619 -0.0017043399 0.0022497564 -0.0007147332 0.008087562 0.0046939296 0.014976735 0.0036263717 -0.026889296 -0.0027627298 -0.012241772 -0.0010419663 0.017975405 -0.0027757979 0.013789527 -0.00013583401 0.009836585 -0.007300701 0.003801133 -0.01972555 -0.011102766 -0.012239888 -0.025633262 -0.004872157 0.00490909 -0.01589899 -0.0012468774 -0.0010814386 -0.019933604 -0.012668553 -0.011393869 -0.0027807795 0.0044883126 0.0174399 0.0104455 0.016515234 0.005111988 -0.00026474247 0.016825262 0.017305229 -0.014139151 -0.0038300916 -0.0012690489 0.0072218277 0.008166122 -0.008261698 0.0044684326 -0.01680695 -0.0058693495 0.004104461 -0.0076467018 0.0006674881 -0.011364671 0.0033224497 -0.0024338567 -0.004163154 -0.00428128 0.006258583 0.007952298 -0.003276874 0.011071554 -0.01275277 -0.0065900316 0.0005527585 -0.0059808614 0.003605388 -0.011242934 0.0056486647 0.0067081633 -0.005181887 -0.010371812 -0.00986145 -0.013690363 0.01233816 -0.008057923 -0.006390977 -0.023520889 -0.0009901645
Jd01 -0.0011194432 -0.011219472 -9.182687e-05 0.010708212 0.02395411 -0.0050881775 0.0145919435 -0.005556113 -0.0042566215 0.007753913 0.0010447475 0.0036191077 -0.0036740792 -0.023039417 0.005911673 0.014439776 0.009300571 0.010671872 -0.017775545 0.02338274 0.0052748737 0.00034044936 -0.0040679653 -0.01061261 -0.019567221 0.003124943 0.008151722 0.005653497 -0.006544623 -0.010299507 0.0043225763 -0.0005289099 -0.00514002 0.005006785 -0.019249715 0.026344752 0.023357963 -0.0055888426 0.016260518 -0.005418963 -0.014212274 0.015008669 -0.0045387843 -0.015132514 0.020575661 0.0036588272 -0.00019920613 -0.00761691 0.007172408 0.006723004 0.000341051 0.008605691 0.0041644173 0.005616406 -0.015379566 0.00033884938 0.015981661 -0.017879564 0.004520157 0.0063371654 0.002804568 0.0065847514 0.0028887652 0.00855619 0.01939812 -0.0056677633 0.002696959 0.014568655 -0.010069141 -0.0055062384 0.016968466 -0.0016853996 -0.015125781 -0.008221978 -0.007967507 -0.003920043 -0.0088892095 -0.006090367 0.001129509 0.02788166 0.0012319294 -0.01070711 0.0076370123 0.022519631 -0.0032985567 0.015155428 0.015395687 -0.022679586 -0.0019500654 -0.0009349724 0.004623002 -0.012704103 0.002696716 -0.01089634 0.016594123 0.016216481 -0.021202443 -0.015281797 -0.0009293189 -0.011952641 -0.026655002 0.0050426032 0.004572809 0.005816696 0.0061810114 0.0074034478 -0.0012853188 0.007636595 0.011802996 -0.011616044 0.009884255 -0.016999254 0.007930812 0.0033797382 -0.0010791819 -0.0098471735 0.0063012955 0.0043243654 -0.005856726 -0.0014063178 -0.0014560253 -0.015917419 0.003046337 0.0021420266 -0.008853153 -0.009021663 0.0137210665 0.0041279774 0.01013161 -0.004134048 0.009603313 -0.0015219465 0.0068193786 -0.01242939 -0.004772596 -0.00097476755 0.007588064 0.014806884 0.019108277 -0.0146968 -0.009863807 -0.00427187 0.02130932 0.006123785 -0.032378156 -0.0064387997 -0.008708437 -0.003057887 0.019763432 0.021323385 -0.008705328 -0.012074781 -0.011404826 0.004270008 -0.023653843 0.0066638845 0.014237419 0.0015943227 -0.013910477 0.0028305727 0.004846174 0.0022635423 0.0021147397 0.0007557482 0.008421257 0.005040497 -0.007128925 0.012667907 0.012790466 -0.0008747632 -0.00444292 -0.0031308816 -0.000531977 0.0059037963 -0.022253986 -0.0051106033 -0.0110026 -0.0047522816 0.018511467 0.004975069 -0.0016342005 -0.0019267205 0.0064967875 0.0044230507 0.015344817 0.00626767 -0.02416693 -0.0058513833 -0.010356336 -0.0031680418 0.021898733 -0.005299971 0.020429095 -0.0020397794 0.0150859635 -0.011250955 0.006825464 -0.023977343 -0.017322078 -0.012700738 -0.029624518 -0.0008908729 0.0016188242 -0.019240074 0.0018447493 2.0537482e-05 -0.019854203 -0.010775895 -0.015898112 0.00082487165 0.0044454285 0.012557785 0.01573452 0.013095663 0.0052351276 -0.00047908683 0.020530624 0.016208345 -0.020389518 -0.00083627825 -0.0046386165 0.0069445004 0.010366232 -0.0066537815 0.0051403698 -0.016750513 -0.008136471 0.0010580288 -0.004867942 0.0054301466 -0.012011066 0.001960124 -0.0033162194 -0.0032982165 -0.008185358 0.006117997 0.007189207 -0.0027008343 0.0122999335 -0.0114688985 -0.008852232 0.0062998408 -0.003658131 0.007003213 -0.01843393 0.0024452137 0.0144361975 -0.00025131475 -0.012976812 -0.012846078 -0.015006916 0.008676378 -0.01088358 -0.009460855 -0.023718372 0.0011703412
j 0.0032076165 -0.017287245 0.002690913 0.012903022 0.023781981 -0.001430719 0.010167817 -0.004871672 -0.0059560467 0.014711877 -0.0017771556 0.0076590297 -0.0033728296 -0.027228562 0.0038654 0.013179147 0.014401578 0.012645081 -0.017156694 0.030313168 0.0056380006 0.0029899837 -0.005793773 -0.013392047 -0.017362513 0.0047199302 0.009279668 0.004761932 -0.008807871 -0.0048643043 0.00017237251 0.005701562 -0.00550658 0.005041277 -0.018484963 0.02295277 0.023257716 -0.010659158 0.014075317 -0.006947618 -0.018193888 0.013126133 -0.0069771865 -0.011063791 0.021818643 0.0011123498 -0.0058482215 -0.00543831 0.004419594 0.005038193 0.0056323395 0.008525505 0.005209996 0.00037843044 -0.015325586 0.0022080194 0.0141402725 -0.0176056 0.012494538 0.006293715 0.0018316751 0.009082825 -0.0028599047 0.005500863 0.01988677 -0.007167375 0.0021243829 0.020362342 -0.013308862 -0.0051855906 0.015436659 -0.001612425 -0.016878845 -0.010282205 -0.009862616 9.053533e-06 -0.009113209 -0.0053395233 0.0019737983 0.026170999 0.002120115 -0.010924401 0.005148893 0.022962717 -0.00021818728 0.014735657 0.019649353 -0.026134785 -0.002082028 -0.004383187 0.0029159677 -0.01271668 0.0031335417 -0.014618641 0.016568996 0.021466805 -0.022627195 -0.018078215 0.0015074471 -0.0136032505 -0.020435322 0.0021124128 0.009141219 0.010201168 0.00462895 0.012047612 0.00077178015 0.0046826922 0.011613436 -0.010264229 0.004734717 -0.016184693 0.008727216 0.003279278 -0.0012262851 -0.0066793165 0.0037248742 0.008877718 -0.010381754 -0.0013895268 0.0026334787 -0.01624122 0.007766538 0.0005395722 -0.013651575 -0.006544054 0.019401511 -0.00070273655 0.010489424 -0.0071749813 0.013932925 0.0035261617 0.0051178318 -0.011010216 -0.009418595 -0.004626473 0.012205775 0.012466334 0.01708515 -0.010778575 -0.0094558075 -0.007928348 0.022093812 0.009242902 -0.03404099 -0.004785861 -0.005821653 0.0028299915 0.015581804 0.02268491 -0.009026476 -0.013511506 -0.013478916 0.0024594069 -0.02796517 0.009753349 0.015216155 -0.003313193 -0.01694627 0.006402404 0.006163384 0.00028275192 0.008586173 -0.003695128 0.010192398 0.0068470594 -0.0064177355 0.019958723 0.013788433 -0.0010539568 -0.002002385 -0.0054255705 0.0010875767 0.011136473 -0.018233899 -0.007090852 -0.0062981644 -0.0037407025 0.015722968 0.0032786422 -0.0039416053 -0.0021286316 0.009540158 0.0044985907 0.01963484 0.0031733632 -0.03193014 -0.010007333 -0.00680583 -0.009643646 0.023583122 -0.003751966 0.020397712 -0.0011403937 0.01690685 -0.008331711 0.00966137 -0.026162235 -0.010878115 -0.015086301 -0.03126919 -0.0051249103 0.0042066905 -0.016530808 -0.0036297534 -0.0050161267 -0.024764108 -0.013840307 -0.015843654 0.0018766391 0.006967004 0.015297384 0.011648196 0.015992435 0.0025823344 0.0026229084 0.027053062 0.020381587 -0.021596998 -0.0070877145 -0.0059555843 0.008444262 0.009744654 -0.011010491 0.004058073 -0.014865319 -0.005302453 0.0035721553 -0.0022705388 0.004775381 -0.01046344 0.00057247427 -0.004734037 -0.0031749047 -0.002496126 0.006235742 0.012418332 -0.0021603222 0.012694832 -0.01625972 -0.003878936 0.0033379768 -0.006565694 0.010315343 -0.018697323 0.0022451056 0.012258052 0.002133567 -0.0107957665 -0.01160038 -0.010285201 0.0143447155 -0.015427411 -0.008476019 -0.02844367 -0.004101693
是 0.0029356342 -0.015541948 0.0034678364 0.008233043 0.018073298 -0.006777635 0.0078105084 -0.0045241257 -0.0016506521 0.011664344 -0.004830471 0.0009032218 0.00021087758 -0.022315465 0.007893873 0.014551701 0.0046115965 0.01524011 -0.009010496 0.020760072 0.0077115833 -0.00041547595 -0.0038991533 -0.0050860406 -0.0120827835 0.0008654394 0.0074800346 0.0042989943 -0.005780621 -0.0046204883 0.00238048 0.003939727 -0.0041925274 0.0037345856 -0.015059389 0.020763418 0.021512143 -0.006152617 0.014831613 -0.0066102273 -0.011188713 0.014505097 -0.005783466 -0.00932038 0.011939344 0.004631286 -0.0015743995 -0.003957705 0.00817868 0.005395648 0.0017078836 0.004875264 0.0047345506 0.0036387166 -0.010918665 -0.0040723556 0.00774192 -0.010723085 0.010357972 0.01032602 -0.00033304546 0.0075510624 -0.002944527 0.010027414 0.01363254 -0.0016042951 0.0021466827 0.012670419 -0.007503342 -0.0017386274 0.009183277 -0.0031832422 -0.0099043185 -0.010488919 -0.0027850617 0.0016648036 -0.007065437 -0.0065696263 -0.0025390533 0.020947078 0.001681336 -0.011064708 0.0012122352 0.021987174 -0.004188293 0.011903906 0.015371535 -0.019751415 -0.0046215067 -0.00016831809 -0.0010729167 -0.010118763 0.0069495435 -0.01218973 0.010000995 0.014481342 -0.017696783 -0.013004577 -0.0028488585 -0.009944556 -0.016238183 0.0054800166 0.010514193 0.007562346 0.0051950137 0.009270771 0.00070137135 0.008900048 0.011198118 -0.0071545052 0.0055492814 -0.016899288 0.0083772 0.0008124166 -0.0020060267 -0.005340343 0.0017655835 0.0032623021 -0.0041309204 -0.0012235892 -0.0033655835 -0.012091537 0.0054766913 0.0011056078 -0.0085981 -0.004956872 0.010389064 -0.00015033851 0.007964699 -0.005035846 0.012880574 -0.0028373755 0.0014829135 -0.013084589 -0.0010631678 -0.0030866188 0.008643786 0.010380878 0.015675208 -0.009089689 -0.0057845996 -0.006967847 0.013566615 0.0059813624 -0.028643753 -0.005998139 -0.0085180765 0.003691351 0.013741967 0.017572254 -0.0075058434 -0.012589484 -0.009049438 0.0048671784 -0.0214111 0.005820727 0.013158909 -0.004702283 -0.013614419 0.004330918 0.0045779077 0.0070195505 0.004126503 -0.0046671294 0.004165043 0.0004562394 -0.011139303 0.010942387 0.006291563 0.0012093532 -0.0020707385 -0.006012916 0.0014757647 0.0075156465 -0.012787812 -0.0048545804 -0.0061912397 0.00017621239 0.010776062 -0.0017751973 -0.002457782 -0.004308502 0.009720377 0.004805134 0.017550899 -5.3390013e-05 -0.020895425 -0.0047248895 -0.006015005 -0.007795264 0.01574587 -0.005691802 0.013053099 -0.0029241897 0.014327197 -0.0066584055 0.002080831 -0.016727071 -0.0127777 -0.005009343 -0.026126405 0.0027482854 -3.416587e-05 -0.018446844 -0.0001834529 -0.0033834672 -0.02236293 -0.00983805 -0.012300306 -0.0026831306 0.006686236 0.0144121945 0.013991283 0.016414708 0.0005576465 0.0027553951 0.02085693 0.015942479 -0.012694946 -0.0054959203 3.5754736e-05 0.009088478 0.0066229803 -0.009546013 0.003368432 -0.012499223 -0.009087203 0.005841588 -0.003337136 0.0016455954 -0.00932923 0.0025383313 -0.00086269225 -0.0029438036 -0.0069523943 0.009572997 0.0064651933 -0.005786966 0.011910482 -0.009166532 -0.0030040885 0.005966982 -0.0051258383 0.004262348 -0.013092885 0.0022823445 0.008161382 -0.0014819782 -0.011461145 -0.010752674 -0.008945994 0.009755474 -0.008258705 -0.007843818 -0.01754105 -0.0028480943
Ig01 0.004240332 -0.013303664 0.002545614 0.00842369 0.021140678 -0.002896399 0.010975988 0.00046993225 -0.008587239 0.013672596 -0.00075597473 0.0026718955 -0.0029586663 -0.02314369 0.004407267 0.013386919 0.011363258 0.016002204 -0.015758472 0.025675828 0.0037392862 0.0031823814 -0.0029406394 -0.009377864 -0.017199883 0.0014523867 0.0062008863 0.0051834546 -0.008937329 -0.0057819295 0.0028926625 0.0039794487 0.00014351471 0.0029258842 -0.01810335 0.023882205 0.0214401 -0.011057635 0.011292275 -0.004831939 -0.013038552 0.011541423 -0.0068657603 -0.011854982 0.017802197 0.0006828569 -0.002942212 -0.005304201 0.004956278 1.6079663e-05 0.006926991 0.0036008093 0.004552728 0.0025364212 -0.012856016 -2.2743385e-05 0.013659688 -0.015068393 0.009999163 0.00817618 -0.0008479743 0.006759191 0.00011871152 0.010314993 0.016544303 -0.0023676832 0.0018811384 0.011312784 -0.0061218473 -0.002271256 0.014482289 -3.547098e-05 -0.007645232 -0.010936317 -0.0010382383 -0.0037001234 -0.006489463 -0.0016470698 -0.0028431015 0.024183761 -0.003947125 -0.014115677 0.0056074206 0.019774377 -0.0017571879 0.012737828 0.010303713 -0.020753568 0.0022537084 -0.0020681182 -0.0006758587 -0.0066358102 0.001030105 -0.008665567 0.014321344 0.020014586 -0.017189704 -0.01601108 0.0031132074 -0.010997569 -0.017153485 -0.0013968177 0.0034114746 0.0065575545 0.00045497026 0.007542971 0.00019341425 0.0070658294 0.006733676 -0.009974021 0.0037735964 -0.01477458 0.00743493 0.0033665334 0.00059082103 -0.006600315 0.0065237046 0.0076694787 -0.0020576748 0.0013879096 -0.0005318785 -0.010410481 -9.5516545e-05 0.0021463786 -0.009286673 -0.0051765842 0.0145794535 0.002710503 0.011176093 -0.006707631 0.010833685 0.002015768 0.001140486 -0.011165449 -0.005829742 -0.0043282006 0.010185714 0.013932607 0.0188241 -0.011893033 -0.0071761142 -0.0024187004 0.019173115 0.0073450888 -0.02381711 -0.009556492 -0.005026149 -0.0022832185 0.011292393 0.018702878 -0.005682619 -0.013701308 -0.0126834195 0.006925331 -0.020873828 0.008961277 0.009900093 0.000534626 -0.012045931 0.0004783471 0.0033550595 0.006636471 0.0056477548 -0.004048831 0.010142715 0.0077538406 -0.0054621245 0.013522846 0.0052327593 0.00060779235 0.00011128304 -0.006649053 0.0045477496 0.0022314745 -0.020122474 -0.0048830323 -0.0059123365 -0.0060475823 0.01594568 -0.002924371 0.00033919225 -6.982236e-05 0.007093074 0.0051468746 0.016586957 0.0033424888 -0.021583265 -0.004313004 -0.0071900873 -0.0007775642 0.015625343 -0.0061008483 0.015263865 -0.004477815 0.007610254 -0.010027406 0.0080456855 -0.020127665 -0.0093077505 -0.0074327034 -0.023689605 -0.00064417016 0.0050055003 -0.018896319 0.00080936274 0.0002619221 -0.020738564 -0.012931102 -0.016412674 -0.004070033 0.0059167105 0.015706865 0.013712515 0.013515787 0.0037045258 0.0023611197 0.015166335 0.010278745 -0.013180495 -0.0070725083 -0.0028307338 0.0072916998 0.009281958 -0.008554699 0.006759737 -0.015121558 -0.0077303573 0.0012385494 -0.0043002036 -0.00053803314 -0.0051837335 0.0061795977 -0.0015442314 -0.008159073 -0.00713857 0.0063559976 0.0068060416 -0.0049704467 0.012077354 -0.0093158465 -0.0063345754 0.003744165 -0.00023698645 0.007794379 -0.008760329 0.0035849262 0.0065442827 -0.0019306408 -0.011436041 -0.007862339 -0.013825979 0.010015483 -0.011933647 -0.007747768 -0.018645413 -0.0052251397
块 -0.0012821472 -0.014767796 0.003136566 0.013643605 0.021676924 -0.004638838 0.009503284 -0.002011281 -0.00902136 0.012510872 -0.0030963044 0.00081126386 0.0018721144 -0.023366215 0.003038878 0.010689191 0.010674352 0.011429701 -0.013566929 0.027658645 0.010347434 0.00018033214 -0.0044430736 -0.013643599 -0.013842705 0.0057491404 0.0063824877 0.0085045835 -0.007006911 -0.010613791 0.00079562154 0.0002766013 -0.0020467362 -0.00012414981 -0.015183205 0.021998404 0.021454753 -0.0130709745 0.010862294 -0.006803847 -0.01871482 0.012027565 -0.0040709875 -0.015235378 0.020193575 0.0047112606 -0.0071205418 -0.005048749 0.0051708785 0.006631219 0.006416477 0.012372023 0.0037134092 0.0054555126 -0.014967986 -0.0013802467 0.009993074 -0.020209275 0.00957952 0.011589669 6.821579e-05 0.005616308 0.0017886129 0.0075597707 0.013088793 -0.006926273 0.0041522225 0.020213295 -0.013102611 -0.001114353 0.016813735 -0.0023595619 -0.01424856 -0.009794541 -0.004549429 -0.0013682 -0.0077968608 -0.008919524 0.003467453 0.02258123 -0.004815236 -0.012609024 0.006571411 0.022916213 -0.00015115371 0.012780233 0.016393298 -0.021850046 -0.0027710474 -0.006232605 -0.0006707223 -0.0065118223 0.004540996 -0.0128511535 0.018516941 0.023909299 -0.020507423 -0.019399064 -0.0031690947 -0.011495803 -0.026875373 0.0036563054 0.010579546 0.006101587 0.0072598737 0.0073733325 0.0019855525 0.0064024073 0.013845766 -0.010401379 0.009437283 -0.013982778 0.0059666764 0.002437284 -0.0075392136 -0.004379638 0.0053758104 0.008667009 -0.008683613 -0.0025394543 0.0022707048 -0.015241936 0.0064789816 0.0020763995 -0.01189238 -0.009379479 0.014592295 -0.0006848534 0.011369529 -0.0035194594 0.009453919 0.0005332528 0.0049051354 -0.008178097 -0.005108758 -1.015291e-05 0.011416711 0.0142902145 0.018352427 -0.00742773 -0.002658056 -0.008346976 0.0223611 0.0091351755 -0.026555214 -0.01151096 -0.0105405925 0.0011732895 0.01848564 0.018102996 -0.007902206 -0.008693752 -0.011110005 0.005281852 -0.025814775 0.007232128 0.009699183 0.0005845528 -0.015148273 0.004112643 0.0018764357 0.002846747 0.008323553 0.00026252045 0.01004756 0.0044340743 -0.006053099 0.016163802 0.010757791 0.005012175 -0.0053203874 -0.0021259845 0.004244839 0.008889038 -0.018395713 -0.0014536044 -0.010558562 -0.006239127 0.015704684 0.0020449043 -0.003953408 -0.0009570014 0.010714794 -0.001587062 0.018031836 0.0073089926 -0.031481314 -0.006517278 -0.013501462 -0.008991257 0.022231353 -0.0065511432 0.019754289 -0.00843632 0.009112917 -0.014564908 0.0061659366 -0.020757146 -0.017241543 -0.014464516 -0.02892689 -0.0019656585 0.00069898536 -0.021085426 -4.2770826e-05 -0.0026093812 -0.02089161 -0.009610674 -0.0152028175 0.0008029377 0.009036817 0.017111097 0.013997191 0.017108662 8.929969e-05 0.0031963936 0.024825867 0.016553473 -0.014589993 -0.0065267077 -0.0011057825 0.008099053 0.0043953625 -0.007746713 0.0049398877 -0.015481509 -0.010335728 0.004577333 -0.004689955 0.0036609042 -0.01005614 0.005555958 -0.0013211332 -0.009279359 -0.009352236 0.011038232 0.007649007 -0.006805953 0.00869976 -0.013602403 -0.0021235824 0.0023175448 -0.003325996 0.0050106784 -0.017955543 0.0055741603 0.01050414 -0.0047226185 -0.00946848 -0.017834404 -0.013064091 0.014376334 -0.012114528 -0.00703832 -0.022176733 -0.0028534918
Di02 0.0025022663 -0.009137928 0.004544809 0.012488086 0.018696718 -0.0020176803 0.012754499 -0.0033069423 -0.007493769 0.012573769 -0.0009651372 0.0010797139 -0.0017996995 -0.019866252 0.008547416 0.0124610895 0.009505898 0.013870468 -0.007981846 0.01817092 0.004099727 6.100103e-05 -0.0075339586 -0.011534882 -0.012874209 0.0014740106 0.009228929 0.0037566207 -0.00700431 -0.009935064 0.0002189725 -0.002124381 -0.0012153436 0.0034954064 -0.014098107 0.02271186 0.017112825 -0.010093657 0.010062213 -0.00594232 -0.014811929 0.006898119 -0.005877355 -0.0116771525 0.016494244 -0.0024536676 -0.0051454324 -0.005200157 0.0057341456 0.0041858014 0.0025454937 0.00853049 0.008445538 -0.0007012818 -0.007243923 0.0015587603 0.009249379 -0.010168031 0.003974073 0.0053599076 -0.0017373392 0.010540364 -0.0033576305 0.005762789 0.012795478 -0.00596426 0.0078538265 0.0101163145 -0.011202094 0.0008398187 0.0073590274 0.003882207 -0.011480751 -0.004229474 -0.004741285 -0.0022958945 -0.008511584 -0.0061635626 0.003399256 0.022889221 -0.0011122801 -0.0077250586 0.0057481863 0.019027047 0.00052154466 0.005127806 0.015753327 -0.02237768 -0.002179233 -0.0018663083 0.004307098 -0.010982666 0.003698688 -0.005616269 0.0085003795 0.019449547 -0.020504145 -0.008905812 -0.003013011 -0.005824157 -0.01443515 -0.00229041 0.005895329 0.0035463257 0.0069288216 0.012273623 -0.0023982332 0.0064171003 0.00864291 -0.01010873 0.0065158815 -0.016955096 0.0058449577 -0.0002340959 -0.0009080074 -0.001510071 0.0020972071 0.0031584594 -0.008870683 0.0030999193 0.0007945248 -0.0065157074 0.0047647627 -0.0024371333 -0.006427756 -0.0038628643 0.016433652 0.0045785466 0.007277745 -0.0060016043 0.012507565 -0.0022809044 0.0061523854 -0.005212282 -0.0060006673 0.0004406301 0.004306654 0.014863203 0.017782694 -0.0069306972 -0.0076636667 0.00034680284 0.018190514 0.0037919777 -0.021705355 -0.003397319 -0.007953778 0.0029279555 0.011661394 0.013496016 -0.004914633 -0.010755659 -0.0110997455 0.0012146223 -0.016561229 0.010300486 0.010846905 0.001708683 -0.013335236 0.005626129 0.0015820167 0.000747443 0.008759105 0.0009488183 0.0048315255 0.001795275 -0.004706181 0.013711898 0.010354182 -0.0012480889 -0.002237214 -0.0043512178 0.00046242613 0.0065905172 -0.01765655 -0.0006591972 -0.0085799545 0.0009920658 0.011070807 0.004613526 -0.0010836851 0.0007054298 0.0037846684 -0.00259803 0.013223604 0.0019378465 -0.017421838 -0.004520469 -0.010029939 -0.0010898018 0.014692273 -0.0067068967 0.01833532 -0.004590659 0.005973736 -0.005421365 0.0073018945 -0.012918983 -0.010106911 -0.005408149 -0.019014044 -0.0039343834 0.006565603 -0.015862918 -0.0050324257 0.0005229304 -0.02005218 -0.005535963 -0.01474652 0.0038416274 0.0013873652 0.013824219 0.013865007 0.014193333 0.002141102 -0.001248526 0.01346575 0.014698137 -0.010619934 -0.0051107476 0.0010555186 0.011171845 0.0026982091 -0.0055893646 0.00016074433 -0.015437508 -0.0045541176 -0.00052564644 -0.006106956 -0.0013788636 -0.010371515 -0.00024889543 0.00084684265 -0.0015303013 -0.0046436973 0.0049424195 0.009091538 -0.0018491495 0.0043786964 -0.0133956475 -0.00366353 0.0054395255 -0.0010106665 0.010586237 -0.008908705 0.004307148 0.011997029 0.002700154 -0.0038938294 -0.006775497 -0.013015901 0.010691094 -0.012951058 -0.010755429 -0.02234108 -0.00047520787
Dd05 0.0005626097 -0.016292967 0.003717121 0.013623368 0.021872446 -0.0008524742 0.009438042 -0.0059517818 -0.003836641 0.009191533 -0.0045901397 0.005221036 -0.0021357357 -0.023081494 0.0070731407 0.015749892 0.011878277 0.013437508 -0.010216451 0.02493354 0.010694478 0.0016818031 -0.0060835388 -0.0065887347 -0.018912537 0.007889408 0.0070360596 0.008690493 -0.005940277 -0.009272638 -0.0007169237 0.0012169759 -0.0025885429 -0.0002390203 -0.014997827 0.026570056 0.022898043 -0.01158429 0.010325514 -0.007120109 -0.012399041 0.009275809 -0.0024423576 -0.012125505 0.01612051 0.0049868594 0.0003703841 -0.0063726814 0.0093825925 -9.700892e-06 -0.00025439626 0.007166891 0.009887288 0.004850812 -0.008507154 -0.0035631247 0.012621194 -0.015051179 0.00675401 0.0074735307 0.003538496 0.0044505848 0.002449866 0.010581017 0.014084116 -0.006532714 0.001780065 0.01255969 -0.011604581 -0.0024981778 0.010856187 -0.00089529477 -0.015775887 -0.009373847 -0.005617848 -0.0039250194 -0.0048487494 -0.00091501087 0.0025358212 0.024479937 -0.003267839 -0.012538909 0.0058343825 0.0212626 0.003166551 0.010263884 0.017032113 -0.020287665 -0.00017006994 -0.0002829747 3.1425232e-05 -0.01028037 0.0061863954 -0.00633003 0.015645044 0.016964817 -0.018248232 -0.01405805 -0.001145929 -0.006308812 -0.020086236 0.003224105 0.0075824643 0.0040457346 0.0028398263 0.010494864 -0.0025153426 0.010206362 0.014802247 -0.011793794 0.0051037716 -0.01769508 0.005626899 0.003111767 -0.0045602727 -0.0060909344 0.0045422376 0.009139693 -0.008121024 -0.002062473 0.0010194578 -0.014848217 0.006773585 -3.3769535e-05 -0.012434862 -0.011965947 0.011005168 0.0026298014 0.013548723 -0.0022243431 0.01144891 0.001582337 0.00641985 -0.010352454 -0.008364406 -0.0023388504 0.010297697 0.013120772 0.017510533 -0.011009124 -0.0020248771 -0.005506904 0.02200611 0.0039024116 -0.031295057 -0.01007819 -0.010452973 0.0011869621 0.017546723 0.017832847 -0.0017471077 -0.009861592 -0.01030763 0.0049927123 -0.022094795 0.010311297 0.011378188 0.0021713737 -0.017161934 0.0010129288 0.0049049836 0.0024160007 0.0041832244 -0.0020292976 0.005804681 0.0018386863 -0.0053770044 0.01317901 0.008398293 0.0016431483 -0.00278857 -0.008076918 -0.00033666342 0.006302631 -0.0144299 -0.0059926934 -0.010642065 -0.0034795923 0.014751238 -0.0010340754 -0.0033029288 -0.0046848347 0.0099684615 -0.0023955284 0.014388202 0.0039377618 -0.02488746 -0.011079141 -0.0056333775 -0.006165124 0.01749172 -0.006890762 0.01510035 -0.003551763 0.0125532 -0.009400272 0.0076495744 -0.021969493 -0.013170063 -0.011419252 -0.025699092 0.000507847 0.0035963599 -0.020322425 1.8780807e-05 -0.0011554186 -0.023909887 -0.009107418 -0.015150305 0.003167036 0.0066605136 0.015634745 0.011433028 0.011535745 0.0067602615 0.00048145317 0.023544943 0.016450388 -0.01979932 -0.0041911514 -0.0011344544 0.0090161655 0.011081904 -0.009712122 -6.074933e-05 -0.014716006 -0.007565141 -0.00018492427 -0.004305603 0.003739731 -0.011122866 0.001250232 -0.006572202 -0.004819146 -0.0068109767 0.010869599 0.0076659024 -0.0021031438 0.00810156 -0.009737348 -0.005133749 -0.0006106597 -0.0056979093 0.0073018493 -0.010541419 0.005589801 0.0075715194 -0.004215357 -0.0126977395 -0.011143564 -0.014765374 0.013024745 -0.010679131 -0.009474928 -0.026289003 9.326579e-05
两 0.00047971195 -0.018865708 -0.001515238 0.014751566 0.022468012 -0.007638533 0.012045011 -0.0015954027 -0.009656263 0.008403368 -0.002157624 -4.8274546e-06 -0.0006339769 -0.022036495 0.010112247 0.014763765 0.010640849 0.016464451 -0.016508449 0.028813014 0.008847856 0.0020277917 -0.011698034 -0.009779442 -0.013525538 0.00672243 0.0037800188 0.0055027045 -0.007993626 -0.0064017605 -0.0010491754 0.0047160243 -0.004014451 -0.00060289894 -0.019572467 0.026862523 0.019082641 -0.01150329 0.011507074 -0.008267791 -0.016868042 0.01461934 -0.0025592998 -0.0147119155 0.016678724 0.0021161807 -0.00094720465 -0.00946709 0.005953137 0.0059837746 0.006081656 0.0058197426 0.009912072 2.3040122e-05 -0.014615392 -0.003363842 0.012697376 -0.016546192 0.008939691 0.012174463 0.003610502 0.0073160823 -0.002238649 0.0055211214 0.016057592 -0.0013680261 0.001912734 0.018076623 -0.008580128 -0.005770375 0.011145971 -0.0025023422 -0.01550232 -0.0113412775 -0.0033324906 -0.004066378 -0.0079033 -0.003504087 0.000908949 0.022524504 -0.0033570505 -0.011595041 0.0063495 0.021580696 -0.00070676714 0.012516024 0.015991108 -0.025527982 0.00051266456 -0.006538978 0.004803133 -0.013617405 0.0026455598 -0.007811563 0.014275071 0.02292166 -0.020972278 -0.019384008 -0.0012909996 -0.01217217 -0.026823584 0.0015094718 0.01085282 0.011783869 0.0024852606 0.009391141 -0.0029320482 0.008535274 0.013887039 -0.012828042 0.008992785 -0.02006166 0.006489604 0.006231956 -0.0060793366 -0.005646756 0.0025690263 0.0022038415 -0.00775723 0.003294118 -0.003838694 -0.01550587 0.004143308 0.002006756 -0.009435243 -0.005776913 0.0128492005 0.005391204 0.01136892 -0.005963137 0.008842368 0.0021092216 0.004644312 -0.007648679 -0.0059069246 -0.0013642695 0.011951339 0.011974018 0.01897917 -0.012925487 -0.008874433 -0.0032613375 0.020604465 0.00499497 -0.030594697 -0.01087837 -0.010793249 0.001218651 0.019975623 0.021248188 -0.0073584183 -0.009748835 -0.014682547 0.0034030706 -0.024720753 0.0061226324 0.012854767 -0.0044243364 -0.018266032 0.002867656 0.008360407 0.004341361 0.007891693 0.0013587513 0.0059081214 0.0035832736 -0.006417603 0.017795969 0.012270465 0.005904304 0.0010230305 -0.005882454 0.0007566907 0.009837235 -0.015946064 0.0008543597 -0.013071034 -0.00499147 0.016776184 0.002081167 -0.0011324253 0.001259468 0.010971528 -0.0018015691 0.015971618 0.0009203928 -0.024822474 -0.006730871 -0.010857183 -0.0047888975 0.021849263 -0.00032445948 0.022619529 -0.00421642 0.012395558 -0.008135829 0.0064026657 -0.020680355 -0.01765288 -0.010222582 -0.030676061 0.0011341199 0.0007058905 -0.019721236 -0.001169171 -0.0046975436 -0.026810898 -0.009535207 -0.017237568 -0.0037641502 0.006886813 0.01599406 0.015511211 0.013407713 0.0038611523 0.0008254416 0.024748964 0.012344824 -0.015529988 -0.007900565 -0.0054038865 0.011264599 0.0065552765 -0.009995794 0.0007398413 -0.015934132 -0.010506168 0.0034053433 -0.0040974594 0.0017728078 -0.009875303 0.0061774845 -0.00792612 -0.009510488 -0.0037060177 0.011621033 0.0049455795 -0.0063729286 0.0099561075 -0.017456025 -0.004274501 0.006736908 -0.0053735874 0.005179963 -0.011241909 0.004543344 0.009166732 -0.0026368098 -0.013056915 -0.01585641 -0.013442683 0.012707974 -0.012103111 -0.0068847924 -0.021482622 -0.0029188935
Jd07 -0.0033086159 -0.011823766 -0.001160718 0.013595726 0.0204731 -0.0044643385 0.013520887 -0.00450572 -0.006749597 0.0097311605 0.0022125212 0.006008041 -0.0006009374 -0.018283684 0.0043615117 0.016299373 0.005848535 0.011264507 -0.014883259 0.02610152 0.006033862 0.0008921293 -0.0036906572 -0.012463151 -0.015537037 0.006025496 0.003293659 0.009479044 -0.004663316 -0.009286994 0.0037883283 0.005484266 -0.001510649 0.004579673 -0.017308194 0.020481475 0.023865793 -0.0058304816 0.013145098 -0.0068297638 -0.011413547 0.013189102 -0.001379589 -0.012100934 0.019612411 -0.0012068393 -0.006200491 -0.006935005 0.0080666095 0.002671947 0.005733379 0.0041358783 0.0021893317 0.006364834 -0.007620469 -0.0022727055 0.009251981 -0.016194306 0.0069710687 0.011993204 0.0017525571 0.006970452 -0.0008264893 0.007004982 0.010382336 -0.002025351 0.00077448913 0.013007474 -0.011540546 0.0005587358 0.014815601 -0.00038838797 -0.0095871035 -0.007992693 -0.0012277314 -0.002169222 -0.0038095105 -0.006156808 0.0047778776 0.026534174 0.0013691032 -0.011367109 0.0039214273 0.015786668 0.0029899438 0.0066873436 0.010473697 -0.019078797 -0.002353494 0.0002882832 -0.0008790474 -0.0046399706 0.003973568 -0.012775712 0.015030586 0.01557361 -0.017631002 -0.011537605 -0.0038810342 -0.0068238983 -0.018394541 0.0042645396 0.004285978 0.0047299783 0.00012719736 0.011232934 -0.0017267535 0.009058094 0.012878531 -0.0042208745 0.008014946 -0.015323553 0.0061092833 0.0047238725 -0.0069420883 -0.007562741 0.003082873 0.0074363025 -0.005619387 -0.0025651264 -0.0007265377 -0.00855562 0.0061365296 0.00025553769 -0.010569769 -0.009795598 0.012948932 -0.00049987197 0.008130093 -0.0031392423 0.01106634 0.0028275605 0.0065037967 -0.0061820536 -0.0075554987 0.0013241549 0.007450512 0.013710099 0.015677687 -0.01110593 -0.005418882 -0.007181287 0.020632 0.0067883255 -0.02682219 -0.0063662203 -0.0051842025 -0.0015099272 0.016138673 0.016145349 -0.003865089 -0.0108067645 -0.015839217 0.0073511866 -0.020724373 0.0038670513 0.010464259 -0.0036662302 -0.009760732 0.0015635217 0.0039747795 0.0031056812 0.0033349546 -0.003322527 0.010297292 0.0055846125 -0.012211081 0.014019721 0.004908674 0.00074100256 -0.00017227343 -0.0026822016 -0.0016678434 0.006865416 -0.014855591 -0.0058562807 -0.009642995 -0.003634415 0.009297696 0.0019058061 0.0015327206 -0.00064496475 0.008214831 0.0008084182 0.014561913 0.00088267267 -0.024098773 -0.0043214876 -0.0073278085 -0.0042542685 0.019834938 -0.0018351394 0.014476673 -0.0010396953 0.014389406 -0.013484592 0.00802982 -0.021524185 -0.011908362 -0.0074975267 -0.025867648 -0.0042518247 -0.00035220987 -0.020267494 -0.0036341432 0.00036677739 -0.018626826 -0.013566645 -0.009200541 0.002809523 0.007754115 0.01777901 0.0076290434 0.013445368 0.0039345874 0.0017855486 0.02143069 0.011287065 -0.013483568 0.00016691357 -0.0052402387 0.012492732 0.008392547 -0.008849825 0.0021764962 -0.018884482 -0.008645134 0.004842382 -0.00606906 0.00573962 -0.0116650695 -0.00017179301 -0.0011110008 -0.0021040791 -0.0034230296 0.009708158 0.009619282 -0.005132141 0.012284801 -0.014619705 -0.00597287 0.000403401 3.9716462e-05 0.0052831764 -0.011563918 0.003410794 0.008939376 -0.0038113673 -0.0107494 -0.013487179 -0.010236259 0.011435382 -0.012167043 -0.007913763 -0.023369906 0.002059261
ns 0.00038077316 -0.017203381 0.0007827784 0.01432032 0.02079422 -0.0065480312 0.008763201 -0.005922348 -0.007211627 0.01433795 -0.0043490613 0.0047131116 -0.001418621 -0.02074276 0.0029586796 0.01693997 0.008676578 0.016125374 -0.017868763 0.027187515 0.004840093 0.00058876514 -0.0076696975 -0.010882195 -0.016424408 0.0054285033 0.0085727135 0.00539958 -0.00723085 -0.010627319 0.00520905 0.0042625177 0.0016237856 0.0043273857 -0.01797905 0.0278147 0.019443817 -0.0077622887 0.012624267 -0.005644931 -0.012989696 0.012506608 -0.0070235087 -0.014188796 0.018250268 0.003913106 -0.0060491995 -0.005172164 0.0061237244 0.00069000875 0.0017236344 0.009370416 0.009899242 0.0065155732 -0.0075086826 0.002073207 0.010753457 -0.017078446 0.011435428 0.011487286 0.003996794 0.011452545 0.0013421875 0.0097287875 0.012660365 -0.002266206 0.008506841 0.013159061 -0.009447423 -8.5851425e-05 0.015116835 0.0025876912 -0.009464475 -0.008928755 -0.002247169 0.0018278209 -0.0074100895 -0.0048126993 0.004823677 0.027586054 -0.0039916546 -0.014206181 0.0038897784 0.022952799 -0.00017266301 0.00756777 0.015733175 -0.019801779 -0.00061445584 -0.0014412144 0.0032758983 -0.006102801 0.0072508804 -0.009125568 0.014242395 0.020944603 -0.025743788 -0.012715133 -0.0021961322 -0.0061672246 -0.026592217 0.0007950832 0.011113132 0.0063319243 0.0035409674 0.012175408 0.0036854185 0.007896854 0.009528179 -0.0045562307 0.0037886894 -0.015985997 0.008433474 0.0008167499 -0.006055117 -0.009385467 0.0036222902 0.008069132 -0.009630098 0.00015129181 0.0030210416 -0.014529772 0.0054521626 -4.130896e-05 -0.011037566 -0.011233495 0.019118438 0.0007948889 0.016732441 -0.004457827 0.013104101 0.0033242025 0.005788666 -0.0090924585 -0.007936222 0.00085941865 0.009088753 0.013262037 0.021492751 -0.006657378 -0.0077956156 -0.004417518 0.020491166 0.0046216734 -0.028715003 -0.0040082517 -0.005964403 -0.0018437012 0.015072962 0.021122724 -0.0055226586 -0.015103686 -0.013600717 0.0023750423 -0.022011427 0.0084184045 0.009339479 -0.0029193177 -0.010745966 0.006377404 0.0064704726 0.0042162067 0.008908074 -0.004045537 0.010694516 0.005057663 -0.012363482 0.011592383 0.009262449 0.00529242 -0.0014282349 -0.008441499 0.0012754793 0.005515497 -0.020343956 0.000111176916 -0.0070621544 -0.0030417235 0.015312553 0.001525277 -0.005131492 -0.0006128903 0.011153544 0.003067516 0.017583864 0.002134597 -0.025612213 -0.010940169 -0.007800183 -0.0042639286 0.018067146 -0.0036576174 0.02046051 -0.003777281 0.012693817 -0.007234474 0.007120661 -0.019861076 -0.014070558 -0.012989324 -0.030037357 -0.0026238302 0.0049491525 -0.0151039 -0.0008241392 -0.005637397 -0.020749852 -0.012884217 -0.014622044 0.0034675947 0.008176253 0.015467972 0.009953764 0.017416043 0.0077013406 0.004549514 0.020991214 0.018965427 -0.013545527 -0.008043043 0.0015654814 0.010269681 0.005708178 -0.0064909738 0.0067186044 -0.020077435 -0.0035605652 0.0002066274 -0.008446847 0.004280222 -0.011131495 0.0048777955 -0.00083224976 -0.0019947803 -0.0030728031 0.0037590247 0.009256956 -0.0065283906 0.009814316 -0.009463299 -0.0071941237 0.0046252403 -0.005074426 0.0046933237 -0.010690942 0.0059119696 0.01335828 -0.00038940998 -0.0086819725 -0.011898934 -0.015040447 0.014533012 -0.0140621485 -0.007987468 -0.025741123 -0.0017429066
Ng 0.002207787 -0.013398724 -0.0016206888 0.007163074 0.014316062 -5.836825e-05 0.008813519 -0.003565393 -0.008901966 0.0077754455 -0.0033646917 0.0045588724 0.0010769424 -0.017721104 0.009360498 0.012826493 0.012263889 0.015132529 -0.010989304 0.022551514 0.0041893446 0.0008323852 -0.004104098 -0.011565695 -0.012741971 0.0017381399 0.009564119 0.0055092485 -0.0046560923 -0.009045537 0.003998861 -0.00071549974 -0.0045523318 0.004306212 -0.015238187 0.020629229 0.021205522 -0.006069916 0.014538202 -0.0023561183 -0.010506242 0.00809385 -0.0024725967 -0.008052125 0.014066822 0.0014751569 -0.004165289 -0.0073374473 0.010000865 0.0032806024 0.0045460346 0.005196595 0.007871666 0.0015946015 -0.011718505 0.000107769534 0.014174314 -0.01658922 0.007973858 0.0074685737 -0.0015583405 0.005677458 -0.0028760715 0.00969742 0.012464173 -0.006541132 0.0044018817 0.015754236 -0.0045878137 -0.006834173 0.011665447 -0.0005423249 -0.011838917 -0.0074089146 -0.0018096986 -0.0015480783 -0.0021170855 -0.0042766994 0.00039753946 0.02464073 0.0014642563 -0.010808278 0.0043377657 0.021235423 -0.0021034526 0.011354842 0.012812415 -0.022914989 0.0015153601 -0.0043026167 0.0030464327 -0.010772897 0.003998253 -0.006593923 0.015056686 0.01367213 -0.021987977 -0.010799537 0.00075475196 -0.008607142 -0.02215717 0.0011273568 0.0028973056 0.0075311926 0.0018187022 0.009094182 0.0016213182 0.007690159 0.007529226 -0.006929508 0.004181506 -0.01560843 0.006104024 0.0065099215 -0.005895883 -0.0039701927 0.0064627808 0.008982731 -0.0029782334 -0.0016494762 0.0012389196 -0.007501978 0.0052021504 -0.00021467365 -0.008943317 -0.0065814205 0.014983791 0.0052611437 0.009630903 -0.0062652216 0.01269103 -0.0016543672 0.0046338895 -0.008631266 -0.0053914497 -0.003911463 0.00873512 0.009066011 0.017313544 -0.01085106 -0.0070345197 -0.0024072076 0.016764138 0.006359481 -0.024638703 -0.010360978 -0.0040391935 -0.0008351859 0.013438515 0.017930903 -0.004675248 -0.008446431 -0.010489436 0.0054365657 -0.016681114 0.010755488 0.009555104 -0.002338369 -0.010648589 0.0005636434 0.007897279 0.003925689 0.0072894474 -0.0007273994 0.006466153 0.004922944 -0.010017991 0.01694687 0.010385739 0.0034032727 -0.003992096 -0.0074449796 0.0036841012 0.0071662725 -0.018055959 -0.006206954 -0.009687729 -0.002085829 0.008817747 0.0012039522 3.481516e-05 -0.005330268 0.0069638845 -0.0010736816 0.012861201 0.0026336312 -0.027016621 -0.008186014 -0.011174022 -0.0072704973 0.016608909 -0.00198888 0.020686809 -0.00038253528 0.007715319 -0.012962635 0.0080929715 -0.015605478 -0.008492022 -0.010159403 -0.024996603 -0.0030056357 -0.00052984024 -0.013439231 -0.0023876873 0.0002622384 -0.021450952 -0.0055875573 -0.014192457 0.0033675677 0.002153722 0.010492796 0.013985213 0.009799339 -0.0005434322 0.0028398135 0.014818122 0.015766531 -0.013413013 -0.0064378614 -0.00042246265 0.009720995 0.0102270655 -0.0057237437 0.00071374077 -0.015747724 -0.002811531 -0.00021250705 -0.0010045556 0.0005054596 -0.009881006 0.0010004091 -0.0021489526 -0.008964826 -0.0033488704 0.004678274 0.010745801 -0.004600864 0.0052902717 -0.010260206 -0.0007688001 0.003784351 -0.0032817358 0.008199612 -0.015853493 0.0023750837 0.0072459197 -0.00065719 -0.010358948 -0.014671642 -0.012600244 0.012445628 -0.009309375 -0.0049065067 -0.019387256 0.00024411391
Di10 0.0023319325 -0.010133781 -0.00078092475 0.00977391 0.017930072 -0.0017168025 0.0074460544 -0.0032762229 -0.003309908 0.007572333 -0.0046786643 0.005517075 -0.0015993713 -0.01852231 0.0029529592 0.015345909 0.0085454155 0.01243888 -0.012026235 0.021443062 0.009282589 -0.002174483 -0.0052454304 -0.010357916 -0.0094727045 0.0063817794 0.0034578408 0.0048427368 -0.0071063517 -0.0036398256 0.005214737 0.0029293387 0.0021440496 -0.00016966814 -0.01232292 0.018690947 0.015063902 -0.009431035 0.011363395 -0.0073077353 -0.014188239 0.011746839 -0.0044598784 -0.01465131 0.018134046 0.0018120225 -0.00665802 -0.006544824 0.003178778 0.006425889 0.002830991 0.010342944 0.0077501596 0.0012420864 -0.013007925 -0.0030725473 0.013620096 -0.014510558 0.0065181246 0.007583839 -0.0018474831 0.009006301 -0.0028265158 0.011171908 0.010085543 -0.0013589069 0.0031816922 0.012625296 -0.009203903 -0.0026220698 0.012567265 0.00059057487 -0.011000452 -0.0036729127 -0.00746787 -0.0037627427 -0.0085037565 -0.0016599259 -4.7723188e-05 0.019452536 0.0007742297 -0.01403088 0.005575491 0.022034615 0.0022073577 0.008125352 0.013672772 -0.018154684 0.002715657 -0.0037535483 0.002622388 -0.00979779 0.0016577278 -0.008461778 0.01352606 0.014251635 -0.017347204 -0.015616078 -0.0023571886 -0.012379005 -0.016302861 0.0032455036 0.0054456564 0.010270121 0.004398256 0.0046114037 -0.003298732 0.004891112 0.0071341363 -0.0042375163 0.008625747 -0.013069519 0.004975487 0.00012365976 -0.0006404965 -0.006878627 0.0020199197 0.0025964675 -0.006460484 -0.002539813 0.0010133476 -0.013601261 0.00622713 -0.0043192804 -0.010276888 -0.0077408096 0.01002083 0.0037748269 0.009392342 -0.0025805796 0.013016829 0.0020919559 0.004641515 -0.005974317 -0.0047562434 0.00023143836 0.010338688 0.00928066 0.017233972 -0.012671144 -0.005248572 -0.00044618556 0.014974789 0.0027772603 -0.023253089 -0.0035018425 -0.005022426 -0.002163307 0.01683535 0.01774241 -0.0067801964 -0.009728674 -0.011378137 0.00067658356 -0.019958628 0.01095231 0.008458147 -0.0038705221 -0.013908563 -2.4474104e-05 0.0053535528 0.0053965477 0.005239262 -0.0032443341 0.010847017 0.0005712865 -0.00963293 0.009261238 0.012138148 0.0011003349 -0.003965414 -0.0072936155 0.004064249 0.0047262646 -0.018273478 -0.0011961532 -0.010774808 0.0011201054 0.01461854 -0.00048343232 -0.002371555 -0.0009358669 0.0030232107 0.0029223377 0.01573418 0.0055942694 -0.026365548 -0.0068153273 -0.010735475 -0.0019670886 0.019505085 -0.0033067188 0.013296795 -0.0018636849 0.010300209 -0.008218125 0.0022263615 -0.017703347 -0.011873269 -0.0058401865 -0.025438191 -0.0027172233 0.002105189 -0.016310936 0.0014138818 -0.0032007652 -0.019613232 -0.012858931 -0.015865015 0.0007034387 0.003987665 0.009264399 0.013371326 0.01637901 0.0056413673 -0.00028332399 0.018133296 0.016682656 -0.017160963 -0.006536322 -0.0049078004 0.010489409 0.0026709305 -0.005896626 0.0056059877 -0.013887589 -0.00910896 0.0058348915 -0.0022024235 -0.0017929091 -0.0054417257 0.0060213916 -0.0007635015 -0.0066366172 -0.0018880087 0.0042082435 0.0035628544 -0.00094571523 0.006196304 -0.011854515 -0.0064264806 -0.00036381077 -0.0029938195 0.0070070103 -0.011662468 0.0069055525 0.010092857 -0.005166484 -0.011333005 -0.012099422 -0.010820916 0.0074118874 -0.006611626 -0.0065907473 -0.022737876 0.0006652974
