468 256
v -0.019554589 -0.036742687 0.017983122 0.051884115 0.05338764 -0.0050018863 0.046074092 0.0094244005 -0.021967374 0.038839836 -0.012334322 -0.0012978483 0.010936156 -0.034323357 0.013203063 0.047030896 0.009446801 0.028877733 -0.053291555 0.07444541 0.021010872 0.016297542 -0.018914526 -0.04064267 -0.042815533 0.02034289 0.011249299 0.021936368 -0.010010204 -0.034858435 0.017475033 0.005324927 -0.036325764 0.013982051 -0.029421661 0.054368544 0.06828093 -0.043605424 0.05510309 -0.024668906 -0.042644326 0.048508354 -0.010523521 -0.024396019 0.053223718 -0.00024275377 -0.013240262 -0.009996872 0.029705876 0.007411776 0.0050476617 0.017049534 0.010265374 0.01934267 -0.026461313 -0.021462098 0.043459482 -0.044942085 0.013017635 0.027961958 -0.009826421 0.022259284 0.006980712 0.024221836 0.038640697 -0.020087207 0.008171891 0.049907815 -0.0272168 -0.007471157 0.015527643 -0.008576261 -0.04664684 -0.021281721 -0.017204493 -0.0030289486 -0.008175502 -0.02809814 0.015628746 0.066977136 -0.0050647836 -0.017798882 0.031885613 0.055151485 -0.012610616 0.0462417 0.03507756 -0.07438034 -0.01104653 0.013488994 0.016929764 -0.036411114 0.014210917 -0.03931175 0.04243691 0.055068795 -0.05211087 -0.044940054 0.0038082933 -0.02806033 -0.049022127 -0.0013400138 0.036411736 0.016047817 0.021071302 0.022564609 0.0027117268 0.01877133 0.053348154 -0.034948654 0.030415472 -0.04495429 0.01088311 0.02575971 -0.0156045975 -0.0032555414 0.028146528 0.013648302 0.0058840974 0.012137251 -0.021886306 -0.03603309 0.00442289 -0.012137271 -0.003651419 -0.014198685 0.025112676 0.004295089 0.032107484 -0.01679235 0.017838227 -0.012053109 -0.008848769 -0.041659057 -0.0009978833 0.00677702 0.01993139 0.028780833 0.05212882 -0.015454604 -0.0063052583 -0.008105351 0.041505493 0.030846518 -0.105062306 -0.013445285 -0.023736639 0.004208677 0.047104474 0.034545116 -0.024174072 -0.05369744 -0.03864385 0.023201596 -0.067521766 0.0130194295 0.062797494 0.01304257 -0.03987038 0.004218888 0.015222468 0.010015575 0.015784932 0.0027974092 0.013623533 0.0241103 -0.017476037 0.044873107 0.04767384 0.026493447 -0.012516846 0.004866731 0.01769571 0.029901784 -0.055255245 -0.013731722 -0.04296491 -0.0030468726 0.054610796 0.015204616 -0.015792377 -0.013137473 0.035286807 -0.005089271 0.056872763 0.011837208 -0.07145875 -0.024973376 -0.04777118 -0.019486595 0.037165914 -0.0158419 0.058818467 -0.008328849 0.024294775 -0.026252585 0.0018835338 -0.054968815 -0.027692802 -0.017688256 -0.0677524 -0.004440816 0.016283624 -0.047312256 -0.00913859 -0.002309326 -0.060329616 -0.023257283 -0.04317017 -0.0038259013 0.023909261 0.04419305 0.046594054 0.05636321 0.012934798 -0.011282537 0.06087308 0.050756 -0.04759011 0.0025322705 0.011982128 0.037615716 0.025524003 -0.016765177 0.0060822167 -0.04402324 -0.012757309 0.014484167 -0.026402771 0.023670305 -0.027628468 -0.009692125 -0.015050063 -0.0053694057 -0.022218188 0.0481232 0.02479798 0.0002978216 0.009653628 -0.01477514 -0.017842578 0.022569697 -0.0039795213 0.012417409 -0.020448243 0.0029453575 0.0313829 0.0092008915 -0.03346107 -0.048543356 -0.039549775 0.030522631 -0.04196355 -0.02236791 -0.043663427 -0.0068079364
n -0.025480758 -0.048842005 0.017883576 0.060259335 0.074701734 -0.004311673 0.059187282 0.007771949 -0.02835327 0.055284057 -0.01616159 0.0012278756 0.013448982 -0.044707585 0.020961998 0.06267948 0.012116985 0.03747153 -0.0646912 0.10280789 0.027165959 0.019983646 -0.02866921 -0.052219547 -0.057121556 0.023953464 0.0115560265 0.024971867 -0.008703772 -0.044923335 0.024425134 0.004418376 -0.047923937 0.021631792 -0.03774445 0.07275783 0.08656152 -0.054098416 0.07377179 -0.026892845 -0.047540464 0.05946848 -0.0054561486 -0.032043032 0.06478571 0.0038289595 -0.01306181 -0.01828599 0.037118718 0.0031518056 0.011628369 0.022542046 0.017615095 0.0213301 -0.03432225 -0.022863759 0.054774422 -0.056311868 0.021743665 0.029983748 -0.007954443 0.026323607 0.007887393 0.037073035 0.050999984 -0.027708774 0.014604192 0.064534694 -0.036850877 -0.009395532 0.019511925 -0.013468735 -0.058452863 -0.022059532 -0.024213359 -0.006286731 -0.01693031 -0.03641447 0.02316715 0.09352407 -0.0022294952 -0.026442258 0.034620292 0.070566826 -0.011812098 0.05973021 0.04423433 -0.09344258 -0.009767941 0.014988266 0.02213793 -0.047714155 0.01482551 -0.05131289 0.05132014 0.06766698 -0.066127084 -0.057851 0.0019222734 -0.039093185 -0.05774973 0.0003644188 0.04609366 0.016268052 0.023584021 0.033873547 0.0056960983 0.020394139 0.070973 -0.04367964 0.038596205 -0.05014661 0.01574324 0.025502194 -0.019196952 -0.009427787 0.032254603 0.017078688 0.008447494 0.01388849 -0.03125145 -0.040887117 -0.00069725397 -0.009453717 -0.010260456 -0.017207215 0.036135074 0.0044341 0.041007433 -0.025807159 0.02133837 -0.011285817 -0.011836105 -0.053836998 -0.00607801 0.0066451696 0.021754615 0.032172564 0.06550359 -0.02442196 -0.009822463 -0.010164968 0.056649007 0.037230235 -0.13494545 -0.020473748 -0.036429666 0.005237625 0.060932543 0.045864236 -0.034196783 -0.06279575 -0.05072028 0.030579489 -0.08818322 0.014082405 0.07249544 0.014349674 -0.05259297 0.00010476034 0.022430694 0.013300627 0.024783337 0.00398473 0.015939815 0.024612924 -0.022852063 0.063934736 0.056006502 0.031002019 -0.013511258 0.012942734 0.01608543 0.03520968 -0.06733299 -0.013423931 -0.0507326 -0.006285659 0.070426956 0.018856192 -0.01681767 -0.017073445 0.04219705 -0.0028100577 0.07271951 0.01365746 -0.09516158 -0.023591325 -0.059933797 -0.025249705 0.04847829 -0.01935804 0.07593264 -0.00897009 0.03423706 -0.033198133 0.0035737993 -0.070864365 -0.031454157 -0.027749643 -0.09057276 -0.010789175 0.023695894 -0.06236497 -0.013514648 -0.009243958 -0.07426109 -0.030662438 -0.052319743 -0.008353295 0.036974065 0.06162648 0.05316292 0.075166725 0.009890039 -0.008768873 0.07359511 0.06137097 -0.055651575 0.008494926 0.017555427 0.053931803 0.037521325 -0.02086992 0.000473647 -0.05690846 -0.019169582 0.014762186 -0.033303857 0.025185421 -0.0348716 -0.007849963 -0.019507714 -0.0074660657 -0.022207236 0.06044176 0.034005392 -0.0029147358 0.012606498 -0.021615239 -0.017420849 0.03008439 -0.004338393 0.013656705 -0.031659845 0.0021344447 0.038905904 0.009271765 -0.04432622 -0.061791647 -0.049142458 0.04157393 -0.05282847 -0.027153384 -0.053022772 -0.006776735
u -0.018337758 -0.032837406 0.011549259 0.034696277 0.04249228 -0.0039063594 0.03352536 0.0034736726 -0.019286491 0.031701818 -0.008772804 0.0023753357 0.007373858 -0.030701296 0.012894707 0.034014933 0.0069472915 0.025347674 -0.0369469 0.058083717 0.012437626 0.00793631 -0.016873617 -0.02852626 -0.033275116 0.019080797 0.011039685 0.0143677415 -0.0018955898 -0.029048022 0.013332398 0.0036048891 -0.031881995 0.012027827 -0.022443656 0.046490796 0.050978217 -0.03301015 0.04471097 -0.021244342 -0.02759516 0.039856896 -0.00922815 -0.017156959 0.04607437 -0.00308377 -0.010613299 -0.013774206 0.02521705 0.0025812304 0.010036232 0.009019375 0.01082327 0.015892206 -0.023273494 -0.014631849 0.030158196 -0.036593836 0.01228766 0.021290537 -0.00410517 0.019721886 0.006559908 0.024562972 0.027454626 -0.015102818 0.0067324266 0.03906806 -0.017538734 -0.009436094 0.012983683 -0.013324608 -0.036792636 -0.017381215 -0.017188061 0.00091143436 -0.009245173 -0.020888759 0.016993813 0.058925316 -0.006853705 -0.016016621 0.027647413 0.042963475 -0.008877113 0.032224413 0.02713777 -0.059810154 -0.004811044 0.0066662445 0.012399443 -0.02845547 0.010003396 -0.030685058 0.03266878 0.041707423 -0.03989622 -0.033865627 0.0051124413 -0.023581201 -0.036290918 0.0015766784 0.025205689 0.010721944 0.017903337 0.022682473 0.0024564927 0.009167456 0.043311257 -0.026570031 0.027537944 -0.03233579 0.0105980905 0.019073255 -0.013892124 -0.0068633757 0.020282302 0.0074966904 0.008380366 0.013252436 -0.018198822 -0.025828343 -0.0016989066 -0.005639438 -0.007839372 -0.015279618 0.019228939 -0.0016260217 0.028584478 -0.017474461 0.014255272 -0.011197343 -0.0055688084 -0.027113527 -0.005055846 0.00056203915 0.01199717 0.01956857 0.038003087 -0.018473126 -0.010837966 -0.003314453 0.03238185 0.020983957 -0.08245519 -0.016177414 -0.02345095 0.00074481196 0.036841623 0.025118534 -0.018610697 -0.038783222 -0.03162425 0.019432237 -0.055215675 0.0056358315 0.0438104 0.0066113914 -0.032067224 0.0037808346 0.013397017 0.008661311 0.016658327 0.000592576 0.011349328 0.019836146 -0.017407212 0.039685413 0.037647646 0.016643493 -0.011262044 0.007656924 0.011280456 0.019379549 -0.03950108 -0.01091175 -0.034393307 -0.0018357346 0.04023156 0.013535718 -0.010917698 -0.01151901 0.025870819 -0.0018178388 0.04803788 0.0076161353 -0.057154898 -0.0148212705 -0.035157517 -0.015806137 0.03266592 -0.008851352 0.04411431 -0.0040938305 0.021818887 -0.023161331 -0.0021366957 -0.04516769 -0.019317659 -0.01525841 -0.05178419 -0.0053794873 0.0148656815 -0.035852656 -0.007706624 -0.004260929 -0.049010724 -0.022798942 -0.031655014 -0.0024903044 0.020899704 0.03238591 0.030643035 0.046752773 0.006058808 -0.004460149 0.043814253 0.040246326 -0.037500698 0.004825436 0.011047013 0.028350292 0.020140143 -0.0107377 0.00015483462 -0.03354215 -0.015422056 0.010806054 -0.015200362 0.016510267 -0.023702204 -0.0039631454 -0.006389948 -0.005613867 -0.017218439 0.037202638 0.023374937 -0.00066089607 0.003595878 -0.012129908 -0.008572935 0.0142898 -0.004865314 0.011618333 -0.020957258 0.0022521217 0.024646686 0.010625348 -0.021870729 -0.038938887 -0.032931864 0.028359711 -0.030109208 -0.012832638 -0.03540308 0.00022351813
的 -0.013319213 -0.026801988 0.011831098 0.031855922 0.039515223 -0.0024749006 0.027356826 0.0049446803 -0.009850887 0.024677746 -0.009109929 -0.0039146924 0.00596423 -0.024503067 0.00650447 0.032908715 0.0058638486 0.018091906 -0.031027718 0.055726197 0.015741922 0.008955203 -0.013301076 -0.028692018 -0.03328361 0.017006235 0.0070033274 0.012667626 -0.0053201024 -0.023860222 0.015075815 0.0021768985 -0.030435702 0.014670925 -0.017207302 0.040025882 0.045608405 -0.026226826 0.040465917 -0.01692452 -0.028510492 0.032441042 -0.0030337304 -0.01730627 0.039372224 -0.0012786683 -0.0029113733 -0.008626557 0.015900139 0.0016393946 0.0027146598 0.009025606 0.008495791 0.01612655 -0.016048126 -0.015705701 0.029307062 -0.026669752 0.008494685 0.012285719 -0.005600799 0.011633976 0.008346895 0.015760243 0.028233608 -0.00988466 0.005446218 0.03335538 -0.017790295 -0.0026475831 0.010595616 -0.01153052 -0.031656615 -0.010307903 -0.01280624 -0.0028490599 -0.0075423205 -0.01932317 0.011520581 0.048281312 -0.004669572 -0.014088818 0.019867534 0.03446227 -0.0069457437 0.02798717 0.023416528 -0.0487102 -0.0057436074 0.007439744 0.012911677 -0.027104847 0.0055804797 -0.027931465 0.02930881 0.034476873 -0.036097564 -0.02829717 0.00038432353 -0.01806037 -0.033855457 -0.0007016009 0.01912929 0.009767651 0.01453609 0.019447338 -0.0013890615 0.008298752 0.03331135 -0.024622303 0.016195104 -0.028481701 0.008093752 0.012288603 -0.008369907 -0.003468794 0.019223899 0.007529777 0.0051035094 0.0054341624 -0.016160306 -0.020975607 -0.0014230249 -0.004755609 -0.00296997 -0.010607256 0.021906696 0.0050584367 0.022738492 -0.009993194 0.011292727 -0.009079299 -0.008083834 -0.02856687 -0.004802279 0.0071516386 0.010667686 0.014436909 0.03036323 -0.010524214 -0.007242003 -0.0053350753 0.030597448 0.019677363 -0.06924885 -0.010459311 -0.018622665 0.0066647558 0.032673478 0.018834796 -0.0154384095 -0.03566922 -0.02521233 0.015995208 -0.046319045 0.005507706 0.04256825 0.005471747 -0.02950563 0.004631161 0.0113991 0.00390116 0.01515836 0.00490414 0.009657609 0.018420927 -0.016981998 0.033294834 0.030515198 0.017764404 -0.0064787217 0.0073174946 0.011911084 0.020648504 -0.037417416 -0.0092418725 -0.026919197 -0.00036013054 0.033504 0.013650181 -0.0064456323 -0.0065707164 0.023044124 0.0014056768 0.037061557 0.011493898 -0.045991767 -0.01739688 -0.034137137 -0.012848224 0.026450532 -0.010502441 0.037256755 -0.00035491856 0.020715272 -0.018758515 -0.002271939 -0.03801706 -0.01789858 -0.016550535 -0.044499114 -0.005424421 0.013593891 -0.028954301 -0.009547168 -0.007411642 -0.038202588 -0.018777998 -0.02544174 -0.00597141 0.01998858 0.030417722 0.030038001 0.036034137 0.0056901006 -0.0027217963 0.03964989 0.028664976 -0.03239458 0.0032579526 0.012305641 0.028451428 0.0144606745 -0.0052639833 0.0035817884 -0.024842817 -0.006668081 0.005192394 -0.019334732 0.016859926 -0.015814278 -0.0028557957 -0.005654651 -0.0034594906 -0.009071015 0.028602183 0.0133200595 -0.0032511994 0.0042635626 -0.007577707 -0.011783297 0.011377669 0.0007060965 0.0052058324 -0.011087827 -0.0011069932 0.021951914 0.008644849 -0.020132259 -0.03305953 -0.025227465 0.017853979 -0.026881538 -0.013843423 -0.023645388 -0.00450576
Bo29 -0.018105598 -0.027773354 0.0124421045 0.037119627 0.04828322 -0.00032401484 0.033471186 0.0051026107 -0.012256497 0.035305295 -0.00964012 0.0010608762 0.01127819 -0.029868053 0.009643354 0.038046274 0.0057575307 0.022703778 -0.042282775 0.06526649 0.012132898 0.008984274 -0.018062891 -0.033452414 -0.038885996 0.017484756 0.007122686 0.015155679 -0.008747553 -0.026029993 0.017534852 0.0046715788 -0.03415029 0.013008913 -0.019832944 0.045569193 0.04839244 -0.034349304 0.045032963 -0.017397271 -0.034874953 0.03884937 -0.008741041 -0.021204535 0.043987326 -0.00093512627 -0.0066983313 -0.0073594516 0.020545058 0.006632315 0.0073901257 0.016170802 0.011928777 0.011530324 -0.02499759 -0.012891034 0.03554935 -0.030223884 0.014150972 0.022326877 -0.011128566 0.019412171 0.004972822 0.023075348 0.033809822 -0.014939177 0.009772445 0.038524833 -0.021109095 -0.0040224046 0.008413736 -0.00960236 -0.0333977 -0.016209766 -0.013886754 -0.0061894627 -0.004883202 -0.019079102 0.01410252 0.05825723 -0.0031058944 -0.017418781 0.02329861 0.044126302 -0.009901807 0.03459446 0.028040411 -0.056697015 -0.008709637 0.0074517336 0.015364985 -0.03163672 0.008763295 -0.034140285 0.02955375 0.038976055 -0.040728748 -0.037191864 0.0031043165 -0.02784089 -0.04033517 -0.0053353803 0.024747143 0.013740974 0.016215827 0.019979203 0.00032727435 0.010066068 0.043590836 -0.02566982 0.024322957 -0.03303337 0.0106316395 0.01837292 -0.016378462 -0.007226588 0.017207412 0.0077151065 0.0064950855 0.01280165 -0.019060656 -0.028251136 0.0045980704 -0.006339894 -0.006086847 -0.008948587 0.022546928 0.00022175294 0.028657367 -0.01361417 0.008237072 -0.008324855 -0.006716543 -0.029001309 -0.0026491876 0.003276644 0.014377786 0.020923335 0.038977485 -0.016224016 -0.00988839 -0.0015687331 0.03904175 0.027929774 -0.08605123 -0.012271632 -0.022343813 0.007528065 0.038347077 0.029226063 -0.020813977 -0.037158076 -0.033144087 0.02040754 -0.05437012 0.005966955 0.04655449 0.012356819 -0.034395054 3.4049997e-05 0.017484382 0.0068839127 0.011642124 0.0010574535 0.013341389 0.020278774 -0.01438591 0.03631824 0.032122545 0.020599447 -0.0058515724 0.004446794 0.009308542 0.020782493 -0.04583169 -0.009957525 -0.03283163 -0.0035929186 0.045639474 0.009734562 -0.007953421 -0.009479943 0.026059086 0.0016380848 0.048859928 0.0079348255 -0.05945889 -0.019482391 -0.042198036 -0.015471535 0.027276743 -0.015474605 0.04651518 -0.002818118 0.02287478 -0.02280537 -0.0020588746 -0.042733416 -0.019279366 -0.012313725 -0.05423505 -0.0016480668 0.01165684 -0.034196924 -0.010508029 -0.0006646139 -0.049962416 -0.018624108 -0.031577524 -0.0050752778 0.018622005 0.032712657 0.03183035 0.04151264 0.0085196905 -0.0066346982 0.04608082 0.040197287 -0.036505822 0.0030236372 0.008130261 0.0278253 0.02514734 -0.013015087 -0.00013239634 -0.031494904 -0.010322803 0.007320193 -0.018695662 0.015532403 -0.023125675 -0.0070373486 -0.011370043 -0.002663614 -0.011151677 0.04148223 0.016006604 -0.002964782 0.0104621425 -0.010656499 -0.0140382135 0.01773538 0.0008726078 0.007418893 -0.021473609 0.0015906602 0.026716854 0.010294822 -0.023845721 -0.04064216 -0.03190744 0.02522237 -0.029572392 -0.018459046 -0.034997158 -0.003646956
d -0.014870307 -0.019102816 0.009229773 0.03212865 0.031004157 -0.0013042185 0.028867848 0.0018600343 -0.013798716 0.023980653 -0.0077056983 -0.0010815501 0.009976966 -0.024589272 0.010239187 0.027847761 0.008465604 0.019172141 -0.026242534 0.048378278 0.0063072518 0.012060405 -0.015672982 -0.024989938 -0.028369613 0.010653269 0.0034173406 0.008341396 -0.00611929 -0.019699002 0.0097623225 0.00571465 -0.027172813 0.0077176546 -0.012630928 0.034907177 0.040999733 -0.022312082 0.032144584 -0.015668333 -0.020151747 0.028030114 -0.0009000828 -0.010736108 0.034009054 0.0033711516 -0.010026692 -0.0106714545 0.016636165 0.0048799925 0.007878602 0.01108814 0.009945518 0.009049071 -0.014487434 -0.013194744 0.02060324 -0.020736923 0.008841026 0.012636529 -0.0062785754 0.011206217 0.0068830503 0.01746478 0.02174375 -0.015048383 0.0035420137 0.027707973 -0.0127516985 -0.005997717 0.0077891992 -0.006539925 -0.02950265 -0.009311792 -0.011458519 -0.00052227173 -0.00481167 -0.016812177 0.0088144895 0.04398239 -0.00082621345 -0.008120552 0.018999603 0.033801503 -0.0031160247 0.026048308 0.022394478 -0.04056133 -0.0032405197 0.0058857216 0.00853142 -0.022611866 0.004061783 -0.02176264 0.02583152 0.03452363 -0.02913524 -0.021772776 0.003734461 -0.019768618 -0.02585932 -0.0039690672 0.023362026 0.01011044 0.011702719 0.016227398 0.0047277994 0.012542459 0.031381037 -0.021583423 0.02109106 -0.021357274 0.008163928 0.012871697 -0.012180024 -0.00531469 0.018346002 0.004916828 0.002149667 0.011142358 -0.010157709 -0.016059054 0.0012815971 -0.0081072 -0.00031018173 -0.010612708 0.018000143 0.003366657 0.023126494 -0.015286284 0.011809607 -0.009877015 -0.007907354 -0.026864737 -0.0037171142 0.0063218568 0.013761405 0.014087298 0.029858833 -0.012732096 -0.0020761313 -0.00053240964 0.026469814 0.016576841 -0.063249215 -0.007633419 -0.014430717 0.0018701633 0.029994912 0.018019343 -0.01971467 -0.030334359 -0.022395406 0.010051246 -0.04121435 0.0023784363 0.0382392 0.009047516 -0.023209158 0.0036018344 0.013927999 0.0047957534 0.012867995 0.004163618 0.009114612 0.015783275 -0.013761054 0.026516277 0.026349619 0.015937118 -0.0052355924 0.0071523073 0.010989684 0.012514844 -0.033401895 -0.009225229 -0.019456195 0.0007384101 0.030671176 0.011139229 -0.0099746 -0.011098311 0.02039058 0.0010822258 0.03424485 0.009703702 -0.04254951 -0.013375199 -0.028366731 -0.011487857 0.019134423 -0.012125487 0.036312394 -0.0034792128 0.013897588 -0.019060945 0.003557793 -0.031040207 -0.013175859 -0.010211977 -0.042435326 -0.002526545 0.012155279 -0.030894965 -0.0052550905 -0.0020512962 -0.031489436 -0.012052062 -0.02454687 -0.0067305206 0.017915118 0.027463231 0.027249295 0.035043605 0.006803111 -0.0077729854 0.034274053 0.030781943 -0.028275413 0.006443642 0.0057889875 0.02453675 0.016873276 -0.004948685 -0.0002585204 -0.026466008 -0.011513569 0.008623303 -0.01567623 0.016349489 -0.019031148 -0.007683984 -0.009199282 0.00013018837 -0.013248308 0.026233105 0.011701643 0.0017586849 0.0066244234 -0.007256297 -0.010442786 0.015255204 -0.00469721 0.004792468 -0.015317308 0.00030585926 0.0170055 0.009197824 -0.018645857 -0.031435754 -0.025674125 0.01574249 -0.021808965 -0.007733991 -0.025557512 0.00080641615
p -0.0102071855 -0.028112868 0.007247378 0.037128806 0.04255482 -0.003315468 0.027407505 0.0068847057 -0.012042567 0.031030396 -0.013348309 -0.0042259726 0.00963851 -0.028865214 0.008171269 0.031381413 0.009429587 0.022957439 -0.035497684 0.0556761 0.015739862 0.009118302 -0.010883652 -0.0251195 -0.029989215 0.013025816 0.0057997066 0.012346825 -0.0015423306 -0.025271669 0.013042369 0.0076688463 -0.02607384 0.014213602 -0.022411605 0.03753195 0.04693227 -0.029818669 0.040657565 -0.011620106 -0.026784986 0.03104678 -0.004936673 -0.017937118 0.03305609 -0.0004582476 -0.008149102 -0.007679259 0.016279288 0.0047361115 0.0027669207 0.007470083 0.011177158 0.016926132 -0.021610854 -0.01198628 0.026188267 -0.03260038 0.007576171 0.019294698 -0.0034957433 0.018745005 0.008846805 0.020961106 0.027305461 -0.018402644 0.0077115754 0.032231543 -0.0154962335 -0.0047816765 0.007883408 -0.0048438497 -0.031207604 -0.0117688095 -0.014837898 -0.0058772266 -0.010828901 -0.015588017 0.008047765 0.052129373 -0.0069242367 -0.013120664 0.019712761 0.03199773 -0.0034948906 0.033655073 0.023358718 -0.047673024 -0.0069607887 0.011324999 0.014185088 -0.029058997 0.006883659 -0.027595457 0.028100418 0.0345823 -0.03261054 -0.031852525 0.0033360084 -0.018613074 -0.029147701 -0.0031358532 0.020169837 0.0056631532 0.012213447 0.014199873 -0.0014474147 0.013528034 0.040021002 -0.020967465 0.017728329 -0.030949295 0.011959549 0.01732464 -0.013715719 -0.007282139 0.017787801 0.008514454 0.005908537 0.009676062 -0.01766563 -0.027266338 -0.002130742 -0.0052121254 -0.0024416225 -0.008858105 0.01931385 0.003854463 0.022544237 -0.011677039 0.005798335 -0.004092459 -0.0032221002 -0.024757337 0.0012506101 0.0070316843 0.012011328 0.017077114 0.033379536 -0.016663348 -0.0031280678 -0.0064037913 0.034669727 0.019495351 -0.07089303 -0.014862042 -0.02163843 -0.00012816588 0.028677873 0.023583896 -0.021629684 -0.036071356 -0.028683696 0.013202443 -0.043082003 0.008350243 0.044184778 0.009946603 -0.029099895 0.0037312238 0.009012314 0.0047244886 0.008786499 0.00475543 0.009027809 0.01794127 -0.012704413 0.029537108 0.03372412 0.0139497295 -0.0036882332 0.0070642014 0.008803302 0.016862579 -0.039667405 -0.009980887 -0.023806801 -0.0024155378 0.038849823 0.0075453585 -0.007610211 -0.010552955 0.025668265 -0.005366529 0.04140954 0.0068745012 -0.0514941 -0.016688835 -0.034901954 -0.013486577 0.023852576 -0.013610933 0.040003274 -0.003691612 0.01649989 -0.017091881 -0.003034202 -0.0383242 -0.014427666 -0.010150466 -0.05053809 -0.0011141972 0.015001403 -0.033699326 -0.004985221 -0.0073005464 -0.037135046 -0.014401431 -0.026611514 -0.006227867 0.016153695 0.029744813 0.030153042 0.038989846 0.009804396 -0.0020345529 0.04366247 0.03049433 -0.026523365 0.0032307322 0.012024321 0.028117204 0.018349463 -0.007755089 -1.8495704e-05 -0.03138829 -0.014206913 0.009398114 -0.013927388 0.015776569 -0.019928763 -0.0034211264 -0.0050083473 -0.005911065 -0.011714012 0.030654648 0.01884155 0.003087409 0.00945294 -0.0071522263 -0.0074934494 0.017709505 0.00025401576 0.01016926 -0.017106991 0.0044170073 0.023242302 0.0062282044 -0.018553138 -0.030722583 -0.023405788 0.022831373 -0.022969099 -0.012616837 -0.02371152 -0.0015713073
a -0.009570097 -0.024365425 0.012679507 0.03277954 0.03466785 -0.0021746347 0.02870206 0.00068418396 -0.008590673 0.02123418 -0.011974852 0.0005589198 0.010522969 -0.025295744 0.010825938 0.033325832 0.0021611527 0.015371457 -0.033134047 0.047198713 0.0121910805 0.012806633 -0.0107227545 -0.025178546 -0.027235344 0.016854446 0.01099944 0.014420191 -0.0019750216 -0.023851734 0.011083386 0.0013909402 -0.022427361 0.009730354 -0.020975677 0.03760785 0.043779876 -0.027063578 0.03819025 -0.014459752 -0.02576969 0.028937414 -0.004269275 -0.015525019 0.03436859 0.0024174298 -0.0037135957 -0.012155459 0.016462341 -4.7285335e-05 0.008208612 0.012061586 0.0056318818 0.012728016 -0.020843862 -0.012217078 0.029807799 -0.02730982 0.0067832805 0.011950083 -0.006853383 0.013476675 0.0067703766 0.020883981 0.02312756 -0.012324715 0.009164385 0.03028922 -0.015520815 -0.00126441 0.012136377 -0.0042199166 -0.03112536 -0.006993622 -0.009424385 0.0015517464 -0.007819415 -0.01601863 0.013196607 0.04238898 -0.00037610295 -0.010707617 0.022495637 0.03127742 -0.007822637 0.030447884 0.016885867 -0.04799831 -0.008644702 0.0064604394 0.008971305 -0.019932771 0.011502388 -0.025073286 0.024713391 0.034016844 -0.031062154 -0.029354237 0.0050710444 -0.020930232 -0.026673615 0.0019075782 0.022921281 0.0097807115 0.012873511 0.014474744 0.0030250412 0.010396899 0.03605516 -0.018048648 0.019728832 -0.023627125 0.004385792 0.01683283 -0.006719636 -0.005619235 0.016647073 0.004532601 0.0051155835 0.008984953 -0.011069993 -0.02100201 0.0017034895 -0.004565443 -0.0005735798 -0.011664666 0.014412151 5.5434564e-05 0.019598432 -0.009903997 0.005412916 -0.007403855 -0.008958511 -0.02257546 -0.0025811957 -0.00028430144 0.012366746 0.01984375 0.028828392 -0.014189497 -0.0046943924 -0.003519875 0.024159905 0.022814926 -0.06741 -0.012156846 -0.017508743 0.0007245452 0.029669557 0.025120227 -0.015149702 -0.028061733 -0.024121149 0.013617775 -0.04291192 0.0025435626 0.03841039 0.007417295 -0.028495234 -0.0012882086 0.0075796735 0.0032020775 0.012486415 0.0063593476 0.009281934 0.014849028 -0.009680148 0.029006077 0.027345836 0.011464723 -0.00680414 0.0043374714 0.009636795 0.019965336 -0.0369448 -0.008577238 -0.027604656 -0.0027512421 0.031317152 0.011237595 -0.006148186 -0.010983147 0.018910717 -0.0010960238 0.037489098 0.009992186 -0.045898214 -0.014791791 -0.032505866 -0.011046287 0.02361992 -0.008985967 0.039162084 -0.004352429 0.015842574 -0.019427309 -0.00067530497 -0.036930345 -0.015387083 -0.011610753 -0.045817353 1.315144e-05 0.008189139 -0.03304949 -0.010934777 -0.00031630386 -0.034483965 -0.011499618 -0.023928419 -0.0037015143 0.015140795 0.03207456 0.028006794 0.03656731 0.005550232 -0.004924465 0.039307754 0.028920347 -0.026154056 0.0025317718 0.01112329 0.025963724 0.017830044 -0.010533737 -6.7726316e-05 -0.024588589 -0.012401909 0.0077540637 -0.0150294695 0.0152093265 -0.022064717 -0.0006038545 -0.008160585 -0.0047079567 -0.009937818 0.029427296 0.012457054 -0.0022799713 0.0055177133 -0.012514191 -0.009401706 0.014658197 -0.003750208 0.0073345117 -0.012920176 0.0046577547 0.01980063 0.0070208875 -0.018724456 -0.03074087 -0.028302398 0.022915207 -0.025163226 -0.016025415 -0.027541114 -0.0044067767
c -0.009715669 -0.019602586 0.01176047 0.025480956 0.033766653 -0.0024529842 0.023372395 0.006074003 -0.010092609 0.022440525 -0.012202837 -0.002678712 0.0073338123 -0.01834344 0.011283258 0.024534862 0.0010263443 0.01952165 -0.030112142 0.04428096 0.01310595 0.006054282 -0.01062729 -0.024006303 -0.02901469 0.012475574 0.009562296 0.015224595 -0.0033590463 -0.017699834 0.009952983 0.0030954743 -0.025549585 0.010429622 -0.017292866 0.03107573 0.03507878 -0.020373225 0.03362575 -0.014104194 -0.024532855 0.030180614 -0.006646855 -0.0122441705 0.031389534 0.0034231143 -0.00320256 -0.009102503 0.017115653 0.001283574 0.0011246608 0.007848422 0.0075480165 0.013662534 -0.01345054 -0.0076680933 0.021162188 -0.022104831 0.006093369 0.013810662 -0.0050329147 0.015563421 0.0069500078 0.017805856 0.026841432 -0.012304088 0.002599058 0.025368838 -0.012593726 -0.006870783 0.006793856 -0.005339168 -0.027917909 -0.012595985 -0.01211731 -0.0018021711 -0.0056713563 -0.01391625 0.0076824543 0.0425222 0.00025724515 -0.010280502 0.019691259 0.028618328 -0.003452745 0.023407971 0.020629574 -0.045956936 -0.006865229 0.0025425765 0.0087339645 -0.023661973 0.0058757667 -0.022614302 0.02393683 0.03021601 -0.03176442 -0.027152026 0.0019856081 -0.019545387 -0.030400768 -0.0018142161 0.02276247 0.0105929 0.00668501 0.015898375 -0.0012611292 0.0062326295 0.031989105 -0.019169154 0.015167665 -0.027117172 0.0067064674 0.016228149 -0.012776835 -0.0005583374 0.014660588 0.0064233574 0.007956466 0.009049117 -0.014865052 -0.018665494 0.0021129665 -0.0020953487 -0.0038033102 -0.0107791545 0.016284967 -0.00055072457 0.01954269 -0.009302173 0.010313716 -0.0023678425 -0.0079555595 -0.025013445 0.0012338572 0.0036843398 0.007328418 0.015647149 0.029377123 -0.012162807 -0.007624852 -0.0012872024 0.030320369 0.015211627 -0.06051713 -0.010730417 -0.017963393 0.0023064085 0.025344241 0.02366597 -0.018096648 -0.02753771 -0.022607977 0.014156436 -0.038488753 0.009677595 0.03482086 0.003992848 -0.023678735 0.0014804051 0.009559309 0.0020159546 0.0082134 -9.812329e-05 0.009698851 0.014257897 -0.00862863 0.030142728 0.023663418 0.014964339 -0.0029080354 0.005586827 0.010214166 0.018534107 -0.03560284 -0.0029032286 -0.020812688 0.0021942805 0.027510608 0.012379341 -0.004625425 -0.009217994 0.016903693 0.00058953307 0.030216394 0.0054351822 -0.04040406 -0.009232952 -0.02517554 -0.012000256 0.017979238 -0.0048367972 0.036726553 -0.00429698 0.011392007 -0.017710561 -0.0016629501 -0.033126887 -0.0140620135 -0.011424007 -0.04101221 -0.005665217 0.014840174 -0.029296804 -0.010009877 -1.4032356e-05 -0.033354223 -0.010789195 -0.025230778 -0.006563652 0.015477694 0.026099764 0.0216497 0.032169048 0.0070142825 -0.0021979094 0.03710078 0.028740143 -0.027771194 0.0018788324 0.007138709 0.025648829 0.013019272 -0.0069899615 0.0011360656 -0.027002398 -0.012389293 0.009652827 -0.017285386 0.012762144 -0.016395874 -0.00084917276 -0.010151689 -0.0012762315 -0.007089978 0.025822828 0.013187878 0.0014695922 0.0075930697 -0.0077944053 -0.0058924276 0.013301567 -0.0012659845 0.0051358533 -0.016052863 0.0018338752 0.018752437 0.0024067513 -0.018784108 -0.028052296 -0.023335218 0.022061342 -0.023975795 -0.013589198 -0.020382576 -0.005522595
r -0.013714029 -0.019984784 0.004961466 0.025228143 0.030597458 -0.0019330493 0.019996157 0.0026884212 -0.010791566 0.02241595 -0.004645694 0.002333267 0.010179478 -0.022658147 0.0113215735 0.023556415 0.007872301 0.015785504 -0.024185525 0.036693636 0.005454343 0.01122062 -0.012409694 -0.020088185 -0.020955592 0.011061644 0.009681707 0.009851026 -0.0075941873 -0.01994701 0.010413599 -0.0005331444 -0.017714221 0.010031727 -0.018140133 0.031949002 0.037353296 -0.019011073 0.03135323 -0.015613538 -0.020097632 0.020106377 -0.005119922 -0.011887269 0.027556455 0.0006266656 -0.004170754 -0.0060231364 0.016549842 0.005165519 0.0020705624 0.011132387 0.008735659 0.013868259 -0.013673361 -0.011412884 0.020132918 -0.02213276 0.006962682 0.01637263 -0.004593637 0.013209965 0.006014687 0.010700804 0.023306109 -0.0076626325 0.0040005106 0.025595767 -0.016344775 -0.0066136546 0.010458142 -0.0073724776 -0.021321928 -0.0083734 -0.010883795 -0.0005383268 -0.007436573 -0.015196337 0.009427782 0.03844541 -0.002954607 -0.009635298 0.012359747 0.031029439 -0.008826092 0.026403517 0.018439198 -0.040377546 -0.007253325 0.0024308157 0.006482905 -0.016195586 0.010572059 -0.019618416 0.020189198 0.03126389 -0.027250702 -0.022469016 0.00307474 -0.018430792 -0.027567081 -0.004944903 0.021361439 0.009416097 0.007720697 0.009733431 0.0017160773 0.009429328 0.027515551 -0.016241083 0.014127024 -0.019828865 0.0072127837 0.015436606 -0.01275 -0.0052401344 0.009542203 0.005186451 0.0009152575 0.008244717 -0.014562913 -0.020263642 0.0025850704 -0.0074572647 -0.0028080358 -0.010954329 0.01808421 0.0051038554 0.017759595 -0.007819961 0.009083263 -0.007787331 -0.0005009539 -0.024200039 0.0019274397 0.004095995 0.007978611 0.012136196 0.02871159 -0.012239117 -0.0016265039 -0.0053048874 0.02695375 0.015805531 -0.05063759 -0.009868875 -0.011312557 0.005819355 0.025074406 0.018247891 -0.01178364 -0.022676941 -0.016549196 0.014849923 -0.03189265 0.008063089 0.03407459 0.005497076 -0.020868186 0.0012576719 0.009641472 0.004739916 0.0054680603 -0.0016794766 0.005322692 0.0148347 -0.01200068 0.021425257 0.02507463 0.012948549 -0.0050605293 0.0058482387 0.009560168 0.01664275 -0.028231204 -0.0054067434 -0.01714365 0.00020357697 0.025146322 0.011351262 -0.0041502803 -0.0064033526 0.016045064 1.2797228e-05 0.03210925 0.009301053 -0.03665751 -0.014523345 -0.025326043 -0.009042481 0.0207516 -0.011955585 0.033918057 -0.0054753493 0.015504031 -0.017842108 0.0036184748 -0.02495684 -0.011974962 -0.011333906 -0.035277497 -0.0028054714 0.0071520866 -0.022108529 -0.005389043 -0.0011082246 -0.033353895 -0.009052471 -0.020479789 -0.0031416556 0.009791713 0.025151394 0.025188453 0.03195341 0.002429723 -0.007865388 0.028319547 0.024134843 -0.026415633 -0.001028295 0.0070868884 0.02080529 0.010399533 -0.008403111 0.0018108438 -0.018908108 -0.0076811137 0.006125924 -0.0153757455 0.008803979 -0.015767228 -0.0006510201 -0.004231881 -0.002954576 -0.009192892 0.021872697 0.012289055 -0.0022896368 0.0070435125 -0.008419437 -0.010068872 0.007680378 -0.002275359 0.002103905 -0.012185691 -0.0011419167 0.015235072 0.0039223824 -0.019830745 -0.025398333 -0.020170704 0.014485547 -0.02348361 -0.011474472 -0.024321992 -0.0029426916
-1 -0.006629723 -0.017695487 0.008467198 0.023817565 0.029170688 0.0010984326 0.023515224 -0.001233302 -0.012143551 0.015550854 -0.009726503 -0.0035423238 0.002748984 -0.017784914 0.007417244 0.020405473 0.0002185521 0.014976792 -0.022294207 0.037020642 0.011078657 0.009625375 -0.010050372 -0.0169776 -0.022278592 0.010452633 0.0071181227 0.012736231 -0.0044714483 -0.013909066 0.0068522366 0.0016969886 -0.014785558 0.0063529722 -0.013250609 0.02128615 0.025671894 -0.015137175 0.022656256 -0.008337632 -0.020358073 0.02000021 -0.006088598 -0.007431713 0.026363926 0.0021254597 -0.0013147558 -0.0063951374 0.008819009 0.005248461 0.0018434409 0.010052357 0.0074105375 0.008230679 -0.01639281 -0.009338776 0.021315418 -0.021691518 0.0070140352 0.007699605 -0.0006303376 0.008841406 0.007707978 0.009913916 0.013795559 -0.012904653 0.0021765963 0.023303319 -0.011724293 4.3634336e-05 0.0074493573 -0.0037979956 -0.019682916 -0.0046615056 -0.009494437 0.0013605243 -0.0088188695 -0.011519922 0.007328446 0.031919334 0.0003716856 -0.009614719 0.012550736 0.02341776 -0.004779426 0.019109981 0.017134668 -0.035122957 -0.0013969233 0.0047257943 0.008432314 -0.015171808 0.0054645645 -0.017120982 0.016336272 0.025923546 -0.021875998 -0.020304363 -0.0019623972 -0.017668465 -0.020491537 -0.003559273 0.015052267 0.0045398986 0.0047951434 0.011631052 0.0031516962 0.0064892303 0.021567028 -0.01328674 0.01354159 -0.020961065 0.005385507 0.0101040965 -0.008806901 -0.006755973 0.014594557 0.0060828472 0.0023020448 0.008516928 -0.009968786 -0.012470762 -8.132054e-05 -0.000616409 -0.002794796 -0.009388256 0.010186298 0.0050380705 0.014969357 -0.008392008 0.009554159 -0.0071656825 -0.0046245637 -0.020998353 -0.0038392013 -0.00079337205 0.009295717 0.012951568 0.024028895 -0.007615815 -0.0033991595 -0.00025540905 0.01972301 0.01515244 -0.043379158 -0.0074057044 -0.009430279 -0.00038122525 0.023622183 0.017332694 -0.010456139 -0.02644977 -0.017562242 0.010983818 -0.03252382 0.0018629705 0.029243162 0.002141413 -0.019944906 0.0038124446 0.005588147 0.007180573 0.008143652 0.0038347137 0.0043643983 0.00793726 -0.012749016 0.020957397 0.018060872 0.00967603 -0.0016391384 0.00069997396 0.004394881 0.010186838 -0.027391374 -0.008472905 -0.018454498 0.0028538639 0.026931234 0.005364097 -0.008548301 -0.0074826265 0.011442728 -0.0030861069 0.023006758 0.0069247833 -0.035223845 -0.008986311 -0.021290109 -0.005757691 0.015904577 -0.0106136035 0.028193638 -0.0045962776 0.013251149 -0.011356118 0.0032431632 -0.02395359 -0.011602669 -0.0061572483 -0.033433426 -0.0057765567 0.010047649 -0.02229071 -0.0071035866 -0.0032815356 -0.030286947 -0.010956417 -0.018328916 -0.0040415977 0.012590217 0.022411466 0.022056367 0.022164527 0.002451687 -0.007324747 0.022803785 0.019612966 -0.020443028 -0.0012825847 0.00443416 0.01708801 0.014645178 -0.0053411652 0.0046732426 -0.022358008 -0.009167667 0.005293022 -0.0074414355 0.010488208 -0.012929215 -0.0025764646 -0.004287132 -0.0055011516 -0.006870027 0.02395572 0.013297985 0.0012773514 0.0010312652 -0.008145332 -0.0038172705 0.009798528 -0.00535761 0.0062446254 -0.012328933 0.003227861 0.015821025 0.0025196162 -0.0134183 -0.019598613 -0.019388536 0.01360576 -0.013925177 -0.005106068 -0.021723997 0.00089884974
Jd07 -0.0037213115 -0.016021082 0.00742618 0.018381214 0.026576187 -0.001054075 0.020089587 0.0062332232 -0.006460585 0.0134604 -0.0070580267 -3.7464164e-05 0.005728048 -0.014125098 0.010158781 0.021149963 0.0077305315 0.007966357 -0.022722937 0.03277252 0.008933348 0.0052736276 -0.011507283 -0.01818694 -0.022362689 0.012628213 0.0062477877 0.004538149 -0.0017444211 -0.011813688 0.006004879 -0.00023874709 -0.015912974 0.010209455 -0.015438784 0.022637356 0.023855781 -0.017288035 0.023780532 -0.011376374 -0.01688225 0.019271884 -0.005384306 -0.0061207456 0.02364756 -0.0034489287 -0.00537628 -0.004441054 0.007991063 -0.0013159411 -0.00018297318 0.0040222243 0.008287257 0.010581846 -0.011132206 -0.011484308 0.018963823 -0.015149283 0.005821805 0.0062337373 -0.004197413 0.008978277 0.00042647825 0.0123567255 0.016055375 -0.0114351865 -1.2982044e-05 0.021748947 -0.013806474 -0.0055358186 0.0076819775 -0.004885819 -0.019830767 -0.009317867 -0.0078030163 0.0009785853 -0.006760863 -0.013321562 0.0049439142 0.02686474 -0.004947676 -0.011589134 0.01515299 0.0248534 -0.005949819 0.014760791 0.012594129 -0.030646013 2.929771e-06 0.005736804 0.0040957346 -0.015928768 0.0013633051 -0.015355545 0.014149434 0.020552743 -0.0178144 -0.014055265 0.0032424505 -0.015424474 -0.015775194 -0.0049850876 0.011345144 0.0026112723 0.0061583067 0.010169227 -0.00047300017 0.007735335 0.025998319 -0.0106732985 0.011896841 -0.0132608535 0.006156667 0.00852683 -0.009645963 -2.9303103e-05 0.00694744 0.0037829957 0.006138182 0.0039984942 -0.008669155 -0.01650378 0.00279311 -0.0005828937 -0.0063719875 -0.0074800826 0.014111367 0.0022901425 0.013279121 -0.0078349635 0.0016312215 2.3604829e-05 -0.004432532 -0.018136952 -9.649986e-05 0.0027759208 0.0047429167 0.013079199 0.018997503 -0.010368373 -0.0008205969 0.0005713125 0.02182249 0.013130018 -0.042209033 -0.009983189 -0.008708831 0.005559321 0.018589593 0.013133803 -0.012809487 -0.020815589 -0.018738167 0.010991202 -0.02685578 0.008073958 0.021428436 0.0021977962 -0.018643614 -0.0026101428 0.008695388 0.0055896277 0.0077834083 0.003518323 0.0012329906 0.0083929375 -0.01145012 0.020440355 0.016979983 0.013231247 -0.0059087 0.0062243757 0.008125952 0.011444021 -0.02224283 -0.0012335607 -0.015340541 0.0026197424 0.022692002 0.008916701 -0.003008967 -0.009032171 0.011322141 -0.00069158233 0.022797909 0.0060541737 -0.028725784 -0.0051945243 -0.021589883 -0.0068688653 0.017781112 -0.0053673442 0.025221957 -0.0003642131 0.009881288 -0.01470091 0.0011818148 -0.025612729 -0.010736663 -0.011776456 -0.027837362 -0.0056151957 0.010911144 -0.021274034 -0.00094352063 -0.0055133305 -0.025838755 -0.009141804 -0.017568184 -0.0022260726 0.009099026 0.01820329 0.015225525 0.018950509 0.006773835 -0.0033211007 0.02642463 0.016272938 -0.016447859 -0.0020601104 0.0088486485 0.018294206 0.008545663 -0.0022126911 -0.0009950615 -0.020610875 -0.0058137006 0.0062327716 -0.012880027 0.005299341 -0.008522022 -0.0020292737 -0.004652865 -0.0006605445 -0.009081315 0.020250684 0.011063474 0.0036885904 0.0014669135 -0.004626905 -0.0037460073 0.0063302014 -0.005146162 0.0074725742 -0.006309282 -0.0012345386 0.014703603 0.004624739 -0.015020295 -0.019888293 -0.018270448 0.015373453 -0.015151587 -0.011216368 -0.016302627 -0.0030009043
有 -0.0056449017 -0.016739568 0.010043832 0.021827688 0.023713324 0.0022805796 0.020735456 0.0013321084 -0.011091195 0.016410286 -0.0087619 0.0011251094 0.0015914876 -0.018848859 0.008416325 0.021318007 0.0065158126 0.010954394 -0.022169685 0.035536762 0.010401036 0.007033726 -0.0056111845 -0.016988263 -0.023489865 0.009169885 0.0019002298 0.006202967 -0.004387373 -0.018625248 0.012639435 0.0031075922 -0.01831368 0.005097078 -0.016099675 0.020292649 0.032383464 -0.01954103 0.026303891 -0.012115307 -0.013074918 0.022264358 -0.0027132859 -0.011364454 0.024229076 -0.0013174668 -0.0017693952 -0.0043257186 0.012522748 0.003007507 0.005016989 0.0039979937 0.008884364 0.009104434 -0.0155147435 -0.00562777 0.017643621 -0.015285618 0.005620921 0.013381537 -0.0027298625 0.007916411 0.002102227 0.016004771 0.017914686 -0.0118381735 0.003674262 0.020386072 -0.010856282 -0.0067510805 0.008687787 -0.0046670125 -0.016834822 -0.0062692105 -0.009719921 0.00038171327 -0.0052953316 -0.016180163 0.0108149955 0.03493584 0.0019874559 -0.009888831 0.009789504 0.025508096 -0.0075393734 0.023634456 0.015625903 -0.029757086 -0.001314299 0.0049856775 0.006149536 -0.015569419 0.0096125435 -0.020396372 0.016381223 0.022430576 -0.019688457 -0.015913006 5.2708285e-05 -0.012570313 -0.021696607 -1.3617114e-07 0.018249325 0.007500203 0.005847121 0.009672146 0.004158716 0.01139916 0.02658114 -0.015975898 0.0126462765 -0.020809852 0.004193522 0.01136739 -0.010153619 -0.005229999 0.014735814 0.008709942 0.0066462713 0.0060245013 -0.013655411 -0.01785329 0.0015392841 -0.0075228945 -0.0058546974 -0.0058919475 0.010799406 -0.0025296346 0.01706903 -0.01237834 0.0031380758 -0.004991185 -0.003258969 -0.018085191 -0.0035006553 0.0052249753 0.010941164 0.008670466 0.02555398 -0.005523424 -0.007024142 -0.0027359184 0.021692298 0.016496813 -0.04750569 -0.010210214 -0.009333169 -0.0013481535 0.01802859 0.014438879 -0.010108805 -0.024699269 -0.015253234 0.009489212 -0.028710438 0.0071394774 0.026496246 0.007716466 -0.017723043 -0.002875316 0.011914792 0.0021393297 0.009879782 0.00080633 0.0027062686 0.0069671366 -0.00726433 0.0208925 0.020160476 0.0071184104 -0.0071323924 0.0014412329 0.010592487 0.008328854 -0.022103267 -0.0049848915 -0.017521845 0.0027625777 0.021812499 0.004401172 -0.0050842394 -0.0036113267 0.018440403 -0.00251482 0.025639703 0.0078472365 -0.03373307 -0.0062004826 -0.024041254 -0.0067990343 0.018050926 -0.004945947 0.02364774 -0.0013067218 0.014327718 -0.008888543 -0.003731665 -0.021866761 -0.00827903 -0.009475946 -0.026206467 -0.004461116 0.007963504 -0.02358647 -0.0068240315 -0.002111024 -0.027531447 -0.013017055 -0.015115703 -0.0050177732 0.008849804 0.023328265 0.022791348 0.026394648 0.0046875295 -0.0035337375 0.025591835 0.023509657 -0.02202672 0.0022945874 0.008142766 0.016657237 0.0124383895 -0.004405882 0.0052823196 -0.017726399 -0.003022653 0.003039644 -0.008759031 0.008113443 -0.014743455 -0.002446196 -0.00705388 -0.00403741 -0.0073186075 0.02457612 0.008460732 -0.0038952446 0.0026782718 -0.002999698 -0.0108550405 0.0133460695 -0.0020085194 0.0052682953 -0.0104490295 -0.002032791 0.014499204 0.00706913 -0.016961778 -0.021610921 -0.017279565 0.015755152 -0.014560847 -0.010070285 -0.01479262 -0.0043746964
Hh04 -0.010317798 -0.014407115 0.009922699 0.02037191 0.027462699 -0.004718362 0.02072661 0.004984214 -0.012500897 0.021920886 -0.005145362 -0.0021211442 0.0024145602 -0.01886045 0.0065600593 0.0245782 0.0076185395 0.014917197 -0.025265068 0.0394087 0.0064989473 0.0063692643 -0.011040575 -0.016145168 -0.024354817 0.0077247988 0.0069453698 0.01062086 -0.0063959085 -0.018746106 0.009559487 0.0014648841 -0.023289474 0.0066739554 -0.015014943 0.029480308 0.031890243 -0.019491315 0.027289141 -0.012484692 -0.017934106 0.023109743 -0.0010604023 -0.011666797 0.022519572 0.00049016497 -0.0009032271 -0.008743907 0.01142176 0.00045996893 0.0074647623 0.007045201 0.00954911 0.0060100737 -0.011091302 -0.012950874 0.023960553 -0.019892067 0.008171283 0.009446428 -0.0009062395 0.01334775 0.0021326265 0.009466335 0.022230584 -0.0126072485 0.00025028354 0.02427246 -0.01457679 -0.0069506457 0.010539419 -0.006378477 -0.02330633 -0.010159207 -0.011050328 -0.003898293 -0.007691258 -0.015824817 0.0048666033 0.038213868 0.00050836586 -0.0105675515 0.015531452 0.022509016 -0.0019354831 0.025296394 0.01651677 -0.038134098 -0.00605233 0.007249006 0.0068434314 -0.016903259 0.009694187 -0.01770659 0.016992943 0.028085606 -0.025085403 -0.02333882 0.004324034 -0.018620258 -0.022780467 -0.0017347694 0.013650379 0.00627797 0.011152673 0.010187259 -0.0018789389 0.010479315 0.025179494 -0.019012049 0.014929223 -0.020430803 0.009365344 0.011515496 -0.0050538033 -0.0069293412 0.0142055955 0.007362471 0.0038284403 0.004898877 -0.010821121 -0.01705162 -0.0026518637 -0.0065689166 -0.002549964 -0.008405838 0.01691764 0.00083540654 0.018239576 -0.008665025 0.010019421 -0.008711476 -0.003464365 -0.019799797 -0.00021247749 0.0026043963 0.0055812625 0.016393198 0.02253027 -0.008410549 -0.0071458817 -0.0013012986 0.026047898 0.014625211 -0.04796638 -0.008162857 -0.009928516 0.0062773777 0.022714168 0.016210822 -0.017019534 -0.020357423 -0.019767081 0.011401979 -0.03358194 0.0081375 0.0324351 0.005600147 -0.018497745 0.003024767 0.009968214 0.0066914526 0.008704826 0.0012679659 0.007982341 0.009228355 -0.010823855 0.026683738 0.018221697 0.010238582 -0.0064411573 0.006371093 0.010549702 0.010968716 -0.024597423 -0.005554609 -0.02315065 -0.0019487537 0.025236297 0.0065279827 -0.0064463206 -0.009230412 0.018573716 0.00243943 0.026744243 0.0076586995 -0.035344556 -0.010611909 -0.026714247 -0.008156261 0.019630143 -0.004406542 0.031149179 -0.0008833952 0.014181666 -0.015998723 -0.0007669271 -0.028716493 -0.009331745 -0.0062765707 -0.034951285 -0.002342103 0.0113782305 -0.022246694 -0.0057762316 -0.005416759 -0.02486289 -0.014743995 -0.021973953 -0.005503572 0.01017943 0.02079801 0.017431492 0.027953744 0.0031970544 -0.00505599 0.031047972 0.024453519 -0.021029398 0.0015930488 0.011011859 0.019696139 0.015003795 -0.002986393 -0.0024424652 -0.024279049 -0.004020998 0.0072290013 -0.01254368 0.012753701 -0.016316261 -0.005831096 -0.009417921 0.00073625933 -0.009999159 0.021006886 0.009832686 0.0019241684 0.0036309033 -0.009598206 -0.008243936 0.010274662 -0.0030465089 0.0038447368 -0.00912373 0.001213783 0.013747702 0.005985111 -0.013322548 -0.027027199 -0.02246617 0.01817644 -0.022808854 -0.009086142 -0.02309839 0.0010287822
和 -0.010237422 -0.018467916 0.006419767 0.020674156 0.027900506 0.0025813382 0.018874666 0.0033979453 -0.0067579965 0.017694483 -0.008613448 -0.0008943013 0.0064575444 -0.012635053 0.00520532 0.016673153 0.005714809 0.01637059 -0.02446516 0.03371025 0.0060651232 0.008660555 -0.005571657 -0.017864557 -0.017614033 0.011723409 0.007015684 0.0054618213 -0.0019306256 -0.015241138 0.008107277 0.004629039 -0.018014962 0.0112671275 -0.0124260625 0.024040382 0.027160427 -0.021293372 0.020280644 -0.0079304455 -0.019568719 0.02147154 -0.0019070364 -0.012803789 0.021828877 -0.0020883002 -0.007873212 -0.005891842 0.01572833 -0.001236032 0.0019726735 0.010056888 0.008797473 0.012146299 -0.016751638 -0.006080793 0.015598648 -0.0155047905 0.008583409 0.009092174 -0.0010291794 0.0065274592 0.005593645 0.013533848 0.019765168 -0.0068708956 0.0025199337 0.02224758 -0.013624515 -0.006098294 0.007005898 -0.008839622 -0.020205203 -0.0069448776 -0.0051740822 -0.0046257833 -0.00578499 -0.013753569 0.005028651 0.030457964 -0.00010150399 -0.009976738 0.012355655 0.026005872 -0.004792961 0.018062463 0.01720796 -0.030978424 -0.004463186 0.008374462 0.0104308175 -0.014866274 0.006560001 -0.018247044 0.020180818 0.025085563 -0.023448613 -0.020812703 0.0010016375 -0.016453229 -0.018551616 -0.004778688 0.01443237 0.0074249334 0.009112659 0.012139718 -0.0028777865 0.0084409565 0.02567196 -0.012774264 0.016487127 -0.017600335 0.008035048 0.0135323405 -0.007686914 -0.0030203455 0.012154501 0.0014077815 0.0053268014 0.0034510978 -0.011189288 -0.015598094 0.0036503419 -0.0025225177 -0.0030486514 -0.007829327 0.010861924 0.0005770437 0.012147165 -0.01002541 0.00609721 -0.0027190747 -0.0031536352 -0.014273912 -0.0005843395 0.0012507415 0.004448587 0.013755397 0.023737121 -0.010571499 -0.0023722216 0.001228973 0.01707808 0.0123013025 -0.048541885 -0.005776433 -0.012847233 0.0029780355 0.024139447 0.011666876 -0.015459795 -0.020811114 -0.019890964 0.0057093645 -0.032909013 0.0041460353 0.02536453 0.0048701996 -0.017837768 0.0040363315 0.011594229 0.0012049655 0.01105373 -0.0015190265 0.004798299 0.010471801 -0.0087711075 0.018935507 0.019549549 0.010686012 -0.008228309 0.0017998178 0.0035290383 0.013424576 -0.024234826 -0.0077268938 -0.015177725 -0.0008762117 0.023957 0.0094873 -0.0070067127 -0.0033345178 0.011374489 -0.0022930265 0.021490868 0.0061029647 -0.033991355 -0.005736327 -0.019221613 -0.01050881 0.018501224 -0.0038172568 0.022379091 -7.533004e-05 0.007866961 -0.007938156 0.0017496158 -0.023637295 -0.014153153 -0.00861074 -0.029647533 -0.0021534397 0.011587117 -0.021360105 -0.00872834 -0.005862798 -0.025894294 -0.010112724 -0.017255923 -0.0037306098 0.014659599 0.019733235 0.021290688 0.026045924 0.0012193773 -0.004507635 0.022399535 0.017953975 -0.020723203 0.004466998 0.0058573266 0.020867256 0.010638631 -0.007830055 0.0028569044 -0.017518606 -0.0070558786 0.0043241656 -0.0128806755 0.01141297 -0.016080812 -0.0064976993 -0.009016318 0.001424976 -0.006339749 0.024020487 0.014429045 -0.003187833 0.0056333793 -0.005458742 -0.004365629 0.008303968 0.0023007158 0.0019030012 -0.006791526 0.0032845258 0.013209462 0.00634437 -0.011103837 -0.020388857 -0.014405706 0.014785871 -0.017664865 -0.005337095 -0.015562446 -0.0031986013
Di02 -0.0059928 -0.012509686 0.0074954247 0.014535613 0.01798984 -0.0012522186 0.01660875 -0.0006550481 -0.0037488663 0.012622648 -0.0028041212 0.00092847645 0.007291363 -0.014272833 0.003819745 0.017601317 0.0015899088 0.012190556 -0.019515457 0.027527506 0.006089227 0.0046706297 -0.0061025335 -0.01484844 -0.017080666 0.003837053 0.004838391 0.008881055 -0.0047101835 -0.00788895 0.008567525 -4.3029493e-05 -0.014252836 0.007606262 -0.012477891 0.019732311 0.024467448 -0.01156237 0.021241704 -0.0061431127 -0.014405627 0.01344176 0.0010067099 -0.010813869 0.017543193 -0.0010674268 -0.00078460475 -0.007269642 0.010815587 0.0019968376 0.0012851642 0.0017888434 0.0008384444 0.007989865 -0.013911223 -0.00422054 0.01305107 -0.018210165 0.0028428796 0.011427556 -0.003764091 0.010141525 -0.00087104645 0.005459385 0.011305778 -0.0067494595 0.00017142101 0.012459922 -0.0124361925 -0.0027706528 0.0074921683 -0.007482221 -0.01799127 -0.0051912176 -0.0050591957 -0.004734724 -0.0006256152 -0.012571735 0.0076639787 0.027933646 0.0005664151 -0.0039304825 0.013554421 0.018976482 -0.00623383 0.017657878 0.0077643055 -0.02720056 -0.00096338807 0.0006800786 0.0032217063 -0.013890285 0.0056579374 -0.011539839 0.014053558 0.020160682 -0.017601484 -0.012507042 -0.0016988269 -0.0110459495 -0.01866789 -0.0009145648 0.013583665 0.0064082355 0.0042934786 0.00920055 0.0038162046 0.0032895003 0.016932305 -0.011154577 0.008534597 -0.010754603 0.007381657 0.011370426 -0.0019495469 -0.0054197293 0.0085498225 0.0006638845 0.0005597003 0.00053611025 -0.006487601 -0.011574671 -0.0023290392 0.00051158294 -0.0016336035 -0.005015769 0.007817394 -0.00023265775 0.010328043 -0.0034093894 0.005738744 -0.0056017507 -0.0010327024 -0.012976487 -0.002034357 0.005057485 0.0041593527 0.011781113 0.01473362 -0.009325544 -0.0051680594 -0.003376771 0.015293312 0.009741559 -0.03325697 -0.0033833128 -0.009593696 0.0030296857 0.014966056 0.01203676 -0.009860984 -0.018113144 -0.015131428 0.0056926096 -0.0227803 0.003939696 0.016531162 0.006114881 -0.014046553 -0.0008094285 0.004346823 0.001241903 0.0041029043 -0.0024654034 0.003924205 0.0044872714 -0.008867778 0.013246377 0.01926934 0.007555426 -0.0066876286 0.0051982724 0.0020048923 0.00849889 -0.017776968 -0.0066540116 -0.017175961 -0.00335999 0.020904582 0.009166162 -0.0025534153 -0.0039062027 0.012965303 -0.0024410097 0.023043016 0.0072484077 -0.02284469 -0.0035211856 -0.020097945 -0.005674904 0.015992356 -0.0056175906 0.0171706 -0.002516659 0.007631834 -0.010288323 -0.00069719524 -0.015505823 -0.008406206 -0.0051858188 -0.024625348 0.0014240071 0.003829207 -0.019669674 -0.005781997 -0.0046798326 -0.022059033 -0.007923158 -0.0126338955 -0.0013188375 0.01092994 0.014865909 0.01549865 0.019245978 0.0064624087 0.0001850491 0.019166024 0.016413016 -0.017524129 -0.00026865242 0.0022556698 0.013478725 0.0073788455 -0.0062964214 0.0016226062 -0.013475048 -0.009312556 0.004879931 -0.006059625 0.0093921255 -0.011445275 0.0014265457 -0.00021773415 -0.0015020095 -0.0059631155 0.012796638 0.00659769 -0.00036703245 0.0047820457 -0.0048219017 -0.008719935 0.009820891 -0.0040621688 0.006836381 -0.005349157 -0.0023582268 0.011635633 0.0065365536 -0.013394105 -0.01899741 -0.010069295 0.011405024 -0.009546072 -0.010582603 -0.014179195 0.0012845189
把 -0.0076484284 -0.013766081 0.0028882008 0.015209068 0.017977407 0.0028166517 0.015231166 -0.0013182021 -0.0041186255 0.013282126 -0.0057085142 -0.00034960214 0.0057322616 -0.014964895 0.0052497727 0.015876113 0.0063089416 0.0131561775 -0.017309928 0.025445092 0.0075612455 0.005872301 -0.010227014 -0.016945701 -0.017258063 0.008453669 0.00067747635 0.004981798 0.0004758435 -0.013265699 0.01045368 0.0021973853 -0.016600464 0.0042081247 -0.010061087 0.021500496 0.020949872 -0.016822433 0.01694686 -0.005280373 -0.014858235 0.01829632 -0.0029296943 -0.011264197 0.018359723 0.00018120008 -0.0022321043 -0.008430792 0.007157165 -0.0010672498 0.0042167013 0.0042004064 0.0044798497 0.008430968 -0.00871328 -0.005959481 0.013741589 -0.015063221 0.0030191622 0.006083196 0.0003829463 0.006335734 -0.00054090755 0.010887203 0.017430501 -0.007635341 0.0040530274 0.015590088 -0.0110055115 -0.0062329364 0.0015728307 -0.0078891115 -0.018918293 -0.002792529 -0.003082063 -0.0018935074 -0.004135459 -0.006864878 0.006630412 0.023305075 -0.00078199 -0.0058570425 0.009076463 0.016601535 8.774965e-05 0.019344976 0.008293703 -0.028166186 -0.0029253478 0.0043538082 0.0026356052 -0.009356048 0.0022078226 -0.012296358 0.017693391 0.019565238 -0.015845811 -0.01608579 -0.0025709376 -0.010653558 -0.016966652 -0.0050688963 0.015097488 0.0020316595 0.008361849 0.0071001644 -0.0030324406 0.002195514 0.021816006 -0.01366007 0.013017165 -0.015668955 0.008581574 0.011089382 -0.00200115 0.0010306407 0.006173408 -7.8033656e-05 0.00056136004 0.0042357235 -0.006044941 -0.010599088 -0.00047382645 -0.0008907091 -0.003623891 -0.008413082 0.011493722 -0.0027504044 0.012211742 -0.009035673 0.0081202295 -0.0053745075 -0.0019772358 -0.01668752 0.002902059 -0.00018142292 0.00747547 0.010644869 0.020943178 -0.008988965 -0.005121724 -0.004335179 0.018708691 0.00912464 -0.035263848 -0.006149463 -0.0065392554 -0.0007402061 0.016508106 0.012110006 -0.013375516 -0.014520678 -0.014647151 0.010402327 -0.024013124 0.0055372007 0.022292452 0.0073607634 -0.01754255 0.003787631 0.01002259 0.0034275488 0.0081209075 0.0030519085 0.005990587 0.006798671 -0.0060059084 0.017335918 0.017970629 0.0120470505 -0.0067800814 0.0031685638 0.0020460915 0.009048699 -0.023437455 -0.0027930636 -0.0149959205 -0.0011108768 0.021456081 0.0024459285 -0.0039017017 -0.006043865 0.0103768 -0.0037412848 0.01687948 0.008009193 -0.028793637 -0.0054413374 -0.01905569 -0.0067762486 0.01431817 -0.0089959 0.018580679 -0.0049364013 0.0053057186 -0.011602357 -0.0013603708 -0.019105751 -0.008903026 -0.010066315 -0.025824875 -0.0030498516 0.0042866915 -0.019260952 -0.0053651743 -0.0051497226 -0.024449874 -0.011815466 -0.012916517 -0.005319463 0.007987536 0.018995885 0.018369675 0.017495332 0.0061874366 -0.0064429347 0.020971702 0.019461062 -0.01703619 0.0054562613 0.005104547 0.015971515 0.012672042 -0.008370595 -0.0012837225 -0.01816901 -0.006225048 0.001591989 -0.008573934 0.0049171923 -0.010560143 -0.0027513974 -0.0018629073 -0.0050317748 -0.0077636195 0.019807851 0.012627958 -0.0011235308 0.0035807723 -0.007583937 -0.0053047454 0.004679873 -0.004321569 0.003904938 -0.008044993 0.002723963 0.0069667613 0.0042488337 -0.01083001 -0.019322937 -0.014310742 0.013745448 -0.016642181 -0.006693443 -0.012724842 -0.0008981638
Hc10 -0.0066885105 -0.011288744 0.00874375 0.02045879 0.025763983 -0.0037631209 0.020369584 0.003729093 -0.010338317 0.014245829 -0.0031777325 0.0021415907 0.0012497411 -0.013829858 0.0058818343 0.018914245 0.0058511696 0.008554046 -0.015707655 0.026757374 0.009318453 0.009771146 -0.010010257 -0.01970993 -0.015069416 0.0046893903 0.00095954246 0.007290787 -0.0055978014 -0.009658557 0.011198588 0.0025006812 -0.012473788 0.010911392 -0.009026361 0.023398146 0.027865915 -0.013649453 0.023514029 -0.0061362307 -0.018241046 0.021823296 0.000733701 -0.00541969 0.0169853 -0.0012642228 -0.004183511 -0.0038100767 0.007552038 0.0018386898 0.0056780605 0.009968964 0.0033773954 0.008399526 -0.008917806 -0.008342727 0.017100232 -0.02057657 0.005796142 0.011133891 -0.0016427754 0.004859553 0.0013878507 0.011651026 0.016088603 -0.010178767 0.0059527783 0.01985744 -0.013314608 0.0007951326 0.001982299 -0.005662579 -0.014378555 -0.006300795 -0.009625249 -0.0009555155 -0.006347609 -0.013577973 0.0035391091 0.029655978 -0.005711935 -0.0057007126 0.009479582 0.02255778 -0.0057411427 0.015727257 0.015301474 -0.03205947 -0.0032717385 0.0037220023 0.0039022223 -0.017231103 0.0074768714 -0.01713301 0.017415036 0.017132873 -0.018319126 -0.017186401 -0.0010569737 -0.012896021 -0.021635579 -0.0025530648 0.012368129 0.0044054766 0.0049694064 0.0059858332 0.0026707156 0.005997209 0.0237135 -0.01139012 0.015629152 -0.01792523 0.001546196 0.009598226 -0.009991957 -6.7313435e-05 0.013244525 0.00421006 0.0061130975 0.008289458 -0.0070999255 -0.011213762 0.0040410003 -0.002724021 -0.005647229 -0.009575351 0.009703148 0.0010085104 0.016526677 -0.011422313 0.004708294 -0.0005642875 -0.003823326 -0.019205116 -0.00013245705 -0.00013487482 0.0044586975 0.007852953 0.019175258 -0.0046960907 -0.0021512741 0.0012461622 0.021470841 0.013800263 -0.0432424 -0.0035943608 -0.013962009 -0.00012085498 0.021251602 0.016403403 -0.01316354 -0.022889232 -0.012000496 0.0070953695 -0.027999919 0.0068749366 0.025618862 0.005737883 -0.015980005 0.0038622953 0.010457222 0.006182287 0.010365027 -0.0006363855 0.005383405 0.008256014 -0.00526536 0.022333633 0.019674307 0.011072314 -0.0016710574 0.0057567325 0.0060217795 0.0073569645 -0.022768425 -0.00086985005 -0.017698918 -0.0005433446 0.022678563 0.0033621667 -0.0014859262 -0.005057336 0.014111311 0.0024049992 0.022609955 0.005510995 -0.032078046 -0.0041259946 -0.022941168 -0.0034387626 0.016441822 -0.0062208185 0.019550124 0.0016155213 0.009216931 -0.00855604 -0.0014666782 -0.023135407 -0.009421885 -0.010749201 -0.029354183 -0.0058193672 0.009380207 -0.01826224 -0.0051387595 -0.00012958486 -0.023975367 -0.012428853 -0.014496251 -0.0046418533 0.01032358 0.021754622 0.016709194 0.024368579 0.0056713424 -0.0049696974 0.020815747 0.022052841 -0.016667947 0.001913765 0.0060315584 0.013682487 0.0122448355 -0.0068463953 0.0028318393 -0.018673392 -0.006778162 0.006489237 -0.012319424 0.007949241 -0.015267946 -0.0021867391 -0.0039127106 -0.0007675588 -0.0066469377 0.01909439 0.010709264 -0.0009035593 0.0060476842 -0.0067614573 -0.008101323 0.0065386533 -0.00507838 0.00044785833 -0.008073219 0.0021685737 0.009519475 3.3071003e-05 -0.014985762 -0.017140513 -0.019437611 0.014305739 -0.01290465 -0.005059999 -0.018631961 -0.00053804024
Dn08 -0.010344432 -0.0112985205 0.004598852 0.018883439 0.02534573 -0.0010613045 0.019972334 0.0006391953 -0.0062112175 0.012460478 -0.0037489487 -0.000726416 0.0030754348 -0.01497433 0.0055966866 0.018842775 0.0027413496 0.007947025 -0.023230664 0.028892899 0.0038578578 0.0041933027 -0.0052237706 -0.017344957 -0.021167114 0.006168454 0.0059602917 0.006780849 -0.0035625354 -0.015283684 0.01084831 -0.00080481573 -0.019455021 0.009895911 -0.0140672345 0.023325607 0.026744109 -0.012877443 0.023955164 -0.008419101 -0.014590973 0.019739702 -0.0017188796 -0.010432679 0.023185646 0.0024542653 -0.0005615949 -0.005882074 0.010712018 0.0042124945 4.1632087e-05 0.005900374 0.0021242122 0.009727448 -0.015567367 -0.006628458 0.020368177 -0.018092422 0.0021876588 0.006555492 -0.0024800617 0.006782526 0.0060694744 0.01029083 0.01912364 -0.008926446 0.0011928364 0.016903138 -0.010348903 -0.00510802 0.008131505 -0.006213325 -0.021115763 -0.0065657985 -0.009476845 -0.0046979883 -0.006832477 -0.0119926855 0.0069574956 0.030150214 0.0006917625 -0.004944054 0.01445013 0.021349655 -0.0063582314 0.021995949 0.012891776 -0.027656926 -0.0044989674 0.0070032664 0.008852294 -0.017689336 0.0040104575 -0.015908923 0.01663872 0.017745921 -0.017678767 -0.015689785 0.001340708 -0.01366477 -0.021826971 0.0018837445 0.010518813 0.0024299514 0.009219724 0.006713428 -0.0005443943 0.005855298 0.02137498 -0.01571351 0.014175488 -0.01660104 0.0066364463 0.008800115 -0.0040292297 -0.0063342643 0.012692434 0.0020512368 0.003742771 0.002314088 -0.010014761 -0.0164884 -0.000854925 0.0005934623 -0.0015149318 -0.0057318765 0.008633502 0.0034781557 0.010247284 -0.008936545 0.003248792 -0.0067162025 -0.0025586386 -0.017310372 -3.112807e-05 0.0038684732 0.0045380495 0.009900854 0.018652383 -0.011649275 -0.007728359 -0.0017577927 0.02036685 0.012463309 -0.044010665 -0.00526413 -0.010040411 -0.001956343 0.021676721 0.016800642 -0.0142262345 -0.020565169 -0.013284915 0.007815811 -0.027360026 0.0021853938 0.026717242 0.007201883 -0.015358241 -0.0013579681 0.0069529745 0.0019754777 0.0032871736 0.0048760106 0.0047559296 0.008742501 -0.0053211823 0.015530758 0.020813208 0.006775723 -0.006473234 0.0055495924 0.004912772 0.009691357 -0.0251219 -0.0061047086 -0.017475305 -0.002490653 0.025133071 0.010459975 -0.0052415705 -0.0059972857 0.011138081 0.0019611882 0.020842602 0.0075764013 -0.02556714 -0.006246449 -0.020406732 -0.005031683 0.017854758 -0.007868582 0.023759527 0.0005955497 0.012772618 -0.011357579 0.0008181368 -0.024460834 -0.013688863 -0.009854877 -0.029765645 -0.0019032722 0.006089723 -0.019103263 -0.0019507156 0.0017403028 -0.020844834 -0.008839596 -0.017289205 -0.0015434624 0.009534735 0.014865426 0.02039114 0.019307386 0.0056132274 -0.0053239637 0.021619081 0.018671118 -0.020763526 0.0054720393 0.003251721 0.012510056 0.013348464 -0.0038999112 0.0029994582 -0.016303426 -0.007961098 0.003100404 -0.009031179 0.012468112 -0.014433908 -0.0038538075 -0.0040764185 0.0009146918 -0.010077603 0.018117575 0.009182177 2.155e-05 0.005757627 -0.003604369 -0.009800273 0.011773801 -0.0024885763 0.0028067536 -0.012612901 -0.0017758221 0.016258055 0.005445642 -0.016218236 -0.01832129 -0.019084075 0.009034348 -0.014238419 -0.0069837673 -0.015660075 0.0017248709
i -0.00514887 -0.016812246 0.0074441438 0.020116767 0.02371825 0.0024311482 0.014677441 0.0014233659 -0.007535925 0.018530719 -0.0064678444 0.002744972 0.0031350672 -0.01834293 0.0032862474 0.017273199 0.0071991114 0.009310518 -0.021896627 0.034273926 0.0042751594 0.0062317285 -0.0061251386 -0.019341161 -0.018056411 0.0076941764 0.0069442415 0.006192633 -0.0056704073 -0.0092880605 0.006302181 0.005366328 -0.019493505 0.009668383 -0.01258907 0.018934788 0.025291257 -0.01736748 0.021234497 -0.009542757 -0.017953198 0.016970513 -0.003967856 -0.005963638 0.02342632 -0.00039972755 -0.0060149743 -0.0034126313 0.007356832 0.0020602385 0.004774172 0.0052175093 0.0029210811 0.0042153643 -0.015235095 -0.00494336 0.017918546 -0.016968954 0.009503725 0.006168596 -0.0034105896 0.008577759 0.00020612762 0.007253241 0.018379604 -0.009778146 6.186474e-05 0.022137655 -0.012633282 -0.004542144 0.005958146 -0.005999088 -0.02154286 -0.008750261 -0.01108155 -0.0008470703 -0.006371791 -0.011121429 0.00780521 0.026916204 0.0016766989 -0.004482541 0.011762742 0.02039528 -0.0037903413 0.020751033 0.016621368 -0.029324925 -0.0046832394 0.0028781164 0.006543699 -0.017005084 0.004375203 -0.019105557 0.015506629 0.021752426 -0.01799712 -0.017813295 0.003903025 -0.014994505 -0.0143532455 -0.0007847168 0.014730213 0.0073601124 0.007291983 0.011132447 0.001502076 0.0027581293 0.020412277 -0.014039743 0.008300274 -0.015193183 0.0071751196 0.008299619 -0.0036552448 -0.003002811 0.010127317 0.0063879425 -0.00045886185 0.0022857126 -0.006152162 -0.01620344 0.0040563303 -0.0010225696 -0.005910486 -0.002725453 0.013200683 -0.0018100415 0.009558768 -0.011285063 0.0070530744 -0.0015540345 -0.0042826403 -0.015057617 -0.0043239063 0.0001499872 0.008821721 0.006697524 0.015461843 -0.0073247175 -0.0072488068 -0.0049177487 0.019846005 0.015489179 -0.044077583 -0.003381306 -0.006517939 0.0038145105 0.016824128 0.017403444 -0.014061859 -0.02133674 -0.014584962 0.0055293404 -0.030588517 0.004926542 0.026649445 0.0020192137 -0.0172987 0.001955801 0.0075728195 0.00013872031 0.009701888 0.00074524584 0.006091721 0.009870117 -0.0045479587 0.022138393 0.020695392 0.0062393877 -0.0039548567 0.002949552 0.006431243 0.014490818 -0.019988403 -0.007920579 -0.012113806 -0.0010389286 0.021030542 0.008599936 -0.0074157156 -0.005801576 0.013795249 0.0017555167 0.02399619 0.0041152043 -0.031660445 -0.009909141 -0.015714353 -0.010826188 0.018533655 -0.0060044425 0.022703102 0.0018773257 0.013849727 -0.007443111 0.003461818 -0.025429487 -0.0065620383 -0.011403565 -0.03005098 -0.0056029726 0.008227477 -0.015743693 -0.0073331646 -0.0031589386 -0.02439052 -0.011527 -0.016570456 -0.00059995876 0.011674581 0.016729714 0.015517647 0.02124816 0.002701474 -0.0017059549 0.027288863 0.021866532 -0.020430299 -0.0008304584 0.0020983915 0.013345311 0.011967496 -0.007614447 0.0017425197 -0.0132209705 -0.0050510583 0.005473721 -0.005894894 0.011333165 -0.012245546 -0.005039763 -0.005279641 0.0011612196 -0.004373825 0.017609784 0.014042485 0.00044217033 0.005825305 -0.007962861 -0.0045307144 0.008968777 -0.005319888 0.005906734 -0.012382883 -0.0023259195 0.013333935 0.007687073 -0.013436938 -0.01627039 -0.013843858 0.014175039 -0.01820829 -0.005584573 -0.019239707 -0.0034357368
Ca03 -0.0038930534 -0.015090508 0.007253739 0.013843643 0.01805656 -0.0037674138 0.011418859 0.0006642702 -0.0028550026 0.015166477 -0.008767373 -0.0031039391 0.0052660103 -0.0150545435 0.0074053593 0.017752135 -0.0011224672 0.012504172 -0.012731921 0.023981633 0.0065105883 0.0022541685 -0.0041385936 -0.01000578 -0.012744245 0.003364085 0.005703615 0.005051176 -0.0030877856 -0.008147442 0.007274654 0.0035827023 -0.015219789 0.0074425233 -0.010444558 0.017476562 0.023102054 -0.011472595 0.020629795 -0.008772392 -0.010986281 0.017758254 -0.0035928313 -0.0049913456 0.013135365 0.0036581259 -0.0017053038 -0.002285329 0.010607989 0.0029553985 0.0012371619 0.0024255 0.002753809 0.0064905128 -0.010624952 -0.009502455 0.01070118 -0.010157021 0.008378019 0.010046248 -0.004378669 0.007277209 -0.00070760504 0.011231263 0.012517165 -0.003756445 0.00055846473 0.013907794 -0.006983546 -0.001191273 0.0015106577 -0.0067261066 -0.013871972 -0.009223026 -0.0036794767 0.0010312484 -0.0049983617 -0.011180089 0.0020571891 0.021604411 0.0011584839 -0.006102728 0.0063925222 0.020195605 -0.006698708 0.01655163 0.012974071 -0.022460928 -0.0067741876 0.0059236125 0.0021156091 -0.013616825 0.007930433 -0.015796367 0.0094572 0.014811978 -0.014059077 -0.012590435 -0.0010943798 -0.011033702 -0.011009011 0.0031252217 0.014858184 0.004920433 0.0075356257 0.008478399 0.0013079884 0.007210477 0.018059975 -0.0101190135 0.008352569 -0.015774276 0.007269601 0.004931766 -0.0041295397 -0.0023829406 0.006630156 0.001457142 0.0035115327 0.0014623941 -0.0102264 -0.011776394 0.0022494064 -0.00013439811 -0.0026234877 -0.0018051355 0.0055979867 -0.0009459807 0.0071966923 -0.008623795 0.0072788685 -0.0069623217 -0.006198514 -0.016194485 0.0027893896 0.0005811179 0.0059417887 0.005744283 0.014343364 -0.006069839 -0.0041676187 -0.0046478147 0.011772453 0.010806853 -0.036585994 -0.0048331856 -0.009041549 0.0047971327 0.014565936 0.013279255 -0.011468062 -0.018907415 -0.010139425 0.0072467364 -0.023314308 0.0019546803 0.022024157 -0.00037520417 -0.014151827 0.0008117707 0.0055992906 0.00655193 0.0048955586 -0.0013230257 0.00081096834 0.0030515133 -0.00957614 0.012717812 0.011832851 0.0069933753 -0.0036256853 0.00064701383 0.0056284294 0.010191208 -0.013720322 -0.005351711 -0.010870168 0.0022101332 0.0151653495 0.0022631343 -0.0053391997 -0.0072114817 0.013207866 0.0028525516 0.021214042 0.0006712296 -0.020662175 -0.0045967386 -0.013211392 -0.008931129 0.011673148 -0.007627878 0.0147769125 -0.00056052743 0.012064588 -0.0060425354 -0.0028911172 -0.016106367 -0.009286234 -0.002154015 -0.02514602 0.0020447823 0.0033822278 -0.017614134 -0.0033035271 -0.0018897916 -0.022061389 -0.007993703 -0.01283777 -0.0044905054 0.010351693 0.015640033 0.01712635 0.020794973 0.0004229849 -0.00072662544 0.020784108 0.01719159 -0.011848758 -0.00058500626 0.0063845096 0.013126508 0.008537476 -0.006728146 0.0015392124 -0.011354088 -0.008751296 0.0074036466 -0.0063712792 0.006901577 -0.010680648 -0.0019104461 -0.0013929937 0.0005369457 -0.008257787 0.018532762 0.0076858415 -0.003541544 0.006505932 -0.0024779541 -0.003324413 0.010117468 -0.0042999117 0.00061662425 -0.0077197626 -0.0013267248 0.009098797 0.0030382522 -0.013316976 -0.01434666 -0.011676151 0.009712368 -0.010535635 -0.005336982 -0.0102853235 -0.0021516995
Jd08 -0.0022468134 -0.011796228 0.006011474 0.013096905 0.019752294 0.0006745811 0.013715646 0.0054620537 -0.009217918 0.015836626 -0.0043041604 -0.00095988775 0.0021090622 -0.014973485 0.0038956087 0.015604536 0.0053836126 0.012028086 -0.018717865 0.027192226 0.0020671193 0.005826 -0.0033901092 -0.0137028 -0.017131357 0.003324598 0.00399741 0.0053993776 -0.006005206 -0.008921162 0.007061085 0.0033964894 -0.010414543 0.006326555 -0.012523726 0.018977495 0.02159632 -0.01578608 0.015809216 -0.006886637 -0.011895929 0.013784443 -0.0043197814 -0.006687331 0.01806731 -0.0004976082 -0.003009837 -0.0032934688 0.006771085 -0.0018415982 0.0060586454 0.00074679556 0.0027711755 0.0054341755 -0.012097229 -0.005385249 0.015538267 -0.013400111 0.0074604577 0.0074006137 -0.005022455 0.0059300005 0.002215202 0.010854584 0.014511565 -0.0039934292 0.00020022602 0.011680358 -0.0054314667 -0.0014805658 0.006110333 -0.003357386 -0.010686573 -0.0088915 -0.0016979347 -0.003963711 -0.0040864088 -0.005951254 0.0017234619 0.023128077 -0.0041164565 -0.008420047 0.010073447 0.01697185 -0.0040982896 0.016945357 0.007074756 -0.02162502 0.00078318705 0.0041900924 0.002214577 -0.009422042 0.0019336292 -0.011878357 0.012783426 0.019227415 -0.011919959 -0.014620848 0.0049805096 -0.011767725 -0.010630575 -0.0041198027 0.0073114187 0.0037408296 0.0020493167 0.0060366276 0.00050064444 0.005144868 0.01263176 -0.012468367 0.0061815004 -0.012757395 0.00636666 0.0069410615 -0.0012998572 -0.0035158962 0.011158949 0.0058285757 0.0056503974 0.003599099 -0.0071176533 -0.009446425 -0.0032414675 0.0010038812 -0.0029427789 -0.0017708198 0.008983501 0.0020080532 0.009454376 -0.009895448 0.004725117 -0.001727779 -0.0064439215 -0.0136989225 -0.0019107437 -0.00012972587 0.006887046 0.008828342 0.01665065 -0.008494281 -0.0050756913 0.0004928168 0.016351916 0.011537341 -0.029871674 -0.007956307 -0.004371173 -0.0013776006 0.010897469 0.013507988 -0.009400632 -0.01926635 -0.012981886 0.009003892 -0.021545606 0.005011738 0.01781229 0.004879736 -0.011420169 -0.0036179707 0.0042677107 0.006267369 0.006067058 -0.0006998333 0.006698182 0.009575114 -0.0032924982 0.014444947 0.009757315 0.0059182774 -0.0014454364 0.00010235296 0.008916566 0.0042976 -0.019928634 -0.00540861 -0.009624617 -0.0034393677 0.01951589 0.0009687701 -0.0023041465 -0.003094751 0.010104357 0.002942474 0.018732542 0.0040694578 -0.01976178 -0.0034968215 -0.013616847 -0.0014335003 0.010555784 -0.008064559 0.015898453 -0.0021930272 0.004890325 -0.009038891 0.003204988 -0.018324234 -0.0049474225 -0.0044213342 -0.020864857 -0.0015468441 0.008151869 -0.017078804 -0.0020956383 0.0020129262 -0.019437065 -0.010308504 -0.015821006 -0.0055942694 0.009454932 0.015862547 0.015846405 0.016470285 0.0036638614 -0.0015357169 0.013905898 0.010593607 -0.011583225 -0.0019317092 0.003165077 0.010365822 0.01061284 -0.0054559903 0.004839186 -0.01260233 -0.0067610387 0.0023848217 -0.006733944 0.00447138 -0.0061605005 0.0015450264 -0.002063925 -0.004156888 -0.008046923 0.014576341 0.0072689513 -0.0023509234 0.0059798746 -0.0016326581 -0.006439298 0.0074887923 0.00071750476 0.0038248224 -0.0033495254 -0.0002724588 0.006566599 0.0028248986 -0.013064182 -0.010565542 -0.015618366 0.0088840285 -0.013096064 -0.004602568 -0.010121199 -0.004731445
Ga13 -0.010225739 -0.015599813 0.008457635 0.022884775 0.024075907 -0.0011295697 0.015624509 0.004090338 -0.011596049 0.018831396 -0.0078591565 -0.0034400334 0.008170167 -0.015869947 0.0024528264 0.016914204 0.0036984812 0.009059696 -0.020048767 0.034910087 0.0092892 0.0040293243 -0.0061228857 -0.021218732 -0.016320972 0.008829777 0.004270404 0.010223554 -0.003927981 -0.016234133 0.0076891403 -7.0922465e-06 -0.01720655 0.005371066 -0.010399648 0.019941786 0.026105812 -0.021277778 0.019909259 -0.009957368 -0.02020566 0.017757278 -0.0018349229 -0.010521566 0.02398245 0.0034937754 -0.0082173785 -0.0033257806 0.008625017 0.0042486056 0.0065176105 0.010198407 0.0018338752 0.009652292 -0.01579926 -0.008743646 0.016073637 -0.021422576 0.008119437 0.012254526 -0.0055409027 0.0063938745 0.0051544686 0.010065992 0.013257881 -0.010888917 0.003055534 0.024090698 -0.013636827 -0.00044607732 0.008287133 -0.006764552 -0.02076583 -0.008298006 -0.007062224 -0.0019306634 -0.0059048776 -0.015600234 0.009684052 0.026450705 -0.005656306 -0.0076133423 0.013979872 0.022399837 -0.0041329768 0.0205203 0.014590216 -0.028020494 -0.005665414 0.001626654 0.0038657968 -0.01269213 0.0059907353 -0.0194766 0.019406155 0.026289083 -0.017905788 -0.020762015 -0.0010045923 -0.013666278 -0.022165516 0.0007908058 0.017164815 0.003592604 0.010760068 0.007713513 0.00346285 0.005156708 0.023950517 -0.015185845 0.014350707 -0.014884602 0.004873085 0.007769692 -0.010633921 -0.0012659652 0.012783416 0.007012905 0.0012262834 0.0015898391 -0.007062089 -0.016611444 0.0020003335 -0.0001893008 -0.004210919 -0.0059548216 0.010138516 -0.0014692538 0.011832628 -0.008422901 0.0028631168 -0.0051569687 -0.004590302 -0.0140505675 -0.0005407483 0.004823113 0.0089245215 0.009734807 0.018683836 -0.004183439 -0.0013338912 -0.006055208 0.021722151 0.016718753 -0.040878907 -0.0103843305 -0.0119918985 0.002162668 0.021103585 0.014405213 -0.013394453 -0.018871121 -0.013811459 0.0091466345 -0.031223943 0.002131667 0.023496926 0.0061698 -0.01692029 -0.00032126482 0.0044012098 0.003009134 0.009953529 0.0045639593 0.007020182 0.008274692 -0.0050892904 0.020397615 0.019574977 0.012798433 -0.0071408716 0.0061518685 0.010235337 0.0133758355 -0.022454545 -0.0031217516 -0.017967967 -0.0040796534 0.023035165 0.0074474514 -0.007970659 -0.0054863594 0.016477928 -0.0037710308 0.025316603 0.008576687 -0.03423297 -0.007876559 -0.024356488 -0.010778922 0.018524723 -0.009688392 0.024431366 -0.005354326 0.0076065534 -0.014401582 3.379055e-05 -0.022586538 -0.0135396775 -0.011705634 -0.030538177 -0.0031485448 0.005678947 -0.02184415 -0.0037833555 -0.0011153691 -0.022507947 -0.008902208 -0.017466234 -0.0014178407 0.01472119 0.020397924 0.019319875 0.024577715 0.00040176525 -0.0012207506 0.027051361 0.020133266 -0.015481726 -0.0003080067 0.007675676 0.013844924 0.008038633 -0.0048747105 0.0030975055 -0.015886096 -0.0104805 0.007052587 -0.009487381 0.011304574 -0.013082929 -0.0007234447 -0.0020289863 -0.0053712376 -0.011797555 0.02385509 0.010201637 -0.004111938 0.0023483955 -0.0058899946 -0.0033286507 0.008981627 -0.0019219432 0.0013665898 -0.012647716 0.0010583714 0.01307308 0.0012495717 -0.013365675 -0.024273688 -0.017923387 0.015368578 -0.016322961 -0.005043253 -0.014714219 -0.0023780563
Jc05 -0.004910627 -0.010679712 0.009149118 0.020750083 0.022016233 0.0010650592 0.018304396 0.0014262439 -0.009366329 0.01780151 -0.004824662 -0.0021964917 0.0042150174 -0.015059918 0.008968896 0.01819732 0.004780503 0.0125876665 -0.014393776 0.025469737 0.004081793 0.003563438 -0.009096944 -0.018192112 -0.01617161 0.004426393 0.008163666 0.0058462815 -0.0049320054 -0.0151598845 0.0058549903 -0.0017590545 -0.013778097 0.0080646025 -0.011298963 0.022677394 0.0222355 -0.017416323 0.018307596 -0.009237404 -0.016587071 0.0125376955 -0.0041083307 -0.008635074 0.020738682 -0.0031071436 -0.00549554 -0.004232017 0.009011058 0.0026519217 0.002178188 0.007253004 0.0073276646 0.0035973175 -0.009046851 -0.0046029277 0.014436324 -0.012245354 0.0028758075 0.0067125936 -0.006358024 0.011527084 -0.0005785137 0.008330869 0.01373697 -0.009401615 0.0068938276 0.01418099 -0.012446071 0.000775015 0.0014867975 -0.00027692565 -0.017963342 -0.0037508681 -0.0070251683 -0.0029076433 -0.007073163 -0.012322838 0.008614811 0.027315073 -0.0015159706 -0.0041753617 0.012171643 0.020045517 -0.002500148 0.0122527545 0.015203176 -0.02892624 -0.004601846 0.0041945707 0.007749494 -0.016649554 0.0051946403 -0.011368091 0.010190035 0.022609906 -0.019185884 -0.011117652 -0.0013494251 -0.008248197 -0.012359974 -0.0047227344 0.012326962 0.0018731852 0.009652088 0.012608158 -0.0015990961 0.0061647766 0.018237272 -0.0145848915 0.011148618 -0.01844242 0.0055632843 0.005198154 -0.0036498616 0.00096343545 0.008125376 0.0021256793 -0.0013670459 0.0062440736 -0.0069767283 -0.008642414 0.0018405744 -0.0040908256 -0.00076635653 -0.0019910685 0.013359637 0.003970726 0.008080155 -0.009794567 0.007825614 -0.006526019 -0.001682024 -0.01056016 -0.0021745807 0.00473373 0.00274101 0.011773751 0.019094324 -0.005489154 -0.006656868 0.0018060707 0.01921686 0.010193069 -0.03482717 -0.00347726 -0.009834464 0.004038708 0.014872401 0.011430944 -0.01006053 -0.01898103 -0.013935238 0.0045875167 -0.02201539 0.0070071295 0.02268374 0.0062852614 -0.015747257 0.0024704314 0.003847507 0.000998195 0.010175429 0.0041102907 0.0023169864 0.0052667987 -0.0043335427 0.017631272 0.01849468 0.0057990435 -0.004183611 0.0024374665 0.005392062 0.01057289 -0.022106763 -0.0021427681 -0.015329825 0.0027112125 0.018041126 0.009571709 -0.0046147066 -0.0032264933 0.008886973 -0.004665889 0.019877719 0.0035972472 -0.021313647 -0.0058005047 -0.019621039 -0.0033270917 0.013156467 -0.009009769 0.022778736 -0.002500913 0.0051812935 -0.0061736894 0.0027582885 -0.015561794 -0.008396813 -0.0037347216 -0.021713201 -0.004662483 0.010224268 -0.017866205 -0.008220968 0.001455461 -0.022928718 -0.0052659535 -0.01727372 0.0014734482 0.0067270966 0.017723292 0.019035492 0.021517098 0.0025194087 -0.0050220513 0.016723199 0.018004859 -0.012648096 -0.00040305866 0.0075304047 0.016616434 0.0058083576 -0.0037796854 -0.0016812201 -0.016507585 -0.0052270237 0.001538048 -0.010027403 0.0048873 -0.013379125 -0.0049206004 -0.00033537342 0.0016631285 -0.006704158 0.016189903 0.011314203 0.00027919072 -0.00046980442 -0.008030892 -0.0051095276 0.010989957 -4.7989448e-05 0.0074115684 -0.0050278674 0.00041096268 0.01441344 0.007169223 -0.008019942 -0.013286182 -0.017706955 0.012509986 -0.01710433 -0.009627605 -0.017450592 -0.000522606
f -0.007873808 -0.017608996 0.008781432 0.022918325 0.02507691 0.0021799037 0.016194146 -0.00023634285 -0.006660658 0.015444575 -0.008988912 0.0011055312 0.0037728378 -0.017183173 0.0071835266 0.022361588 0.0058237514 0.011710281 -0.016893115 0.033033922 0.010014314 0.0055389586 -0.008058486 -0.014179946 -0.022310318 0.0109972395 0.0051310854 0.010400123 -0.0034998504 -0.014647705 0.006089451 0.0012943547 -0.017257124 0.0048346976 -0.011108949 0.025927313 0.028668588 -0.019886775 0.019707445 -0.010457048 -0.014384583 0.015257027 -0.00030599465 -0.008160926 0.020547394 0.0036892288 -0.00088645297 -0.005315215 0.013171654 -0.0021705988 -0.00014150572 0.0050879824 0.008600274 0.008992186 -0.009826369 -0.010634198 0.018748969 -0.017097235 0.0055931155 0.008500757 -0.0016429698 0.0054129 0.0054741916 0.013274725 0.015096575 -0.010308953 0.0005927493 0.016911339 -0.012665521 -0.0020062046 0.0035336572 -0.005257046 -0.022436023 -0.0085522365 -0.008101693 -0.0045504943 -0.003336312 -0.0073881964 0.008660439 0.029582692 -0.0038946585 -0.00809855 0.0131321 0.022077225 -0.0006184197 0.018083017 0.016145945 -0.027227828 -0.0027708577 0.0073110843 0.0046623377 -0.016455451 0.007928338 -0.012622351 0.017208528 0.020008843 -0.016905908 -0.016157957 0.0012463869 -0.008970051 -0.016946774 0.00046628655 0.013899679 0.0021092691 0.0062648524 0.011212451 -0.0013410598 0.009559763 0.025105296 -0.01665963 0.010299281 -0.01929554 0.005061406 0.008643157 -0.0077036913 -0.003456346 0.01176713 0.008231956 0.0011674376 0.0018341237 -0.007882026 -0.016457494 0.0031177292 -0.002360141 -0.0057154056 -0.009266509 0.0073035615 0.0019793275 0.0144606 -0.006816135 0.005814311 -0.003919809 -0.00219942 -0.01673981 -0.0041892533 0.00185468 0.008455964 0.009483698 0.018928548 -0.008652465 -0.001029745 -0.0035129727 0.02230915 0.010937545 -0.046222206 -0.009359228 -0.012391816 0.002508132 0.020987686 0.014708832 -0.0075280126 -0.02000293 -0.013565269 0.008955818 -0.02822954 0.0063281627 0.024958104 0.007625616 -0.019442875 -0.002967889 0.007351323 0.002765367 0.00612924 0.0016454024 0.002942696 0.005711528 -0.005072609 0.017865796 0.017095892 0.009118559 -0.00488161 -0.00029177466 0.0055450625 0.010751102 -0.018945884 -0.007688413 -0.018351369 -0.0016483377 0.022469858 0.0043524005 -0.0071553844 -0.00904829 0.01573784 -0.0046714507 0.021940775 0.0052722977 -0.02874923 -0.012673386 -0.016517848 -0.008053806 0.015224736 -0.009684516 0.02043593 -0.0005356049 0.012021314 -0.009915478 0.0023531858 -0.024676492 -0.010252918 -0.008984964 -0.028271334 -0.00056443136 0.008202523 -0.021973424 -0.0037389162 0.00027730898 -0.026536582 -0.008682004 -0.018118292 0.0009625486 0.0123705305 0.019337917 0.017191995 0.019202849 0.007411815 -0.004331157 0.026924852 0.020602366 -0.021369798 0.0015860158 0.007140934 0.015136247 0.0150409285 -0.0074073607 -0.0017697333 -0.015767014 -0.007892029 0.0023214982 -0.008939214 0.011214815 -0.014297121 -0.004611328 -0.0077879787 -0.0010994029 -0.009458174 0.023224209 0.010469198 0.00030183667 0.0023949582 -0.0028299356 -0.006561378 0.0057124686 -0.0044448893 0.004063598 -0.0059324014 0.00162918 0.010430016 0.001411429 -0.016913183 -0.017949251 -0.020132389 0.014114876 -0.015501495 -0.008247481 -0.0202721 0.00054063037
Df09 -0.0065384703 -0.016426269 0.002377504 0.019860942 0.02028121 -0.0042020734 0.0145977335 0.0041935686 -0.010274369 0.010953388 -0.0057000783 -0.0043464922 0.0044604186 -0.011461607 0.008771134 0.016561309 0.0035421974 0.0116897505 -0.01872782 0.029472608 0.006541814 0.0045524784 -0.011081634 -0.013700138 -0.012767888 0.007960217 0.00086130004 0.005326294 -0.0048590857 -0.009080525 0.0044078063 0.0038744768 -0.015807224 0.002973448 -0.012709694 0.020363467 0.018406993 -0.016326765 0.01612462 -0.009478079 -0.0148683125 0.016483082 0.00022937133 -0.008257199 0.015978288 0.00071412773 -0.0012385036 -0.0069097555 0.0072165723 0.0031731417 0.005424237 0.00209585 0.0075079896 0.0024110323 -0.013163862 -0.008780909 0.014881003 -0.014374013 0.0063464823 0.01109312 -0.0010490433 0.0062363036 0.0004189137 0.005800899 0.013198998 -0.003278238 -0.00036798813 0.017560687 -0.0070443195 -0.0043626907 0.0018872549 -0.006259488 -0.017821813 -0.00858525 -0.0040644077 -0.0045480207 -0.0049458886 -0.0077017886 0.0057478435 0.020852838 -0.0033322067 -0.00508614 0.011144959 0.017053133 -0.0037574945 0.016313476 0.011702056 -0.02560377 -0.0011458391 0.0007794476 0.008098092 -0.016497936 0.0034147857 -0.01092763 0.011779252 0.020639332 -0.014279201 -0.017347394 0.0009322741 -0.012272295 -0.018527336 -0.0012595116 0.014259061 0.008048284 0.0041954108 0.0073460084 -0.0018351899 0.006024274 0.019561341 -0.014945083 0.011338145 -0.017685983 0.004591554 0.00961563 -0.0077361027 -0.0020213057 0.007904083 5.1568735e-05 0.0013866767 0.0058268076 -0.011284117 -0.013873117 0.00022058238 0.00045817008 -0.0016657156 -0.0013484841 0.0059528537 0.0047007753 0.00913147 -0.0091071315 0.0015381188 -0.0028020127 -0.004138017 -0.010302903 -0.0009955792 0.002914538 0.008055354 0.00545188 0.01554641 -0.008325328 -0.0066862125 -0.00049507467 0.016242871 0.0095162485 -0.035925664 -0.008405281 -0.01026622 0.00211646 0.018936083 0.014424691 -0.010754215 -0.015537562 -0.013972943 0.005492908 -0.024236167 0.0010813399 0.02157045 0.00048586 -0.01651688 -0.0015325666 0.009227768 0.003715571 0.00813181 0.004804666 0.0015955558 0.0055200513 -0.0038575444 0.018141981 0.017077958 0.0115332315 -0.00012318311 0.0016982307 0.005761444 0.011503122 -0.015011396 4.8132704e-05 -0.017020393 -0.0026018706 0.020016415 0.006058496 -0.0041001877 -0.0020601826 0.013885716 -0.0037280123 0.017931761 0.0011264612 -0.021590639 -0.005980549 -0.01782367 -0.00517484 0.0154230455 -0.0017946723 0.022054857 -0.0002530378 0.009335236 -0.0059191235 0.00030452316 -0.018218935 -0.012022604 -0.0055831084 -0.026400529 0.00044279307 0.004104992 -0.016528938 -0.0037796525 -0.0026644254 -0.023723647 -0.0067051444 -0.016116507 -0.00563089 0.010423323 0.015000576 0.017253464 0.016323075 0.0035319084 -0.0030871758 0.022160659 0.012074121 -0.0127257425 -0.002144344 0.001902979 0.013898017 0.007916591 -0.005914675 -0.0010573602 -0.012706786 -0.009168973 0.0046750456 -0.0065338705 0.0073908996 -0.01050033 0.00067773636 -0.007969698 -0.005085581 -0.0045087505 0.020027852 0.0052811056 -0.003487423 0.0027656753 -0.008501614 -0.004288316 0.011182034 -0.0038806775 0.0004972092 -0.0037609686 0.0001087171 0.008967067 0.002394733 -0.014287116 -0.018085346 -0.015289527 0.010920314 -0.01304245 -0.0034370867 -0.010884074 -0.0021542935
Jd02 -0.009729793 -0.00991604 0.002215304 0.017831484 0.018303234 -0.0010363588 0.015574575 0.00042813018 -0.007396367 0.011677471 -0.0010270417 0.0022718115 0.004285651 -0.009265694 0.0030743221 0.017776003 -0.00035934628 0.0069935564 -0.01673662 0.026073623 0.003955003 0.003318914 -0.0032996354 -0.015899789 -0.014398405 0.0073760087 0.0007310501 0.009329645 -0.0016406451 -0.01183881 0.008060632 0.004643114 -0.011391372 0.008087731 -0.010964948 0.014821203 0.023302922 -0.009869142 0.016657151 -0.007914204 -0.009610653 0.014624126 0.0015007994 -0.0066831717 0.01887232 -0.002315886 -0.0060279206 -0.0046022367 0.009263562 0.0005007665 0.0046408367 0.0011741355 -0.0004724661 0.008699457 -0.0059897667 -0.007257792 0.010447977 -0.013834327 0.003956556 0.010671549 -0.0021996277 0.005699765 0.0011638122 0.0068776337 0.0076215887 -0.0033834171 -0.00095241464 0.0126621965 -0.010336748 0.0012541043 0.0062437276 -0.003432539 -0.012088338 -0.006052949 -0.0013701314 -0.00247464 -0.0013262004 -0.009736537 0.0088016 0.024594137 0.00080951845 -0.00549411 0.008088865 0.011782218 0.0007281281 0.00987719 0.006843513 -0.019063478 -0.0037757887 0.006510868 0.0016921075 -0.0069169034 0.0047274795 -0.01484765 0.013208668 0.01360921 -0.0119045945 -0.009579317 -0.0024032935 -0.006099713 -0.011347575 0.001743535 0.0072408095 0.001427847 0.0016621755 0.00942939 -0.0009934715 0.006845411 0.017715238 -0.006090114 0.009715955 -0.012736354 0.0043316283 0.007942057 -0.008395811 -0.004207441 0.0071626315 0.0051564695 0.0022282873 -0.00031099643 -0.0066750986 -0.006907152 0.002845661 -0.0008710038 -0.0036399197 -0.0059295986 0.0071459436 -0.0014277108 0.006234706 -0.006156503 0.0048664524 -0.0011046623 -0.000996101 -0.008094064 -0.0034972695 0.0054011564 0.0037584458 0.007903339 0.012559916 -0.0073267445 -0.0032124987 -0.004679721 0.017041681 0.010822355 -0.03129663 -0.004064192 -0.004358772 -0.0009382443 0.015132203 0.010336423 -0.0069579566 -0.015569731 -0.015305601 0.008740482 -0.020333664 -0.00053532363 0.017472113 0.0005410833 -0.008528828 -0.002194853 0.0045542284 0.0023062269 0.0035169264 -6.267296e-05 0.006649492 0.007302888 -0.009546316 0.01383742 0.009162715 0.005819091 -0.001263354 0.0040229233 0.002074739 0.008505987 -0.013975406 -0.0062764627 -0.013152675 -0.0018046261 0.011642515 0.005536438 -0.0010714462 -0.0032037373 0.010656185 -0.0011655856 0.016031086 0.0012909357 -0.021262739 -0.0035527926 -0.012895834 -0.0050005214 0.014001117 -0.0034547567 0.014026448 0.0015448302 0.011107084 -0.01179336 0.0029401595 -0.018806428 -0.0072609005 -0.004020881 -0.022254065 -0.004750632 0.002498623 -0.017744336 -0.0063757184 0.0023813385 -0.015932558 -0.010616336 -0.00823396 0.0012953172 0.010728051 0.01722589 0.009132356 0.015657293 0.0038973647 -0.0015218771 0.019035656 0.010823803 -0.011054164 0.005509658 0.0007550809 0.014599043 0.009301818 -0.005604875 8.9073415e-05 -0.01600301 -0.007548749 0.005880731 -0.008260447 0.010628014 -0.011854329 -0.0048153764 -0.00094454 0.0020211078 -0.0037852637 0.01686557 0.010113898 -0.0027802922 0.006140689 -0.0066657136 -0.0058296775 0.0039691823 0.0013941156 0.0010800748 -0.005317792 -0.00029037258 0.008412752 0.00067470985 -0.011668071 -0.015468078 -0.011603087 0.009799613 -0.012907147 -0.0048038336 -0.013948504 0.0028062202
在 -0.0070848875 -0.015654739 0.004656441 0.020205881 0.01940495 -0.0027595905 0.012098281 -0.0003062591 -0.008268615 0.017076321 -0.008088447 0.0003625624 0.0044565806 -0.011305407 0.0017633836 0.019698186 0.0017369107 0.012150387 -0.021209229 0.028966965 0.0028185032 0.0034986741 -0.007812568 -0.015661005 -0.015901107 0.0072444156 0.0055815647 0.0060546743 -0.004172649 -0.01399198 0.010547822 0.003678402 -0.010240843 0.008466467 -0.011533825 0.022567283 0.019973407 -0.013118444 0.017701456 -0.0075181206 -0.012099125 0.01503178 -0.004000743 -0.0088917315 0.018283382 0.0026606226 -0.005860866 -0.0029111705 0.0080934325 -0.0016468795 0.0005585792 0.0060211862 0.0072677643 0.009917124 -0.00641698 -0.0039023517 0.013221472 -0.015660059 0.008402002 0.01095142 -0.00060763414 0.01034747 0.0035197658 0.010014668 0.010292659 -0.004137927 0.006824414 0.013600691 -0.008411997 0.00075866154 0.0061174175 -0.0011923376 -0.013141245 -0.0067901798 -0.0028622732 0.0010439057 -0.0046482575 -0.009578889 0.009715888 0.02701829 -0.004555293 -0.0077666095 0.008960956 0.019269837 -0.0030646464 0.012330664 0.012204297 -0.02138913 -0.0024597293 0.005692762 0.0065359888 -0.009317657 0.00788875 -0.012500564 0.01266914 0.01991883 -0.020009419 -0.011371735 -0.000412542 -0.0063452483 -0.019869246 -0.0021800136 0.015418971 0.0031077622 0.005366236 0.0107540265 0.004370658 0.005684474 0.016103832 -0.006973483 0.0066857706 -0.014162563 0.006660047 0.004951268 -0.007953423 -0.0057337573 0.00893675 0.005759241 -0.00055054366 0.003001372 -0.0043207793 -0.013556408 0.0015742773 -0.0013318951 -0.0035558506 -0.007408101 0.012767122 -4.7530677e-05 0.015078618 -0.007932538 0.006164904 -0.0013198477 -0.0025707 -0.011945718 -0.0031860643 0.005382129 0.00534697 0.0073958305 0.01892252 -0.0027272142 -0.005604401 -0.0015126162 0.017749788 0.009625352 -0.03578186 -0.0019370919 -0.005751266 -0.0008599171 0.014753747 0.015593149 -0.009681788 -0.021274531 -0.013730677 0.0048176516 -0.02306778 0.0038366783 0.018761382 0.0017511281 -0.010340109 0.002272358 0.0072670076 0.0036791766 0.009352546 -0.0005753505 0.006826986 0.0073792124 -0.009836087 0.012488331 0.014879464 0.011674076 -0.002967525 -0.0005767563 0.005612818 0.0079281805 -0.020920444 -0.0006039107 -0.011718461 -0.00081637024 0.01920291 0.0057540196 -0.008254717 -0.0038123536 0.01436569 0.00051821634 0.020477328 0.0030474195 -0.024188228 -0.010417073 -0.015053321 -0.005258865 0.012659862 -0.00564291 0.02112373 -0.0008232735 0.009232819 -0.0058169323 0.0013636573 -0.01799525 -0.009622124 -0.009246731 -0.027456688 -0.0029733807 0.008241359 -0.013227088 -0.0041342718 -0.003845905 -0.018973652 -0.0098983245 -0.0141591225 0.0015144004 0.012323568 0.015634147 0.012659315 0.020957168 0.0075329207 0.0005074673 0.019707596 0.01928959 -0.011623025 -0.002132714 0.0087146545 0.013517979 0.007416973 -0.0032855952 0.0044702124 -0.017883552 -0.0028494406 0.0018797406 -0.011459484 0.010167139 -0.012168316 -0.0005327441 -0.0009627762 0.0023180617 -0.004014127 0.013228623 0.01016458 -0.0041676164 0.0031880932 -0.00094769406 -0.007522324 0.009424422 -0.0035074246 9.4820556e-05 -0.0046146004 0.0017258519 0.013642278 0.0046451916 -0.010744149 -0.015122359 -0.017226072 0.013491378 -0.015422154 -0.004776998 -0.016021516 -0.00079660135
Fc04 -0.0048317094 -0.0130990455 0.002136778 0.0135026835 0.014676741 0.0030824875 0.012648515 0.0016923633 -0.010074505 0.011333406 -0.0069384505 0.00088762486 0.006401414 -0.010607232 0.008662806 0.016424585 0.0066038463 0.012322844 -0.015253576 0.02624625 0.002934539 0.003679363 -0.004605453 -0.016624521 -0.013889546 0.004021472 0.0074622766 0.0064555504 -0.0019564463 -0.012798097 0.009186147 -0.00101287 -0.016109236 0.008342958 -0.010548765 0.017724616 0.023485715 -0.011613173 0.02047963 -0.0046479334 -0.010366274 0.011691176 -0.00013630824 -0.003864752 0.015784424 0.0005602978 -0.004595769 -0.0058635958 0.0124175325 0.0010978227 0.00390159 0.0027926657 0.0059748297 0.004962379 -0.011582437 -0.005541705 0.017346134 -0.016121516 0.005944423 0.0074868263 -0.0057215113 0.0053749005 -0.00034223704 0.010883416 0.011707889 -0.008792112 0.0031862652 0.017084762 -0.004578323 -0.0064591793 0.004189012 -0.0042723916 -0.016187565 -0.0059515103 -0.0028340595 -0.0020146174 5.401663e-05 -0.008966312 0.005038285 0.025830433 0.0010088427 -0.0058709867 0.0096744625 0.019369775 -0.0047585354 0.016606221 0.010628753 -0.02591679 -0.00068049366 0.002195884 0.006226483 -0.014662722 0.0052116406 -0.010560153 0.014754037 0.01400149 -0.01821463 -0.0108553 0.0024123564 -0.009434516 -0.01735167 -0.0014920783 0.007488147 0.005004794 0.004063884 0.008438358 0.002429095 0.0063758637 0.015056259 -0.010198054 0.007221119 -0.0150955105 0.004888016 0.010664096 -0.007979512 -0.0011741676 0.011477319 0.0073130294 0.0048390874 0.0012088628 -0.0057671643 -0.007667258 0.0019917476 -0.0015048865 -0.0027328527 -0.00355289 0.0105023505 0.00448456 0.009153165 -0.009955353 0.007152277 -0.005794272 -0.0030449629 -0.0122213485 -0.0013292762 0.0002891484 0.0059110997 0.004644984 0.016231267 -0.007953612 -0.005328841 -0.00026520327 0.015498049 0.011521572 -0.03336267 -0.009052868 -0.004572053 0.00023706492 0.014266318 0.013881229 -0.008936055 -0.015174866 -0.011707405 0.007974774 -0.019180031 0.0068982807 0.019026985 0.002050631 -0.011146734 -0.0027675307 0.00930455 0.003817717 0.008146072 0.002631705 0.00343067 0.0077750683 -0.008524543 0.018917408 0.016719962 0.009238894 -0.0055083195 -0.0006020837 0.007995176 0.0100275045 -0.019645907 -0.007153763 -0.014770189 -0.00023760977 0.013510907 0.0054105343 -0.0029090026 -0.008631781 0.010750405 -0.0033722238 0.016880466 0.0034283013 -0.027215132 -0.008318941 -0.018626273 -0.008769957 0.01265555 -0.004053076 0.022524443 0.001977657 0.0057957834 -0.012659512 0.0030604086 -0.015466285 -0.0052585015 -0.007563705 -0.024300635 -0.003545147 0.0028591317 -0.012866057 -0.005330847 0.0016396781 -0.021310396 -0.0041244943 -0.014911912 0.0014296151 0.0062644477 0.011810943 0.01708197 0.014356182 -7.967143e-05 -0.0008142334 0.015425006 0.017394122 -0.012914596 -0.0011634071 0.0060128267 0.013370921 0.012218088 -0.0031859 -0.0011411017 -0.0148738995 -0.0024224801 0.0014723511 -0.004144093 0.0060251043 -0.011599348 -0.0039355042 -0.0026689502 -0.0052620666 -0.0047324393 0.0140252095 0.012091391 -0.0024663461 -0.0002000257 -0.0032204422 -0.001570767 0.008317771 -0.0020557635 0.0045761885 -0.010754906 -0.0012514838 0.008344665 0.0041448027 -0.01278747 -0.018563416 -0.015582486 0.012368002 -0.011693748 -0.0027904788 -0.011988026 0.0009549013
战略 -0.003921855 -0.009073459 0.0027987738 0.015250947 0.017309317 0.0012470495 0.010518665 0.0013592481 -0.004212984 0.010080861 -0.007981188 0.0017830585 0.0035438505 -0.010723794 0.0023398418 0.017548198 0.0028912663 0.009289395 -0.015182829 0.023725564 0.008075913 0.00081185205 -0.005529647 -0.014536807 -0.009831877 0.008000723 0.0014354222 0.00538196 -0.0043132296 -0.0067941914 0.009740586 0.0025768767 -0.00833177 0.0031572913 -0.007506625 0.014442145 0.01580217 -0.013976645 0.016162038 -0.009064237 -0.013545052 0.014179729 -0.0020699925 -0.010088937 0.018716168 0.0008210541 -0.0068338457 -0.004737427 0.005318206 0.004072971 0.0022042475 0.007633994 0.005773047 0.0040954784 -0.012691395 -0.0080983015 0.01605739 -0.013360712 0.004237372 0.007384148 -0.0058605117 0.008210083 -0.0005849091 0.011823512 0.008735711 -0.0032719267 0.0016358786 0.013382657 -0.008894173 -0.0020063128 0.005028076 -0.0029751153 -0.014159777 -0.0020763995 -0.008231322 -0.004463852 -0.0061045913 -0.0058363536 0.0041143727 0.019081702 0.0007894815 -0.008749304 0.01012679 0.019382467 -0.00037638866 0.012317028 0.0107004205 -0.01960766 0.000999279 0.0021886753 0.0054432247 -0.012856142 0.0024383136 -0.011696321 0.012538645 0.013775134 -0.012794414 -0.0147330025 -0.0009989283 -0.012899015 -0.010594801 0.0008898398 0.009541742 0.007437191 0.0062249736 0.0034376108 -0.0025333134 0.0032121676 0.013504836 -0.0069505586 0.01119541 -0.01163926 0.003675361 0.0039955797 -0.0026115288 -0.003864611 0.006648742 0.0007743682 0.0010477884 -0.00015984601 -0.005719438 -0.013256071 0.0030516568 -0.005277843 -0.00411769 -0.0045769825 0.004746619 0.0030724562 0.008060879 -0.005492717 0.007202369 -0.0017968969 -0.002787164 -0.008771011 -0.0006923527 0.003971048 0.007504432 0.0045650587 0.01511723 -0.009321539 -0.003368233 0.0016619421 0.012452655 0.0073500513 -0.029939184 -0.0021559347 -0.0053372267 -0.001203114 0.016769316 0.013361025 -0.010247208 -0.0153677575 -0.011711091 0.002707851 -0.020979267 0.006863966 0.016929604 0.0003306416 -0.013550873 -0.0035685422 0.006466242 0.005048759 0.0054798652 -9.682388e-06 0.00738776 0.0026983328 -0.007864838 0.010343056 0.01733903 0.0063975854 -0.005137659 -0.0007652313 0.007867982 0.006942744 -0.018734636 -0.0019603728 -0.014803661 0.0030637067 0.018515065 0.0034737678 -0.004863382 -0.003827955 0.006282168 0.00078663393 0.01853001 0.006331257 -0.024869155 -0.0063690934 -0.017528154 -0.0029167237 0.014847511 -0.0048865075 0.014170369 0.0005677076 0.0076196576 -0.007020482 -0.0026722392 -0.016486295 -0.008360858 -0.00289265 -0.023432145 -0.0032287866 0.00509941 -0.015121047 -0.0011420932 -0.0018517663 -0.018662238 -0.010756362 -0.015679851 -0.0011642735 0.0074860966 0.009711576 0.015786828 0.0196921 0.0053698155 -0.0037401954 0.017394122 0.017078679 -0.016066967 -0.0015136856 0.0010774872 0.013633716 0.0043051364 -0.003303009 0.0041900934 -0.012054792 -0.008726459 0.0068288115 -0.004992398 0.0033365977 -0.006835876 0.0013615409 -0.0012592383 -0.0031038655 -0.0030596324 0.012767315 0.004345453 0.001208287 0.0005891228 -0.004977634 -0.0066512427 0.0038276927 -0.0019529328 0.0033237166 -0.006069407 0.0033216104 0.010606502 -0.00080701965 -0.013074578 -0.015179587 -0.012959005 0.0070245736 -0.00811042 -0.00402203 -0.0149202105 0.0007488056
