929 256
v -0.13841732 -0.31076628 0.09155808 0.21389377 0.37236384 0.06468738 0.41429707 -0.12086163 -0.15966256 0.27639467 0.04034974 0.05689803 -0.06329518 -0.405679 0.05368742 0.3841793 0.37689546 0.21325594 -0.47203064 0.5401998 0.07812516 -0.033667516 -0.23725925 -0.24692392 -0.42538345 0.10282002 0.051492028 0.23132585 -0.15589258 -0.3633444 0.097816266 -0.08396544 -0.050592702 -0.1101163 -0.22735226 0.686179 0.3914199 -0.33599406 0.3011164 -0.2940849 -0.2918937 0.41894886 -0.23618446 -0.25992954 0.54082394 -0.16767415 0.051282257 -0.24355087 0.2060956 0.1816942 -0.03175662 0.2489027 0.15217507 0.18067473 -0.31480482 -0.19335307 0.35577118 -0.4741835 0.13181922 0.28534552 0.10019641 0.25087515 -0.11735035 0.14039975 0.24232882 -0.099369235 0.1264314 0.5596431 -0.22594309 -0.3327834 0.14647041 -0.06562272 -0.3169979 -0.52105397 -0.0075408896 0.051481456 -0.17763728 -0.26645198 0.23132846 0.5207892 0.03543852 -0.3812945 0.3360227 0.613312 -0.08778578 0.37581316 0.43217796 -0.6191551 0.025941396 0.07198657 0.1470149 -0.25719294 0.23679382 -0.3019755 0.3917749 0.38921973 -0.5984845 -0.30658412 -0.066296384 -0.18321271 -0.4092137 0.03103247 0.13264707 0.1493629 0.23389451 0.08891947 0.06463084 -0.04027398 0.2150837 -0.33973777 0.2851777 -0.1316652 0.20455241 0.14891976 -0.13064621 -0.16560814 0.27636304 0.31068203 -0.029241463 0.13385567 -0.22941278 -0.27815786 0.08975764 -0.071117476 -0.23157565 -0.045600135 0.387952 0.0061837416 0.30706173 -0.20616269 0.23145749 0.01701845 0.13652582 -0.23862892 -0.22568756 -0.18541002 -0.062609695 0.26227203 0.4659274 -0.123070054 -0.17252244 0.024256583 0.3666392 0.2776301 -0.8406498 -0.25079715 -0.31430697 0.00090021105 0.4374479 0.38532704 -0.26079595 -0.34701535 -0.29321277 0.35806686 -0.6319698 0.24372354 0.14095168 -0.10004222 -0.4093948 0.007499268 0.17886624 0.2703942 0.17905848 -0.12037875 0.1851019 0.040141217 -0.07800837 0.52825344 0.5128669 0.08975602 -0.1479424 0.014076424 0.086816505 0.12121757 -0.37076575 0.1064538 -0.4159175 0.003885614 0.6093795 -0.009370536 -0.04251692 -0.05897963 0.061504684 0.017486336 0.46538657 0.11822241 -0.5316269 -0.07805798 -0.36679494 -0.077433765 0.40063387 -0.10033205 0.5103225 -0.161774 0.21317343 -0.39024976 0.12408695 -0.55862945 -0.21975543 -0.3223871 -0.6241239 -0.24300362 0.3009993 -0.33000636 -0.050098997 -0.05101357 -0.48560524 -0.17914523 -0.40961298 -0.043269906 0.16001105 0.22551028 0.3170316 0.4059336 0.11832616 0.10175287 0.31968936 0.23653935 -0.40431726 0.027499698 -0.15666191 0.23853296 0.16562463 -0.29299217 0.082980864 -0.39882946 -0.09709447 0.019844316 -0.21999945 -0.007626479 -0.2591118 0.045092832 0.029273707 -0.19971406 -0.27627477 0.38411903 0.18708363 -0.07144726 -0.091436945 -0.1324454 -0.111459844 -0.024256421 -0.074135065 0.37523812 -0.19568458 0.12444464 0.3904195 0.13999413 -0.17314477 -0.31696808 -0.41993606 0.35686323 -0.4729734 -0.24315439 -0.71181244 0.0132354675
n -0.15654223 -0.3521914 0.09756277 0.23804684 0.42794034 0.07462158 0.46847776 -0.14071546 -0.18036641 0.31762025 0.044644207 0.06742041 -0.07192685 -0.4595212 0.06433858 0.4374172 0.4248672 0.24147949 -0.52972543 0.6190202 0.090385474 -0.03760208 -0.27304226 -0.28026435 -0.48289207 0.11406968 0.05500153 0.25876072 -0.172842 -0.41115072 0.11193352 -0.09881371 -0.05729855 -0.12132655 -0.2574447 0.77805895 0.44160274 -0.3780918 0.3430836 -0.32787764 -0.32251146 0.47032642 -0.26025566 -0.2943795 0.6069739 -0.18437178 0.061317928 -0.27994645 0.23166665 0.19993344 -0.031183653 0.2824826 0.17681958 0.19928074 -0.35666624 -0.21434885 0.40180334 -0.5347479 0.15315919 0.31700176 0.11670264 0.28120342 -0.13323326 0.16556823 0.27642068 -0.11535283 0.14820962 0.6334915 -0.25863132 -0.3755413 0.16373473 -0.07464793 -0.3556519 -0.5835514 -0.011396107 0.055784702 -0.2086492 -0.3017005 0.26454288 0.5957477 0.04515846 -0.43443313 0.37231258 0.6943009 -0.09567053 0.42552322 0.48972455 -0.6976693 0.033777364 0.07828301 0.16654229 -0.2931011 0.26432115 -0.34286785 0.43930453 0.4364741 -0.6760386 -0.34775132 -0.07811633 -0.21039255 -0.45787328 0.035552304 0.14979452 0.16455686 0.2606132 0.10446888 0.07662465 -0.048665345 0.24625319 -0.38287836 0.32263523 -0.14186016 0.23301844 0.16024716 -0.14712156 -0.19183402 0.30784324 0.35062417 -0.032933854 0.15113111 -0.26301974 -0.31045014 0.09515734 -0.07519024 -0.2673787 -0.04987119 0.44372618 0.006954702 0.34647483 -0.23761529 0.2598764 0.023615569 0.15284355 -0.27032894 -0.2600638 -0.20994136 -0.07485041 0.29238948 0.5259683 -0.14488184 -0.19605023 0.029552527 0.416706 0.3114744 -0.950969 -0.285918 -0.3623715 0.0002457973 0.49574596 0.43670148 -0.2982862 -0.38692486 -0.33208483 0.4061269 -0.71583503 0.27371585 0.15294348 -0.11474448 -0.46451113 0.0037043337 0.20457506 0.3069457 0.20590039 -0.13457258 0.20810314 0.038941897 -0.08856087 0.60264313 0.57527965 0.098215386 -0.16382621 0.022929333 0.09189654 0.1347642 -0.4167884 0.12499131 -0.46539876 0.0020685624 0.68964285 -0.011443971 -0.043978717 -0.06668635 0.067193076 0.022929257 0.5258605 0.13151895 -0.6047696 -0.079775184 -0.4138065 -0.088673845 0.45273915 -0.11519702 0.57789797 -0.18246953 0.24408135 -0.44034216 0.14192176 -0.6328073 -0.24457735 -0.36878443 -0.71051896 -0.27884266 0.3433465 -0.37430418 -0.058066417 -0.06272806 -0.5457268 -0.20321415 -0.46022835 -0.05294723 0.18724908 0.26013726 0.3517806 0.46146157 0.1276446 0.119509876 0.3585214 0.26394358 -0.45134693 0.035354607 -0.17526904 0.27629012 0.19263983 -0.33083275 0.08679328 -0.4510334 -0.1132784 0.018034399 -0.24837291 -0.01446458 -0.29218435 0.05526759 0.032961946 -0.22707826 -0.30680314 0.43309605 0.21319695 -0.08369209 -0.10270692 -0.15325683 -0.120223455 -0.025716765 -0.08279919 0.42205033 -0.22735755 0.13979141 0.44018525 0.15561068 -0.1964444 -0.35814214 -0.47280306 0.40538737 -0.5332076 -0.27342486 -0.8019919 0.016579472
d -0.11117329 -0.24830684 0.069225125 0.16133843 0.29177484 0.049960848 0.32238057 -0.0980151 -0.12686597 0.21710351 0.032462355 0.048364554 -0.051733855 -0.32125092 0.04441045 0.2974414 0.29554215 0.16926494 -0.36415538 0.42322415 0.05699246 -0.03104525 -0.18713148 -0.18977234 -0.33244538 0.08300154 0.042775705 0.17802455 -0.11615151 -0.2861981 0.07564913 -0.06784579 -0.042970102 -0.084794685 -0.17759612 0.54155296 0.30445328 -0.26253197 0.23692551 -0.23257113 -0.22225729 0.32973522 -0.18668053 -0.20088476 0.4270487 -0.13434759 0.040898543 -0.19797036 0.16410224 0.13971047 -0.01797786 0.18964976 0.12211873 0.14126335 -0.25001323 -0.14916183 0.27394187 -0.37372547 0.105850734 0.2230744 0.082145475 0.19869633 -0.090701774 0.1160821 0.18658881 -0.077595256 0.0986353 0.43771756 -0.17285255 -0.26405 0.11555412 -0.05876309 -0.2491926 -0.40888128 -0.009743519 0.04354059 -0.14305648 -0.20746164 0.18613255 0.4152041 0.025473664 -0.3004469 0.26589432 0.48127782 -0.06787204 0.29056844 0.3373265 -0.48643354 0.024912791 0.05187257 0.11314266 -0.20140958 0.18435906 -0.23581202 0.3067692 0.30359474 -0.46745616 -0.23922394 -0.04980336 -0.14456137 -0.31872717 0.027616678 0.10019417 0.11454818 0.18497427 0.075297445 0.051380627 -0.03684174 0.16979451 -0.26529178 0.22733827 -0.10089841 0.16272824 0.1160544 -0.10340093 -0.13445722 0.21500167 0.240285 -0.01956389 0.10859635 -0.1810956 -0.21506634 0.06421896 -0.05156713 -0.18670046 -0.04013209 0.30281278 -0.00036573777 0.24344675 -0.1660098 0.18222885 0.010011351 0.10810646 -0.1810585 -0.1804126 -0.15051013 -0.053438257 0.20233656 0.36178935 -0.103295974 -0.14126077 0.022127472 0.2867249 0.21417221 -0.6576459 -0.2029809 -0.25126106 -0.0023619814 0.34238848 0.2992928 -0.20416386 -0.26741356 -0.23076448 0.2829099 -0.49778458 0.18664433 0.105418645 -0.08170081 -0.3217315 0.0065988507 0.14107946 0.21329327 0.14573948 -0.0961418 0.14591387 0.031893756 -0.06472433 0.41879183 0.40221435 0.06441096 -0.11787864 0.015379048 0.06555034 0.090766706 -0.28519163 0.082820795 -0.32712203 0.0035149155 0.47407696 -0.005408336 -0.031358022 -0.04863373 0.046800975 0.015466794 0.36809102 0.09103517 -0.41693735 -0.055572227 -0.2853297 -0.06168403 0.31745338 -0.0747277 0.39647466 -0.12381905 0.16979407 -0.30838728 0.09337157 -0.43970874 -0.16905005 -0.25366423 -0.48754576 -0.19103009 0.23777972 -0.2568286 -0.039744623 -0.0431489 -0.38209918 -0.14604053 -0.3184512 -0.032911975 0.12780139 0.17361735 0.24194887 0.32018614 0.08769203 0.08435074 0.24671626 0.18597938 -0.31709704 0.024193233 -0.12091384 0.18538788 0.13026696 -0.22729266 0.06026472 -0.3115654 -0.0828221 0.01461799 -0.16636617 -0.007923186 -0.20509547 0.039515585 0.02833957 -0.15895346 -0.21678498 0.3000074 0.1504405 -0.056839913 -0.076292396 -0.10402451 -0.08140184 -0.022480536 -0.06059981 0.29648668 -0.1585032 0.09758207 0.30569935 0.11330579 -0.13095088 -0.24938801 -0.33013526 0.2847578 -0.3673926 -0.18495731 -0.55868894 0.017378658
r -0.10238825 -0.23484823 0.06768958 0.15602247 0.2809542 0.049296923 0.30370888 -0.09133969 -0.11268289 0.20269716 0.027035434 0.039842244 -0.048801143 -0.30347967 0.037923828 0.2870746 0.2797732 0.15608421 -0.34456396 0.4086507 0.059568018 -0.027336817 -0.17581773 -0.18571854 -0.3207179 0.0798882 0.038042534 0.17020938 -0.11479022 -0.27068928 0.07691305 -0.06418484 -0.04500811 -0.07538312 -0.16628623 0.513534 0.29166612 -0.24681666 0.22689922 -0.21851861 -0.21640238 0.31080782 -0.17083436 -0.19354829 0.4047306 -0.12502326 0.04556267 -0.18341225 0.14939548 0.13113496 -0.024107048 0.18156086 0.11499594 0.13709085 -0.23298045 -0.14610569 0.26450443 -0.34902337 0.09818535 0.20612386 0.07464405 0.18147177 -0.08293946 0.104396746 0.18177585 -0.06961637 0.093183175 0.41512215 -0.16647726 -0.24369553 0.10877524 -0.056003194 -0.23576424 -0.38334143 -0.0068160794 0.037670758 -0.13467833 -0.19885038 0.17338118 0.3912881 0.025834138 -0.28492734 0.24738851 0.45362285 -0.06384254 0.27625296 0.32146168 -0.45821172 0.02080103 0.051148817 0.10999302 -0.19335549 0.1721717 -0.22582659 0.29159805 0.28622627 -0.44499338 -0.2261002 -0.052123617 -0.13439675 -0.3057814 0.024245605 0.09305849 0.109358944 0.17496283 0.07181548 0.04446699 -0.033874802 0.1573274 -0.25287881 0.20615825 -0.09740721 0.15301566 0.10557344 -0.095356196 -0.12490825 0.20738831 0.2299404 -0.020228157 0.09557979 -0.17224377 -0.20352586 0.06247105 -0.049163427 -0.17375135 -0.034335934 0.29269618 0.0070584123 0.22812617 -0.15179852 0.1717024 0.010754456 0.09855058 -0.17792505 -0.17056267 -0.13567804 -0.04946031 0.18794255 0.340173 -0.09110781 -0.1313953 0.018018082 0.27557826 0.20610072 -0.62277067 -0.18833797 -0.23610744 0.0048126285 0.32654795 0.28231373 -0.19346254 -0.2568054 -0.21499138 0.26738384 -0.4714568 0.17765833 0.10708568 -0.07840685 -0.3070794 0.006543868 0.13444088 0.1985815 0.13892744 -0.08543839 0.13767079 0.031338684 -0.06329183 0.3961848 0.37916794 0.06618729 -0.10771575 0.014636688 0.0653112 0.09158382 -0.27589604 0.07835317 -0.30764404 0.004714001 0.44772673 -0.0025125772 -0.027922643 -0.042496033 0.046788134 0.018253539 0.34472078 0.0916952 -0.39276573 -0.059012935 -0.27441695 -0.05833197 0.3002025 -0.07467914 0.37628978 -0.1133386 0.16392483 -0.29059854 0.08837853 -0.41525134 -0.16151604 -0.24460892 -0.46349823 -0.18257004 0.22561553 -0.24172673 -0.04109948 -0.0439374 -0.3593502 -0.1365686 -0.30056098 -0.03463312 0.12440958 0.16770858 0.23411971 0.29961082 0.08315307 0.08053264 0.2371546 0.17119953 -0.3014067 0.021615107 -0.11142079 0.18020473 0.120549716 -0.21263264 0.06120361 -0.29104874 -0.07152874 0.009341615 -0.16438167 -0.0032224953 -0.18938653 0.03727559 0.026606942 -0.14859672 -0.19906045 0.28215715 0.13462934 -0.058680933 -0.070045575 -0.095004156 -0.082325175 -0.021913594 -0.05102018 0.27419007 -0.14275816 0.08802045 0.29053295 0.10565926 -0.12698543 -0.23642135 -0.30967507 0.2621427 -0.3499019 -0.17865622 -0.52169853 0.01010531
u -0.10152096 -0.21809843 0.062153015 0.15000445 0.27093259 0.04854607 0.29037112 -0.08821527 -0.10788382 0.20145065 0.02975753 0.042849474 -0.042478804 -0.29154065 0.035793047 0.2731511 0.26528478 0.15137503 -0.33445224 0.3912834 0.05177943 -0.027989121 -0.17263442 -0.1763938 -0.307993 0.07419779 0.033043116 0.16222355 -0.11204529 -0.25547954 0.071917616 -0.059344366 -0.040598866 -0.07620934 -0.15775603 0.49014735 0.27162242 -0.23833843 0.2134805 -0.20547634 -0.20824286 0.29792833 -0.16891715 -0.18641749 0.38438666 -0.11965453 0.040538765 -0.17205769 0.14202927 0.13286498 -0.019384712 0.18007466 0.112577826 0.12219457 -0.22796932 -0.13280562 0.253153 -0.3307151 0.0970737 0.20367675 0.067318104 0.18052523 -0.08334162 0.10410588 0.17536968 -0.06952828 0.093756884 0.3962979 -0.16027804 -0.23388174 0.098100916 -0.047699396 -0.22027196 -0.3697438 -0.0054269084 0.031934977 -0.12424842 -0.18426566 0.16578199 0.37462893 0.026765143 -0.27392724 0.23627077 0.43517718 -0.0620805 0.26393867 0.30859068 -0.43692246 0.01849342 0.047440622 0.10655148 -0.18638654 0.16488034 -0.21793358 0.27228984 0.27048635 -0.42423454 -0.22035493 -0.045597408 -0.13630605 -0.29370636 0.015630037 0.09006423 0.10785464 0.16429602 0.06580828 0.04538908 -0.03329078 0.15433604 -0.23930223 0.20354192 -0.091275 0.14793518 0.10281466 -0.09803038 -0.1233735 0.19036834 0.21654159 -0.01910651 0.09994571 -0.16496223 -0.19766054 0.06466039 -0.047141433 -0.16776663 -0.029584426 0.2787585 0.0015433655 0.22168034 -0.14702739 0.15766165 0.013566903 0.09673344 -0.16465339 -0.16197582 -0.13294367 -0.046969693 0.18523398 0.32824466 -0.092344634 -0.12703516 0.0239679 0.26676977 0.20085733 -0.59986126 -0.1796132 -0.22923405 0.004970386 0.31213292 0.27541214 -0.18664762 -0.24087976 -0.21099225 0.2573249 -0.44934663 0.16832136 0.0973447 -0.06699128 -0.29352677 0.0024617487 0.13280633 0.19151677 0.12558903 -0.085295066 0.13498981 0.028876107 -0.05551226 0.3755947 0.35720125 0.06281512 -0.099060684 0.011633801 0.055750214 0.08327105 -0.26602545 0.076102644 -0.29244313 0.0013634249 0.435303 -0.010765905 -0.024977475 -0.040477913 0.042561136 0.018503964 0.3336299 0.0818797 -0.38091096 -0.05572604 -0.26526016 -0.055867467 0.28016454 -0.07624832 0.36244556 -0.111708134 0.15499265 -0.27882168 0.08536303 -0.39631298 -0.15322393 -0.2255247 -0.44363892 -0.1686914 0.21137658 -0.22995129 -0.039429903 -0.03366304 -0.34560618 -0.12731124 -0.28762558 -0.034025714 0.11388712 0.15690185 0.21800956 0.28424567 0.08310464 0.07435936 0.22581083 0.16864914 -0.28412834 0.020881042 -0.11455319 0.16675156 0.12445676 -0.20718025 0.0534021 -0.2792885 -0.06928215 0.009742034 -0.1527534 -0.009277377 -0.18553159 0.0319304 0.021132683 -0.1410492 -0.19010907 0.27643785 0.12807979 -0.05405427 -0.060605973 -0.09335552 -0.07921404 -0.016001523 -0.046920046 0.26401561 -0.14600202 0.0890759 0.2798662 0.102412544 -0.11826469 -0.22743124 -0.29830068 0.25368953 -0.3313982 -0.17235124 -0.5062197 0.012788342
Bo29 -0.073439546 -0.15102571 0.044108234 0.11057677 0.18459833 0.032442987 0.20753942 -0.06408065 -0.08085524 0.13959235 0.019792097 0.027152518 -0.027410515 -0.20664404 0.0283369 0.19127172 0.19008803 0.108806334 -0.22877516 0.273535 0.034172885 -0.013576322 -0.1230243 -0.12406906 -0.21474038 0.049116727 0.02178296 0.110224485 -0.077941574 -0.17973056 0.04637338 -0.039310623 -0.030073434 -0.0553765 -0.10793497 0.34367186 0.19609578 -0.1636733 0.14898248 -0.14669304 -0.14045744 0.2074526 -0.112674445 -0.12562205 0.2711249 -0.0789885 0.022925833 -0.12608989 0.100950986 0.09299673 -0.011085642 0.125863 0.08009833 0.08588665 -0.15579112 -0.095748305 0.1713007 -0.22962397 0.06652111 0.13851303 0.04860268 0.12327867 -0.055170458 0.073418915 0.1191584 -0.05312859 0.062047884 0.27649948 -0.109638125 -0.16612263 0.070596285 -0.032155134 -0.1601657 -0.25555143 -0.0049330117 0.026794817 -0.08741583 -0.13262132 0.11473133 0.26329178 0.020589404 -0.18600686 0.16752714 0.30611068 -0.039932083 0.18488312 0.21824929 -0.30440488 0.015644034 0.033599712 0.07165503 -0.13008031 0.11274042 -0.14982498 0.19619872 0.19533597 -0.29594263 -0.14881736 -0.030035505 -0.0945418 -0.2010689 0.010758788 0.069225594 0.07547278 0.115016714 0.047503065 0.036033813 -0.017567681 0.10752324 -0.17086296 0.14530568 -0.060469568 0.10382535 0.0717369 -0.06861263 -0.086457014 0.13842809 0.15100913 -0.017434046 0.071798004 -0.11065835 -0.13316311 0.04350584 -0.03695304 -0.11300287 -0.02453361 0.19650395 0.0048337886 0.15697326 -0.10870508 0.11613098 0.004902596 0.06386299 -0.121589385 -0.11532735 -0.088761725 -0.028627945 0.12783606 0.23107603 -0.06476684 -0.08306622 0.016960403 0.18300289 0.13570382 -0.41929507 -0.124763355 -0.15814392 -0.0006504749 0.22029132 0.18892805 -0.13505791 -0.17169203 -0.14602804 0.17424749 -0.31576237 0.11536837 0.07322311 -0.047098234 -0.20356771 0.0057776985 0.09401474 0.13350485 0.09232617 -0.057131194 0.09377746 0.020990906 -0.042173702 0.26230714 0.25245857 0.0441166 -0.07050046 0.011044591 0.043676596 0.055255666 -0.1854764 0.050432388 -0.19941986 0.004618906 0.30187166 -0.0038990083 -0.022431735 -0.032103576 0.031099299 0.012480501 0.23141162 0.061793674 -0.26509026 -0.037925266 -0.1825192 -0.039400935 0.19480504 -0.05486776 0.25532508 -0.07940152 0.105657555 -0.1972361 0.06563602 -0.27708095 -0.1066536 -0.15876065 -0.31303978 -0.118903324 0.1512654 -0.1672317 -0.024955496 -0.0241716 -0.2359067 -0.08715214 -0.20289697 -0.026398888 0.084259175 0.113541834 0.15737996 0.20440146 0.058083925 0.04902256 0.1580359 0.11929818 -0.20029277 0.019025924 -0.07963902 0.12129904 0.08550973 -0.13979733 0.03702869 -0.1985251 -0.053732324 0.01103476 -0.10859975 -0.0010896637 -0.13192624 0.019598557 0.014286989 -0.096481115 -0.13776916 0.18863687 0.0901399 -0.03379216 -0.043765746 -0.065157294 -0.055207334 -0.0090582855 -0.03843994 0.18395793 -0.101945885 0.061329253 0.19212991 0.07347205 -0.08365243 -0.16086982 -0.211249 0.1736738 -0.23156135 -0.114345945 -0.3543967 0.012154315
的 -0.06634621 -0.15756765 0.03975523 0.11056256 0.19147138 0.031155078 0.20229284 -0.059275284 -0.076991744 0.14276789 0.015536957 0.024202948 -0.029576298 -0.20812559 0.024560912 0.19002788 0.19050856 0.11081805 -0.23382825 0.27451587 0.04162542 -0.01904603 -0.11626493 -0.12031202 -0.21295041 0.050096992 0.022588428 0.11301884 -0.07235329 -0.18230915 0.047799382 -0.03756577 -0.025330584 -0.050471034 -0.11604874 0.34184775 0.19571857 -0.16829903 0.15225439 -0.14088643 -0.14322074 0.20609117 -0.11608331 -0.13085032 0.26474756 -0.08313624 0.026414035 -0.121556565 0.09794231 0.093298465 -0.016328868 0.120508045 0.08120901 0.09206353 -0.16047442 -0.09282843 0.17313892 -0.23765647 0.06407768 0.14323188 0.05238285 0.12944062 -0.053786624 0.07492917 0.12123156 -0.054329216 0.06547304 0.27666214 -0.10897451 -0.16450298 0.06915772 -0.030201696 -0.15704532 -0.25728866 -0.0065230713 0.021441935 -0.092970155 -0.12777726 0.11245004 0.2644114 0.014467803 -0.19040304 0.16549791 0.2995326 -0.03889644 0.18914193 0.21580249 -0.30517426 0.013865951 0.03824924 0.07635616 -0.13377684 0.11435784 -0.15156797 0.19374436 0.19067091 -0.295802 -0.15514763 -0.030633198 -0.090921864 -0.20070861 0.012244502 0.06155431 0.06876209 0.11404713 0.042907536 0.02991212 -0.018358044 0.11155702 -0.16699079 0.13965088 -0.06591492 0.10713095 0.07443305 -0.06895894 -0.087843254 0.13590418 0.15391676 -0.0136164855 0.06954092 -0.116432235 -0.14179921 0.03924453 -0.032632656 -0.11445659 -0.021124395 0.19511364 0.0047724256 0.15346545 -0.10361777 0.10853655 0.012223178 0.06935407 -0.115116365 -0.110454425 -0.088721044 -0.032782838 0.12930548 0.22980759 -0.06802037 -0.083080076 0.011911323 0.18765387 0.13633858 -0.41741684 -0.13124713 -0.16361961 -0.002529476 0.21427965 0.191774 -0.13494714 -0.17313592 -0.14897297 0.17585564 -0.3116659 0.12052296 0.072577074 -0.047250085 -0.20636712 0.0058193854 0.08715286 0.13321391 0.085870855 -0.05674761 0.09281312 0.021020962 -0.039351687 0.26101714 0.25631383 0.04000904 -0.06817371 0.010959213 0.04029863 0.057728518 -0.18688788 0.051499903 -0.20017676 0.0015275824 0.30571148 -0.010286268 -0.018160539 -0.030373022 0.033458564 0.0058071674 0.23433772 0.05730498 -0.26794994 -0.04037574 -0.18447761 -0.04049693 0.19670978 -0.054694504 0.2539224 -0.07976315 0.10541581 -0.19335364 0.057940353 -0.27954826 -0.10592205 -0.15643995 -0.31559825 -0.11623574 0.1528197 -0.16541879 -0.023682177 -0.029832825 -0.23700744 -0.0869692 -0.20179608 -0.025599426 0.08013022 0.111438714 0.15583675 0.20252465 0.060528323 0.05624819 0.1629084 0.11423191 -0.1938486 0.014739535 -0.07535594 0.12103605 0.08493782 -0.1415816 0.03681888 -0.20015651 -0.054036822 0.010187935 -0.10402963 -0.003971875 -0.13036478 0.025173947 0.019468147 -0.10359434 -0.13477774 0.18907754 0.09498806 -0.032177005 -0.042049903 -0.06343899 -0.05001424 -0.008226815 -0.03288469 0.18880835 -0.10266456 0.0666779 0.19678466 0.069235094 -0.07983453 -0.15544486 -0.20569228 0.1792481 -0.22987251 -0.117012225 -0.34910393 0.011091407
-1 -0.082566686 -0.1933903 0.05798699 0.13438863 0.2327228 0.040617004 0.25598618 -0.08019632 -0.09331552 0.16763104 0.020289525 0.036845382 -0.035292976 -0.25468692 0.03496209 0.24190515 0.22873172 0.12901868 -0.2910749 0.33542177 0.048287474 -0.017346041 -0.14585404 -0.1531966 -0.26332766 0.067635015 0.036147438 0.14377655 -0.09192108 -0.22655888 0.060831096 -0.054430656 -0.030461907 -0.067120284 -0.14371796 0.4275437 0.24305025 -0.20740305 0.18933572 -0.18090129 -0.17927706 0.2572907 -0.14419967 -0.16045879 0.33526108 -0.100351125 0.036552973 -0.15634635 0.12475522 0.108159296 -0.014646379 0.15591398 0.093102954 0.11170257 -0.20004521 -0.117643714 0.22222696 -0.29226255 0.079793 0.17116302 0.06086389 0.1547087 -0.06955406 0.09299544 0.14890029 -0.061623562 0.08258597 0.34490216 -0.13879904 -0.20157595 0.09191742 -0.03851241 -0.19776922 -0.315 -0.0038003612 0.03449133 -0.11301344 -0.1632294 0.14665566 0.32248947 0.025306094 -0.23507522 0.20987843 0.37596515 -0.054346506 0.23405091 0.26275966 -0.38350895 0.014393579 0.04199545 0.08967975 -0.15687537 0.14823088 -0.1875434 0.24031664 0.24000196 -0.3682229 -0.19162296 -0.0378161 -0.11663842 -0.24889705 0.02093995 0.08218226 0.09237692 0.14371799 0.055005882 0.041702382 -0.026051208 0.1358965 -0.20599304 0.17746793 -0.076761626 0.124695055 0.092844956 -0.07816636 -0.105647 0.16939984 0.1873797 -0.017220132 0.08462087 -0.13889208 -0.17043771 0.05455261 -0.04025342 -0.14146277 -0.030733272 0.23896894 0.0017465552 0.18863511 -0.1273364 0.13659528 0.010196056 0.08035068 -0.14385745 -0.14139275 -0.11873994 -0.039235704 0.1638676 0.28364193 -0.08108613 -0.106940955 0.017212227 0.22433962 0.17480662 -0.5218393 -0.15889455 -0.19797856 -0.0015371125 0.2710128 0.24125642 -0.16205363 -0.20899253 -0.18058802 0.22086267 -0.39168727 0.14501405 0.086793534 -0.0620611 -0.25688404 0.0015843557 0.10873446 0.16421676 0.11333443 -0.06914657 0.11524446 0.023867723 -0.04658277 0.32730627 0.31472412 0.050146863 -0.08985741 0.009912145 0.051938325 0.07643849 -0.23229697 0.065734915 -0.2571754 0.0015012869 0.37396964 -0.0038667351 -0.022232838 -0.03928808 0.035195827 0.012493726 0.28901199 0.07571293 -0.32981342 -0.04739358 -0.22990742 -0.047337413 0.24784815 -0.062385693 0.3180339 -0.099138945 0.1320108 -0.24359733 0.075282514 -0.34819928 -0.13404387 -0.19943437 -0.38981012 -0.14670368 0.18357575 -0.20745866 -0.036493603 -0.030448543 -0.29683545 -0.10762124 -0.24966139 -0.028425366 0.09959317 0.14421035 0.19468956 0.25217545 0.07017253 0.06480803 0.19949381 0.14353976 -0.2459401 0.017452843 -0.09344797 0.15027723 0.10507427 -0.18064907 0.047467392 -0.24281096 -0.065472715 0.010977771 -0.1345064 -0.004478658 -0.16515443 0.03378645 0.01953265 -0.12538955 -0.16655208 0.2371172 0.11285781 -0.046693444 -0.056764454 -0.08552267 -0.067007445 -0.013790259 -0.04651038 0.2312977 -0.12137862 0.08006153 0.24134944 0.08770358 -0.10471509 -0.19612725 -0.26321036 0.2242476 -0.29139286 -0.15181294 -0.44029275 0.008512687
a -0.086704105 -0.19610597 0.059929255 0.13277599 0.24129024 0.04171476 0.26125553 -0.07740028 -0.09904599 0.17634921 0.01999376 0.034608915 -0.039722987 -0.2582649 0.037733525 0.2432315 0.23576942 0.13917086 -0.30061772 0.34737772 0.050842073 -0.024770902 -0.15123095 -0.1589269 -0.27639523 0.06647842 0.035356227 0.15043733 -0.09711398 -0.22901434 0.06270075 -0.05464639 -0.036711317 -0.0673503 -0.14520642 0.4387085 0.24502727 -0.20954056 0.19386177 -0.18822886 -0.18642054 0.26982024 -0.15201546 -0.1642261 0.3458638 -0.10360147 0.037570037 -0.15916201 0.13178517 0.11382936 -0.022308353 0.15776336 0.09884934 0.11767298 -0.19987042 -0.11902753 0.22300424 -0.29900783 0.082850955 0.17982517 0.064198256 0.16323067 -0.072013944 0.093632735 0.16022573 -0.064767 0.079372615 0.35399008 -0.14198479 -0.21559884 0.09024345 -0.042056985 -0.20320353 -0.3334556 -0.007536659 0.033187453 -0.11482377 -0.16754416 0.1464986 0.3369829 0.02601867 -0.24346337 0.21521129 0.38937715 -0.05245977 0.23682632 0.2775015 -0.39867112 0.016237078 0.04006626 0.09294751 -0.16791435 0.14951476 -0.19331537 0.24910554 0.24713753 -0.3842723 -0.19725879 -0.042218644 -0.120960936 -0.2642115 0.017293869 0.08669079 0.09707233 0.14357966 0.059781924 0.03899992 -0.030615227 0.13833156 -0.21572867 0.18042861 -0.08481791 0.13163865 0.09604731 -0.088110626 -0.10427073 0.17487784 0.19747117 -0.014357981 0.08817772 -0.14902362 -0.17539251 0.056794323 -0.040244002 -0.150349 -0.03168522 0.25080407 0.000679218 0.19749491 -0.13176869 0.1476955 0.01613473 0.08436101 -0.1531435 -0.14229368 -0.117802314 -0.0449287 0.16657974 0.29670173 -0.082552806 -0.11436357 0.020252082 0.24076511 0.17475137 -0.5377037 -0.16298401 -0.20607921 0.00047749185 0.27796376 0.24958228 -0.1716638 -0.21863063 -0.1873856 0.22991379 -0.40334612 0.15828706 0.08874726 -0.06790412 -0.2622022 0.003902311 0.11584034 0.16903993 0.11382016 -0.07847211 0.120060794 0.025595058 -0.048793618 0.34253275 0.32412204 0.056248225 -0.08980461 0.012650653 0.055564083 0.07824633 -0.24121128 0.07379203 -0.26107508 0.0068090404 0.38520703 -0.0022834085 -0.021378988 -0.039761692 0.035495616 0.014550121 0.29464915 0.07390633 -0.33894083 -0.044026226 -0.23234183 -0.050386272 0.25198218 -0.0609358 0.32887283 -0.10305383 0.13386302 -0.25286216 0.07704911 -0.35848537 -0.13765825 -0.2070906 -0.40091962 -0.15805739 0.19864848 -0.21270473 -0.037112962 -0.031678762 -0.3088174 -0.111909024 -0.26179767 -0.032782264 0.10443584 0.14442752 0.19640352 0.2588711 0.07513964 0.068645954 0.20675057 0.1499117 -0.25791788 0.017485652 -0.10040004 0.15590003 0.104402006 -0.18453489 0.051062018 -0.25592673 -0.06760779 0.013369093 -0.14228457 -0.0063500386 -0.1661296 0.034024056 0.017600067 -0.1260063 -0.17075606 0.24370731 0.118003316 -0.04384332 -0.05676962 -0.08379984 -0.0663579 -0.01568306 -0.04600299 0.23786642 -0.13038827 0.0803747 0.25042173 0.08654885 -0.109986804 -0.20261042 -0.26876694 0.2324523 -0.3014369 -0.15581979 -0.45012873 0.007561841
p -0.08564789 -0.18458977 0.048944037 0.12654419 0.22410133 0.03857519 0.24051207 -0.07387324 -0.09302025 0.16664208 0.025100034 0.03687557 -0.032097537 -0.24530865 0.037521884 0.22784707 0.22523001 0.12825868 -0.27621058 0.31841514 0.041119844 -0.016320975 -0.14340857 -0.14584757 -0.24955583 0.06127234 0.036262766 0.1360572 -0.095002905 -0.2172193 0.060862575 -0.054047547 -0.028114399 -0.061494537 -0.1376296 0.41131327 0.23343293 -0.19432908 0.18150118 -0.17897108 -0.17119078 0.24230057 -0.1404907 -0.15327841 0.32085517 -0.09853911 0.033246856 -0.14481086 0.12314052 0.108956635 -0.020740058 0.15063703 0.09374093 0.11107235 -0.1876191 -0.11567213 0.20815605 -0.27924016 0.077790044 0.17119983 0.060084406 0.15061551 -0.066448405 0.0807756 0.14772369 -0.056078047 0.07434224 0.33098483 -0.13700275 -0.20025143 0.08774585 -0.041667327 -0.18362878 -0.3048208 -0.007263816 0.03173938 -0.11016614 -0.15886422 0.13784918 0.31180292 0.021671256 -0.22698416 0.19426635 0.36567196 -0.05408994 0.22527586 0.2578704 -0.36859664 0.013374182 0.03624919 0.08495468 -0.1500786 0.14303097 -0.1783981 0.23040025 0.23291391 -0.35498312 -0.18082048 -0.0391315 -0.11358101 -0.2443365 0.011934214 0.08173827 0.08958378 0.13430975 0.050638992 0.03838808 -0.023347454 0.12679935 -0.19827181 0.16782318 -0.07408546 0.12338808 0.09022558 -0.08300698 -0.10143292 0.15716682 0.18200791 -0.021391887 0.08245882 -0.13885543 -0.16636206 0.05383503 -0.04383529 -0.13857836 -0.030475607 0.23710257 0.007059111 0.18189475 -0.12109543 0.13638654 0.008090075 0.08527705 -0.14378087 -0.1308721 -0.107764505 -0.041173466 0.15209728 0.27729285 -0.07853271 -0.10121626 0.014845076 0.22227678 0.16406928 -0.49377394 -0.15098274 -0.18476951 0.0050582485 0.26125655 0.22816719 -0.15478593 -0.20018378 -0.1697464 0.21499114 -0.3708629 0.14642237 0.08567897 -0.06171751 -0.24202381 0.0033616705 0.10813676 0.16027924 0.10296674 -0.07411431 0.10804153 0.026132494 -0.050184675 0.31081596 0.305211 0.050902903 -0.08490591 0.012322147 0.052407775 0.07353234 -0.21962017 0.06538284 -0.24070416 0.004636841 0.35812977 -0.001230246 -0.02003383 -0.034437347 0.03295065 0.013105058 0.27820837 0.07334021 -0.3141578 -0.04685135 -0.21913671 -0.04410739 0.23831412 -0.06475212 0.30653602 -0.09709129 0.12932186 -0.23502831 0.07665898 -0.32841328 -0.12711747 -0.19350478 -0.36984324 -0.14480425 0.17749125 -0.19238785 -0.030671088 -0.030097023 -0.2903946 -0.103861645 -0.2403925 -0.027745742 0.092028975 0.13637069 0.18923949 0.24430704 0.065269776 0.05770557 0.18664071 0.13642591 -0.24057648 0.01228661 -0.09286437 0.14355086 0.0933802 -0.17397642 0.048417784 -0.23142415 -0.05928126 0.009347805 -0.13322537 -0.009442448 -0.15502687 0.03198533 0.022048637 -0.118695974 -0.1612515 0.22348894 0.110134706 -0.045073356 -0.051114168 -0.079258874 -0.0671762 -0.018803662 -0.043606397 0.2169137 -0.11789483 0.07052133 0.23010541 0.08258596 -0.10536754 -0.18785323 -0.247861 0.2098433 -0.28158423 -0.14407565 -0.42362073 0.008952134
vn -0.08541164 -0.19783956 0.05788226 0.13657577 0.24265218 0.04507929 0.26538298 -0.08344449 -0.103090204 0.17403069 0.020416835 0.033286665 -0.042194627 -0.26025325 0.03550116 0.24340093 0.23372072 0.13745132 -0.29639006 0.3474844 0.051226232 -0.01867803 -0.1523814 -0.15614904 -0.27328685 0.066140965 0.034717996 0.1492555 -0.09867339 -0.22808109 0.061522383 -0.054810114 -0.030885182 -0.06899449 -0.14399958 0.43189925 0.24210985 -0.20746347 0.18836716 -0.18326429 -0.18565057 0.26291522 -0.15097621 -0.16078633 0.3451247 -0.10349347 0.037492897 -0.1568677 0.12523718 0.11719356 -0.020286256 0.16057661 0.09984751 0.112992026 -0.20582817 -0.12184403 0.22715168 -0.30131876 0.08513599 0.17528509 0.06738303 0.15779218 -0.06919408 0.088633105 0.15074223 -0.06794194 0.07894233 0.35561702 -0.14363337 -0.20768909 0.091901295 -0.04097134 -0.19916742 -0.3239568 -0.0073374915 0.035284996 -0.119209886 -0.16802178 0.14741391 0.33250254 0.02596697 -0.24381793 0.21062532 0.38753322 -0.054674715 0.23651434 0.27623612 -0.39347804 0.020251403 0.043043993 0.09381424 -0.16278563 0.1487358 -0.19141802 0.24473844 0.24749494 -0.37743792 -0.19411539 -0.045317505 -0.12221934 -0.2575633 0.015759297 0.082715556 0.09167316 0.14320481 0.057918437 0.043240506 -0.02714401 0.13422464 -0.21207625 0.18168971 -0.08327647 0.13116379 0.092089616 -0.085106745 -0.11082504 0.17608966 0.1965759 -0.019017775 0.08872397 -0.14628714 -0.17258608 0.054030195 -0.039033435 -0.14873789 -0.031856235 0.24642879 0.0077866353 0.19483432 -0.13255094 0.1474863 0.009158122 0.085669585 -0.15346555 -0.14685844 -0.120855056 -0.040326938 0.16576669 0.29543224 -0.08040644 -0.1105035 0.020834953 0.23356067 0.17721613 -0.5289564 -0.16115247 -0.19907457 -0.001888102 0.28026405 0.24602379 -0.16584802 -0.22189604 -0.18592726 0.22757657 -0.40309876 0.14924471 0.09028764 -0.06761731 -0.26136693 0.0063261497 0.11286566 0.17458878 0.1148908 -0.073218785 0.115134574 0.021517783 -0.055045515 0.3367199 0.32126337 0.053338353 -0.08889372 0.008114071 0.050799232 0.07310295 -0.23856363 0.06581026 -0.26176193 0.00709188 0.3885359 -0.007065357 -0.02761463 -0.039220896 0.033851553 0.010584138 0.29180142 0.07697118 -0.34057695 -0.046131793 -0.232982 -0.04584367 0.25273457 -0.06911255 0.3255724 -0.10336871 0.13769163 -0.24710184 0.081839755 -0.35373992 -0.13784216 -0.20255114 -0.3995001 -0.15800124 0.19489236 -0.20971401 -0.03535561 -0.03466892 -0.31107625 -0.114296235 -0.25821343 -0.030723304 0.10403345 0.1457868 0.20123969 0.253921 0.07105112 0.061823238 0.19812092 0.14595012 -0.25455588 0.014618035 -0.1003199 0.15210041 0.108976945 -0.18313685 0.054277614 -0.25466323 -0.066409074 0.010635483 -0.1343173 -0.0059554656 -0.16561046 0.031316463 0.022016859 -0.13016218 -0.17183587 0.24605681 0.12081203 -0.04398979 -0.061836597 -0.08625108 -0.06557724 -0.015614407 -0.05060911 0.23805578 -0.12860064 0.080845065 0.2490307 0.087520845 -0.107325025 -0.19869268 -0.26807517 0.22617233 -0.2941162 -0.1477422 -0.45306596 0.013307784
m -0.079234906 -0.19203076 0.05582262 0.12843518 0.2353338 0.04105541 0.25599346 -0.07297946 -0.096050985 0.1661623 0.022137864 0.03568787 -0.037826695 -0.2501798 0.038524836 0.2396539 0.23482135 0.12682843 -0.2895993 0.3351197 0.0487406 -0.022175673 -0.1511234 -0.15471338 -0.2666284 0.06836528 0.03203312 0.13717929 -0.09272056 -0.21946032 0.059091583 -0.05507973 -0.032949895 -0.062548116 -0.1421902 0.42214957 0.2348497 -0.20523879 0.18625835 -0.18188381 -0.178678 0.25714085 -0.1453251 -0.15580773 0.33384153 -0.10853662 0.03193142 -0.15078944 0.12182261 0.1057411 -0.021638408 0.14966498 0.09868561 0.11431282 -0.19329546 -0.12297664 0.2204591 -0.2879263 0.081925415 0.16827807 0.061201617 0.15327318 -0.07493013 0.08957038 0.1500579 -0.06568389 0.075323924 0.34521365 -0.14207275 -0.20706216 0.09049505 -0.042002883 -0.19514382 -0.32004577 -0.007701938 0.033471435 -0.11463679 -0.16493388 0.14100955 0.31987238 0.017944846 -0.23973121 0.20820087 0.38046518 -0.054071754 0.22557546 0.26387486 -0.38049504 0.020993853 0.043978453 0.08744575 -0.16053922 0.13957697 -0.18515046 0.23636432 0.23549567 -0.36401215 -0.18285738 -0.03944785 -0.11781574 -0.24641882 0.0128281005 0.07666694 0.087613 0.14151596 0.055237174 0.038369764 -0.026399117 0.13707972 -0.2033502 0.17549165 -0.07349566 0.12799098 0.088844694 -0.0838584 -0.100212894 0.16572542 0.18795106 -0.012758679 0.081288084 -0.14133324 -0.17319602 0.05510173 -0.038931273 -0.14841996 -0.030824436 0.24371073 0.004182202 0.1881817 -0.12877943 0.13563669 0.01700581 0.08338549 -0.14611965 -0.1385174 -0.113623716 -0.04235644 0.16169001 0.28285268 -0.08131545 -0.10445881 0.019791704 0.23164015 0.17144895 -0.5161688 -0.15869164 -0.19418 0.0046902685 0.26736358 0.23461913 -0.16385086 -0.21154791 -0.18294217 0.22103602 -0.38672632 0.15224227 0.08125244 -0.066105716 -0.25406155 -0.0007021195 0.11277826 0.16675411 0.11172359 -0.069931336 0.10788375 0.023746338 -0.054535132 0.32757142 0.3132447 0.057338264 -0.0915352 0.015194027 0.05463272 0.07431449 -0.22787341 0.07154164 -0.25224495 0.0060965423 0.37440127 -0.0024738517 -0.020683229 -0.04073098 0.034231264 0.013003822 0.28689465 0.07400528 -0.3258367 -0.041795857 -0.22822468 -0.04626184 0.24953085 -0.05992747 0.3153432 -0.09630755 0.1311864 -0.24409765 0.0756513 -0.34647882 -0.13335253 -0.20382282 -0.38354677 -0.15432036 0.19104625 -0.20474763 -0.028416784 -0.038941074 -0.29905972 -0.1096149 -0.25066832 -0.027544536 0.09825073 0.13899118 0.18915172 0.24545835 0.07314662 0.06311997 0.19847758 0.1389991 -0.2450863 0.013638593 -0.09044565 0.15067412 0.099419944 -0.1742906 0.046921365 -0.24781649 -0.06186113 0.011381116 -0.13806497 -0.010307572 -0.15720838 0.030658977 0.019882953 -0.1210446 -0.16985954 0.23781407 0.11569925 -0.040341802 -0.059124753 -0.08037859 -0.06407056 -0.017810859 -0.04929085 0.23279902 -0.11754452 0.073923744 0.24307203 0.08698793 -0.107108004 -0.1949427 -0.26058936 0.22272639 -0.2880516 -0.152223 -0.43491322 0.007334426
Jd01 -0.06383247 -0.15128246 0.046882465 0.103767104 0.18034622 0.036684588 0.20138027 -0.062549755 -0.079459764 0.13268653 0.01590586 0.028997395 -0.033868667 -0.20082846 0.028948445 0.18721479 0.18512458 0.10156844 -0.22739692 0.26542124 0.039565682 -0.01594586 -0.11188927 -0.11897603 -0.21172138 0.050237633 0.021625565 0.10859554 -0.07524142 -0.1806609 0.052614 -0.039850235 -0.026863702 -0.055716284 -0.11315156 0.32922742 0.19304156 -0.16262181 0.14828113 -0.14379328 -0.1356683 0.20388645 -0.112979755 -0.12737268 0.2625306 -0.08280502 0.030254958 -0.118922375 0.09992186 0.08869138 -0.012429568 0.116393656 0.0789027 0.08844078 -0.15624101 -0.08931178 0.17141213 -0.22539176 0.06359089 0.1394678 0.04982358 0.11943371 -0.05806412 0.0738611 0.118694425 -0.05203272 0.061927482 0.26929647 -0.10808902 -0.16513388 0.07351377 -0.03263373 -0.15048002 -0.24965377 -0.0066526677 0.026757346 -0.08837214 -0.13313729 0.11648841 0.259043 0.02201928 -0.18670933 0.15892121 0.29860908 -0.044484764 0.18616453 0.21046261 -0.29680473 0.016388914 0.03393317 0.07024957 -0.124943286 0.11935302 -0.14974707 0.18756492 0.18648942 -0.28724086 -0.14461872 -0.03481142 -0.08897782 -0.19918807 0.015332724 0.06673862 0.07324206 0.109911345 0.042643014 0.034822777 -0.016324675 0.107005924 -0.16626774 0.13696536 -0.065092996 0.09875405 0.07265333 -0.06668707 -0.08475128 0.1365912 0.15425758 -0.00997866 0.06518241 -0.11565066 -0.1381553 0.042581107 -0.037060045 -0.11733665 -0.021362286 0.18856427 -0.002142319 0.15182565 -0.105520226 0.10807407 0.008051375 0.06762886 -0.115702756 -0.11226913 -0.088281706 -0.028058687 0.122314066 0.22915424 -0.05826764 -0.08797603 0.012099525 0.18148434 0.13791801 -0.4094406 -0.12614566 -0.15203816 -0.003874267 0.20991635 0.18578832 -0.12574042 -0.16987777 -0.14038812 0.17286775 -0.30582404 0.12041349 0.06790948 -0.04732839 -0.1989403 -0.0018007575 0.092594 0.12778378 0.09008441 -0.058745474 0.085305 0.015254491 -0.037128683 0.25694293 0.2484127 0.038974885 -0.07285733 0.0060511217 0.045281444 0.054043967 -0.1777291 0.05256225 -0.19975065 0.0060798433 0.29337007 -0.006519402 -0.018669201 -0.025504824 0.033733383 0.00808981 0.22721936 0.05934791 -0.26011786 -0.0326824 -0.1808211 -0.035638954 0.19640863 -0.046526436 0.24550815 -0.07642528 0.10772872 -0.1869288 0.05529554 -0.26811644 -0.10285193 -0.15837058 -0.29896078 -0.1212594 0.14669749 -0.16247657 -0.027918426 -0.02489644 -0.23648232 -0.0901508 -0.19473219 -0.024263633 0.07555029 0.11350244 0.15667744 0.19918214 0.055699352 0.050524026 0.1542163 0.11592233 -0.19787431 0.01532618 -0.07237928 0.116557725 0.081422575 -0.13913046 0.043392465 -0.19222976 -0.044654198 0.0055790236 -0.10300397 -0.0056089107 -0.12860672 0.023400582 0.013465922 -0.09842295 -0.13116612 0.19057621 0.08813183 -0.03902333 -0.04639307 -0.060749937 -0.05752038 -0.008632035 -0.035811488 0.18186858 -0.09642325 0.056484915 0.1901342 0.07122221 -0.086715706 -0.15450323 -0.20341325 0.17561847 -0.22464435 -0.11810746 -0.34113094 0.004728384
不 -0.062322672 -0.13491358 0.042680893 0.0892262 0.16620336 0.025855571 0.18300323 -0.052327964 -0.07302766 0.12633732 0.01969561 0.024257788 -0.031994417 -0.18248425 0.023304524 0.17251432 0.1716517 0.09593931 -0.209677 0.24449337 0.030200996 -0.016561713 -0.10719961 -0.10590908 -0.19342005 0.042425323 0.02458227 0.10289991 -0.071575776 -0.1630334 0.04430071 -0.03993594 -0.028867286 -0.04917198 -0.10222505 0.31007805 0.17358465 -0.14850911 0.13402964 -0.13168263 -0.1265725 0.1861147 -0.10123971 -0.11516002 0.23725617 -0.074537136 0.029187327 -0.11311101 0.08915899 0.078426115 -0.008578254 0.10875405 0.07230183 0.07592322 -0.13839032 -0.08998989 0.1615188 -0.21007684 0.060950566 0.12316831 0.048347943 0.11402042 -0.054436207 0.05978556 0.11086507 -0.04733635 0.05170123 0.2490902 -0.101799615 -0.15253529 0.06924301 -0.032952733 -0.14258617 -0.23310803 -0.005608013 0.020769946 -0.08347901 -0.12110552 0.10017535 0.23870313 0.01824094 -0.17219518 0.15039486 0.26920158 -0.03464161 0.17104019 0.19064012 -0.2782388 0.011128783 0.032109857 0.06310367 -0.112851925 0.10903959 -0.13187715 0.17037821 0.17560357 -0.26701182 -0.1389839 -0.02756751 -0.08684666 -0.18214557 0.012433334 0.054541353 0.06538169 0.10528734 0.038878106 0.02565131 -0.016405547 0.09476069 -0.15342014 0.12690175 -0.057938278 0.09569365 0.066257454 -0.054709435 -0.07962843 0.12367161 0.1400528 -0.011606011 0.058610342 -0.10307358 -0.12349089 0.033872645 -0.03245632 -0.104003966 -0.021834802 0.17778909 0.0010248711 0.13957812 -0.09135624 0.10552113 0.0033140692 0.06155065 -0.1062188 -0.10002858 -0.0845296 -0.032787893 0.1198856 0.20451947 -0.05600492 -0.08217674 0.013010107 0.1701619 0.12433028 -0.3706318 -0.1134842 -0.13748401 0.0044977395 0.19454429 0.17044596 -0.12181855 -0.14799654 -0.13197081 0.16082846 -0.28200382 0.1108958 0.064605325 -0.044689838 -0.18116918 0.005094588 0.08240904 0.12382719 0.08136386 -0.05463615 0.0847212 0.01582817 -0.037668295 0.24041232 0.2239701 0.036182642 -0.066797316 0.0108974185 0.040765572 0.050008606 -0.1623801 0.047383506 -0.18889886 0.00017128911 0.26963615 -0.0047319774 -0.017120125 -0.030131867 0.028739773 0.012301142 0.20695668 0.054083556 -0.23757276 -0.032795914 -0.16802667 -0.03298858 0.180506 -0.04148016 0.22870946 -0.06866696 0.096933514 -0.17853203 0.0537555 -0.25022855 -0.093428984 -0.1408385 -0.28001195 -0.107736744 0.13752632 -0.14586096 -0.024126654 -0.027583279 -0.2114261 -0.085253 -0.1843292 -0.022647556 0.06944476 0.09884361 0.13545291 0.18062077 0.04950497 0.045402326 0.14376132 0.10574274 -0.17897135 0.012516411 -0.064553656 0.10758815 0.07606521 -0.12552649 0.031044545 -0.18130574 -0.0404755 0.008800288 -0.098474905 -0.0021968752 -0.118241854 0.01931605 0.010555197 -0.08582617 -0.122412935 0.16784638 0.0807794 -0.029731806 -0.043424435 -0.061316494 -0.04912513 -0.011721592 -0.03463499 0.1659042 -0.085967235 0.055230033 0.17175296 0.06399351 -0.07493542 -0.14584261 -0.18994276 0.16389836 -0.21341643 -0.10698566 -0.31930745 0.011362764
Dn08 -0.07947753 -0.17676297 0.049871966 0.11802316 0.21468373 0.041330125 0.23142765 -0.0688948 -0.086468525 0.15606898 0.01859199 0.03188849 -0.033814423 -0.2258263 0.029334148 0.21246518 0.21284905 0.12352983 -0.26627347 0.3060486 0.040598042 -0.016973943 -0.13076009 -0.1394938 -0.23798451 0.060641475 0.030711802 0.12465571 -0.08455137 -0.20295322 0.05585967 -0.045003805 -0.030954415 -0.055099376 -0.12726453 0.38613257 0.2171286 -0.19078228 0.16472642 -0.16229942 -0.1644098 0.23539925 -0.12937938 -0.14747836 0.30248794 -0.0969122 0.026774542 -0.13914901 0.11868921 0.0968095 -0.017776951 0.14245772 0.090067275 0.10469195 -0.1833899 -0.10569031 0.19587594 -0.2619885 0.07774364 0.1565692 0.05963757 0.1371802 -0.06305571 0.08257943 0.1395341 -0.054845624 0.07016632 0.31458476 -0.12956813 -0.18957536 0.081826776 -0.04237921 -0.17745042 -0.2901934 -0.002111305 0.025488572 -0.103055164 -0.15103793 0.12834527 0.2948375 0.021487294 -0.21692373 0.18663232 0.3479798 -0.04878484 0.20852625 0.2446953 -0.34588486 0.015536947 0.042765595 0.0853531 -0.14384572 0.13353576 -0.17093277 0.22160277 0.21944174 -0.33672556 -0.17347763 -0.037727874 -0.107907236 -0.22680466 0.0118415 0.07271599 0.084137395 0.1307805 0.052698568 0.032434672 -0.02236709 0.123436496 -0.18669042 0.16428213 -0.07105454 0.11888209 0.08623736 -0.07471529 -0.09468703 0.15506509 0.16958661 -0.013075047 0.0738433 -0.13116176 -0.15562735 0.051491924 -0.036626387 -0.13201128 -0.027848218 0.21883896 0.002133413 0.1710314 -0.118884124 0.12798433 0.012954972 0.077233076 -0.13005668 -0.1266664 -0.10578426 -0.039774712 0.14855058 0.26237664 -0.07482489 -0.09729958 0.0195028 0.20496 0.15450847 -0.47490463 -0.14098297 -0.18002279 0.0013442372 0.24947244 0.2117784 -0.15214325 -0.19182323 -0.16807842 0.19706039 -0.3587705 0.13459504 0.07670786 -0.05712446 -0.23009458 0.0064934143 0.10625492 0.14876992 0.10545141 -0.070244 0.102402665 0.022172272 -0.046027083 0.29705653 0.28655738 0.04856406 -0.08596428 0.009035447 0.04408308 0.06814936 -0.20851213 0.05812938 -0.2293028 0.0023070779 0.34227607 -0.0016956499 -0.023272062 -0.031315282 0.03003624 0.009590663 0.25775552 0.067526445 -0.30166435 -0.037398595 -0.2047992 -0.045205593 0.2275161 -0.053657185 0.28360978 -0.08723397 0.11732165 -0.21652406 0.07125848 -0.31388557 -0.12421486 -0.18198399 -0.35031486 -0.13685285 0.17499496 -0.1858652 -0.033593386 -0.034896165 -0.27195317 -0.101105124 -0.2280651 -0.027194291 0.09483076 0.12692088 0.17862839 0.2292838 0.06124256 0.056643218 0.17507559 0.12797865 -0.22655389 0.01820314 -0.08708237 0.1389718 0.09269082 -0.16477284 0.046675675 -0.22219045 -0.057753105 0.008551336 -0.12462135 -0.003975543 -0.14961897 0.023617297 0.014355313 -0.10791776 -0.1515252 0.21856923 0.10935299 -0.0433991 -0.050280713 -0.072661944 -0.058010757 -0.015012738 -0.03747529 0.20696668 -0.107786335 0.072174326 0.218684 0.08130145 -0.09318016 -0.17741205 -0.23323672 0.20209423 -0.26493463 -0.1318783 -0.39572173 0.007484233
Ie01 -0.057742044 -0.13454093 0.041687008 0.08821533 0.1600998 0.02810548 0.18001924 -0.05590774 -0.06390256 0.118376195 0.01903448 0.026670944 -0.023658995 -0.17766228 0.022504736 0.16717272 0.1612834 0.09389157 -0.20555682 0.23678467 0.031705007 -0.015615814 -0.10186126 -0.107534304 -0.18685281 0.04098073 0.024564559 0.100821994 -0.06943705 -0.15208513 0.045196444 -0.03943416 -0.025295876 -0.04402965 -0.101139575 0.29876846 0.17102508 -0.14156169 0.13322923 -0.12497758 -0.124843016 0.17718418 -0.09790732 -0.11460338 0.23235175 -0.07349025 0.027299132 -0.1105142 0.090526246 0.07801007 -0.014520825 0.10235218 0.06257229 0.07935382 -0.1423901 -0.08079114 0.1516063 -0.20841183 0.055542428 0.12535708 0.04266704 0.11089887 -0.053553324 0.05844026 0.102471106 -0.04367096 0.05050454 0.23682608 -0.10083235 -0.14503424 0.066178225 -0.03507043 -0.14016806 -0.22337008 -0.0029817796 0.018441904 -0.07485599 -0.11885194 0.10304856 0.2318055 0.018194227 -0.16237219 0.14811744 0.26576978 -0.040819407 0.16543688 0.18109787 -0.26961035 0.014316584 0.025578082 0.059529986 -0.11262603 0.1036297 -0.12773877 0.16879073 0.17005633 -0.25883105 -0.13001204 -0.03230234 -0.08054914 -0.1802022 0.013228049 0.058429994 0.06573182 0.09740977 0.04033922 0.03175267 -0.019516123 0.09202005 -0.14566496 0.12088212 -0.05262762 0.09327123 0.067976415 -0.052182782 -0.076082096 0.118507214 0.1300522 -0.013592972 0.054448545 -0.09875727 -0.119738236 0.033540756 -0.025297413 -0.100560784 -0.019916665 0.16663906 -0.0001415863 0.13193479 -0.08629633 0.09970624 0.0048467177 0.06089471 -0.10272634 -0.09806815 -0.07817851 -0.030732708 0.115776755 0.19774461 -0.058702815 -0.0786417 0.008703708 0.1599797 0.120389834 -0.36012572 -0.10775024 -0.13699704 0.0018082318 0.18818742 0.16609804 -0.11515318 -0.14937618 -0.12822986 0.15294191 -0.27330086 0.10493324 0.0554363 -0.041192222 -0.17776799 0.0010959373 0.07642577 0.1149175 0.07698103 -0.05545883 0.07887496 0.013288445 -0.03677874 0.226506 0.22522347 0.036541995 -0.06686862 0.010448183 0.03329586 0.049865797 -0.15806387 0.043118697 -0.1837022 -0.001541495 0.2654872 0.0014889684 -0.014346198 -0.026485492 0.02757257 0.0065684165 0.20546691 0.054264966 -0.22794072 -0.027796218 -0.16340655 -0.032210536 0.1768684 -0.042900756 0.2162517 -0.06839053 0.091611445 -0.17104755 0.0518067 -0.2376821 -0.09341535 -0.13826579 -0.27137962 -0.10103581 0.12798688 -0.14601912 -0.02496311 -0.027425803 -0.21154563 -0.0790527 -0.17476182 -0.019534485 0.0714727 0.09659631 0.13685344 0.17507353 0.053061716 0.04859968 0.13718233 0.10179896 -0.17697608 0.01002377 -0.06966219 0.104007 0.069213875 -0.12716955 0.035339274 -0.1711141 -0.047818147 0.008316062 -0.0927612 -0.0023719422 -0.11415288 0.025615469 0.017703297 -0.08605208 -0.11787794 0.16159123 0.07861507 -0.031127159 -0.039162584 -0.05635101 -0.051126163 -0.007876167 -0.0356154 0.16543706 -0.08263415 0.050014753 0.1694553 0.06450643 -0.07829005 -0.14009358 -0.17701901 0.15700942 -0.1987165 -0.108556494 -0.30671388 0.0099480385
是 -0.049746882 -0.11124424 0.028425856 0.071719274 0.13013794 0.02767576 0.14510188 -0.04750018 -0.05287195 0.09736565 0.012939757 0.02012481 -0.020959474 -0.1475017 0.019540742 0.13569687 0.13740985 0.078474425 -0.16537459 0.19034958 0.028711034 -0.012366003 -0.08831519 -0.09018826 -0.15388113 0.03778532 0.014083876 0.07914982 -0.050982624 -0.13034391 0.03874779 -0.029737087 -0.021849072 -0.04086618 -0.080151916 0.24621499 0.13605788 -0.12077236 0.104047135 -0.100707725 -0.10299404 0.14984453 -0.08360013 -0.09488106 0.19096436 -0.0599316 0.021281216 -0.091769926 0.06933481 0.060645696 -0.009344396 0.08554329 0.05591375 0.06581832 -0.1101133 -0.06778684 0.12448407 -0.16774683 0.044581622 0.096886076 0.039487094 0.08735974 -0.045095447 0.052898817 0.089752845 -0.036098387 0.045842234 0.19628413 -0.081273444 -0.1226224 0.048270732 -0.028805204 -0.11500818 -0.18056437 0.00040695778 0.017530235 -0.06411121 -0.09112215 0.083382815 0.18404914 0.0140027525 -0.13450338 0.11689323 0.21459138 -0.02599715 0.13682443 0.14878409 -0.22154632 0.010414296 0.024778921 0.048243713 -0.08753639 0.08124445 -0.10512203 0.141527 0.13735507 -0.2093405 -0.10920438 -0.028271364 -0.06547481 -0.14479138 0.005829123 0.049041316 0.048770964 0.084286496 0.03022548 0.018686932 -0.019381218 0.07924738 -0.1227081 0.10335578 -0.046084628 0.07731725 0.054606076 -0.041867204 -0.0570598 0.09423129 0.10572152 -0.012086353 0.04697207 -0.08006783 -0.09688612 0.029167784 -0.022971466 -0.08483165 -0.019449279 0.14072603 -0.0027875144 0.10955752 -0.07630104 0.08404011 0.004778818 0.049541075 -0.0868086 -0.07681933 -0.06886938 -0.021847287 0.093890734 0.16856903 -0.047011137 -0.06361186 0.006729569 0.13443168 0.097044036 -0.2964132 -0.09068814 -0.10971703 -0.0017621878 0.1547621 0.13604495 -0.096982 -0.11837318 -0.1048805 0.12905274 -0.22363113 0.08794372 0.049993373 -0.032601014 -0.1494538 0.0050689136 0.06835226 0.09594748 0.06599638 -0.039986107 0.06690491 0.012581204 -0.028265577 0.18849571 0.18341656 0.034551244 -0.05527949 0.006846697 0.026846193 0.04154317 -0.13526863 0.040011887 -0.1469316 0.0013007392 0.21829915 -0.0069444245 -0.012907992 -0.022451498 0.020523768 0.004342452 0.16201547 0.045872096 -0.1920812 -0.02413258 -0.13233167 -0.027385674 0.14354235 -0.038863286 0.17855534 -0.060083903 0.072324894 -0.14113078 0.041621458 -0.19722143 -0.077108756 -0.118371375 -0.2230411 -0.08778263 0.10474234 -0.11953259 -0.020355841 -0.022508938 -0.1747491 -0.06745889 -0.1421556 -0.019803142 0.055335436 0.083109975 0.11411513 0.14130236 0.04391183 0.033794504 0.11328843 0.08530657 -0.14368998 0.014950609 -0.05403209 0.08828679 0.062484246 -0.10595581 0.025368016 -0.14394185 -0.036167458 0.0031768265 -0.07701668 -0.0061583607 -0.09248397 0.016234372 0.013960376 -0.074465364 -0.09809584 0.13930959 0.0702858 -0.0267188 -0.03228379 -0.04966461 -0.038656875 -0.012617066 -0.029556762 0.13274366 -0.07024811 0.04513873 0.13392025 0.05071229 -0.059868168 -0.11499482 -0.1491001 0.12970994 -0.16967204 -0.08537412 -0.24980557 0.005537748
q -0.07657524 -0.17360045 0.054018304 0.12214976 0.21862261 0.03513204 0.23791134 -0.06980187 -0.09247576 0.15650052 0.023778213 0.03482436 -0.039401192 -0.23260416 0.030747088 0.22037917 0.21658942 0.11835147 -0.2629275 0.30648485 0.046428766 -0.01657904 -0.13892744 -0.14575766 -0.24153033 0.05607988 0.025215335 0.13026856 -0.08967147 -0.2016341 0.06095447 -0.047511645 -0.027509091 -0.056638725 -0.1262779 0.39362648 0.22299962 -0.18763174 0.17380272 -0.16439618 -0.16790071 0.24209003 -0.12915514 -0.14295204 0.30438685 -0.09800725 0.029977608 -0.13927655 0.11292502 0.101011686 -0.013989745 0.14548811 0.08641071 0.10403772 -0.1788042 -0.11063893 0.20281835 -0.27316552 0.07646429 0.16202998 0.058762938 0.13868989 -0.06787325 0.08316404 0.13966826 -0.060047735 0.07546635 0.31955257 -0.13216765 -0.18534471 0.07836939 -0.040062614 -0.17588404 -0.29419187 -0.00834529 0.028965754 -0.10528545 -0.15347113 0.12939064 0.30102953 0.016197 -0.21625994 0.18770003 0.35198215 -0.050770357 0.210722 0.24847941 -0.35555434 0.0162261 0.03873771 0.080412604 -0.15079117 0.13666396 -0.17490637 0.22309047 0.2165093 -0.33867988 -0.17449455 -0.040465806 -0.107856035 -0.23517312 0.014259472 0.073299736 0.08327947 0.1297972 0.048044186 0.039128426 -0.025411341 0.12585565 -0.18986706 0.16670625 -0.07405594 0.11428804 0.0835705 -0.0799249 -0.0931448 0.16033229 0.1752638 -0.012144547 0.080240175 -0.12989882 -0.1549989 0.053088903 -0.03823023 -0.13683328 -0.03082563 0.22278291 0.0020830736 0.17922021 -0.122992635 0.12858528 0.015971556 0.077701814 -0.13793541 -0.12808444 -0.10795374 -0.039443694 0.14566249 0.2635554 -0.06971985 -0.09831039 0.019421043 0.21428758 0.16002999 -0.48153153 -0.14101948 -0.18599503 -0.0011184623 0.2522455 0.22171262 -0.15284058 -0.19962204 -0.16342852 0.20180452 -0.3618033 0.14026734 0.08052189 -0.057542518 -0.23391983 0.0065970486 0.10733571 0.15606016 0.107262924 -0.06904439 0.104109 0.021003263 -0.04432045 0.30754253 0.29279315 0.051209748 -0.080452845 0.013371687 0.048430987 0.06478803 -0.21282819 0.06683676 -0.23695846 0.0034177257 0.34786952 -0.0067931414 -0.017918468 -0.034287833 0.03506666 0.014843518 0.2660408 0.0682746 -0.30717862 -0.03794444 -0.21380606 -0.039473083 0.23058262 -0.056979474 0.28738534 -0.08651367 0.12192073 -0.22141807 0.06845615 -0.32034507 -0.12219625 -0.1883563 -0.3587757 -0.14317559 0.17640238 -0.18767214 -0.030488133 -0.030062562 -0.27629787 -0.10554123 -0.23028906 -0.029071404 0.09312027 0.13303459 0.17768092 0.23401064 0.06773541 0.057316873 0.1792974 0.13617024 -0.22748378 0.015318567 -0.08699964 0.13505048 0.096607886 -0.16573773 0.047664236 -0.22826537 -0.05836442 0.011765887 -0.12709734 -0.006805737 -0.15272719 0.028772118 0.01922711 -0.11281539 -0.15526685 0.21965101 0.107317515 -0.041165717 -0.049966928 -0.07646472 -0.06373171 -0.01611203 -0.045528624 0.20928586 -0.1112568 0.07222201 0.22035523 0.07604346 -0.10008394 -0.17820457 -0.24354172 0.20583436 -0.2657505 -0.13489816 -0.40698808 0.009971576
Di02 -0.07901105 -0.16947852 0.04856694 0.117806934 0.2129962 0.038189925 0.2330555 -0.0714223 -0.085919596 0.1504088 0.022789747 0.03256523 -0.036503725 -0.2285125 0.029460086 0.21631515 0.20782772 0.11602212 -0.26514152 0.30185777 0.04014367 -0.020740815 -0.13052319 -0.14005905 -0.24307618 0.055419613 0.031083811 0.12736747 -0.0863833 -0.20477886 0.058905393 -0.05042276 -0.033548288 -0.05659958 -0.12965351 0.38505676 0.21694854 -0.18188746 0.17051534 -0.1627197 -0.16004601 0.23369522 -0.13010632 -0.14591323 0.30356917 -0.09014037 0.034395427 -0.13804534 0.11316086 0.10282944 -0.020184644 0.13806368 0.08295127 0.10285107 -0.18262811 -0.1058989 0.20269614 -0.2638798 0.07034814 0.15331678 0.05711439 0.1382702 -0.061344016 0.07974444 0.13973784 -0.05662208 0.06900423 0.3092503 -0.12662622 -0.18829864 0.08258512 -0.03869762 -0.17903487 -0.28838497 -0.007635479 0.025415419 -0.103927836 -0.15010701 0.1313232 0.29486135 0.023993276 -0.21173376 0.18814158 0.34173504 -0.050545562 0.21424775 0.24147263 -0.3426922 0.014089121 0.040379994 0.084304176 -0.14867201 0.12999076 -0.17020573 0.21804452 0.21322967 -0.33137792 -0.16820788 -0.03737642 -0.10527866 -0.2308932 0.0185409 0.069511786 0.07966316 0.13136837 0.04633428 0.034636326 -0.024258288 0.120492764 -0.19067812 0.16128114 -0.0708009 0.11820337 0.08068425 -0.07083291 -0.09716308 0.15528026 0.16992909 -0.0154497195 0.07271651 -0.13017067 -0.15813194 0.04652046 -0.032512665 -0.13040186 -0.024984876 0.21654855 0.0056320657 0.1679506 -0.118015535 0.12434098 0.008385221 0.07725869 -0.13448034 -0.1259647 -0.1013713 -0.040209923 0.14417095 0.25718492 -0.07559289 -0.10236622 0.016948815 0.20805049 0.15572277 -0.4722799 -0.14050457 -0.1774293 -0.003775255 0.24768226 0.21817914 -0.151744 -0.19301146 -0.16052848 0.1980706 -0.3533497 0.1329204 0.08022939 -0.05479322 -0.22796576 0.0002525348 0.10121146 0.14921753 0.09685658 -0.06256237 0.102180004 0.020739356 -0.042162046 0.29339194 0.288377 0.045214947 -0.08301928 0.0125575205 0.045693256 0.06501074 -0.21118404 0.059443053 -0.23134558 0.000635523 0.34430003 0.00047346295 -0.02142092 -0.034043077 0.030708054 0.013890527 0.2573493 0.069756456 -0.2940887 -0.03878315 -0.20701666 -0.039889246 0.22609381 -0.059445307 0.2852365 -0.08690567 0.12215892 -0.21882075 0.06900186 -0.31529766 -0.1252558 -0.18357342 -0.35251364 -0.1361942 0.1685794 -0.18487109 -0.027038364 -0.026057148 -0.26820767 -0.09982145 -0.22842479 -0.025080305 0.08962841 0.12314926 0.17887455 0.2229755 0.06636723 0.05607542 0.17663945 0.1293905 -0.2269457 0.018798783 -0.08895539 0.13155098 0.09579306 -0.160596 0.0469001 -0.22006875 -0.05844828 0.006816408 -0.121531054 -0.0022097903 -0.14835034 0.026579926 0.020022366 -0.109119244 -0.15566823 0.21426724 0.103006296 -0.03932464 -0.049224433 -0.07218481 -0.06522245 -0.010641769 -0.042347107 0.20706742 -0.11481151 0.06670736 0.22209965 0.08011402 -0.0994707 -0.17614307 -0.23797391 0.1963737 -0.26111472 -0.13301662 -0.39607736 0.01206271
c -0.07908879 -0.18617603 0.05398115 0.12620619 0.22450142 0.04341781 0.24077736 -0.07489416 -0.09227982 0.16722295 0.021365756 0.037436284 -0.038208257 -0.24541746 0.03039403 0.22669575 0.22594443 0.1236987 -0.27921462 0.32650822 0.042274434 -0.019864941 -0.13937421 -0.15016773 -0.25339708 0.060550917 0.033475887 0.13341391 -0.093665995 -0.21027826 0.057767276 -0.04711332 -0.035470672 -0.059755176 -0.1360439 0.40403393 0.22916815 -0.1988716 0.17715234 -0.17365575 -0.17351599 0.24499963 -0.139808 -0.14960957 0.32267457 -0.098968916 0.030661775 -0.14417978 0.11674938 0.10614151 -0.015866598 0.14566295 0.089176804 0.102949716 -0.19272889 -0.110468 0.21067105 -0.2792824 0.08289265 0.16295643 0.059994794 0.14821325 -0.07143704 0.08125697 0.14704388 -0.061467092 0.07193481 0.33324748 -0.1361728 -0.19866166 0.085523054 -0.04186107 -0.19050226 -0.30770826 -0.009795808 0.030674016 -0.10997006 -0.15790267 0.13860959 0.3094278 0.025327653 -0.2235335 0.19709529 0.3614424 -0.050390065 0.22458827 0.2591455 -0.36596388 0.01597017 0.039123848 0.08682706 -0.15571406 0.13764867 -0.18263583 0.22978926 0.22962038 -0.35043782 -0.1815138 -0.03713752 -0.11282306 -0.2366808 0.01720015 0.07839236 0.08870573 0.13725002 0.05550185 0.039148524 -0.028638411 0.12629822 -0.20035285 0.16502477 -0.074843995 0.12444027 0.0860343 -0.075242266 -0.10055054 0.16160229 0.18489458 -0.020476919 0.07701687 -0.133345 -0.16710956 0.054769754 -0.03730747 -0.14255327 -0.023803163 0.23401937 5.0977476e-05 0.177856 -0.12729654 0.13609162 0.013357692 0.07975186 -0.13931715 -0.13771598 -0.11238895 -0.037412465 0.1495385 0.26948673 -0.07534614 -0.10801871 0.013335116 0.22113332 0.16816695 -0.500386 -0.14685354 -0.18405057 0.0028712233 0.25738412 0.23197488 -0.15973806 -0.20468292 -0.1721799 0.20838219 -0.3784117 0.14367491 0.085296795 -0.06301889 -0.24371545 0.003970163 0.10829379 0.1563732 0.10963262 -0.07117876 0.11006216 0.023513122 -0.04451761 0.31804368 0.30538142 0.04767053 -0.085824065 0.010134829 0.050407015 0.07428051 -0.2177133 0.060789835 -0.24026825 0.0027633915 0.35954887 -0.0018912086 -0.025598127 -0.035980303 0.036029123 0.014570496 0.27683938 0.06930625 -0.31859726 -0.04541249 -0.21475802 -0.049111802 0.24160661 -0.06006091 0.3018203 -0.08935013 0.13117781 -0.22764634 0.07611783 -0.33484057 -0.12456104 -0.19598073 -0.37352657 -0.14797373 0.18103093 -0.19144401 -0.03454286 -0.03310823 -0.28799367 -0.10919076 -0.240802 -0.025165189 0.09830152 0.13283797 0.18401651 0.23902737 0.06666232 0.062830485 0.1926913 0.14081402 -0.24045004 0.013794627 -0.09530055 0.13974692 0.10032603 -0.17465532 0.048093777 -0.23088248 -0.05859311 0.010751832 -0.12513271 -0.0026265332 -0.15508908 0.026222387 0.018811231 -0.11466882 -0.1584948 0.2259323 0.11482369 -0.042665195 -0.052564517 -0.08054307 -0.06261332 -0.014594897 -0.04747238 0.22238515 -0.12107635 0.06974749 0.23203819 0.08759184 -0.10237681 -0.18405858 -0.24610548 0.21406981 -0.28099722 -0.13968408 -0.42249694 0.0077147973
Aa05 -0.04243403 -0.108152956 0.03291889 0.06813276 0.12529062 0.019370016 0.13480927 -0.042795345 -0.04842391 0.09401706 0.006923345 0.016557442 -0.019464606 -0.14022373 0.021423856 0.13140163 0.1214563 0.074199915 -0.15238388 0.1810804 0.026416978 -0.014124694 -0.07644617 -0.079965405 -0.14101745 0.031121856 0.020075703 0.075281 -0.05194697 -0.11789065 0.034915797 -0.025938673 -0.022564506 -0.032790918 -0.076880515 0.22891194 0.13223656 -0.11011597 0.1035421 -0.09897804 -0.09456982 0.14213628 -0.0784937 -0.08376332 0.17578314 -0.051716708 0.020865465 -0.08056011 0.07088359 0.060333487 -0.01170985 0.07963368 0.05007215 0.061150685 -0.10785942 -0.06815863 0.11573626 -0.1535299 0.04862091 0.09706608 0.03176221 0.08283128 -0.042104702 0.05090159 0.081299305 -0.02968796 0.03953785 0.1844019 -0.07249235 -0.10920948 0.046022616 -0.0266626 -0.104530714 -0.17676316 -0.0007361226 0.019563582 -0.061471097 -0.091635436 0.07470819 0.1745358 0.015396851 -0.12744053 0.107769534 0.20733848 -0.032676052 0.12716872 0.14580645 -0.20509592 0.004900518 0.025154924 0.044708993 -0.08763148 0.08289609 -0.1041756 0.12668659 0.12662823 -0.19677806 -0.10052289 -0.025208611 -0.06293233 -0.13281043 0.014792885 0.04752719 0.049365945 0.07960524 0.031836428 0.022606859 -0.011649574 0.072582446 -0.11140376 0.0923598 -0.046120483 0.07211425 0.04641067 -0.04315881 -0.056693126 0.09141505 0.10137841 -0.007867744 0.04065193 -0.08039183 -0.09296626 0.031179275 -0.019014874 -0.07950804 -0.012229171 0.12622637 -0.00028527665 0.09831004 -0.07142694 0.07910966 0.0017658615 0.040851697 -0.08365552 -0.07100472 -0.06402154 -0.020720005 0.08242083 0.15205908 -0.041614547 -0.059973657 0.005078553 0.12125002 0.094375476 -0.28325254 -0.0849003 -0.10615871 0.004547795 0.14583643 0.13095717 -0.09146186 -0.11792025 -0.0938959 0.119567364 -0.2131051 0.07939654 0.050617915 -0.038313605 -0.1382397 0.0018955261 0.06008441 0.094192535 0.060368262 -0.042416684 0.057369366 0.007818906 -0.030114926 0.17465241 0.16730092 0.028751228 -0.049278334 0.0039842916 0.029311119 0.041562323 -0.11941118 0.03357244 -0.13626498 0.004738162 0.19981425 -0.0051930477 -0.014891013 -0.02423816 0.023313545 0.010272035 0.15888391 0.03642136 -0.17521566 -0.022867234 -0.119921155 -0.029660426 0.13461398 -0.036151502 0.16569947 -0.050276577 0.07658955 -0.12769876 0.037660003 -0.18442707 -0.07325081 -0.10376038 -0.21213008 -0.07687684 0.0976599 -0.11329335 -0.016767481 -0.019192636 -0.16577393 -0.060397062 -0.13596945 -0.017256742 0.05782372 0.0762603 0.10834314 0.13834412 0.03439045 0.03673282 0.10896193 0.080623366 -0.13262585 0.007511913 -0.04904636 0.0801288 0.055540834 -0.09974626 0.027788736 -0.12971911 -0.03794786 0.008868272 -0.071388125 -0.0017300056 -0.088024944 0.016684014 0.013695227 -0.06496067 -0.093202114 0.13182318 0.061695516 -0.028967751 -0.027063223 -0.040480208 -0.034738712 -0.0048885485 -0.028141595 0.12158489 -0.065764114 0.038837228 0.12895656 0.046205632 -0.061993454 -0.10521006 -0.13851781 0.11878602 -0.15482011 -0.079482816 -0.23256117 0.004054783
Gc02 -0.058645956 -0.1411428 0.04181008 0.093511194 0.17247763 0.032403264 0.1862443 -0.052235276 -0.0746063 0.12993701 0.017524546 0.02506857 -0.02980671 -0.18856514 0.024162928 0.17509602 0.172593 0.100104585 -0.21599188 0.24982713 0.030554958 -0.013868227 -0.10465233 -0.11242556 -0.19654718 0.04286362 0.02489451 0.10260215 -0.07301011 -0.16253659 0.046937395 -0.036011435 -0.022931896 -0.04693846 -0.10705089 0.31293488 0.17750597 -0.15457824 0.135479 -0.13207972 -0.13014139 0.18812115 -0.10784939 -0.11681103 0.24653256 -0.07600265 0.02488301 -0.11093439 0.09118279 0.07673472 -0.009154154 0.10722607 0.06845804 0.08084216 -0.14800902 -0.085801885 0.163327 -0.21370423 0.06368018 0.12768959 0.043578234 0.11178482 -0.0523397 0.06754891 0.11296523 -0.04268863 0.05449172 0.24885364 -0.09927197 -0.14973447 0.067924745 -0.031279407 -0.13967532 -0.23752607 -0.00010425451 0.019567681 -0.08284973 -0.11810524 0.10061707 0.23953603 0.012637463 -0.17603603 0.15210475 0.27719802 -0.039760683 0.17295514 0.19091654 -0.27850077 0.016210562 0.031890925 0.06257179 -0.11425111 0.10448037 -0.13606724 0.17687821 0.17855239 -0.26614544 -0.13988145 -0.026396114 -0.08626282 -0.18028739 0.009628105 0.05547548 0.06597129 0.1011007 0.03983936 0.028906927 -0.0188468 0.09340925 -0.15510875 0.12561046 -0.0583978 0.09558664 0.06665637 -0.055261444 -0.07767956 0.12741286 0.14181235 -0.0089872265 0.06069374 -0.10464735 -0.124306425 0.034856603 -0.026356358 -0.10693617 -0.017538495 0.17701499 0.0033176648 0.13779758 -0.09826098 0.10408668 0.00927651 0.057866864 -0.10866879 -0.103377774 -0.08651282 -0.027835203 0.1179062 0.21070527 -0.060517598 -0.08258222 0.013901821 0.16997164 0.12782703 -0.37720203 -0.11760519 -0.13935025 -0.0025804425 0.19442277 0.17720163 -0.12109389 -0.15892327 -0.13350904 0.16409959 -0.28678256 0.11108387 0.06229486 -0.04399681 -0.18401232 -0.0014693692 0.0811005 0.12552345 0.08262221 -0.05641392 0.08624917 0.019708218 -0.0330181 0.23968579 0.22693744 0.037724823 -0.06361703 0.004838035 0.04196963 0.049639687 -0.17057014 0.046348654 -0.18403213 -0.0012054926 0.2780808 -0.007074414 -0.01597584 -0.025964541 0.026812652 0.01242131 0.2127639 0.053688645 -0.23870005 -0.03030302 -0.16532962 -0.029652437 0.18106303 -0.048622787 0.22832501 -0.072366856 0.09376402 -0.17760915 0.05846291 -0.25441232 -0.09517745 -0.1448041 -0.28263292 -0.11007088 0.14035271 -0.15160166 -0.02235767 -0.020686544 -0.22080949 -0.08601516 -0.1874122 -0.024092102 0.07519493 0.104591124 0.14483947 0.18265028 0.05179368 0.048364386 0.13904832 0.101525694 -0.17912371 0.009645832 -0.07129616 0.106972516 0.07765779 -0.13278799 0.040595185 -0.17921686 -0.047652416 0.0056356597 -0.09791365 -0.00620965 -0.11483084 0.025476692 0.016581986 -0.09267992 -0.12565193 0.17339404 0.08378969 -0.03551803 -0.03859483 -0.05635253 -0.05071001 -0.010362256 -0.031243606 0.16899312 -0.08506997 0.054517727 0.17298888 0.06377539 -0.08166809 -0.13881148 -0.19321464 0.16153796 -0.21414217 -0.10696129 -0.31749395 0.0035970644
我 -0.04870636 -0.10806162 0.033073984 0.07445454 0.12947226 0.022719739 0.13879192 -0.04103199 -0.057926424 0.095897906 0.010388313 0.016860252 -0.019325955 -0.14105281 0.015294713 0.12881598 0.13003765 0.06923711 -0.15936504 0.18925373 0.027887035 -0.014594148 -0.07810813 -0.089931205 -0.14358644 0.035725858 0.017621107 0.080779694 -0.053813074 -0.12686776 0.033724166 -0.032275926 -0.019824252 -0.038989954 -0.07605846 0.23231934 0.13171342 -0.119660206 0.09912602 -0.10033602 -0.10284568 0.14105797 -0.07830442 -0.0895918 0.18684553 -0.05340335 0.015321844 -0.08292569 0.0672969 0.06336735 -0.006980104 0.08895665 0.05014601 0.06357761 -0.1133753 -0.066770904 0.120473795 -0.16560358 0.04827255 0.09924488 0.032904014 0.08225226 -0.03805684 0.04791134 0.07957411 -0.035318114 0.04267427 0.19578905 -0.078874834 -0.110842906 0.05296611 -0.02634341 -0.10978878 -0.1796325 -0.0021359066 0.01705153 -0.06304717 -0.09658235 0.08297904 0.17681745 0.0086374795 -0.13137773 0.11571102 0.21061406 -0.030085698 0.1298919 0.14940216 -0.208897 0.007291781 0.020751687 0.04646301 -0.08542374 0.08216238 -0.106573604 0.13671425 0.1366308 -0.20143625 -0.10777087 -0.025282452 -0.064608164 -0.14311263 0.01253146 0.04699168 0.048200555 0.08379322 0.028650496 0.025356539 -0.01661484 0.07495753 -0.11665257 0.09835658 -0.04097795 0.07016954 0.0481869 -0.049628343 -0.056327704 0.097731985 0.10982906 -0.011180661 0.040873367 -0.076041274 -0.09664166 0.032094777 -0.018771121 -0.08283789 -0.014794645 0.13237631 -0.00036248012 0.10240512 -0.0716663 0.07486663 0.0056902887 0.0451124 -0.07908416 -0.07719467 -0.062010467 -0.020242603 0.086316384 0.15615307 -0.038695667 -0.05686196 0.004853037 0.13004649 0.09939938 -0.28503445 -0.09132052 -0.10992117 0.0012459646 0.15164326 0.13207093 -0.09368292 -0.115546316 -0.09631153 0.12269302 -0.22031517 0.08155263 0.046132173 -0.03401173 -0.14095072 0.00035548897 0.05843691 0.09239339 0.065698825 -0.037812762 0.06500488 0.011608714 -0.02346834 0.18303226 0.17572245 0.033075094 -0.053445194 0.008778748 0.033804692 0.042813 -0.12595859 0.039315086 -0.14336771 -0.0017954133 0.20931524 -0.0017948053 -0.016968848 -0.020270184 0.02324856 0.0036963243 0.16142935 0.04487481 -0.18669805 -0.024912223 -0.12977643 -0.030365942 0.1422222 -0.037725188 0.17526412 -0.056931835 0.07091668 -0.13719624 0.04209172 -0.1909771 -0.07769476 -0.114794746 -0.21711597 -0.084813796 0.10148254 -0.11575307 -0.016223775 -0.01762085 -0.16413516 -0.05951076 -0.14082223 -0.013567247 0.061312083 0.07849807 0.10891453 0.14053406 0.034698904 0.038132668 0.11165393 0.08025142 -0.1348635 0.0073604635 -0.051467273 0.078955926 0.05379372 -0.099187806 0.029861 -0.13378951 -0.039033737 0.007861964 -0.07370623 -0.00019926565 -0.09001205 0.019476246 0.013179796 -0.07248593 -0.09787071 0.13551141 0.06357129 -0.029626392 -0.033660457 -0.04412606 -0.033247396 -0.009143609 -0.025772465 0.12493263 -0.07051961 0.04277042 0.13362537 0.044321634 -0.059292417 -0.11304624 -0.1450411 0.124476194 -0.16191341 -0.0788272 -0.24026783 0.0046476675
f -0.07637412 -0.17344543 0.054756645 0.124701224 0.21626565 0.03949994 0.23689152 -0.07158587 -0.09144658 0.16160215 0.021538341 0.030037455 -0.03505362 -0.23353764 0.03614408 0.2205213 0.21336655 0.12467678 -0.26107368 0.30750078 0.040666584 -0.02097525 -0.13740472 -0.14494148 -0.2413975 0.055695586 0.034560136 0.12937452 -0.08961817 -0.2084296 0.056731593 -0.052756343 -0.029849311 -0.058404688 -0.1302303 0.39309967 0.21857288 -0.19196796 0.16929421 -0.16867527 -0.16742966 0.23152213 -0.1349907 -0.14723215 0.30838427 -0.09816997 0.027562974 -0.13906164 0.11543679 0.101537876 -0.017380755 0.14289762 0.09024729 0.09799865 -0.17949829 -0.10648404 0.20088339 -0.26357618 0.072673716 0.15804183 0.053404607 0.14621972 -0.06911182 0.07958297 0.13864958 -0.059247427 0.075715534 0.31297004 -0.13265508 -0.18569046 0.07657251 -0.034423895 -0.18058242 -0.2900438 -0.0064992495 0.026841123 -0.10744347 -0.15414672 0.13404462 0.29952776 0.02098745 -0.21419637 0.19100414 0.34844378 -0.047714613 0.2086508 0.24849209 -0.35312745 0.013445677 0.038695164 0.08607841 -0.15007518 0.13340516 -0.16792463 0.21647471 0.2240497 -0.340964 -0.1678308 -0.04084167 -0.10273019 -0.22588494 0.011957781 0.07440499 0.08049783 0.1349208 0.055744022 0.034476332 -0.023850605 0.12154357 -0.1939642 0.16369453 -0.07682436 0.11842119 0.07936205 -0.07313492 -0.09058727 0.15317614 0.1724751 -0.020977665 0.07953936 -0.1291681 -0.15275578 0.05034268 -0.039638527 -0.13164538 -0.02211724 0.22645271 0.0071621663 0.17032427 -0.12199807 0.13148353 0.0066231987 0.07926883 -0.12968692 -0.13015796 -0.102457866 -0.04173064 0.15046106 0.26459235 -0.07119572 -0.10284013 0.020504987 0.21316159 0.15629295 -0.47529417 -0.14101422 -0.18158332 0.0038546934 0.24758492 0.21733229 -0.15074041 -0.19675753 -0.16551867 0.19884838 -0.35671103 0.1406046 0.080875546 -0.055850953 -0.23405583 0.005714595 0.10092784 0.15061907 0.10680127 -0.06349195 0.10216248 0.019257002 -0.04377362 0.3027013 0.29244936 0.046766788 -0.08276606 0.010277594 0.048551917 0.06943843 -0.21298924 0.06491898 -0.23545963 0.0068697417 0.34410205 0.00061759993 -0.021974107 -0.030819329 0.029636785 0.0072917873 0.26323202 0.06612366 -0.29686517 -0.040186998 -0.21216774 -0.039374486 0.22683482 -0.062320597 0.29291645 -0.09137795 0.11690205 -0.21840224 0.07321833 -0.314193 -0.12203756 -0.180273 -0.35253972 -0.14216428 0.17745787 -0.18824127 -0.03437698 -0.027327629 -0.27720475 -0.098709315 -0.23401028 -0.022716312 0.08900668 0.13123186 0.18225622 0.23212366 0.06402306 0.056996066 0.17681594 0.13255557 -0.22395381 0.013564098 -0.08475492 0.13979821 0.09034264 -0.16369112 0.043421574 -0.22638965 -0.05666824 0.0064006853 -0.12567686 -0.009583967 -0.15176779 0.025376057 0.022959113 -0.10880322 -0.1550125 0.21714701 0.10965181 -0.040499926 -0.05558452 -0.07870038 -0.06058473 -0.010491408 -0.039797943 0.21558066 -0.1089679 0.0701538 0.22517161 0.08412547 -0.093251094 -0.17462678 -0.24230126 0.20424135 -0.2703264 -0.13935873 -0.4049248 0.009839618
Aa03 -0.054500658 -0.12666555 0.037970982 0.085940756 0.15025009 0.029965365 0.16114989 -0.051991586 -0.059899542 0.10752664 0.010683135 0.024335358 -0.026037283 -0.16404022 0.023227852 0.15480998 0.1511927 0.08354144 -0.18013819 0.21668117 0.032490782 -0.014907066 -0.09301903 -0.095496245 -0.17304543 0.043493696 0.02156369 0.09308083 -0.061829567 -0.14477299 0.037276126 -0.03482929 -0.023290884 -0.044042032 -0.08891963 0.27420855 0.15586926 -0.13569131 0.11552086 -0.116041474 -0.112298705 0.16063301 -0.08880478 -0.10047077 0.21186343 -0.06121983 0.025711678 -0.09755612 0.08335511 0.066598214 -0.01532857 0.09662324 0.06506481 0.07305769 -0.12379732 -0.07860637 0.1416068 -0.18587351 0.052315842 0.11001885 0.04161761 0.09407776 -0.043322917 0.05920052 0.09421846 -0.040564653 0.046229385 0.21763152 -0.090167 -0.12989546 0.055579297 -0.028917938 -0.12912492 -0.20625807 -0.0035370127 0.017140135 -0.06961172 -0.10187245 0.09425376 0.20790052 0.013084073 -0.15066811 0.13206367 0.24160568 -0.030949887 0.14777835 0.17285831 -0.24114515 0.0117739 0.030536862 0.054620884 -0.10304603 0.09642484 -0.11578958 0.15460911 0.15119731 -0.23089644 -0.11857701 -0.026877133 -0.0690013 -0.15911423 0.0150506785 0.052564 0.054024275 0.0906444 0.038095236 0.023137247 -0.014076349 0.08833638 -0.13743958 0.10863137 -0.054270122 0.080933966 0.05684652 -0.052674077 -0.06747991 0.11068759 0.12672818 -0.013252583 0.048025995 -0.08985129 -0.11182386 0.03718863 -0.025029166 -0.09608142 -0.02141961 0.14888321 0.0024076456 0.122005284 -0.081518255 0.09014623 0.0069150194 0.053799238 -0.094532326 -0.092331044 -0.07403861 -0.023480551 0.10005377 0.181444 -0.05007884 -0.06576471 0.008125362 0.15057689 0.10901311 -0.33553454 -0.103412636 -0.12608142 0.0012028723 0.17466979 0.15353557 -0.100366436 -0.1349167 -0.11225016 0.14110225 -0.25101647 0.0975648 0.05614364 -0.03736487 -0.1654332 -0.0029266947 0.071667075 0.10617529 0.07073522 -0.047150638 0.07039364 0.011089974 -0.027396346 0.2084239 0.20012872 0.034168128 -0.059170462 0.0028499207 0.033103175 0.047244944 -0.14218543 0.039169677 -0.16546293 0.0015720638 0.23963371 -0.0046921424 -0.019087933 -0.027649174 0.0275876 0.004522781 0.18214463 0.047626927 -0.20912986 -0.033993773 -0.14069155 -0.03253381 0.15930949 -0.04351853 0.19740427 -0.06035322 0.08751212 -0.15300895 0.050074004 -0.2223492 -0.08577135 -0.12925896 -0.2479913 -0.09421815 0.11912586 -0.1335359 -0.019205168 -0.018357055 -0.19424355 -0.06934748 -0.16245222 -0.013904027 0.06707729 0.09018048 0.12402082 0.1559731 0.047780994 0.040332936 0.12887739 0.094622485 -0.16245036 0.011763302 -0.059628308 0.09316538 0.07053293 -0.117427886 0.0286283 -0.15442401 -0.041510753 0.0039143614 -0.08415633 0.00018979023 -0.10511875 0.017501067 0.009465356 -0.07833658 -0.109756045 0.15600227 0.0734936 -0.029214904 -0.03809904 -0.04770385 -0.04287076 -0.013281951 -0.03238354 0.14624612 -0.074825555 0.048853867 0.15124881 0.052287836 -0.073026985 -0.123760484 -0.16903482 0.14212903 -0.18471758 -0.094457984 -0.28318188 0.0085019255
Ig01 -0.05794227 -0.13294148 0.033257175 0.09241199 0.15721266 0.024265626 0.17045 -0.049368083 -0.06896061 0.11228798 0.0148538845 0.019470336 -0.024901362 -0.16882248 0.026484389 0.16027337 0.15587774 0.091044985 -0.19593915 0.23024306 0.03146872 -0.015248837 -0.10326818 -0.10273347 -0.17502229 0.043885108 0.018042842 0.09361325 -0.06626465 -0.14750789 0.03941274 -0.03209115 -0.024356617 -0.04642798 -0.097588114 0.28668258 0.15738845 -0.1414759 0.12038777 -0.12321056 -0.12182537 0.17372438 -0.0935333 -0.107386015 0.22223146 -0.06840558 0.025617752 -0.10534577 0.08226934 0.07710037 -0.009237137 0.099563345 0.06757356 0.070020884 -0.13629599 -0.08162463 0.14712368 -0.19561055 0.056699898 0.120440386 0.043757476 0.10279872 -0.049961314 0.056372676 0.100506954 -0.03706326 0.04879041 0.23266432 -0.09142847 -0.13931987 0.056200266 -0.031083789 -0.13350609 -0.21777624 -0.0011302207 0.016791355 -0.07624672 -0.10814014 0.09612232 0.21436866 0.013171509 -0.1573877 0.14002728 0.25195485 -0.03563697 0.15592955 0.17913917 -0.25741956 0.013623563 0.025516745 0.063307285 -0.11208277 0.09649293 -0.12270276 0.15928482 0.16306637 -0.24400528 -0.12946719 -0.027367167 -0.079040065 -0.17203893 0.01116796 0.057101905 0.06469609 0.09289087 0.037751805 0.023961293 -0.01675212 0.090856224 -0.14397833 0.119643115 -0.057838023 0.085969135 0.0632039 -0.057559595 -0.07020877 0.11220973 0.123747654 -0.0124339685 0.057578534 -0.099181056 -0.11704904 0.035740167 -0.023941278 -0.09677344 -0.015354869 0.15867908 0.005678027 0.12550828 -0.08909568 0.09076411 0.009075604 0.05518175 -0.09351959 -0.09382529 -0.075676344 -0.025229868 0.103622615 0.19065928 -0.055190492 -0.07635307 0.012627559 0.15526909 0.11453626 -0.34943444 -0.108187065 -0.13371597 0.0014120386 0.1851216 0.1633184 -0.11107469 -0.14082961 -0.122872055 0.14653637 -0.26440457 0.09666316 0.058410052 -0.045462806 -0.17242104 -0.0002878886 0.079397514 0.11315511 0.077276394 -0.04550994 0.07451056 0.013604589 -0.0302664 0.22258176 0.21346386 0.039766576 -0.05669242 0.0063759144 0.03503994 0.052041467 -0.15057236 0.049030382 -0.17476016 0.0001368322 0.25398183 -0.0026014324 -0.01644636 -0.021677671 0.02791798 0.0053211837 0.19111396 0.04512579 -0.21759629 -0.030549863 -0.15399736 -0.031172533 0.16968383 -0.038811557 0.21417466 -0.06456131 0.08987831 -0.15926543 0.051304974 -0.23192798 -0.09423399 -0.13280594 -0.26332024 -0.09810944 0.12325042 -0.13697454 -0.022031374 -0.022742052 -0.20475419 -0.07340901 -0.17125821 -0.022780005 0.07012113 0.09336824 0.13273986 0.16463153 0.04841467 0.043203175 0.13532215 0.0926808 -0.16296266 0.008500129 -0.06835193 0.099611856 0.068485446 -0.12229581 0.03084787 -0.16294172 -0.046509065 0.008532267 -0.087345295 -0.0038984253 -0.10878243 0.022985457 0.009188861 -0.08650277 -0.11093469 0.16399036 0.07447742 -0.03454486 -0.03785666 -0.058300495 -0.04435793 -0.0056078914 -0.031861357 0.15162224 -0.07912566 0.050900977 0.16144165 0.05690311 -0.07448019 -0.13309768 -0.17614418 0.1481768 -0.19501688 -0.09567364 -0.29099563 0.0068849525
了 -0.06381303 -0.13190222 0.034982506 0.095912464 0.16271654 0.027659439 0.17905986 -0.054369 -0.068782836 0.11885511 0.019012792 0.026889462 -0.025299115 -0.17336442 0.02249056 0.16862123 0.15758362 0.09059825 -0.20250455 0.2375026 0.03141171 -0.01582008 -0.099724285 -0.10993089 -0.18442014 0.04627797 0.019485794 0.10158344 -0.065285675 -0.1568545 0.044947848 -0.03240417 -0.022143312 -0.042495172 -0.10000058 0.29258558 0.17010793 -0.14112602 0.12817404 -0.12728325 -0.12183741 0.17978369 -0.095773906 -0.11002543 0.23495457 -0.07381038 0.020576721 -0.10709494 0.088615246 0.076305255 -0.009269591 0.10252781 0.062125597 0.07910754 -0.13455535 -0.08342987 0.14925422 -0.20273785 0.056717183 0.12486731 0.043558918 0.10620209 -0.05036108 0.061148852 0.10001436 -0.039040573 0.049963776 0.237323 -0.09873123 -0.13825364 0.06341279 -0.029553382 -0.13351431 -0.22243616 0.00057879067 0.019706097 -0.07528188 -0.11530916 0.103259616 0.2285028 0.018586121 -0.16365346 0.14237249 0.25742823 -0.032975577 0.15630753 0.18122604 -0.26252824 0.010386136 0.032933142 0.05950706 -0.107426725 0.1017685 -0.13326311 0.16766368 0.16356441 -0.2517042 -0.12795174 -0.031156758 -0.07732193 -0.17164573 0.014642903 0.05320907 0.060619194 0.094166234 0.042085737 0.025902772 -0.015505016 0.094765864 -0.14085019 0.12331998 -0.056317437 0.08894989 0.064550795 -0.061262842 -0.07442474 0.11636883 0.13375612 -0.011878879 0.05407837 -0.098984815 -0.11524523 0.03973156 -0.027329525 -0.102242686 -0.021469163 0.16663322 -0.00035753148 0.12831229 -0.089457184 0.097500555 0.010310745 0.05933782 -0.09664642 -0.099451266 -0.075590625 -0.029507503 0.11108252 0.1955918 -0.056737296 -0.07530856 0.008889675 0.16199966 0.12086951 -0.36006525 -0.10775085 -0.13354558 -0.0013313352 0.18909444 0.16554503 -0.11203546 -0.1473018 -0.12950674 0.15567371 -0.27192846 0.09854794 0.059347477 -0.046473276 -0.17179866 -0.0009817809 0.078089856 0.115799025 0.07588398 -0.05193542 0.08233353 0.016743155 -0.0382201 0.22739424 0.21361817 0.03544019 -0.060243487 0.009523714 0.033742648 0.05180209 -0.15659413 0.043348365 -0.17808555 0.0013884245 0.2559181 -0.0020873502 -0.0142760305 -0.02445421 0.027240353 0.008285752 0.19791138 0.04777578 -0.22811307 -0.029714877 -0.15630394 -0.032727454 0.17476174 -0.041866448 0.21559656 -0.06492515 0.09602192 -0.17162322 0.05547277 -0.24278282 -0.09288956 -0.13606983 -0.2704369 -0.10715864 0.12644114 -0.14476067 -0.02572915 -0.018542774 -0.2057724 -0.080761686 -0.17000799 -0.017086051 0.07385773 0.100746125 0.13032933 0.17240983 0.049914014 0.0457268 0.1386592 0.09650736 -0.16901436 0.016870001 -0.07095497 0.10580691 0.07318598 -0.12587056 0.03384696 -0.17340744 -0.04686257 0.010636307 -0.093534976 0.00013763172 -0.1148706 0.018022269 0.01571942 -0.0823155 -0.114723906 0.1678613 0.08286642 -0.03414149 -0.03543627 -0.059064034 -0.047740806 -0.012445419 -0.028356904 0.15773089 -0.08372682 0.052317236 0.16701397 0.05736552 -0.07542259 -0.13654552 -0.17991944 0.15307575 -0.20313375 -0.10156368 -0.30530632 0.012255426
Ag04 -0.056701872 -0.12802248 0.03567206 0.08873169 0.1519664 0.025693938 0.16250828 -0.05325493 -0.06550113 0.115384065 0.011879192 0.02412866 -0.024871433 -0.1638182 0.018851012 0.15932561 0.15018934 0.08799334 -0.19319396 0.22192596 0.027348999 -0.015634902 -0.0977819 -0.10181657 -0.17374143 0.041799497 0.022691278 0.09093961 -0.06343169 -0.14897232 0.043906983 -0.031302374 -0.017323691 -0.040753786 -0.0936653 0.28075743 0.15411998 -0.13359244 0.11938988 -0.1173529 -0.114431836 0.16697863 -0.09536843 -0.10504852 0.219269 -0.06469577 0.019282518 -0.097312875 0.08022425 0.06817684 -0.014251493 0.10039254 0.06577284 0.07646386 -0.12428918 -0.07369223 0.14165519 -0.19146627 0.05742859 0.11681278 0.042824246 0.1048121 -0.04607094 0.058442153 0.09500962 -0.03807518 0.05570323 0.22224039 -0.09073226 -0.13056667 0.059680305 -0.0242594 -0.12391964 -0.2098729 -7.18778e-05 0.023713563 -0.07404364 -0.107342064 0.09746464 0.21396038 0.01092677 -0.15588231 0.13299504 0.2484346 -0.03432294 0.14759949 0.17504649 -0.2444251 0.012008561 0.0301436 0.06030689 -0.10055364 0.099121794 -0.12162736 0.15597159 0.15783557 -0.24341758 -0.11930769 -0.028995203 -0.070608586 -0.16853082 0.010425436 0.05669803 0.05778019 0.092933506 0.03875791 0.030358918 -0.017299477 0.084005125 -0.13239247 0.11121199 -0.051587835 0.08627292 0.055209137 -0.055293575 -0.07204253 0.11033725 0.1263241 -0.015150336 0.052713096 -0.08947349 -0.11377855 0.03715428 -0.025816413 -0.0970866 -0.021239553 0.16113572 0.00088612037 0.12811859 -0.08519504 0.09321814 0.010733131 0.056241892 -0.0936665 -0.09486366 -0.07068293 -0.026955567 0.101874515 0.18927531 -0.046408582 -0.073049635 0.011133578 0.15126292 0.110162236 -0.3389994 -0.097786665 -0.124409996 -0.0028339636 0.17545632 0.15921652 -0.10662097 -0.14326179 -0.118617035 0.1409898 -0.25507456 0.09774659 0.05386122 -0.043769933 -0.16165443 0.0040272283 0.07540344 0.110067114 0.07667361 -0.049850263 0.07687945 0.014576856 -0.036463767 0.20998128 0.20565018 0.038582962 -0.057921816 0.002800152 0.03469521 0.046163626 -0.15199241 0.047789894 -0.16356544 0.0020512084 0.24644312 -0.003072417 -0.02067015 -0.022629885 0.027446248 0.009715612 0.18927988 0.04614416 -0.21336791 -0.03317939 -0.14660233 -0.029966205 0.16143918 -0.041566838 0.20688143 -0.063512385 0.087584786 -0.15393952 0.050892703 -0.22435524 -0.088503964 -0.13411023 -0.2567149 -0.10022684 0.124703035 -0.12975885 -0.020768417 -0.023273483 -0.19422166 -0.07449806 -0.16472685 -0.014631179 0.06900418 0.09161768 0.12469419 0.16490829 0.05118193 0.04536773 0.12792853 0.097203545 -0.15812941 0.0073153162 -0.057807468 0.09703532 0.06548554 -0.11566344 0.03553509 -0.16338708 -0.03767964 0.0039573004 -0.09102514 -0.001725514 -0.106906466 0.020872384 0.01673856 -0.07572548 -0.107904024 0.15148455 0.07692082 -0.03341319 -0.037095644 -0.049317997 -0.046714142 -0.008503342 -0.031745937 0.14675733 -0.07642489 0.050937418 0.16054551 0.05780528 -0.06871416 -0.12597199 -0.17384684 0.14700691 -0.19151427 -0.09493839 -0.28822148 0.00652538
你 -0.041072477 -0.09865112 0.024524186 0.06200447 0.11294334 0.025366373 0.12614536 -0.039420024 -0.05228784 0.08377875 0.008338455 0.018981725 -0.017172353 -0.12585919 0.021808164 0.120908625 0.12157655 0.06854961 -0.14377752 0.17076832 0.020016141 -0.0124294255 -0.07152195 -0.08096657 -0.13180059 0.029387241 0.020403732 0.07086987 -0.047844455 -0.11538044 0.034325212 -0.029269578 -0.021029167 -0.029484633 -0.071977176 0.21274647 0.12343311 -0.10265598 0.09625676 -0.087056495 -0.08719477 0.12590316 -0.06940153 -0.07645446 0.1659787 -0.05134338 0.016327985 -0.07884459 0.06789543 0.055287775 -0.007642169 0.074178815 0.050341144 0.055055108 -0.1014395 -0.058915284 0.114135005 -0.14929481 0.043050412 0.08760302 0.02820156 0.07555781 -0.03937434 0.047130533 0.07357972 -0.03279434 0.039346352 0.17546603 -0.06534236 -0.107537396 0.04553136 -0.02316072 -0.09968041 -0.16177379 0.0009082684 0.015667722 -0.051832438 -0.083567105 0.072634414 0.16608363 0.014560292 -0.117973156 0.103212915 0.19216163 -0.02874185 0.11835563 0.13390888 -0.19474374 0.010717881 0.02013626 0.04577835 -0.08237198 0.07462897 -0.09217254 0.12267701 0.1164834 -0.18723187 -0.091314696 -0.019827655 -0.05666962 -0.12942925 0.010710053 0.03747157 0.046053305 0.07044007 0.029927103 0.021957131 -0.012162752 0.06377268 -0.104629345 0.084080614 -0.042402077 0.06495081 0.048656713 -0.043953557 -0.05145491 0.08991614 0.10101999 -0.0058776475 0.036819987 -0.07062758 -0.08169669 0.029454887 -0.019062657 -0.07380982 -0.012697407 0.1222938 0.0051528555 0.09365336 -0.06846483 0.0736145 0.0028883296 0.040810544 -0.0732574 -0.07068992 -0.060330812 -0.019485997 0.07549219 0.14384472 -0.040117618 -0.056541752 0.008894804 0.11634024 0.08872385 -0.25996283 -0.083547525 -0.09349244 -0.0009404227 0.13497671 0.12340631 -0.08185236 -0.1054399 -0.08910099 0.1119388 -0.19393013 0.07856631 0.04403422 -0.03401619 -0.12544858 -0.002731981 0.05986006 0.08540103 0.05958733 -0.035790883 0.056179464 0.011880796 -0.02649535 0.16952145 0.1605563 0.029064119 -0.048359502 0.0020237323 0.029898757 0.038741577 -0.11679434 0.030194612 -0.130429 0.002191072 0.18340755 -0.0013562596 -0.011836627 -0.0232689 0.019778471 0.0039021284 0.14371414 0.036686316 -0.16931307 -0.025121782 -0.1167736 -0.027997172 0.12636553 -0.029877217 0.16221157 -0.044179942 0.06479704 -0.12539981 0.04045692 -0.17029408 -0.06365351 -0.102134384 -0.19703391 -0.07770874 0.08997457 -0.100196 -0.017727144 -0.013320357 -0.15329549 -0.051385824 -0.1288574 -0.010185793 0.04924141 0.067359015 0.10088002 0.122108 0.030975012 0.034311183 0.09486086 0.075235106 -0.12388584 0.0061954753 -0.045804616 0.07505546 0.05548405 -0.08959269 0.0226003 -0.12411689 -0.028629247 0.0026788565 -0.06321955 -0.0033122406 -0.083146006 0.013705777 0.011460215 -0.066374324 -0.08323256 0.11774926 0.061884437 -0.026031218 -0.03228987 -0.0384425 -0.030065112 -0.0067156088 -0.024096178 0.11641839 -0.06469845 0.035957426 0.11887377 0.043687567 -0.056840528 -0.101641364 -0.13217552 0.11339997 -0.14496824 -0.07014395 -0.21870951 0.0073315226
在 -0.054586656 -0.12518026 0.034135625 0.08747989 0.15420991 0.02929203 0.16494557 -0.05118773 -0.061927505 0.11141259 0.011449518 0.025803518 -0.02489008 -0.16629675 0.02030846 0.16132265 0.15374596 0.088931665 -0.19198939 0.22323339 0.03298983 -0.018203784 -0.09721642 -0.10387813 -0.16947661 0.044468153 0.01891758 0.09388202 -0.06513672 -0.14406869 0.046952974 -0.033960797 -0.016921958 -0.04524772 -0.09137413 0.27892056 0.15482324 -0.13756478 0.12260072 -0.12362628 -0.120423816 0.16977368 -0.09533869 -0.10946137 0.22435373 -0.06799706 0.017948871 -0.10164815 0.080107704 0.07637392 -0.012432268 0.10464715 0.06502634 0.0722884 -0.1349925 -0.08117507 0.14871769 -0.19336523 0.05388378 0.11483666 0.037033517 0.104437746 -0.050393417 0.06254723 0.095928535 -0.037406534 0.05047605 0.2269774 -0.09336995 -0.13574325 0.05895442 -0.027488917 -0.12896007 -0.20760567 -0.007265344 0.017376034 -0.07805047 -0.106261104 0.093482636 0.21110022 0.017559888 -0.16035432 0.1376573 0.2541042 -0.031131731 0.15202871 0.17786853 -0.25075567 0.014826062 0.026048409 0.060571026 -0.10723812 0.0941995 -0.12318305 0.15975875 0.15563251 -0.24137974 -0.12684065 -0.030111708 -0.08038169 -0.16202326 0.01361016 0.052676745 0.063570924 0.09410492 0.033600666 0.022766044 -0.019039432 0.08453698 -0.13392596 0.11942812 -0.051582236 0.08439138 0.056479447 -0.051980875 -0.07050172 0.10960115 0.12284672 -0.013241388 0.050840676 -0.0923879 -0.11597158 0.038336944 -0.031012315 -0.098591276 -0.0194374 0.156857 0.00425512 0.12364389 -0.08497407 0.09631899 0.008497744 0.05615778 -0.09274499 -0.09231901 -0.07268963 -0.02485551 0.102184 0.18876104 -0.056464598 -0.072649725 0.015100352 0.14985591 0.11150215 -0.34189287 -0.09961329 -0.12688915 -0.001429432 0.18257183 0.1607668 -0.11031222 -0.14057156 -0.119511984 0.14207648 -0.25902224 0.10277751 0.055203177 -0.045985118 -0.16850898 -0.0026370527 0.07580634 0.11288601 0.07369996 -0.049774572 0.079466894 0.011303856 -0.03561385 0.21236795 0.21287005 0.033773668 -0.061609786 0.0044301827 0.03872166 0.04784913 -0.15424718 0.04701571 -0.1725084 0.0061404146 0.25090533 -0.0043042554 -0.01658252 -0.024487542 0.019225067 0.010402925 0.19170667 0.051214322 -0.22031017 -0.030737445 -0.15408844 -0.027991543 0.16765998 -0.04194115 0.20502014 -0.06296309 0.08767177 -0.15847962 0.046958946 -0.22949277 -0.08916327 -0.12959076 -0.25798577 -0.1011635 0.1234162 -0.13536702 -0.019001272 -0.02238272 -0.19952025 -0.07768672 -0.17027573 -0.018300023 0.066226155 0.08932126 0.1314107 0.16960567 0.04947975 0.040908888 0.13096285 0.09727044 -0.1667515 0.007575076 -0.06664762 0.100773044 0.06309253 -0.11835321 0.03675506 -0.16109262 -0.04555504 0.010535358 -0.08766716 -0.008396226 -0.10370943 0.024173094 0.016535878 -0.08357834 -0.10936605 0.15461235 0.07300568 -0.028750604 -0.03893912 -0.054781877 -0.047748763 -0.013612746 -0.029986924 0.15201479 -0.08038435 0.052912135 0.16139226 0.05315386 -0.07476829 -0.13022743 -0.17257385 0.14313607 -0.18794712 -0.09662943 -0.29304323 0.009311464
Jd02 -0.061470676 -0.14118259 0.03909167 0.096954204 0.16460033 0.028055184 0.18058127 -0.052820344 -0.06701782 0.11937795 0.012673626 0.025427323 -0.025556834 -0.179653 0.026443208 0.17072764 0.16544034 0.097326696 -0.2080181 0.24403545 0.03369715 -0.011370216 -0.10842434 -0.10868674 -0.18711118 0.043226197 0.027450351 0.104474686 -0.06629685 -0.16105068 0.050660193 -0.0361784 -0.02366861 -0.045160696 -0.098108105 0.30856135 0.17266695 -0.1467872 0.13224529 -0.13430738 -0.13202658 0.18314716 -0.1055192 -0.11366677 0.23994264 -0.07381097 0.026127037 -0.11203589 0.09378271 0.082850724 -0.010641825 0.11067877 0.06861002 0.080999 -0.14575036 -0.0880036 0.15760331 -0.20870733 0.060250558 0.12265316 0.046480212 0.10987557 -0.047691297 0.06229384 0.106407166 -0.04306468 0.055497367 0.24564819 -0.10195369 -0.14432879 0.058673184 -0.028097793 -0.14065686 -0.22508273 -0.0034378876 0.023668079 -0.082728714 -0.118473865 0.099921 0.23046443 0.019101819 -0.17457752 0.149055 0.27309883 -0.033939388 0.16447352 0.19372305 -0.27822852 0.012076761 0.0331075 0.06644054 -0.116702765 0.10242891 -0.13744004 0.172366 0.17359126 -0.26740804 -0.13274173 -0.03188475 -0.08074621 -0.17697312 0.01306633 0.057297125 0.06154812 0.09905671 0.041379545 0.023427358 -0.014528047 0.09676435 -0.14879142 0.13092507 -0.058827057 0.09236834 0.06531474 -0.056588646 -0.072408415 0.119321436 0.13412267 -0.016616149 0.062092453 -0.09959141 -0.119201794 0.041133873 -0.034503996 -0.09961115 -0.02398544 0.17411108 0.002556317 0.13888012 -0.09624636 0.10194279 0.005496641 0.060712047 -0.101235755 -0.10425254 -0.077011116 -0.03394196 0.11754236 0.19997592 -0.060336106 -0.081880964 0.015143132 0.16273509 0.12371688 -0.37639683 -0.1071566 -0.1395257 -0.0007454726 0.19343157 0.17421165 -0.11615757 -0.15629292 -0.12784018 0.15552127 -0.27832776 0.1107557 0.06028886 -0.0459267 -0.17827313 -0.0006648139 0.08249087 0.12141332 0.075257845 -0.054079026 0.08472183 0.017925933 -0.0325112 0.23417169 0.23021029 0.034082238 -0.062271304 0.004360366 0.03942572 0.056688473 -0.1658306 0.052193224 -0.18759742 0.0019417361 0.27088144 -0.0051251017 -0.012960583 -0.030304411 0.024783837 0.012890065 0.2093135 0.052891772 -0.23037027 -0.037106305 -0.16548865 -0.031966303 0.1765563 -0.04232392 0.23008084 -0.072781086 0.09416545 -0.16894676 0.051102813 -0.2521815 -0.09572632 -0.14731179 -0.27575627 -0.107143626 0.1315827 -0.14659195 -0.025505787 -0.025111556 -0.21423888 -0.07894662 -0.18144634 -0.016997626 0.071914054 0.10426936 0.14116333 0.18270229 0.05502789 0.04358833 0.14214735 0.09981356 -0.17602126 0.0087567745 -0.06972771 0.10987366 0.071459375 -0.12745024 0.036368493 -0.17453377 -0.04525397 0.00323144 -0.09382233 -0.002597222 -0.119484104 0.019116146 0.01590819 -0.08837269 -0.122446984 0.17401768 0.078981295 -0.034037627 -0.036691964 -0.059126336 -0.051462363 -0.0070462516 -0.028806923 0.1623763 -0.091024905 0.053849302 0.17699985 0.060856752 -0.07454399 -0.14089422 -0.18450671 0.15804225 -0.20537822 -0.1017949 -0.3174501 0.009909565
一 -0.05609125 -0.12547828 0.03737796 0.08340191 0.15022077 0.022249384 0.164879 -0.052718088 -0.06534059 0.10781586 0.012103916 0.023709755 -0.026411917 -0.16364415 0.025021974 0.15128432 0.14998208 0.08163652 -0.18297848 0.21465765 0.033360336 -0.014406558 -0.09879447 -0.09871557 -0.16463812 0.04398767 0.016314609 0.0912617 -0.055736594 -0.14421357 0.03890755 -0.032845538 -0.024000546 -0.045318026 -0.08514008 0.26632413 0.14882584 -0.12957826 0.12239644 -0.11119969 -0.1155386 0.16232274 -0.08638492 -0.101362295 0.2091204 -0.070489876 0.019198325 -0.094237454 0.08057315 0.066427164 -0.009235531 0.09571601 0.06051255 0.068909205 -0.122423455 -0.07606158 0.13950849 -0.18566999 0.05079202 0.10929272 0.037799608 0.09733461 -0.04249255 0.05723843 0.0982438 -0.038028963 0.051451102 0.21822883 -0.08415052 -0.1277614 0.0526822 -0.022501782 -0.12629247 -0.20300928 -0.009064097 0.015840594 -0.07301531 -0.100933954 0.09217885 0.20427363 0.011248734 -0.14753346 0.13413464 0.24339692 -0.033392835 0.14167927 0.17143287 -0.24188994 0.011614915 0.029083602 0.06162022 -0.101960294 0.08886351 -0.119420685 0.1527313 0.14987686 -0.2333276 -0.1138693 -0.025728991 -0.07512054 -0.15421835 0.007861784 0.04875894 0.060399584 0.0887153 0.0383979 0.023039527 -0.021560293 0.08081598 -0.12933607 0.11413729 -0.04596721 0.08227191 0.05860188 -0.051820785 -0.06893558 0.112505645 0.117378026 -0.0067468905 0.051726274 -0.091153815 -0.109939024 0.03674632 -0.030159803 -0.09114688 -0.019005254 0.15307476 -0.000787596 0.1155349 -0.08559084 0.0862228 0.008206597 0.050621193 -0.087960325 -0.08812637 -0.0756146 -0.027160704 0.09816254 0.1765526 -0.049630072 -0.06881661 0.014544304 0.14730686 0.108733155 -0.32462695 -0.10181309 -0.12935968 0.00070623273 0.16728742 0.14865369 -0.10166678 -0.13803978 -0.11467055 0.13980916 -0.24526408 0.09419343 0.0532413 -0.036686327 -0.15913722 0.0005170336 0.06871468 0.10167777 0.069645464 -0.046505973 0.066802755 0.015679918 -0.03567534 0.20565167 0.19890568 0.03357837 -0.054265704 0.010512246 0.03734555 0.049847726 -0.14317317 0.044814363 -0.15896541 0.0012091377 0.2411681 -0.006107766 -0.014119632 -0.022530273 0.027189035 0.005451648 0.18678835 0.0490736 -0.20996165 -0.025124429 -0.14583577 -0.02645487 0.15312569 -0.040440287 0.2025058 -0.062766336 0.08032117 -0.1537819 0.04325158 -0.21586369 -0.08119156 -0.12795246 -0.24153191 -0.09722824 0.12142493 -0.12851046 -0.024363082 -0.022034477 -0.19133273 -0.06645125 -0.16149734 -0.013603301 0.063781336 0.092033826 0.124428205 0.16326159 0.044986848 0.040623397 0.1254431 0.089335956 -0.15816543 0.01318564 -0.055209354 0.09784048 0.06606012 -0.11094267 0.030584741 -0.15472823 -0.04214878 0.0033978848 -0.088888995 -0.0027204684 -0.10556802 0.02219616 0.009534751 -0.07769124 -0.11025261 0.15480053 0.07499857 -0.027592054 -0.035907485 -0.053969022 -0.044847976 -0.0053944 -0.032632377 0.14793286 -0.07427605 0.05199009 0.15470307 0.056262337 -0.06431669 -0.12123213 -0.16871141 0.13821481 -0.18354048 -0.0949496 -0.27461985 0.0043351357
要 -0.060121708 -0.13065088 0.039879184 0.09396989 0.16493563 0.02975663 0.17617801 -0.05802074 -0.0649749 0.11662097 0.017349651 0.0246909 -0.021815868 -0.17221949 0.028409302 0.16580808 0.15802935 0.087805204 -0.20331126 0.23354274 0.036144968 -0.0119200405 -0.10346085 -0.10599262 -0.18605855 0.047499623 0.024659786 0.09762546 -0.060629588 -0.15849878 0.03889071 -0.031485543 -0.020858293 -0.05009922 -0.09320158 0.2915609 0.16663247 -0.14088677 0.1242936 -0.12197647 -0.1250297 0.1755004 -0.09572706 -0.10673846 0.23458248 -0.0694729 0.02380761 -0.10889872 0.086469196 0.07526894 -0.011207233 0.10870331 0.06908802 0.0763708 -0.13828486 -0.07845376 0.15549955 -0.20357561 0.05843106 0.12354086 0.04222972 0.109188296 -0.052376352 0.056878418 0.10161991 -0.046953034 0.050672054 0.24015984 -0.09875963 -0.13919155 0.061950155 -0.02972175 -0.13905835 -0.22257689 -0.0027458717 0.026107358 -0.07902899 -0.110221095 0.09776128 0.22832963 0.014318266 -0.16589174 0.14424077 0.26174963 -0.033056784 0.15632325 0.18531838 -0.26117474 0.015298065 0.028820409 0.061114833 -0.11365595 0.102478825 -0.13260798 0.16873175 0.16919328 -0.25157303 -0.12622838 -0.031248659 -0.07490327 -0.17645249 0.015659982 0.054057818 0.063074544 0.09889897 0.03886091 0.030850006 -0.017465156 0.088065304 -0.14182706 0.12335258 -0.057219457 0.09112938 0.06185546 -0.053576518 -0.07260425 0.11965588 0.1333619 -0.013243797 0.053502657 -0.099147506 -0.11691717 0.034277543 -0.032919373 -0.10014629 -0.019570416 0.16463058 -0.0004281767 0.1347091 -0.085104205 0.09325523 0.005324703 0.0593059 -0.10236693 -0.09750052 -0.08182968 -0.03139694 0.10770487 0.199095 -0.052483022 -0.07851012 0.008140377 0.15473562 0.11931011 -0.3622424 -0.107992604 -0.1317566 -0.003876971 0.18531607 0.16818874 -0.109419316 -0.14693204 -0.12689571 0.14848877 -0.27171376 0.10325529 0.06272515 -0.045163207 -0.17096841 -0.0016893831 0.08094707 0.11713271 0.075243376 -0.046730448 0.07518609 0.017692914 -0.039195642 0.22604442 0.2172653 0.03990814 -0.060094 0.0030843227 0.03540572 0.04828044 -0.16204411 0.047719255 -0.17273392 -0.0010004858 0.26341715 -0.0017883412 -0.019935137 -0.025660979 0.027022688 0.011211592 0.1986434 0.05499676 -0.22860685 -0.035431348 -0.16073184 -0.029991671 0.16864817 -0.047310896 0.21552765 -0.06765055 0.09517331 -0.16838388 0.05396842 -0.23784211 -0.08753372 -0.13665715 -0.2702094 -0.1089431 0.12874526 -0.13907427 -0.02042702 -0.019289969 -0.20511755 -0.073361486 -0.17204084 -0.019275514 0.0706699 0.09847967 0.1349914 0.1701708 0.04535887 0.04149735 0.13270338 0.10369915 -0.17527135 0.008015829 -0.06397613 0.10660485 0.07443361 -0.12546086 0.036685746 -0.16906035 -0.045242682 0.004388077 -0.093623444 -0.00800391 -0.11133557 0.023517057 0.0128785325 -0.08321011 -0.11459344 0.16720605 0.07704124 -0.029973065 -0.040311493 -0.054694954 -0.047793053 -0.014018411 -0.030609865 0.15450104 -0.08018969 0.04837997 0.1661739 0.06355113 -0.07567839 -0.13899179 -0.18152049 0.14915515 -0.19784203 -0.10599059 -0.3043076 0.0025798974
