608 256
n -0.03614591 -0.09766254 0.052240893 0.05775356 0.10565912 -0.021526108 0.10429307 0.02306519 -0.05983566 0.044018764 -0.004928483 -0.010624117 -0.022721166 -0.066419885 0.02543255 0.08014893 0.05576729 0.03688819 -0.11656632 0.09343712 0.03833512 0.017048799 -0.019297525 -0.08915118 -0.079222314 0.02167267 0.037110187 0.07768915 -0.039569885 -0.06723548 -0.01099325 -0.00808731 0.0042984826 -0.015670422 -0.043381225 0.1099225 0.094494864 -0.07735939 0.04943028 -0.050518762 -0.09601938 0.093425356 -0.0023855679 -0.048200864 0.093375616 -0.01588418 0.0032097495 -0.0117427185 0.053521518 0.028881911 0.014477503 0.032118708 0.038842984 0.058388352 -0.032553192 -0.037755106 0.06673884 -0.10903508 0.03927936 0.061068498 0.0034322047 0.030118372 -0.022583826 0.018275123 0.014670267 -0.004837599 0.0049322876 0.09296334 -0.091105625 -0.032387123 0.09171381 -0.005828716 -0.05319546 -0.07972591 0.018303957 -0.015935682 -0.034504753 -0.063492015 0.029130543 0.13414882 0.01005728 -0.03950828 0.060927942 0.12823693 -0.002432771 0.08503162 0.10533644 -0.17152344 -0.0067109196 0.011727652 -0.01226382 -0.038636982 0.037730176 -0.0749808 0.11277352 0.105287865 -0.11548394 -0.06016797 -0.0036338873 -0.06528143 -0.113538295 0.0006729314 0.056079876 0.018353455 0.043565262 0.025452219 0.0056465375 -0.0032534616 0.031766426 -0.09422369 0.014371275 -0.073987804 0.035828497 0.0608152 0.01373225 -0.030307598 0.06490087 0.03678825 0.0001393138 -0.02711021 -0.0024438733 -0.064258106 0.0622226 0.0015797118 -0.058424283 0.01820268 0.045567174 0.009328771 0.0073717893 -0.012050378 0.09264852 -0.04655094 0.03294544 -0.04020049 -0.01751622 0.013020128 6.968168e-05 0.040908325 0.12627073 -0.026484396 -0.0114108585 -0.030939158 0.054543555 0.054482598 -0.15520102 -0.016910695 -0.040380143 -0.027200053 0.12394038 0.054008827 -0.053287357 -0.12704949 -0.072510794 0.04089411 -0.15006594 0.07427616 0.08497978 0.00094810873 -0.060759846 0.028786771 0.011011607 0.027973725 0.052728195 -0.056890916 0.04964776 -0.017667698 -0.036643688 0.07531333 0.09112637 0.052483186 -0.02919465 -0.0058728578 0.014665919 0.03971307 -0.07550216 -0.048639417 -0.07704134 -0.0022476467 0.110363565 0.047958873 -0.04022315 0.01216873 0.04769049 -0.01931559 0.10457882 0.017567607 -0.16653106 -0.036757946 -0.07675635 -0.0358073 0.100893565 -0.023727538 0.10019805 -0.029515855 0.06333821 -0.053762577 0.01636158 -0.08685992 -0.07648065 -0.025036622 -0.11202633 -0.025604961 0.023813924 -0.1056 -0.018529749 0.024127351 -0.12190125 -0.029843071 -0.10056792 0.0108063575 0.039407905 0.066254236 0.109977804 0.107073955 0.02950023 0.0056620454 0.050181482 0.101138495 -0.07571993 0.009530425 -0.024573354 0.056958813 0.006960193 -0.036252905 0.034126267 -0.07506672 -0.0255696 0.015808456 -0.029809864 0.032213163 -0.055923857 0.0023453988 0.0010043902 -0.02787023 -0.060729682 0.04997595 0.029221212 -0.011038311 0.02252501 -0.04801886 -0.053871464 0.033202555 -0.019291762 0.015046039 -0.041029643 0.011531812 0.049768437 0.044639714 -0.028156903 -0.0697329 -0.0738314 0.071843155 -0.07659102 -0.07252211 -0.15909912 0.01978479
v -0.037864085 -0.10234713 0.048381727 0.05395026 0.114124894 -0.02015844 0.10846279 0.020690225 -0.06224345 0.050526764 -0.005013648 -0.008072042 -0.023866912 -0.06797079 0.029613426 0.085036665 0.05809828 0.03873386 -0.11791677 0.10297679 0.040305693 0.017250571 -0.023599198 -0.09201086 -0.08351 0.020144248 0.03424374 0.07679318 -0.03668446 -0.06962157 -0.009274447 -0.010303812 0.0035887272 -0.013104838 -0.045179006 0.11574059 0.097673886 -0.07858055 0.053481627 -0.0470268 -0.09271236 0.09447846 0.0042965715 -0.050678354 0.092664056 -0.012493677 0.0062638377 -0.016456954 0.05502485 0.024277158 0.01931659 0.03411163 0.043829974 0.056879457 -0.033166442 -0.035138156 0.06845132 -0.11137415 0.045145947 0.057959706 0.008149879 0.02820169 -0.024424074 0.02455175 0.017068619 -0.0072050523 0.00929601 0.09676307 -0.096647345 -0.033226427 0.09405618 -0.008153494 -0.053388562 -0.07816216 0.017343545 -0.018318076 -0.040951896 -0.065540306 0.032275707 0.14483011 0.014147911 -0.043991514 0.056893002 0.13272709 0.0014313468 0.08823031 0.10799989 -0.17456773 -0.0026281762 0.010688851 -0.011892935 -0.04054238 0.03564221 -0.07826916 0.113655366 0.10559685 -0.11897262 -0.06282986 -0.0065254457 -0.06978396 -0.11184322 0.0026811175 0.05703864 0.014928945 0.04172768 0.030496825 0.00805229 -0.006307606 0.03598159 -0.09657908 0.015190288 -0.06894568 0.03827779 0.055758182 0.014746176 -0.035693914 0.063080676 0.03801443 0.0006955207 -0.029831897 -0.0056437533 -0.061239507 0.058247264 0.006832871 -0.06466057 0.019705316 0.05045805 0.008570968 0.008192224 -0.016280603 0.09421978 -0.04389634 0.033371054 -0.042314515 -0.022154182 0.011484007 -0.0027071976 0.038877603 0.12950522 -0.030722063 -0.012788363 -0.032042183 0.058900274 0.054166272 -0.16111696 -0.019874496 -0.047081996 -0.027791357 0.12823185 0.056777995 -0.057484154 -0.12533405 -0.075922176 0.04322827 -0.15611735 0.074430496 0.08021728 -0.0003023086 -0.063870996 0.025192995 0.013820399 0.029413251 0.05881496 -0.05841776 0.049909607 -0.023524903 -0.037579697 0.08326432 0.089293234 0.051786974 -0.028121643 0.00010860377 0.009018673 0.03808674 -0.07446145 -0.046064515 -0.075856045 -0.005278405 0.11476798 0.048196696 -0.03888649 0.0128341075 0.04656412 -0.016560758 0.10764829 0.016432866 -0.17496596 -0.029978588 -0.077891015 -0.037892256 0.10428974 -0.023943491 0.10312103 -0.029793793 0.06754917 -0.054419145 0.018698176 -0.08993195 -0.07514926 -0.030552981 -0.1187925 -0.03155635 0.02693451 -0.11050212 -0.020390708 0.018913899 -0.12261308 -0.03121787 -0.10125862 0.007970066 0.046490822 0.07299363 0.10742371 0.11290996 0.025219526 0.01007892 0.048238475 0.100942075 -0.073193386 0.015091086 -0.023210492 0.063692845 0.011571196 -0.037529092 0.028893176 -0.0781005 -0.028330425 0.013071534 -0.03104191 0.028411686 -0.056454178 0.006274399 -0.00029326673 -0.029124705 -0.057509523 0.050782558 0.032653153 -0.014465715 0.023552673 -0.051585663 -0.050463747 0.035361208 -0.01882772 0.013983995 -0.046897583 0.0114192255 0.049929265 0.043216866 -0.030800007 -0.07189576 -0.07438489 0.07651762 -0.078504406 -0.07393235 -0.16102576 0.021884028
u -0.02456093 -0.06208506 0.028662886 0.028635886 0.062288016 -0.013543768 0.059439443 0.010779514 -0.03788643 0.026675513 -0.0013448076 -0.0029065656 -0.015153443 -0.04251417 0.017644988 0.043971397 0.032915752 0.024543062 -0.064306706 0.053911254 0.019008402 0.005673359 -0.013273065 -0.048871614 -0.04583189 0.015952628 0.024017647 0.04314969 -0.017808627 -0.041870054 -0.0076882835 -0.0052529923 0.00019170484 -0.009437588 -0.025239741 0.06857824 0.0539602 -0.044761784 0.03044268 -0.032258984 -0.051191848 0.05772294 -0.0035815898 -0.026326165 0.059335846 -0.012555035 0.00073672435 -0.012475256 0.03394161 0.014766384 0.014187607 0.01479037 0.02547059 0.035447653 -0.020954475 -0.02048714 0.03508187 -0.066554174 0.025092332 0.03647209 0.0054856325 0.020034153 -0.012312347 0.01605434 0.005282604 -0.0019399269 0.0033429742 0.055354856 -0.05020856 -0.022054672 0.055087127 -0.009129459 -0.031624116 -0.04811699 0.0075199017 -0.005610133 -0.023041826 -0.03595363 0.021679344 0.084861726 0.0029462099 -0.024877299 0.03878573 0.07614499 -0.000606816 0.04629101 0.061944615 -0.10304131 9.1612375e-05 0.0036127518 -0.0079043945 -0.022364317 0.021278676 -0.04399289 0.066831425 0.06103773 -0.06749318 -0.034941696 0.00036783243 -0.03941399 -0.06536411 0.0032799896 0.029962393 0.0090465695 0.027803957 0.019322418 0.003845403 -0.0068995603 0.020082342 -0.055293147 0.012601205 -0.04144314 0.02289883 0.035145756 0.0064059612 -0.021663556 0.036725957 0.019154754 0.0033531713 -0.012182543 -0.0023512356 -0.03551173 0.03239689 0.0037441535 -0.038967434 0.00680517 0.026070014 0.0008956077 0.0076279007 -0.011283032 0.05553621 -0.02934137 0.02087537 -0.018410595 -0.014201902 0.0028137795 -0.0029240532 0.021863528 0.07231119 -0.021264378 -0.011934267 -0.015628299 0.031099364 0.028783815 -0.09197332 -0.015489539 -0.02859283 -0.019069705 0.0730399 0.029650288 -0.030382002 -0.0723197 -0.044191685 0.026045471 -0.090598226 0.039899003 0.045329694 -0.0029024025 -0.036467943 0.018007435 0.007502537 0.017446237 0.03502047 -0.035507884 0.030251691 -0.009051765 -0.024778763 0.048606087 0.054539192 0.02682829 -0.019016908 -0.00045758073 0.0067839036 0.019431418 -0.040452924 -0.029132975 -0.046448246 -0.0011512821 0.06284697 0.029208584 -0.02280491 0.005780797 0.027117003 -0.009459347 0.06496576 0.008193418 -0.09917841 -0.017413618 -0.04279304 -0.021929214 0.06266357 -0.010278833 0.05712485 -0.015692556 0.039908312 -0.034542825 0.006397188 -0.05347975 -0.04328773 -0.01599772 -0.06466869 -0.016844042 0.015497703 -0.061075754 -0.010776309 0.012642685 -0.07391939 -0.021896038 -0.05778206 0.0075498708 0.024665358 0.036328744 0.059717137 0.06601352 0.013968733 0.0069679893 0.02598329 0.060545832 -0.045385677 0.008475511 -0.013455447 0.031956904 0.0036147702 -0.019819919 0.016081069 -0.043826506 -0.020118559 0.009226021 -0.01243283 0.017182397 -0.03518069 0.004593196 0.0055735637 -0.01839934 -0.036611713 0.028897481 0.021640072 -0.006895023 0.009351233 -0.028551292 -0.026874239 0.01614235 -0.013292241 0.011301094 -0.029026104 0.007314376 0.029373767 0.029676976 -0.012420022 -0.041881364 -0.04535774 0.04659542 -0.0427022 -0.038599145 -0.09626454 0.016778924
p -0.020682553 -0.057409927 0.029211242 0.030186418 0.06351398 -0.0109753385 0.05577286 0.012102069 -0.029182471 0.023684684 -0.0033602037 -0.008922678 -0.014236358 -0.038963947 0.0118010575 0.046631213 0.03139132 0.019964648 -0.061838 0.05842181 0.023406979 0.007796106 -0.011506693 -0.051873233 -0.049257364 0.015260698 0.020009907 0.041815422 -0.021169286 -0.038486537 -0.0024649429 -0.0056991694 -0.0037304661 -0.003593021 -0.02207312 0.065890566 0.0540605 -0.041031223 0.03167542 -0.028889414 -0.05475273 0.05337067 0.002048092 -0.028441936 0.056537732 -0.01009562 0.007188653 -0.008069647 0.026618324 0.013457791 0.0071661696 0.01587761 0.023101088 0.036674585 -0.01661485 -0.023005331 0.038133897 -0.058711216 0.02209873 0.028343225 0.0026831385 0.013409175 -0.009360204 0.009829828 0.011297856 0.0005240661 0.0030668369 0.052867737 -0.05183169 -0.015751505 0.051671676 -0.009091167 -0.030449176 -0.04140579 0.009438263 -0.009858205 -0.02145861 -0.036405075 0.016901493 0.07893977 0.004268953 -0.02454516 0.03305634 0.07083294 5.1636773e-05 0.045366894 0.0596004 -0.09597418 -0.0020447948 0.0055344165 -0.0049906233 -0.024487782 0.017623764 -0.044239424 0.06501724 0.057066545 -0.0668823 -0.03250547 -0.004109807 -0.035921603 -0.06549153 0.0004555517 0.026547369 0.009552929 0.024952065 0.018590828 -0.00032312112 -0.005459121 0.015897993 -0.054922488 0.0044912924 -0.04043538 0.021163732 0.029291278 0.009575298 -0.018253677 0.037040856 0.019112427 0.0011319704 -0.018586151 -0.0026338694 -0.033560712 0.031163596 0.0039250273 -0.033463996 0.009000713 0.030670961 0.0075042113 0.0057658884 -0.0055428804 0.05217573 -0.027356137 0.016548373 -0.024173468 -0.013729569 0.010108202 -0.0021431977 0.019020818 0.06740772 -0.014606512 -0.009429532 -0.017373245 0.0335212 0.02960162 -0.08737033 -0.010756936 -0.025239294 -0.010996502 0.07094682 0.026152983 -0.029392058 -0.07199919 -0.04038959 0.024062563 -0.08643288 0.039069965 0.048898295 -0.0022806597 -0.037014935 0.018091774 0.0074832747 0.013267541 0.034280606 -0.029461851 0.028968276 -0.0076628975 -0.025785131 0.045762025 0.05025072 0.030082246 -0.014911755 0.00049509143 0.008896326 0.023210702 -0.043441333 -0.027569057 -0.042001795 0.0004936502 0.059791308 0.030197345 -0.018860737 0.009185626 0.026550058 -0.0061421925 0.05792714 0.013559479 -0.09212148 -0.021186091 -0.045498405 -0.020233411 0.058604762 -0.013628226 0.054201778 -0.011516383 0.03993303 -0.031391546 0.006033895 -0.05024097 -0.042922817 -0.018941117 -0.06241121 -0.01706636 0.01597464 -0.056879114 -0.013791225 0.007983074 -0.06719901 -0.020086937 -0.053856097 0.0029265792 0.026343463 0.038159646 0.061425228 0.058697872 0.014280858 0.007521026 0.027621634 0.052099988 -0.04404746 0.007052846 -0.009673486 0.035334975 0.0010288248 -0.015134711 0.01940845 -0.037870057 -0.012135411 0.0050205714 -0.019191237 0.019685518 -0.028745715 0.0044491524 0.00479758 -0.015613686 -0.029066537 0.025021309 0.013399504 -0.009667011 0.010833619 -0.024543464 -0.030307673 0.01504745 -0.007244791 0.0056200405 -0.02031409 0.0036376826 0.029054055 0.027558312 -0.014105059 -0.040259548 -0.040574387 0.03793722 -0.042581595 -0.0400588 -0.084177494 0.010998677
d -0.02958442 -0.07104064 0.036728393 0.038742963 0.08401858 -0.011728914 0.07416489 0.014481943 -0.039408088 0.037274685 -0.0032008034 -0.005401161 -0.01393352 -0.05163562 0.01757264 0.059905387 0.040184736 0.026922496 -0.08679244 0.07499563 0.023468273 0.008348844 -0.017748436 -0.066736296 -0.06378125 0.017413022 0.024988333 0.055199265 -0.029675858 -0.048474222 -0.0037402695 -0.005450858 -0.0021540655 -0.010760396 -0.028304905 0.08322435 0.06385673 -0.056857985 0.037901845 -0.03503259 -0.071969375 0.07002062 -0.002705831 -0.037442345 0.07065442 -0.01277779 0.006117965 -0.007769602 0.036978345 0.022771392 0.014086322 0.026565857 0.031982582 0.03909474 -0.02780545 -0.02399361 0.050355755 -0.07532149 0.033104524 0.045744453 -0.0010359887 0.024358893 -0.017312458 0.017161088 0.014395376 -0.0026143414 0.007282549 0.067872204 -0.06711885 -0.02190126 0.06372509 -0.006522496 -0.035131667 -0.05861073 0.013486359 -0.015136775 -0.0234709 -0.043055028 0.023074009 0.10416492 0.008234075 -0.03276216 0.043035395 0.09571568 -0.0018672025 0.060699057 0.078303955 -0.12441354 -0.0047560944 0.006093278 -0.006837867 -0.03117749 0.02537087 -0.05843079 0.07893031 0.072760575 -0.08481786 -0.04569115 -0.0024811735 -0.053620033 -0.085350715 -0.0038939102 0.03676849 0.014640637 0.031682108 0.020890722 0.0025985443 -0.0071799564 0.024441702 -0.067656964 0.010781195 -0.052382357 0.028643508 0.04271954 0.005703918 -0.027388448 0.042657234 0.024249036 0.0018978022 -0.017259244 -0.0033984156 -0.047168948 0.04765366 0.004202328 -0.046116542 0.016116045 0.03627247 0.0036653131 0.009259617 -0.0091079855 0.0625734 -0.033490624 0.025092684 -0.025376001 -0.014645513 0.007384623 -0.0007433555 0.028812928 0.0911612 -0.022884116 -0.013594719 -0.017928634 0.046428125 0.04419176 -0.118028924 -0.014137239 -0.033245057 -0.015365349 0.092364736 0.041646235 -0.040655825 -0.08871658 -0.055914644 0.03266296 -0.11177994 0.050187793 0.059555963 0.0027734162 -0.047362503 0.018529523 0.014052386 0.020017015 0.038083892 -0.04327282 0.039591726 -0.012126442 -0.027875032 0.05601093 0.061475143 0.03879221 -0.017724758 -0.0038292499 0.00580054 0.026441313 -0.05753778 -0.03481845 -0.055842552 -0.0029008675 0.08429619 0.032747194 -0.025713075 0.010192264 0.03347252 -0.008737838 0.081391625 0.011254935 -0.12588023 -0.027095499 -0.061257068 -0.02669946 0.071890846 -0.020993244 0.073916174 -0.018183924 0.05044366 -0.041534822 0.008814907 -0.06311272 -0.05373039 -0.016605359 -0.082688086 -0.017225424 0.016361691 -0.07401148 -0.016571587 0.019098075 -0.09242225 -0.021810772 -0.07166999 0.00641633 0.028778674 0.0464449 0.075969756 0.07598748 0.020371411 0.0057835737 0.035332367 0.07462765 -0.05475035 0.008271159 -0.019551022 0.03935876 0.010043596 -0.026708737 0.020703886 -0.05213181 -0.018644186 0.007122709 -0.019822137 0.020539636 -0.042415082 0.0020986015 0.0011474211 -0.018898666 -0.03894758 0.040883083 0.0181028 -0.012010505 0.0191153 -0.034200113 -0.040261894 0.024517681 -0.010122625 0.0085833995 -0.035160083 0.008247974 0.039177116 0.03631463 -0.018080708 -0.053708926 -0.05555976 0.054094635 -0.052829035 -0.0548533 -0.118452206 0.01643268
的 -0.023040742 -0.05041927 0.026567833 0.03300786 0.05639301 -0.010375291 0.05811772 0.008576646 -0.032812126 0.02486905 -0.0029573254 -0.006356955 -0.008550691 -0.040247533 0.0158944 0.043694586 0.032913234 0.022282055 -0.058000065 0.055115283 0.01516369 0.0118534295 -0.01509917 -0.048695065 -0.045814306 0.0106155425 0.01653995 0.037187573 -0.021342115 -0.03590998 -0.005982278 -0.0014448229 -0.0032434913 -0.008984993 -0.019302424 0.06206823 0.05230986 -0.03845785 0.026403558 -0.028588036 -0.0468524 0.050288014 0.0035115958 -0.022466829 0.05329561 -0.005220678 -0.0006216281 -0.011212679 0.028507907 0.015885556 0.012162495 0.018488707 0.02487389 0.029146083 -0.016856618 -0.021158248 0.030925803 -0.053318184 0.022161141 0.029723242 0.0012206999 0.014517171 -0.00887522 0.013378157 0.0070591536 -0.0060233423 0.001555096 0.048183795 -0.04560799 -0.01887197 0.04773216 -0.0044543296 -0.03099656 -0.03979936 0.00811831 -0.007526624 -0.018221788 -0.03416218 0.015217669 0.07721257 0.0071891234 -0.018817145 0.033485293 0.07062163 0.0030359554 0.04475773 0.058492616 -0.08881178 -0.0008010481 0.0044421456 -0.007352544 -0.02251959 0.016004324 -0.038943965 0.06180942 0.059020724 -0.060758837 -0.028436936 -0.0002244893 -0.037855938 -0.057784874 -0.0027674278 0.032247942 0.010605091 0.02323506 0.01668611 0.006149475 -0.00012303684 0.017353682 -0.051892594 0.01157863 -0.034899563 0.021206321 0.030919246 0.0042479616 -0.019810293 0.036743224 0.016641593 -0.0017431672 -0.010217388 0.0010708203 -0.029898163 0.032108437 -0.0005976938 -0.02927732 0.0076986 0.027647968 0.0056768055 0.008376699 -0.011569727 0.051074296 -0.027662652 0.015209606 -0.023211284 -0.012203628 0.009192558 0.0022944713 0.019484973 0.06688111 -0.018030778 -0.004557195 -0.012790639 0.031221004 0.028000562 -0.08544407 -0.008780452 -0.022541847 -0.015344409 0.06914551 0.026855318 -0.033735596 -0.0667442 -0.038770333 0.018425046 -0.08192312 0.034565814 0.04739537 0.0025303476 -0.032492973 0.017073253 0.010933258 0.01398784 0.031601377 -0.027741393 0.027974132 -0.007317657 -0.023523524 0.040517405 0.047938187 0.028200947 -0.013443408 0.00087084906 0.008060692 0.016471153 -0.041344255 -0.027538724 -0.035945393 0.000968899 0.05815963 0.028032843 -0.022397203 0.003226282 0.02585252 -0.006495414 0.05777066 0.0121965 -0.09023611 -0.019363204 -0.041384306 -0.019387335 0.05133208 -0.015602949 0.05562021 -0.014817361 0.033913814 -0.032604087 0.011071448 -0.04571378 -0.03801985 -0.013379979 -0.062985204 -0.013418839 0.015342862 -0.059579242 -0.009562762 0.012005242 -0.06157978 -0.014471025 -0.053310193 0.0015769472 0.024531547 0.036917657 0.05913763 0.05963722 0.015151659 0.0015531923 0.025699513 0.05521585 -0.041352406 0.01016779 -0.014651338 0.033312477 0.0054885657 -0.0145792365 0.014590499 -0.040967535 -0.018088585 0.008646115 -0.016382135 0.019742953 -0.033149857 -0.0004455546 -3.9335486e-05 -0.011846951 -0.03301335 0.024999838 0.013053148 -0.0039977627 0.012935923 -0.024055887 -0.029350273 0.019898968 -0.01219709 0.006247297 -0.025180778 0.005197146 0.025676787 0.027933516 -0.01405781 -0.040532213 -0.041875824 0.036051 -0.038301196 -0.0335272 -0.085884735 0.01536234
Bo29 -0.014374466 -0.050348908 0.020754892 0.029977633 0.056213137 -0.011019235 0.0470985 0.012245032 -0.026702708 0.025185704 -0.006674001 -0.008605833 -0.009360934 -0.037504714 0.011189444 0.037932895 0.03066338 0.02128184 -0.056209665 0.04945376 0.02013896 0.006203697 -0.0070641777 -0.040421978 -0.03895372 0.009906852 0.015641809 0.035069432 -0.014577512 -0.034488056 -0.0048637185 5.70477e-06 0.0019126504 -0.004036414 -0.023826296 0.053434487 0.04670902 -0.038334295 0.026881006 -0.02012374 -0.044596903 0.04361864 3.157587e-05 -0.024825811 0.042143807 -0.008333798 0.001596545 -0.0059545347 0.022547724 0.014363292 0.0056894566 0.011810121 0.023074014 0.031717375 -0.019007301 -0.016109895 0.028940214 -0.05503968 0.017478893 0.030698685 0.0044360827 0.018320855 -0.0071661165 0.013033519 0.007937851 -0.006849414 0.0044289604 0.043647513 -0.04091499 -0.0152543085 0.042006925 -0.0011099661 -0.0250128 -0.03667383 0.006112019 -0.010932757 -0.021133073 -0.02687337 0.011394127 0.07067203 0.001128778 -0.019286485 0.027843842 0.057520658 0.0034593823 0.04357333 0.05111932 -0.08016416 -0.0026542637 0.0080981925 -0.0031843071 -0.022849316 0.015668571 -0.036804844 0.0539755 0.04861333 -0.053710055 -0.031059809 -0.0008044104 -0.030805212 -0.051380545 -0.0016257521 0.02289857 0.004073732 0.019620944 0.010632762 -0.000230171 -0.00041097723 0.01880008 -0.043611486 0.0042384947 -0.036555678 0.021780971 0.029675126 0.003732974 -0.019199207 0.030511333 0.017700197 0.0015646018 -0.011623905 -0.0039908425 -0.033991 0.026323918 0.002418725 -0.027527573 0.010084713 0.024016723 0.0057088877 0.004112258 -0.0057101725 0.039283548 -0.018554937 0.01862773 -0.015756454 -0.0063064927 0.009143573 -0.00064885244 0.01811363 0.059466746 -0.0184072 -0.0038065282 -0.01605795 0.031560108 0.025083337 -0.07460915 -0.013218471 -0.024502086 -0.01624814 0.056823436 0.026176304 -0.030042524 -0.061720118 -0.037273403 0.017429506 -0.06947472 0.03637596 0.043232825 0.0023819092 -0.031726703 0.015498818 0.0034518645 0.0118169645 0.0236003 -0.024863416 0.024319477 -0.0063851248 -0.018084567 0.034669556 0.045986794 0.0215347 -0.009869633 0.00017161376 0.0042583095 0.015862653 -0.038084038 -0.024499828 -0.03213468 -0.002070582 0.055703923 0.019928798 -0.016915027 0.004522384 0.025323875 -0.011766487 0.053902514 0.0070002913 -0.08336136 -0.018569743 -0.03908443 -0.017800096 0.04716828 -0.014180649 0.048595678 -0.013118506 0.030663202 -0.025308264 0.0039354884 -0.04289012 -0.032941382 -0.009803603 -0.058539305 -0.010052589 0.0149423145 -0.052540686 -0.007013036 0.006475091 -0.0555004 -0.012757573 -0.04687622 0.0018910073 0.01807872 0.031420417 0.05214719 0.05250857 0.01580699 0.0075688628 0.026898917 0.045770746 -0.03129438 0.005620873 -0.008911004 0.029550862 0.0040383344 -0.01427948 0.012760362 -0.03778878 -0.017270729 0.0073030633 -0.010669426 0.015173356 -0.028028557 0.0037918868 0.004840825 -0.016190516 -0.026851833 0.021521624 0.015991922 -0.0021020127 0.0134654455 -0.02016661 -0.022400891 0.018243056 -0.0062475125 0.009884196 -0.022758255 0.0086312685 0.02612433 0.021374742 -0.00952585 -0.031731237 -0.032299396 0.036164746 -0.031487998 -0.03319772 -0.07228478 0.012352466
-1 -0.018875888 -0.059289757 0.031896852 0.034941874 0.063699074 -0.011606257 0.061654937 0.00856477 -0.030403538 0.023100976 -0.0071120374 -0.0048447736 -0.009682376 -0.04276129 0.016997674 0.051274437 0.029823946 0.019199481 -0.06944708 0.05582934 0.021650156 0.012384483 -0.010523041 -0.052458514 -0.047503725 0.016988948 0.025301669 0.046593722 -0.019108918 -0.041767187 -0.0058378372 -0.0066601424 0.0027062206 -0.00881781 -0.028445723 0.06830333 0.05703393 -0.045679573 0.032766126 -0.028963214 -0.055774186 0.05428456 0.0004754581 -0.02906359 0.056054365 -0.007187296 0.006475411 -0.012665242 0.029475022 0.012441933 0.01348815 0.020653157 0.022147533 0.034966096 -0.0235243 -0.020990834 0.042123064 -0.06387741 0.021813542 0.031095155 0.0014318812 0.017331168 -0.010893614 0.0162574 0.008006223 -0.0026626305 0.0072260476 0.054307085 -0.052307326 -0.015596301 0.056224182 -0.002220931 -0.033673167 -0.041015483 0.01222502 -0.005888586 -0.022527749 -0.035621192 0.020735135 0.08001165 0.008717544 -0.022641692 0.038230438 0.07285865 -0.0011063738 0.052082203 0.05700026 -0.10273205 -0.005825714 0.0049834284 -0.008269691 -0.020186111 0.024864644 -0.044708584 0.06457057 0.061737176 -0.06694886 -0.037315935 0.00048250062 -0.041644942 -0.063083135 0.0029259406 0.03276491 0.01071018 0.025635464 0.015238523 0.0044858316 -0.0032569994 0.021532336 -0.051982284 0.009451842 -0.039550394 0.0191012 0.036778953 0.010656788 -0.021400632 0.03725425 0.017564885 0.0013910884 -0.01486546 0.0011546724 -0.03658068 0.03619883 0.0036713937 -0.032341484 0.007944409 0.025571868 0.0031052665 0.0040761703 -0.0066133235 0.048814293 -0.027486239 0.016548954 -0.01978745 -0.012020172 0.0033537687 0.00048694154 0.026581673 0.071112424 -0.019955724 -0.007830745 -0.01687322 0.030439248 0.0358336 -0.093996815 -0.013792152 -0.026142444 -0.017702373 0.07340593 0.0351182 -0.031485863 -0.06930023 -0.04301798 0.023814978 -0.08910927 0.03803184 0.04937403 -5.1781677e-05 -0.039463557 0.013339708 0.0045918175 0.0132368 0.033991996 -0.028915899 0.030018592 -0.010796671 -0.020367963 0.04509777 0.051232588 0.025909536 -0.016545195 -0.0021427032 0.00709455 0.024799585 -0.047123544 -0.028437719 -0.04637672 -0.002210666 0.06277014 0.029812377 -0.020475347 0.0045866366 0.024998397 -0.0095445765 0.06387788 0.012822021 -0.09966249 -0.021201285 -0.04846221 -0.020345105 0.059804972 -0.013021279 0.06137207 -0.016672658 0.038114548 -0.03461247 0.007897822 -0.053704 -0.04322129 -0.015073065 -0.06948999 -0.012260259 0.011943141 -0.065554015 -0.016089464 0.015167572 -0.06899306 -0.014448103 -0.056215446 0.0051725092 0.02335159 0.04353686 0.063803606 0.06449344 0.015102757 0.0050526597 0.031181976 0.056922488 -0.04128281 0.0066888244 -0.0109450165 0.036110323 0.0060632294 -0.021451388 0.016468968 -0.041577123 -0.019334188 0.007813816 -0.0164722 0.019539068 -0.037635304 0.006685533 0.0012762285 -0.018114207 -0.0320999 0.029275509 0.0145270815 -0.009173577 0.012711534 -0.031342797 -0.030444501 0.020140173 -0.012129509 0.008478408 -0.023942187 0.009785736 0.029616382 0.027813714 -0.014351206 -0.041747052 -0.04725497 0.046225764 -0.044317435 -0.045184392 -0.094296046 0.011250309
f -0.016652029 -0.047552064 0.027886188 0.024642177 0.05571374 -0.010320012 0.049489655 0.012762362 -0.02776315 0.021588271 -0.0072658975 -0.0071305465 -0.010931444 -0.031529613 0.016509824 0.03721818 0.024086814 0.02141861 -0.05837171 0.047966372 0.020486318 0.0054540387 -0.00907485 -0.045630615 -0.044241894 0.011189252 0.021095129 0.041615173 -0.017561693 -0.031095007 -0.0056873644 -0.0041301996 -0.0019391752 -0.0056979563 -0.02206225 0.054461986 0.043721426 -0.034068845 0.02620437 -0.025069227 -0.04865248 0.049384814 -0.0018744214 -0.02245593 0.047660768 -0.0048306873 0.0058573876 -0.008949489 0.02725794 0.012193088 0.0052915225 0.014052791 0.021273741 0.032337267 -0.01438469 -0.014654748 0.029628603 -0.05127062 0.01849812 0.028554376 0.002169492 0.017394222 -0.008605493 0.012956653 0.011807985 -0.0028818068 4.2057025e-05 0.043318976 -0.04351604 -0.019196803 0.04424071 -0.0035489085 -0.027706174 -0.0409306 0.0076683583 -0.00786224 -0.018259784 -0.03000254 0.01296404 0.07110153 0.008116969 -0.019830054 0.032329272 0.06184721 0.0023157431 0.039536398 0.05368459 -0.08934044 -0.003537121 0.0009617549 -0.0071556517 -0.021760486 0.016693348 -0.037669692 0.056605093 0.051615838 -0.060196653 -0.031491715 -0.0018072607 -0.036183085 -0.0594086 -0.0009484419 0.029837023 0.0105332825 0.01614921 0.015303895 0.0002533159 -0.0062490697 0.016794354 -0.0467311 0.004777379 -0.037889443 0.018533396 0.032325838 0.0030523553 -0.0138366595 0.031126156 0.01741274 0.0047109495 -0.011994233 -0.0030517157 -0.030368198 0.031528417 0.005678027 -0.031028097 0.0068320013 0.024673527 0.0014156845 0.004771831 -0.0056264303 0.04681306 -0.019256203 0.013645539 -0.021572484 -0.0069104014 0.0067240074 -0.0041538267 0.01997877 0.06336887 -0.016111154 -0.009427724 -0.01224854 0.03329448 0.024733605 -0.077814564 -0.011072729 -0.02432194 -0.013838508 0.060377963 0.030310629 -0.03092166 -0.060929045 -0.036735483 0.021684542 -0.075028546 0.040031143 0.041066207 -0.0025756443 -0.031086415 0.0138604315 0.0058355993 0.010345309 0.025615761 -0.03076988 0.027137274 -0.00844876 -0.01706634 0.04175092 0.042201474 0.026525397 -0.010714937 -0.0004144965 0.007842221 0.021143628 -0.041482713 -0.019717991 -0.034823485 0.0028801095 0.05179263 0.027477058 -0.01555939 0.0053149587 0.02049943 -0.0064840536 0.05002425 0.0076036737 -0.08274807 -0.01273902 -0.036367696 -0.018909184 0.0472695 -0.007770913 0.052206136 -0.014732231 0.029103335 -0.029578915 0.005880239 -0.044775527 -0.03641456 -0.01384938 -0.057785004 -0.016557282 0.017217562 -0.05516484 -0.01397605 0.013553237 -0.06016659 -0.012315875 -0.05099584 0.0012656531 0.021561837 0.033801135 0.050287675 0.053458486 0.014711126 0.0067748316 0.026988976 0.050494585 -0.038714025 0.005158664 -0.012629074 0.032416876 0.0014446577 -0.015889421 0.015574385 -0.039199155 -0.01723268 0.009300845 -0.01732238 0.0155478595 -0.028339615 0.005839392 -0.001115022 -0.01235059 -0.025087146 0.023087176 0.013451489 -0.004117251 0.01327299 -0.023105277 -0.022801658 0.016827105 -0.00867795 0.0056332857 -0.024418995 0.006251231 0.025567405 0.019598613 -0.013838347 -0.035278242 -0.037367783 0.04039112 -0.03813532 -0.03716103 -0.07505269 0.008342811
a -0.022364547 -0.051304862 0.022680836 0.028076574 0.057033993 -0.010721154 0.050093677 0.0098226685 -0.030453179 0.025063204 -0.0008877612 -0.0027125187 -0.007491859 -0.03935082 0.01786545 0.040638816 0.031876337 0.02007794 -0.056943126 0.046285078 0.01436991 0.011388396 -0.012521403 -0.04470766 -0.03965323 0.011873253 0.023052031 0.03832593 -0.022713035 -0.036845386 -0.0043923245 -0.0072084167 0.0031258536 -0.0055846227 -0.025301263 0.060543317 0.05066998 -0.036315244 0.028545659 -0.029194664 -0.047334366 0.04367587 -0.0010560707 -0.024082808 0.048196092 -0.007719499 0.0044855797 -0.007211607 0.028668258 0.01587506 0.00682377 0.018787693 0.02327847 0.03379723 -0.01663928 -0.019987462 0.03177848 -0.05493277 0.02047685 0.033486154 0.0024913056 0.017199598 -0.00895054 0.007597917 0.010638303 0.0003219491 0.002230984 0.04767418 -0.04883748 -0.019420683 0.04929902 -0.0056797056 -0.024335213 -0.038566314 0.007742049 -0.0070787114 -0.020821985 -0.03314667 0.016350945 0.07308413 0.0048577404 -0.020456696 0.027198916 0.06852702 -0.003439308 0.046187334 0.05444914 -0.09031931 -0.0047264816 0.0016130295 -0.008423612 -0.016954299 0.022385083 -0.03784402 0.056489646 0.05685908 -0.05973382 -0.030118283 -0.0005633694 -0.037609678 -0.060614698 -0.0042525576 0.031474393 0.010369358 0.019100053 0.011283449 0.0032205796 -0.0017361825 0.016469134 -0.04671361 0.005835197 -0.034878258 0.02019907 0.033670254 0.0022457421 -0.01947753 0.028376138 0.01705442 -0.0022277092 -0.0115545755 -0.004247936 -0.03457482 0.032473996 -0.00040742417 -0.031052828 0.0061124144 0.02843491 0.007101448 0.004974155 -0.0055743894 0.047278408 -0.02563428 0.021042127 -0.022936262 -0.006480602 0.007025678 -0.0023303505 0.018403023 0.06669991 -0.017733714 -0.0044102184 -0.016826257 0.033456467 0.028100878 -0.07618621 -0.011827913 -0.01983492 -0.009997439 0.06445042 0.027957734 -0.027113523 -0.060453467 -0.03386895 0.023978269 -0.07427659 0.039702144 0.045281313 -0.00077413506 -0.031605855 0.014203041 0.007558121 0.013998785 0.024578378 -0.032272365 0.02425523 -0.0063031428 -0.022122737 0.037178043 0.047276832 0.02648503 -0.013476124 0.0004152567 0.007889468 0.021412034 -0.038051896 -0.02322472 -0.03469778 0.0005190411 0.053931855 0.02789281 -0.016740061 0.006587001 0.022274569 -0.007151171 0.05647531 0.011955972 -0.08557821 -0.020302374 -0.0400193 -0.017428922 0.05312628 -0.015770288 0.054986484 -0.016258204 0.03557105 -0.03217729 0.011030723 -0.041407187 -0.036892418 -0.01523112 -0.05785668 -0.013437734 0.011098039 -0.051661856 -0.010116924 0.012678362 -0.06529881 -0.012647177 -0.050020084 0.0043029515 0.017811876 0.036327258 0.057575565 0.058192484 0.01104328 0.0010476534 0.02272334 0.04968317 -0.040743817 0.0029033592 -0.012298558 0.030732775 0.00051448966 -0.018515289 0.016374629 -0.03497336 -0.014095677 0.0067172446 -0.01712271 0.0134151075 -0.03045754 0.005646196 0.0041240593 -0.01442819 -0.029057948 0.022514217 0.014740185 -0.008325298 0.01354265 -0.025213068 -0.028744563 0.013099455 -0.010148753 0.0036220655 -0.022758413 0.0034945977 0.02438694 0.022261005 -0.016991323 -0.03585247 -0.03757255 0.036040623 -0.040987 -0.037275005 -0.08385268 0.011148277
c -0.014307137 -0.04663129 0.024230663 0.026966076 0.053954005 -0.0064024283 0.05098704 0.0053095226 -0.029901812 0.018436756 -0.0064475765 -0.007766675 -0.012845841 -0.032874666 0.01354237 0.036249 0.021489367 0.018922789 -0.051929418 0.046695963 0.019198932 0.010145859 -0.010706452 -0.039754737 -0.039889436 0.011548116 0.019032408 0.038846303 -0.017968586 -0.02927841 -0.0059697307 -0.0043191826 0.0036523282 -0.007840132 -0.019974552 0.047600247 0.038492568 -0.030848257 0.020708594 -0.020485725 -0.045325644 0.04146397 -0.0027938292 -0.018298632 0.045652114 -0.0050867237 0.00635369 -0.007387613 0.020306854 0.015424127 0.0063020634 0.016963901 0.020969978 0.026239576 -0.019515162 -0.017232932 0.032574244 -0.052146427 0.019471146 0.023494253 0.005221872 0.013067596 -0.0055840653 0.0076695057 0.0031519206 -0.00605625 0.00085445156 0.04400402 -0.04168084 -0.011584047 0.042348154 -0.0024053776 -0.023204075 -0.03194857 0.0065572746 -0.0043282327 -0.020981293 -0.02773722 0.013802527 0.06369591 0.007428274 -0.019935487 0.02633727 0.05806261 -0.00029514258 0.037284765 0.049977764 -0.08090642 0.00047342633 0.00433228 -0.004852059 -0.016570238 0.01660785 -0.033999775 0.04893213 0.049348693 -0.052001376 -0.027953628 -0.0050756424 -0.035293903 -0.050461262 -0.0025755193 0.024340343 0.0059169037 0.015238373 0.013368179 0.004736597 -0.0031378742 0.012449177 -0.040975224 0.0068377815 -0.035113428 0.01730643 0.02650413 0.004343993 -0.019465059 0.031624544 0.0170321 -0.00034574338 -0.009269833 -0.0016495645 -0.02581144 0.026600812 0.005479638 -0.028371384 0.005380712 0.019964546 0.0076087746 0.0041100974 -0.006586656 0.044294916 -0.023252865 0.014688597 -0.020710515 -0.011124213 0.0018555853 0.0002988831 0.018967412 0.058880746 -0.012814761 -0.005922001 -0.010866384 0.025821604 0.02662888 -0.06762164 -0.009103761 -0.017722275 -0.014805793 0.05972884 0.026644021 -0.023562532 -0.061122987 -0.03378549 0.019785067 -0.07125136 0.029961431 0.040345002 -0.0037434306 -0.029998466 0.015316848 0.00383056 0.01572686 0.0254357 -0.023375552 0.020921297 -0.01124219 -0.02207074 0.035503224 0.038475994 0.021868417 -0.009224382 -0.004145442 0.0031479313 0.015127728 -0.037256826 -0.024735697 -0.03498943 0.0031806582 0.053146586 0.020469967 -0.020174773 0.00404121 0.01762862 -0.0098896725 0.045989364 0.009263618 -0.0798803 -0.014889638 -0.035107367 -0.013413101 0.045381006 -0.0146649545 0.047796384 -0.0145649 0.03186727 -0.02469146 0.010182228 -0.039169237 -0.034358803 -0.009598421 -0.054683026 -0.015812634 0.013729914 -0.049236972 -0.011525052 0.009217146 -0.059654478 -0.014188291 -0.045284756 0.0025514292 0.01983558 0.03313031 0.05167736 0.04610153 0.010124147 1.8846144e-05 0.018660713 0.04318027 -0.034127094 0.002350006 -0.012171114 0.026386546 0.0064121997 -0.014676574 0.017595125 -0.037260994 -0.014820079 0.0061397315 -0.009099013 0.014670142 -0.026295504 0.0029173242 0.00291544 -0.016337521 -0.02513433 0.025906187 0.01594836 -0.0038749054 0.0068766023 -0.02361042 -0.02038193 0.014707634 -0.012331039 0.007908077 -0.021998888 0.007330567 0.024875816 0.018990777 -0.011202825 -0.029914035 -0.035762742 0.03307647 -0.030687762 -0.028421506 -0.0758277 0.013083311
上 -0.012263892 -0.045587793 0.023875477 0.023118148 0.053145334 -0.008597651 0.048653416 0.012823753 -0.024469506 0.01760151 -0.004340109 -0.0041237907 -0.008841647 -0.02982399 0.016220154 0.03832276 0.028881067 0.013172018 -0.053762097 0.044905595 0.017604768 0.006583601 -0.012593351 -0.04195804 -0.040531963 0.014074372 0.017969534 0.03091521 -0.015131371 -0.02804514 -0.005721347 -0.0059012566 0.0007183178 -0.0017158489 -0.023037776 0.05030914 0.039070975 -0.034347 0.023408601 -0.02358708 -0.043358795 0.041924857 -0.0017435758 -0.018248657 0.044089478 -0.010745157 0.002186007 -0.005456728 0.020271564 0.008403903 0.004602321 0.011326537 0.022266332 0.029621772 -0.015136263 -0.019895686 0.03186448 -0.04645121 0.018710019 0.022515574 0.0011586269 0.013229787 -0.012272522 0.011046923 0.007221095 -0.0054528434 -0.0010473516 0.04369324 -0.044682395 -0.017395994 0.04293203 -0.004653423 -0.025023583 -0.036691148 0.0072612576 -0.0052356916 -0.019377483 -0.030963745 0.011516365 0.060419075 0.0015383683 -0.022428792 0.030011443 0.060280498 -0.0018154442 0.03424827 0.046071324 -0.07814767 0.001398684 0.0054952307 -0.008302726 -0.018705184 0.012426006 -0.03328495 0.048135664 0.045559403 -0.049024098 -0.022878235 -3.0755346e-05 -0.033664726 -0.04738408 -0.0042500016 0.021780571 0.004037201 0.017264616 0.012873579 0.00081727206 -0.001705607 0.01877797 -0.039133936 0.006389698 -0.028120091 0.01800876 0.02539596 0.003049528 -0.012666995 0.024620786 0.01439918 0.0040383674 -0.01356161 -0.0010310272 -0.031310465 0.028559154 0.0056643398 -0.03158619 0.00636178 0.024560018 0.0043053455 0.0040589636 -0.006704155 0.03611778 -0.016471013 0.014269148 -0.019475536 -0.0074762935 0.005942867 -0.0038322741 0.020126771 0.054770336 -0.015934719 -0.0035223179 -0.010094872 0.029882815 0.02515547 -0.06961121 -0.012069992 -0.017718624 -0.008115396 0.055916496 0.023448609 -0.026918579 -0.056103673 -0.03571781 0.020103315 -0.06734065 0.03618366 0.034210153 -0.0023691335 -0.030097736 0.008855449 0.007309482 0.014147118 0.025545191 -0.023718886 0.018223606 -0.009235855 -0.021175304 0.03638299 0.038589526 0.026388606 -0.013861275 0.0018289122 0.007413924 0.01716802 -0.034155335 -0.017545361 -0.03275141 0.0026970238 0.050566364 0.024668416 -0.014434102 0.002021483 0.0184227 -0.0070068245 0.047204852 0.009565139 -0.07509829 -0.011375908 -0.037196647 -0.015069382 0.048399623 -0.009456658 0.04626883 -0.010153186 0.02857098 -0.028104197 0.007725381 -0.042399276 -0.03403954 -0.016100671 -0.050949275 -0.015592244 0.014998424 -0.04981395 -0.0057858475 0.005759596 -0.056285065 -0.01321767 -0.045472432 0.0042784577 0.017239021 0.030234477 0.046149477 0.04433577 0.0149048185 0.003847188 0.024099404 0.041259587 -0.03173796 0.001436434 -0.00683349 0.02929258 0.0012740581 -0.011509762 0.012035874 -0.036619022 -0.012379007 0.0075990357 -0.015928565 0.010588554 -0.022784723 0.003191921 0.0017494784 -0.010983105 -0.027264893 0.023728242 0.013875515 -0.0016404017 0.007848405 -0.020453062 -0.020731438 0.0122499885 -0.012032629 0.009088395 -0.016381847 0.002923975 0.024530007 0.02101665 -0.014276457 -0.03240221 -0.035501197 0.035323292 -0.032127753 -0.034590553 -0.07023881 0.008981638
Hj63 -0.012921109 -0.043380987 0.025001599 0.024146691 0.046353996 -0.0047926004 0.04586925 0.0072263037 -0.027438562 0.018623672 -0.0055513987 -0.003121129 -0.012867064 -0.03189185 0.013400632 0.035093237 0.026797405 0.014793972 -0.049942236 0.043634288 0.017717356 0.007249127 -0.005509535 -0.03773814 -0.038787693 0.009147729 0.012717085 0.030409748 -0.016550325 -0.032257095 0.00060145085 -0.0023066031 -0.00027626785 -0.0069787814 -0.02184281 0.044443883 0.04381873 -0.033623356 0.023206023 -0.022654558 -0.03677639 0.041728526 0.0008997421 -0.021886908 0.041506074 -0.007961812 0.0057997727 -0.0046614227 0.02324336 0.012198222 0.009134355 0.010512539 0.021520529 0.026524937 -0.018143928 -0.012177404 0.02800198 -0.043217216 0.017273068 0.02766111 0.002985616 0.010865319 -0.010357559 0.013448696 0.0077741784 -0.0050184787 0.002346611 0.038827352 -0.03935824 -0.017775338 0.04209506 -0.003890253 -0.0199977 -0.03161822 0.006003441 -0.0057493397 -0.016458413 -0.032066584 0.016200574 0.06397823 0.008260943 -0.019376647 0.022712512 0.05703029 -0.0031145043 0.039917517 0.045975927 -0.07155698 0.0002134378 0.0042792386 -0.0065251742 -0.016618345 0.0195126 -0.035667 0.047539562 0.044040475 -0.047185212 -0.022644214 -0.0031865465 -0.028571293 -0.04984754 0.0004002283 0.026822174 0.008541028 0.015444018 0.010694272 0.005333408 0.001422569 0.017128572 -0.041517355 0.005839226 -0.032962054 0.015296218 0.026754092 0.002539446 -0.017143346 0.030276405 0.01821254 0.004263214 -0.011639243 -0.005041969 -0.030360106 0.026364386 -0.0010098832 -0.029730277 0.008111938 0.019765103 -0.0006975784 0.006120745 -0.009968833 0.03544277 -0.020071136 0.014956048 -0.01725553 -0.010034126 0.007848151 0.0020342632 0.014252381 0.057659775 -0.010042989 -0.009241488 -0.013039772 0.027201053 0.026841046 -0.06859112 -0.0115604345 -0.017035738 -0.014719699 0.05169041 0.022535568 -0.022700991 -0.055741422 -0.029751476 0.017035529 -0.06446648 0.033772774 0.035686728 0.0027700884 -0.02664225 0.00794962 0.009923216 0.009814817 0.025943168 -0.025726967 0.018103862 -0.010866687 -0.015511808 0.03354059 0.038733516 0.018484542 -0.013992205 -0.003140868 0.008779801 0.012643413 -0.030809622 -0.020261964 -0.03221398 0.002987316 0.046143457 0.018825393 -0.015391246 0.008120627 0.02350312 -0.008634817 0.046399053 0.010307614 -0.074734814 -0.010917313 -0.036956895 -0.014033601 0.045967035 -0.008273364 0.040954363 -0.0102637755 0.030640777 -0.0205774 0.0026071128 -0.03539752 -0.029936818 -0.012505472 -0.045179572 -0.013800331 0.011029728 -0.04895257 -0.011168375 0.009018122 -0.054046966 -0.015741669 -0.039722893 0.001353994 0.015830131 0.032604016 0.050288275 0.048173048 0.011748347 0.0037831154 0.02047354 0.04516044 -0.034318745 0.005450742 -0.0077864984 0.025109356 0.0037363914 -0.01290796 0.017541457 -0.030867217 -0.008747965 0.0036566248 -0.010438352 0.012173815 -0.027039537 0.002833603 -0.00024417663 -0.013725792 -0.02371717 0.025715271 0.010193116 -0.009080626 0.00840445 -0.017417703 -0.026155325 0.017937865 -0.008353817 0.0064687883 -0.018979622 0.0022008088 0.0223645 0.022295834 -0.014497212 -0.031175397 -0.031575665 0.033689313 -0.029129224 -0.0314765 -0.064511605 0.0074387086
r -0.0140346 -0.032649897 0.020571195 0.016367456 0.039558284 -0.010474172 0.037261747 0.009659514 -0.024382401 0.018766254 -0.0005737181 -0.005187704 -0.011604883 -0.026414895 0.009091141 0.031299673 0.02374661 0.014307281 -0.04269882 0.037062027 0.010439115 0.005114033 -0.008552031 -0.029253576 -0.03257173 0.005734396 0.014428996 0.028783694 -0.01627502 -0.026378512 -0.0031912974 -0.0040446282 -0.0034953144 -0.006321536 -0.016931392 0.043301474 0.034441978 -0.027147643 0.018328568 -0.019169182 -0.03284042 0.034042 0.0028367667 -0.017526206 0.031035546 -0.0054999553 0.0064297784 -0.007858748 0.017051434 0.008102213 0.010116681 0.010896651 0.018840475 0.01806649 -0.009872065 -0.017282082 0.02768654 -0.03843045 0.015812596 0.018755198 0.0048357085 0.013475519 -0.009668015 0.0041658753 0.0084662875 -0.0043875272 -0.0017572694 0.03434497 -0.035562467 -0.015293147 0.036873173 -0.0041582067 -0.020161103 -0.029843157 0.0044430364 -0.008010527 -0.01585937 -0.025649143 0.007940308 0.05458301 0.0064116674 -0.016388204 0.022811228 0.043200027 0.003042317 0.034417897 0.038247894 -0.06493977 -0.0031608136 0.0051891715 -0.0058897077 -0.012837274 0.017034208 -0.02590652 0.03814036 0.04026294 -0.04249092 -0.023835767 0.0015027563 -0.028726181 -0.04091268 -0.0009422735 0.016676793 0.0055530686 0.016965983 0.008266183 -0.0009184769 0.0006716179 0.011031111 -0.037088454 0.005653973 -0.02594967 0.016894052 0.021713207 0.0076750116 -0.016281968 0.02453812 0.014820226 0.0009711821 -0.011020646 -0.00092851656 -0.023384681 0.0184593 -0.0006102239 -0.021959076 0.005530448 0.021401964 0.0023196486 0.005541019 -0.004528314 0.0357299 -0.020132653 0.013267276 -0.0145966755 -0.0061932867 0.0044236137 -0.0035688386 0.01810004 0.044133123 -0.01045672 -0.007934434 -0.0090268105 0.025536945 0.019758653 -0.054157604 -0.007515768 -0.01268664 -0.005712544 0.045312714 0.018956427 -0.02455095 -0.041225635 -0.027712937 0.01549691 -0.05602683 0.029520748 0.033111427 0.00029702391 -0.021122165 0.012166544 0.006198998 0.012316603 0.020105546 -0.021289697 0.019805215 -0.008639034 -0.01592923 0.03218934 0.028677719 0.017334068 -0.011441026 0.001533569 0.0075338692 0.0110841375 -0.025418794 -0.017011393 -0.031151706 -0.001480705 0.03926268 0.016619254 -0.013674629 0.001856205 0.01915974 -0.0025005126 0.037825115 0.0081749 -0.06151735 -0.012103957 -0.031567477 -0.012011831 0.038669046 -0.0057712644 0.038945775 -0.008116054 0.025697349 -0.023319054 0.0047198394 -0.03398694 -0.024254156 -0.006666669 -0.042935967 -0.009439605 0.011998451 -0.03811446 -0.0076407124 0.005068079 -0.04055347 -0.014362464 -0.038373817 0.0006955559 0.0128837675 0.023591047 0.035387572 0.03987969 0.008434344 0.0018763968 0.019879522 0.03708284 -0.026083553 0.0037716883 -0.00420067 0.02196227 0.0050815637 -0.008646891 0.007557391 -0.030480774 -0.0067469133 0.006104255 -0.011029346 0.013192311 -0.023129426 -0.0005556261 -0.001993984 -0.0069018244 -0.02222143 0.015795048 0.008563928 -0.0020767096 0.0072374293 -0.020021781 -0.019830242 0.011478037 -0.008350876 0.003867288 -0.0137601225 0.004195881 0.016496817 0.01789019 -0.0077269105 -0.029390542 -0.030258484 0.029443499 -0.030708108 -0.02542394 -0.060913 0.01153537
看 -0.015916785 -0.04186645 0.01937554 0.020981917 0.047053255 -0.0035387597 0.04089475 0.009070692 -0.0210945 0.018330902 -0.0052590338 -0.00428723 -0.007592718 -0.023733754 0.009752756 0.028166624 0.02480494 0.019051014 -0.048657186 0.038677916 0.012474788 0.008829564 -0.004386824 -0.03617555 -0.030845897 0.011230652 0.016344842 0.026670607 -0.013289026 -0.026755635 -0.003453843 -0.00077246444 -0.0007285403 -0.00050403865 -0.017247101 0.04455935 0.035809822 -0.03365003 0.015519013 -0.017138666 -0.040348478 0.038184725 0.001948872 -0.021893654 0.03614233 -0.0087508755 -0.00066955556 -0.0059394636 0.024909848 0.0069620153 0.0053445054 0.015432091 0.02015254 0.027718654 -0.018234486 -0.012415135 0.023442166 -0.03955336 0.019116627 0.021450663 0.0046869866 0.008156274 -0.0066278037 0.01073419 0.009233777 3.4398463e-06 0.0009782915 0.037854016 -0.039169345 -0.01632381 0.03706506 -0.0080858795 -0.021308696 -0.030303031 0.010388228 -0.010001518 -0.015828937 -0.027743848 0.009603685 0.055008072 0.0060165226 -0.018447965 0.023159362 0.054066163 -0.0006149718 0.032214675 0.04424938 -0.06710967 -0.00189631 0.007883352 -0.0021885708 -0.014120108 0.015930193 -0.03125029 0.04732302 0.04312252 -0.04714905 -0.02540141 -0.0020592418 -0.030799797 -0.042626236 -0.0044261906 0.021001762 0.0077314265 0.017083019 0.012250684 -0.0018927283 -0.00095976924 0.015624976 -0.03571034 0.009122597 -0.027034014 0.018104652 0.026779898 0.004448403 -0.013393373 0.02578949 0.010036086 0.0030026732 -0.013442756 -0.0025900598 -0.025937913 0.026758365 0.0033975677 -0.024911555 0.0056321705 0.018434575 0.0017939287 0.0014494831 -0.0076418943 0.035377186 -0.016139442 0.01379504 -0.012675066 -0.0073175137 0.0035643124 -0.004419103 0.018048648 0.05213495 -0.014221688 -0.003868488 -0.0074794837 0.02100416 0.02057329 -0.065402016 -0.0064220503 -0.018374735 -0.00951449 0.053323988 0.01753813 -0.026860176 -0.04837115 -0.032048643 0.012122316 -0.06406762 0.028694715 0.03164082 0.00023525808 -0.02471118 0.013849864 0.009464724 0.008293466 0.02581437 -0.02622608 0.018922308 -0.0071269926 -0.015789868 0.029840037 0.035447165 0.020629613 -0.015096225 -0.0025159754 0.0020995343 0.016389348 -0.030253422 -0.021441152 -0.027525622 -0.00051731843 0.04482555 0.022235157 -0.016105944 0.008034804 0.014952246 -0.007907178 0.03860431 0.008423633 -0.06966778 -0.008494113 -0.029529594 -0.016674334 0.043048263 -0.0066582765 0.036104586 -0.008476947 0.022314686 -0.017993597 0.007630626 -0.034459002 -0.032842204 -0.011311675 -0.044837583 -0.010971779 0.014402677 -0.043628026 -0.012324466 0.0044963364 -0.048850957 -0.011897584 -0.03892284 0.0020721618 0.020538215 0.027194802 0.045533836 0.04431013 0.008034196 0.00237917 0.01577015 0.03624735 -0.030342963 0.007398798 -0.009321108 0.027407324 0.0018936398 -0.015370235 0.01420221 -0.028305933 -0.011483391 0.0045410567 -0.013892238 0.014114334 -0.026207237 -0.0012694258 -0.0026984627 -0.0069405264 -0.021311514 0.02335988 0.015629536 -0.0077633043 0.010580421 -0.01748819 -0.018027984 0.011966771 -0.003913841 0.0024897405 -0.013736804 0.006957483 0.01913922 0.020312693 -0.008148946 -0.027344454 -0.026525967 0.03052659 -0.029999495 -0.024671488 -0.059368886 0.0077150124
Hi37 -0.013067359 -0.037853125 0.021383114 0.018224638 0.040306095 -0.0076188794 0.04096402 0.0050287284 -0.018731391 0.016001187 -0.00072299776 -0.0027467057 -0.005317958 -0.027800981 0.00922806 0.032341007 0.02045902 0.016768785 -0.046113748 0.038413815 0.013589047 0.0057341643 -0.0069610216 -0.035454933 -0.0333362 0.0050080717 0.0151136285 0.030802906 -0.016225483 -0.0213198 -0.0009306268 -0.005206001 -0.00051090494 -0.002806741 -0.019324169 0.043643773 0.037568457 -0.026252918 0.02103688 -0.016967295 -0.03729569 0.03267987 0.004132827 -0.021004971 0.035316586 -0.0075048935 0.0053679026 -0.008424992 0.0212414 0.009908388 0.0052700397 0.008016243 0.012484389 0.024359114 -0.017785523 -0.0115183005 0.02382234 -0.044661347 0.013746419 0.024947476 0.0012569648 0.013472096 -0.011861218 0.00492018 0.004101443 -0.0019625435 -0.0009865115 0.03088202 -0.038965873 -0.013161667 0.037735038 -0.007587676 -0.02210595 -0.028391942 0.008055866 -0.009900032 -0.011164028 -0.028445864 0.013156331 0.056632612 0.006362717 -0.0132728685 0.026262289 0.049600404 -0.0030442683 0.034547497 0.036029216 -0.06734904 0.00090736104 0.0005255399 -0.0077572586 -0.01595846 0.015204277 -0.0266935 0.043216713 0.041512594 -0.043918658 -0.020259403 -0.004544529 -0.02716136 -0.045406602 -0.00051384285 0.022838624 0.0076050083 0.013146466 0.011470038 0.0051710545 -0.004338521 0.011269052 -0.035525523 0.0038495867 -0.02269132 0.01790236 0.026274292 0.0084995655 -0.01607557 0.023636116 0.009691974 -0.0013967504 -0.014412436 0.00028741284 -0.023891153 0.01943079 0.005879113 -0.023325024 0.0063896272 0.016951315 0.00087641715 0.002263117 -0.0028234592 0.034855507 -0.019404382 0.014511606 -0.014356489 -0.008480014 0.007886323 -0.0031695825 0.018363934 0.045451783 -0.014485159 -0.0072114314 -0.012339308 0.02221263 0.020039765 -0.056874197 -0.0053392146 -0.017167788 -0.008582412 0.046453934 0.020580633 -0.022558028 -0.04789553 -0.029405931 0.013511865 -0.0575915 0.02853926 0.026924688 0.0024208184 -0.02408988 0.0087806275 0.0034481818 0.008576747 0.019267082 -0.025637655 0.018469417 -0.010842251 -0.01731337 0.027106537 0.037768148 0.018881781 -0.013933357 0.0016961081 0.0015666778 0.013073047 -0.027709467 -0.02019993 -0.03208951 -0.0034611286 0.04473196 0.022839334 -0.0119296415 0.005241718 0.019285733 -0.008102658 0.043848984 0.010609858 -0.06225761 -0.007970146 -0.033634022 -0.012626024 0.04258325 -0.0091169765 0.034949433 -0.010846948 0.023148432 -0.02217676 0.0049244044 -0.02990425 -0.028213741 -0.0088812765 -0.044506714 -0.0073027764 0.007416484 -0.044550356 -0.010214978 0.0045792987 -0.048207134 -0.011670487 -0.036352023 0.003660392 0.018275345 0.025338203 0.041940033 0.040961325 0.013866174 0.0065121376 0.01715084 0.037683904 -0.030493328 0.0024624509 -0.011287216 0.02301372 0.00089747476 -0.014034085 0.012675151 -0.026893744 -0.014819619 0.0060565704 -0.008699799 0.013620629 -0.02360079 0.0064271386 0.005109774 -0.009961667 -0.021800289 0.01588564 0.009176414 -0.004500116 0.010237233 -0.01794353 -0.023031978 0.014920208 -0.01048043 0.0083502 -0.0138857635 0.00092218874 0.019710688 0.020731766 -0.012901324 -0.029743213 -0.024598012 0.028952297 -0.023930375 -0.030537993 -0.059995785 0.011586732
Jd01 -0.013980702 -0.036965124 0.01546886 0.017263258 0.03753576 -0.0031977736 0.03700078 0.0038247125 -0.017802598 0.015641928 -0.0032215137 -0.004068673 -0.0065899063 -0.0270031 0.010023618 0.028596643 0.023922034 0.016704833 -0.041182037 0.033221398 0.014445253 0.0062610717 -0.010292407 -0.035116263 -0.031207284 0.008975418 0.0103257205 0.02534079 -0.009927389 -0.025590006 0.0007352974 -0.0025305904 -0.0024329762 -0.006540219 -0.015651172 0.04259849 0.03151827 -0.029614514 0.015556195 -0.014995721 -0.035141505 0.035380807 -0.00017708613 -0.02016492 0.033849157 -0.005523451 0.0038352162 -0.009251956 0.016443813 0.0064796656 0.0076073646 0.009619185 0.015255761 0.023362892 -0.011464602 -0.012269322 0.022773894 -0.03869327 0.012939042 0.018264549 0.005255375 0.008885616 -0.011436991 0.009483491 0.009440985 -0.0024642413 0.002915439 0.031746086 -0.035221 -0.015795127 0.029741686 -0.00739719 -0.0216849 -0.024446486 0.010011209 -0.0069089727 -0.01380789 -0.020533424 0.0112377815 0.04846662 0.0050837127 -0.014326706 0.020539286 0.044168588 0.0036877256 0.03415234 0.0340521 -0.06442294 -0.0010517536 0.0037347197 -0.008063548 -0.010377541 0.0110756 -0.025841642 0.044132236 0.038087364 -0.03937641 -0.022152692 -0.0054314286 -0.024908343 -0.04061322 -0.0044716666 0.022690736 0.0028325971 0.01683717 0.008490347 -0.0015318061 -0.0057344357 0.014691829 -0.03603355 0.007584495 -0.025848715 0.017983325 0.02423105 0.00865937 -0.008736875 0.019631362 0.008135425 -0.0017584016 -0.0105466265 0.0008738898 -0.021283958 0.020496389 0.0042819856 -0.02405929 0.0033657276 0.019304214 -0.0016929543 0.003453535 -0.0075577563 0.035554327 -0.01794386 0.013254735 -0.016632656 -0.003126976 0.002083769 0.0003785987 0.015574005 0.04862447 -0.01321872 -0.0070459563 -0.012795262 0.02384202 0.018059086 -0.054719992 -0.0077409637 -0.012999891 -0.011637977 0.04524515 0.019408073 -0.024375347 -0.04134567 -0.027297707 0.017009536 -0.055092115 0.02826501 0.030379422 0.0034564028 -0.025438514 0.0129847005 0.008848363 0.010108531 0.02200902 -0.019078808 0.019410226 -0.008550131 -0.013528477 0.028981827 0.0342791 0.022109333 -0.013237248 -0.00061552436 0.0009870853 0.012681335 -0.03103873 -0.015473606 -0.027736427 -0.00087576476 0.042398565 0.014987834 -0.012712514 0.003199491 0.015527792 -0.008886108 0.035116915 0.010243117 -0.06389348 -0.0094423955 -0.030128418 -0.01309307 0.038289648 -0.012024562 0.033877622 -0.012605741 0.019783925 -0.022024877 0.004176144 -0.031192832 -0.02699291 -0.0131986495 -0.04273795 -0.011204281 0.007211123 -0.04139637 -0.009144929 0.004243831 -0.047575053 -0.014398628 -0.03437665 -0.00038332748 0.014063448 0.027508812 0.04210239 0.036636334 0.012620524 -0.00022185367 0.01723473 0.038134158 -0.027893871 0.008054084 -0.008283452 0.023686074 0.00566151 -0.015531887 0.009027425 -0.029302265 -0.010921173 0.0022859115 -0.010114631 0.008297392 -0.021344617 0.0020408973 0.0037916992 -0.013227589 -0.022288568 0.021216668 0.014652153 -0.0052328375 0.008426043 -0.01970282 -0.018285548 0.009075132 -0.010296748 0.0052743726 -0.015671616 0.0058366223 0.013866508 0.017468533 -0.009430446 -0.027811399 -0.026986502 0.0293941 -0.029533591 -0.025157638 -0.055095267 0.009068572
是 -0.0089507615 -0.024250206 0.016841648 0.016378358 0.033820976 -0.008360301 0.031863328 0.0070440085 -0.018416693 0.010898157 0.00029107733 -0.00049281423 -0.010046533 -0.018798113 0.007710692 0.023200799 0.01841773 0.00795638 -0.027775928 0.023374682 0.012743126 0.008413403 -0.0073085786 -0.02899854 -0.020441052 0.0023796724 0.007136855 0.020589557 -0.012961505 -0.014696197 0.0012163272 -0.0018480776 0.0031389822 0.0006795476 -0.0099705765 0.032979175 0.028347319 -0.018164886 0.015825175 -0.0110029485 -0.029232621 0.029245446 0.0037834176 -0.009539015 0.022585398 -0.005774066 0.0016876217 -0.002776963 0.011323174 0.0065954374 0.007268406 0.012335722 0.0102073215 0.017460342 -0.007550098 -0.01110767 0.01908498 -0.033347055 0.011793524 0.0176404 0.003137427 0.0038786803 -0.007996638 0.0073610996 0.005222548 -0.0036971834 0.0037582722 0.02668833 -0.02891923 -0.0055190893 0.022183094 -0.0042919675 -0.010908985 -0.020851307 0.0026773063 -0.0044956114 -0.012260015 -0.021081787 0.0050698384 0.040447965 -0.0005322405 -0.0098143155 0.0143687595 0.037400603 -0.0018906599 0.021551663 0.031204041 -0.05094915 -0.00072831457 0.0017127513 -0.006571818 -0.0137485815 0.013027193 -0.022864437 0.03273972 0.024778001 -0.030528774 -0.016615316 -0.0034804302 -0.020465204 -0.03411307 -0.0020112041 0.014272751 0.003399936 0.009028555 0.004209684 0.0036975783 -0.002200211 0.011721302 -0.02462061 0.007639853 -0.020578338 0.0070611197 0.016721897 3.2619624e-05 -0.006779831 0.020744462 0.00934831 0.0033826083 -0.0045880824 0.0009116334 -0.015420096 0.019999813 0.002214004 -0.020812498 0.0013587624 0.012781088 0.0013002065 0.005786773 -0.008197645 0.023849372 -0.00900007 0.008573465 -0.014552906 -0.0045378315 0.0010360366 -0.0030819778 0.008389005 0.034471333 -0.005556076 -0.0023331668 -0.0048906934 0.019886062 0.017043404 -0.045448557 -0.0024944795 -0.01601458 -0.009091653 0.0378173 0.018046297 -0.01821653 -0.037351914 -0.016792478 0.009303162 -0.043771487 0.022936646 0.024712505 0.0013692888 -0.017421331 0.0108015565 0.0074017216 0.010150539 0.019057084 -0.018167544 0.013965319 -0.006354424 -0.008547218 0.025898429 0.026765376 0.015869528 -0.0053075897 0.0018735703 0.0036801284 0.006823631 -0.021723116 -0.009090662 -0.022889355 -5.171796e-05 0.03220339 0.011251457 -0.006598206 0.0037921637 0.01379978 -0.0012017993 0.029611228 0.0057595093 -0.050299004 -0.004482197 -0.025910046 -0.006197362 0.030550592 -0.0064379447 0.024393046 -0.0036039373 0.0175247 -0.013355708 0.0028758813 -0.026070002 -0.020426638 -0.010870226 -0.03398162 -0.011538921 0.009608513 -0.029666884 -0.006755135 0.0078278575 -0.034576472 -0.011800776 -0.02632839 -0.00021369025 0.012019328 0.022684311 0.02962513 0.032318816 0.009548859 0.0008952215 0.011114871 0.03065032 -0.019726569 0.0030710634 -0.005874493 0.014846565 0.0033386543 -0.010339368 0.010385514 -0.021939741 -0.008266012 0.0057170005 -0.01078228 0.007787335 -0.019749716 0.0024353503 0.0017440573 -0.0060855853 -0.01569279 0.014301025 0.009317246 -0.003620114 0.008787604 -0.014459415 -0.01615841 0.007155052 -0.009473261 0.0003574008 -0.010985851 0.0043405714 0.011216546 0.008893923 -0.010353583 -0.017661758 -0.023986267 0.022598907 -0.017912364 -0.017052826 -0.04643874 0.007545582
m -0.01731691 -0.036964983 0.019060815 0.021445611 0.047667515 -0.0075960085 0.044641763 0.0061923834 -0.022238312 0.015060703 -0.00085034803 -0.00455746 -0.010821674 -0.02849237 0.011059175 0.033344686 0.022414839 0.011734161 -0.050267354 0.037543166 0.011217974 0.004526464 -0.0054841302 -0.037967496 -0.037144344 0.006996175 0.016575081 0.030033546 -0.015615625 -0.029156275 -0.00055040466 -0.0063391845 -0.0029119977 -0.0023458598 -0.020434301 0.04697111 0.03817378 -0.027274137 0.0222398 -0.019076684 -0.037367463 0.039002635 0.0013030841 -0.020309273 0.040907767 -0.0038923337 0.0059743403 -0.0069610085 0.021232024 0.013269867 0.0039093937 0.012428143 0.014090881 0.025856046 -0.018626234 -0.013668844 0.030831803 -0.04512814 0.0134448875 0.020511782 0.003196705 0.01023965 -0.0061512324 0.008340864 0.010033269 -0.0027191266 -0.000152346 0.035383392 -0.037245847 -0.015687924 0.039716017 -0.00507872 -0.024308037 -0.03126038 0.00487487 -0.010176542 -0.01747896 -0.027006844 0.012658064 0.058699455 0.007313249 -0.014347546 0.026821896 0.05248342 -0.0024916166 0.03853803 0.042416047 -0.06868559 -0.0027774244 0.0062751384 -0.0032623252 -0.019027343 0.013956448 -0.031305797 0.046125438 0.038871057 -0.044683762 -0.022417579 -0.001886752 -0.029745407 -0.048737906 0.0027940033 0.018497111 0.003767433 0.01875348 0.008042333 0.00077960273 -0.0033631749 0.01316332 -0.041294537 0.008085984 -0.029159091 0.017312676 0.023457555 0.0078113773 -0.017718311 0.028204164 0.0118928095 0.0012179634 -0.014125143 -0.0025270907 -0.028218314 0.02314353 0.0062192874 -0.024470927 0.007708675 0.017361876 0.0053545428 5.4516742e-05 -0.007019899 0.034219388 -0.021265056 0.014867497 -0.016800718 -0.007003184 0.006158288 -0.003372869 0.015434374 0.049898125 -0.016145796 -0.010131495 -0.011269116 0.026140207 0.02296981 -0.06610211 -0.0071333707 -0.01735395 -0.014557845 0.054343127 0.025278067 -0.02650352 -0.051432308 -0.02771706 0.015306918 -0.06246409 0.027797857 0.036370873 0.0020811737 -0.024283895 0.009045883 0.005739488 0.009455942 0.018975327 -0.019727675 0.019939661 -0.008543212 -0.013481732 0.028922716 0.039270297 0.01774179 -0.013769587 0.0012215889 0.003571439 0.013993682 -0.033725876 -0.020635046 -0.032087147 -0.0022853853 0.04896063 0.024365418 -0.015504643 0.0043802406 0.016646916 -0.0038347277 0.041246936 0.009851343 -0.0656692 -0.011349228 -0.032823823 -0.012124218 0.044542857 -0.011312651 0.041461807 -0.008300985 0.028999133 -0.022781009 0.0071238144 -0.038564727 -0.034050304 -0.013368603 -0.04878703 -0.011311221 0.009360192 -0.04371812 -0.0058481707 0.012784764 -0.047087412 -0.011773589 -0.0414964 0.0046179513 0.016067121 0.024479987 0.04724154 0.040906478 0.0124294935 0.0016325086 0.0180793 0.039752346 -0.032701194 0.008561639 -0.011832784 0.020510908 0.0058255102 -0.011950722 0.014795061 -0.029518792 -0.013401135 0.003680311 -0.010637252 0.016048264 -0.026576212 0.0009316182 0.0024486142 -0.008712924 -0.026410058 0.019740013 0.01167388 -0.004657595 0.010847086 -0.017571973 -0.02487121 0.016310634 -0.008736051 0.004183305 -0.021217663 0.0021821198 0.024179926 0.020220734 -0.014311506 -0.027766539 -0.033965457 0.026869446 -0.029406104 -0.02820735 -0.06430523 0.012839617
Jd02 -0.008027969 -0.030811595 0.015925506 0.017031727 0.0333672 -0.0020177066 0.027081758 0.0050937315 -0.016628478 0.015983533 -0.0026492893 -6.0058195e-05 -0.008078055 -0.023950258 0.005215104 0.022338906 0.019827157 0.0089057395 -0.035282366 0.031928435 0.0077186795 0.0052324766 -0.004023153 -0.029443001 -0.024220724 0.005720483 0.013105855 0.020338787 -0.0133481445 -0.015272242 -0.0040550437 0.0008618464 -0.0032971255 -0.0008737961 -0.013760951 0.029640045 0.026675817 -0.023229586 0.0139899505 -0.014596898 -0.030022552 0.02563114 -0.0010610998 -0.010813911 0.029702656 -0.0049730395 -0.00010558591 -0.0023388292 0.011643008 0.008135426 0.006876692 0.008287999 0.009970354 0.014011538 -0.013826118 -0.0077730054 0.02074033 -0.031479493 0.016018035 0.013398703 0.0014397599 0.008586873 -0.009485575 0.0025898886 0.007751916 -0.0032360998 -0.0016626127 0.029951394 -0.029196639 -0.010918505 0.026967056 -0.004090872 -0.018729748 -0.024132736 0.0013221432 -0.0043757185 -0.013089308 -0.018657621 0.009805712 0.039736487 0.0065944274 -0.009319191 0.016960504 0.037017267 0.00017252541 0.027522538 0.03394418 -0.05093415 -0.0022580498 0.0016169549 -0.0036100515 -0.014119855 0.010100672 -0.025915256 0.03240131 0.030851863 -0.03161242 -0.018251054 0.0010246746 -0.022793368 -0.02854363 -6.3909574e-05 0.016832475 0.006429368 0.012251495 0.009211128 0.0018796122 -0.0055869133 0.008449785 -0.028167363 0.00032923536 -0.019524183 0.013076724 0.015972434 0.0066427286 -0.010171275 0.018197227 0.0122106755 -0.002910953 -0.011129003 0.0019653637 -0.021370385 0.02076475 0.0039743297 -0.021471603 0.008451206 0.016534321 -0.00060842064 -0.0009997612 -0.007902994 0.027802695 -0.010645803 0.008816535 -0.010783119 -0.008796702 0.0015403461 0.0012207413 0.0073597683 0.032345463 -0.008246821 -0.007850374 -0.011262532 0.018976977 0.01930978 -0.04852989 -0.0026979635 -0.009021695 -0.0057834093 0.034532506 0.01964726 -0.019806566 -0.038065843 -0.020435026 0.008723104 -0.048409875 0.022181973 0.027356522 -0.0024668514 -0.01956483 0.009145717 0.004622724 0.0043319706 0.019049212 -0.017527122 0.015607018 -0.004776587 -0.007981233 0.026517889 0.028806174 0.011488191 -0.0076742065 -0.00096799235 0.0040919567 0.014564775 -0.020118244 -0.016993098 -0.01791491 -0.00085453625 0.032239124 0.016430028 -0.013281293 0.0030479382 0.014109047 -0.0021131306 0.032391924 0.0045875376 -0.052633837 -0.011121154 -0.019457055 -0.014053952 0.033684846 -0.0071336026 0.02877213 -0.0038522643 0.022805858 -0.012627361 0.0077079907 -0.029380955 -0.01853486 -0.011814874 -0.036170296 -0.011531177 0.00870573 -0.028322663 -0.009007431 0.0050823 -0.036472283 -0.010811487 -0.029304434 0.0041487417 0.014239095 0.01870289 0.029814484 0.030603115 0.0063966513 0.003999394 0.018334253 0.03183303 -0.024404587 0.0008573142 -0.009889835 0.01497307 0.0038491257 -0.012143741 0.009944308 -0.017848497 -0.0069860993 0.0048267036 -0.004598846 0.011703176 -0.017388264 -0.00075647 0.00086641917 -0.0050275736 -0.013961845 0.013440186 0.012814911 -0.0029364408 0.008595166 -0.016295407 -0.013241234 0.009828499 -0.009377175 0.0055870786 -0.016033752 0.00019297148 0.015525949 0.017125892 -0.00863343 -0.01741387 -0.019847788 0.023324195 -0.024534214 -0.018407943 -0.049055684 0.004752902
在 -0.008585399 -0.032377634 0.017292054 0.014942663 0.032878272 -0.008277904 0.027816642 0.0046123383 -0.013958849 0.01589017 -0.006277479 -0.005688199 -0.0049750204 -0.024278544 0.010769488 0.026649158 0.012616781 0.014485198 -0.030741837 0.028227912 0.011443401 0.0020804545 -0.003949505 -0.023711354 -0.02298307 0.003217782 0.013114425 0.021341225 -0.011737693 -0.017155627 -0.0016006102 -0.00021258947 -0.0027939272 -0.0018114954 -0.013934684 0.03290244 0.029798899 -0.020940002 0.017781219 -0.015949592 -0.026257727 0.030258927 -0.0009933894 -0.011925466 0.02415644 -0.0011555275 0.003358359 -0.0024032518 0.017115137 0.009276678 0.0041373544 0.006649395 0.010802427 0.017988032 -0.011871814 -0.014162198 0.016883533 -0.028316643 0.015946787 0.019370873 -0.00034932827 0.009138329 -0.0097298585 0.008807509 0.00513776 0.0012474301 -0.0006127563 0.026105145 -0.025513189 -0.008525498 0.023992123 -0.0056950124 -0.014846849 -0.026583768 0.007269585 -0.0027279218 -0.012840989 -0.021176059 0.005718531 0.040397737 0.006079354 -0.012125514 0.014283661 0.04106248 -0.0033016903 0.027495373 0.033327505 -0.050307736 -0.004996635 0.00528595 -0.0068917754 -0.0136338025 0.014655417 -0.026077615 0.029377207 0.028702268 -0.031995196 -0.016363673 -0.0034303956 -0.021550909 -0.029370395 0.0036202103 0.019942751 0.0052710953 0.013774859 0.008998148 0.0019006223 0.000118817705 0.01042784 -0.027351433 0.002776971 -0.023799822 0.014480955 0.014705729 0.0048636165 -0.010315801 0.017165806 0.007872921 0.0016953727 -0.010799679 -0.003838641 -0.019957324 0.019621937 0.004304234 -0.018959684 0.008293561 0.011126331 0.00013995668 -0.000560717 -0.006932521 0.029327983 -0.017200839 0.006449203 -0.0152006885 -0.00210531 0.0024647654 -0.00015856895 0.0087510785 0.03537323 -0.008735066 -0.005640276 -0.011514449 0.014858791 0.017289931 -0.050025478 -0.005595023 -0.013493172 -0.004504772 0.03654952 0.018409135 -0.019976417 -0.040025238 -0.019377055 0.012098124 -0.047067948 0.019833386 0.027888745 -0.0040482013 -0.019707473 0.008123353 0.004299754 0.011612061 0.015807219 -0.019300032 0.011454853 -0.009972171 -0.014995465 0.020886192 0.023831777 0.014407857 -0.008754778 -0.0024278788 0.004523904 0.012757756 -0.018714724 -0.015558335 -0.020037089 0.0024242103 0.030998465 0.011778659 -0.012469489 0.0006303988 0.016119344 -0.001182166 0.034544658 0.0020046625 -0.0478524 -0.0075496966 -0.020911787 -0.013682684 0.030042775 -0.009959599 0.026034448 -0.0067302394 0.023432145 -0.013607237 0.0014782368 -0.024745919 -0.023102129 -0.00406515 -0.036932964 -0.0041199704 0.0053836526 -0.034156416 -0.0058513796 0.0061342055 -0.039429124 -0.009381632 -0.029273972 -0.00014622266 0.015085198 0.021391533 0.03507696 0.034838933 0.005083872 0.0043437243 0.016940085 0.031216133 -0.01964855 0.0016428678 -0.004885284 0.01806508 0.0025457856 -0.012469628 0.010136439 -0.01963921 -0.012212159 0.007833812 -0.0071215066 0.009501033 -0.018222446 0.0018655143 0.0034648639 -0.006025794 -0.01958416 0.018360721 0.008736044 -0.007176582 0.010242975 -0.012214891 -0.013888916 0.012985284 -0.008645849 0.0013905026 -0.013527137 0.0012383442 0.013952591 0.013424733 -0.011177131 -0.019597191 -0.021233816 0.021655092 -0.020261303 -0.020257378 -0.043881264 0.0055866456
Hi39 -0.0065899817 -0.028408723 0.015651092 0.0138417445 0.033729784 -0.0039749993 0.029274171 0.0092746215 -0.019462246 0.016766764 -0.001953258 -0.0038909758 -0.0077985497 -0.023061601 0.0069537954 0.023924395 0.01861497 0.014238368 -0.035988696 0.031294335 0.0066707497 0.005705208 -0.0026776483 -0.026732884 -0.026701353 0.0030343959 0.0108856 0.020844512 -0.014344162 -0.017223744 -0.0010994903 -0.00033694628 0.0017878163 -0.0017035829 -0.016111953 0.03383075 0.027876332 -0.024544718 0.013151425 -0.013582751 -0.026881777 0.025778694 -0.0017095404 -0.013566645 0.028417675 -0.004921352 0.0022277422 -0.0032946523 0.0131347235 0.0037590656 0.008529784 0.004632144 0.010671236 0.016552724 -0.013451522 -0.009648018 0.021609472 -0.03072097 0.014957081 0.016305797 -0.0011236854 0.0073283818 -0.0062216497 0.008871774 0.007414094 0.0006087444 -0.0011765005 0.023064708 -0.023721071 -0.008885282 0.027869463 -0.0030022813 -0.011848864 -0.025498774 0.009061155 -0.008080111 -0.011366034 -0.016148726 0.0047676824 0.040981416 0.00025169135 -0.014292808 0.01775771 0.036653806 -0.0014632612 0.026924977 0.026578208 -0.047931995 0.0021031064 0.0035626844 -0.006616661 -0.009637682 0.008447186 -0.021321261 0.032227598 0.032310814 -0.02907538 -0.018409142 0.0026425424 -0.021781517 -0.02844147 -0.0037235124 0.0123638725 0.004113494 0.007933606 0.006447697 0.0010152909 -0.0014928525 0.0056324224 -0.028655106 0.000963778 -0.019927489 0.0130902175 0.016517244 0.007160547 -0.010866537 0.020924892 0.011895505 0.0039839623 -0.008158194 -0.0009876683 -0.017319642 0.013096976 0.0054354966 -0.018390832 0.007942087 0.014546151 0.0028633736 0.0017754865 -0.008298545 0.025475793 -0.011679385 0.005142503 -0.012617488 -0.0062119165 0.0016394606 0.0006252188 0.011982751 0.036669735 -0.010979233 -0.0064141215 -0.00618025 0.019399634 0.017937493 -0.04204294 -0.008548478 -0.008830337 -0.010144343 0.032028127 0.018432142 -0.017645732 -0.03884469 -0.021662923 0.013567814 -0.04409592 0.022550397 0.022821607 0.0014573884 -0.016773917 0.0035004986 0.0025841196 0.011091335 0.016328586 -0.018293425 0.01668506 -0.0027198098 -0.008364274 0.022224922 0.021278674 0.012921906 -0.0060855467 -0.002980782 0.007728782 0.006681268 -0.024413219 -0.015039547 -0.018589307 -0.0035092474 0.034364536 0.010337404 -0.008679551 0.0047439425 0.0129015595 -0.00084712694 0.031566817 0.0058842124 -0.045570444 -0.0060732905 -0.021272069 -0.0060320464 0.028311227 -0.009824615 0.025969088 -0.007848161 0.015280613 -0.016084148 0.0073250495 -0.02641452 -0.018739428 -0.006101616 -0.0320791 -0.0074557415 0.009908822 -0.03286599 -0.0048749004 0.009334477 -0.035739485 -0.011768494 -0.031332266 -0.0014731961 0.013720182 0.021286463 0.033191774 0.029841824 0.008014144 0.003697739 0.0098068435 0.024008112 -0.018925833 5.257428e-06 -0.007601663 0.01519702 0.0043030814 -0.010606587 0.012926632 -0.02050187 -0.010090702 0.0026686995 -0.0077762627 0.0067485888 -0.013664519 0.0051896954 0.0026157983 -0.010241789 -0.01863875 0.0145312995 0.007928952 -0.005655825 0.009486239 -0.010591469 -0.016273195 0.010314655 -0.0033725654 0.0044787033 -0.008544468 0.0021566213 0.011141404 0.012634224 -0.011029098 -0.015865277 -0.0244016 0.020459412 -0.021865165 -0.018505251 -0.04170629 0.0030048112
从 -0.011603202 -0.026985288 0.015618286 0.016930202 0.02999939 -0.0052716746 0.025102844 0.007327928 -0.01907368 0.0138379475 -0.0035315044 -0.005902143 -0.0032331836 -0.019113256 0.0038397314 0.018552281 0.015887741 0.007024748 -0.030366335 0.02858616 0.011349769 0.0018986427 -0.0026810074 -0.028581623 -0.02006703 0.0059063258 0.009522318 0.02240035 -0.011161577 -0.019732052 -0.002996511 -0.0045339265 -7.796107e-05 -0.005229055 -0.009923514 0.026961546 0.023815809 -0.024539988 0.009754096 -0.013505982 -0.02914309 0.023455026 0.0015285035 -0.013778738 0.027277246 -0.0011288831 -0.0019523909 -0.001725769 0.011315256 0.009414048 0.007826116 0.01169902 0.008267847 0.01784934 -0.013167489 -0.010365219 0.015925454 -0.032934 0.013437845 0.017692054 -0.00029717045 0.0048094154 -0.0044378135 0.004599767 0.0011241663 -0.0034383235 0.00042349522 0.028712263 -0.027967308 -0.0065707467 0.027668606 -0.005014488 -0.015394083 -0.022398582 0.006142804 -0.0048375325 -0.0114276875 -0.02170592 0.010711424 0.03459687 -0.000596745 -0.010809911 0.017704066 0.03519111 -0.00012011039 0.024271373 0.029417207 -0.04412801 -0.002568006 -0.0003242075 -0.0068151895 -0.007559062 0.010815879 -0.023289502 0.033048704 0.032025855 -0.028072799 -0.018844513 -0.0033837648 -0.019938089 -0.033277124 0.0014523696 0.017264174 0.0020704123 0.013754235 0.0045003504 0.0037581027 -0.0033299213 0.0101217795 -0.026855094 0.005232721 -0.01630772 0.010211292 0.014142079 -0.00022689486 -0.007778495 0.018934485 0.011978433 -0.0010384633 -0.011982988 0.0018580892 -0.019406946 0.018178351 0.0050715203 -0.018511806 0.005366892 0.011881628 -0.00094467856 9.621844e-05 -0.0042557707 0.021501793 -0.013305389 0.007923233 -0.007979088 -0.00472542 0.006003182 0.00066892273 0.009548275 0.032231387 -0.004435315 -0.00134377 -0.011439679 0.018317401 0.01856374 -0.03925459 -0.008684023 -0.012702486 -0.006915992 0.035539784 0.014033924 -0.017878495 -0.031627264 -0.017284445 0.010792911 -0.04425385 0.018363575 0.020130014 0.0017046491 -0.016722102 0.006136997 0.0003417708 0.0066705886 0.018059494 -0.013130082 0.01518882 -0.0067741317 -0.007402131 0.02194685 0.024803633 0.016433181 -0.010445999 0.0021667522 0.0076539707 0.011881481 -0.019272877 -0.011034526 -0.021288894 -0.0035660877 0.030895535 0.01439049 -0.012629076 0.004130722 0.014786903 -0.0074356804 0.02990402 0.008728808 -0.049768783 -0.007097129 -0.025382977 -0.012630372 0.031014329 -0.009180581 0.026607322 -0.010262025 0.014644658 -0.017915772 0.004220973 -0.023130964 -0.023390738 -0.010866939 -0.032427683 -0.008574657 0.0050581396 -0.031240042 -0.0046262247 0.006753244 -0.030937763 -0.006747377 -0.027439218 0.0031835681 0.01560707 0.01962384 0.030316751 0.030155675 0.0038111585 0.004506069 0.015413969 0.027241975 -0.01660609 0.0010148811 -0.004930891 0.013429473 -0.0015560598 -0.008278132 0.010716876 -0.017959516 -0.0115554165 0.005588252 -0.00690022 0.010327039 -0.016496083 0.0037427999 0.0037713638 -0.010666927 -0.019930141 0.01694995 0.0075818286 -0.0071977614 0.004503013 -0.012470811 -0.010837103 0.008425489 -0.0055681276 0.00043283653 -0.0146914795 0.0031572077 0.013317697 0.009678945 -0.0071045905 -0.023055047 -0.021546403 0.022251498 -0.01972984 -0.016098656 -0.040069338 0.005643194
q -0.00832608 -0.024852175 0.01748144 0.019044966 0.032719415 -0.003206861 0.031577587 0.0046678106 -0.018783456 0.01630932 -0.0016593981 -0.0048402227 -0.00600556 -0.02154746 0.0113214925 0.024130283 0.017138073 0.013043876 -0.028700972 0.025267215 0.007268718 0.0027362315 -0.007542676 -0.028688679 -0.023244288 0.0033236472 0.014202082 0.019716507 -0.012775578 -0.021886816 -0.0036140056 -0.0059823464 0.0005643241 -0.001644564 -0.01311409 0.03411385 0.02494675 -0.02393495 0.0125441 -0.014723929 -0.02871047 0.021736035 -0.0014003284 -0.013684527 0.028490381 -0.0074538183 -0.0005582554 -0.0041165682 0.013845735 0.008603508 0.004142864 0.0103653995 0.014554815 0.013084318 -0.00852619 -0.0077340747 0.018037438 -0.027304076 0.009367811 0.0143921375 -0.0020004641 0.012150779 -0.009598216 0.004613474 0.004401244 -0.0036274267 0.005221421 0.022810053 -0.028380947 -0.00551354 0.021802947 0.0013429645 -0.0164633 -0.019099321 0.004353202 -0.00612738 -0.013430033 -0.019974248 0.011372669 0.0415139 0.0029728147 -0.008749572 0.018074157 0.036910776 0.0011465944 0.01971561 0.03267561 -0.05090339 -0.002570275 0.0032581186 -0.0012803898 -0.014533963 0.01098133 -0.018617205 0.026986847 0.032715376 -0.033455513 -0.012446204 -0.0037807727 -0.01629514 -0.02711392 -0.0038074008 0.015022462 0.0013451736 0.014606129 0.011541496 -0.0010187104 -0.0015469836 0.008262376 -0.028940775 0.0047143465 -0.02391001 0.0117004495 0.013036514 0.005568852 -0.006356816 0.016539194 0.008049569 -0.003393633 -0.005688652 0.00018761339 -0.013978571 0.0179546 0.00038504193 -0.015725315 0.008275517 0.017102053 0.0051229554 -0.0011405831 -0.0071618147 0.027908526 -0.015672157 0.010834568 -0.0068230922 -0.0065898956 0.0058826143 -0.0037299828 0.013473229 0.036579758 -0.0071543274 -0.0076012877 -0.0043008113 0.01970078 0.014772999 -0.041612018 -0.003118523 -0.012795109 -0.005560592 0.033199973 0.01441855 -0.016135642 -0.036242783 -0.020645404 0.007990308 -0.04058873 0.023532733 0.024987185 0.0020555425 -0.018875424 0.009282826 0.001497262 0.005376161 0.019501442 -0.012724108 0.011772586 -0.007996992 -0.008193186 0.022872323 0.02754811 0.011121466 -0.008295552 -0.0010104459 0.0033340782 0.011242931 -0.023783611 -0.0111906845 -0.021864785 0.0027135483 0.029988714 0.017560227 -0.010932316 0.00500303 0.009819866 -0.0084090745 0.029007738 0.0041499264 -0.04302166 -0.0076366123 -0.024172131 -0.006710004 0.028343981 -0.010369738 0.030196445 -0.008341826 0.014416507 -0.012063627 0.007061634 -0.020973826 -0.020202382 -0.004448038 -0.029516608 -0.010551527 0.011112203 -0.03082051 -0.009733738 0.009561042 -0.035828743 -0.005188987 -0.030496178 0.0059825685 0.009137528 0.020519074 0.033861194 0.031661738 0.0064945687 0.00032443888 0.009857967 0.02902788 -0.017371465 0.0014603592 -0.0039003252 0.019190397 -0.0011315083 -0.008461269 0.006086523 -0.022354072 -0.007916528 0.0009945376 -0.009115869 0.0055088536 -0.019317813 -0.0014014761 0.0051577007 -0.0044415644 -0.016169704 0.013295273 0.011096764 -0.002914998 0.0023524193 -0.016261837 -0.014162109 0.012018653 -0.0040348982 0.0074788616 -0.009364623 0.0030908645 0.017318232 0.016570326 -0.0041766106 -0.015706135 -0.024831187 0.021866797 -0.023898965 -0.022363896 -0.047511976 0.0074894116
vn -0.011032074 -0.032513984 0.017422184 0.019538194 0.035088584 -0.0024628898 0.029392414 0.0034523783 -0.016187772 0.012667462 -0.00511612 -0.0015402917 -0.0076580415 -0.023071598 0.009452238 0.027358782 0.019122997 0.011203092 -0.031087521 0.030641697 0.013444161 0.004241794 -0.0059354072 -0.024768475 -0.028868431 0.009395341 0.01174351 0.025311837 -0.011543188 -0.021201001 -0.0047531663 -0.0033103398 -0.000825724 -0.0060709426 -0.012570891 0.036960546 0.029850595 -0.025767054 0.011994093 -0.01588125 -0.02644852 0.02430169 0.0027213844 -0.012874281 0.027252577 -0.0011907985 0.0050927144 -0.004496885 0.017718917 0.003960012 0.0019160024 0.00814719 0.016026216 0.019072304 -0.008771791 -0.013582887 0.021274954 -0.032381006 0.011971317 0.016260266 0.0031383024 0.0054732165 -0.004165506 0.008829079 0.003660081 -0.0034139373 -0.0012233118 0.02518517 -0.029286012 -0.008830664 0.025346776 -0.0032279273 -0.019631246 -0.02456542 0.004665993 -0.008033662 -0.010128171 -0.01526785 0.010985017 0.04261142 0.0011543125 -0.012808765 0.018692678 0.038951404 0.003585637 0.025329862 0.034118418 -0.04927166 -0.00044346674 0.0056855883 -0.005784618 -0.013416095 0.013770915 -0.019510664 0.03440611 0.02968244 -0.030982485 -0.016484618 -0.001347448 -0.017115083 -0.031697273 0.0013592088 0.016169423 0.0014951726 0.01123878 0.009495008 -0.0007605911 0.0010273992 0.013067765 -0.03150686 0.0024422803 -0.023909736 0.011257389 0.016857415 0.0028708433 -0.011059224 0.020157795 0.013963732 -0.0014342895 -0.011420275 0.0003460471 -0.021578342 0.020724768 0.002574454 -0.02168381 0.0021105676 0.010798116 0.0031312625 0.003637827 -0.0035290536 0.026926013 -0.013080402 0.011429018 -0.012040472 -0.009074974 0.003187134 0.00075351953 0.010737129 0.036366805 -0.010042465 -0.0015971466 -0.009781425 0.021459678 0.015176115 -0.051035192 -0.008697896 -0.014917988 -0.0075505436 0.039733775 0.016950589 -0.0135591235 -0.037124537 -0.019835968 0.012130637 -0.04632201 0.02394659 0.025590174 0.0027725887 -0.021547241 0.00434836 0.004342488 0.0073249564 0.015821919 -0.016913414 0.012723594 -0.009126671 -0.008854929 0.022179082 0.025667269 0.01443037 -0.0089460155 -0.0042100507 0.002969907 0.010804574 -0.019423598 -0.017202089 -0.024591677 -0.0011641785 0.034226924 0.012491248 -0.013275123 0.000115666175 0.016218131 -0.0085140895 0.030568503 0.005605255 -0.05020784 -0.014062682 -0.020426707 -0.011222491 0.03081843 -0.010532674 0.026848555 -0.0065762806 0.021429313 -0.0154964235 0.006721131 -0.028840194 -0.022651015 -0.009252238 -0.03463653 -0.0064514494 0.008531835 -0.034871835 -0.00524635 0.008983289 -0.039125953 -0.008190921 -0.031417023 0.0061432947 0.014202763 0.021473093 0.031864624 0.028975379 0.011435608 0.0016565642 0.017559549 0.031042246 -0.025430705 0.0035554317 -0.005606694 0.016886009 0.006524533 -0.01194702 0.0065406016 -0.020878915 -0.010240366 0.0014510148 -0.0075967526 0.011529503 -0.019966472 -0.000100120735 -0.0018222872 -0.0075768414 -0.01924058 0.018930828 0.009543894 -0.0029946968 0.0052513466 -0.011438006 -0.016149154 0.0065626865 -0.008517062 0.0038728947 -0.009904582 0.0042281128 0.012930086 0.011106509 -0.011892779 -0.019486636 -0.026290167 0.023317534 -0.021715168 -0.021458374 -0.051405147 0.009075833
b -0.01199531 -0.036114343 0.013523005 0.020984998 0.0364709 -0.009388807 0.03310845 0.008526691 -0.02270341 0.012377778 -0.0029417719 -0.0071738632 -0.0064400253 -0.021480238 0.0124277 0.026922954 0.018507654 0.0139002325 -0.03871027 0.034820147 0.011876944 0.0048081367 -0.010973881 -0.02902608 -0.023915704 0.00799272 0.00899846 0.023280807 -0.014298097 -0.01917511 -0.004958542 -0.00034216171 -0.0019346623 -0.006917165 -0.016801005 0.03765329 0.02640964 -0.026816266 0.013356633 -0.01756159 -0.031892553 0.03059354 0.002824058 -0.015637545 0.028360123 -0.0044616065 0.004329535 -0.007038101 0.014949166 0.010416213 0.008404741 0.006794104 0.016504927 0.015111586 -0.014610946 -0.014090084 0.021869665 -0.03474204 0.014643839 0.021492157 0.0031280988 0.00844854 -0.009409014 0.0035874923 0.0049166405 0.0018991783 -0.0012818201 0.031032821 -0.027855089 -0.012614142 0.026424812 -0.0052898275 -0.01925757 -0.027761633 0.0076883016 -0.008427933 -0.013374259 -0.019134453 0.009743752 0.041884862 0.00142802 -0.011907258 0.020256221 0.040317215 -0.0004011116 0.028574472 0.03427997 -0.0563971 0.0002688876 0.00011931263 -0.0016195322 -0.016664902 0.010889891 -0.022042835 0.034385197 0.036311883 -0.034553107 -0.021560974 -0.001327596 -0.02401897 -0.03898407 -0.0006336062 0.020184327 0.008625721 0.011261162 0.008080055 -0.0006622501 -0.0015596914 0.01182185 -0.034099393 0.005734341 -0.026812397 0.012554528 0.020869104 0.0019652932 -0.010527984 0.019263042 0.0075596785 -0.0006310202 -0.0070580808 -0.004509254 -0.02276522 0.01895002 0.005025923 -0.019558296 0.009481611 0.012420411 0.005950042 0.0008563486 -0.0074127354 0.025713291 -0.01394983 0.009731382 -0.009522783 -0.0064742393 0.0049322005 0.0014969769 0.009143378 0.039263543 -0.0117177125 -0.008063086 -0.00798954 0.020139547 0.016775738 -0.051186107 -0.009270657 -0.015423858 -0.007977566 0.04352987 0.020207243 -0.019772505 -0.03892759 -0.024569238 0.011108289 -0.050388075 0.020724924 0.027934726 -0.0035549002 -0.022775538 0.006847616 0.0077885604 0.009540822 0.020029187 -0.014796512 0.013246688 -0.00809479 -0.009973735 0.02748453 0.030775337 0.020065011 -0.0054300344 -0.0016688117 0.004616435 0.014287592 -0.020999292 -0.011049888 -0.027696753 -0.002299182 0.03744801 0.016585357 -0.012006225 0.00660401 0.017490974 -0.008475801 0.032772813 0.0027074176 -0.05145624 -0.0097015845 -0.026381519 -0.010376693 0.03585016 -0.004280169 0.034818 -0.007278811 0.021570845 -0.014737493 0.00512057 -0.027873024 -0.02782706 -0.007831857 -0.03969628 -0.00646377 0.006484356 -0.035026886 -0.006850768 0.006236119 -0.043082215 -0.008631078 -0.034319237 -0.000825493 0.015186814 0.0217659 0.03749254 0.032151137 0.009121387 0.002157925 0.018012732 0.02787383 -0.021520631 0.00026090426 -0.010034344 0.019520625 0.0016256795 -0.012469429 0.008264808 -0.022056747 -0.013039194 0.0049851486 -0.007268931 0.009946077 -0.019110823 0.004412465 -0.0027197876 -0.012205487 -0.017039001 0.020235712 0.0064270687 -0.007408671 0.0067946455 -0.019206444 -0.016019797 0.014380159 -0.008764172 0.0011996082 -0.010176312 0.0028569598 0.014595977 0.013884758 -0.012033206 -0.024463978 -0.025859404 0.02390897 -0.023961483 -0.019537505 -0.048017874 0.006620684
Ih01 -0.014645282 -0.02774523 0.01227271 0.01937591 0.033624604 -0.005817262 0.032886263 0.0045442428 -0.018344944 0.0132076945 0.0011121943 -0.0005212741 -0.005578907 -0.018667186 0.00689442 0.027255304 0.013176749 0.009592228 -0.035100468 0.03198487 0.009177017 0.0036084459 -0.0037106292 -0.030022252 -0.025196904 0.0077589457 0.008334983 0.02545263 -0.010285497 -0.021439355 -0.00022830337 0.0010085328 0.0005750419 -0.0012528384 -0.015257905 0.031086607 0.03098895 -0.019531952 0.01507568 -0.015732544 -0.025307968 0.02792695 0.0037694764 -0.013641794 0.030852854 -0.006940333 -0.0011690054 -0.0051729013 0.016309993 0.0065999296 0.0075777895 0.005491873 0.008419459 0.020028407 -0.008002943 -0.012284452 0.017570423 -0.03257055 0.011953413 0.020329278 0.001672758 0.007972405 -0.007369968 0.00557074 0.00074648217 0.0010006459 -0.0018989583 0.025569528 -0.029559026 -0.006404869 0.028666401 -0.0029473496 -0.013888294 -0.023208898 0.008767382 -0.0063323863 -0.008958297 -0.02026039 0.012711345 0.044060156 0.005805499 -0.012044227 0.016512005 0.03324582 0.0036889021 0.021230377 0.02731864 -0.04737425 -0.0023404825 0.0059221713 -0.00720098 -0.007576518 0.011601627 -0.025511228 0.033468094 0.02811233 -0.030293174 -0.014197499 -0.0046858476 -0.017391276 -0.03013878 0.002415095 0.012935895 0.0020173346 0.00829138 0.010347532 8.663057e-05 0.00046585855 0.011780734 -0.023937982 0.005471712 -0.021190282 0.011690158 0.018016705 0.00026291626 -0.012239781 0.01772128 0.011669551 0.00012751858 -0.011754501 -0.0012753443 -0.015165924 0.019547071 0.0030243231 -0.019926267 0.0034148241 0.013058647 -0.00020000478 -0.0010461188 -0.004491669 0.026531471 -0.011371236 0.011278923 -0.0077595646 -0.0082506025 0.007125866 -0.0022493042 0.011844427 0.034395695 -0.010399951 -0.0047321226 -0.011394933 0.020849027 0.017765088 -0.04597624 -0.0052979463 -0.009448247 -0.009775886 0.037832618 0.015816445 -0.015406483 -0.036909804 -0.02522913 0.013998366 -0.044540778 0.0173208 0.024031453 -0.0029906814 -0.014543604 0.0050876415 0.003619581 0.0077366764 0.014214127 -0.017420948 0.017135173 -0.0052865935 -0.015500764 0.022849595 0.021875927 0.013504141 -0.0063146893 0.00085167727 0.0013195778 0.011579267 -0.019507699 -0.01650299 -0.023301255 -0.0015217499 0.028117843 0.015426047 -0.008204964 0.004140479 0.014350331 -0.0051492634 0.030195951 0.0027338131 -0.048984345 -0.0068242666 -0.021651285 -0.009812644 0.032514196 -0.0057225362 0.025937574 -0.004891878 0.022770135 -0.019934878 0.0071656946 -0.028475037 -0.021684436 -0.006156867 -0.03507777 -0.011030716 0.0047147823 -0.034679476 -0.008738388 0.010116749 -0.03421502 -0.012837283 -0.025132086 0.005440969 0.01519514 0.023577685 0.02779516 0.030329011 0.0085090455 0.0032120682 0.015967188 0.025143642 -0.019365506 0.007601858 -0.009938191 0.020163212 0.0035684253 -0.011434716 0.008571345 -0.024855787 -0.011275247 0.006409354 -0.009350184 0.013057257 -0.020332128 -0.0013124165 0.0035357042 -0.0047774534 -0.015437029 0.017885942 0.011211521 -0.0059374035 0.0098743765 -0.016385201 -0.01617014 0.007206689 -0.003056604 0.001976244 -0.011131372 0.0022368606 0.013900008 0.010942342 -0.010205679 -0.0217821 -0.0214993 0.022077115 -0.023143128 -0.019616447 -0.047925204 0.010554581
不 -0.012720866 -0.035997234 0.016242834 0.021605369 0.036613014 -0.0083172815 0.031292677 0.0041419514 -0.020857709 0.018719405 -0.005407048 -0.0028206883 -0.0069178795 -0.021766506 0.006070769 0.030527826 0.01726832 0.014340505 -0.042371403 0.03489292 0.008473588 0.0037266698 -0.008080275 -0.0316078 -0.027912306 0.007886976 0.014478026 0.024696559 -0.01385124 -0.02503267 0.00085800816 -0.0007546022 0.0039578313 -0.0027336949 -0.01605695 0.04084416 0.027979648 -0.024126137 0.01577712 -0.016390422 -0.029608138 0.02982316 -0.0014542638 -0.016581878 0.03163962 -0.0027445073 -0.00053776667 -0.0033328002 0.016079048 0.005504237 0.0038755215 0.01109048 0.017186452 0.022832803 -0.008295317 -0.009539955 0.020690516 -0.037087813 0.017501386 0.022490978 0.0038424726 0.013080032 -0.006388421 0.00830332 0.0021779716 0.0012869127 0.0056415647 0.028173504 -0.030107504 -0.007246451 0.03145033 1.2087272e-05 -0.014681831 -0.026287891 0.0090728635 -0.0029315094 -0.0131965345 -0.020730112 0.0142780775 0.048930246 0.0007943668 -0.015054092 0.01867335 0.043895386 0.0004324901 0.024968289 0.03584467 -0.053646542 -0.0006368318 0.0049172924 -0.0034930755 -0.009674563 0.015782794 -0.024145758 0.035942893 0.036452606 -0.041304216 -0.016100429 -0.0030686853 -0.018715842 -0.041310668 -0.0013021267 0.021882435 0.0038088565 0.012790858 0.011769872 0.005663703 -0.0021651536 0.008273721 -0.02687799 0.0011104848 -0.023469549 0.015138587 0.016410593 0.0017295852 -0.015205697 0.02106515 0.01357808 -0.0027108323 -0.010136257 0.0021172462 -0.022684988 0.021548787 0.0035070232 -0.0222514 0.0036678256 0.019350529 0.001652728 0.0066699884 -0.0061103534 0.031283546 -0.013116454 0.01157258 -0.01085314 -0.0088093 0.007341133 -0.0015794549 0.011293422 0.043419156 -0.0060750437 -0.007496883 -0.009109593 0.02159761 0.017485041 -0.051958553 -0.0033960305 -0.011532311 -0.011448803 0.040236138 0.022171393 -0.019022355 -0.045750856 -0.02489039 0.010928538 -0.05015125 0.024050914 0.025970485 -0.002229595 -0.01699142 0.010657648 0.0060318857 0.009916384 0.02185676 -0.020608759 0.019216824 -0.007008042 -0.01676946 0.022078378 0.028855296 0.02053766 -0.008618541 -0.0044749444 0.0047385534 0.011205622 -0.027069513 -0.0121065015 -0.022952551 -8.145216e-05 0.03776317 0.016654294 -0.016215794 0.0046619596 0.018455155 -0.0041453256 0.0364534 0.0045856466 -0.055469703 -0.01417529 -0.024784334 -0.010620011 0.033371147 -0.008227948 0.035048135 -0.0080897445 0.022496186 -0.01489967 0.006390201 -0.02845599 -0.025460152 -0.011604967 -0.04188503 -0.010457161 0.010737637 -0.03219907 -0.0068171453 0.0054964744 -0.03949406 -0.0119789755 -0.03346044 0.006640257 0.01704483 0.022556996 0.03351595 0.037584912 0.013018191 0.0063598407 0.01563696 0.035819113 -0.020774746 9.089513e-05 -0.003922506 0.020040859 0.00093601126 -0.00955006 0.014287048 -0.027765375 -0.006795085 0.0018770273 -0.012329126 0.012859282 -0.021789396 0.0037350166 0.0041550603 -0.005065596 -0.016831052 0.013610243 0.011423563 -0.007877557 0.007289792 -0.012020104 -0.019480223 0.012648613 -0.008728131 0.0010016299 -0.011434673 0.004801013 0.019875018 0.016818741 -0.008854971 -0.022127174 -0.028514009 0.027375672 -0.02662896 -0.021678777 -0.05510327 0.007876849
Jd07 -0.009803096 -0.030982224 0.01242578 0.014218609 0.029931637 -0.0015537069 0.029862264 0.0052325767 -0.02165806 0.0125224255 -0.0043089 -0.0018483099 -0.0038670388 -0.019626288 0.012611171 0.02556727 0.021171661 0.014570491 -0.03403475 0.03078431 0.007679181 0.0039284374 -0.004344661 -0.030897852 -0.024506755 0.0038593719 0.015397748 0.023182444 -0.010944765 -0.02236789 0.00021210173 -0.005221001 -0.0030144097 -0.0016537998 -0.014420526 0.033718035 0.03033602 -0.021251824 0.017786678 -0.011792378 -0.026283957 0.024552373 0.0022459053 -0.0104698045 0.027578605 -0.004053841 0.00045616258 -0.006462931 0.019683804 0.008049501 0.006757129 0.0072380383 0.01450838 0.01629821 -0.013262039 -0.009961652 0.024182387 -0.03543146 0.013976814 0.01720889 -0.00156226 0.0074768793 -0.0099099325 0.008808136 0.004074787 -0.0040076924 0.002118548 0.029778535 -0.024175327 -0.014065198 0.02748566 -0.0033145677 -0.017695745 -0.02387716 0.008297792 -0.0057677994 -0.007731257 -0.01923569 0.008705306 0.045135636 0.0063119684 -0.012543918 0.01806206 0.041575976 -0.001751213 0.02806925 0.03173579 -0.054858446 0.00087752537 0.0012670909 -0.0031279398 -0.014829771 0.012346272 -0.021173384 0.03595855 0.028403465 -0.036884077 -0.014554903 -0.0001415165 -0.020573227 -0.03650728 -0.0007014668 0.012415641 0.0054651764 0.010770659 0.008708018 0.0036730487 -0.0009037348 0.0074272575 -0.028510112 0.0020075096 -0.023500448 0.012571051 0.02108641 0.0013438247 -0.009321187 0.02245359 0.014632791 0.002825604 -0.0114263445 0.00057926145 -0.015346467 0.01985334 0.0025247524 -0.019627541 0.006722291 0.01642239 0.0058841305 0.0008913279 -0.008098637 0.029765353 -0.016547913 0.010085162 -0.011034813 -0.006498091 0.0018065053 -0.00046832563 0.008103188 0.038620137 -0.010833939 -0.00694938 -0.007137368 0.018673286 0.018546566 -0.047371376 -0.010166697 -0.009160184 -0.00943547 0.037596785 0.019423394 -0.017436422 -0.03678099 -0.021621084 0.013003937 -0.043612767 0.025686886 0.02505652 -0.0018746644 -0.016562963 0.004734587 0.008320797 0.009041685 0.01934068 -0.015716022 0.01446632 -0.005794046 -0.013941721 0.027776971 0.029406907 0.01696613 -0.010570051 -0.0043098414 0.0070367535 0.012532825 -0.024748826 -0.017754681 -0.024674213 3.753528e-05 0.03008918 0.015322576 -0.010332881 -0.000606185 0.014102863 -0.0076065464 0.03063387 0.004739933 -0.055432055 -0.011688087 -0.02695393 -0.013789635 0.031553958 -0.006423198 0.034295674 -0.0045063673 0.017127303 -0.020575672 0.0076176403 -0.0245557 -0.019814838 -0.009777103 -0.03672753 -0.01065173 0.0047971793 -0.029845838 -0.0080498075 0.010462048 -0.039502166 -0.005520749 -0.03174058 0.0061085653 0.010369012 0.017880931 0.036269456 0.028913226 0.0044332775 0.0042031286 0.011112813 0.031863715 -0.020778814 0.00093908445 -0.005627874 0.018595798 0.006211641 -0.009216125 0.007636773 -0.023440197 -0.006100695 0.0014024199 -0.0046001105 0.008014532 -0.01975622 -0.00053712167 0.0025964058 -0.012426342 -0.016596597 0.014152627 0.013208526 -0.0058831647 0.0033285283 -0.013320901 -0.012132643 0.011073468 -0.0067534917 0.0051675276 -0.016722385 0.0016965504 0.0134941675 0.014985411 -0.01081984 -0.024599455 -0.02592429 0.024792079 -0.021933744 -0.017968845 -0.047196187 0.0089502325
Fc04 -0.0072962325 -0.022246026 0.010539503 0.014199366 0.027511053 -0.0023165485 0.022798266 0.0045394027 -0.01266147 0.009377571 -0.005325759 -0.0001871819 -0.0055578356 -0.017052438 0.0041331137 0.02359274 0.014006075 0.00952599 -0.028016407 0.024371047 0.011329909 4.7807804e-05 -0.0046524154 -0.024562659 -0.016496517 0.00759602 0.006687531 0.018160341 -0.011261663 -0.012874884 0.0016568159 -0.00093195844 0.0040545445 -0.0051142653 -0.008919053 0.025317479 0.018961333 -0.020348025 0.011681996 -0.014059123 -0.024741022 0.02313447 0.00038976848 -0.014881704 0.026314942 -0.0032834085 -0.0024100572 -0.004380625 0.009724704 0.0094956085 0.003965133 0.010797363 0.011883276 0.012770908 -0.012462033 -0.01158427 0.019760612 -0.027066182 0.009906672 0.014181935 -0.002423776 0.009074658 -0.008624793 0.009035534 0.0007463607 0.0019017829 0.0007500115 0.021859247 -0.023565274 -0.0076686647 0.023095207 -0.0015856399 -0.0133393 -0.015848817 0.0015511069 -0.0073639057 -0.01229038 -0.013240241 0.0068089752 0.032186016 0.0044635492 -0.013351321 0.015833955 0.03498323 0.0030016536 0.019518709 0.026677245 -0.039925195 0.002479816 0.0010861426 -0.0024684279 -0.01128068 0.0076440806 -0.018350452 0.028013127 0.023386648 -0.026189357 -0.016680652 -0.0026485918 -0.020688094 -0.024186876 0.001559123 0.012154424 0.007695385 0.010772103 0.0029140813 -0.0023045982 -0.0032252786 0.0050075953 -0.020002997 0.0057050316 -0.016687196 0.009146873 0.011037678 0.0054426314 -0.010405066 0.014312227 0.005870673 -0.00053751655 -0.010796433 0.0004648682 -0.018445807 0.017524803 -0.0017011267 -0.017405929 0.004220329 0.008763857 0.004384935 0.0003470923 -0.0034378332 0.025269296 -0.009806595 0.008160945 -0.006220457 -0.0048349216 0.0051601487 0.0020914872 0.0065233167 0.031341553 -0.011081653 -0.0042334986 -0.0033213994 0.013396975 0.011470634 -0.036974754 -0.0019602363 -0.008106029 -0.009300475 0.033543482 0.01626285 -0.016263165 -0.031215688 -0.01830073 0.0061173313 -0.038171828 0.021478135 0.019306062 -0.0032379967 -0.017060325 0.002621142 0.0044587515 0.009064278 0.014172978 -0.015233677 0.015882669 -0.008688185 -0.011685595 0.015397036 0.025977552 0.011529438 -0.008987503 -0.0038721862 0.006327216 0.008068973 -0.021326654 -0.00986609 -0.021280874 0.0034374478 0.029432502 0.010690149 -0.010211211 0.0034946406 0.007457991 -0.0023477694 0.027407723 0.007091027 -0.044799913 -0.0081246635 -0.02194051 -0.0060648215 0.0291441 -0.00605277 0.02106424 -0.00459288 0.015925849 -0.012623085 0.0010505144 -0.02175926 -0.019164637 -0.0036388764 -0.031141726 -0.008435466 0.006286753 -0.027150758 -0.0027251462 0.005326365 -0.030584281 -0.011131145 -0.028260851 0.0027058423 0.009870341 0.01284292 0.029526137 0.02944919 0.009097949 0.0007659656 0.011965558 0.027319757 -0.02080502 0.00022347343 -0.008711237 0.01620472 -0.001566565 -0.007251551 0.0111895455 -0.017723564 -0.011170526 0.0067060106 -0.0043191994 0.004140528 -0.011931549 0.004539657 0.003449371 -0.008613135 -0.011628859 0.01041953 0.0041735447 -0.0014596947 0.003416183 -0.01258007 -0.0149352 0.004826398 -0.0051780343 0.003824739 -0.010084067 0.005655099 0.01354499 0.0070941835 -0.010079091 -0.018220797 -0.019612176 0.015222798 -0.014739299 -0.015432814 -0.041506987 0.0077119526
Di02 -0.010784737 -0.029978622 0.013756268 0.01761164 0.02822461 -0.0068201255 0.02744267 0.0074149957 -0.014057643 0.009623251 -0.005598451 -0.0029067446 -0.0046583298 -0.01758246 0.008852314 0.022394024 0.0146210715 0.011400596 -0.03153285 0.029189918 0.010081409 0.007514522 -0.007993553 -0.023583846 -0.021331463 0.0038693387 0.01362026 0.022924654 -0.00806603 -0.018802034 0.0017076402 -0.0004233424 -0.00037089403 -0.002027351 -0.009339612 0.03368369 0.026041504 -0.020010022 0.01243769 -0.0155214155 -0.028973263 0.0246332 -0.00083106477 -0.011859937 0.025827521 -0.0038400542 0.0038691636 -0.006632075 0.017166229 0.00954516 0.0074376757 0.0090947375 0.011089907 0.01656839 -0.012919314 -0.012299775 0.01892796 -0.029347809 0.012899509 0.013986783 0.0028740999 0.006907582 -0.0030866642 0.0046723746 0.0026892917 -0.0006673159 0.0010221904 0.023937799 -0.026424346 -0.005973061 0.021082448 -0.00043427767 -0.015842509 -0.017402364 0.006188297 -0.0035889768 -0.011490112 -0.01798502 0.0061692176 0.03718226 0.0052203448 -0.014956644 0.01766939 0.036326256 0.0030621164 0.021698259 0.0307074 -0.050422173 -0.0012254406 0.0058349157 -0.0018897131 -0.012764196 0.008538493 -0.023998821 0.030236097 0.030390218 -0.033975855 -0.013756312 -0.0026793028 -0.016547225 -0.028044464 0.0007147156 0.014360645 0.00073430705 0.009144305 0.008138069 -0.0024475707 0.0021935455 0.010503761 -0.025709856 0.0075915633 -0.020905156 0.010976331 0.016519556 0.006247622 -0.00818604 0.015905457 0.007606425 -0.002637068 -0.005222269 0.0011346677 -0.014638133 0.018664619 -0.0023088183 -0.012950399 0.0015381718 0.013357925 0.0021060281 0.0052328645 -0.0076083355 0.025674187 -0.014870475 0.009330586 -0.007404189 -0.008929147 0.0072339694 -0.0042360695 0.013548074 0.030571675 -0.010934654 -0.007176599 -0.005355296 0.015244774 0.015887026 -0.04617994 -0.0016308688 -0.010887687 -0.008810946 0.032918863 0.017963812 -0.014219035 -0.03771229 -0.018751401 0.0087552685 -0.040416367 0.022645997 0.0217818 -0.000111773894 -0.014300903 0.0049046264 0.0053322935 0.008994319 0.011222225 -0.016583443 0.016472314 -0.0046268706 -0.007371245 0.020692114 0.027790267 0.01065636 -0.0057300203 -0.004089155 0.004264629 0.013569998 -0.021661432 -0.009550142 -0.024312908 -0.0007968728 0.031532478 0.011564325 -0.007193265 -6.3163e-05 0.012281658 -0.0009291999 0.032147754 0.0053407056 -0.0420681 -0.0129087465 -0.022823116 -0.008416071 0.026815403 -0.004250937 0.030464461 -0.008771759 0.01686607 -0.011380566 0.001265442 -0.02722316 -0.020394193 -0.010479851 -0.03056501 -0.006555475 0.0043783584 -0.029282544 -0.007860642 0.00468123 -0.032181744 -0.0069298376 -0.028077308 0.0057418575 0.011486765 0.021568233 0.030620249 0.031428035 0.011278975 0.0005822254 0.013329128 0.025289519 -0.018435404 0.0007810683 -0.0068938117 0.019275062 0.0011647006 -0.0076283203 0.008498824 -0.019621495 -0.00814609 0.0003108035 -0.004211105 0.01139201 -0.019790825 -0.0013288673 0.0017288217 -0.0071432353 -0.01704427 0.017584583 0.004560044 -0.0046168542 0.008901538 -0.01349248 -0.016543666 0.012592317 -0.0025267098 0.0019644005 -0.014627812 0.002486468 0.016995305 0.011600608 -0.0052964306 -0.020091692 -0.018870568 0.01954467 -0.017904954 -0.015292326 -0.046266206 0.0086009465
