570 256
n -0.011628808 -0.064192414 0.03339259 0.049095582 0.07904546 -0.0023390339 0.061959688 -0.0009338726 -0.021486323 0.037519686 -0.015644744 -0.009761198 -0.011771234 -0.06792915 0.0077660615 0.036667276 0.03355618 0.039965976 -0.05704739 0.08320724 0.02015135 0.01332649 -0.014480983 -0.05317823 -0.07010059 0.043474905 0.021199314 0.029989498 -0.021686226 -0.04240101 0.018120632 -0.009762129 -0.015298871 0.011551626 -0.028421933 0.085520886 0.050011404 -0.023448072 0.056123186 -0.04648657 -0.0944449 0.08195154 -0.0066952207 -0.0397441 0.08046313 -0.006595293 0.01981623 -0.031376287 0.015481958 0.036381118 0.02434808 0.026492732 0.012400858 0.04334385 -0.0362623 -0.026160972 0.04379092 -0.08264866 0.024206558 0.034976505 0.00817887 0.036064997 -0.002344103 0.0031293943 0.04511283 -0.01189085 -0.011335193 0.07990532 -0.05023917 -0.018692465 0.046084415 -0.00089905993 -0.06539677 -0.037325628 0.0046628355 0.012857302 -0.040590994 -0.02385249 0.010037516 0.08582004 -0.01150176 -0.048644975 0.047088888 0.077482425 -0.002576652 0.073937 0.041531 -0.12495629 -0.017774807 -0.012484335 0.0005893928 -0.04443039 0.024970846 -0.056060016 0.07315136 0.06746222 -0.116522454 -0.07652296 -0.007757457 -0.05391303 -0.08593239 -0.0060311127 0.030345801 0.03608946 0.033043757 0.0024306246 -0.010861382 0.007647333 0.03724862 -0.06768107 0.022569085 -0.07415734 0.019405503 0.027374506 -0.0037854596 0.003273358 0.0391713 0.01502567 -0.023777869 0.008207987 -0.0023611546 -0.053582765 0.054085325 -0.0047557936 -0.025978927 -0.017272687 0.049706977 0.0064457506 0.021369029 -0.00937114 0.04104806 -0.027909257 0.018291421 -0.055589862 -0.023234012 -0.018355295 0.018266445 0.060319036 0.09034434 -0.0010864809 -0.024403503 -0.019617105 0.059061006 0.05455128 -0.13481359 -0.008587037 -0.015759965 -0.0025754345 0.0845966 0.05641938 -0.032159474 -0.083363295 -0.066614546 0.048011437 -0.11227124 0.04213978 0.07337658 0.00860332 -0.086211376 0.046643928 0.032600902 0.015154417 0.05332304 -0.027160926 0.048762992 0.024598517 -0.018070629 0.073374435 0.050759647 0.023995511 -0.030407805 -0.0044822996 0.0020152174 0.027041897 -0.091247305 -0.014096705 -0.08649102 -0.0035925077 0.07138141 -0.0006814706 -0.029723397 0.011485902 0.036164712 -0.0047081886 0.1026289 0.014155232 -0.10576647 -0.033489127 -0.07176965 -0.0140876835 0.07665934 -0.025036234 0.064987294 -0.025295028 0.0332143 -0.04224485 -0.005085687 -0.08259221 -0.037038874 -0.03377217 -0.10214423 -0.019192277 0.031468924 -0.057560243 -0.018948669 -0.016313843 -0.112452015 -0.044772856 -0.06564185 -0.0076833703 -0.005128307 0.05341766 0.08665207 0.066127844 0.004307666 -0.0061842827 0.067944676 0.07947928 -0.072712295 0.010350335 -0.016839448 0.030466566 0.027130645 -0.011909699 0.031921584 -0.058618054 -0.01572994 0.010229773 -0.037931696 0.019006368 -0.043009512 -0.00030996912 0.016760288 -0.03812937 -0.021909555 0.061802432 0.03388951 -0.024179572 0.009407476 -0.019691046 -0.022489155 0.0012805422 -0.011062648 0.023309214 -0.032727867 0.030969601 0.041463844 0.024793448 -0.024075912 -0.05264687 -0.062184058 0.03344905 -0.05416106 -0.027548451 -0.1100126 0.00453933
v -0.010417658 -0.056825615 0.023700856 0.03715265 0.07242611 -0.00102719 0.053982034 -0.0028468822 -0.019460887 0.036922477 -0.012580354 -0.005800498 -0.010798993 -0.057872057 0.009891027 0.033255756 0.029520418 0.034195088 -0.047027186 0.077534474 0.018765088 0.011167882 -0.01559477 -0.04533092 -0.061432134 0.034541834 0.015002978 0.02329717 -0.015249951 -0.036696326 0.016072996 -0.010572992 -0.013153717 0.012319185 -0.02522278 0.07510932 0.043450844 -0.019942323 0.05056728 -0.0352642 -0.07502794 0.06853597 0.00056637864 -0.034680746 0.06513901 -0.0018577079 0.019040769 -0.031102361 0.013448025 0.026050737 0.024261925 0.0235538 0.014732438 0.03347969 -0.029906906 -0.019146578 0.037570328 -0.07066401 0.025247369 0.025774099 0.011334574 0.028546711 -0.004157599 0.0077263373 0.039452765 -0.011951034 -0.0059509682 0.069912136 -0.045169234 -0.015876537 0.03974643 -0.002358244 -0.05393855 -0.0284136 0.002487248 0.009319507 -0.03987228 -0.020989288 0.0106920265 0.079543814 -0.0057621766 -0.045043204 0.034606386 0.06737651 0.0007874367 0.06435244 0.036025487 -0.10572282 -0.011229726 -0.01165487 0.0008428082 -0.03896622 0.0187038 -0.048732817 0.06057458 0.055462092 -0.09967995 -0.06670245 -0.009478987 -0.048187602 -0.06909601 -0.0028790657 0.026244288 0.026488282 0.025582148 0.006123475 -0.006569279 0.003992762 0.034534883 -0.057881996 0.019026877 -0.057055715 0.017359415 0.01737238 -0.002093556 -0.0015203279 0.030695254 0.014226487 -0.019784275 0.0053495397 -0.0051491996 -0.041682247 0.040791098 -0.00021119192 -0.026691142 -0.013115327 0.045221247 0.004900758 0.018337326 -0.011345435 0.034873657 -0.020235278 0.014940507 -0.049069285 -0.023509452 -0.017158635 0.012668334 0.04789893 0.07745847 -0.004396006 -0.021028202 -0.017535549 0.05213366 0.044497672 -0.1162336 -0.009633522 -0.018219996 -0.0022522025 0.072815254 0.04950035 -0.029703857 -0.06664488 -0.057723697 0.04227536 -0.09779044 0.03466739 0.055870228 0.005773153 -0.07505623 0.03531717 0.029423663 0.0139945205 0.048869114 -0.023505623 0.04033049 0.0154196685 -0.014597679 0.0678264 0.039676692 0.01811341 -0.024217444 0.001368762 -0.003665446 0.020619696 -0.074164405 -0.009071212 -0.071048394 -0.0057844184 0.062338144 -0.002223899 -0.023737803 0.009718853 0.02896405 -0.00133801 0.087230645 0.009951 -0.09410005 -0.021504952 -0.05960791 -0.01305957 0.0658401 -0.020886779 0.055738032 -0.02168748 0.03080149 -0.034661125 -0.0019672008 -0.07097598 -0.028997427 -0.0331927 -0.090628386 -0.020988205 0.028755441 -0.0506861 -0.016627694 -0.019317713 -0.09334689 -0.038708583 -0.05450002 -0.00946825 0.0013255465 0.05009692 0.06873718 0.05949537 -0.000731564 -0.0011512146 0.055199202 0.06581044 -0.058043156 0.013123274 -0.012948655 0.031220596 0.026865782 -0.010872217 0.021142144 -0.051385857 -0.015481781 0.006130294 -0.03249398 0.011478471 -0.034944493 0.0027917859 0.013345542 -0.033945657 -0.014496172 0.05112667 0.030669576 -0.02330954 0.008439442 -0.01954714 -0.014624366 0.0027019342 -0.00876451 0.01856991 -0.03253464 0.02573922 0.034412824 0.018095579 -0.022751998 -0.045005526 -0.05152602 0.030870005 -0.04585753 -0.02360763 -0.0926341 0.0051700105
-1 -0.00969889 -0.04293985 0.017636904 0.024147607 0.047836002 -0.0018868415 0.034891237 -0.0032633292 -0.015292785 0.023298379 -0.0076174294 -0.0027495674 -0.008826172 -0.044242196 0.0069821486 0.01831752 0.020209732 0.02637569 -0.030171497 0.04953114 0.008738054 0.0034961412 -0.010714593 -0.028899875 -0.041496523 0.028937127 0.015008617 0.015347425 -0.007444166 -0.027186347 0.00997973 -0.006370571 -0.012137123 0.0074036745 -0.016731957 0.05514188 0.028204568 -0.013401398 0.034741685 -0.030133039 -0.051833235 0.05212411 -0.005639552 -0.021621287 0.052645802 -0.0070166043 0.011106934 -0.02468431 0.011395932 0.019288218 0.020386394 0.011761988 0.010221101 0.026708255 -0.02346948 -0.01357707 0.022817357 -0.052229345 0.016534109 0.021642126 0.008654499 0.023690447 -0.00080985087 0.007036765 0.0238548 -0.0065356377 -0.00668198 0.04850921 -0.026412373 -0.014447361 0.028632067 -0.006996975 -0.039360654 -0.023823474 -0.00042210348 0.011252703 -0.02718361 -0.013042791 0.0101345135 0.05726466 -0.010244846 -0.031380866 0.030864261 0.04733922 -0.0011721167 0.04088237 0.0249525 -0.076948866 -0.0066155978 -0.011106673 -0.00033772225 -0.026702153 0.013497026 -0.033463944 0.044440035 0.039743148 -0.06950212 -0.045163937 -0.002815093 -0.0336866 -0.04999444 -0.0012423312 0.015230469 0.019873505 0.021778591 0.005790821 -0.006003485 -0.0004890468 0.023730267 -0.040416773 0.017774995 -0.04214883 0.013618598 0.015904395 -0.0039325585 -0.0018859903 0.022123719 0.0063013146 -0.010841863 0.008903196 -0.0024036975 -0.03022816 0.028298909 0.00011243635 -0.02017083 -0.014409154 0.028669193 -0.00078363606 0.016380517 -0.009713266 0.025686687 -0.018815657 0.01270589 -0.028523253 -0.017909076 -0.015945995 0.0076330183 0.03370093 0.052282717 -0.0063981228 -0.020401508 -0.009408572 0.03480053 0.029464748 -0.081507124 -0.010448757 -0.013797772 -0.0042565907 0.050755385 0.031609867 -0.018972175 -0.047238294 -0.04115385 0.030526666 -0.070076086 0.02147748 0.03926419 0.0020654947 -0.05265498 0.029031765 0.020904524 0.010043869 0.036026698 -0.018092286 0.030221123 0.015904263 -0.013965996 0.048295923 0.031407494 0.010296502 -0.020070149 0.000535418 -0.00080133986 0.012185201 -0.050915383 -0.009158987 -0.053518023 -0.0015984077 0.040948037 0.00065015187 -0.017216742 0.0056335335 0.020582793 -0.0010592001 0.06473951 0.006694793 -0.06464343 -0.015456504 -0.04091845 -0.00931616 0.049431548 -0.011451666 0.0366091 -0.013141083 0.022596955 -0.027537933 -0.0063818586 -0.051867336 -0.020536179 -0.021605512 -0.059825033 -0.013185079 0.020633094 -0.03305046 -0.011591464 -0.012181933 -0.0700001 -0.03165672 -0.037707806 -0.003915152 -0.0013222728 0.029420236 0.047142133 0.042096347 -0.00045571456 0.00025389265 0.03754199 0.049055386 -0.04491584 0.00855401 -0.009020019 0.016972005 0.01549361 -0.005405678 0.015120876 -0.03472757 -0.014584993 0.0061042155 -0.017802346 0.00971711 -0.027607247 0.0030203012 0.015384968 -0.025120646 -0.014077243 0.03677589 0.023953976 -0.015078793 0.0017991867 -0.012145981 -0.008337418 -0.0024780475 -0.008472131 0.016012544 -0.024165992 0.01927119 0.025071343 0.01821323 -0.010315281 -0.03282917 -0.03969907 0.02436624 -0.029945847 -0.012080869 -0.06802793 0.008034824
u -0.0069311406 -0.03809784 0.018561127 0.025008868 0.04740518 -0.00071216025 0.031256586 -0.001814075 -0.0076159867 0.0196385 -0.009087672 -0.008550914 -0.008118252 -0.039149225 0.0017241879 0.021532977 0.01895541 0.021339165 -0.027606297 0.052119818 0.012978299 0.0054367715 -0.008492123 -0.030966332 -0.04340529 0.026956525 0.011007851 0.01491966 -0.010979121 -0.024282195 0.013311405 -0.006643254 -0.014489466 0.0117107285 -0.013520196 0.051188923 0.028677773 -0.010668591 0.03493871 -0.026348768 -0.05277578 0.046003122 -0.0002653774 -0.022970041 0.04823505 -0.0049862457 0.016505044 -0.01951123 0.0049031703 0.017283594 0.012353911 0.012723991 0.008606906 0.027305553 -0.01822612 -0.01603362 0.024426542 -0.04347388 0.013272578 0.013347148 0.0054680724 0.016568538 0.002112862 0.0010873819 0.027651634 -0.003373633 -0.006268743 0.044675197 -0.02757125 -0.008246473 0.025591541 -0.006400022 -0.036955528 -0.017098276 0.0014907193 0.006308531 -0.024708116 -0.0139644975 0.0062982785 0.050946794 -0.007808308 -0.029014109 0.024816643 0.041563824 -0.00036982438 0.03880626 0.023592608 -0.068888836 -0.008235319 -0.008259559 0.0022086396 -0.027840214 0.009731513 -0.03280602 0.04222565 0.035553165 -0.06620554 -0.04111802 -0.0061520524 -0.029001009 -0.049765516 -0.0029399723 0.012011942 0.019089334 0.019001808 0.006028899 -0.009226405 0.00033668196 0.018341962 -0.039172407 0.008822335 -0.039955586 0.011575352 0.011013446 -0.000272058 0.0005824239 0.0225153 0.0073670954 -0.012047905 0.0016143019 -0.002742572 -0.027130203 0.025940936 -0.0002378195 -0.0147300735 -0.010713773 0.032415017 0.005739139 0.013394822 -0.00403297 0.022731388 -0.016894888 0.0080344565 -0.032201454 -0.016703654 -0.0075045517 0.00794448 0.028849237 0.046397567 -0.0007994376 -0.016354246 -0.011123887 0.035397753 0.029077932 -0.074270315 -0.0061199814 -0.011369741 0.0022091067 0.048187006 0.026609167 -0.017627405 -0.046393577 -0.03623487 0.027431065 -0.06402912 0.020566942 0.04210317 0.0018970534 -0.050456207 0.028122343 0.01929933 0.0059818635 0.03401403 -0.012267071 0.027942393 0.016246712 -0.01476623 0.04361262 0.02764328 0.0134501755 -0.015627703 0.0012192979 0.0016940524 0.015782911 -0.051343907 -0.0081970645 -0.046437398 -0.00036018444 0.03721701 0.0026876887 -0.012934916 0.008564578 0.019959353 0.0016936061 0.05598218 0.011365134 -0.057206593 -0.019629061 -0.041892003 -0.008077019 0.044060312 -0.014050847 0.03409557 -0.008913077 0.022893436 -0.024551656 -0.0061420454 -0.046891157 -0.020278389 -0.023128703 -0.055764213 -0.012793817 0.019814193 -0.029067619 -0.013660118 -0.015043154 -0.060961794 -0.028187606 -0.033406813 -0.0072990926 0.0012800434 0.030401789 0.047640886 0.035309505 2.8992124e-05 0.0011176053 0.037462287 0.039700706 -0.04173229 0.0072661047 -0.0052073724 0.02025475 0.012023376 -0.0012668723 0.017265681 -0.028334487 -0.0068843756 0.0017044176 -0.02305157 0.012060265 -0.02108467 0.0031798743 0.013882307 -0.021185363 -0.0071429694 0.030770143 0.015615119 -0.016721318 0.0028607443 -0.008213736 -0.012816698 -0.0027648848 -0.0027132202 0.010006595 -0.015636118 0.0143420035 0.02400479 0.016100472 -0.011379168 -0.03017287 -0.033674452 0.015614555 -0.029325183 -0.014414985 -0.055761892 0.002619038
ns -0.008091286 -0.030809911 0.015285902 0.02149422 0.044302527 0.0016955016 0.027918827 -0.0017004401 -0.0058375094 0.022666788 -0.006568796 -0.0026849725 -0.0039350106 -0.036244147 0.0021791202 0.018178819 0.015628384 0.019167181 -0.029620036 0.04695073 0.0059989546 0.0026095635 -0.0098779015 -0.027492085 -0.039525263 0.022725064 0.009102087 0.013209549 -0.012127781 -0.01935756 0.011785268 -0.00500013 -0.011897951 0.0064805723 -0.011331068 0.044627883 0.0201008 -0.011723925 0.028745428 -0.021485418 -0.048963506 0.04199531 -0.005323431 -0.021788353 0.04188413 -0.004226948 0.012667102 -0.014101919 0.005323271 0.020101035 0.014422283 0.016001074 0.009490164 0.017697811 -0.021165946 -0.009467189 0.02396205 -0.036540058 0.015895858 0.019253409 0.00086764304 0.019604336 -0.002624542 0.0046425196 0.025203047 -0.0047402657 -0.0026856114 0.03939127 -0.024909994 -0.0076196487 0.019922495 -0.0024479 -0.028420826 -0.019117644 0.002754725 0.0029607608 -0.017848924 -0.008448508 0.0059543774 0.046883576 -0.0050910367 -0.027887953 0.021923307 0.039860975 -0.0022543073 0.03495457 0.0214606 -0.06043354 -0.008778813 -0.008692152 0.0024103243 -0.024550285 0.0105636455 -0.03046319 0.032715272 0.029539708 -0.05800304 -0.040318716 -0.003603001 -0.03203261 -0.044922814 -0.00733666 0.011332193 0.019433115 0.016367178 0.002458417 -0.0068637524 -0.0004066484 0.019460864 -0.03231195 0.0114680845 -0.034583557 0.011204859 0.01243712 -0.0059580295 -0.0021856008 0.0148374755 0.005474074 -0.010382339 0.0073796585 -0.0023619507 -0.027067525 0.02938088 -0.00032953024 -0.0152428495 -0.005761247 0.02658755 0.00020251513 0.013761199 -0.004261952 0.015925234 -0.013107544 0.010011052 -0.02429481 -0.012955682 -0.011154217 0.008551467 0.029621368 0.043812163 -0.0038120048 -0.016229233 -0.005561331 0.03446326 0.030930942 -0.07005297 -0.0047172997 -0.010347425 0.0031596636 0.043122303 0.0298346 -0.016452385 -0.03692992 -0.03523709 0.026347388 -0.05715021 0.017560728 0.033771716 0.0071597034 -0.04599803 0.020610865 0.020841233 0.00694301 0.024301779 -0.015150085 0.027550595 0.013618831 -0.008812144 0.036675323 0.019909171 0.0118267145 -0.011554462 -0.0030540945 -0.003186063 0.010858696 -0.047274556 -0.007030479 -0.04293009 -0.0031996341 0.03834932 -0.0037177016 -0.011280947 0.006937871 0.016865408 0.0025208995 0.055080473 0.0051837713 -0.055361837 -0.0173812 -0.039403677 -0.0068252943 0.03604536 -0.015317396 0.03196692 -0.009861288 0.019791367 -0.022421034 -0.0048735957 -0.040438198 -0.016548114 -0.01462112 -0.051102575 -0.0073429635 0.013862272 -0.025148116 -0.012146485 -0.0060394113 -0.058546197 -0.022377329 -0.030573735 -0.005360992 -0.0038269563 0.023570538 0.038617723 0.029547231 0.001843357 -0.0016123707 0.032581422 0.040830914 -0.035751916 0.005086004 -0.01064073 0.012256829 0.017789122 -0.006564992 0.011751616 -0.026369546 -0.006766524 0.0012651721 -0.017072534 0.0063184225 -0.021966323 -0.00048688296 0.008553552 -0.017851476 -0.0058505614 0.033972897 0.012816839 -0.015141901 0.007894135 -0.009157087 -0.011562065 0.00042653587 -0.0013641448 0.009985836 -0.021362478 0.015430384 0.023218619 0.015335268 -0.0096141035 -0.028534545 -0.031984527 0.017370787 -0.023592807 -0.015425981 -0.056783877 0.003766805
Bo29 -0.009654949 -0.03187534 0.016217187 0.0281635 0.04233494 -0.00014152886 0.0350747 -0.004233327 -0.012412768 0.02143014 -0.008938425 -0.0062342817 -0.0027381051 -0.040556725 0.006336385 0.019842135 0.021012528 0.023574434 -0.025856126 0.049820162 0.0056324834 0.009931909 -0.011940688 -0.029596401 -0.04069551 0.021908402 0.008308156 0.011628136 -0.0119181685 -0.022298776 0.009124738 -0.002322045 -0.0139915 0.005759516 -0.010701994 0.04877695 0.028112495 -0.0099632945 0.030381912 -0.02583387 -0.04593424 0.043762844 0.0015319672 -0.017498754 0.045873184 -9.36685e-05 0.0082248775 -0.022004236 0.007923725 0.019661447 0.01762709 0.015599265 0.010766004 0.020637445 -0.018450588 -0.0146594765 0.018668309 -0.03948952 0.014322128 0.015514699 0.0038839316 0.017250855 0.0016372135 0.004911368 0.023431359 -0.010062555 -0.0074992874 0.04151311 -0.023580384 -0.011837827 0.023183402 -0.0020320928 -0.03731228 -0.017408954 0.00090729573 0.007947097 -0.021508202 -0.013385208 0.004898373 0.05082984 -0.003932223 -0.023865724 0.025638394 0.043400947 0.0028806801 0.038955137 0.024657678 -0.06381152 -0.0067111114 -0.008471326 -0.0009466529 -0.025829228 0.008796555 -0.028990276 0.040823318 0.038622215 -0.06124689 -0.03672893 -0.0027286771 -0.031815298 -0.043457214 -0.0061539477 0.018451482 0.019808328 0.01718383 0.004625892 -0.002314247 0.0055947118 0.020015582 -0.037792154 0.015241833 -0.03487908 0.012319181 0.012782316 -0.005074755 -0.0016469832 0.02307759 0.005363626 -0.014588987 0.008399444 0.0011643629 -0.024027133 0.027393058 -0.0040760455 -0.0119313 -0.011088106 0.029836088 0.0039903624 0.016140688 -0.010294927 0.023283614 -0.017637135 0.0071579944 -0.03213931 -0.015437209 -0.0075009493 0.011678923 0.029144501 0.047711074 -0.0039860015 -0.01145918 -0.0070167896 0.033591747 0.027702585 -0.07428246 -0.0044208113 -0.009133655 -0.002076092 0.04801656 0.027839039 -0.022846986 -0.04320666 -0.035255414 0.022240188 -0.061972395 0.01739336 0.041132707 0.0063023632 -0.045819394 0.026402768 0.022382693 0.007124477 0.03234428 -0.0119747855 0.027204422 0.01491795 -0.012882998 0.039466705 0.026022317 0.0130842505 -0.014456742 0.0015686612 0.0016582698 0.009431265 -0.04963759 -0.009001179 -0.040961612 0.0004993184 0.0372412 0.0018379894 -0.017171657 0.0026766788 0.019719278 0.0012011278 0.055880327 0.010213217 -0.057179198 -0.017270437 -0.038814075 -0.008219667 0.038245562 -0.016182391 0.036603052 -0.01211766 0.017769476 -0.0260468 -0.00030844408 -0.043145247 -0.016854312 -0.01796344 -0.05730561 -0.010178803 0.019383093 -0.03366286 -0.009628311 -0.009801285 -0.05638983 -0.022782322 -0.034551684 -0.008354289 0.0013723681 0.029830456 0.046495046 0.037613142 0.0015594907 -0.0043042423 0.035436317 0.04375287 -0.039560985 0.01042302 -0.010343647 0.019350428 0.015947761 -0.0015842916 0.013213642 -0.03217502 -0.012885848 0.005482669 -0.020521827 0.01277434 -0.025518296 -0.0019795452 0.008669757 -0.017275695 -0.012449703 0.030859344 0.01544935 -0.010961262 0.005781655 -0.008877662 -0.012300608 0.0030363442 -0.008248786 0.01032786 -0.020744389 0.015265169 0.02086769 0.017198944 -0.01182203 -0.031477034 -0.035669647 0.015671125 -0.026200026 -0.009245567 -0.05896665 0.0070059723
的 -0.003710138 -0.040686697 0.014838627 0.030678935 0.05212918 -0.0016023208 0.032320872 0.00066026795 -0.010039887 0.02621122 -0.0138579905 -0.009515308 -0.0047416594 -0.045263346 0.0034990385 0.02023663 0.02349021 0.026888512 -0.03286203 0.05406156 0.0137416525 0.005962669 -0.0059815077 -0.028327895 -0.042205855 0.02466113 0.010885833 0.01499456 -0.007702075 -0.026504418 0.011184246 -0.0015520883 -0.010067752 0.011180896 -0.019376595 0.05049191 0.030038135 -0.014724262 0.03619223 -0.022303184 -0.05357088 0.046258282 -0.0019822237 -0.024329105 0.04403885 -0.004361493 0.0123895975 -0.01940323 0.005195892 0.021333816 0.013542168 0.011308178 0.011908722 0.028673971 -0.024684543 -0.012930154 0.022392761 -0.050880972 0.013186376 0.020795487 0.008102402 0.024585867 0.0023132458 0.006094261 0.027532054 -0.011816924 -0.005057488 0.045577344 -0.026215537 -0.011169157 0.024538014 0.00032876717 -0.03778068 -0.019824313 -0.00040194113 0.004002846 -0.02906421 -0.010429229 0.002816868 0.056267515 -0.010080836 -0.029460015 0.025644712 0.040454518 0.003346553 0.04615293 0.024762858 -0.07037402 -0.009651796 -0.0051016784 0.0025634614 -0.030538516 0.011659164 -0.033727005 0.042248804 0.03692827 -0.06590778 -0.04687226 -0.0034021211 -0.031382564 -0.046754714 -0.0056310426 0.013333248 0.01567764 0.017315252 0.00045657778 -0.009229834 0.005336165 0.025305761 -0.03776523 0.010164964 -0.043911174 0.01593828 0.016417203 -0.0051256353 -0.0025931296 0.021748869 0.008684448 -0.012542327 0.006117509 -0.004059438 -0.034289856 0.026926298 -0.0006738511 -0.014845358 -0.009037034 0.03113538 0.0045499816 0.013576778 -0.0054290034 0.017940093 -0.012306227 0.0132623045 -0.029316816 -0.011566226 -0.008174342 0.009112547 0.0333216 0.050969746 -0.006552881 -0.012726692 -0.012794044 0.040548343 0.030447587 -0.07836367 -0.010849166 -0.014689696 -0.004341063 0.046488587 0.032415476 -0.024158299 -0.04845167 -0.040861428 0.025699057 -0.06333485 0.024822975 0.0447971 0.006433853 -0.0527693 0.028741796 0.017635088 0.0073499815 0.029157586 -0.0133081805 0.028518734 0.016095683 -0.010740087 0.04173057 0.031451575 0.009711727 -0.013786772 0.00054566766 -0.0017687501 0.012446031 -0.055176284 -0.009251247 -0.045532946 -0.0025839023 0.04381658 -0.003691329 -0.014713128 0.0051221503 0.023436522 -0.0051374757 0.06306722 0.0068201823 -0.064653866 -0.020010414 -0.044306092 -0.008806818 0.0434735 -0.017269317 0.037640985 -0.013024412 0.019479232 -0.023976648 -0.006967271 -0.04925748 -0.017449394 -0.017473126 -0.06383547 -0.009025377 0.022507053 -0.0348091 -0.009467067 -0.015532847 -0.062203754 -0.02500161 -0.036115613 -0.008260133 -0.0031147408 0.031004487 0.049605314 0.03942469 0.0038591833 0.0020115166 0.043008752 0.043093115 -0.037051443 0.006764999 -0.006309695 0.020332213 0.01621727 -0.0034641468 0.014643774 -0.0357157 -0.014490506 0.005430457 -0.018177407 0.0106427055 -0.025673827 0.0029072836 0.0147979865 -0.024911575 -0.01018348 0.03357209 0.02138848 -0.011170059 0.008207017 -0.008556386 -0.008692768 0.0030341214 -0.0035106253 0.015589969 -0.02215491 0.020841526 0.025868405 0.014305761 -0.009595977 -0.029073376 -0.033192053 0.021416452 -0.026068412 -0.014050739 -0.05902907 0.005586035
p -0.0033836802 -0.035442393 0.019066107 0.026829101 0.042317815 -0.0005357644 0.032212038 -0.0050634774 -0.00614849 0.016546793 -0.012052418 -0.003817541 -0.002692773 -0.03923865 0.005999639 0.023022184 0.014065743 0.018134136 -0.030018529 0.044126563 0.009271145 0.009635141 -0.0063660545 -0.027580753 -0.036804162 0.026626935 0.015084193 0.016752541 -0.0074096606 -0.024459401 0.009667024 -0.007301687 -0.0073856353 0.0064810063 -0.018119395 0.047970768 0.027798248 -0.012299381 0.032730304 -0.02341264 -0.0486826 0.041711144 -0.0018311538 -0.021090986 0.043026336 -0.0009139401 0.01474117 -0.021847751 0.00603513 0.01462715 0.01757178 0.0155640105 0.0058154156 0.02311104 -0.022884578 -0.012244991 0.026168661 -0.042873655 0.011655311 0.0135273 0.0033684578 0.018845463 0.0006056412 0.007307059 0.022289172 -0.006044769 -0.001893736 0.04086008 -0.02515464 -0.0061306655 0.027024675 0.00036158017 -0.035964172 -0.013617885 0.00397151 0.010335075 -0.023444446 -0.010982785 0.0083328225 0.044920914 -0.0032003145 -0.025194937 0.026937723 0.03768342 -0.0016983635 0.040532067 0.016331749 -0.06704541 -0.011429723 -0.008302519 -0.00097208197 -0.020186907 0.01609187 -0.02948317 0.036595527 0.034961116 -0.059608825 -0.04160675 -0.0013168041 -0.031617902 -0.041251887 -0.0004958498 0.015947511 0.018877124 0.017367676 0.0013580046 -0.004204764 0.003030241 0.022090638 -0.03145484 0.012588201 -0.034637272 0.0077788713 0.015707975 0.0009035755 -0.0017654261 0.019473072 0.0041224947 -0.011270954 0.005461261 0.001623228 -0.026964571 0.027676266 -3.5234327e-05 -0.011606942 -0.011820083 0.024228409 0.00083227217 0.010526904 -0.0045474367 0.016064318 -0.015035993 0.0066647567 -0.02583487 -0.013565123 -0.014150358 0.009912317 0.033809297 0.04420765 -0.0049458523 -0.013216983 -0.009267571 0.02899265 0.032155756 -0.07219589 -0.0082092555 -0.010146986 -0.0034068457 0.0445565 0.032943577 -0.016519682 -0.038033415 -0.035001367 0.024701172 -0.0594522 0.016492467 0.03778153 0.0042532324 -0.04862651 0.020542318 0.015049404 0.0049394104 0.030012606 -0.009747253 0.026177866 0.012391687 -0.00786892 0.038738888 0.024316441 0.007331089 -0.015340212 -0.0015193804 0.00041654953 0.015562815 -0.05013894 -0.0077626053 -0.046562057 -0.00268611 0.03474029 0.0012256497 -0.012459918 0.0031302094 0.016113095 -0.0007940481 0.055455152 0.009796438 -0.056386713 -0.016944723 -0.04032239 -0.0062893196 0.040535193 -0.01225668 0.036166523 -0.012675537 0.017703025 -0.02468299 -0.003959738 -0.045567535 -0.017794207 -0.01771961 -0.056416005 -0.006845125 0.013911895 -0.03348051 -0.015211724 -0.0070351586 -0.05596887 -0.020156572 -0.031747825 -0.005227199 -0.003037046 0.03222431 0.044606697 0.035773456 0.00044893296 -0.0013437356 0.03732863 0.039328985 -0.03499923 0.0054975282 -0.0051584044 0.018428827 0.01582137 -0.006595102 0.012921149 -0.027811313 -0.012260035 0.004123312 -0.01870155 0.010604171 -0.027050594 0.005035642 0.009878723 -0.021555103 -0.008401106 0.03190156 0.014604275 -0.015277725 0.0044446997 -0.013750715 -0.010607823 0.0012902537 -0.0070489743 0.0116079915 -0.016853547 0.019309586 0.022229565 0.014144966 -0.010541525 -0.028016794 -0.0364485 0.021264974 -0.027404688 -0.016777527 -0.058274172 0.0023555877
vn -0.0046259835 -0.03162025 0.018627841 0.021342753 0.043712705 -0.0009715901 0.029030763 0.000557962 -0.008837243 0.019356849 -0.012859325 -0.007053321 -0.0054326183 -0.033696685 0.007318492 0.016240207 0.013511938 0.023618894 -0.029245486 0.044432525 0.011000312 0.0034318147 -0.007278643 -0.02824458 -0.04081234 0.023249667 0.013762204 0.018004147 -0.008904674 -0.019312203 0.009032248 -0.005006987 -0.012301091 0.008295464 -0.015261134 0.043726157 0.021781927 -0.007270267 0.030378455 -0.024264243 -0.049131043 0.044921186 -0.004397573 -0.018622205 0.04266565 9.139573e-05 0.014617413 -0.019837474 0.008138795 0.01647527 0.010647065 0.011732495 0.0076629743 0.025110483 -0.016565068 -0.009001116 0.018745052 -0.039077345 0.011179977 0.015837716 0.004922689 0.021377059 0.0016633692 0.0051464685 0.027540509 -0.006598289 -0.008557908 0.037989385 -0.023208419 -0.012510422 0.021970134 -0.00083951285 -0.034937773 -0.020520521 0.0006351156 0.007110577 -0.022065526 -0.010028705 0.003498082 0.048021957 -0.0029940652 -0.02487371 0.02542094 0.037072066 0.002262368 0.035076063 0.022127403 -0.06769378 -0.009660265 -0.011430875 -0.0005470517 -0.025717402 0.01056426 -0.028976714 0.037377026 0.03398832 -0.062572405 -0.040926732 -0.0037715873 -0.031036695 -0.04707016 -0.0041854284 0.01756116 0.020011751 0.011737329 0.0042105145 -0.008379752 -0.00096331426 0.020044345 -0.03439001 0.008905659 -0.03978059 0.010583015 0.016120082 -0.005865229 0.003088385 0.018913828 0.0069759344 -0.0077461796 0.006323979 -0.003097842 -0.025793318 0.027898371 0.0021436769 -0.015052078 -0.01147745 0.027702587 0.00035126504 0.012277899 -0.004543314 0.021518564 -0.010049101 0.006841257 -0.030134952 -0.010122353 -0.009488135 0.0056868983 0.03066853 0.046510603 -0.0033955239 -0.016340427 -0.0072234506 0.037048023 0.025583576 -0.070031025 -0.0070235217 -0.011950089 -0.0014969894 0.04192882 0.032895878 -0.020867031 -0.040104516 -0.03497872 0.025868889 -0.05789582 0.024184797 0.036756635 0.0010891974 -0.04542732 0.023663124 0.017505892 0.0042632283 0.02660908 -0.015869232 0.027736375 0.013413657 -0.007756155 0.04222835 0.022699267 0.011993463 -0.011814683 -1.5185419e-05 0.0009898616 0.015068395 -0.05096685 -0.0023980855 -0.040981047 0.0020178107 0.03329423 0.0031075014 -0.011039094 0.0047198585 0.015592034 0.001033939 0.050560176 0.005599633 -0.053749446 -0.012398844 -0.03427758 -0.0081397155 0.036006495 -0.008748498 0.036166567 -0.013045608 0.014620986 -0.024430035 -0.005089343 -0.04382678 -0.0170613 -0.018819198 -0.05492305 -0.013118779 0.021738892 -0.031692844 -0.014533565 -0.0071221134 -0.05687823 -0.02050768 -0.034401305 -0.008141465 -0.001180741 0.02811748 0.039997153 0.033466578 0.0021553796 0.00096151617 0.03738794 0.041143876 -0.038235042 0.005619217 -0.009195814 0.01936211 0.012305436 -0.003554826 0.014522491 -0.032219447 -0.012679526 0.006684751 -0.021871332 0.009325679 -0.022322647 0.004370541 0.0074522044 -0.018121433 -0.0056904126 0.029677227 0.016178792 -0.011433563 0.0069486275 -0.008963357 -0.007450893 0.00076319056 -0.0046305098 0.01024272 -0.021274293 0.016571471 0.022163998 0.010156407 -0.012055759 -0.027309913 -0.03289425 0.021509092 -0.028024819 -0.01492 -0.05272031 0.00070545316
Di02 -0.007900051 -0.025215896 0.008363211 0.017670408 0.032730795 -0.0006215408 0.020132232 -0.0017223896 -0.0077005806 0.016451899 -0.0039609796 -0.0010624564 -0.0004250264 -0.030599365 0.007447384 0.013200945 0.01573374 0.015799342 -0.019132094 0.02943321 0.0024013813 0.0078094974 -0.008144836 -0.019657196 -0.02521349 0.017114261 0.012530671 0.010018903 -0.010918248 -0.018160814 0.007869503 -0.0072229276 -0.0043545947 0.006885707 -0.014040824 0.03647178 0.021149984 -0.0056826686 0.024007704 -0.020884199 -0.034655556 0.02704459 -0.002852996 -0.014637899 0.030731726 -0.0018464217 0.0096624205 -0.012443541 0.007419542 0.015395869 0.008232567 0.012466238 0.0075394693 0.020389749 -0.013260695 -0.010609625 0.014875247 -0.030707682 0.0093524195 0.015886657 0.0037804262 0.015538068 0.00096310326 -0.0009937402 0.020092472 -0.0013650196 -0.004922071 0.030475063 -0.02137535 -0.009803979 0.020124435 -0.002708053 -0.021880664 -0.012357311 0.0004454101 0.0060386197 -0.018322853 -0.009529727 0.004622834 0.036066234 -0.004909286 -0.018994873 0.013865008 0.032400675 -0.0034956029 0.030489495 0.016298875 -0.04964744 -0.008296002 -0.009048591 -0.0018607171 -0.014059276 0.012810028 -0.020502267 0.026427217 0.029050253 -0.045437325 -0.028459301 -0.0017165897 -0.024278468 -0.03524853 -0.0068276385 0.014262529 0.014969595 0.009503197 -0.0015777186 -0.003933928 0.0031663151 0.014264644 -0.024393706 0.0069178184 -0.025136584 0.008976403 0.012971663 -0.0061823386 -0.0020486368 0.010155543 0.0044044442 -0.011673865 0.0054670856 -0.0037854202 -0.02222891 0.021756139 -0.0032948148 -0.010481258 -0.010098708 0.023706106 0.005373436 0.009154089 -0.0024631245 0.016071863 -0.012375449 0.011279545 -0.024227966 -0.006031028 -0.0062719136 0.0047585843 0.021022966 0.03670718 -0.0042233593 -0.0073857363 -0.008756537 0.027498191 0.02079521 -0.04793874 -0.0057897265 -0.0043604323 0.0029749316 0.033005465 0.022073613 -0.011259892 -0.027459798 -0.02220737 0.021552188 -0.039996836 0.017908191 0.029642655 0.0022079032 -0.033288278 0.01707708 0.013690573 0.005486133 0.017395945 -0.013677478 0.017413732 0.011939582 -0.009606853 0.026175149 0.02005899 0.008710066 -0.010445534 0.0010656248 0.0011757469 0.011761241 -0.034454193 -0.0040004593 -0.028368637 0.0002163201 0.024639452 0.0030868049 -0.0075697233 0.004938517 0.011651985 0.00062023284 0.041582666 0.008270787 -0.039883174 -0.014624116 -0.027462354 -0.0043253177 0.030590752 -0.0129394885 0.028588314 -0.011354055 0.015153669 -0.020412188 0.0013219413 -0.02830071 -0.012289019 -0.014964905 -0.039240196 -0.007707906 0.010727468 -0.019586097 -0.00772923 -0.0057761767 -0.045249294 -0.014117965 -0.023600215 -0.004040664 -0.004969799 0.022474473 0.034390382 0.027799437 -0.0018363901 -0.0044877054 0.022962851 0.02860918 -0.029548606 0.0013414802 -0.00638403 0.012712733 0.0070511 -0.0046186144 0.011564776 -0.018928219 -0.0064982097 0.0025764082 -0.016427804 0.0042019854 -0.017522657 0.0037085172 0.009977942 -0.015147133 -0.006468782 0.020168327 0.012367974 -0.011578022 0.006191136 -0.00823948 -0.0095695425 -0.0037781668 -0.004284544 0.005054045 -0.013751409 0.009657052 0.014930772 0.0087733455 -0.011800664 -0.020369539 -0.023306254 0.011626551 -0.02289442 -0.010699415 -0.044313505 0.0022124755
t -0.001479758 -0.023088086 0.011736166 0.017420048 0.031512268 0.0021259517 0.02412293 -0.0051500015 -0.00975088 0.01049917 -0.009203848 -0.006379829 -0.0065017594 -0.025291463 0.00392834 0.011509897 0.0074753296 0.0151406955 -0.01792281 0.031434122 0.008718131 0.0070594614 -0.0062268833 -0.016697442 -0.026790824 0.016006092 0.009277754 0.013209245 -0.007658357 -0.012691587 0.0048548146 -0.004227183 -0.0031666646 0.0033663404 -0.009895104 0.025531374 0.0120522175 -0.0035514643 0.016812256 -0.013035496 -0.033635374 0.026324777 -0.004261817 -0.00999423 0.02987235 -0.00019334594 0.010830993 -0.0122551145 0.00094982114 0.014593209 0.007199341 0.011527246 0.0069441316 0.014061718 -0.016467508 -0.008997207 0.017125601 -0.029889101 0.009215692 0.007574969 0.006750399 0.011218343 0.00318723 -3.3366858e-05 0.011699066 -0.007864 -0.0053804596 0.028381506 -0.016694652 -0.0027283428 0.016073627 9.232224e-05 -0.02059876 -0.008363029 -9.201363e-05 0.007348224 -0.018203545 -0.0070477817 0.0033852796 0.030744009 -0.0010742488 -0.018282842 0.014261636 0.025463883 -0.0005207914 0.023362404 0.015698168 -0.04446234 -0.0024346148 -0.005120372 0.0010340109 -0.013718232 0.00813662 -0.018326586 0.022116577 0.02415767 -0.038305532 -0.02649777 -0.0063485927 -0.023271548 -0.02795824 -0.0049890536 0.00914526 0.009698107 0.006577155 0.0017271783 -0.0015265578 0.00086956524 0.010063416 -0.020819044 0.007552819 -0.02615403 0.0068852776 0.008022513 -0.0031156894 -0.003926536 0.015401108 0.0056215734 -0.008680595 0.0059770695 -0.0010935694 -0.0147331115 0.016828084 0.0024896632 -0.010091484 -0.008644379 0.015458276 0.005423178 0.0077842246 -0.0036087446 0.015939899 -0.01133309 0.0055415593 -0.021292405 -0.011128027 -0.010007637 0.006866331 0.020789793 0.031814285 -0.0008522216 -0.008421428 -0.0032702945 0.020447288 0.020026438 -0.04206594 -0.0037527874 -0.003302084 -0.003158614 0.031247672 0.020748004 -0.009982273 -0.030906286 -0.022853019 0.017155446 -0.040571813 0.010710157 0.025995923 -0.0005918612 -0.031415913 0.018038837 0.009392885 0.008093523 0.018785328 -0.006598111 0.014939038 0.00540522 -0.0108390665 0.02549197 0.014086573 0.006000394 -0.006490149 -0.0034516186 -0.0026870056 0.0060036294 -0.033288132 -0.007335711 -0.029102802 0.0029564942 0.02667422 -0.002072765 -0.0119635165 0.0024637955 0.0080121 -0.002847467 0.03237046 0.0060964664 -0.039114255 -0.009350964 -0.023777898 -0.0018501793 0.025154691 -0.012026107 0.023641357 -0.009908237 0.013671154 -0.013742475 0.0011382833 -0.027109146 -0.011968507 -0.009555169 -0.037507635 -0.01046465 0.013169584 -0.02048479 -0.009174694 -0.0074006035 -0.041588873 -0.015708124 -0.021526938 -0.004832549 -0.00016509753 0.020417253 0.030534634 0.019205848 -0.001489349 -0.0050196974 0.018824873 0.02423586 -0.024067018 0.00090893597 -0.00693673 0.010257542 0.012256039 -0.002443557 0.0130757755 -0.02264381 -0.008281087 0.002335017 -0.0083713895 0.0063303327 -0.0145524405 0.0012622232 0.008158554 -0.016437775 -0.0048874584 0.023233108 0.013529076 -0.0070727775 -0.00017346283 -0.008347614 -0.0033675602 -0.000110942856 -0.007225747 0.008929917 -0.014211041 0.012645401 0.016041528 0.0066988203 -0.006532883 -0.015760904 -0.022906816 0.011052812 -0.013615296 -0.0047019455 -0.040055882 0.005349945
中国 -0.00023434695 -0.02416532 0.011857479 0.015451339 0.033525225 0.00014750268 0.023667378 0.0021403076 -0.0051366356 0.011348913 -0.007628879 -0.002689202 -0.002543123 -0.02423302 0.0071554855 0.014997112 0.015620905 0.010431911 -0.021358844 0.032104127 0.007290138 0.0038348981 -0.009069409 -0.020533504 -0.029328346 0.019953147 0.009523476 0.006801444 -0.005376543 -0.01303615 0.005221463 -0.005906282 -0.006297784 0.008817749 -0.013624938 0.03098504 0.013860416 -0.007926591 0.021305198 -0.017798744 -0.03380931 0.028814498 -0.0037770816 -0.010943928 0.030669807 -0.0056811557 0.0069875615 -0.011380402 0.0017485201 0.008900102 0.0065289186 0.0066655027 0.008666245 0.018337471 -0.012934969 -0.01206322 0.017666139 -0.026866874 0.0096261585 0.007838864 0.0022284086 0.013108596 -0.0035613799 0.0034909693 0.016594522 -0.0072970535 -0.007213507 0.030277364 -0.020891406 -0.009057463 0.018061161 -0.001635315 -0.0242063 -0.014216612 0.0005653628 0.006759777 -0.017990682 -0.010493353 0.00185392 0.03024971 -0.0072285226 -0.022111898 0.019039981 0.029970778 -0.0017568954 0.02243215 0.0131803695 -0.045548353 -0.0021897007 -0.0041457363 -0.0021885198 -0.017097594 0.004649334 -0.0195116 0.023128388 0.022638861 -0.038360726 -0.023158958 -0.00091512955 -0.023186298 -0.026926938 -0.006763257 0.0073018633 0.008833473 0.009777129 0.0018928809 -0.0056824284 0.0025201696 0.017281512 -0.020775314 0.00770386 -0.021551678 0.008627859 0.00814705 -0.0047600362 0.0023967898 0.009214737 0.0036464746 -0.0051053516 0.002314793 -0.00059554545 -0.02155975 0.020279054 0.0026059605 -0.01399774 -0.007965325 0.021754595 0.0029937124 0.008228014 -0.0042621815 0.009348041 -0.0053773015 0.0060073375 -0.020954361 -0.0076381788 -0.0065812743 0.003159728 0.02333473 0.030000815 -0.004344816 -0.0070082545 -0.00340489 0.026321677 0.020353597 -0.047558147 -0.007467109 -0.004559794 0.003240245 0.029882917 0.019451836 -0.014181821 -0.02891843 -0.026844285 0.019098967 -0.039638504 0.01762953 0.022340288 0.00039829034 -0.033323392 0.012627566 0.013771434 0.0068941703 0.020230422 -0.007692139 0.013425849 0.007606319 -0.010619582 0.028318804 0.015842991 0.011128754 -0.011781352 0.0021778652 0.0014502273 0.009206626 -0.03280797 -0.001049693 -0.029152552 0.0026234367 0.02609138 0.0022724527 -0.007049907 0.00057438924 0.01009222 -0.00017862729 0.03659857 0.0059788753 -0.037409082 -0.0074019395 -0.027792158 -0.0041147247 0.029995017 -0.008128843 0.024622886 -0.0064273407 0.011662706 -0.01892412 -0.0011728515 -0.032653533 -0.0128107285 -0.016500276 -0.03675434 -0.010299048 0.015331682 -0.022477074 -0.0042659813 -0.010267234 -0.0414841 -0.015648257 -0.023405295 -0.0030619756 -0.0028035708 0.019214526 0.027466647 0.019549774 0.0032612747 -0.001100575 0.026258226 0.024268921 -0.023230242 0.00035508294 -0.002070207 0.014148895 0.007780167 0.000312389 0.008122189 -0.02374228 -0.0062110163 0.003859732 -0.015958427 0.002782053 -0.012576193 0.0013728909 0.0076068775 -0.01251533 -0.007998751 0.023081627 0.01271027 -0.0053484677 0.0013599737 -0.0062214276 -0.004809836 -0.0027056779 -0.0071688904 0.0107649425 -0.009758382 0.009070677 0.017080197 0.009611398 -0.009966294 -0.019308662 -0.024454072 0.014702271 -0.017375214 -0.012109541 -0.038439896 0.0013639925
d -0.0022468301 -0.028653242 0.016580248 0.020465108 0.034502633 0.0033771296 0.026975576 -0.0030624538 -0.010728667 0.015640263 -0.0101832505 -0.002817018 -0.007961368 -0.032978997 0.0056640618 0.01618152 0.01635753 0.015649784 -0.023617687 0.03898293 0.009958498 0.0057183024 -0.0033482509 -0.021588193 -0.03432528 0.018607505 0.006015352 0.009916266 -0.008902568 -0.021555481 0.012747851 -0.0035008292 -0.008699183 0.0038051207 -0.015458319 0.033436034 0.024055602 -0.01037741 0.026304992 -0.021170521 -0.035176482 0.03632577 -0.0011046 -0.018056387 0.0352719 -0.0038420155 0.012793083 -0.01349867 0.0064926767 0.015669787 0.013428008 0.008132403 0.009899194 0.019275798 -0.019510714 -0.007168639 0.018022379 -0.031564437 0.010604006 0.01684794 0.00495648 0.013853918 -0.0019796637 0.006491488 0.020571826 -0.008047094 -0.0046105064 0.032888167 -0.020352434 -0.011645799 0.022106655 -0.0013970025 -0.024739522 -0.012797027 -0.0005174644 0.0069549577 -0.01896743 -0.014385622 0.007985807 0.04269657 -0.00089679926 -0.023124404 0.01630513 0.03433429 -0.0035177767 0.035230845 0.018302497 -0.051284425 -0.0047843247 -0.0064733657 -0.0008072967 -0.018953508 0.014129848 -0.027098702 0.029552782 0.027193058 -0.046901714 -0.029509753 -0.0053501856 -0.023314368 -0.03772019 -0.00187284 0.015419494 0.015941136 0.011321257 0.00077794236 -0.0018106963 0.006090851 0.019016095 -0.029447692 0.009334024 -0.033149753 0.007372279 0.01208008 -0.0046326383 -0.002622011 0.01914247 0.009167782 -0.006122749 0.004193867 -0.004893153 -0.025720848 0.022608329 -0.004398866 -0.015558537 -0.006873035 0.020948881 -0.0016960745 0.01194566 -0.008765176 0.013316742 -0.012050258 0.0088138245 -0.02329547 -0.012751508 -0.005998581 0.010412997 0.022028591 0.041665513 0.0008387454 -0.014956631 -0.0081010675 0.028590152 0.026743252 -0.05924502 -0.007769473 -0.0057270927 -0.0043532676 0.034161888 0.023577107 -0.013079006 -0.03685101 -0.0267855 0.019893296 -0.04762128 0.019450577 0.031016499 0.00589628 -0.037605096 0.015525242 0.019292517 0.0038563174 0.025750741 -0.012351275 0.017552303 0.0071840496 -0.0073718093 0.03238069 0.021344949 0.005514586 -0.014555317 -0.0030368844 0.0036495018 0.0069456976 -0.03711854 -0.0054434948 -0.03630194 0.0023040492 0.028867675 -0.0027746258 -0.011256496 0.0073789023 0.01868022 -0.002510642 0.04539997 0.008527512 -0.048552338 -0.009749473 -0.034440555 -0.0043323236 0.034906827 -0.008758787 0.025731597 -0.008666139 0.0179556 -0.015009753 -0.0068863435 -0.03328184 -0.01278538 -0.015989134 -0.040708616 -0.010490211 0.0141392285 -0.02737309 -0.011042328 -0.008306564 -0.049526464 -0.022193614 -0.024727548 -0.0067428 -0.004109985 0.026780123 0.039827447 0.03037048 0.00051015307 -0.0012704923 0.028488517 0.035552636 -0.032650996 0.005530769 -0.0043877857 0.013358911 0.0126485005 -0.0023088309 0.01628094 -0.023821602 -0.004559066 0.0012436539 -0.013443737 0.006059845 -0.021357395 0.0016030696 0.006767933 -0.01847238 -0.006752053 0.030435687 0.012004198 -0.014826221 0.0024850382 -0.00553823 -0.012598698 0.004217473 -0.004991214 0.009839502 -0.015756082 0.010448629 0.019181177 0.013705802 -0.01256746 -0.02301822 -0.02673838 0.016666876 -0.019104473 -0.012209024 -0.043415613 0.0006541559
f -0.0053309584 -0.02132843 0.014291247 0.014010303 0.031556893 -0.003431509 0.022324177 0.00065822137 -0.010478409 0.017425276 -0.004639259 -0.0053883214 -0.0076203584 -0.028329652 0.0025581324 0.015902165 0.016188525 0.01614143 -0.021656835 0.035065956 0.004081582 0.0038459254 -0.007326333 -0.016924659 -0.030604264 0.014254939 0.009547325 0.011805576 -0.010121631 -0.018212767 0.007646003 -0.005080572 -0.011159264 0.003951086 -0.011911184 0.036149472 0.018838516 -0.00747149 0.021845112 -0.01857743 -0.033743065 0.03161399 0.0012846456 -0.014928119 0.02737065 -0.0020652027 0.013094029 -0.015912253 0.0030929155 0.011770496 0.01401873 0.009386777 0.009271792 0.013044783 -0.011464025 -0.01321842 0.02005709 -0.030266844 0.011119876 0.009940573 0.0071000042 0.016364899 -0.0027586482 -0.0014693318 0.020495452 -0.0072336355 -0.007952315 0.031072209 -0.021100242 -0.010464224 0.020991035 -0.0025152583 -0.025641363 -0.014646493 -0.0005636422 0.0030370913 -0.018954465 -0.011319777 0.0009204243 0.038361587 -0.0017829726 -0.020768484 0.0183961 0.025859928 0.0026594906 0.03174647 0.01539359 -0.050529335 -0.007548218 -0.004244243 -0.0016078469 -0.015885357 0.012828172 -0.01981392 0.02487978 0.027585262 -0.045038067 -0.031137409 -0.00041197127 -0.025747282 -0.032672107 -0.0034916783 0.0077117453 0.012460069 0.013816487 -3.584757e-05 -0.007166487 0.0046396037 0.013475987 -0.028235383 0.008883236 -0.027472943 0.011289288 0.009781661 0.0011059938 -0.0040301788 0.015616568 0.007103999 -0.008209395 0.0022159049 -0.0007485788 -0.020313947 0.01621785 -0.0030815082 -0.0109111015 -0.008149463 0.023667755 0.0010435085 0.011100961 -0.0038340983 0.017744107 -0.014025632 0.007969976 -0.021443604 -0.008747376 -0.0078094015 0.0037285038 0.026128048 0.032520227 -0.0009381209 -0.013303206 -0.0051520336 0.028266856 0.020929221 -0.049131323 -0.0044419863 -0.003985 0.0032857447 0.032531656 0.021098927 -0.01748028 -0.026655603 -0.026791055 0.018864527 -0.043972377 0.018382803 0.030377474 0.0030822495 -0.03230978 0.019481836 0.015044618 0.007828921 0.021189922 -0.010777063 0.020260695 0.007170294 -0.00936509 0.03273116 0.014878319 0.0068433657 -0.012238981 0.0018528627 0.0029792523 0.0067935875 -0.032616224 -0.0048097866 -0.036320005 -0.0021967497 0.026266064 -0.0016641254 -0.010410482 0.0016938903 0.016016802 0.0029029006 0.039003965 0.0070529226 -0.041452833 -0.011660645 -0.03126473 -0.00405765 0.031199919 -0.0065641846 0.027328927 -0.007313916 0.015053539 -0.019897493 -0.0033917564 -0.033902347 -0.010232366 -0.010357908 -0.041217685 -0.0071767494 0.015055611 -0.021153454 -0.008297624 -0.010363027 -0.039143484 -0.020876037 -0.026547674 -0.0063866857 -0.0037758553 0.01961854 0.028287904 0.025959883 -0.0010443524 -0.0025607257 0.028112454 0.030836534 -0.026157511 0.0040310873 -0.0016802979 0.012713485 0.013082376 0.00045293866 0.0071686646 -0.025683807 -0.0033517983 0.00427665 -0.014377162 0.0088672 -0.019134054 -0.0013864449 0.0044682766 -0.011297403 -0.008129318 0.020978777 0.010768624 -0.0076808124 0.0023162614 -0.009824206 -0.008627801 -0.00039036042 -0.005377415 0.0069880984 -0.011829747 0.011718983 0.014265699 0.010955615 -0.0065825707 -0.024079725 -0.027297033 0.015917724 -0.023184653 -0.009376529 -0.04503176 0.006152035
a -0.0055743633 -0.025319029 0.01055023 0.015542455 0.0319286 0.0038884361 0.02067508 -0.00051403313 -0.005064353 0.0136457775 -0.008696203 -0.0035618765 -0.00255868 -0.021329755 0.001770557 0.009054697 0.013655284 0.018120237 -0.021650437 0.030500187 0.0040748436 0.0066801235 -0.0021445523 -0.018795032 -0.023452688 0.018301193 0.00949192 0.0065046693 -0.0052816826 -0.014796556 0.006482646 -0.0010396308 -0.007229419 0.008960887 -0.0099996375 0.030339224 0.015520919 -0.011006248 0.015699707 -0.013635027 -0.0343514 0.029312642 0.000111762885 -0.01616585 0.026957577 -0.0045382124 0.004761895 -0.012581482 0.00852914 0.008767422 0.008071 0.012113224 0.0086921835 0.01900222 -0.017924093 -0.0064734453 0.01210971 -0.025296224 0.0114394305 0.009419469 0.0059995325 0.0093822675 0.0013840771 0.0040250113 0.01854509 -0.0021751693 -0.0049255127 0.028772676 -0.01961987 -0.009610804 0.01648587 -0.0055025094 -0.022905469 -0.011210276 0.0041670282 0.0015479969 -0.016336996 -0.009729324 0.0018242261 0.031064954 -0.0022120257 -0.01952757 0.015175037 0.029766496 -0.0006062298 0.024348337 0.016708 -0.04275462 -0.005886164 -0.001610248 0.0032257999 -0.014202892 0.0092938095 -0.02045429 0.027744394 0.025103932 -0.041788027 -0.02854984 -0.003112546 -0.022960158 -0.027474813 -0.0064124 0.009234094 0.012985529 0.011890839 0.0030245772 -0.0075232764 0.0031553034 0.015625106 -0.021557357 0.0112878475 -0.023985159 0.010029149 0.012238836 -0.0022085374 -0.00015810692 0.013689692 0.0012706156 -0.0056151487 0.0010702215 -0.0024322164 -0.018793069 0.021011729 0.0006827895 -0.0103749605 -0.007649133 0.017318808 0.0010103934 0.0057456135 -0.0059149996 0.013176293 -0.007432313 0.0072648176 -0.015821777 -0.0085321525 -0.008165228 0.002369555 0.022664528 0.03323036 -0.0042407685 -0.007907562 -0.0022181987 0.019448493 0.017940426 -0.050456278 -0.002861364 -0.007876951 0.00011492686 0.033442494 0.015894 -0.01633447 -0.027144823 -0.026581017 0.012680935 -0.043243308 0.0135545125 0.024112139 0.0021317948 -0.030814046 0.019099198 0.016118424 0.0023134756 0.022919947 -0.012396254 0.016038029 0.008740165 -0.007340878 0.025172293 0.017104091 0.007879884 -0.013998072 -0.0023063894 -0.0032039094 0.010096585 -0.032056075 -0.007149914 -0.02720969 -0.00090544 0.02563516 0.002456617 -0.011001677 0.0066806804 0.008738901 -0.0022532686 0.032798097 0.0055854665 -0.04035154 -0.0067832773 -0.023251588 -0.0072844634 0.029188292 -0.0058747316 0.019423323 -0.0058118566 0.008845361 -0.01135794 -0.0006089423 -0.028808462 -0.0153679075 -0.012791934 -0.035888463 -0.006955674 0.015670773 -0.021080533 -0.01120374 -0.010860802 -0.039357245 -0.015704336 -0.021863159 -0.004527383 0.0024383296 0.019151915 0.0317387 0.02458329 -0.00258554 -0.0020249805 0.02018283 0.023674402 -0.025607077 0.0070908004 -0.0052102087 0.0149729345 0.0088994 -0.005007247 0.011569788 -0.018992312 -0.006994025 0.0019609807 -0.014862436 0.0076241437 -0.018996613 -0.0025523677 0.0035074467 -0.009777554 -0.005030713 0.02475886 0.01606693 -0.012054914 0.004530526 -0.0057021626 -0.0045543537 -0.0013647145 -6.206418e-05 0.0049642893 -0.009114002 0.013262197 0.014206577 0.011006432 -0.0051589296 -0.017808957 -0.01907027 0.013159396 -0.018494543 -0.005680889 -0.035392895 0.00125944
Cb08 -0.0025743542 -0.018869627 0.0110183265 0.010943931 0.022530526 -0.00031066744 0.018644344 -0.003913853 -0.0025233533 0.01016822 -0.0029888928 -0.0018310163 -0.0001638317 -0.022450747 0.0014223219 0.012059131 0.008334193 0.014046097 -0.017871225 0.02642595 0.0049796794 0.0030961335 -0.00396773 -0.016466554 -0.022802468 0.009464805 0.0073898556 0.010151215 -0.0077080345 -0.008373651 0.007725263 -0.0047576986 -0.006263153 0.005809393 -0.010960934 0.026182119 0.015970748 -0.0035142151 0.018530706 -0.011477399 -0.027274253 0.020913841 0.0024277896 -0.013809304 0.022573937 -0.003046998 0.00932373 -0.013118246 0.0051797223 0.010064365 0.006620756 0.0039835786 0.00086878415 0.013595564 -0.015116427 -0.004745144 0.011132919 -0.026991427 0.0054638516 0.012098186 0.0021547023 0.012926095 -0.003976239 -0.0021034305 0.01116693 -0.0035768957 -0.0060347435 0.018686872 -0.017865425 -0.0058571873 0.015647847 -0.004925792 -0.020965477 -0.009386466 0.0019585823 0.00038081952 -0.009572297 -0.010147372 0.005046105 0.029654887 -0.0010927907 -0.012129828 0.016271934 0.02309981 -0.00305334 0.02354033 0.008039682 -0.037866745 -0.0024651478 -0.007717897 -0.0026623227 -0.014426221 0.008106038 -0.0141789485 0.021007525 0.02117444 -0.03394184 -0.019974185 -0.00528082 -0.017125286 -0.026933268 -0.0020658683 0.010283218 0.011631373 0.006742315 0.0022676915 2.3491499e-05 -0.0005796262 0.009572819 -0.019102057 0.00480736 -0.017074997 0.00933324 0.010891483 0.0022727516 -0.0033014314 0.0104414355 0.0004254644 -0.008686698 -0.00120797 0.0005059787 -0.014844701 0.011770585 0.0028797877 -0.008090486 -0.0053513646 0.013680766 -0.0003342004 0.005495134 -0.00051281333 0.011739059 -0.009845267 0.0072122253 -0.015321632 -0.008275725 -0.0027636646 0.002972601 0.01979217 0.023322811 -0.004470825 -0.010042675 -0.0067390003 0.0179964 0.0151566425 -0.036817864 -0.001190221 -0.0059943125 0.0008750645 0.023663918 0.016485766 -0.010833679 -0.023895571 -0.021108633 0.0117153395 -0.032439616 0.011811645 0.016375763 0.004378863 -0.025640626 0.011485171 0.00865555 0.0024426705 0.013851369 -0.011312053 0.01345808 0.003295741 -0.008000406 0.018987842 0.017871752 0.00542026 -0.011306384 0.0018304813 -0.0033782886 0.0061922125 -0.025158927 -0.0061664865 -0.028025527 -0.003530259 0.023023799 0.0038322648 -0.0060535516 0.0036662517 0.011740661 -0.0024362777 0.03388034 0.0070768045 -0.029208051 -0.005078432 -0.024604376 -0.0030135475 0.02587898 -0.0074199615 0.015932454 -0.0073089846 0.008788083 -0.013646224 -0.00264708 -0.020621242 -0.009779174 -0.008323392 -0.031219527 -0.0025336947 0.007182805 -0.020440487 -0.008070821 -0.008785647 -0.034357157 -0.013384457 -0.017141784 -0.0025778627 0.0011370365 0.015582764 0.025148042 0.019292345 0.0036169589 0.0021216054 0.01869151 0.02268818 -0.022743473 0.0012497492 -0.007125109 0.009465349 0.0061921477 -0.0041767308 0.008915171 -0.015358317 -0.009259138 0.003040591 -0.008071074 0.00690282 -0.014046522 0.0047920565 0.009602675 -0.010566326 -0.0050128396 0.014490343 0.0079456065 -0.0074658976 0.004026961 -0.005598753 -0.009302926 0.0025216409 -0.0060793823 0.009353827 -0.0077958023 0.005680188 0.012741773 0.010546019 -0.00896037 -0.018107634 -0.014752423 0.010781535 -0.010844803 -0.010781689 -0.031625837 0.0050534606
r -0.005054186 -0.02710175 0.009943144 0.016088946 0.031154249 0.0037177694 0.023640005 -0.00499004 -0.0048167184 0.014795538 -0.008068569 -0.0041508535 -0.0027387198 -0.030699274 0.0037291874 0.0140308 0.016696552 0.018884217 -0.021317359 0.033020895 0.008261525 0.0051756985 -0.009544679 -0.023983633 -0.030742584 0.019138519 0.005481784 0.009195768 -0.00422616 -0.017926168 0.01167569 -0.0033016617 -0.0099955 0.0038227201 -0.011144434 0.036836952 0.016644502 -0.010857517 0.019876793 -0.015244365 -0.037818912 0.034106754 -0.001812452 -0.01822956 0.031995337 -0.0025058265 0.010829419 -0.0181877 0.0029105067 0.010525894 0.012428817 0.008543293 0.006281901 0.01911633 -0.014088225 -0.009030734 0.015975993 -0.03212431 0.0084085 0.0099611245 0.0071924324 0.012776789 -0.004106663 0.0039280355 0.021862786 -0.0052484213 -0.0036194639 0.030139484 -0.021368258 -0.0114010945 0.014742203 -0.005502887 -0.028698651 -0.010112696 0.0048224367 0.0043268073 -0.017773313 -0.00671034 0.004969642 0.034011003 -0.003511925 -0.019696832 0.016754357 0.0283865 0.003852403 0.03293383 0.01249055 -0.052123066 -0.0062476792 -0.0057983035 -0.0033374988 -0.014379374 0.0072535826 -0.020993557 0.03216896 0.02711871 -0.044127155 -0.031148968 -0.007132451 -0.022836523 -0.03386457 -0.006833501 0.014337308 0.010644255 0.014406581 0.00026849203 -0.008315223 -0.0014213651 0.018269105 -0.028637797 0.011535553 -0.02937203 0.0126511855 0.012826444 0.0019184555 0.0035694868 0.011729497 0.0010876972 -0.01132276 0.0029519605 0.00067891396 -0.019697476 0.019623997 0.0015869726 -0.013307194 -0.010170054 0.022672629 -0.0021536537 0.0091515705 -0.006984075 0.018120332 -0.012132666 0.008634082 -0.024061935 -0.006265439 -0.010462781 0.008037649 0.02460069 0.03881534 -0.0042250603 -0.012981822 -0.009383258 0.028013188 0.020168193 -0.052113302 -0.005172936 -0.0044258893 -0.0029877936 0.03400181 0.022536375 -0.017996488 -0.028874258 -0.027722796 0.021538839 -0.04553811 0.01778909 0.028946143 0.0061252927 -0.038131014 0.021026362 0.01833653 0.005983914 0.02391525 -0.008799899 0.020961354 0.00783816 -0.007464145 0.030957779 0.02142612 0.012154626 -0.014917209 -0.00019321311 -0.0036898088 0.009287016 -0.040311642 -0.003312878 -0.03472034 -0.0014042901 0.030790776 -0.0031620022 -0.010239668 0.0030663044 0.01226976 -0.0036586234 0.03821567 0.009442918 -0.045980353 -0.010077405 -0.031006813 -0.0053870357 0.032069072 -0.013362414 0.023642536 -0.012175157 0.010060265 -0.019401409 -0.0041291476 -0.03280284 -0.014022415 -0.017898943 -0.04312813 -0.009510794 0.0111102415 -0.025483377 -0.009710122 -0.011337363 -0.048570227 -0.021689687 -0.024080649 -0.0073430245 -0.0027745247 0.025053078 0.036977004 0.024169605 0.0032505987 -0.004612789 0.026967516 0.033372138 -0.029683536 0.008710259 -0.005796132 0.015227088 0.014343332 -0.0068733892 0.009344826 -0.026014075 -0.008349633 0.0004851378 -0.014248756 0.0035726395 -0.01815517 0.00097014464 0.010617669 -0.0187639 -0.008747457 0.027677003 0.01748705 -0.011218741 0.0036517873 -0.010392244 -0.0077859974 -0.0030385563 -0.0074367537 0.008858318 -0.014065334 0.013856179 0.012552528 0.011033257 -0.008534042 -0.023425251 -0.025354005 0.016456919 -0.02344875 -0.009848632 -0.041732278 0.003539765
q -0.0020203395 -0.016808601 0.012365135 0.015273861 0.028841028 -0.0030939705 0.021208111 0.00017680695 -0.008543547 0.010386946 -0.003009258 -0.000532031 -0.0071666343 -0.02111344 0.0028590995 0.011339583 0.013170014 0.009488862 -0.012879427 0.023210898 0.008087699 0.0073002707 -0.0069271587 -0.020530023 -0.019824252 0.009972807 0.003200236 0.00801515 -0.008251248 -0.008582352 0.009510461 -0.0026594729 -0.0029354393 0.008450673 -0.0066105165 0.028209979 0.016660217 -0.0040720166 0.018843045 -0.011206379 -0.031100702 0.028370269 0.002280798 -0.0076933205 0.020995278 -0.0034385712 0.006722622 -0.009121364 0.00076371286 0.009819809 0.01076623 0.011217671 0.003282709 0.013800094 -0.01000146 -0.008285407 0.013849515 -0.028372288 0.008375555 0.011507512 0.0047071637 0.006692165 -0.0027017405 0.0027575863 0.014993898 -0.005693035 -0.0011344058 0.025229886 -0.018220654 -0.0020222599 0.010241698 -0.0027105673 -0.016011037 -0.010242432 -0.0012143351 0.0040508793 -0.015230154 -0.009683041 0.00031076674 0.029131506 -0.0073366403 -0.01362852 0.011852387 0.025462713 -0.0018788188 0.020358246 0.014700436 -0.041175935 -0.0045420676 -0.0058800527 -0.0029826625 -0.016833987 0.009844823 -0.018864183 0.023306087 0.016108992 -0.033865564 -0.023783103 -0.004892789 -0.018552076 -0.02896275 -0.003970945 0.0075014313 0.009583489 0.007316848 -0.0022753954 -0.0011152558 0.00091081834 0.014699506 -0.018821575 0.010297935 -0.023043955 0.0029898842 0.008084685 -0.0054784343 0.0026155147 0.014658688 0.0039597414 -0.0039745416 0.0060144463 0.0008281321 -0.013783695 0.019295976 0.00036779282 -0.012272683 -0.009199043 0.015143108 0.0010236752 0.010145454 -0.007380565 0.010379337 -0.0042104693 0.004986939 -0.020185268 -0.0067608324 -0.008628833 0.0025364587 0.015135617 0.026611682 0.0014216157 -0.0069803842 -0.0020949806 0.022639772 0.018845303 -0.043594033 -0.0006544856 -0.009608604 -0.0023938385 0.028774235 0.02005961 -0.013215689 -0.027699858 -0.016811768 0.012407179 -0.036115706 0.014779693 0.02355297 0.0033589352 -0.026958229 0.017133713 0.014630009 0.007044967 0.020589469 -0.009989663 0.01467504 0.006175701 -0.0038478866 0.027294822 0.016641675 0.007995586 -0.006035206 0.0019316388 3.2398017e-05 0.0043494566 -0.028689194 -0.0001373429 -0.027756382 -0.0006535755 0.023518771 -0.0026439575 -0.0048291557 0.003897673 0.011778265 0.002625897 0.031857222 0.004814092 -0.03661492 -0.004961212 -0.026414244 -0.00018754568 0.025754662 -0.0072738053 0.016494961 -0.0029450916 0.009963024 -0.011060667 -0.0031423045 -0.027070913 -0.010255317 -0.014156916 -0.034286298 -0.01014481 0.012933518 -0.017454611 -0.0072613712 -0.0043961257 -0.034953725 -0.017366393 -0.018018367 -0.0055541387 -0.00047070454 0.02045374 0.024912102 0.022709293 0.0023565874 -0.0028243037 0.01847331 0.02703095 -0.020334387 0.0035700155 -0.0041526514 0.0075024734 0.010235197 -0.004168951 0.010463097 -0.01937727 -0.006199708 0.0044809533 -0.013559709 0.004507903 -0.01742578 0.0012288335 0.0067896224 -0.010567403 -0.005084092 0.019433783 0.011391471 -0.008326171 0.005168113 -0.007318653 -0.0077720545 -0.0018601959 -0.0072696796 0.0031031887 -0.00969454 0.010493385 0.009977357 0.0039651585 -0.009303005 -0.014371136 -0.023160223 0.012715879 -0.013412284 -0.004916702 -0.035706844 0.0033189098
Di18 -0.0058339816 -0.01673533 0.008129336 0.013640869 0.028318923 -0.00026591154 0.020979086 -0.0032476073 -0.004283425 0.00854647 -0.0034037894 -0.0034876834 -0.005548467 -0.02229603 0.0024519183 0.01153225 0.009739851 0.008868652 -0.020163545 0.02471212 0.0018784746 0.0014298374 -0.001927967 -0.017735763 -0.026172375 0.011950829 0.008048937 0.007726697 -0.0067634652 -0.014850766 0.009009196 -0.006002069 -0.009260834 0.0075440067 -0.011329642 0.028322179 0.014942968 -0.002943958 0.019477872 -0.013416823 -0.027672479 0.02661359 -0.00019094456 -0.013251697 0.027224166 0.0003321655 0.010883655 -0.011653947 0.0040576654 0.01289197 0.0053996313 0.0075316327 0.0014772207 0.015515093 -0.016031826 -0.006443421 0.016642258 -0.026183728 0.0045159026 0.0067444546 0.004077785 0.009511085 0.0025630272 0.0013917283 0.017615762 -0.004166835 -0.0062318183 0.022640392 -0.01517148 -0.0082921265 0.016619429 -0.0028547756 -0.022964837 -0.010707078 -0.0011020772 0.000602605 -0.015857913 -0.008342579 0.0035859444 0.029890034 -0.0010422152 -0.0129438555 0.016651336 0.023726601 -0.0024938837 0.026766788 0.012330185 -0.037303343 -0.0059564137 -0.0022868204 0.0022028943 -0.017348006 0.006170211 -0.017812507 0.022799326 0.017098535 -0.034269467 -0.02217386 -0.0024631608 -0.019351672 -0.0293229 0.00068402896 0.0059934286 0.00789742 0.011444007 -0.001811567 -0.0047931937 0.00089273567 0.0114144115 -0.023543775 0.009129332 -0.022272084 0.008434119 0.0073842793 0.0011507216 -0.0035587738 0.014242038 0.0016586722 -0.0060117384 1.2440758e-05 -0.00222912 -0.019113902 0.014853152 0.0034406625 -0.008107778 -0.0050862907 0.0138072 0.003915612 0.003728939 -0.0049621635 0.009346817 -0.011017312 0.006824613 -0.01832661 -0.0065248273 -0.0045127505 0.0024224115 0.017776988 0.026552396 -0.005244704 -0.012460289 -0.0049211825 0.021827541 0.017131966 -0.04483023 -0.0023225106 -0.005270067 -0.004184338 0.02974897 0.020853942 -0.014642794 -0.025564 -0.019078357 0.013539204 -0.035765298 0.010529785 0.024609003 0.004547903 -0.02650434 0.012238364 0.010704417 0.0029420822 0.013777395 -0.0049117235 0.01485607 0.0069189323 -0.0039856173 0.020529006 0.017755104 0.003944661 -0.011468234 0.0018826277 -0.0013642214 0.006118334 -0.031370055 -0.0051096017 -0.027895017 -0.0024830739 0.025998333 0.004279033 -0.008684535 0.0030246084 0.008611439 0.0027653591 0.03045363 0.0068646246 -0.029826427 -0.007046691 -0.02317703 -0.0016974941 0.026844773 -0.009196837 0.020707035 -0.0043646293 0.013264619 -0.013819972 -0.0014606311 -0.028345713 -0.014332658 -0.013208267 -0.03471648 -0.006111599 0.009364991 -0.018182836 -0.0039529586 -0.0022203396 -0.032078587 -0.013504194 -0.020985145 -0.0023339365 -0.0022012298 0.013667391 0.029102882 0.017379465 0.0019010216 -0.0028448773 0.018710373 0.023584813 -0.025002168 0.0076941615 -0.007232755 0.0063823666 0.011347426 -0.0009439512 0.010975143 -0.017153947 -0.0074971155 0.0009612056 -0.0107137775 0.008909716 -0.016586429 -0.0003050409 0.0069347057 -0.008954008 -0.008666492 0.017977387 0.00960414 -0.0077590556 0.0049960325 -0.0036050975 -0.010038712 0.00333594 -0.0040797307 0.0055910316 -0.01448463 0.0068361103 0.017019808 0.009467734 -0.010502666 -0.01555519 -0.022821922 0.0074212556 -0.015052548 -0.0070533026 -0.033306453 0.0056755254
m -0.0010794617 -0.023861967 0.011662014 0.016377527 0.02872883 0.0033998669 0.016858922 -0.0025310037 -0.0060996786 0.015470752 -0.006340537 6.52522e-05 -0.0049881474 -0.02720637 0.00034073184 0.010356999 0.015081762 0.011396641 -0.020166736 0.03263324 0.003020756 0.0043711 -0.0035754342 -0.02108116 -0.024540551 0.01394006 0.009319826 0.007241945 -0.008647071 -0.009247519 0.004983433 -8.8675006e-05 -0.010111646 0.007905349 -0.010680863 0.0258084 0.015112875 -0.008186998 0.017750252 -0.015519939 -0.03299312 0.02549086 -0.0023347326 -0.009313555 0.029235482 -0.0023512894 0.0055564116 -0.009701378 0.0009421081 0.011407418 0.010886851 0.0071874056 0.003029664 0.0110325795 -0.016877025 -0.005282114 0.015690709 -0.02710381 0.0125117535 0.00705278 0.0032016418 0.011253618 -0.0037745603 -0.0020304543 0.018364133 -0.0055558924 -0.0069001843 0.029157905 -0.018791562 -0.008012257 0.0151634 -0.0030388571 -0.024893837 -0.012865845 -0.0027611912 0.0044644275 -0.016715989 -0.0076056877 0.0048307567 0.028791206 -0.00049558794 -0.014053833 0.01510664 0.025063796 0.00023658235 0.02733556 0.017051024 -0.04183927 -0.0060155713 -0.0064210976 -8.385534e-06 -0.017912736 0.0070664003 -0.021947943 0.023529597 0.022291759 -0.036097605 -0.026218971 -0.00040935187 -0.021726724 -0.023597132 -0.0026384932 0.01034384 0.013071689 0.0102978 0.0027458083 -0.002998028 -0.0023401275 0.011861769 -0.023081629 0.0038739683 -0.022077931 0.009128189 0.0074459123 0.0012246743 -0.00024106023 0.0120747 0.006237667 -0.011122364 -0.0001527317 0.0019541306 -0.020099955 0.020500302 0.0018931763 -0.012839969 -0.0026859788 0.019821629 -0.0012120517 0.003864848 -0.0074835285 0.014027693 -0.0058558304 0.005362483 -0.017111648 -0.011402898 -0.008562482 0.0069680405 0.015604652 0.025133656 -0.0013216137 -0.01305087 -0.008824029 0.022793626 0.0215551 -0.047692586 -0.0007109659 -0.0025461547 0.001205091 0.026163734 0.022093317 -0.0150499595 -0.028148439 -0.02092869 0.01203536 -0.04151131 0.013904586 0.026579922 -2.3172663e-05 -0.030477278 0.016261084 0.0124719115 0.001260338 0.020838624 -0.009718524 0.017034037 0.008886123 -0.003275512 0.028897623 0.018852826 0.0036636218 -0.009066023 -0.00088110846 0.0002779116 0.011854489 -0.02835414 -0.0075713173 -0.02417226 -0.0014266954 0.023352018 0.0020911652 -0.011531876 0.0033271103 0.0122303935 0.002031728 0.03582018 0.004145307 -0.038805723 -0.011700419 -0.020652963 -0.0076470072 0.029795678 -0.007873722 0.020645637 -0.0033031069 0.015528959 -0.010845298 0.0016550655 -0.031203955 -0.008156751 -0.015868278 -0.037488263 -0.010456567 0.012450935 -0.016154414 -0.010038548 -0.007884259 -0.037935343 -0.017415546 -0.021267368 -0.001587562 0.0007750994 0.017006798 0.026353898 0.02115488 -0.000613586 0.0003785403 0.026372489 0.028722966 -0.026168812 0.0014031794 -0.008615998 0.008032029 0.010911339 -0.005470225 0.010157921 -0.015418647 -0.005209184 0.0035849547 -0.007967346 0.008532144 -0.015621605 -0.0016981505 0.0058682826 -0.009435917 -0.0030840733 0.019438079 0.015257592 -0.0077703116 0.005459551 -0.008902413 -0.004590852 0.00029668442 -0.00747703 0.008933605 -0.014950995 0.007151122 0.014844291 0.012363401 -0.008314362 -0.01500451 -0.019351922 0.012939703 -0.019821526 -0.006147598 -0.039014753 0.0007717598
Ig01 -0.0016172902 -0.026053026 0.0130508905 0.014456853 0.02889565 -0.0028841689 0.018256135 -0.002769995 -0.0033304463 0.01580104 -0.010229233 -0.0060342923 -0.0021444056 -0.028224664 0.005900002 0.015398821 0.0077301078 0.017236562 -0.015661668 0.029819388 0.0069839866 0.0017647954 -0.0035306204 -0.015488956 -0.023800787 0.011986812 0.009317099 0.008230564 -0.007317633 -0.01189574 0.007822059 -0.0013364324 -0.009260836 0.0072780414 -0.011046367 0.029936204 0.018982913 -0.006013186 0.02255768 -0.016909745 -0.03024068 0.030839395 -0.0023202766 -0.01058738 0.024139794 0.0012698605 0.009496213 -0.010449321 0.006624025 0.012936228 0.008318346 0.0061089224 0.0043508653 0.0155365355 -0.014900308 -0.012032917 0.012284967 -0.024648752 0.01275479 0.013115018 0.0017797761 0.012555665 -0.0038089426 0.0047020447 0.016122542 -0.0016204499 -0.005959877 0.026075792 -0.015922181 -0.005286549 0.012693161 -0.0047042347 -0.021703554 -0.01537737 0.0032419232 0.0066382745 -0.016613645 -0.010780495 0.0005955595 0.030549947 -0.0012200671 -0.01772564 0.01256966 0.029572979 -0.0037320259 0.027757395 0.016406614 -0.042605992 -0.00929342 -0.0029912617 -0.0033359851 -0.017771758 0.011935063 -0.022896256 0.021372862 0.020720234 -0.03797766 -0.024986336 -0.005049924 -0.021046853 -0.025428459 0.0013510367 0.013728881 0.0122051295 0.012065421 0.0025065832 -0.003338842 0.0037588673 0.014211706 -0.022572747 0.006465299 -0.027332572 0.010673503 0.006284963 -0.0005497309 -0.00050016114 0.0114019 0.0023136262 -0.006564379 0.00017384312 -0.004152573 -0.019254329 0.019338634 0.0020025137 -0.010872515 -0.0035114142 0.014875511 -0.00063494645 0.0046140673 -0.0065204566 0.015764272 -0.012924101 0.002883114 -0.02256983 -0.004929802 -0.007985853 0.0059179477 0.017563717 0.029099056 -0.0016180617 -0.010679976 -0.009117561 0.019134 0.020246556 -0.0502586 -0.0035362788 -0.0070966524 0.0025548246 0.028964935 0.021713542 -0.015265269 -0.030629821 -0.020671286 0.01626638 -0.041068666 0.012317705 0.027840689 -0.0012835253 -0.031546835 0.015597557 0.012578446 0.008718538 0.01839013 -0.011693548 0.013428481 0.0037348885 -0.010400399 0.023907663 0.014277201 0.0068070265 -0.010193204 -0.0023789573 0.000677926 0.0099427225 -0.028023051 -0.0058671176 -0.027149495 0.0020240275 0.02252069 -0.002750487 -0.010493043 0.00087005156 0.014849931 0.002911657 0.038971785 0.0019144422 -0.034913983 -0.008289941 -0.023224 -0.0075519774 0.026768364 -0.011307279 0.018556837 -0.0066370373 0.016056687 -0.012263331 -0.0053038076 -0.027297681 -0.01330563 -0.008359489 -0.03921492 -0.0030687342 0.009153223 -0.022483235 -0.0067657065 -0.007174767 -0.042196292 -0.016156543 -0.021996541 -0.0063018096 0.0013173954 0.0204229 0.032511607 0.025917862 -0.002161064 0.00055136596 0.025458744 0.028929353 -0.022411242 0.0022571413 -0.003203722 0.011978481 0.00998077 -0.005443461 0.01050261 -0.017714113 -0.01033784 0.0064394525 -0.0110171 0.006215981 -0.01673878 0.0011801326 0.00925306 -0.011067107 -0.008585271 0.02464795 0.01140458 -0.012163528 0.006493629 -0.004598285 -0.0056048958 0.003479848 -0.0068618306 0.004765267 -0.012659026 0.008288121 0.0132715525 0.008771147 -0.011087941 -0.0175632 -0.020950459 0.011709839 -0.015639279 -0.008037033 -0.03492773 0.0015760744
Jd02 -0.00022640565 -0.021467714 0.011380945 0.013304348 0.029254405 0.001394395 0.019248791 0.002262464 -0.009439169 0.016493475 -0.0053602657 -0.0038396467 -0.004662112 -0.026485208 0.0021018677 0.013074111 0.012937742 0.016293308 -0.021112213 0.03166226 0.0019042101 0.0050943512 -0.0022221787 -0.018212313 -0.02663808 0.01119545 0.0077975797 0.008639931 -0.009676798 -0.011846986 0.0075178063 -0.0013774482 -0.004213912 0.0060016294 -0.01295147 0.030178614 0.01690612 -0.009999219 0.016905306 -0.0142553635 -0.029368246 0.025571711 -0.003451502 -0.012331583 0.02777639 -0.0021842232 0.007446174 -0.010486104 0.0026442832 0.0071406686 0.012493093 0.0040686727 0.0036606335 0.013329144 -0.015688136 -0.0069664037 0.017062284 -0.026385326 0.011739808 0.010515757 0.00047046313 0.011049598 -0.0008952815 0.0045271604 0.017475396 -0.0014709412 -0.0058849463 0.021876914 -0.013289991 -0.00512526 0.016396498 -0.0012507912 -0.017559716 -0.01454805 0.004967725 0.0009562059 -0.014750086 -0.004933324 -5.7711193e-05 0.030546827 -0.0063277595 -0.018794516 0.015415224 0.024639884 -0.001147565 0.026623717 0.009533826 -0.039183356 -0.0017656706 -0.0041737943 -0.0026539154 -0.012778039 0.005876332 -0.01770587 0.023375198 0.0242913 -0.033463325 -0.025924183 0.001208436 -0.020416701 -0.023481894 -0.005656268 0.005899421 0.010667157 0.0064383103 0.00016671103 -0.0038506477 0.001714793 0.008276516 -0.023457173 0.004501753 -0.022881681 0.009139152 0.008043123 0.0019761084 -0.0015362765 0.014811573 0.0062158746 -0.0039259396 0.0026871327 -0.0012094661 -0.015957136 0.012629601 0.0034684855 -0.010288539 -0.0026219212 0.017386962 0.0025745882 0.0066058887 -0.00782447 0.012544236 -0.007179943 0.002383297 -0.018632254 -0.008866856 -0.008505109 0.0064393226 0.019475909 0.029756777 -0.004217997 -0.011461629 -0.0037092639 0.022905465 0.019953236 -0.04112379 -0.0066566397 -0.0023463664 -0.0034633041 0.02392725 0.021376204 -0.0121482415 -0.029423578 -0.022669215 0.017462937 -0.0372614 0.014317447 0.022264978 0.0037113659 -0.027158482 0.0101690255 0.010189254 0.0078467 0.01802286 -0.010375362 0.018147254 0.01004975 -0.004062609 0.024296338 0.011606774 0.0052035344 -0.007250993 -0.0029784117 0.0038606492 0.0039440016 -0.03248146 -0.006004908 -0.024802698 -0.003999262 0.025708938 -0.0037416816 -0.00692998 0.004581933 0.01096289 0.0032700524 0.034838457 0.0047769938 -0.03219019 -0.007038156 -0.022186484 0.00018994826 0.024034007 -0.011105008 0.01873784 -0.007782209 0.008221464 -0.014501872 0.0011710385 -0.02830888 -0.008778729 -0.009765859 -0.033071034 -0.0061855563 0.0133417 -0.020777415 -0.005734916 -0.002577344 -0.03720142 -0.017900804 -0.023782784 -0.006914875 0.000556419 0.01977332 0.029325964 0.020315476 0.0010615523 0.00015578386 0.017517313 0.02071427 -0.02032554 0.0002595753 -0.0059260586 0.0086905705 0.011246925 -0.004176535 0.013186933 -0.01807196 -0.008151815 0.0010493993 -0.011018959 0.0035099904 -0.011764951 0.004428593 0.008179733 -0.015072894 -0.008275369 0.020205822 0.01044103 -0.010566674 0.006177556 -0.003946739 -0.008229492 0.0009299685 -0.0011852765 0.007748903 -0.0075958883 0.008927051 0.010836249 0.0078833215 -0.0104610585 -0.012785854 -0.02371866 0.010710785 -0.017669413 -0.006787073 -0.03243632 -0.0009882594
i -0.0049436386 -0.017496953 0.010096888 0.014474826 0.022477554 -3.2476844e-05 0.01324479 0.00046934912 -0.008535769 0.012082002 -0.0063095214 -0.0056424416 6.972008e-05 -0.019629112 -0.0011291009 0.0063500255 0.00935224 0.007630301 -0.013250768 0.025585128 0.006196121 0.0008385324 -0.0016193463 -0.018393524 -0.017011136 0.012045413 0.0052858954 0.009133638 -0.0059732557 -0.012879351 0.0049279216 -0.0049577705 -0.005501722 0.0017188301 -0.0057822084 0.019934166 0.0112215625 -0.009487745 0.011693997 -0.012431812 -0.028277408 0.020018758 0.00022361844 -0.011028848 0.023521656 0.0013619023 0.0024872844 -0.007522257 0.00054342294 0.011470399 0.010602794 0.01027854 0.0007103829 0.013003124 -0.014064408 -0.0071412604 0.009663228 -0.025409028 0.009135375 0.010292642 0.0008681537 0.006750338 0.0011726299 0.0002357699 0.009093185 -0.0053070267 -0.004034227 0.024799604 -0.01594826 -0.0025044838 0.014433234 -0.0033095302 -0.018522525 -0.010283021 0.0019635041 0.0032551747 -0.0132346405 -0.010074387 0.005570519 0.020656189 -0.006590551 -0.013156001 0.013533809 0.020762773 5.9569584e-06 0.021276899 0.011483281 -0.030722303 -0.0057306467 -0.0070877583 -0.0031985503 -0.0091874115 0.0070115644 -0.017779013 0.021705406 0.021412529 -0.02794386 -0.023063548 -0.0042922134 -0.016443681 -0.025170764 -0.00030204045 0.010015709 0.006810047 0.011095346 -0.001712162 -0.0006665477 -0.00052996527 0.0114686 -0.019366795 0.00770327 -0.016368587 0.005323315 0.004832382 -0.004856678 0.0016553482 0.011740271 0.006029547 -0.007904337 -0.0013129041 0.0017798473 -0.016034633 0.015741378 0.0028980104 -0.009372022 -0.004437566 0.012743202 -0.0013789627 0.0038914753 -0.003455883 0.0071776984 -0.007966913 0.0040623 -0.012132598 -0.006201306 -0.0032266804 0.0057444153 0.014436271 0.021800254 0.002578015 -0.0048187394 -0.008372995 0.019530928 0.018211484 -0.033092253 -0.0065097306 -0.0058668717 6.816653e-06 0.02439652 0.0144810695 -0.011749901 -0.01924267 -0.01537981 0.012611858 -0.03317195 0.00889075 0.017116047 0.0033172169 -0.0234416 0.011152557 0.0064524785 0.0031922148 0.017720181 -0.004452784 0.014653273 0.0050262883 -0.0021769465 0.021198103 0.013612755 0.008236929 -0.0107065365 0.002396889 0.0037872589 0.008101689 -0.023591332 -0.0016147365 -0.024013927 -0.0040991628 0.019891946 0.0004976559 -0.009919791 0.0034191872 0.011683957 -0.0034000322 0.029132044 0.00714103 -0.0326488 -0.006679347 -0.02348984 -0.0065600825 0.023669621 -0.009744981 0.017051518 -0.009264765 0.0062982626 -0.014736822 -0.001817179 -0.02175548 -0.012242857 -0.013051229 -0.029255591 -0.006327687 0.007264727 -0.017226994 -0.0047051213 -0.0044365143 -0.028024549 -0.011098717 -0.01752333 -0.0018350197 0.0028147956 0.015780112 0.023720093 0.018606355 -0.0031869216 0.0010013077 0.020345114 0.02077186 -0.01557794 0.0012418511 -0.0026219897 0.005808268 0.0041121785 -0.0015329653 0.00969435 -0.013146682 -0.008789551 0.004014796 -0.008742751 0.006592655 -0.012753645 0.0028465353 0.008526144 -0.013610742 -0.009073565 0.020066159 0.009005596 -0.010727052 0.0007022177 -0.0048038997 -0.0022118436 -0.0004253635 -0.0033531473 0.0026882594 -0.012463537 0.008723175 0.010967771 0.0039608213 -0.0058331895 -0.018031422 -0.018410051 0.011126981 -0.013605714 -0.0034927123 -0.02660018 0.0015192258
Dm04 -0.0010946789 -0.014640527 0.012034552 0.016118633 0.02415117 0.0019992532 0.018551096 -0.0016235856 -0.0074408664 0.01420826 -0.004356705 -0.0042532994 -0.0031138544 -0.020941375 0.0061736363 0.011507009 0.010352933 0.013404207 -0.011209666 0.02135211 0.0018153172 0.0014958358 -0.00624971 -0.018132126 -0.019685723 0.008708737 0.009631773 0.0060682204 -0.007367683 -0.014041104 0.004141476 -0.0062423167 -0.0046606995 0.006097868 -0.008724971 0.02628569 0.0116944155 -0.00847479 0.01361612 -0.013060683 -0.027063347 0.01752456 -0.0026109912 -0.010829784 0.02360252 -0.0046322183 0.0038951058 -0.008769795 0.003136184 0.010092848 0.006781453 0.008322823 0.0068942625 0.0083810175 -0.008895922 -0.0038038916 0.011081255 -0.018459743 0.004835843 0.006761098 -0.00086731557 0.0136816 -0.0041373926 0.00049435906 0.012043275 -0.0050650863 0.00080497656 0.017866692 -0.016366133 -0.0011715556 0.008467092 0.0026690771 -0.01896964 -0.0066766576 0.0008121916 0.0017726707 -0.0145583 -0.008659991 0.0055678645 0.026417524 -0.0029828048 -0.011016479 0.013599775 0.021298992 0.0009824818 0.015364847 0.013967668 -0.035955373 -0.005720603 -0.003582862 0.002249725 -0.015393048 0.007246123 -0.012442296 0.0149282 0.02160275 -0.032470874 -0.015802057 -0.0047245696 -0.012560182 -0.018247971 -0.0055790613 0.00783577 0.006047816 0.011219081 0.005321823 -0.005632066 0.0016756324 0.009297036 -0.02046985 0.0063593853 -0.023080213 0.0071352236 0.0035771208 0.00071021455 0.0030061507 0.00856926 0.0016974664 -0.009648367 0.0042189364 0.00018402761 -0.010354334 0.014982158 -0.0010940068 -0.0063491366 -0.0014744167 0.01758553 0.0045670792 0.0024687322 -0.0063056103 0.013109779 -0.009778441 0.0063445424 -0.0111340545 -0.0078834845 -0.0024335596 0.0010119575 0.018295122 0.025352502 0.00010412214 -0.01077487 -0.0008385193 0.020159848 0.01410767 -0.033936188 -0.00048403567 -0.005484409 0.0016443216 0.020659652 0.014707907 -0.009683521 -0.023272209 -0.018189032 0.009272603 -0.028686231 0.013824517 0.020294273 0.004103014 -0.024721693 0.013466457 0.006790464 0.0015889531 0.01865625 -0.0043861954 0.010923293 0.0034568263 -0.002904741 0.02144217 0.015089254 0.002845469 -0.008134265 -0.000867862 -0.00024828606 0.0073380605 -0.027090201 -0.0013853592 -0.023165585 0.0027388323 0.018182144 0.003870428 -0.007247988 0.0049025225 0.0061934707 -0.004052396 0.02694822 0.0029110038 -0.024277978 -0.005945134 -0.021364788 -0.000180983 0.020602893 -0.010138283 0.019630702 -0.006847492 0.005170529 -0.007916396 0.0011669091 -0.01845926 -0.008847009 -0.006511802 -0.025336048 -0.0082899295 0.013027684 -0.016844958 -0.009860798 -0.0014457648 -0.031660393 -0.008855825 -0.019994738 0.0011489275 -0.0031948958 0.016314378 0.026054684 0.019038524 -0.0002592551 -0.0026647116 0.013733092 0.022111587 -0.015444986 0.0014629156 -0.0015939078 0.011373329 0.004017644 -0.0015330289 0.005091536 -0.01710354 -0.0047395686 -0.0005771834 -0.011040121 0.0017745523 -0.015147622 -0.0022861823 0.009224942 -0.006795934 -0.0049004983 0.015612153 0.011632107 -0.006269163 -0.00078797585 -0.008088244 -0.005110705 0.003158497 -0.00161779 0.009451542 -0.0064636236 0.008018002 0.014595678 0.010438825 -0.0028135313 -0.010148158 -0.02048978 0.01058215 -0.016980857 -0.009264823 -0.03189444 0.0030718925
Bn01 -0.003574604 -0.024179537 0.012451352 0.018277513 0.029154502 0.0032026914 0.017576184 -0.0040037907 -0.004572578 0.011780734 -0.008912628 -0.001673993 -0.004545238 -0.025509393 0.0041242684 0.014537401 0.013286932 0.01301467 -0.014466578 0.030321084 0.008444749 0.0032808185 -0.0048944177 -0.015298498 -0.028102303 0.01716016 0.0077414946 0.011511601 -0.0065277517 -0.01430655 0.004702965 -0.0042920113 -0.007809307 0.0027052357 -0.008665555 0.03162503 0.017654508 -0.010074439 0.015387139 -0.015829777 -0.028186733 0.02279438 0.0012058015 -0.011143003 0.025411349 0.0017515098 0.010720782 -0.011470574 0.0063172784 0.0070147826 0.005643378 0.006850619 0.008367984 0.015095811 -0.010818378 -0.010563293 0.01596413 -0.026428295 0.00839318 0.008868964 0.0050048963 0.00798011 0.0018302886 0.0042251186 0.014047701 -0.0060069454 -0.0068576336 0.022937162 -0.018016834 -0.0054285307 0.012677799 -0.0022922645 -0.024920326 -0.01267492 0.00039471523 0.0009750972 -0.01327192 -0.0037328198 0.005396757 0.03008798 -0.005695495 -0.017149678 0.015726939 0.025463741 0.0031447425 0.023588097 0.015817078 -0.038221452 -0.004231325 -0.0021675557 -0.0021313182 -0.016627513 0.0103522 -0.015019924 0.024042707 0.019962706 -0.034050368 -0.02346594 -0.0028881556 -0.015232215 -0.025252728 -0.0010382202 0.009329136 0.0073718266 0.008830839 0.002827204 -0.005815139 0.0045852475 0.015750399 -0.025190344 0.0054625566 -0.025529679 0.0068405396 0.0076483325 -0.002592468 -0.00064557756 0.013421493 0.0077125747 -0.00934108 -0.0006170017 0.00057143153 -0.019765694 0.019589467 0.0007416356 -0.012347514 -0.009169313 0.013359291 0.002301506 0.008571249 -0.002807826 0.012120954 -0.008170935 0.0076406416 -0.018261062 -0.01116938 -0.006854557 0.006541268 0.018220343 0.027583744 -0.002646716 -0.006357166 -0.007153449 0.024335774 0.016482977 -0.048091948 -0.0063555073 -0.007864535 4.748413e-05 0.029835857 0.01893811 -0.008051295 -0.02566576 -0.019377002 0.015139565 -0.037740514 0.01509492 0.023572646 0.0054320614 -0.031786222 0.010637681 0.011770069 0.0037426597 0.016831651 -0.008652378 0.013634712 0.003965972 -0.0035011268 0.023536747 0.014806282 0.006028434 -0.009962841 -0.00421573 -0.00072182994 0.0075490135 -0.026338056 -0.0074139894 -0.029614666 -0.0018103716 0.023848586 -0.00230734 -0.011147241 -9.499341e-05 0.013644277 -0.0043600425 0.03254046 0.005106004 -0.034389686 -0.013782746 -0.020653179 -0.0047572767 0.025139824 -0.011318363 0.017336052 -0.0056886314 0.013032304 -0.012726964 0.00020281874 -0.029564863 -0.0115121845 -0.012847634 -0.03410307 -0.004774658 0.011775615 -0.021742903 -0.00630784 -0.004017781 -0.039118435 -0.0140141025 -0.021982888 -0.0001192091 0.0006298502 0.018818516 0.027131869 0.01812892 0.0041611423 -0.001758659 0.025190424 0.026560988 -0.026473843 0.0033762315 -0.0037158644 0.00954247 0.013078905 -0.004860255 0.0065022972 -0.017057719 -0.007792478 7.1424394e-05 -0.010814305 0.008068666 -0.016935522 -0.00078094384 0.0034890135 -0.011629233 -0.007987297 0.024120757 0.0111283725 -0.007598865 0.001799491 -0.00360437 -0.006669913 -0.0029700536 -0.006261337 0.006987641 -0.008440927 0.010993123 0.011421994 0.0058219796 -0.011186477 -0.016094131 -0.024801888 0.012592107 -0.015951984 -0.008575993 -0.039107267 0.0048493254
Dn08 -0.0025841973 -0.020537969 0.005166628 0.01483896 0.021869259 -0.003232994 0.014280498 0.0009314838 -0.008683774 0.007063634 -0.0046982854 -0.0062129195 -0.0025693867 -0.017090345 0.005814689 0.009407225 0.008987543 0.012160815 -0.015604729 0.025122598 0.0046509327 0.0024184193 -0.008435221 -0.013536357 -0.015897179 0.011910224 0.002227824 0.005721813 -0.006955209 -0.007441462 0.0026424634 -0.00038985518 -0.00724112 0.0010991797 -0.010124948 0.023561258 0.00842281 -0.007602562 0.0110553475 -0.01329357 -0.024579003 0.021145105 0.0017562968 -0.009856526 0.018128559 -0.0009287793 0.007903564 -0.011030409 0.001101264 0.0100782765 0.009382606 0.0030814868 0.0069879913 0.0067848987 -0.013174516 -0.008399451 0.01148046 -0.020289611 0.007868742 0.010774374 0.0041740546 0.0074126106 -0.003112429 -0.0021171265 0.011463661 0.0008403396 -0.0058057015 0.02099426 -0.010630286 -0.006918907 0.008236899 -0.003682085 -0.018489849 -0.011387315 0.0031668444 -0.00015480978 -0.012592061 -0.003884217 0.0028686458 0.0194423 -0.004870147 -0.011344592 0.012669066 0.01848251 -0.0004422579 0.019619254 0.010819159 -0.032217957 -0.0020365557 -0.0072559207 0.0024667124 -0.015640654 0.0050185355 -0.010995326 0.016150838 0.01915173 -0.026395632 -0.02198536 -0.0023732642 -0.016158346 -0.024117036 -0.0024746577 0.009722502 0.012248846 0.005833688 0.00022415552 -0.005101175 0.0016152688 0.011073667 -0.020589963 0.0064895367 -0.021282535 0.0057019745 0.008207 -0.0034375468 0.00020256444 0.008378722 -0.00043933437 -0.0068023885 0.003689581 -0.004251096 -0.015732927 0.012778517 0.0029904123 -0.006891054 -0.0008156112 0.010208895 0.0046057417 0.0035028644 -0.005581295 0.006540236 -0.005622746 0.0037586438 -0.010516347 -0.0064158486 -0.0039626276 0.0063826656 0.011061358 0.021101544 -0.0033702229 -0.010830011 -0.0033791848 0.016751204 0.012981679 -0.034706213 -0.005500008 -0.0060763564 6.2664134e-05 0.024121685 0.016752336 -0.010432342 -0.018681044 -0.017376363 0.009554491 -0.029943023 0.007219818 0.018912666 -0.0015259237 -0.02463387 0.00941457 0.012143451 0.004072872 0.015864715 -0.003328608 0.009388206 0.0038661694 -0.0021288793 0.021098044 0.013858545 0.008871685 -0.0035758105 -0.0014783619 0.0005115379 0.008583876 -0.019359289 0.000851178 -0.024602532 -0.0027951675 0.01944818 0.0005965842 -0.0068810326 0.0057964204 0.011364327 -0.0033933918 0.0248077 0.00034504003 -0.024260161 -0.006454218 -0.019085377 -0.0022293788 0.02280351 -0.0025538912 0.018555759 -0.004097687 0.009578039 -0.007451057 -0.00081288005 -0.020545278 -0.012334291 -0.008149478 -0.02944445 -0.0027643098 0.0064708367 -0.015214497 -0.0053457697 -0.006062699 -0.031768214 -0.010378361 -0.018405342 -0.0062856628 0.0010726793 0.013596982 0.023511715 0.01398832 0.0008952667 -0.0011468418 0.019353218 0.015688013 -0.015376734 -0.00048453212 -0.006990647 0.00827868 0.006040668 -0.004059604 0.0050584897 -0.012618633 -0.008583971 0.0028414868 -0.006960329 0.0044932836 -0.01170243 0.0035108852 0.0009206902 -0.012875207 -0.0027016862 0.019348567 0.0054921946 -0.009864318 0.0022751382 -0.008625605 -0.003958782 0.003726561 -0.0052118986 0.0024039743 -0.005007642 0.0068994835 0.008900232 0.005503822 -0.0092945695 -0.015255086 -0.017766071 0.008639432 -0.013072872 -0.0030952336 -0.024318682 0.0011415527
在 -0.0069187344 -0.015267489 0.005680157 0.0152706215 0.022658262 -0.0002100957 0.017683841 -0.0025140797 -0.0063683763 0.009720515 -0.0012014252 0.0001658105 -0.0017536172 -0.016587162 0.0012546023 0.013099987 0.0053343386 0.008707759 -0.01592473 0.025695542 0.0027289952 0.0018901329 -0.0015690841 -0.017598014 -0.019726213 0.012654836 0.003343109 0.010575285 -0.004222536 -0.012396524 0.0073629273 0.0009288134 -0.0044540996 0.006512015 -0.009722398 0.020626428 0.015811935 -0.0029747146 0.014604541 -0.01269199 -0.021197027 0.021435197 0.0023237648 -0.009735212 0.024249572 -0.003937668 0.002768756 -0.009501694 0.004543736 0.0073136166 0.009452572 0.00286299 -0.00012082659 0.013968815 -0.007454211 -0.007638562 0.009349588 -0.021777747 0.0066611283 0.011760944 0.0024583123 0.008549565 -0.0017636227 0.0008312469 0.007959714 -0.00029735873 -0.0064404784 0.018170694 -0.0152606815 -0.0012219488 0.013554108 -0.0015252515 -0.014712088 -0.009725881 0.0048589855 0.0019087021 -0.009210119 -0.0073671327 0.0064966683 0.026545944 -0.00036017544 -0.0128267845 0.010730014 0.015180579 0.0037218542 0.015075113 0.00711033 -0.028860735 -0.00513924 -0.00080436387 -0.0028684135 -0.007504755 0.007125639 -0.017700339 0.01921519 0.014920836 -0.026198145 -0.01617022 -0.005534888 -0.0119815245 -0.018807165 0.00048802883 0.0043750433 0.0060802423 0.004128591 0.0033997085 -0.0044664913 0.003066894 0.011464414 -0.013240297 0.006730352 -0.018325116 0.006385603 0.007526672 -0.005086133 -0.002342729 0.008881699 0.0047709704 -0.0058280574 -0.0015272025 -0.0010447117 -0.010224654 0.015654642 0.0012332426 -0.009070653 -0.0059539448 0.012265937 -0.0010926554 0.002123334 -0.0033510963 0.010271661 -0.004723355 0.006294592 -0.010230978 -0.009027566 -0.0014012649 0.0025241196 0.015208924 0.020445257 -0.0028114957 -0.007827726 -0.0072849197 0.01969824 0.015864491 -0.03489331 -0.0021546097 -0.0012911725 -0.002747002 0.022922646 0.014439041 -0.007755708 -0.02114844 -0.020850314 0.014086145 -0.028859388 0.006295608 0.01790888 -0.0009755992 -0.018609453 0.008490841 0.0084441155 0.003200904 0.012190609 -0.007638889 0.015121207 0.006602596 -0.009399239 0.019164454 0.008303727 0.0039264057 -0.0054364125 0.0013757853 -0.0023620692 0.0066825533 -0.020957394 -0.00589514 -0.022758497 -0.0016075599 0.01403839 0.0010277686 -0.004071298 0.003536176 0.0094415955 -0.00050591794 0.025441086 0.0011532208 -0.026764873 -0.0048411926 -0.017213857 -0.0024826513 0.022509934 -0.004928524 0.013388482 -0.002734707 0.01245765 -0.014560607 0.001316152 -0.023863385 -0.008501586 -0.0073632244 -0.02807301 -0.00841832 0.0059313076 -0.01845787 -0.008634278 -0.00084743334 -0.027047541 -0.015300643 -0.012628138 0.00032528103 0.0023700274 0.017853484 0.017586295 0.015656667 0.0015599275 -2.3760693e-05 0.01864966 0.01619913 -0.015580112 0.006965314 -0.007200686 0.011489186 0.008389564 -0.0035736945 0.0066716676 -0.017723627 -0.0078798 0.0040421323 -0.010253833 0.008443554 -0.014913417 -0.0022103854 0.007552108 -0.0062619965 -0.0033990953 0.018745886 0.011074281 -0.008886745 0.0059559206 -0.00762376 -0.0063929325 -0.0025048086 -0.0002205359 0.0033446082 -0.0074601243 0.0067721102 0.0102840625 0.0041437135 -0.007817132 -0.014704327 -0.016049346 0.009267599 -0.014437713 -0.0054303715 -0.029376697 0.0058620055
公司 -0.004018502 -0.022981385 0.009719329 0.01829094 0.025976714 -0.0019691337 0.0156040685 -0.003627213 -0.0073645446 0.015689708 -0.008837685 -0.0019853783 -0.002949469 -0.020875694 -7.149592e-05 0.015351215 0.009035541 0.01479106 -0.021265944 0.029615546 0.001677145 0.0023733058 -0.0062335557 -0.018675314 -0.023330184 0.014291596 0.009236866 0.007823356 -0.0074878586 -0.015283829 0.009877824 -0.0012147507 -0.002212458 0.0071935933 -0.010927544 0.031114746 0.011987656 -0.005328961 0.01646858 -0.013981057 -0.027449315 0.024343748 -0.0029916603 -0.01305637 0.026215713 0.00064726535 0.004608859 -0.00908243 0.0030241348 0.0071618664 0.006728946 0.008486229 0.007557744 0.017101923 -0.008732989 -0.0047187386 0.012319982 -0.026135221 0.011934619 0.0126574505 0.004828222 0.014688102 0.0001743893 0.0031882685 0.011328696 -0.00067214394 0.00018553108 0.021579077 -0.0154818 -0.0022252274 0.015649104 0.0015999805 -0.017558638 -0.0116547495 0.0050338167 0.0066896463 -0.014377106 -0.007478153 0.0071980604 0.03077817 -0.006273917 -0.017443499 0.01305806 0.024803147 0.00029980417 0.019399945 0.013114904 -0.035356667 -0.0045784605 -0.0031624134 0.001062429 -0.010837276 0.011426916 -0.016683033 0.020898722 0.02281894 -0.039443873 -0.020001566 -0.003930615 -0.014117768 -0.030265959 -0.0034138558 0.0127222715 0.009464562 0.008664403 0.0038466859 -0.00016486665 0.0013446506 0.009233455 -0.01678851 0.003202588 -0.022319915 0.009411618 0.004935748 -0.004274379 -0.003731203 0.011104013 0.005884813 -0.010504175 0.0015193014 0.0025740208 -0.018168945 0.01777587 0.0015974247 -0.010636661 -0.007980852 0.020315593 0.0008049102 0.010566997 -0.004795153 0.013402961 -0.0061109653 0.006231404 -0.015530908 -0.010364077 -0.0024922844 0.004593272 0.017295621 0.029612698 0.0025917261 -0.01118506 -0.005112073 0.022147777 0.016613502 -0.042344477 -0.0001252155 -0.0023136048 -0.0031388032 0.025425129 0.021915354 -0.010930923 -0.029619275 -0.021994216 0.012378036 -0.03541799 0.012727661 0.020326462 -7.101792e-05 -0.023763658 0.015356885 0.01202613 0.004969749 0.02102102 -0.01032513 0.017916983 0.006723102 -0.010068305 0.020259906 0.0143271135 0.010029177 -0.008476627 -0.0042957594 0.00028246312 0.006426557 -0.031030301 -0.00045027255 -0.024007494 -0.000283063 0.023137575 0.00087014615 -0.012033932 0.004550864 0.013652885 0.0012581216 0.033505686 0.0030662238 -0.03241435 -0.01245221 -0.021075068 -0.0026520642 0.024183227 -0.0076461034 0.02199606 -0.0062862076 0.011195988 -0.010258336 -0.00035666814 -0.02562197 -0.0118033355 -0.013817984 -0.036363218 -0.007824779 0.012766242 -0.015430284 -0.0069692894 -0.007466657 -0.03378942 -0.01587414 -0.020219106 0.000774176 0.002217869 0.01758908 0.023924528 0.022111518 0.0046447436 0.002679647 0.020245519 0.027184125 -0.018190155 -9.225379e-05 -0.001169149 0.010375499 0.0069307555 -0.0012560989 0.012954537 -0.021246752 -0.0031742093 -6.764674e-05 -0.014415163 0.008204584 -0.016276974 0.0025312828 0.009266481 -0.008047158 -0.003345249 0.01620338 0.012344742 -0.011891664 0.0034196952 -0.0023217455 -0.008789947 0.0014054195 -0.0056894254 0.0035970993 -0.007605417 0.010760533 0.016273025 0.009549282 -0.006676106 -0.0150617855 -0.023356615 0.013577799 -0.018455144 -0.006098324 -0.03622327 0.0024857917
nr -0.0014014761 -0.018255329 0.005286527 0.009717125 0.018059282 0.003978621 0.014049444 -0.0015375505 -0.008755623 0.008609 -0.006724318 -0.0012323874 -0.00048138446 -0.017365435 0.0064751944 0.010416238 0.012636567 0.013769536 -0.01337098 0.0243604 0.0017603694 0.0020198203 -0.0021382608 -0.01756004 -0.018602895 0.008751359 0.009688761 0.0073742103 -0.0046472796 -0.01285929 0.007932044 -0.005343553 -0.008187969 0.0064982176 -0.008719212 0.022705618 0.014908915 -0.0038425801 0.01762003 -0.00911407 -0.021930577 0.01774476 0.0013642372 -0.006238598 0.020118471 -0.0013017608 0.0049137142 -0.010816583 0.007265673 0.008825545 0.008832552 0.004405766 0.0061777765 0.01014035 -0.012606198 -0.0054845 0.015132457 -0.02386189 0.008348248 0.008120383 -0.0006812103 0.0076224613 -0.0034168528 0.0039042507 0.011160968 -0.005595411 -0.0026405724 0.0226975 -0.00915728 -0.009095 0.011656547 -0.0018892363 -0.0185774 -0.009119455 0.004005884 0.0026192842 -0.007752462 -0.006213162 0.0027456242 0.026718242 -0.00028426544 -0.013262107 0.011800959 0.022582281 -0.0017104482 0.021663971 0.010587843 -0.035428885 -0.001817179 -0.005814584 0.0009905347 -0.014805445 0.007204755 -0.012769585 0.020795159 0.014309805 -0.032636154 -0.016966235 -0.0009865991 -0.01447389 -0.02463005 -0.0024050013 0.0037885495 0.00950198 0.0061258827 0.0017255911 -0.0011253877 0.0021901205 0.007435487 -0.01723537 0.003320934 -0.02047799 0.0066448925 0.009698462 -0.003926936 0.0011456755 0.013167784 0.007280162 -0.0036227575 -0.00066483155 0.00091162714 -0.010225712 0.01502445 0.0007740928 -0.008332825 -0.0034889115 0.015513637 0.0048337732 0.0044409987 -0.00661096 0.012525007 -0.009549505 0.0049073454 -0.013697457 -0.0070646247 -0.006620607 0.0044880197 0.011504297 0.023812193 -0.0030267306 -0.009722317 -0.003054858 0.01736681 0.01617181 -0.035302855 -0.00690289 -0.00094562385 -0.0018795172 0.02167912 0.017662872 -0.009447916 -0.020111624 -0.016846955 0.013431081 -0.0272031 0.014033526 0.01854221 9.4677984e-05 -0.021217719 0.008460309 0.013140251 0.0047318707 0.017108949 -0.005576238 0.012078894 0.006573207 -0.007643832 0.023983363 0.0148634985 0.0070653213 -0.009999177 -0.0037842104 0.003259449 0.0076773125 -0.026037935 -0.0065846983 -0.023981437 2.8583603e-05 0.014885739 0.00039248576 -0.006008222 -0.0014078495 0.009227418 -0.0032142606 0.025914473 0.0031843428 -0.032261178 -0.009430355 -0.022364296 -0.006329651 0.020910267 -0.005510027 0.020928632 -0.0023757676 0.006672117 -0.015285051 0.0013844849 -0.019608248 -0.0060641165 -0.010657465 -0.029479574 -0.0072579 0.0057462133 -0.01271404 -0.007190978 -0.0018409112 -0.0322282 -0.008433044 -0.018466314 0.0008214072 -0.0029679132 0.011638823 0.025341813 0.013705122 -0.0034112164 0.0010883524 0.013851851 0.022392776 -0.017206816 0.00042973447 -0.0025083274 0.00915845 0.011047882 -0.0011074264 0.0056416965 -0.016053772 -0.0023228102 -0.0004901387 -0.005707202 0.0033606088 -0.013838733 -0.0011366544 0.006452422 -0.013989485 -0.0036535352 0.01471709 0.0129010305 -0.008941324 -0.0009920598 -0.003718109 -0.0017056502 0.0013237735 -0.0038905062 0.0069361855 -0.01288388 0.0060639693 0.0091269165 0.0077012246 -0.008490004 -0.01713058 -0.019312786 0.01133067 -0.012515381 -0.0028868162 -0.02745863 0.003916153
Ae10 -0.0014481576 -0.016863689 0.0068904525 0.013762856 0.023726936 0.0024476594 0.014176958 -0.0013986068 -0.0038535052 0.009155314 -0.008882255 -0.00041721258 -0.0032076063 -0.02008529 1.7652463e-05 0.013991909 0.009554421 0.011675046 -0.015531949 0.025481546 0.00732932 -0.0008459732 -0.0040358384 -0.01776646 -0.016935244 0.014449453 0.0036376126 0.0071912115 -0.007509104 -0.008211369 0.010103386 -0.0017617366 -0.0017240485 0.0018285037 -0.006944214 0.0223242 0.00971345 -0.0075745094 0.015421434 -0.015198147 -0.02777752 0.023346351 -0.0011214953 -0.014225457 0.026010098 -0.0010615627 0.0027633153 -0.010605351 0.0008095716 0.012577495 0.0075408267 0.010297295 0.0062297205 0.010515146 -0.014832973 -0.009481195 0.016067738 -0.02356697 0.00733773 0.00920428 -0.0006852144 0.012065782 -0.0037249927 0.00555892 0.009738258 -0.00068896817 -0.0038876876 0.02130526 -0.014569872 -0.0056863157 0.01352529 -0.001016855 -0.018511059 -0.0063918466 -0.0020798303 0.00015377364 -0.015431515 -0.0043210657 0.0022663225 0.0234452 -0.0012520105 -0.017643472 0.013892845 0.025337888 0.0023219008 0.01968326 0.0121951355 -0.03304084 -0.00059689936 -0.005374879 0.00059099856 -0.014335464 0.0049814554 -0.015540158 0.020528862 0.016225493 -0.030282384 -0.023144579 -0.004471623 -0.019883718 -0.020296173 -0.00065145746 0.007106993 0.012912892 0.009364345 -0.0027141555 -0.0064420826 -0.00034353638 0.00801628 -0.015447723 0.008814116 -0.01916156 0.0056483173 0.00417625 0.0011021529 -0.002035342 0.009505251 0.0008777551 -0.0071780784 -0.0013541229 0.00020678164 -0.018272297 0.017316299 -0.0033235077 -0.010458033 -0.0048439326 0.011256409 0.0036255345 0.0046664705 -0.0032781116 0.013735797 -0.0062438543 0.005446857 -0.011918881 -0.006902134 -0.003377114 0.007017726 0.013155066 0.0255737 -0.0052000294 -0.008775209 -0.0013265933 0.01668331 0.013756996 -0.03658242 -0.00022668755 -0.002234668 -0.0031335272 0.026798986 0.018811107 -0.012212299 -0.023103062 -0.018934038 0.009503067 -0.033095498 0.015020378 0.018858586 -0.0012710547 -0.02641534 0.008336077 0.011492924 0.006229627 0.01591015 -0.008544253 0.017310023 0.002520628 -0.008032717 0.017399637 0.01791377 0.005308428 -0.010430725 -0.003627571 0.003613662 0.0056622755 -0.028160041 -0.0019033684 -0.02699938 0.0030840817 0.022545742 -0.0016352554 -0.008952751 0.003483772 0.0058627794 0.00076687854 0.03092198 0.007037419 -0.03404847 -0.008344426 -0.023743566 -0.0009850588 0.02566079 -0.0074471333 0.014513345 -0.004268937 0.009681894 -0.010800081 -0.004740358 -0.02343719 -0.010681382 -0.0070163435 -0.03216135 -0.0072038886 0.009262207 -0.01712571 -0.004177174 -0.0057672346 -0.03301722 -0.01687438 -0.021644212 -0.0023780938 -0.0013359772 0.011444644 0.02668025 0.021895736 0.0032398116 -0.0023022778 0.019041562 0.024736594 -0.022872483 0.00049958256 -0.0070096515 0.0110742245 0.003980709 -0.0016706439 0.011698963 -0.01563358 -0.00937506 0.0057129716 -0.007997773 0.0014049 -0.010416033 0.004342216 0.008103591 -0.012565466 -0.0029742788 0.016137445 0.0063963775 -0.0058584125 0.00026639274 -0.0061396374 -0.008007295 -0.0026129498 -0.0037698338 0.0063004023 -0.009531802 0.011561138 0.013414572 0.0033417456 -0.010171975 -0.015859999 -0.01899058 0.007185083 -0.010766894 -0.0051438673 -0.033402666 0.00446585
